-8.771589052741400605e-02
3.019824600040767471e-01
1.881610834619958650e-01
1.211764925032837309e-01
7.551406266375922105e-02
4.302640234178653489e-02
8.153743792599751211e-03
-1.371738146049874818e-01
1.424418916005651681e-01
-9.775857254730878354e-02
-5.312394212656548764e-02
-7.299993120532463631e-02
1.905243753251388561e-01
3.362954422213723649e-02
3.356865153199860285e-02
1.152866289905465635e-01
1.120380901635824045e-01
-4.095632099662220305e-01
1.126907362939437857e-01
-6.172267320057146789e-02
-1.626029086240400046e-01
-2.172382467058699140e-01
-5.125649129512645924e-02
3.721385168703331137e-01
8.217928034812481408e-02
1.937112503958942078e-01
1.759052535232261127e-01
1.828929653717888404e-01
8.669411231861887113e-02
1.582621029943447610e-01
2.124835731058660193e-01
-2.957532698726181297e-01
-1.431522086804588589e-01
-1.520327734610992798e-01
2.452205975767375035e-01
-8.020805410544937231e-02
-2.287644995267524572e-01
-3.182846291224847302e-01
-2.569627110745595355e-01
-9.443496896193762091e-02
-2.429647732037422125e-01
-1.237346234498428038e-01
-3.846468469347303354e-01
1.967913152434526414e-02
-1.895201312017796014e-01
-1.695907814315395501e-01
-2.002425404894727090e-01
3.604133467184471029e-01
2.527398323336298436e-01
2.640115775701589174e-01
-1.033779588968806659e-02
2.881114514584133812e-01
1.451737719529104242e-01
1.419568126721179602e-01
-2.164190761735942381e-01
-1.187471306276867700e-01
-2.735228312723751443e-01
-4.181070350315971990e-02
-1.046562753092822040e-01
1.889744681705062546e-01
3.645909924052222195e-02
-1.910714523231941409e-01
-1.068829931059939037e-01
-3.368210212287413297e-02
2.598313098933842658e-01
1.799290999542525749e-01
8.976184765801598076e-02
-1.638651965093795848e-01
1.960099134551222533e-01
-2.174277466858730024e-01
-1.380777702077810309e-01
2.507890618328713073e-01
-9.640380824442462693e-02
-1.185844557472278127e-01
3.035430228023519583e-01
-2.393461817485711407e-01
-1.001006546407784831e-01
-3.040737349767007047e-01
-2.792854314205071575e-01
1.568753621697264733e-01
2.894078516902657827e-01
-2.112146740589526117e-01
8.625973648870817467e-02
-3.340674681948947455e-01
2.166973241214190660e-01
-1.744557154581978797e-01
8.254789659180236661e-02
2.209356894655511439e-01
-2.263924286025918720e-01
1.967530906416119496e-01
-1.942804918193919983e-01
-3.561335457218853251e-01
1.527826259678919663e-01
-7.521204639888874610e-02
1.926766407568077100e-02
1.313640866488665626e-01
-1.301718223162370569e-01
-7.676596891972477243e-02
1.770532461855772177e-01
-1.822182437483154394e-01
-2.241165513168216425e-02
6.431243881404444251e-02
8.775087055527186486e-02
4.010260409278822158e-02
-1.439996623455644213e-02
-1.965300374056110772e-02
4.913961479224033396e-02
-4.885620558423724169e-02
-9.564007829696963281e-03
-1.033560538359446362e-01
4.189109777560939135e-02
3.402200922220592616e-02
-3.117292665128642767e-02
4.295094259966165257e-02
3.425855607579726680e-02
-1.104640606606497634e-02
5.259038340327393951e-02
-1.506043022240041440e-01
-6.767424561862505489e-03
9.305650480507418956e-03
-1.682380582682529713e-01
2.777783616520076992e-02
-7.079699129666040813e-02
6.766436285960097941e-02
6.469775334191988844e-03
-1.598550819238521437e-02
1.762138702733605927e-02
3.071468042194039870e-03
2.588242040455562484e-02
3.570106180353155301e-02
8.348938414416529064e-02
-3.925561132167892930e-02
2.943968705010524285e-03
-3.355777351389135216e-02
8.513894361961744581e-03
2.987246459969563478e-02
-6.516729265135891291e-02
-4.632378288229297564e-02
-6.941524164590455459e-02
3.327802855344891980e-02
-4.436385375957647981e-02
-7.147033575381110670e-02
-9.581130395038794934e-02
1.349381712645697506e-02
-6.009799004465175148e-02
3.193981880928626477e-02
-6.651056868452020175e-03
1.451848973436070389e-01
9.686968209197428792e-02
1.125744084709218301e-01
-3.720499742540972488e-02
2.693312153066501971e-03
3.673081308875605910e-02
2.620713999549908677e-02
-2.720058558972529572e-02
-2.254853228887800012e-03
-3.977041533997468375e-02
-1.112560113375305609e-01
-5.702718740516159179e-02
1.059770762329444588e-01
-2.584858054458131355e-02
2.742292270817831175e-03
8.891513250027636983e-02
-1.076302981822292032e-01
-1.153637800650389629e-02
-3.563205187310157507e-02
-2.109253130630897935e-02
-2.968033549433437418e-02
5.309537188870073338e-02
-5.376337506545646877e-02
3.674890961550623253e-02
-1.587015140027153715e-02
-2.215957718722670958e-02
-1.287698803659397540e-01
1.147619223896066548e-01
-8.241631891346622163e-02
3.001060649653783732e-03
-4.159694353928308080e-02
-1.108236634093878216e-02
9.987798629972521880e-02
2.753563213320610412e-03
3.028974656973396420e-02
-1.188075874583986724e-02
-1.276426036055738900e-01
-1.805644670041813005e-02
-1.851391496541927991e-03
3.361549798837096259e-02
-6.222737433852212896e-02
1.506650652259387997e-02
-3.207918325510979163e-02
-7.239343759585972760e-02
-6.900470172194680951e-02
-2.187700204736617998e-02
1.159924965420365967e-01
1.620102005541545348e-02
-7.658876538898920505e-02
-5.823688193892403997e-02
-1.461104633220242088e-01
9.604832959827057370e-02
-1.337237882061817831e-02
-2.745105555548698131e-02
3.548973931080141864e-02
1.999663722154609510e-02
1.619308688610326258e-02
1.426545617780495753e-02
-7.391365983724078326e-03
4.114348859066964403e-02
-3.043273358426033109e-02
9.584671462925957452e-03
-1.479794824990806647e-02
-4.880395394526553833e-03
-1.144909451711950861e-02
1.528726236770970928e-02
2.664582764422452135e-02
8.561793424277050826e-03
-1.352872263158902411e-02
3.826954685948534551e-02
-7.352921117282031072e-02
9.465333685354563285e-04
9.707216271596290011e-03
-1.160344450438388214e-01
1.473034706108377126e-02
-2.039771346343740785e-02
3.579878309795528346e-02
5.103661803646471207e-03
3.525014658847459154e-02
1.879897943632071605e-02
1.574274772553956731e-02
2.615934842999287704e-02
2.682997791123283016e-02
6.721556013712938482e-02
-6.379874213354493583e-03
-1.804067538427544734e-02
-2.511851937735727278e-02
7.568236617015734399e-03
-1.200514130854188517e-02
-2.043959248739454782e-02
-2.576656126572190314e-02
-4.236339818765523513e-02
2.023009843442989328e-02
-3.346790296667827985e-02
-1.869999148560521143e-02
-6.842265479627798741e-02
7.719975949794882948e-03
-3.229212635299590073e-02
-3.008199700441868164e-03
4.576975046834920978e-03
5.986906577077485969e-02
2.755196598857986151e-02
3.753893232996467072e-02
-3.517455409610048545e-02
3.900533274007144530e-02
4.057966018558974847e-02
-6.770365295886831289e-04
-5.413091378371278489e-02
1.422036323361170092e-02
-6.399405053648602425e-03
-2.915952395682909482e-02
1.612011605274233858e-02
4.655025426824741658e-02
5.342614382071715282e-03
-1.142637316044552154e-02
1.984204731883073072e-02
-3.576502888408253367e-02
-8.597392714561027244e-03
1.505619281371805554e-03
7.594252188375468123e-03
-3.044956949471920929e-02
6.820992463145898743e-02
-3.891305106545111386e-02
-2.155281459366905489e-02
3.311728738122813459e-02
-2.514094870755490679e-02
-4.669244475569762909e-02
5.156612997807100141e-02
-5.518514206532204591e-02
-4.820079689069476508e-03
-3.014485160513254158e-02
5.128858967634445688e-04
4.166294069089885449e-02
1.308698421472149175e-02
9.265233858479123832e-04
-6.934680626333887890e-03
-6.577469074215758216e-02
1.900232589999356625e-02
1.805660228150646543e-02
1.467028371100001158e-02
-1.685185142918435922e-02
-1.906738593476358518e-02
1.981154655909821496e-02
1.582998390674254796e-02
-6.815001522561552061e-02
2.704195318666705733e-02
5.728709626811334665e-02
1.261765258403156099e-02
-2.688891875694552139e-02
-5.443002766741034115e-02
-4.979420536780973516e-02
2.799439171599488185e-02
-3.234688247742531497e-02
2.498496757653839630e-03
1.585746439922326723e-02
-1.299349887323517257e-02
9.365159153718567026e-03
3.405967362544340773e-04
-7.968361012871360421e-03
1.129640123666247886e-02
3.793275326972534150e-03
-5.756901446294547357e-03
-6.969699962702370286e-03
1.075104250082273977e-02
8.345989354731065107e-04
4.323542941951106187e-03
9.573005559131595940e-03
1.183741985075492317e-02
7.963426343884970424e-04
-9.004009960432482126e-03
6.526366539228331716e-03
-1.689351676815351727e-02
-5.539268430360770427e-03
-1.025442640882858825e-03
1.408294495577588033e-02
-7.626822638910983262e-03
1.468693924508930430e-02
4.631632071196733515e-03
9.264919931179527515e-03
-1.967375333975500840e-03
3.152800000595811034e-03
2.816497357575030187e-03
-1.269251125291423303e-02
5.881287559937050519e-03
-1.149236129291394092e-02
-1.880161349906757373e-02
-6.176711289411244629e-03
9.348882117631466399e-03
6.191638210124831773e-03
-8.084477512032903559e-03
4.560782584445630984e-03
5.218690751775448972e-03
4.698724857870081005e-03
-9.222240119343675172e-03
5.085725492114662530e-03
-1.063901882198639570e-02
-3.063280596862199136e-04
1.249448132264358892e-02
4.954258512601739280e-03
-1.534480811294420058e-02
6.758217132967825509e-03
3.402225295515522684e-03
3.685516306977424175e-03
1.164936684301700297e-02
1.137126621284056949e-02
1.262896919446601131e-02
3.129183969237051086e-03
-1.643569970960035223e-02
-4.012672081756386388e-04
-2.152365077697782417e-02
-1.279125098065366124e-02
1.091787860096670197e-03
1.265270126431099944e-03
1.228628264776237015e-03
1.717095707249793532e-03
7.465919238856993760e-03
-6.873632826256222475e-03
-4.376685498288411351e-03
-2.333868998461869487e-02
5.077893322490379009e-03
-9.928792733220187777e-04
-5.005060280637617723e-03
2.865708203858151944e-03
-2.687751346511032483e-03
1.421016210219735662e-02
-9.148190371785281869e-03
-5.562999770810349472e-03
3.084001120152445995e-03
-3.805218595360148302e-03
2.745800819885521341e-05
-8.399885762654208179e-03
9.305027512187083114e-03
6.053773105442288721e-03
-1.268051646594660483e-03
-2.040134287620581216e-02
1.467136361724070623e-02
-9.101496594173452345e-03
-2.654353600435881057e-03
-6.984123582886113792e-04
-2.129232097436025567e-02
1.320352668332645980e-02
2.312059650960912767e-03
1.476204358744499096e-02
-1.100669288111664167e-02
4.321127611229860256e-03
3.212643298238265950e-03
9.901595215929370752e-03
1.754421281575866938e-03
9.771496226217049608e-03
-3.903847652658155604e-03
-3.707099410766241708e-04
1.464244158703240442e-02
-1.605752339945222540e-02
-6.043825767008029898e-02
1.663625985290841103e-02
-2.948730754753047651e-05
-1.130118078854152296e-02
-3.784427106644152466e-02
1.908938473256842003e-02
1.788489246143666958e-02
-2.289896170258979083e-02
1.414043314252506033e-02
-4.012329122252609320e-02
4.774454296338660059e-02
4.761971493402553796e-02
-1.544814231361009253e-02
6.167044036044494471e-02
-7.180106369208545149e-03
2.855472677435450315e-02
-5.276502153981334903e-02
6.893741631280329851e-02
1.685648982034688992e-02
1.515335596388350196e-03
1.053809769480043429e-01
-2.785170815911455766e-02
-2.449102083599632648e-02
-3.651028414530266188e-03
1.959749429130107357e-02
-5.079164861755097737e-02
2.235095198961534625e-03
-4.402856556263233523e-03
-4.799385351950279793e-02
-3.899275597355492118e-02
-3.828111980283063764e-02
-2.838640879209373621e-02
4.078422666998695462e-02
-1.271522593011839043e-02
-2.323636717638050131e-03
4.865629410492158802e-02
-5.837201403542931037e-03
1.852029803943075785e-03
-1.336009590217187779e-02
-2.595410636962042390e-03
3.661118489026581047e-02
-1.067025784011887838e-03
4.449353854324029911e-02
2.471170427270035636e-02
3.410362471428057124e-02
3.916233262085069139e-02
-5.341284271025865124e-04
-9.924363998478784310e-03
1.470458901766934570e-02
-3.787150592501975412e-03
4.165662052554050185e-03
1.690369374533894423e-02
2.727599865017944769e-02
-6.357184712227532258e-03
8.659629236197291524e-02
3.108653422231797206e-02
-7.985874764745163473e-03
1.542756322651371061e-02
-3.889840293280778794e-02
-1.839078686307564492e-02
-2.959023308708911768e-02
1.861380560692788358e-02
-1.725844186293114257e-02
-1.326492575553537244e-02
-3.172277963990244309e-02
-1.009553877149520738e-02
-2.429949978471891356e-02
2.802698011056744057e-02
-6.398927124805224576e-02
1.973177206209004303e-02
3.545192930372413620e-02
-4.311717512367284344e-02
-1.181037197704118760e-02
-1.239660458489328515e-02
-2.019829992191120999e-02
2.449623574760359523e-02
3.548004845123526457e-02
4.586030163206308852e-02
-4.654995134760540193e-02
1.812124589437266037e-02
5.773024305624926966e-02
3.196867473773762347e-02
3.168338331631376237e-02
-3.635717326226129559e-02
1.781016648059110391e-02
-3.416506438800141071e-02
-2.451319462397473503e-02
1.764172693896325084e-02
2.783039027337276712e-03
-5.401111847221592988e-02
-5.709125583497826062e-02
5.775747727845577384e-02
-5.189731226094742439e-02
1.203218986732979522e-02
-3.599949694642548548e-02
4.892349978872146364e-03
2.754912929556024848e-02
-1.280131314463183942e-02
4.348793483391180659e-02
-4.097635417443954049e-03
3.025099710932492841e-03
8.121253579726732050e-03
-1.050222158762394165e-02
-1.050881455251918319e-02
1.012964643124435529e-02
1.401413612300865183e-03
-6.911187092892645024e-03
-1.314079185949302599e-02
1.409319857300483751e-02
-6.535831180211665661e-03
-4.246960266380769150e-03
9.230964134083445224e-03
9.103469338787899962e-03
-4.062050538531437535e-03
1.264978452881184920e-02
1.566161449719372578e-03
1.149530932851537506e-02
7.323144578336988723e-03
8.372713527382462731e-03
2.933809903731017434e-03
1.396217960295500875e-02
-1.168262111507785590e-02
1.128354156243388052e-03
-2.028270256765293041e-03
-5.185302660495834381e-03
-1.634302353699092214e-02
7.743091243411626481e-03
-3.783113167894733547e-03
8.121846118914614540e-03
-5.442833428373909481e-03
-2.792628807248680352e-03
8.794743281613422517e-03
7.799909886725778577e-03
9.893888578255835564e-03
-7.929167273076501501e-04
-3.411513112504757812e-03
3.002656034150172088e-03
-7.507589935967865988e-03
-5.847712709358468368e-03
7.324707426731715681e-03
-8.831509888761539598e-03
-3.747143920645118389e-03
8.226051516970528735e-03
9.173710427322205900e-04
-6.317465086855770379e-04
2.446595315131852577e-02
3.839537553452582446e-03
3.498394717329374876e-03
-5.162285561357747576e-03
3.638554565849532168e-03
-2.079156188616380300e-03
4.921285722715107447e-03
7.262277457941558947e-03
1.661668662443547759e-02
2.283998899023878537e-02
-9.716287915298261330e-03
8.236469146032515676e-03
-5.252014636309382083e-03
4.457082398857939096e-03
-2.365384932491087361e-02
2.386475308983766405e-03
5.543048807926609367e-03
5.571610323505365135e-03
-8.132598083150709839e-03
-1.389006343730032206e-02
-1.202073086570066597e-02
5.417625046389526900e-04
-2.395324148717216817e-03
4.707753699559791456e-04
5.075135386958432894e-03
7.053051501852498212e-03
-7.195702946303016850e-03
-2.367282468744339591e-02
2.995760372928358856e-03
-3.109426990994707289e-04
-8.199563097147219079e-03
-7.337045308227943541e-03
-1.172760227329863389e-02
-1.932450864490025538e-02
-9.751573568938616196e-03
2.573832406080119907e-03
-6.189525867343339052e-03
-2.247837774486359172e-02
-5.043871246193591673e-03
1.130670547393681884e-02
-7.002056420767023212e-04
6.588445062980410882e-03
-3.574936800444176305e-02
1.405934712432099949e-02
1.122169606507442303e-02
-3.010528068386367911e-03
1.409713095844514772e-03
-1.862397754022027813e-02
1.264038951760084600e-02
1.264060777213310907e-02
-9.533898151058397413e-03
6.970989801259999457e-04
-1.458608706029652750e-02
6.393133666038567677e-03
7.076769077385666783e-04
-3.125342939010966603e-02
4.823181608369937062e-02
6.050563545887078370e-02
1.298963510004472188e-02
-1.363334077935290586e-02
-5.898187449827340355e-03
3.099101749007759227e-02
-4.919397388472167981e-02
-1.939773592056916185e-02
-6.225068659976377983e-02
4.154368684052273109e-02
2.210016225181641106e-02
-1.222230977792755288e-02
4.156555856972194568e-02
4.985430682003870462e-02
5.891547057322966269e-03
2.337790712132507484e-02
-5.521517721899898978e-02
8.590237818007372475e-03
2.786076171101736776e-02
-7.984510508580902610e-02
3.642251130600215880e-02
-3.916710877743296432e-02
-5.101207099546229730e-03
2.416052205924204901e-02
-6.515170069917324350e-03
8.066584162584829187e-03
1.697448750365488854e-02
1.095678154806468615e-02
-7.198663645251928388e-03
4.264153770958336448e-02
-1.674416095176563604e-02
2.738518655086314216e-02
-1.463379641687348465e-02
-6.363922569940810847e-03
2.871826447041151212e-02
-2.982501143280382946e-02
-1.283664345097874741e-02
-3.166023381849001478e-02
3.237049382798703329e-02
-1.781861795157926517e-02
-7.856728733198538664e-03
-3.464491119513281314e-02
3.793861690690306793e-02
-1.604445794620708646e-02
3.021370052643763612e-02
-4.354700589296384670e-03
7.998821545844113368e-02
5.862855341439419249e-02
5.768382629288637542e-02
-2.566788033205465516e-02
6.118274467916352821e-02
3.631861088960826323e-02
1.042245167037576976e-02
2.409890916991389367e-02
1.492851577683100388e-02
-2.037104038161991620e-02
-4.504516933274500118e-02
-1.296408727640984380e-02
3.673931801095080274e-02
-4.313553511585147687e-02
1.557926578807887312e-02
3.574852974326837851e-02
-6.102284438510677256e-02
-4.162937960461281922e-02
-1.902844834844096000e-02
-1.369445131326789064e-02
-9.973111530892636925e-03
1.397557195907705215e-03
-6.872988488644335078e-03
1.494386043957749745e-02
-2.030062447405955178e-02
-7.387717022330949831e-03
-5.164876858649937452e-02
5.071526126099559773e-02
-3.935882985392769040e-02
1.240437127294251492e-02
1.527942985038283075e-02
5.736697486031629677e-03
2.581340266894401395e-02
1.307767466568147442e-02
3.295180034125796270e-02
1.145601491524883347e-04
-7.116072141842497145e-02
1.852823042586319163e-02
2.554431834987988884e-02
-4.764194691485760386e-03
-2.505157267365089660e-02
4.473703486296344220e-03
-2.964270186496203302e-02
-3.587046940560399688e-02
-2.004252442000763537e-02
-1.081755145441703689e-02
6.184799559986399464e-02
1.065349125144167061e-02
-6.754611584776447353e-02
-2.006602956790409786e-02
-7.065764084242724674e-02
5.748698443082728149e-02
-1.878693327764905524e-02
-3.222010584138680113e-03
7.264049815468990798e-03
1.576693374663372393e-02
-1.413585652301508570e-03
1.164168935242535820e-02
7.490492923780220358e-03
-1.538372863104120469e-02
2.210223844598698320e-02
-1.078912508471802437e-02
-4.956813358085842246e-03
-1.483432183829432559e-02
-2.964696034708365693e-03
1.319462738276213493e-02
4.833023509178661242e-04
3.149736676958587046e-03
-3.852449187982248668e-03
-4.425871461791552539e-03
-6.728674541188692411e-03
-1.664269206436131115e-03
-3.722625275868272476e-03
-6.636760866743009353e-05
-3.017393399954671103e-03
4.508308480644484216e-03
-2.601706945755362984e-03
-1.184583016523215859e-03
1.318258750159871390e-03
4.492800906550213939e-04
-1.142373087636068714e-02
1.672293193200139264e-02
-4.690109626128076067e-03
1.359157599638414387e-03
7.721139853863808345e-04
1.938691841576914042e-03
-1.198934804044569577e-02
3.267340376213066083e-02
-1.050240298960525634e-02
-2.785064125267875789e-03
1.624849750631539649e-02
1.352784432205616019e-02
-1.132675500354547206e-02
7.711348730618729393e-03
-1.714644418840310242e-02
-3.680624133474024329e-03
-1.287373483542277389e-02
9.847916986948772669e-03
-1.092566185762375991e-02
3.237470528313891871e-03
9.111845472970520748e-03
-3.523397192074685744e-03
7.866085970266412444e-03
-1.824259317879330447e-02
6.743700148495473772e-03
-4.311929787401367134e-03
-1.427127046620780930e-02
-1.035283460961232069e-02
1.217586562067042577e-02
7.814984044992053999e-03
5.808519581449718069e-03
1.168337797611282251e-02
-8.146315090478951915e-03
-1.773965654603268730e-02
-4.201719596388305521e-03
1.847444150033719233e-04
1.929807875440655912e-03
-1.241349817485201158e-02
1.652897802374781941e-02
3.124116002487649976e-03
1.415169741570511354e-03
1.376159888007398851e-04
-9.051092479480509281e-03
1.282191956833005943e-02
-6.911603356386940462e-03
5.275661849275383266e-05
-1.062884040107383091e-02
-3.825186125220634919e-04
5.538567962594244214e-03
4.845075863177157258e-03
-5.402873641667644243e-03
2.264520225677471230e-02
2.217733751588928353e-04
-8.506042964340524652e-04
7.967022498865875945e-04
-1.146183412579465308e-02
-6.913429582034811421e-03
5.015105143567724286e-03
9.795161153292307812e-03
-1.821517182459049880e-02
-4.946019221321500473e-03
-1.785883486673377554e-02
3.102579887496839314e-03
2.832057286124466805e-03
6.255629536164618310e-03
7.105264032838634614e-03
6.580759413783688998e-03
-9.315022202036149154e-03
-9.495769616878714167e-03
5.896098445046221020e-04
1.225802615907775964e-02
1.496183636235239207e-02
-1.324308918463798154e-02
-3.645524620832855250e-02
2.786313726168162044e-02
3.845673733594381222e-02
2.523921170482860618e-02
2.188579265232750565e-02
-1.263254681236944399e-02
2.690324800684601534e-03
-2.663661149882203677e-02
2.434686048377998624e-02
-3.962738662322692201e-02
1.412534677807468844e-02
1.061247097400218851e-02
2.427353460372483340e-03
9.296067518640083877e-03
-1.187297168383874687e-03
1.669146415016331195e-02
-2.165649252903205715e-02
-2.071105717255479484e-02
1.411664190969873917e-02
2.977529673604322608e-02
-1.228337762630585944e-02
-4.548237649308495278e-02
-2.690596901786798320e-02
3.337028626934077091e-02
2.573390021694633989e-02
1.624043829119561997e-03
-1.288354579789202994e-02
1.046418641646203011e-02
6.106873484853401427e-04
-7.599915916643419644e-03
8.606374433795440509e-03
-4.225178230302432947e-02
-1.328037391762308672e-02
-3.162487429787299437e-02
2.267844143054408707e-02
2.375320364933891301e-02
-6.221035529361377842e-04
-3.270105392996058152e-02
-1.670298127749324582e-02
-2.102328448493025539e-02
-2.478176839618906335e-02
-1.049339660797093780e-02
-2.538147297603764174e-02
5.138472662204857620e-03
-1.887701035577420486e-02
1.209928675652707959e-02
-3.224045405059784708e-02
4.617504782828799059e-02
8.548886683103981698e-02
5.086578297042729235e-02
-8.030819378215115064e-04
1.050518346364015358e-02
5.139790603910279407e-03
1.424837813382741174e-02
3.386316305027769341e-02
-1.821128629130803339e-02
-5.909371850886650096e-02
-1.197376363400119714e-02
-5.685921416987742977e-02
-6.177821789903412001e-04
-4.345785373898296278e-02
9.244588490892177365e-03
-1.005259028121233134e-02
-2.962575306836194924e-02
8.640369142580544767e-03
2.875189759767365905e-02
-7.467169476028110223e-03
-4.953663605262471903e-02
-1.518392326687837725e-02
-3.438764451715874138e-02
9.417704824074215816e-03
-1.869548544144903832e-02
-4.295896425714824940e-02
-1.576361120887628808e-02
2.225289115937206796e-02
4.853498655893858575e-04
-7.803762901674121764e-04
-1.006767836402807856e-02
-1.650453439925365917e-02
3.954838949590881725e-02
3.768656987405642755e-02
-4.262747499152552688e-02
-5.706382986703427591e-03
-6.708461609886555432e-02
8.816974704797087004e-03
-6.040057549346190130e-02
3.309921177454085844e-02
1.292854311489857744e-02
7.869761579896290132e-03
8.423115764738264150e-03
-7.688353521930670065e-02
-1.371282934765226565e-02
-8.922473987624260361e-03
5.433430630441676151e-02
-3.539303836331555812e-03
-4.725626028286985733e-03
-4.674409527806408851e-03
-2.796485632188743659e-02
4.109130640519719629e-02
-4.281299351345051879e-02
-1.211513997192810790e-02
-8.020855812519711581e-03
-2.234117814124888472e-03
-5.945255122540567087e-04
1.176788758750673888e-02
7.937780099437938969e-03
9.564039953297054017e-03
8.908902214859201404e-03
3.206147322569333560e-03
3.706618514283955331e-03
-1.412532937316915947e-02
4.871278807984691026e-03
-7.462301857948453777e-03
-2.263942603635769532e-03
-1.452021314616915373e-02
-8.709150312231343782e-03
-2.035505428004970828e-03
-7.638416535438655522e-03
-1.451361109345848839e-02
1.317644261775448647e-02
-4.422294849884334141e-03
-4.520857609478703271e-03
-6.753542437096177360e-03
5.642804697909680096e-03
1.909251418413240170e-02
-1.565705585323106871e-02
1.669368746052785416e-02
-1.118682404156036078e-03
-6.341051095564078678e-03
1.443178577632930719e-02
-9.672544343273744433e-03
-1.118064081515579566e-02
1.645372299066753807e-02
4.365271679804703410e-03
-9.731460398941106757e-05
3.079270096526611628e-03
-2.192020354414273703e-02
5.427617324000804516e-03
4.050145725748275499e-03
-1.334229359988488468e-02
2.164331970090095734e-03
1.470546854900739615e-02
1.016883958819940828e-02
1.272210725343488752e-02
9.546356347469680398e-03
-2.645026264229058052e-02
-1.224800762253678774e-02
-1.678858870301199032e-03
5.865122721172942935e-03
-6.852293327316603261e-03
4.148239131560398606e-03
5.748403083665165961e-03
2.156960438244629689e-03
-5.388152664937286007e-03
3.806474034687232048e-03
-1.398283580743714350e-03
-9.505648960189079510e-03
9.306467366875599903e-03
-1.337493499968296466e-02
1.129473967946138802e-02
1.035061188292079508e-03
-1.523255513155463529e-02
-6.519263702327058457e-03
-1.285434867429652468e-02
4.634262880228510843e-04
-1.116661739388286750e-02
1.470540452644091868e-02
-1.724087426370789211e-02
-7.716876947811947100e-03
6.964413006246036701e-03
8.576518184552310922e-03
-1.489556334205205217e-02
-1.988495024881222796e-03
3.837812026359750227e-03
-7.942338259188948257e-03
-4.242213037799272279e-04
-7.862701400652677419e-03
-6.581953448973627135e-03
4.128876362699549288e-03
-5.433549948172800882e-03
-5.794037332609696875e-03
-1.145886526959185745e-03
5.334323644344006292e-03
-8.576595071748406920e-03
1.707854471565293727e-02
-2.635839412655031303e-03
9.404747781952334240e-03
6.680129790181294457e-03
-1.064551788157456699e-02
-2.486457591884524108e-03
2.048997412088953991e-03
1.116925254652855436e-02
-1.512714815511023887e-02
3.723184979543898727e-03
-2.457910156938876607e-03
4.005882626286151951e-03
7.644822027252359126e-03
-9.376228474648888242e-03
1.871566946234472575e-02
-2.060292549108500883e-03
-1.938014357420135905e-02
1.616574033224868479e-02
1.737786435237030289e-02
-5.622150855428617719e-04
1.145075713522952440e-02
-4.921422169955786373e-03
4.150721385616224293e-03
-3.904767357526857385e-02
5.533622036406827399e-03
-1.661770321705061462e-02
2.269274171045669239e-02
1.343782612646783961e-02
5.960971151049251036e-03
3.337888268598300512e-02
-5.561263056707739516e-03
2.357731293932413888e-02
5.097270004592522642e-03
-4.654066289064485128e-03
1.728818878705130208e-02
1.456134741962866741e-02
-6.420133142256320181e-03
5.208942038132573747e-03
-7.034367798213586077e-03
-1.160828570338605543e-02
5.858014355639910679e-03
-1.876058010955153690e-02
5.687351033586164444e-03
-4.148302093072237830e-03
-1.411210998108227213e-02
-2.752255168764964829e-02
-7.575151396113636486e-04
-1.833033116164227427e-02
1.487475015233206965e-02
1.112346700990677999e-02
6.797186021264381732e-04
5.540950207578352292e-03
9.123852526619596892e-03
2.746470735012811887e-03
5.241159266627106253e-03
3.694773436848007575e-03
-9.383864125177453913e-03
-8.678262859006498700e-03
1.393327217732503488e-02
-3.620867643597409577e-03
-1.705398295912665145e-03
1.713252171039273200e-02
-3.499875935222981037e-03
3.095646859618007493e-02
1.982824864783978847e-02
6.716104202922702597e-03
1.292079058002503812e-02
3.423128230262113131e-02
1.702720813140818495e-02
-1.682874053795781200e-02
2.287238129922340366e-02
-1.145767936139779420e-03
-1.581643889434463865e-02
-1.112364757809659530e-02
-1.337115702057038724e-02
8.512604294137015096e-03
-1.703217191896395921e-02
9.778346117165780810e-03
-2.593920693378849989e-03
-9.362975680308660911e-03
-1.674664607402763516e-02
-1.144850670950881347e-02
-2.463604959565701517e-03
-8.695683308307182793e-03
-5.827289881977084501e-03
-5.692622422319912161e-03
-5.011665171952763877e-03
-1.975650715728478890e-02
1.865326352800940855e-03
-1.892419215458284593e-02
-6.431416088780958842e-03
2.236893760268972558e-03
-3.830765469245274012e-03
1.019550849395475280e-02
-1.162898139761266506e-02
1.379450065049826583e-02
6.408133552786748118e-04
-7.261905128558019187e-03
-9.105309983683217145e-03
-1.752703826649264912e-02
5.892422058938003374e-03
5.609223569932020835e-03
-2.925725250879878617e-03
-1.087947848089476470e-02
-8.718810294730018617e-03
-2.681000714368367982e-02
-2.050373860510269763e-02
4.864494176075559971e-03
-1.532170266739326173e-03
4.704481498685190999e-02
-2.251056949009427530e-02
-4.494838279841830396e-03
5.962639001212769949e-03
-2.252932373969980182e-02
7.364177627272774918e-03
-5.748330305645704338e-03
-1.660857034112230707e-02
-5.114542956454111791e-03
1.770186152284607128e-02
7.411979617555761700e-03
-2.838603947545156794e-03
4.505330063609777266e-03
2.180926893886304258e-02
-1.663525951624500454e-02
1.328859421308547714e-02
-3.787073753010149202e-02
2.962606407754003399e-02
2.081343088250701967e-02
7.588581786003502361e-03
7.028157458041213619e-03
1.325476681609730201e-02
2.183142269039545919e-02
2.808345066145802663e-03
-8.906906455032129188e-04
1.216047125294772956e-02
2.003405082354157984e-02
-1.943184567967009418e-02
-6.073606309726912143e-03
-4.915816825528515274e-03
2.158504318373901895e-04
1.076806043052814382e-02
-1.813339750302438852e-02
1.136593956704752030e-02
4.734188557557464025e-03
3.731351308928730626e-04
-8.630181038437401489e-03
-8.968057812765074409e-04
-3.950851472418399901e-02
1.303596609079927041e-02
5.649668329898963233e-03
-1.866079917905434996e-02
2.904587025951875859e-02
-6.664688802438680816e-03
-1.417783934558722835e-02
-2.832219959370011961e-02
1.322892923623299535e-02
2.367166222752231566e-03
7.818850935459163709e-03
-1.309511735592246845e-02
1.857210367312294927e-02
6.247902790182730502e-03
3.026374302362414004e-02
-1.748704002612352926e-02
2.123628237545413869e-02
3.810743798666085206e-03
3.405185979759501463e-02
-4.345594556919961382e-02
2.545296235209567118e-02
2.897118659561443224e-02
8.607039672830267552e-03
1.115806964733870484e-02
5.602459715883518002e-03
-1.365913676659447420e-02
1.284864239132399791e-03
-6.751913287018448083e-03
1.040670172369375767e-03
-2.195831024757718616e-02
2.710975164353307890e-02
1.231958936929875015e-02
-4.230458141440271436e-02
-1.493091345088789178e-02
-5.286379267821185272e-03
-1.317262229262664355e-02
9.205987350698500299e-03
-1.993329173749712468e-02
-1.108350763341909087e-02
2.166235654210486514e-02
-1.861113173183808270e-02
-1.125601710385743318e-02
-1.922986332552002048e-02
7.281981797718962805e-03
-1.542825056957009867e-02
1.172057621923346636e-02
-5.964068818350611555e-03
1.106535739300407856e-02
1.965320888766619936e-02
3.522141967582052141e-03
9.465952274738538910e-03
-4.352224735267883060e-03
-2.242193646351954561e-02
1.260239087302097299e-02
2.865408283992848016e-05
1.672250711451408328e-02
-1.015634828387216443e-02
-9.269514971536087222e-03
-3.614131508018929989e-02
-1.986673511336930348e-02
-2.616616387380029524e-03
-1.681067926939656607e-02
3.874194784148092541e-02
-1.425909760777730254e-02
-1.674124991050869246e-02
-3.175296360701518328e-02
-1.772519207219916057e-02
2.645948924429330357e-02
-1.519614089106470500e-02
-3.919080074002311009e-02
1.213822850826682016e-02
1.005382687782373566e-02
2.361875297612058000e-02
4.887243760474519610e-03
-2.710672697936983636e-02
-3.481498027998239982e-03
-2.358314631095459468e-02
7.149803357968764587e-03
-1.712795512374801557e-02
2.033825969547855064e-02
1.218196212910041369e-02
1.855080969565986795e-02
-1.114570434627185644e-03
5.989548156426265958e-03
1.219926284653675280e-03
4.876774620447766467e-03
3.100863296873793921e-03
1.349324208517057276e-02
2.235428659416256389e-02
3.142457908862528182e-03
1.253315686543330504e-02
-3.632137309442642209e-03
-1.594884122010249011e-02
7.028017985643501830e-03
-1.386808235059451729e-02
2.547121431235756586e-02
-7.286061269324317982e-03
-6.360689530509251212e-03
-3.983037543617536091e-02
1.106630129011760199e-03
-2.888110125082879107e-02
2.393173009259302181e-02
-1.012374438530604624e-02
1.324430773051185790e-02
2.423800189756454906e-02
8.840696123765440922e-03
-9.377408839193470194e-03
-7.412045113723051727e-03
-6.179371248616529616e-03
-1.767855074619372607e-02
2.679195299499727984e-02
-4.278937184536828545e-03
2.507121358484707546e-02
9.999684932939418430e-03
5.810037568474022730e-03
1.149691537651516835e-03
1.715348411546964436e-02
4.400687280551671826e-02
6.043141819063542822e-03
-6.295126046572905969e-03
5.530666107442724910e-02
4.084213599474925682e-02
-2.803596421971802331e-03
3.341737212756696468e-02
1.903706801901091164e-02
-5.842152419737631051e-05
-4.041125635221951007e-03
-3.616267407611561523e-03
9.777292410576250009e-03
-3.077699184021448833e-02
2.423973737955267133e-02
3.958927932011360555e-03
-2.732664998105137355e-02
-1.389897120793719652e-02
5.801117130243371375e-03
-5.759383418264408215e-03
3.883756064499590925e-03
-1.461473403208717568e-02
1.718649070915810812e-03
9.344186972860123175e-03
-1.190368654472340713e-02
-1.077754257495370030e-02
-2.026472095815594343e-02
5.228469116684778505e-03
-1.969317775740150531e-02
3.534168798725101975e-03
2.519634991357113524e-02
2.743239976389514126e-02
1.396846977774582332e-02
6.887586271816901681e-03
-2.462277051384945473e-03
1.323354928000192512e-02
-2.908303948573345496e-02
1.634787616007383343e-02
-1.021079589863437519e-02
1.514657335252712293e-03
-2.343369488151128208e-02
-1.734938995469820916e-02
-2.591355148212752535e-02
-2.009113384793275933e-02
2.117788703172144779e-02
5.728187715647202125e-03
2.487054831900378446e-02
-2.177255978251874807e-02
3.793931355098480087e-03
1.058777915167225100e-03
-1.732506450603491649e-02
1.418969749327497407e-02
-9.497379251759915236e-03
-2.243260068008511021e-02
6.514122024970349367e-03
7.314218193855553940e-03
-3.342390426215027452e-03
1.367190199101682609e-02
-3.527861026231868648e-04
6.067911606860621268e-03
-1.191316512679506390e-02
-2.636036397355775475e-03
-2.288799302389910376e-02
3.333132122779822876e-02
1.270408258539806705e-02
1.450521080401367263e-02
2.738666405667045112e-02
2.973321479443854012e-02
1.925336636345688704e-02
1.704498482282469293e-02
2.220334632760764815e-02
9.417232408422017767e-03
2.772990766256646852e-02
4.514662617818199393e-03
-2.770573403648486296e-02
1.814703137715097765e-03
-4.801869638302608961e-03
-5.706606818288550986e-03
-1.210703326314039631e-02
-7.659697513242020098e-03
6.945672232274087941e-03
-1.607847941574553491e-02
-4.119999654537480349e-02
7.203567537270692475e-03
-2.980447756693601832e-02
3.361488476576809242e-02
-4.843019038424318905e-03
-2.556003188235668098e-04
1.788094779197708581e-02
2.530445623652944134e-02
-3.347707172133872807e-03
-1.813625433681126083e-03
1.167093694078855971e-02
-9.056831427857981245e-03
6.996420904310477352e-04
2.924859155501094085e-02
3.754155361297110277e-02
1.814449177317720499e-02
1.180545719146504358e-02
-1.653323216928855380e-02
3.224951798180494822e-02
2.494104830139940929e-02
8.568234105662176150e-03
-1.720119738890035430e-02
4.243822078115077473e-02
-4.315646769313629533e-03
-2.463346166130396878e-02
4.007630358906615758e-02
9.493557792213336288e-03
-1.083258982420691810e-02
-4.000622466205538269e-02
-1.356731835431024963e-02
-3.463018676864428221e-03
-4.495801290537379535e-02
2.798719315070151425e-02
-2.273703696973381275e-02
-3.778730395981807350e-03
-3.928237449971729023e-02
-7.677695456806382657e-03
-7.629116249442711301e-03
1.067968607278965004e-02
-1.401254638332059300e-02
1.278012217061707222e-02
6.903308594852229467e-03
6.448930868266416518e-03
-7.525887092342860990e-03
-1.151784290814469348e-02
-2.890137039157566687e-02
-5.338468597334199324e-03
-4.818626295892028226e-03
2.562007935211696452e-02
-5.555171335454414487e-03
-9.586933458704411867e-03
2.438106404649582198e-02
-3.463499371194873975e-04
1.594117185936219303e-02
-1.867036502487784064e-02
2.190244808358415493e-02
-7.630682520099645386e-04
-2.737839745424294410e-02
-6.976245814995909143e-03
-2.446428506537071806e-02
-1.625465576125419490e-02
-2.663279996277305786e-02
1.897313881278630881e-03
-1.711511302604951101e-02
3.013641935425195872e-02
1.382533202632442969e-02
-3.868079171183382101e-03
-1.785732680553631449e-02
-2.913068170590927056e-02
3.783240229353634909e-02
-1.274594580263544233e-02
-2.218099537789472789e-02
1.873016959797163322e-03
-4.533130974100470223e-03
7.044657869803793403e-03
4.408469872979217490e-03
-3.111680880163750825e-03
1.697353697338391254e-02
-3.117933812952399658e-02
-6.688169522566005326e-04
-1.490959654260177666e-02
1.652689316470905626e-02
7.477268054180708119e-03
4.757462707806051246e-03
4.501581135048962731e-04
2.635873730248479430e-02
8.742435512009255963e-03
-4.896487908472410729e-03
-2.861640665889334705e-04
4.859296605845311564e-04
1.635225260703007319e-02
-2.508009636100752646e-03
-3.775406070817603765e-03
3.953455985415002885e-03
-7.862493654805052107e-03
6.885601999503801647e-03
-1.591973420527657487e-02
6.126592965546730392e-03
-9.967425160166475812e-03
-2.116505349638569608e-02
-1.408146379129899400e-02
8.820001172771981673e-03
-6.812658717790071820e-04
1.735740358381689108e-02
-8.161241178012538372e-03
-7.718505413081421136e-04
8.968764411737721663e-05
6.500466809030953442e-04
7.059666662750526366e-03
1.710651346212676465e-03
2.225144207528140933e-02
-1.609558397110221611e-02
2.768802524552716263e-03
1.019691452080637162e-02
2.601535025648644278e-02
-7.180279497697975195e-03
5.109085365585983030e-02
5.947740821239276207e-03
7.992250520207907355e-03
7.521572638766579801e-04
3.907026070618230089e-03
-1.158028624473173528e-02
1.330577816906935995e-02
-3.294278661647181364e-03
1.486275254762958048e-02
1.618565040998695692e-02
1.093343596227619625e-02
-9.048847988545761362e-03
-5.467783703554144996e-03
1.010813671169744727e-03
1.238544169919414753e-02
-3.564094610808000302e-02
3.479581692567686874e-02
-8.783568004026614173e-04
-1.550311176040903953e-02
-4.149812984031233352e-03
-9.855612488116260658e-03
-1.201894853679910495e-02
6.024713810654981627e-03
-1.873810425879859562e-02
-4.206418572971341342e-04
7.119114836821741413e-03
-8.149449495727077025e-03
-3.435206675180027015e-03
-8.744110662538486997e-03
-1.080914178814589358e-02
-8.412279354130101916e-03
-4.494309044081850300e-03
1.877310159590171723e-02
7.331529041103832835e-03
-4.905275587349740334e-05
1.307125259841753970e-02
8.135834641465004152e-03
-1.241025224854626005e-02
-2.872709664347473588e-02
2.366552998285811546e-02
7.098385134268974869e-03
6.017962106854232024e-03
-2.908172457021882679e-02
1.519168921925152099e-03
-1.472610296329809366e-02
-5.351280143612437840e-03
1.117375081641986539e-02
-6.388977413432672323e-03
2.311925765212080250e-02
-5.323682840069728778e-03
-1.150187351184010949e-02
-1.780808370122627035e-02
-1.737837517208121532e-02
1.902967682816240208e-02
1.719277462972018970e-03
-3.383481301929711776e-02
-7.490557318525049336e-03
1.695375528320583816e-02
-3.030149225339734496e-03
1.612289467948550131e-02
-8.658893997988787936e-03
1.554138521422009783e-02
-3.764967300770226399e-02
1.210128717593888723e-02
-2.732631728651677486e-02
1.818138462617556114e-02
1.684016485671328139e-02
8.532562725378911930e-03
2.797400186087411686e-02
2.074083482700920383e-02
1.572685526170389259e-02
8.111594030145462264e-03
8.777113631536805072e-03
2.885169684176321081e-02
2.373071035386334696e-02
1.375872161524027172e-02
-7.298038946976034662e-03
-1.042863809277585346e-02
-1.675672241794077741e-02
9.357931914120955902e-03
-2.751940518959935383e-02
8.061680021639667376e-03
5.938830349280323391e-03
-1.395004009011245431e-02
-3.112367038859184878e-02
-6.644001368309179235e-03
-2.498148228306887667e-02
2.017803953657758970e-02
2.374091983710643373e-03
4.834563807122277922e-03
3.062892279281500402e-02
1.596732164997703707e-02
1.396402452911955916e-03
-1.782151437554032117e-02
2.318110317469988454e-02
-6.827385681164848535e-03
1.614036714597205310e-02
1.820641605173096284e-02
3.075268019286007612e-02
2.865399349921029029e-02
2.883891542245961559e-02
-9.988209010924599396e-03
2.182823521604920769e-02
1.528605330490777001e-02
3.608466088135188227e-03
8.355251023829956842e-04
3.518446882656170449e-02
1.983513434893108968e-02
-1.361763710878765785e-02
2.941982829448853975e-02
1.606467209301830346e-02
-9.232722090477096799e-03
-1.791289097579224984e-02
3.419238481832434853e-03
-2.234940263241125616e-02
-3.518705895834441794e-02
1.915611267362339262e-02
-2.976763117961478151e-03
-1.951906845607304444e-02
-2.253460724732535975e-02
-8.031730901704541275e-04
-1.315589226504633620e-02
9.131437358691121137e-03
-2.881297818797574559e-02
-5.257638721058355627e-03
1.670166104055329295e-02
-1.550051520758205688e-02
1.155485334910589384e-02
-2.561342876890696299e-02
-2.394794683343457603e-02
-1.043452702799487104e-02
9.258717995181615576e-03
2.506041322283402567e-02
-2.578950925589224355e-02
1.499594735493696256e-02
4.028859369395323964e-02
1.702492174756059518e-02
7.773748571798012180e-03
-3.377229639850218984e-02
3.970441787124028010e-02
-1.650165723257056641e-02
8.543147399184705323e-03
-7.184793390722688661e-03
-1.097029483865144582e-03
-3.118021499724401430e-02
-1.435451564412270654e-02
-1.822810324390855552e-03
-1.517597197749684379e-02
1.818363727908134039e-02
-8.175295073862592216e-03
9.788569051990044650e-03
4.721496031525831798e-03
-9.751493689711378254e-03
1.963529735706701779e-02
-4.348437104626143822e-03
-3.235262917787438963e-02
-1.701305701601896767e-03
1.616962384010200288e-02
-7.924814966311123643e-03
-1.615906301647734161e-02
-1.661508187065349751e-02
1.349467480583846010e-02
-1.138879889134421924e-02
-1.396749515828891834e-02
-1.796019653194648111e-02
1.229644172482139385e-02
1.828062278468325572e-02
-5.319760549861516329e-03
1.962366774629053026e-02
1.135272156885396878e-02
1.452961111904764804e-02
-3.845356589388062522e-03
4.828772778358791755e-03
1.534595238220213577e-02
2.524202895450462780e-02
3.859742629308616818e-04
3.545688257462992730e-03
-1.221523623654713884e-04
-3.028096254543622377e-03
1.237950292527547486e-02
-3.095587048950072459e-02
-6.361563447244575342e-03
-8.356564286847405557e-03
-2.325627142453125240e-02
-1.003317658346633730e-02
1.633137227814713925e-03
-2.756650245856862372e-02
2.757798296730029630e-02
-1.773508521649019148e-02
-5.331168884284463207e-03
2.784807918064752946e-02
-1.559288644096022648e-03
-1.211032055492362869e-02
-8.711562716195168227e-03
-6.224026347393304785e-03
-1.434045992983798380e-03
-1.087804838795568448e-02
-5.430624551134179308e-03
7.479818144595733881e-03
1.038750459968166076e-02
2.923328960081273201e-02
2.635065010184655006e-03
2.657940287042099420e-02
2.995904349744260564e-02
2.895083733391929856e-02
-2.138442368219865830e-02
3.964571087498953289e-02
-1.491150433909687538e-04
-1.681701471745647783e-02
2.974752568977673955e-02
4.873736288588476941e-03
-1.676925540341533266e-02
-1.042278885767439905e-02
-3.240692496626122743e-02
4.945434190931463636e-03
-2.917989783842557874e-02
2.530729436006176614e-02
-8.262355797292104606e-03
-2.613468862566836401e-02
-2.791974241395585657e-02
1.016863786739630876e-02
-1.147765809667936933e-02
-1.783206861410376390e-02
-1.849331483479447688e-02
-1.043809842529065755e-03
1.956804414562588173e-03
-1.881513661053175676e-02
-2.561078037985974401e-02
-9.182391279600405146e-03
-1.370410741932388821e-02
-2.023757855613661158e-02
9.387307941399984992e-03
1.369970617062572955e-02
-8.550011393183295323e-04
7.409029781138115047e-04
1.777343341240264149e-02
1.342160079150572609e-02
1.319371125059245163e-02
-3.914119794315295414e-02
6.124415115300705856e-03
-1.605766233078989233e-02
-1.154355400560799251e-02
-4.654589158322575311e-03
1.850198217022561153e-02
-2.506922654575942030e-02
-1.822357689097979169e-02
-5.565407573356159938e-04
1.687129305633662795e-03
1.755173693519297001e-02
1.385963448422504116e-02
-3.458261238100667628e-02
-3.672190505550446647e-03
-3.496571739046919203e-02
3.163971278514405433e-02
-3.141703917123543806e-03
1.215178480103739148e-02
2.111554951515379197e-02
1.732886779921694390e-03
1.475853796979961254e-02
9.807368015739002451e-03
-6.232255705419722548e-03
7.910104180073750449e-03
-1.644041634377323841e-02
-1.418381133672291447e-02
-2.541284538777622420e-02
1.830333589878358619e-02
1.094482758423163081e-02
8.997622909236757324e-03
1.901601020429205188e-02
1.780011124842459380e-02
-3.941373746075519692e-03
-4.470446557217643870e-03
-6.102055351454650431e-03
1.934579271441384416e-03
-1.312970376645334475e-02
-3.483492435838065650e-03
9.207784682593162656e-03
-1.545007808463528566e-02
-1.570397270228383879e-02
9.267772956855475572e-03
-5.943895953209259175e-03
1.145033133997811490e-03
3.849270140275041271e-03
-4.840256459780180537e-04
-1.232991169357846965e-02
-1.177252514810283798e-02
8.074982052878302077e-03
-1.443354467281252529e-03
-2.525853015872830606e-02
2.536647159835519333e-03
1.946590004902925414e-02
-7.490778129887727330e-03
2.374848995430035425e-03
-5.940548594245774472e-03
1.631508222013977952e-02
-1.860769043883228613e-02
-2.341354426663259328e-03
1.081870271015581038e-03
1.356714741729610207e-02
1.370434487588390211e-02
3.383330695205227084e-03
2.350538588843808130e-04
2.140385363460545198e-02
1.754682337807574044e-02
3.036001890356185284e-02
1.572717414941140340e-02
-5.971449613514909216e-03
9.100351591353153524e-03
-2.511578388289852949e-03
1.528088806583760735e-02
9.431770214999656010e-03
-1.601010816961406097e-02
-1.822393645105346502e-02
-1.503902871543059440e-02
1.576337833385867832e-02
-1.552808647054731810e-02
1.767560020227255252e-02
1.992905008865710273e-02
-1.801234025825047477e-02
-4.434254530380821180e-03
4.652721254301298189e-03
-2.738768189426301399e-03
-1.389813912888108148e-02
-1.305404131914612159e-02
-3.954543725289791367e-03
-6.062261713408480072e-03
-1.230673227427857112e-02
-9.790307154029405379e-03
2.136192835664802901e-04
-1.009384744552506083e-02
1.290755338414562373e-02
2.541990869280533541e-02
8.319815991578950395e-03
-5.349719968991637972e-03
2.499495466369666685e-02
4.398248218109089384e-03
1.607019694904896108e-03
1.129865780500369926e-02
-3.002246490231315693e-02
1.970920875279801379e-02
-1.635112610174727088e-02
2.061752302406215116e-03
-2.139141434351335067e-02
-2.014059732680585375e-03
-8.814371156028791982e-03
-1.806106241775514917e-02
-1.884409697964939834e-03
-1.261364164110277295e-04
3.784238770585047346e-02
-6.794012914217505833e-03
-3.224335601106010502e-02
2.687366210580927322e-03
-2.145530307259615674e-02
3.096255640329841075e-02
-1.399363351773320538e-02
-7.842211920297108285e-02
-4.578603700388676756e-02
3.002098808900732774e-02
-6.048780034297556590e-02
-1.628636361108827812e-01
4.854624901531664344e-02
6.711876939625714689e-02
2.579812674116767953e-03
8.678267136548331595e-03
-7.878530058672855718e-02
-1.377115154744666323e-02
6.712225170041392908e-02
-1.188754472151800495e-01
1.075409071988902565e-01
-2.161357887338340514e-02
-3.889591752341541725e-02
-6.576233839861840569e-02
1.339713513482354568e-01
5.387473111404843945e-02
-9.446242577224112091e-02
1.575341722369046626e-01
8.316109413023226038e-02
-9.018737163870084450e-02
-6.162613624739071705e-02
-2.623227777650526463e-02
-9.999074242551724001e-02
-2.285401513897902109e-02
-7.081736915214631445e-02
-6.169113652088232397e-02
2.060251057156119170e-02
-9.597648451231489963e-02
3.510019509164861995e-02
1.057406671810151716e-01
6.262542680100695661e-03
-4.424299989946120504e-02
9.190341755939869517e-02
-8.502693363893845668e-02
6.276749370690340446e-02
9.418689847800856482e-03
2.600957274531781258e-02
1.347937426730321242e-01
-5.011009216676663020e-02
1.082027207820449310e-01
1.638842199779595374e-02
4.819856096689754260e-02
6.319878705375985006e-02
4.741851413487186556e-02
-9.661940553474995808e-02
-5.368558551571268184e-02
-1.610204550945397439e-02
1.589955356218740457e-02
-1.387769736897989381e-01
-6.631623726900312543e-02
-3.123552075554545185e-03
9.109717169678195614e-02
6.997529394629120603e-02
4.135304722263911936e-02
-2.650221118199154804e-04
-5.790143703801607644e-02
-2.578292695024346493e-02
-5.626571179723877623e-03
-5.091625259949654481e-02
4.767553183541158035e-02
-2.728007523814844626e-02
-8.689162021044566364e-02
-1.228471450976156287e-01
-5.455778005522875923e-02
8.873584622187859205e-02
-9.668339897568921371e-02
1.365657211160141438e-01
1.224391564949594835e-01
-1.023932673176149721e-01
2.641651389923851262e-02
-1.200824974015157233e-02
6.038493007567598270e-02
9.852581865705500874e-02
1.244774320577110016e-01
6.823404193940238449e-02
-8.790990934695350201e-02
5.828526982222161784e-02
1.472512779649413038e-02
9.538525281784066001e-02
7.029694752995160889e-02
3.785205651301547930e-02
-1.303289851809689148e-01
4.568215869761960146e-02
1.627785875446468092e-02
-7.141926629929774839e-02
9.795871409339305946e-02
-9.578115730302692865e-02
-1.558939326399704124e-02
1.047476445108734278e-01
-7.849804897284032301e-02
-1.607466870740268533e-02
1.817332107205531244e-04
-5.281189673208900454e-02
1.315116788314173724e-01
-4.230852659119018616e-02
4.995150476811840989e-02
7.011436264908157967e-02
-2.532659633046061357e-03
3.309031048505257228e-02
8.529361316234378154e-02
2.204277552331858694e-02
2.761214415828193783e-02
-5.698078670518598454e-02
2.116347273448933308e-02
-3.889627771347778373e-02
1.542837879413637425e-02
-9.080900806927134916e-02
3.745164301656583872e-02
5.933648918940324923e-02
1.005183561881419461e-02
-2.374025422473688765e-02
1.552919983311585109e-02
2.704197894456934759e-02
1.522103792943752497e-02
-1.062175041522931962e-01
-2.968980293958176087e-02
4.872846622491019269e-02
-1.047454504386224200e-01
-4.907869124054390492e-02
-5.388354327281216771e-02
4.689078607060068876e-02
2.872012855662319647e-02
2.909090312305049903e-03
1.832490142960869345e-02
1.840561604231360365e-02
2.025126858716383080e-02
-1.009823623211066231e-02
5.969527201117672682e-02
-6.941820411560317705e-02
-5.141981883165662459e-02
-1.606738762642290902e-02
4.143752336843750661e-02
3.121738375311497796e-03
-2.624372920840864140e-02
-6.918776398172694908e-02
-4.238617341854851450e-02
-2.962425607717818557e-02
-4.916280902974494438e-02
6.980059250663227417e-03
-7.609372957450140362e-02
3.271192084538318556e-02
-5.320471814875135652e-02
-3.016273094884591027e-02
-6.092143083682457355e-02
9.924518441424348691e-02
1.644454806235599309e-01
5.398951299950714711e-02
-1.094458312372594173e-02
2.093881105744566790e-02
6.750730031936126585e-02
2.624289540298623685e-04
3.312160501094792153e-02
-3.844225221315293595e-02
-1.005981122340840611e-01
-6.812023626748858751e-02
-4.531536728990005064e-02
2.568263518437302259e-02
-5.977688271127094832e-02
1.692368817145402382e-02
4.042075572643048786e-02
-5.331479447347994144e-02
2.152081877517755153e-04
3.061915777657398322e-02
-4.192165109370172421e-02
-5.726478908126667045e-02
-1.818468386892688887e-02
-8.715140613929407698e-02
1.791798956586060365e-02
-2.189938153421047695e-02
-6.307490440409005417e-02
-7.173496198935028212e-02
5.198157483003856133e-02
-3.925744299922567099e-02
9.907849441241870989e-03
-5.145681941552739114e-02
-3.721058030623002749e-02
3.250962237499224750e-02
2.400691300193091848e-02
-3.610981784057840788e-02
-2.431135348805975489e-03
-1.063323165513768154e-01
6.650646175730755283e-02
-1.007270628972561644e-01
2.513605771521083485e-02
8.966263791351838366e-04
-3.869971303122055756e-02
-2.021169493424434301e-03
-9.760869831462083701e-02
-3.918079928463000239e-02
-2.872788904456896608e-02
1.225590358236605532e-01
-2.753704435086533689e-02
-2.620357042491397795e-02
-1.915762138355687344e-02
-9.185498127828183035e-02
7.685868016415364767e-02
-3.802027107534061701e-02
-1.382934962905895959e-01
-1.814190694700953607e-02
6.293987062209404314e-04
-3.791687989539242742e-02
4.598333747920570549e-03
-5.048013934131670433e-02
5.799834245514225856e-02
-1.349988365904195020e-01
-8.381435866040500005e-02
-1.166674941034501894e-01
1.664289191849994409e-01
1.238607660739287353e-01
-6.035783285779101892e-02
8.474759096999624763e-02
8.524772743558173271e-02
3.583523188049318742e-02
3.626051572839916054e-02
1.230957393846248277e-01
3.004255316458648729e-03
1.208502681874038809e-01
7.453788819628666407e-02
3.627085110036933069e-02
2.808530800340741217e-03
-1.026654818901123895e-01
1.601967652178137858e-02
-1.133740617714117244e-01
1.635415059242782687e-02
3.017931934967292996e-03
-3.641163555291498238e-02
-1.598010054721418216e-01
1.244095637601913724e-02
-2.848041353022455133e-02
1.796084273699526945e-01
6.950230927226873356e-02
-1.259540438874154344e-01
8.898999168088707334e-02
4.274237548538433601e-02
3.147992475301315124e-02
-1.650963715957022484e-03
5.937714044629379545e-02
2.382040815647980606e-02
-1.795549540505887894e-03
7.963943286470989702e-02
1.367322039164956260e-01
9.677208706081270873e-02
1.586763142568574370e-01
8.339248110854999285e-02
5.454819576051220253e-02
-7.998431658786558582e-03
-1.384980174236468851e-03
-7.999844365227047616e-02
1.678521677483372498e-01
1.678422955255511329e-01
-1.022846404597652359e-01
1.996525543347556775e-01
6.829161413752656007e-02
-3.483823226041073921e-03
-4.250940535403002069e-02
2.277047541385034818e-02
-1.587665291686696234e-02
-1.560832937195111569e-01
1.846808699289492761e-01
2.870953676524833076e-02
-1.335044378001066234e-01
-1.614821714315120005e-01
-6.663779914178312447e-02
-8.730577298269305564e-02
1.311118556152733039e-01
-1.042147048704280127e-01
4.103073072266402027e-02
4.004827755404655881e-02
-1.239723220271930493e-01
-9.472823011097107615e-02
-1.008273776109319814e-01
-1.440595532649933397e-01
-1.184800867510533984e-01
9.151190814161530573e-02
1.900736091127650240e-01
6.023741804939432287e-02
-3.622942283493064269e-02
5.820048808687648678e-02
1.080848852464935533e-01
2.264217684218418000e-02
-5.556960038204267205e-02
1.220969451680019441e-01
1.628715884177828199e-02
-1.328496894815120177e-01
-6.690509567954222581e-02
9.316419154212727052e-03
-1.965756709933750013e-01
1.047313922907188756e-02
1.074203594260340344e-01
-1.348869055892251978e-01
1.993895687587382004e-01
-3.290210901951540201e-02
-1.221839973879916136e-01
-5.880486610706328610e-02
-1.076201027539778615e-01
8.784653097825234624e-02
1.873266514648492045e-02
-2.731538290808701447e-02
1.530538406655344505e-03
-7.967637971150956164e-03
7.481325436509025581e-03
-1.454610231174161255e-03
6.313238812839674571e-03
2.351392775655095080e-02
-2.918741264625578091e-02
-6.874612832526261902e-03
-2.717691854734136797e-02
4.679478054144150384e-02
1.707765658176618045e-02
-1.174016377089051946e-02
4.214064119224114613e-02
1.279549093669838863e-02
-4.100033117455928987e-03
1.167341860578029536e-02
2.636448295059462196e-02
2.114391506832581646e-02
6.652130529722084795e-02
3.950383306046797299e-03
3.425793682792691031e-02
6.789403054949262432e-03
-3.134844138262282698e-02
1.169408047363845564e-02
-2.128811705389159481e-02
5.395551366007709550e-03
-5.153648202872537602e-03
-4.455987242191162406e-02
-6.566554189892025162e-02
-6.626080110486889507e-04
-1.398838303166899735e-02
4.807772718141988672e-02
1.487781065257174143e-02
-2.640011118100660942e-02
2.781521216779392000e-02
1.413215157249966998e-02
-5.518191525086389715e-03
1.833877851154685351e-02
4.398663649577814853e-03
5.255417855643139315e-04
2.327720250187378589e-02
3.444021161772749251e-02
2.691050995302507118e-02
3.409948800326899343e-02
3.394019093398528003e-02
6.261744989240749723e-03
1.840629793823941873e-02
6.510051101857231189e-03
7.470505341437528105e-03
-1.116366978413871336e-02
4.238013715340166465e-02
2.698495400881159578e-02
-2.456363353269723493e-02
4.312524762381166749e-02
2.644448359863384862e-02
5.366650269367236568e-03
-1.568749433980566946e-02
-3.830534948364970344e-03
-4.033630905485775624e-03
-4.558163306799868641e-02
3.367577347350384637e-02
-1.282776046066973598e-03
-3.606969076658166767e-02
-1.850205166404844670e-02
-1.197203220627419441e-02
-3.967860085258276964e-02
1.567749323488232954e-02
-3.252698162973152729e-02
1.433566710696728731e-02
1.429347271109795937e-03
-4.970061104294385204e-03
3.800656232833871453e-03
-1.212840605773260298e-02
-4.647031295668496015e-02
-3.181306893929629342e-02
1.891820659639571744e-02
3.921805932213870416e-02
1.712117210436597120e-02
3.564996508952396467e-04
2.389879967738231872e-02
1.984439158436024364e-02
1.055680634790302601e-02
-3.886621204953675385e-03
1.876730062402380550e-02
1.096006244980781167e-03
-1.841392605077528041e-02
-3.957811833260051898e-02
6.434277430817316248e-03
-3.183746169084035460e-02
-8.693482996169283120e-03
2.887816264551213569e-02
-1.601893889582112901e-02
7.716705107275454931e-03
8.415824959459057911e-03
-3.214070390595353405e-02
-1.221741717134377375e-02
-1.701670605682764278e-02
4.759584741980926736e-02
-3.078562745197861716e-03
-1.098622288560254373e-01
8.868264018873707466e-02
-2.159880992274184133e-03
1.129483083254293890e-01
7.597221065939364915e-02
-2.300954722648230685e-02
4.163203467683616182e-02
-1.464226191799165022e-01
1.410785933834044284e-02
2.781300849694864213e-02
1.180902958588428142e-01
-7.286201174047580997e-02
1.285779232324064658e-01
8.370342253717018288e-02
7.745442642490213414e-02
1.233244300688247745e-02
1.374965090404887957e-01
-1.150700426748420963e-01
7.998439878244079093e-02
1.644799503962466047e-01
-1.475660573021469746e-01
6.150295105225217496e-03
7.310743908916465805e-02
-2.655898826615674807e-02
8.321253177328311046e-02
1.324829604287344796e-03
8.727639529016403830e-02
3.863838378674491064e-02
-7.917942918885219339e-02
-9.040237003170427388e-02
1.106480897679761183e-01
-7.688262487454611271e-02
8.330320095253662682e-02
-5.122150801179101154e-02
-8.655995102108123701e-03
3.336392885049663248e-02
7.331650632390956934e-02
-1.776937972261739829e-02
-3.836843964570922638e-02
4.489026309000289372e-02
-1.130327918852536140e-01
1.525049771014873670e-02
-7.354655990222447315e-02
9.166956208301398068e-02
1.094605162166020912e-01
1.144967898712661858e-01
-9.644956437039380048e-03
2.263695845363331849e-01
2.024081675082295764e-02
1.131575581729902386e-01
-6.285216399134492538e-02
3.426584493310085855e-01
1.053337638986954344e-01
-5.453764867859106635e-02
-1.100262739140941450e-02
2.522402987077007955e-02
-7.433686481883625130e-03
-4.723006220170271330e-02
8.001803858449647866e-02
5.236907764328948417e-02
-1.102296862606382405e-01
8.569449218852667749e-02
-6.379285727156443209e-02
-8.888868027168676800e-02
-5.834111972302356147e-02
3.918162973349135353e-02
3.108287557822361422e-02
-3.506574078016749460e-03
7.863801449140826738e-02
-7.170389429951881666e-02
-1.174813204675526079e-01
5.899820435149241704e-02
1.755636581419994791e-02
-1.088702370453426133e-01
-6.771716139359500175e-02
-2.157521311553054766e-01
-7.607987401487061041e-02
8.724860032263723197e-02
8.660654686618625420e-02
-1.817861853915030482e-02
1.104825368712941402e-01
6.652064631458093347e-02
2.433061557437547762e-02
-1.607049477881046240e-01
1.484215237958271261e-01
7.950027661914503552e-02
-4.461938365427971925e-02
-2.718080129113161977e-02
-5.289124592167269295e-02
-2.975065699668521732e-02
2.145734955181055614e-02
-9.566319226252505137e-02
8.053374154306881805e-02
-3.899445817388127750e-03
9.031616678220492911e-02
-9.425872440978476027e-03
-2.055186050491650263e-01
-7.061701475319129284e-02
9.064990918287783861e-02
-1.201695778921171298e-01
-2.155923066866783505e-02
2.391652706876211745e-02
-3.138380929328985804e-03
2.803810308098963339e-02
1.256654730655679814e-02
4.292484955585485797e-03
3.521585357720474069e-02
-3.223251637557190963e-02
-2.430856981620823504e-02
1.861724309117106235e-02
7.167305564525015826e-03
-4.284977594783227761e-02
3.876686392805380604e-02
1.664394079093000495e-02
6.008372292007375416e-03
-1.473463314573593419e-02
4.801369757686672207e-02
-5.352357307671128106e-02
1.534837744493603752e-02
2.768377851199017511e-02
-8.595565884035698268e-02
1.645927189125710385e-02
2.102203691989834936e-02
-1.282751582928751480e-02
2.605406526337560730e-02
2.689029383404989513e-03
-6.684514031604161903e-03
-1.278017501164333122e-03
-2.654612706790430640e-02
-1.296110873507794886e-02
2.305175495491653195e-02
1.939094280771060845e-03
1.941659073963133628e-02
-2.960717579416710654e-02
-1.452415962390428243e-02
-1.247597863419325215e-02
3.314930404371087269e-02
-3.217867345807284406e-03
-1.005313195383023342e-02
1.649645392751339715e-02
-2.369060130196305042e-02
2.479219541376069882e-02
-2.499207714521612528e-02
9.434443743821433956e-03
3.165050078710440491e-03
2.530197691961645623e-02
-7.144470697406643707e-03
4.593733108211770638e-02
-2.251272166839173722e-02
1.721439634251642828e-02
-4.232263732429097404e-03
6.371327793102203596e-02
4.661866329339231854e-03
-8.137863151631034506e-03
-3.386611408865836115e-02
2.633412968415039385e-02
1.226030217439786837e-02
-2.094589137068562576e-02
4.632053694515991110e-02
1.798147597464510791e-02
-7.434281990361517670e-03
1.777839423533296437e-02
5.595757260003024133e-03
-2.220695038238029023e-02
-4.133980222149987414e-03
-1.244209715094178777e-02
3.231172996931393898e-02
8.272879502979219599e-04
4.167859063398591385e-02
3.943269462712379811e-03
-2.327431744276909492e-02
2.020733209929292604e-02
1.763382481731650547e-02
-1.313052385338668929e-02
-2.275545892345724047e-02
-7.151489730733123773e-02
-4.676463416137586343e-02
1.315744115330508453e-02
4.692539662227551006e-02
-8.009490451768984387e-03
5.671002656296922698e-03
3.394514129415545506e-02
6.223368783410318777e-04
-2.825716033778540373e-02
5.191989768957884499e-03
6.165691126817660073e-02
1.049191796307154777e-02
-2.800595918413396890e-02
9.157396980607412917e-03
1.799001211671759012e-02
3.426447837894942838e-02
-3.134298720353735634e-02
5.104352901101067569e-02
-2.248361749782414390e-02
5.098279784644571544e-02
-2.839484990547334019e-03
-6.311367225178630969e-02
-1.489757409259023606e-02
6.914438565861973779e-03
-4.194565862602041284e-02
-1.685092439772965106e-02
9.760949311429144293e-02
2.246957092900118969e-02
1.241818514230029341e-01
5.148651290933522334e-02
-3.030454502367320186e-03
2.211567614148843980e-02
-7.364022251869709046e-02
1.445786551964584575e-02
3.375709237662254114e-02
4.424698233656229607e-02
-9.064662385523511445e-02
9.613617522160088080e-02
6.681884794927772653e-02
4.251645199305387202e-02
-1.016459796224762971e-02
1.004440347348056067e-01
-1.599749553160306204e-01
5.229473511069235303e-02
9.845586937561476293e-02
-2.336854963479351455e-01
1.085056817814157408e-02
8.968944717103367534e-03
1.171761971865316332e-02
4.918465711628185882e-02
3.827172060711450663e-02
3.737168172995577325e-02
1.433001146660691123e-02
-3.114184250640359211e-02
2.372888110916535759e-02
9.501592203182419871e-02
-9.912997303476079117e-03
-3.996653939682589737e-03
-7.525192558719755176e-02
2.679974867309556016e-02
1.493585250889497770e-02
3.154535828126957264e-02
-1.995844973864675451e-02
-2.998299251211649849e-02
2.420531384184234150e-02
-8.672755363215080282e-02
-1.745339571259731104e-02
-1.098565235090172981e-01
3.331210556076145968e-02
6.057275848510870926e-03
4.874554108678524206e-02
-2.800996529217051126e-02
1.955582111281707336e-01
3.159178340858202760e-02
9.065948082883706904e-02
-2.548846739385981358e-02
1.910134404717242773e-01
-1.625766043799595521e-03
-2.051086535838592476e-02
-8.478342145689377052e-02
2.983148941871337570e-02
-1.061879137983948000e-02
-5.476722807205928328e-02
3.867448877721741535e-02
5.406421063922995512e-02
-1.278857171627607175e-02
-7.448264949927974402e-03
-3.288095203844961303e-03
-3.038629052627476318e-02
1.227208115652719117e-02
4.271694181300602494e-02
4.658134043936566770e-02
-5.295649879697887641e-02
8.732468545470661869e-02
-5.704521791918745061e-02
-7.811386762304442510e-02
6.962487718103822776e-02
2.879368512162298194e-02
-6.653819275853953275e-02
3.914718769071274390e-02
-1.523824215601376764e-01
-7.862474348363834853e-02
-2.630777463513815986e-02
7.343710779077931849e-02
1.410890758438799152e-02
5.175771156462246475e-02
1.712536565199107921e-02
2.941870536871613040e-02
-1.080838566475405133e-01
2.504845635073872992e-02
7.056629585538491678e-02
1.816344225208580548e-02
-2.673939491693766435e-02
-3.044900292426319308e-02
3.477077801122697986e-02
-1.582523982890850483e-03
-1.422034411925242603e-01
9.060877140652437434e-02
2.178613267450813483e-03
9.130847171559841602e-02
9.820374614842107552e-03
-1.535521494009401411e-01
-2.508737726640086069e-02
3.264782480191892600e-02
-9.428304511084426021e-02
-2.628002758939834704e-02
-1.273739426728015718e-02
2.498979980688838254e-02
4.527225531652715081e-03
-2.432056612278079080e-03
-1.724201495921818053e-02
1.358810908896971800e-02
-1.277965452086130688e-02
6.450714727922674582e-04
-3.400124940770281323e-02
4.800206126077563584e-02
1.802669181512513152e-02
-2.504254612533265284e-02
1.307092759232413373e-02
3.470839693775171902e-02
-5.038717463854693220e-03
5.702770982779188126e-03
-7.707616374744877090e-03
1.167196365377849189e-02
2.804549195972005915e-02
6.899914117082834794e-03
2.150285434465346729e-02
-1.022805309882188554e-02
-1.010149406663595970e-02
2.159287924827929528e-02
-2.031326971487328048e-02
1.261183413396047351e-02
-2.061130374450095837e-02
-2.887449141075918227e-02
-2.590393354715361807e-02
1.121166867785951954e-02
-2.212537256004382460e-02
4.359339858257275241e-02
4.324193007082050705e-03
-2.812164690346588211e-02
1.824314981321502327e-02
-2.753636425305528053e-03
1.437901372874180600e-02
-3.841220976264477470e-03
2.708873416212315838e-02
-3.431172550104326369e-03
-9.963583104621757253e-03
3.328469443103018819e-03
3.021425828563188004e-02
-7.614312199022026106e-03
4.354845065415938882e-02
2.002889608603014918e-02
3.475487260923812438e-02
1.391370238634777670e-02
1.184060446191339752e-02
-2.666889194548270961e-02
2.920925555784015248e-02
-3.746391926074499161e-03
-1.692537279010572840e-02
4.016368202302152135e-02
1.698593758285316113e-02
4.858148006576834196e-03
-1.764242141970524813e-02
-8.968329463647525465e-03
1.252030675293771406e-02
-1.817756060296392071e-02
2.624974128600529241e-02
2.812378504419553102e-02
-2.406976607368311455e-02
-4.790615099893383994e-02
-2.255000493472555587e-02
-2.998563490809926652e-02
1.943106711471582690e-02
-2.459871398960539191e-02
1.565428142809375048e-02
2.206947868583782404e-02
-2.878191723948240327e-02
-1.362315776529504337e-03
-2.158828303562857973e-02
-7.133232343458834057e-03
-2.167713895795798928e-02
2.371851126861053774e-02
3.001169780146286173e-02
-2.723364802977506355e-03
1.119124575739608926e-02
-4.734071459201199053e-03
2.903865581524524286e-02
1.416286213547299222e-02
-1.223235440317882970e-02
-1.464437781927722081e-02
1.659868974503547409e-02
-7.666241148229133683e-03
-2.639593808277475653e-02
1.014901661518734406e-02
-3.688750433151433139e-02
-1.005730859411118651e-02
1.130101140648273085e-02
-1.516234105266594558e-02
5.315483246691261876e-02
1.988674963061554124e-04
-2.410685509961631862e-02
-1.117669485788870369e-02
-3.740381712801546521e-02
2.904687788527146250e-02
3.664492508010787613e-03
3.678948757714417539e-01
6.823199901589833971e-02
3.179183873878037581e-01
-8.427789143475555855e-02
-4.701204599113246313e-02
-8.522721466804906998e-02
7.051098134846812970e-02
1.518687612456857405e-01
-7.159473650415039414e-02
-2.872561838380325860e-01
-3.952281865216281664e-01
1.231429893175497170e-01
-3.746582806116596776e-01
-1.740139496873836233e-01
1.732338525521300021e-02
-1.376797607036265025e-01
-1.075213674209603287e-03
-6.131474402218152209e-01
-2.569707622836343019e-01
-3.704026022817843988e-01
-6.900980355775657715e-01
1.790350637837528625e-01
-3.346196457635385868e-01
3.241237211111061001e-01
-1.858030572443909179e-01
2.163412551252778815e-01
-1.264308885599302046e-01
-7.479308581193776229e-02
4.391371726828449673e-01
4.729539814916727813e-01
2.470777092957171794e-01
1.221403287079908251e-01
-3.767772258784609085e-01
-2.750147793817942984e-02
1.280856187661343071e-01
-2.449362952631009283e-01
-3.519398360754527610e-01
-1.609463524287452763e-01
-1.844035066814090351e-01
7.237355873172920950e-02
8.398254132297229557e-02
-2.335994884233664470e-01
-4.061953226861294564e-01
-3.062689962572207047e-01
-5.711081496054812856e-01
-3.181103028092354124e-01
2.052213363881117206e-02
5.361135590003906354e-02
2.990741306720661741e-01
1.464764772547583471e-01
-2.748595350053831612e-02
-8.207965673581266719e-01
-1.271261338882697101e-01
1.765657614151310284e-01
-3.490191199257726695e-01
-1.841935687187117587e-01
-9.338821528444260500e-02
-2.923071104821625132e-01
-2.321778072978517293e-01
3.201565917257255256e-01
2.002885825831766942e-01
-2.594773503011316151e-01
5.373996078496174889e-01
-1.746709899986106651e-01
1.891562686678526228e-01
-1.136020377256123232e-01
-3.521682263008069774e-02
-1.995544818468900083e-01
3.260672443071876425e-01
-1.880194490859994072e-01
3.084602215785570700e-01
-5.503306883565500102e-02
-7.657501572588060190e-02
-1.580391028928996577e-01
6.415428627373220838e-01
1.729979257298893125e-01
9.437223121529283998e-02
-5.084077121613573835e-01
-8.671294070085983074e-02
3.569383655299634972e-01
-4.260835645874015420e-01
-1.027405345330072578e-01
-2.324319009550394610e-01
-3.912962712870414472e-02
-3.817981220220277305e-01
-7.729900244504733786e-02
2.428686695747357960e-01
-1.644568625711221588e-01
7.636042836177113491e-02
1.756762708452121735e-01
-1.074653072537038595e-01
-3.115459154884165360e-01
-7.928546490630147825e-02
3.475441032318340451e-01
-6.889270039078007613e-02
-2.806936998718027598e-01
1.530704276594120616e-01
-3.891099927655634061e-01
-6.771920967932404389e-02
2.273663220367985183e-01
2.517448422855507184e-01
3.761430415839045471e-02
2.192347540165281161e-01
-1.028828041182234566e-02
9.927348873224625322e-03
-1.734435937412222850e-01
1.557676924344165437e-01
-1.010698505771169542e-02
-2.108085783675492098e-01
-2.293401008842433919e-01
-2.798059386890272004e-01
6.014559198530452372e-02
-3.677276649971066291e-01
-3.515131596092878341e-02
1.438789341967516566e-01
-2.145075671533102912e-01
2.002478978573273838e-01
-6.056700112038485573e-01
-2.767137309454925642e-01
-1.801556938556007625e-01
-9.360487719160979214e-01
3.948204826254658739e-01
-1.953849565054977533e-01
1.204577199517830322e-01
-1.884403712348373394e-01
1.663708002148780174e-01
-7.353383372554671282e-02
-1.618953493134257099e-02
4.053421600287069326e-01
3.612897046161872017e-01
3.873529463218324254e-01
2.527955520788836008e-01
-2.039844332873452792e-01
-2.812925653415757239e-03
-9.799980497965310455e-02
-2.311038716151611327e-01
-2.307847228931358408e-01
-6.548241544837683781e-02
-1.409412712526421363e-01
2.980395340206378751e-01
4.694286989029038820e-02
-2.084236641749184216e-01
-3.891868356124885686e-01
-1.914607944062199085e-01
-4.296767650958776552e-01
-6.625324970071355679e-02
1.699809534733010830e-01
2.045763653732238785e-01
1.061584557630654013e-01
1.528850076443482864e-01
-1.585967185579490180e-01
-4.831762587897549532e-01
2.677783798419088035e-02
5.725211881345083215e-02
-3.579306030995874632e-01
-2.878378279167842155e-02
1.067943796167039883e-01
-4.129445311721657297e-01
-5.272623945541461687e-03
3.758270112346454028e-01
1.286221874141015298e-01
-6.176712240340671844e-02
6.173559344799476323e-01
-2.650442601659802611e-01
2.263618596051937895e-02
-1.908042135043912513e-01
-6.264168045146845110e-02
-1.866015686902434967e-02
4.194555336052167571e-01
-2.178149565769471052e-01
2.581909104385884390e-01
-7.338649509661655801e-02
-1.018985731985246890e-01
-3.203212717742061622e-01
4.433877222455046563e-01
-1.026158939437678413e-01
3.393883302314936595e-02
-3.001358742867081819e-01
2.484932689381425530e-01
2.639190660660344911e-01
-4.269397242372012236e-01
1.032801589940755549e-01
-2.166982449422391044e-01
-2.510427202650639469e-02
-3.084943368376529271e-01
1.936792752209919588e-01
4.784824585036782235e-02
-3.702288495982110073e-01
8.900975141289128867e-02
-7.364178014516841592e-03
1.401744664117489381e-01
-2.742859931245458793e-01
-3.085136659748282523e-02
4.990721065414533419e-01
4.192460296086256144e-02
-4.473725348840077998e-01
-9.833158836489586108e-02
-5.045419008558155172e-01
-6.461536334080104915e-02
2.576934596199921268e-01
2.390229560578751786e-02
-7.260670659475217115e-02
-1.545713937719465567e-02
1.603853022567332601e-02
-7.110225104450125511e-02
-5.811698395122502636e-02
1.178635278438144030e-01
-3.574709262548464439e-02
-1.614033550344114998e-01
-4.016861958976456620e-02
-3.255001512719173790e-02
-1.248715959096710106e-02
-1.775267340168897867e-01
6.874629278083148332e-02
1.003176492261679681e-01
-1.732537986514062489e-01
1.418405602495498019e-01
-5.246585865039224417e-02
-8.848011788201352867e-02
3.334734021466129184e-02
-3.428504194160444385e-01
3.135127754940157940e-01
3.158123701872480368e-03
-1.584137134976609518e-01
-8.837759674099070206e-02
-3.792284438439476324e-02
-6.791868784900800815e-02
-5.683665343433286915e-02
6.082217155935532721e-02
4.609801322393657086e-02
1.087074948451100531e-01
1.927189414942196977e-01
1.049959149113367657e-01
4.147942843927771017e-02
-2.022157380830708062e-01
6.412509068683747322e-03
8.005225493578250681e-03
1.381542259235814807e-01
3.864303721334971103e-02
2.176724860967686470e-01
1.077630086036559243e-01
-6.635525078224624451e-02
7.939422716927763482e-03
-3.369089087229237139e-02
-3.056223230145074105e-02
1.569406376149063420e-01
2.039536398097921421e-01
5.391936000270130397e-02
-1.757688847834132928e-01
1.908316373067428864e-02
-1.022948045893199154e-01
-1.016955310452659078e-01
-8.405592711859807137e-03
-2.814149831567382826e-02
-8.669663910631081327e-02
1.231323146090227694e-01
2.356500783976205327e-01
-1.678158673769600817e-01
1.454160134327600051e-01
1.224139535792858197e-01
7.773857407475750526e-03
9.557133064603116901e-02
2.708062162666703965e-01
-1.810937288322047034e-01
-1.655376100721082655e-01
-2.052116735508213718e-01
-2.860490941253505601e-02
1.680584197649993561e-01
1.318164229687466826e-01
4.058910299041760400e-02
1.172937475739683211e-01
-1.057572667319084253e-01
5.366640958117772919e-02
-1.568650248738283348e-01
4.036429837498779760e-02
-1.160521835398599377e-01
2.482458390237443982e-02
1.327632334612152409e-01
2.591973387532888751e-01
3.633360217425360417e-02
-2.012327662996541422e-01
2.676964246837705841e-01
-7.403859326370808291e-02
4.740742012463949190e-02
-1.865650513988132420e-01
3.148494258897600595e-01
-8.333539676468106061e-02
-3.112637024049933476e-01
1.643106030502438086e-01
-1.529691510733379445e-01
2.054744032981990487e-01
-6.680210451404913242e-03
-3.024718868131015450e-03
1.718982329450510216e-01
9.622068088091982607e-02
-2.573408361634857422e-01
-1.106640076361308372e-01
-2.347592033969679026e-01
-3.105304848108829743e-02
1.249658117192976453e-01
-1.255309264169646721e-01
-2.594911553535474494e-02
-9.169568016341077266e-02
3.814181608189282785e-02
-8.001053387515841622e-03
-2.648980319596643332e-02
6.240705443744299502e-02
-1.427766036920582182e-01
-1.330456313550959502e-01
2.260924583419143818e-02
1.129163088444576357e-01
-3.031580555330364371e-02
-1.476874378744960810e-02
1.418305282413306057e-01
1.110123530301934669e-01
-1.075504623045375613e-01
1.676663615774761362e-01
5.275575931597857593e-02
-9.275176959485175550e-04
1.853342236334784843e-01
-1.404317747277586403e-01
1.974249243833725298e-01
1.262551624817694618e-01
-1.955926592857468449e-01
1.575814793965978414e-02
-7.691439414217925152e-02
2.321358751990394015e-02
9.721415715812689248e-03
-7.401237819155673248e-02
-1.529243019931354197e-01
9.147275758898906761e-02
7.074408415161580199e-02
2.253849470673918720e-01
4.219248780144003313e-02
-2.337250223962001328e-01
4.135141061428953407e-02
1.299404409836486807e-01
1.289975660788536815e-01
2.872961335311097208e-02
1.901492681201717716e-01
-1.662112671954783360e-03
1.731115633977003618e-02
5.227104021545907891e-02
1.038759496785933156e-01
1.539585532759451536e-01
2.041418644976248642e-01
1.627004133282057563e-01
1.296522597636236562e-01
-2.319061400888933477e-01
2.396864969876340290e-02
-1.102816768715680351e-01
2.867728926667466038e-01
1.386796309593591459e-01
-1.121667095704538125e-01
1.671819833993791124e-02
1.626442580123105552e-01
1.873135042354188429e-01
-9.939306230285246957e-02
2.179926713673747685e-01
4.618442678046505434e-02
-1.101941518579454132e-01
1.870908225966270710e-01
6.865936506174541432e-02
-1.441787804750664925e-01
-1.833506702147504885e-01
-1.414193330454499298e-01
-1.244472212077607151e-02
2.057093795546076076e-01
8.837365086968830552e-02
3.804357175802211555e-02
-5.884146133218379204e-02
-2.106551497112092719e-02
7.399388940426811744e-03
-1.445221477673667154e-01
-1.552449199154010695e-01
-2.500215140382314738e-01
-4.292390344782359701e-02
2.574296475839030207e-01
2.427497046877534481e-01
-4.378745972887895799e-02
-2.178149607515334971e-02
2.504319979295331899e-01
-2.346794086207343918e-03
-2.975849313643314582e-04
3.625351913794139930e-02
3.121751091005707801e-01
-1.633815867902363161e-01
-1.868085567374941358e-01
4.734700969294168560e-02
-1.760139451648317366e-01
2.205526870969247433e-01
4.734465222603830709e-02
2.685155073352992958e-02
7.401569536532985605e-02
1.116712410807128020e-01
-1.588330301551117429e-01
-1.899267928460500743e-01
-1.363444155770751343e-01
1.853421357501111588e-02
1.577404345453349913e-02
1.410303046483768474e-02
7.386403126639758121e-02
-5.215244538267611168e-02
1.319420627246049027e-01
7.797473298491720828e-02
3.132700308318188236e-03
1.961839915848437657e-02
-7.704428829510939769e-02
-6.491138231740843645e-02
1.551598629545646035e-01
-6.020704799579974092e-02
-2.154849032507679951e-01
1.090937364685721361e-01
4.540192236359395089e-02
6.855431134680876892e-02
-1.378736948224438541e-01
2.012619809549067440e-01
-2.457577563564717904e-01
-1.652564617328253216e-03
1.020826016800089747e-01
-4.030451270205072656e-01
1.374442600145230342e-01
1.423479354714807243e-01
-2.468098387310858205e-02
-1.390009631181035772e-02
1.668052996863184645e-01
7.062873409138310798e-02
5.091011806718724608e-02
4.543685917429308302e-02
8.304572140428199967e-02
1.894057482297130390e-01
6.953113113309339344e-02
5.539773196212126848e-03
-5.155497590831515514e-02
-4.653691901814518278e-02
-8.287496573285971224e-02
6.248923117382643860e-02
1.402741384093149704e-02
-2.250391587974244836e-03
1.287196130117895521e-01
-1.193126064547572751e-01
-2.915319773323915217e-02
-1.628311633751592380e-01
-2.133020211186218221e-02
3.600997407868903460e-02
2.228764516700398532e-02
3.631073074349266266e-02
2.123149402662116991e-01
-1.617241973932212751e-01
8.170164971695788314e-02
-4.559212350254342183e-02
2.265460923517200464e-01
3.502590807646812493e-02
1.006461974527916338e-02
-3.312973024559468516e-01
6.398447961962762387e-02
1.674081675902900912e-01
-6.304950299680125991e-02
2.355754945915721488e-01
1.220794505751894021e-01
5.446092248432722605e-02
-1.639540764926200600e-02
5.333368035677091279e-02
-8.928142893194707455e-03
5.426840740632636606e-02
-1.293269731728730401e-02
1.147543569274582786e-01
5.728138135925563840e-02
3.101761552742306471e-01
-7.718034235879039917e-02
-1.679144424442142736e-01
1.776043884833107267e-01
1.120438616541965249e-01
-8.487525946381392628e-02
6.016893564181468451e-02
-2.656985329929273942e-01
-1.680645712689474713e-01
-2.144409762838338576e-02
2.208822487001218804e-01
9.515384510060106993e-03
-1.198140556279988708e-02
1.101077497041917513e-01
7.394861955081193788e-03
-2.690944527824486870e-02
2.272211309992159221e-03
2.698320313754190014e-01
-3.977354539124634131e-02
-1.233675705405598705e-01
-2.515746548052303841e-02
7.785967260035552007e-02
2.137160911476777281e-01
-2.053638620390022540e-01
2.388427599407879076e-01
-1.150206930993228627e-01
1.589315406613986681e-01
1.118324078363337228e-02
-2.599585119010862644e-01
-8.390129671847137982e-02
-7.021415209943729363e-02
-5.394432783387766855e-02
3.527952327977725011e-02
-1.335098955976327280e-02
-1.830892732586360816e-01
1.732170726366942526e-01
6.524524874417986231e-02
-2.311430125053135290e-02
8.669913567756001860e-02
-6.514855409856812329e-02
-1.614387910392109937e-01
2.706880235620501840e-01
-8.710718096345831940e-02
-3.014685887566822542e-01
7.156641073596366198e-02
1.022208444501044172e-01
1.327073434193072332e-01
-2.595265931911990287e-01
3.085932777822459894e-01
-1.993322842323472788e-01
-3.298891070039992185e-02
1.474139229274140372e-01
-5.845408379578553859e-01
3.626516177860537593e-01
2.301043276740050436e-01
-1.725210878054083963e-01
-6.419114798855837800e-02
1.407519117554278665e-01
6.108277969128995954e-02
2.530501963084424988e-02
4.833516479925154680e-02
9.666492463791577505e-02
2.230188933747688507e-01
2.853329594079788145e-01
7.764325935378955934e-02
-1.289440564828180785e-02
-2.178434882929148053e-01
-1.294956872726965302e-01
1.472424209256305849e-01
1.447757947366707654e-01
5.239383883275229581e-02
2.988236952869233742e-01
-5.922657664512229192e-02
1.281753433921841052e-02
-1.116871037552855106e-01
-5.835676833082242831e-02
1.093293214633192789e-01
1.298530260563296457e-01
2.303656359941896881e-01
2.286273264423235307e-01
-4.229214405456838688e-01
5.607248437513793343e-02
-1.010111678951623182e-01
2.571600098653420430e-01
2.755977840131429001e-03
-6.754302342690898797e-02
-4.203963310515435037e-01
1.835092971495978775e-01
3.743246841226168242e-01
-1.339028005906645058e-01
4.180399474387587744e-01
1.817778000644839076e-01
1.267350354055492012e-01
6.113574576929531323e-02
1.556390546985471357e-01
-1.144444516045228961e-02
-1.725954528416738173e-02
-1.419975425481670162e-01
1.725887802743357458e-01
1.807712300123207882e-01
4.183937842460243584e-01
-1.844252544077699951e-02
-1.708614979304535209e-01
1.992497472717228713e-01
1.726228482497981498e-01
-1.283232801806127032e-01
-2.293119284177261730e-03
-3.433795471023727841e-01
-2.279737241073480081e-01
1.134004537161505399e-01
4.325307156926074814e-01
-5.234207119283403042e-02
-1.670505329614668799e-01
2.742584982207720290e-01
-5.552905180862927753e-02
1.056678359550318885e-01
-9.428985910625937994e-02
5.793362077653966269e-01
-1.401737813033130664e-01
-2.701233228459193336e-01
4.895147693880611689e-02
2.036502940376572895e-02
4.541514028542881776e-01
-1.716296682758877423e-01
3.121730922896923111e-01
-1.312301626848930147e-01
2.819313294455652597e-01
-9.933302658178265465e-02
-3.343826583672780961e-01
-1.037096302651694807e-01
-1.817845993943972283e-01
2.378129332725013520e-02
2.104318383063329134e-02
-1.581938247174880657e-02
-5.935978883019456774e-03
1.980197593365387240e-02
-1.155043020416318955e-01
-2.961498746579180872e-04
1.033851326090490519e-01
-4.842040195768661931e-02
-1.020127124929080253e-01
-4.670500841401348247e-02
-7.849210324508361369e-02
-1.264855250459232493e-02
-1.845235244864229796e-01
8.420739868075108325e-02
6.434711871945664186e-02
-1.827372178652940660e-01
8.725186453136019038e-02
-7.518078076209891436e-02
-3.258829788942113614e-02
-3.096655646310132737e-02
-2.985860894879301397e-01
2.806695964725720582e-01
-4.264387653700887210e-02
-9.163731693814310131e-02
-8.283446925560085383e-02
-1.394055167793939974e-02
-1.223471575206479083e-02
-5.571013092172927283e-02
4.569675857902147365e-02
7.844295283879929026e-02
8.732728114685921195e-02
1.786657450529023916e-01
8.960047343932606156e-02
1.598393757264121020e-03
-1.616580941357329271e-01
-1.494143559110418761e-02
-5.164224536908591789e-02
8.872736888927770793e-02
-6.136725780523788823e-03
2.194028331493118322e-01
1.097031530683175715e-01
-9.395864667575053175e-02
-1.566595903499588827e-02
-3.520902393534783986e-02
-2.495021843399746961e-02
1.270298611639659181e-01
1.648090205127999419e-01
8.090962584040471695e-02
-1.820759655451491543e-01
4.082058454137629105e-02
-8.222160561531208223e-02
-1.168937900447982875e-01
-4.020034874505265532e-02
-1.098847429795476787e-03
-1.121830017159887866e-01
1.159265063979663946e-01
2.019464480113893901e-01
-1.552151620041827551e-01
7.949666890816228793e-02
1.440653669046357277e-01
3.714389728163033227e-02
1.333904182673875151e-02
2.502877518229584819e-01
-1.398724336531070589e-01
-8.091626248050591552e-02
-2.179977826454703727e-01
-2.117809468142159771e-02
1.720631095460382620e-01
1.296326615437543295e-01
5.227478709037624433e-02
9.737471426743318781e-02
-7.676819276900906375e-02
6.039156962033644105e-02
-1.505785619243198148e-01
1.133459722974746869e-01
-8.039446403632301286e-02
3.994573356021661331e-02
7.053149681821428707e-02
1.830778119651134406e-01
8.270281973037092726e-02
-1.679707708719133108e-01
2.184210004495510116e-01
-2.939823292024781182e-02
4.495581656628715173e-02
-1.831801339516470339e-01
2.929906924149550673e-01
-5.726763180880493909e-02
-2.582691339328859748e-01
1.265707582532689390e-01
-1.240186021817907269e-01
1.566737059952243161e-01
-3.820304585752193338e-02
2.266695790198555022e-02
1.220380215917153816e-01
1.018316575291504239e-01
-2.190524146602176037e-01
-5.104784983177743096e-02
-2.074173374674189441e-01
-1.951017556276267439e-02
1.369649644638279429e-01
6.947798374644907626e-02
-1.579256789390747970e-02
-1.293932122294047700e-02
3.206877264729164623e-02
-9.821870799167330135e-02
9.150413402732458096e-03
7.395849443819427216e-02
4.907429088767144287e-02
-6.480318230025140791e-02
2.373914522596815013e-02
-1.491165188874152836e-01
-6.992333311729125034e-02
-1.347807526935710931e-01
6.499256365585605322e-02
-1.970355380731812073e-02
-1.893259494209957039e-01
4.456517987037430378e-02
-8.353549948171296036e-02
-2.988050022272413855e-02
-9.287559020253251252e-02
-2.865855507484824649e-01
2.487036125224541261e-01
-5.072208756860715345e-02
-2.455123924874657790e-02
-8.365676007250578972e-02
3.312651482716300055e-02
-5.055606404692086775e-02
-7.014584170774150473e-02
7.634893030004621939e-02
1.775863311370262099e-01
6.527110400991345540e-02
1.908241633632196399e-01
-1.593689139019574541e-02
-1.854501039407160240e-02
-7.384400556347131550e-02
-5.279890804168157342e-02
-6.967017524889859703e-02
9.046880980883983958e-02
2.251896527286072550e-02
1.543956366488688503e-01
1.217801950745145412e-01
-7.488542218140137319e-02
-3.580695457911188540e-02
-1.030554838099910081e-01
-7.662981894521869730e-02
1.144470041394410331e-02
1.086958719122906175e-01
8.376884517423683132e-03
-1.465861896763320515e-01
1.718048768432952830e-02
-1.382100612046751817e-02
-2.276086366221377888e-01
-1.340196410867873777e-01
3.760740837647789242e-02
-2.030254073963787820e-01
8.419792191603660270e-02
2.062911388766346943e-01
-1.039183332199195564e-01
5.645846417253396615e-02
1.138246600351979915e-01
1.256871466185449093e-01
-9.349481014024269010e-02
2.030364843188738055e-01
-1.584352216995173201e-02
-3.159644213498381381e-03
-1.563985897517035095e-01
3.199868475525471240e-02
8.798151094697735652e-02
1.830212940729268600e-01
7.040534602419737387e-02
7.586386739280245872e-02
-3.805163487210267217e-03
1.073660210469974258e-01
-7.712242310697611791e-02
1.860043385132198746e-01
2.206264730772206431e-02
1.701914289964714683e-03
-3.867159130088258789e-02
1.096014796620705806e-01
8.668454105525608133e-02
-1.803769875165578129e-01
1.576948666495699980e-01
-1.316697510427193747e-02
8.902505618635189744e-02
-2.529395649573531468e-01
2.409593149614492336e-01
2.845184060362122846e-02
-1.970486330226841609e-01
1.215434407857250293e-01
-6.387789045414830370e-03
1.474667355947706648e-01
-5.435658030419387998e-02
7.943317589245751931e-02
-2.392762000920483842e-02
9.547514416732574838e-02
-1.073698214429986003e-01
3.254927261768014723e-02
-1.118481986228577196e-01
-8.982879261950794947e-02
1.163427109189536929e-01
-2.253539852141227262e-01
-2.731765056106798262e-02
1.102414427028695909e-01
-2.419255060467274954e-01
-1.228772647961191011e-01
-3.366642822961631726e-02
7.490516784692513585e-02
-1.962111002645114954e-01
-1.299607229734631164e-01
-4.341575457763508505e-01
1.158799244884371610e-01
3.933624480610519170e-01
-2.554365640714844621e-01
1.375608991112510782e-01
1.260630191246125409e-01
8.405043145873351829e-02
-2.454166267431604626e-02
2.285838987447542936e-01
-6.315415842662459867e-02
-1.241774122560270095e-02
2.591219050541926916e-01
4.280440759392392658e-02
-1.121187820716105926e-01
-2.686887441058543810e-02
-2.767754377676901259e-02
-1.960024179848648129e-01
5.781227149118129544e-02
2.946812483594171000e-02
2.894274807901101726e-02
-1.819534311317598518e-01
-2.135128573562927647e-03
-6.733610305676084040e-02
2.855807934069377607e-01
1.384287985295211132e-01
-1.817179512131947283e-01
1.078897223909999481e-01
-1.694654319782343821e-01
-1.769861990417475467e-02
-7.981401342281008171e-02
9.033981328309813319e-02
1.313080786087066631e-01
-1.011127292424814222e-01
1.178659735724355978e-01
1.395032142707541556e-01
-1.629224697388543391e-02
1.484295379297006501e-01
1.553410964477533740e-01
-4.706962057600304165e-03
5.062025590419598356e-04
-2.818804750022008490e-02
-1.699631206809886219e-01
1.662186199166622649e-02
3.081417200832655134e-01
-5.906967882981998402e-02
3.669737948994798993e-01
1.018409113150535034e-01
-7.977832060719583507e-02
-9.453611732257892475e-02
-8.214034106692000292e-02
3.868796541001211925e-02
-1.923542897614753389e-01
1.884825742926388992e-01
1.542072997506618859e-01
-2.478206891381382060e-01
-2.039809703802080432e-01
-1.400526702614699748e-01
-2.460139019668316218e-01
2.805947283011879234e-01
-2.354024655095977858e-01
6.133417841604871940e-02
2.426697152263194157e-01
-2.412497053939514358e-01
-2.553468523929503520e-01
-1.955971570602169918e-01
-7.038382238448555317e-02
-7.875840071807299614e-02
2.752029190667663605e-01
2.022771753265053263e-01
-4.523494028468592193e-02
5.720949785925519976e-02
8.892080461902356070e-02
1.406114228694656798e-01
4.145950312348881117e-02
-7.857363620222862499e-02
1.454997821264056301e-01
-1.166201632279706690e-01
-1.989095277630464342e-01
-8.635178028878669199e-02
-3.678933022846909810e-04
-4.035096541255078217e-01
-7.441619372693801526e-02
2.253620862736907815e-01
-3.373448476127136608e-01
4.454017310077876823e-01
-2.014105710047102149e-01
-2.739468022612847609e-01
6.891059805276493477e-02
-2.355431652696910183e-01
2.064637789400061152e-01
1.660864227436043283e-01
6.647305457080852908e-02
-3.520960599975331284e-02
4.324406043641288756e-03
1.949638062313567566e-02
-1.168611690671098914e-02
-3.820985296949754723e-02
7.810938948251722191e-02
5.493661064090667179e-03
-1.132355525815517544e-01
-1.313901047493400663e-02
-1.024380657102662989e-01
-3.930038023859152435e-02
-1.162935449643599795e-01
1.632894697606863260e-02
5.916581109729267957e-02
-1.418470463776198565e-01
1.264099331167122531e-01
-1.174326623190756758e-01
-8.432204852017717578e-02
-1.996340234925658014e-02
-3.395977493049087692e-01
2.315794055641460791e-01
-9.261523901883148913e-04
-6.137573812402702389e-02
-9.430812458019526001e-02
4.083682208183782303e-02
-3.730154211718042512e-02
-2.459692965677352447e-02
9.444230992229173116e-02
1.016197550297532753e-01
1.202037695014947366e-01
1.843984410026549559e-01
-3.176932574368838882e-03
1.210726097763396153e-02
-1.063848497629519829e-01
-7.314440110768001546e-02
-2.875958036336900836e-02
7.924071087659267931e-02
6.843422237436274681e-03
1.551469477531926822e-01
5.620887032184940235e-02
-6.289282679243138330e-02
-7.535804509803324669e-02
-6.947280696844938819e-02
-9.778152618161262133e-02
4.341899751609389069e-02
1.292830798178535856e-01
5.931559364761000708e-02
-1.347951826309082002e-01
2.386984976448779452e-02
-4.391195364289347119e-02
-1.193294128652915009e-01
-1.600869132792001256e-02
8.600337564262958839e-03
-1.847429884082500418e-01
7.581196555501532042e-02
1.767653988222200878e-01
-1.531916510079504024e-01
9.160088348586616080e-02
1.272681272494881055e-01
9.166832249153671064e-02
-6.649443576100740570e-03
2.309012994894317494e-01
-9.324047772109805843e-02
-4.455862149560441826e-02
-1.430346058240319906e-01
1.380907854870799117e-02
8.896611587335437332e-02
1.670432274783525683e-01
-2.215885558446348096e-03
7.429784416611855125e-02
-1.571816588142688556e-02
3.517985250775409328e-02
-8.306273866422295149e-02
1.070578938352342024e-01
-7.250119607736719984e-02
-2.746799540492465830e-02
1.624459331881583299e-02
1.948773793382163333e-01
6.292842376157066486e-02
-1.838100129149330131e-01
1.309041321985912609e-01
-6.149024345528055630e-02
4.549311329131514731e-02
-1.716200394992950518e-01
2.499231993798133600e-01
-5.445615835017933448e-02
-2.221456201231377936e-01
8.368778832131595902e-02
-3.498264522983820374e-02
1.829094120219987574e-01
-6.496575416948907611e-02
2.244807408051374339e-02
9.578988659301578001e-02
7.460841142950380700e-02
-1.657772955737208398e-01
-7.177887515365700966e-02
-1.586577644608340443e-01
-8.209670522364997947e-02
1.056431921148539843e-01
-2.317171539684027490e-02
-4.607429644223054455e-02
-4.238103675568326983e-02
3.719539836437466690e-02
1.124468713275212847e-02
-2.664208328225560821e-02
4.800031607408176276e-02
-5.262602103291543626e-02
-8.584005498001651135e-02
4.667596281182172235e-02
2.376416665802050590e-02
-4.496080442723843912e-02
-3.644644080002138603e-02
7.289617423324236400e-02
3.506419553316072329e-02
-6.977935982096347689e-02
9.646339700341799439e-02
-5.327986500924412894e-03
-1.221902032968558843e-02
6.034714534469733105e-02
-1.414926683086754067e-01
1.393222958965828207e-01
6.158986526563820646e-02
-1.303337477006835110e-01
-3.009375725527842563e-02
-2.660307113905322624e-02
1.221658806140813857e-03
-3.502967923811611036e-03
-2.476112469935322011e-02
-2.194593285393473068e-03
3.191435391736974214e-02
8.968202320076021361e-02
1.026316461868678892e-01
3.218483127273899513e-02
-1.108149146515345213e-01
2.297577549252544787e-03
5.841091868586845842e-02
9.648111815991933238e-02
4.264500376404065096e-02
1.230173070981691319e-01
2.659556884261778456e-02
4.593545548988332318e-03
2.455280458291949838e-02
1.194481072918434153e-02
3.917080546029245991e-02
8.817880210666728669e-02
9.108048326207725254e-02
5.818110937834840984e-02
-1.399526957852764708e-01
2.704824369322663367e-03
-5.191262412384347463e-02
6.610662521945047387e-02
2.897155507920349399e-02
-2.265307489666239585e-02
-4.791001518916891688e-02
8.488071194628329930e-02
1.247682909604558854e-01
-4.785068686192039955e-02
1.212620398461779631e-01
1.841813420962721756e-02
-2.825350421005935406e-02
8.146493527914960842e-02
8.556017567185594808e-02
-6.739307065027427823e-02
-9.278335210973751024e-02
-9.282408863973277968e-02
7.828837109028981322e-04
8.834322681137812827e-02
7.302665551849575609e-02
1.999710140104265024e-02
-2.410606536711126097e-02
-1.760451397621946509e-02
3.543854483762697016e-02
-5.515359497764306396e-02
-5.359240718636869988e-02
-1.069085000251502326e-01
-1.979974126927268319e-02
1.119523092205441661e-01
1.480708353059532745e-01
-3.484519067910260559e-02
-5.031042789410794525e-02
1.311187170416327485e-01
-5.240924187191058764e-03
1.855635468098983110e-02
-2.961667314420204228e-02
1.856708347778365242e-01
-7.211002542670055804e-02
-1.380901245479467521e-01
5.405564025529630001e-02
-6.795848359386617854e-02
1.250709761818536714e-01
1.519243963115506947e-02
3.796607494722028381e-02
3.578488476574143845e-02
7.039368337392461206e-02
-1.048773528078133649e-01
-1.028665072379137402e-01
-9.470026053203761673e-02
-1.101925198051583940e-02
3.554115919702242193e-02
-3.775374984435472120e-02
-1.748592494175627010e-02
-7.532701877938428880e-02
3.449779408010810594e-02
3.520626679535728693e-03
-5.469084712308848982e-03
4.121458382274185983e-02
-7.810993904298429991e-02
-6.429334219421151131e-02
4.068627416435328242e-02
2.175212534006573314e-02
-5.857614725593254107e-02
1.914446713824892107e-02
5.740824737156510066e-02
6.585242710844223246e-02
-5.058050535215570520e-02
8.484372241994179997e-02
1.176519952794754555e-02
-5.707206696455423972e-03
9.414966954416627287e-02
-8.992693979295733608e-02
1.047516449900761093e-01
9.457053337352180900e-02
-8.473026001224358283e-02
-8.500963756588948012e-03
1.392819142710542690e-02
3.883347917084022105e-02
8.409526393435524244e-03
-3.101132545985711003e-02
-4.143720218526576737e-02
5.715777158538534741e-02
5.090836551989110642e-02
1.113487876107587538e-01
1.759800484184941005e-02
-1.094768443770340743e-01
-2.442025866179744695e-02
5.651081587090435454e-02
5.613458780744247367e-02
3.255991611344221520e-02
1.220422193692896617e-01
-1.813305291106524428e-02
2.302251394853591614e-03
2.362400782719126582e-02
3.126062364936890020e-02
7.500079638736595333e-02
8.399255794612010828e-02
8.881248180961788530e-02
8.321477464628523890e-02
-1.626971750211391454e-01
1.536028349574069737e-02
-7.294702595362861919e-02
1.488421661054493694e-01
6.454828895283047652e-02
-5.634081329179853326e-02
-3.806797006146443035e-02
8.585236550182050175e-02
1.111432636395426471e-01
-2.727443463650550473e-02
1.529946390692585867e-01
1.913809622334552984e-02
-1.608831910480798544e-02
9.321217206473374206e-02
4.152191483386437343e-02
-3.863996895263906856e-02
-5.281592732044552985e-02
-6.274818872153815896e-02
4.577456094629915595e-02
9.619688485884861362e-02
7.650402107930080742e-02
1.076972871977314658e-02
-6.242104227180320791e-02
2.778200466086465717e-02
3.151866155966537297e-02
-6.955285918903315878e-02
-6.528159079422846123e-02
-1.597297496815468787e-01
-3.698329675927299054e-02
1.195202821607160293e-01
1.642155904940811595e-01
-3.872566547164285611e-02
-2.115545865271389187e-02
1.217284801809428579e-01
2.676987956177472733e-03
2.601988292258154353e-02
2.591513465649165904e-02
1.710380153304581208e-01
-7.670545733932220001e-02
-9.868908986817542806e-02
1.629878117001119786e-02
-8.236014562611074230e-02
1.606011281745341190e-01
-2.610925051312756612e-04
4.314633615871175942e-02
-8.139662311513316427e-04
8.601200254837930437e-02
-5.827464735685651542e-02
-1.073101041598416988e-01
-4.441789559014187178e-02
-4.285500371478374870e-02
5.636300365833045618e-03
8.771577879492419016e-02
8.633507978887530743e-02
-8.501409553451699797e-02
2.807262568333563357e-01
1.441232844932081869e-01
4.271025565896017888e-03
5.500963434478982512e-03
-1.573584164900552335e-02
-5.855628522450104755e-03
3.723094074618695237e-01
-1.526931448270826830e-01
-4.127676477235558417e-01
2.544867163939147359e-01
-1.686112712810101553e-03
6.552428140640891019e-02
-1.929622475750141508e-01
2.723883601681870159e-01
-4.272732488225883807e-01
4.803418521025146215e-02
1.043760859672140662e-01
-6.673017599834376590e-01
1.897930286685557133e-01
1.896688897648227401e-01
2.354712100288075885e-02
1.118593736203916250e-02
2.595798256238917023e-01
7.208337973295264600e-02
8.834345358666513548e-02
7.891884880540521452e-02
2.222980618177776702e-01
2.567260815622314785e-01
1.252105350848959353e-01
-1.364347884351801155e-01
-1.190390103691447293e-01
7.808300261848573863e-03
-1.787717959999756412e-01
1.023942189700247363e-01
-1.993735577809903348e-02
-1.731123582542460487e-02
1.403569895340902318e-01
-2.142659439477740124e-01
-6.814413994805093404e-03
-2.781949375726992524e-01
-9.811776398578644920e-02
-5.639772562678462345e-03
-4.281055653930066623e-02
2.195672698775915851e-02
3.155682622925437553e-01
-2.067938407069935258e-01
1.509814415057059434e-01
-1.118221925003944593e-02
2.643773744426363703e-01
-9.115564093413699998e-02
3.021158286007797136e-02
-5.954625587019299893e-01
4.346832890703892366e-02
2.321993866083633118e-01
-1.144710828739905761e-01
3.144602566393722154e-01
1.725715662131298289e-01
1.720597691774415627e-01
-1.217388034457231316e-01
2.955899079141582897e-02
9.485608569409573199e-02
1.383391090795500211e-01
4.289075840407309548e-02
2.668613120956256912e-01
-6.499037004577257193e-02
4.831007087370805531e-01
-1.484687975456683295e-01
-2.838624102674358052e-01
3.128198178753878178e-01
1.930210595219096492e-01
-7.920304272112230204e-02
1.181340056320106940e-01
-3.186198407278353351e-01
-3.393147739734297952e-01
-1.250185580891431669e-01
2.795200922323883286e-01
8.083934514275392322e-03
-9.128163646280723631e-02
8.408604385690716942e-02
-2.816111585598847500e-02
-2.529335758700849285e-02
-9.064598592135696131e-02
4.229365382491526160e-01
6.698979342123599287e-03
-1.026946821141302701e-01
-5.220530052409393107e-02
2.517559856052571376e-01
3.044755928477528850e-01
-3.813151997315906150e-01
4.267655781624656308e-01
-2.903606085576014295e-01
3.010334435618837734e-01
9.304689394692504389e-02
-3.740249134789632168e-01
-1.872495104516509051e-02
-1.936703635323963335e-01
-1.509368007956368718e-01
1.427057842159120023e-02
-2.756795192075890341e-02
-4.429094793245415274e-02
3.499832378442688241e-02
-1.382131218785695795e-02
-2.865415828802403073e-02
4.592822584901673499e-02
-3.260132537089995702e-02
-6.995361365402029408e-02
7.535268551320109531e-02
-2.761527711163324836e-02
-5.758131861496049164e-02
-4.686649013975258821e-02
3.201146533198147986e-02
5.178413758963531371e-02
-1.129672940510475648e-01
1.238722024748477313e-01
-5.031742854029809531e-02
-3.690644695661868951e-02
3.873570308505882437e-02
-2.221973841530127114e-01
1.647351362268520969e-01
