8.437301714055923246e-03
-5.143526538905129550e-03
6.048720065742139995e-02
4.749730306571984390e-02
-3.602390748309838159e-02
-9.235182888992683747e-02
-7.311689974609876519e-02
-7.650766251689650188e-02
7.703142796716090646e-02
7.341936977910847040e-02
-3.139051490332903788e-02
-6.373802421108400174e-02
3.701960695254637862e-02
-7.433666618946896398e-02
-5.274537925866399496e-02
1.224753634714804418e-01
1.564772280315787356e-01
9.031116391480126238e-02
-5.760199397948387312e-02
-7.013045393272684946e-02
2.446571325246405318e-02
-1.160449207723209496e-02
6.478150779178722118e-02
6.530171633826033217e-02
5.704315190488008780e-02
2.312568555564028377e-02
-1.149021280427384994e-01
-5.501701836164497872e-02
-3.982283341665380540e-03
-3.531452427076833822e-02
2.470007274856993867e-02
8.521272131196232225e-02
3.304032785417442691e-02
8.619428786650822766e-03
-4.927031874930058730e-02
-4.385140571954454329e-03
-2.923587349762672878e-03
8.408323158393173069e-02
2.580226745777264297e-03
-7.096076876296565639e-02
-4.945192396426199843e-02
-5.230350675999607263e-02
6.097846032766315177e-02
1.249004441662644044e-01
2.667399775765107867e-02
-2.643549068807402036e-02
-6.415921675505197042e-02
-4.085412190747283491e-03
5.350615402666882015e-02
-4.014626483791070705e-02
3.041769582591608706e-02
2.861749375897159470e-02
-5.939853812612484046e-02
1.165741366415027833e-02
4.275922204178132097e-02
-1.169385929440958233e-01
-2.734337458349721597e-02
-6.734744771061002347e-03
-4.037819055167275045e-02
-2.582106725831742611e-02
7.058450314518487090e-02
7.542964677966153275e-02
-1.255710518462006819e-01
1.354369773013007310e-02
-2.585564360604685960e-02
-8.430457846550391127e-03
1.198765553616783219e-01
7.997158549732930055e-03
6.873695203512907026e-02
4.571203363177583912e-02
6.988639859309322966e-02
-1.109661328080933512e-01
-3.513121746194936695e-02
-8.608751609505738145e-02
6.294007193526574007e-02
-3.479778799402569872e-02
6.494270658695068532e-02
9.916455395786085564e-03
5.870533888457019067e-02
9.104227379013467639e-03
-1.770705297919047683e-01
1.075181911726851985e-01
-3.154285980160854291e-02
1.240590995697675274e-02
-1.043760280005823354e-01
-3.410652629902416466e-02
2.091414947848346459e-02
6.073127369560252405e-03
-1.064087555021941689e-01
1.000192810102187163e-01
-4.417585159773406572e-02
4.724517409782992561e-02
-5.675882128137753335e-02
2.666864074865391357e-02
5.370094569016915093e-02
-9.323554345527947790e-03
1.163723176705771939e-01
1.075502204326047873e-01
4.411623762170059962e-04
-3.071627092399251135e-02
-3.616211432337476661e-02
8.115104804563214383e-03
4.570781065590795444e-02
2.638804265284050606e-03
1.142622515419202192e-02
-2.208192887857911985e-02
-2.985279949333113393e-03
8.240110820403318123e-04
1.810371721024723116e-02
3.771521799240271783e-02
-2.275660134199360835e-02
-3.030950825200726811e-02
3.290464805725448749e-02
1.511060770408505227e-02
1.138114953235316862e-02
5.335435111028559441e-02
3.777655581237596150e-02
1.119212373727775794e-02
-6.600526775844051119e-03
1.230101332445400248e-04
2.409216085621215461e-02
-8.525097571651988476e-03
1.852983418908159567e-03
2.490755806452404214e-02
1.840569198251026592e-02
2.551721746218756082e-02
-9.289701895560116551e-03
-4.691253179299575971e-02
-6.582815577557665429e-03
3.206190122771020385e-04
-3.397692389022106962e-02
4.707214100502746246e-02
-7.278346337583698616e-03
-3.760973872758215097e-02
1.473493143305445660e-02
-9.542944016110142119e-03
9.528551199463193913e-03
1.017380774636365837e-02
-1.450030658280883518e-03
2.980798003646313935e-03
-1.137554047688003542e-02
-4.630375554925930670e-02
4.908274692764125202e-02
6.685206132655223399e-02
-5.597127252115956936e-03
-1.960774027306259534e-02
-6.460304673426672806e-02
-7.858646413734400582e-05
7.349279356725871293e-03
-4.601554014193602604e-02
2.460553175059736891e-02
1.924396879000775384e-02
4.767951859954717986e-03
2.780116068354365061e-02
2.774644870473394476e-02
-5.779091956655019874e-02
-5.297156267907357496e-02
2.959355409757110939e-03
-2.097039733413904802e-02
1.695578565101936094e-02
1.837061737494094169e-02
2.430795988487934045e-02
-6.251891857552377418e-02
9.447686123017245323e-04
-2.446880781501880806e-02
2.452719844086330772e-02
8.529401595957801507e-02
1.592975054662910603e-02
2.547939431819053538e-02
-1.189722431451807963e-02
4.639160131002421916e-02
-3.416483678898601245e-02
1.164947944990948198e-02
-2.966485106353895784e-03
1.064408348648568543e-02
-2.134381540022801602e-02
3.587587972470328290e-02
3.055663458578790088e-03
2.799711053688155871e-02
3.296615028061588432e-02
-5.907394443633787184e-02
3.321224299048259471e-02
1.363080392773345639e-02
1.126529649886985097e-02
-5.369167951260443022e-02
-1.627449165879779613e-02
3.706445764163301959e-02
-1.602676179636641426e-02
-3.516197891014925803e-02
2.063577902410293832e-02
-2.910261767257255050e-02
2.141373366444943374e-02
-3.645757647842399335e-02
1.612618938446707534e-02
2.902199374773528975e-02
-9.896755624193778397e-03
4.060566385910262255e-02
3.949496392122656824e-02
4.590063107390520217e-03
6.231930632719143680e-03
-3.295896416246202332e-02
-4.755869439494022147e-03
3.962724196080570638e-02
-6.038161803001868347e-03
1.044726414446214315e-02
-1.294464328073492189e-02
4.304079719644990018e-03
-6.718704345769649713e-03
-3.548359784437845037e-03
1.148711826798362416e-02
-2.634392575219976496e-02
-2.862376433893973338e-02
1.452908381064268182e-03
4.180690745689168326e-03
1.539144969239432392e-02
3.256367417726601515e-02
3.990310796761011719e-03
-5.630413432546625165e-03
4.891255820917434893e-04
1.027151267098471224e-02
2.945971900758628803e-02
2.722728771693943770e-02
-1.934378258809560033e-02
-9.423496338667484637e-03
-2.655785869189201433e-03
3.595654064277535589e-02
-1.297775541511790413e-02
-2.923672341399438657e-02
9.082037040681734509e-04
2.110983589103871197e-02
-2.391501539274179869e-02
2.552734919585498280e-02
-1.279045044668889440e-04
-1.907452136595912812e-02
4.353897302726944009e-03
-5.877048573350315309e-03
2.826200684901133270e-02
-8.371563076960889102e-04
-4.063191161502987050e-03
1.167836236211857760e-02
4.326002094525431552e-03
-1.559528848701740265e-02
2.299691182336423625e-02
4.789586531304333705e-02
-6.764724267770939707e-03
1.532765361224949253e-02
-2.803714377919628437e-02
6.341671121826078852e-03
5.875746125885672813e-03
-4.540066345904708589e-02
2.212629681254693961e-02
3.914729754523272459e-03
1.319833019961375552e-02
1.307119992160636797e-02
1.654612473760919567e-03
-3.829243443265166469e-02
-3.708071383249528230e-02
-1.716895630512031007e-02
-4.899298493626426908e-03
1.568089990764969660e-02
1.316715688153509596e-02
9.696200545503515927e-03
-2.220228331778167571e-02
7.204302736399632347e-03
-3.233232866444835790e-02
-5.118211939014362909e-03
5.457391272113239211e-02
2.424423993537714109e-02
5.722194842544092545e-03
-1.623780269836989920e-02
2.445024941376910954e-02
-2.653796971484422354e-02
1.541680612143310654e-02
5.898582942749123863e-03
-3.095208237856373387e-03
-7.463465104927523124e-03
2.896368138126725889e-02
-3.563202292858904784e-03
2.711736434432995488e-02
1.766534183315379355e-02
-4.902150563375307080e-02
3.122727688199785842e-03
7.153921241546216774e-03
1.942586035035090983e-03
-2.961663601378525593e-02
-1.483094004142571087e-02
3.205500453292069174e-02
1.022958526033106684e-02
-1.935476232296123866e-02
1.417102598650391530e-02
-2.342338704681245706e-02
1.383065549987320259e-02
-1.561692576485294859e-02
1.194809529450196681e-02
6.984444837985919613e-03
9.707621471255929724e-03
-3.339983407890919753e-03
1.958608718109313557e-02
1.027678189643739873e-02
-1.894499132548435561e-03
-1.113578008805738914e-02
2.007711330047876747e-02
6.541294098637967167e-03
-9.554519086637260766e-03
1.849672211954522805e-02
-5.236101654019900686e-03
-1.142811654543134797e-02
4.621921944839533190e-03
-5.776077521067195589e-03
2.394112885530848191e-03
-1.345225759656893533e-02
-1.607923707597862933e-02
2.777633427340538141e-02
-1.384051391856779348e-02
2.691110289835171952e-03
1.452503262739874299e-03
1.465818835178319020e-02
4.513895586019509368e-03
3.030380060654898691e-03
1.833049638256579322e-03
4.536214579254440639e-03
-1.192470746234903199e-02
8.835754596496391694e-03
-1.974204899225869003e-02
-1.085955003869349365e-02
-1.197607911839858492e-02
-5.985053922374282583e-03
5.428160365814532762e-03
5.681482816782951022e-03
8.561463598069366659e-03
7.325235458688485017e-03
-1.210099019868118289e-03
-6.677469461949151787e-03
1.864238339823788906e-02
-5.529627899662267927e-03
-7.504398433922945116e-03
-6.531337914806117917e-03
9.510645203911954892e-03
2.115240611511731705e-02
-1.756009544359489818e-02
-1.007864093274670261e-02
7.759409619504440249e-04
-1.920100652669300828e-02
-1.851731852057130617e-02
-8.614927784469381469e-03
9.408369745073703883e-03
5.017866787433019997e-03
1.814993860724666008e-02
4.997518864215126817e-04
1.092972079936031099e-02
9.823252037391002819e-03
1.248107987151650909e-02
-1.754522874991546995e-03
-1.145947874255549316e-02
-1.123698677612083212e-03
-9.090085719497019770e-05
6.642874283569077075e-03
1.329950686518079463e-03
1.919843318397279966e-02
-1.615023849456746633e-03
-1.394783619457067719e-02
2.563243040320336251e-03
-2.567461906588443688e-03
1.396918227643906794e-02
-8.765239363816781579e-03
3.796139682367255497e-04
5.176419497086464684e-03
-1.518501848315158276e-02
-3.055986210500133502e-03
4.508936326411114130e-03
-7.312039364064772465e-03
1.407420420400080745e-02
6.007907850043888408e-03
9.296550406373943823e-03
8.004675938366821036e-03
-8.041404030034126488e-03
4.388871479263218439e-03
3.786993723503913247e-03
5.944915065205150359e-04
6.503026057221160394e-03
1.147119840514117424e-02
6.629512829437579115e-03
1.101746741857535794e-02
4.529092901642512250e-04
5.801465643398437400e-03
-1.406678631175906210e-03
7.179495267396802764e-03
-8.982442870428033674e-03
-3.020014656091672537e-04
6.827003015581903714e-03
8.184508582907366533e-03
-2.950584449689403355e-03
1.095679818928032949e-02
-5.105535260443691374e-03
-6.373866752283525138e-03
6.097904064976205317e-03
-1.909289311701718728e-02
1.811098594861566477e-02
1.663510227856855594e-02
5.276656733673092993e-03
1.071847610002521489e-02
1.814406215389497909e-02
-1.680306414415120089e-02
1.412386739162176282e-02
-2.145537063074291068e-02
-2.608074177197036714e-02
-3.359605856883482455e-02
-3.419212349861700667e-02
1.175129701958745922e-02
7.471502168324045332e-03
-1.068063691990331701e-02
-1.228426290737126905e-02
1.590070642705080153e-02
-2.165317229737963312e-02
-2.454063504724307565e-02
-1.265592772435347041e-02
1.536474403809382806e-02
4.625472254315616399e-02
-9.148041054021160360e-04
-7.500877414251171972e-03
-1.920248697950250119e-02
3.872625699267575033e-03
3.590778979676336607e-02
-4.526844852582046115e-03
1.861085023106656341e-02
-1.828713361459530923e-02
-2.821185122601903988e-02
2.203329856627530073e-02
1.466381173203614406e-02
-4.132023926732850821e-02
5.205372195218833237e-02
9.254814462066185757e-03
2.402833287725139946e-02
3.221220095861416360e-02
-3.116193224206595738e-02
-2.565722132542707160e-02
-3.214085132091884511e-02
5.206134195290552241e-03
5.773035289394354286e-02
-3.045097539850217042e-02
1.554796000339940878e-02
3.449081733616332635e-02
-1.487677302800059082e-02
-2.639809771397749402e-02
1.171258994163191201e-02
-2.255747647975592674e-03
3.547469820786837424e-02
1.655496215200305543e-02
-6.896061673376276385e-05
3.834087667822591583e-02
5.559426359723121207e-03
-1.399398008430334604e-03
-2.328784302551811444e-02
4.762905434119422705e-04
-1.408118639642793983e-02
2.565256299988209060e-02
3.528460424438041587e-02
2.036823692190943905e-02
-2.717191657104684258e-02
-1.245269728360846265e-03
1.347361601357074078e-02
1.545162870278819073e-02
2.251330576684848830e-02
-9.075768576444565375e-03
-1.430430051182935390e-02
1.662981580463058010e-02
-5.164272348096496379e-02
9.125078891449048268e-03
1.751001770605985349e-03
2.629475156886710435e-02
-2.004957532289932537e-02
1.550507177838241803e-02
-8.199100413338090282e-03
2.406035410026561693e-03
2.026822947465223637e-02
-1.262389948401678764e-02
-3.396480425062266967e-02
-1.405195709554343982e-02
-1.534130277367503183e-03
-1.925287948042573097e-02
7.078152930073599615e-03
-7.441915021900929322e-03
-1.921615863371534810e-02
8.873381706868646579e-03
2.363760174009517205e-03
-2.957440154674311102e-03
-1.597828932057296716e-02
-2.844995152231837281e-03
-1.836032263607797674e-04
3.352813083752280779e-03
-2.467929640224060181e-02
-5.980211926510200192e-03
2.019327809111194985e-02
-2.182731203064344414e-02
1.006353980356350722e-02
-1.580115337179781310e-02
1.146535026071908089e-02
-1.744588912240040059e-03
2.142052625831941583e-03
-1.513871111906993404e-04
6.285461234149728252e-03
-1.995703285503599208e-03
-2.993834050156182064e-03
1.486708343900871795e-02
-7.329912880439234599e-03
1.619991056247568201e-02
6.271095583029288011e-03
-1.356511023124000286e-02
-4.699230731589097015e-03
1.855988141824273935e-03
7.314514630176634225e-03
-1.780246913244169825e-03
1.257897237674997573e-02
7.323088855548986857e-03
-5.788336123677751896e-03
6.838789557532024520e-03
-1.392974281902579136e-03
-1.750830251631221857e-02
1.794187075472881282e-02
-1.392674406278533034e-02
-7.400983518885453569e-03
1.119310903683736966e-02
-6.839888783248608030e-03
-6.949999711545407554e-04
4.558340093326336242e-05
1.531166551231740586e-02
-1.130826934944261300e-02
1.077800248505583411e-02
4.785577891337380700e-03
1.387098789673282470e-02
-6.648755741831114882e-03
-2.052140739612126272e-02
7.060319145231979884e-03
4.213088447496286804e-03
-8.007002727521101565e-03
4.759350798634807457e-03
-3.447883414508502720e-02
-4.941317199824366881e-03
-1.860713509433268090e-03
-3.369126529241053282e-04
-4.064153888009784665e-03
7.754984696682786470e-03
-4.836160746413431868e-03
-1.015648108459830598e-02
-1.160741904009815213e-03
4.368829619711208853e-03
-5.081740270977849055e-03
2.073761073219821185e-02
7.180035296365754396e-03
1.211988433212315194e-03
-2.081918276081274125e-02
-1.854283317189911245e-03
-2.365634295229415707e-02
1.314619658378827095e-03
-7.580135337872200701e-03
-5.645202311395813854e-03
1.109602471079573251e-02
1.455270324879536122e-02
3.892482257836624507e-03
9.076343540828986367e-03
-9.461237767758444439e-03
1.597741849078599535e-02
-1.727296390463911276e-04
-4.325789744930021337e-03
-5.827300246537926894e-03
1.409281588348380940e-03
-8.459039471362825302e-03
6.127640738862920669e-03
-9.443594509331200079e-03
1.614010148680576021e-03
8.321459871536287601e-04
-8.479356308102951314e-04
5.539584974375016610e-03
9.566573546846793633e-03
-9.922636385664011446e-03
-1.596579816532900722e-02
-1.056631572463856070e-02
7.194727734993390522e-03
1.454941321984204667e-03
-8.080921337196853363e-03
-8.282711234913111426e-03
-9.044030806621689358e-03
-8.911042329556150693e-03
-1.273058901972874517e-02
-6.353297799741432737e-03
1.652451221782651365e-03
1.221028921026454106e-02
-3.875526239493821273e-03
6.060028288922052371e-03
-1.301417997559157352e-02
-5.351979262517116316e-03
2.077896192388066065e-03
-3.725394560460751955e-03
-7.181570589545661389e-03
-1.955141318932289429e-02
1.487854003809310766e-03
4.664482377588270723e-03
-1.788660764038522630e-02
-8.096586784620966523e-03
-7.553351040733486711e-03
-1.530987000358307627e-02
-3.556826834623199891e-03
2.157321013360762041e-02
7.127532586681803624e-03
1.802685522389654849e-02
-1.594267762340503478e-02
-4.857652664407303977e-03
-3.051428204356636600e-02
-2.102673651639693810e-03
3.599053509908088470e-03
-7.050356504007124041e-03
-1.661002148386082553e-02
1.188601744373000979e-02
-2.998403185316113329e-03
9.016510797033507052e-03
2.436867699514910432e-02
2.015239745664238608e-02
1.993092482535500573e-02
-8.619200321670111159e-03
-9.003661938364439579e-03
2.111950289409422060e-02
8.032090043276344724e-03
4.407045821352980480e-03
5.002304768387719723e-03
4.854386281530414030e-03
3.142048207112158043e-02
-4.883522105784140295e-04
-1.541382888691423571e-02
7.165858963252621540e-03
-4.045824918346346616e-04
-1.732020954691268835e-02
1.840910368315286719e-02
-7.317241369320388877e-03
-1.607405729836574107e-02
9.063807880224846250e-03
-2.269751496067652294e-02
9.910742939393753920e-03
2.258357655191898725e-02
-1.947968274921963458e-03
-1.277264077106689093e-02
-2.765229589314458641e-02
5.451993226006941057e-04
3.364302690507361970e-02
5.798269612470000750e-02
4.165066762052051057e-03
7.450707060443227669e-03
-1.506871572387339514e-02
-2.851257755479372907e-03
2.094253898517666260e-02
-1.480431928892575640e-02
-8.823325581512619226e-03
2.358978236299547754e-02
4.649024319445724945e-03
1.477074905900798048e-03
9.753259594099781757e-03
-2.730100574120816748e-02
-3.585797734439248596e-02
-1.196879868221028230e-02
-1.544960463237463055e-02
8.791168421666261182e-03
3.997361843411041042e-04
1.340754614396998806e-02
-2.261544848716625505e-02
2.473841904219389182e-02
1.393359067077009576e-03
1.723374075185584234e-02
4.387192574488713026e-02
8.462685355548629773e-03
1.770239505210231129e-02
-6.429315934947395228e-03
2.671349372636788733e-02
-2.266715806963763222e-02
1.558604779611577791e-02
1.039363702581677824e-02
1.653159441458024181e-02
-1.170374348977297821e-02
2.556536997724023416e-02
2.204481386563048387e-03
-1.329588680507577084e-04
7.366531940252819127e-03
-3.392880359100159532e-02
1.740598921916000977e-02
-6.832820164413063758e-03
-4.771322855488727317e-03
-2.059611753916400223e-02
-1.195827539255927587e-02
-1.838394874582500961e-03
5.305792448298499164e-03
-4.655169620909507811e-02
1.846852422935764751e-02
-1.107170573218589464e-02
-3.076084891083181831e-03
-1.609366714473004292e-02
-9.379454067636745773e-03
9.248511912253025782e-03
9.856920246353968393e-03
1.856079885716334539e-03
9.225104381798326925e-03
2.989814736078287918e-02
4.577586893487780098e-03
9.579123209680358297e-03
-6.451025129890992048e-03
-1.790674050837446837e-02
5.033828543825702526e-04
-7.104368475315596355e-04
1.213886936129275618e-02
5.025088277665363395e-03
4.546764622429893773e-04
8.262161660389804761e-04
4.530138048270067157e-03
-7.325765320229100756e-03
-6.664121733971979829e-03
4.443768373210809329e-03
-1.881023631166186269e-03
-1.223641320163238420e-02
-2.789631899537589263e-03
4.134281396609686132e-03
2.222780585522349944e-02
-8.112338539558358250e-03
3.073708486387409598e-03
1.280134324459297410e-02
-4.503797859419432677e-03
2.807675639864958689e-02
3.408788534427907579e-03
8.274845448241426038e-03
7.431300759601830279e-03
6.452226828134970463e-03
-3.111876418152005174e-03
-5.791958123737753379e-03
-1.085058518100682871e-02
-1.549790128659658643e-02
1.367631185930730936e-02
-1.151052998933738830e-02
9.890761781632404284e-03
5.803504275330654671e-04
-1.292378442107018285e-02
8.953412236602899602e-03
4.418285276110494805e-03
8.662726112322343200e-03
3.815859726865514830e-03
-2.553314560820894169e-03
-1.860022268820413867e-03
1.792038840383618561e-02
-1.409603732921543319e-02
-1.349597952218327228e-02
-1.160187495781088256e-02
1.176404562178543292e-02
1.046180892700091306e-02
2.897826945481954929e-03
8.937097693272184201e-03
-1.360660542600519371e-02
-1.987452560998954898e-02
1.034034193728033610e-02
2.605830475955461193e-03
8.990736140772434548e-03
9.163781696428625889e-03
5.172278604829769373e-03
-2.260380383204195574e-03
1.114713591488043429e-02
-5.506770467369124546e-03
1.232103639122178462e-02
2.457243794420668152e-03
-2.550343698114537067e-02
-4.614230806591955968e-03
-1.685589439895401886e-02
-4.597555587956302266e-03
5.819666631846607402e-03
-8.381231599865191645e-03
9.312221839401720090e-04
-1.365756714541747560e-02
2.651013323955975134e-03
3.820825150895940190e-03
1.842812949421363672e-02
-4.421389254639606671e-03
9.678473786673903040e-03
-2.026394572668736502e-02
-2.285323254637259324e-03
3.206061254168246440e-05
-1.333180932265533823e-02
-5.716793479537119610e-03
5.152669854923904585e-03
1.741806633363968126e-02
4.648045382169668262e-03
4.157424997553710484e-03
-7.496028678501021059e-03
-6.621600622256197145e-03
6.083079601378557112e-03
-7.752653655067655476e-03
3.412518070261754549e-03
5.867086139070616657e-03
1.193768429541508524e-02
-9.752060755157186678e-03
1.610354301001685204e-03
-6.036143530134359045e-03
-2.582229182592541902e-03
-3.023282832048845587e-03
-1.089398820874892034e-03
4.960005534336412759e-03
-3.456106116302956437e-03
9.072749705148848778e-03
-1.394479306381856722e-02
-1.055945732202508494e-02
6.086712935592747571e-03
2.832225370812313167e-02
-1.347732578124618587e-02
-2.559607796595868290e-02
-5.922797000662425237e-04
-5.410763670024916483e-03
5.904655594819448010e-03
1.547539538356026458e-02
4.750010065685842005e-03
-1.190387719767342298e-02
2.162969826751693150e-02
-8.453242016645374016e-03
-2.356287843260064786e-06
2.929754064145269950e-03
8.550471693202747400e-03
1.994724642982997551e-02
-9.398343093440264182e-03
-5.819751785673779251e-03
-1.565217153899473024e-02
-1.707811246952608761e-02
-1.028717859699115715e-02
-2.329389798598493003e-02
3.099676722749055910e-02
-1.179742822323756081e-02
-4.811113805992930925e-03
-4.096121807475541603e-03
3.006281264860859170e-02
-2.488155079280672533e-02
-7.195327697620189540e-03
9.875612204471482039e-03
1.424679144509339787e-02
7.816526410258699264e-03
2.381998422851685018e-02
-2.381158484424301253e-02
-9.425217514917023573e-03
5.157890170499037025e-04
1.870044389196957868e-02
9.818384861750814249e-03
-1.197717728038766999e-02
-1.013892884469829066e-02
8.093063871146576049e-03
2.179005744677533704e-02
-1.125037125263003354e-02
3.977708708788458419e-03
2.123244898408533157e-03
1.835722206318872105e-02
5.445510660741247067e-03
1.367680349503373922e-02
3.689927247420451972e-02
2.268903421659807310e-02
7.350658441129512624e-03
4.560684945860573637e-03
8.335206590541214405e-03
-4.282339756069640513e-03
-8.923987479345163801e-03
8.483081601771063490e-03
-4.557726456004673049e-03
1.267742921555262961e-03
-1.890495425802220589e-02
3.889587752685435586e-03
-1.492138191388856124e-02
3.737914240025841817e-03
-1.693845194505189805e-02
2.450181918327566308e-02
1.616493771323094727e-02
2.517156049331354534e-02
-1.112091646788514014e-02
-8.545922309336482711e-03
1.660007659229868066e-02
-8.315747088371430035e-03
-1.170766889138593649e-02
-2.854298460980917232e-02
-7.819032730213965748e-03
-1.585658809044773396e-02
-6.481202925707645231e-03
-6.110521940186942891e-04
-4.601293764208216029e-03
-6.926966692413152535e-03
-2.072736730956098797e-02
-2.114637951914967451e-02
-1.747408045247470475e-03
-1.414360679073663760e-03
-2.227620478402220563e-02
2.156543865118714168e-02
-2.122307139555086597e-02
3.474454662176686831e-03
-3.379091623817327954e-03
8.200505113678169603e-03
8.713486577033980815e-03
1.610104097272491847e-02
6.444482197330668807e-03
6.851717920932487611e-03
8.764504630563461907e-03
3.253980716485150790e-03
2.005354397574648541e-03
-4.426765853369738629e-03
2.869621165370457236e-02
6.982541532622942373e-03
1.198178017035781209e-02
2.366437827489384360e-02
1.320270643052858265e-03
7.386416759110338640e-03
1.083646459057181072e-02
-2.738803133861507106e-03
-2.811407296753966919e-04
2.798050472789746865e-03
-3.439689821866669887e-03
-3.794911685495981797e-03
1.438117276080317936e-03
1.826849567379356526e-02
1.153849207838373615e-02
-3.371829179379343643e-03
-1.555351000953525062e-02
1.354997391421829643e-02
-3.409277752613126388e-03
-2.952680957397977798e-03
-1.230245955558681090e-02
-1.298530907976894015e-02
-7.337661987954516253e-04
1.639458999344787365e-02
7.874698129609903827e-03
-1.352768944781114740e-03
-1.157517549408563617e-03
-6.584711132263386911e-03
-4.082335986351059293e-03
1.831255813117053238e-02
-6.626150614957578705e-03
-2.551912668805125795e-03
-3.899832795871336927e-03
8.541275101467172420e-03
2.804261460008549214e-02
-7.853448421211363384e-03
1.430850799487812328e-03
7.200648318074816083e-03
1.164428521959963653e-03
-8.000975255211957918e-03
-2.728658684581261595e-03
-8.436577687811275608e-04
-4.376250830234128773e-03
-3.567799851019545169e-03
-1.082758509062868579e-02
-3.862208349181470417e-03
-1.506707907640520826e-03
1.760704762484044741e-03
4.579588682286998488e-03
3.862055931583732553e-03
-9.198519371450537482e-03
-1.009044538753516886e-02
6.726354546625006904e-03
-2.918543862029545407e-03
3.798750024227285152e-03
1.043379612328076272e-02
7.971464581524815435e-03
3.254752299964036870e-04
2.046968575669715421e-02
-7.821142101599969435e-03
1.716575632599307705e-03
1.163219836710450636e-02
4.349979469712465449e-03
-6.198363729041860871e-03
-2.322777116756290661e-03
-7.948170289827060850e-03
-9.939374773225241599e-03
6.204584912664216955e-04
1.925145436068601001e-03
-1.292070591494985481e-02
1.268028253476347899e-05
-9.889931224432537901e-03
-3.173504465431403743e-02
-7.226732147084770179e-03
1.541874139837510430e-03
4.923788718686668460e-03
8.480737350178749190e-03
1.175417106253499357e-02
-9.647243718132397089e-03
-6.976082017565115798e-03
1.507997170965450417e-03
1.301458359062787791e-02
7.903813925177131938e-03
5.966740461795231286e-03
-1.276679213268007776e-02
3.447637136859587389e-03
1.074299952741698816e-02
-3.784205244860601534e-03
-6.777856709037239150e-03
-8.202705832610290848e-03
3.522103385283611499e-04
-1.393129092868627180e-03
6.200134918140419102e-03
1.502075788323750964e-03
-1.376071504644995822e-02
4.739623213943402157e-03
-1.297100080780068561e-02
3.183773542322309441e-03
7.100674707581240523e-03
1.709473628297799447e-02
-3.459735537284874818e-03
-2.840989885945623648e-03
-1.388707782170623068e-03
1.939003403705159834e-02
1.156375354287953773e-02
9.938172806097293841e-04
-9.447904826280091248e-03
5.818501603231508376e-03
-1.131448440253238034e-02
-2.160504978195548862e-04
-1.028451420350669221e-02
-2.467832222501716369e-03
7.365316518744046206e-03
1.949000089089787321e-02
-1.367855476990821476e-03
8.445537834952553851e-04
-1.492733234520481934e-02
2.084292212304777233e-03
-2.039765602682326161e-03
1.615910076912970353e-02
1.838744567659046994e-02
1.844721524471798491e-02
1.622159709091625102e-02
9.307595689768688452e-04
-8.323303975941250335e-03
3.371939976432297443e-03
2.012769121911842790e-02
-6.816863493072074318e-04
-2.358030471007077633e-03
4.002195727175581093e-03
-5.703617242408982012e-03
-8.672459469870890877e-03
7.304569869429922493e-03
-3.843456666501881332e-03
1.089407577080915047e-02
4.633562938855532304e-03
-3.795329670496722443e-03
-1.077940236551287040e-02
1.934478537999593725e-02
-2.295430086426045874e-02
1.203640761515320859e-02
-1.216510506319894332e-02
8.969750138066183778e-03
-3.998270861103183499e-03
-6.967338896052225478e-03
-5.910723377673471161e-03
2.075706507800731057e-02
6.280165441312448270e-03
3.801893426271006973e-03
6.173351735534172297e-03
-7.024141859788735238e-03
1.452464517741603248e-02
4.399683197360920945e-04
8.500139718955690427e-03
9.994121124532373904e-03
-4.088229394711618940e-03
1.328686665328948115e-02
-1.541838965918204164e-03
-1.208182137398862779e-02
1.701695459162964885e-02
-5.509729373808744911e-03
7.848606510756110308e-03
8.971708673391944749e-03
-1.076959289801878578e-02
-9.955513460413813881e-03
3.280870343778526012e-03
4.375575593031623411e-03
-5.234187358657747769e-04
7.529499262386567596e-03
4.330467671563164698e-06
3.912355253295293767e-03
2.413234656214383392e-02
-1.972093375046793037e-02
6.452488137670909542e-03
3.967077961115320420e-03
9.325339098159577886e-03
-3.521008640327689260e-03
-2.507685262000017984e-02
2.372021471629212272e-02
-1.265389170034224558e-03
1.611871834374958994e-05
-2.260999726886056202e-02
-4.456654102581780741e-03
2.299577603004908196e-05
-8.509152563546167058e-03
4.458805876442601367e-03
-1.265723598895628944e-02
-6.505993135277816572e-03
-1.287962163161217484e-02
1.352087350991164512e-02
7.917438321844445792e-03
-1.051006122757280198e-02
1.181690244353047342e-02
-3.249499980165504193e-03
-3.736998811664583257e-03
-1.367798907971799413e-02
1.028442901838933637e-02
7.042410798120329191e-03
-1.414493126341973515e-02
-5.915486012451630186e-03
6.287488464492631572e-04
4.095754188893615221e-03
-1.016157103952498690e-02
7.883593638017981700e-03
-7.791940257614714954e-03
-6.904889492134647262e-04
-8.133619774207574704e-03
3.258406719597732679e-03
-2.616023231056710877e-02
-5.375967445945862427e-03
-1.351607497418971619e-02
2.539542091734339410e-02
-1.644229552093742124e-03
-1.940605042123209195e-02
-2.881849330513306523e-03
-2.625553639237499827e-03
-1.581095181953876341e-02
5.294895716220353842e-03
-2.313466091208294956e-03
-6.026572565727906367e-03
3.865882846017789417e-03
7.681229282120407252e-03
-8.392959843567360245e-03
1.903624970456878297e-04
-1.741702891891517158e-03
-6.784950194339279790e-04
4.406815465821289218e-03
-1.053662614948329239e-02
-1.562818683818271298e-02
6.630151705696546265e-03
-9.168706322544534909e-03
-2.721849680665790194e-02
9.464529880556342423e-03
-6.273967166388476867e-03
-4.472095251332743396e-03
-1.360623127047051392e-02
-5.393096601071461701e-03
-8.066511393093818080e-03
3.227503967702380090e-03
3.547148953679752758e-03
2.653460756593026618e-02
5.352196836381881324e-03
-3.150402221034837632e-03
-1.047856966768206770e-02
9.985744612376435542e-03
-1.493393324160205080e-02
5.745522929141131958e-04
-5.313177592170191012e-03
-2.588782684116608737e-02
-1.106221507476811555e-02
6.755733965382642627e-03
8.797524433941003932e-03
-2.971219673687935069e-03
-4.781476476790893874e-03
-5.536673822644352580e-03
1.284764728721831664e-03
-2.874650721047270364e-03
-1.715907043376961941e-02
-4.144065563953239217e-02
-6.071738462032867829e-03
-1.014134556434505459e-02
1.004921026311504997e-02
3.254758810957067948e-03
1.506680915011832968e-02
-3.845850849290797027e-03
7.635736604514554472e-03
2.228053663002656378e-04
2.892827190413083463e-03
3.645415397364757792e-03
1.680817563045277838e-02
-1.922411209629376269e-02
-1.721225552815514341e-03
-9.073723430284459657e-04
9.262627380603054988e-03
1.634180242707709840e-02
-2.972879590586668865e-03
9.431637306280394803e-03
-2.764672496095460421e-03
1.163744147564746076e-02
-1.142995196394604174e-02
-6.560446024867798084e-03
-1.910463436824163695e-03
-3.131184964335813965e-04
9.714888033839722339e-03
3.406035500750530850e-03
9.410262547817013507e-04
9.653570016653003835e-03
-2.736409154526102828e-03
2.016011910611050298e-02
-1.511015863640507301e-02
-2.078229373015413883e-02
3.567270787016922108e-03
-2.318459576195569527e-02
-2.927867353937971175e-03
-9.345006267367769737e-03
-1.094773572747183114e-02
-5.714477259580291214e-03
2.102150411306762362e-04
1.069786564987707661e-02
1.348679803761136144e-02
1.393332884283904512e-03
-3.065120507814749948e-04
-2.109024979944338490e-03
-1.657759125763052718e-04
1.543319540457039826e-02
1.998270234838976298e-02
-6.683056121908302616e-03
-1.292545240433549437e-02
-1.766058730144701508e-02
-4.746910383453587477e-03
-6.275782024712920661e-03
5.661579285402398680e-03
-3.775209550495281161e-03
-1.273663711134993305e-02
6.759228991890629465e-03
1.014909121282769888e-02
-1.276892022297418210e-03
8.201347801753299709e-04
1.893659095530996275e-02
2.842532109891623623e-02
1.599789489852259869e-02
-8.084787364747750629e-03
-9.774055979744920852e-03
-4.494896477242675027e-03
1.103717871540553855e-02
-1.588511737587450668e-03
1.909944361205037286e-02
8.779633712125891470e-03
2.641191354756673888e-03
-3.497202414417824393e-05
-3.795189324120031189e-03
-3.209244383667788931e-03
-1.595592428082200434e-02
-4.568815005412131189e-03
-7.951538328713566098e-03
1.847360582829081803e-03
-5.411891940896532832e-03
1.159643034134668661e-02
-9.098417922089916494e-04
3.721425952798204911e-03
2.364700539206516725e-02
7.593184244176202913e-03
-7.995946922851146499e-03
1.297365141293382700e-02
1.570899044670222636e-02
-1.182930500643289591e-02
1.765851040286285645e-02
1.614615526747573832e-02
-2.054709098532846970e-04
-1.551399745655540098e-03
-1.152153411324859274e-02
-5.480880412339834626e-03
-1.444812862529349165e-02
1.819505349729576152e-03
1.189370308783261818e-02
-1.703610918331371600e-03
7.485830637894796621e-03
-1.195945186602383366e-02
-4.955976444585070972e-03
2.934955247618263510e-03
-9.438411788203173586e-03
1.732175006298493358e-02
1.011676456336832799e-02
-8.602691859610730671e-03
-1.571211459675396493e-02
1.248541540006003689e-02
-1.412997882698369470e-02
2.665403570678560527e-02
8.137003099389668662e-03
7.770773831471590280e-03
2.541453802110720667e-03
4.588941910666327097e-03
1.256641339632522114e-02
-1.060968481216157701e-02
-1.742376964519760235e-02
-1.128960243368603428e-02
6.648399734261439993e-03
9.616374986737126485e-03
4.268560823249151377e-03
-2.595260771189127763e-02
-8.466345345227799593e-03
-1.603280325684684066e-02
-8.909802160347736477e-03
6.620377252330100597e-03
-8.953720162699426929e-03
-1.881718716387394174e-03
-1.777487458081185648e-02
-2.966898596863272713e-03
-5.031229510327542287e-03
-2.180915986459358493e-03
-1.737683890594981032e-02
1.127299147183490058e-02
2.267921451836377514e-02
7.430073630596380381e-03
3.060698876231113426e-03
2.264262172787765825e-03
-1.840328281718025746e-02
1.381937649500601661e-02
1.680562646224814302e-04
-6.503192762673949689e-03
7.616784200263534629e-03
7.827657905973766728e-04
-5.690716637860401177e-04
1.648180100961268817e-03
4.835236588427792304e-03
3.379513866058309925e-03
8.647144647996712549e-03
-2.441076108242913253e-02
-2.348222429714032916e-02
-1.446656993916045457e-02
2.638958273457993504e-03
6.202467756674092877e-03
4.692942736698206205e-03
2.291482709381211392e-03
4.409175580174403732e-03
1.101279788659362789e-02
-6.002112438452790119e-03
-2.732149535116101292e-03
8.717729637754184982e-03
5.656361918795450687e-03
-1.467409327948273386e-03
8.088143147484835871e-03
-5.342834110638807442e-03
-2.552536597450717586e-03
-7.319022049414983938e-03
-2.696501916232288084e-04
2.276360300218019730e-02
1.827992622366416287e-03
-1.240866273226896854e-02
1.867200057489041068e-02
1.713806896043236147e-02
-1.023620066506363176e-02
7.934281806360968942e-03
1.288958145255934221e-03
2.682961541112214264e-03
7.615724029535662909e-03
-2.549378607326367729e-02
-1.414481000361061426e-02
-1.288098108103372715e-03
4.609297176165003639e-03
1.950128755255795335e-02
-4.083554459636466565e-03
2.501872345490006172e-02
2.560871775555923630e-02
1.477456722765734844e-02
-5.829079543592623203e-03
1.964445933044705293e-03
-2.491541078996816795e-03
-4.679232065554448337e-03
-6.125542933046661948e-03
-6.207629044552504145e-03
3.481255994648759650e-02
-6.460016663557629699e-03
-7.557230349287384456e-03
-1.046212608976910576e-02
5.029196589338170813e-03
-2.540647401724443685e-03
-1.671115294367466614e-02
-1.779318456689183911e-02
-5.827092611748245672e-03
-2.495661900395377761e-02
-2.176876912221323117e-03
-5.815680541766641252e-03
1.367375819994131811e-02
5.847306111386316868e-03
1.336051269131439435e-02
1.930195781231188248e-02
2.512201777424629204e-02
8.970292011469805510e-03
7.212598921989932937e-03
-1.242500264481036405e-02
2.269068435839350847e-02
5.810690170287270695e-03
1.510414544758444284e-02
-2.360081023890614569e-04
3.596572984114662294e-03
8.455210575563878355e-04
-1.663641273534007328e-02
-1.901423946393790768e-02
-9.000610558619849197e-03
7.703318452331955760e-04
-1.092327082938635528e-02
-1.314341252151732947e-02
-2.022296924390919529e-03
-1.555310284076914448e-02
-4.970798765912646036e-03
1.713197320441150334e-02
2.180562419659757070e-02
1.080871282888984765e-03
5.821680840911254776e-03
2.367565340525822244e-03
-1.390011785656843427e-03
1.046374015385523890e-03
2.161090958259042488e-03
1.410943445671447929e-02
-3.404902461528175502e-03
6.247923622944058378e-04
1.408300779191415213e-02
-2.297502875629319798e-03
1.191120288859374120e-02
-3.883822980935677186e-03
-1.446977965149218040e-03
-2.586103315274059650e-02
7.718715859916285005e-03
-2.232981561403297750e-03
-1.362536343382862551e-02
-9.841392437796078058e-03
8.245728744722118086e-03
-1.471970925380018842e-02
1.634745138745394288e-02
1.011513473813357002e-04
1.622228994466210980e-02
-1.242513834054185043e-02
-7.431316775945741998e-03
-2.934200882988548687e-03
2.729835234093617655e-03
3.620197316420775344e-03
5.620876896717284105e-03
4.422422834310390377e-03
-1.274653914673424615e-03
1.204946719137519294e-02
-1.000112304169734588e-02
-1.179734311347068257e-02
-1.247914626593876058e-02
4.116375607640112948e-03
-5.246251351356469479e-03
6.894386200941393476e-03
-1.102921963524971898e-02
-1.599091877894491184e-02
-1.167228957086151493e-02
2.931990645714825997e-03
9.041974241010658844e-03
7.708354114756921574e-03
-4.506507845811161435e-03
-1.211484284759477281e-02
-1.548421605809394141e-02
-6.745759713359548992e-03
6.215703814543989056e-03
1.344090262282454130e-02
1.099976633810171623e-04
1.623376569704531105e-02
5.485399740580687231e-03
-2.307956175542914736e-03
6.385853130381852379e-03
1.161126575667278255e-02
-3.656926102948844341e-03
-5.673037674734891789e-03
1.797321312603464977e-02
9.976444159030303793e-03
-2.754764477609417117e-03
-8.745980909381740687e-04
-1.245026895541886079e-02
4.496127341613830909e-03
9.534373000672450443e-03
-2.532747444731255296e-05
-2.767413842408899052e-02
-3.279262753587761439e-03
7.385724914547992653e-03
3.290827453544812377e-05
1.631530276113934280e-02
-1.149105959650881248e-02
-3.731475212571939808e-03
-3.231194487435938567e-03
1.237117834085182423e-02
-2.419107857256647121e-02
2.303756231571629613e-03
1.570190268365281860e-02
-2.667169784159801812e-03
1.113906764882276364e-02
-1.319243967071908989e-02
-1.636368044358522261e-02
2.162560647594712071e-04
-2.338054394565897837e-02
1.739927434278949444e-03
1.366510467415981041e-02
6.806487209302635941e-03
-5.272066711630176393e-03
-1.155465305785983391e-03
-5.503618348127994366e-03
3.066151811905887606e-03
-1.633322452320733892e-02
1.363746574205161252e-02
1.183780046918195186e-03
4.491580095341008751e-03
-1.436060121758999872e-02
-1.744659055374545020e-02
6.125132344606639594e-04
1.608206738575647388e-02
-5.146674917530601363e-03
4.867698533834512349e-03
-9.893956898797734781e-03
1.117230104170699283e-02
-8.120140311565571603e-03
-2.015119427126556631e-02
5.696361869892052968e-03
-1.281085683188402415e-02
-1.014970891137663596e-02
4.546765736094469587e-03
2.243858822812545145e-03
6.396012196525121228e-03
2.108074161740616272e-03
5.477972317075916961e-03
1.570958726931993886e-03
3.017944355657525401e-03
-1.245609482731583131e-02
2.546671403425904839e-02
-1.135893809439738646e-02
7.445856652967157603e-03
-2.145882485271352180e-03
-1.007753675021260363e-02
3.857879103591188401e-03
1.409865917499237772e-02
1.269225515213339567e-03
-7.861356051540306644e-03
1.504435769263269551e-02
6.506019203955963268e-03
6.514504232979076090e-03
1.079223180332016321e-02
2.883417129326556506e-03
1.376035904219203264e-02
1.772218085113262329e-02
4.722693191814462781e-03
1.728235451140320688e-03
-6.258913154112973748e-03
2.589542803717186353e-03
-1.059844225513352327e-02
1.353058375336022370e-02
6.661120611422230962e-03
-1.081039196236054968e-02
2.337508933035640016e-02
-1.049716055516324194e-02
5.627503643201522271e-03
3.085378549724768476e-03
-1.938676373011155238e-03
8.842174108965289436e-03
1.054327100759896822e-02
-7.254521725840885546e-03
-1.185790650061312700e-02
-6.667392414291151148e-03
2.148449981556199012e-02
8.439772569682668559e-04
5.787341296331086071e-03
-2.036728540032763915e-04
7.262131774386014309e-03
1.011366939648349235e-02
1.107445727512257859e-02
-2.223711684029294755e-02
1.266069192657997070e-02
2.995669744528512042e-03
-5.072135244209883403e-03
-4.020746745291468686e-03
3.259956956965065836e-03
1.443753308985596014e-02
2.800775296365274475e-02
-1.869673489194680766e-02
3.018315832404364334e-03
9.452448222524594684e-03
-1.113672077514647231e-02
-1.039430894852465823e-03
-1.336549948142456458e-02
-2.701918776398010320e-03
-8.268807545925647984e-03
-4.985075168724564972e-03
2.041472426234935706e-03
1.469452255957332844e-02
7.076083267672127024e-03
-7.370355401841577683e-03
-1.175843227015734883e-02
-3.631243345131744075e-03
1.719588975780689602e-02
-1.316598727713966417e-02
8.681844236147420388e-03
-7.838262708147965968e-03
1.007072887575619774e-02
-3.368599306748775151e-03
6.049939784150401350e-04
-8.058199069326611773e-04
4.721679714359775112e-04
1.250158646604723669e-03
4.586534554806025524e-03
-3.934454452225870022e-03
4.273784056813864467e-03
-2.634603254159638332e-03
-1.175339041185035835e-02
1.994058476638930957e-03
7.685865971053270837e-03
4.447025959889461602e-03
2.519666529584511493e-03
-9.156500608290049983e-03
-4.851530204418823614e-03
-8.871069240574432427e-03
1.706330205847303091e-02
-1.764836905794321675e-02
-7.730796032013919142e-03
9.048117569550031755e-03
-1.211237862717195850e-02
2.801709913777221742e-03
-1.468187571204061098e-02
-1.359560507735232092e-02
-2.367590470072776856e-03
-4.914929462688820590e-03
-9.270321725618419287e-03
-1.116719487018500790e-03
2.746362572672782481e-03
-1.009891698751877627e-02
-2.174006611973590755e-03
-1.619019251073840942e-03
2.360276246716260830e-03
1.387015867619140544e-02
-7.973276687384112799e-03
5.965350595622471823e-03
9.454696004330426923e-03
-6.346106424718341021e-03
2.071429660151366797e-03
1.139172270418125146e-02
7.246058604158010612e-03
5.278425556520100620e-03
1.409137650198635360e-03
-7.288182495576957763e-03
7.676614638756408017e-03
-1.234603913960872178e-02
-8.673085460156992887e-03
1.170966106622875827e-02
-8.527007078864277598e-03
-2.075463419308914027e-03
-1.131598393609489078e-02
1.224263490290113804e-02
-5.201507391012784830e-03
-4.392982141742969929e-03
4.219483000975043398e-03
1.944696026926125143e-02
9.004892345467268092e-03
5.521259906469176346e-03
-5.186479938148218748e-03
1.299648520856813445e-03
-3.680453514217656933e-03
9.546687997080935059e-03
-2.427772388778420137e-02
-1.532878921206770606e-02
1.140811919839352512e-02
2.631597501011071275e-02
1.230320054344831437e-02
-1.148110965606936353e-03
-3.309900685649120548e-03
6.054942876204402009e-04
-1.319495170396955963e-02
6.240324153402854873e-03
8.870771112140286158e-03
4.624215375567529429e-03
4.019967243999824844e-03
-2.358669727035158075e-03
1.864060971733275812e-02
6.242175967447005300e-03
1.099261721156298121e-03
-5.547636435567626124e-03
-1.163564343832272120e-02
6.454880382894291439e-03
3.778812024655717888e-03
1.507774189738000188e-03
-1.955253044275321369e-03
-2.067525678115198287e-02
1.265613012719207483e-03
-1.297516784248882449e-02
1.781551020694100568e-02
-2.512994354558926221e-03
-2.171704562264166211e-03
-2.823037356192713374e-03
3.596937890908954993e-02
2.119896470916724906e-03
-1.187355660335931255e-02
-1.071015416547282158e-03
1.717761195775437816e-02
-1.424570581954467258e-02
1.332193215487996116e-03
-1.271237387584090231e-02
2.365757066901146965e-03
-2.260762915860853230e-03
7.678241394839112506e-04
1.847574977393448559e-03
-1.789193225285799251e-03
-1.590201234008309719e-02
-8.541343046807045938e-03
1.819497587016055988e-03
-3.928424555220013867e-03
-1.823954389659988504e-02
4.980186453699282298e-03
-1.480768583392109636e-02
3.448169720531228926e-03
-5.031707395524309331e-03
-1.594942085808057422e-02
2.083196315624553669e-03
3.303737266899657490e-03
9.226029154254350786e-03
-7.145002355883117370e-03
-7.232386097312505863e-04
1.188025632746768714e-03
6.692268014714130436e-03
4.901654765348098346e-03
2.592366880342780906e-03
9.303260094590187074e-03
1.057319151973950579e-02
2.154332972448612209e-03
-8.456798656551021628e-03
-1.118830228508481232e-02
-4.814565714774485077e-03
9.243295483452385660e-04
5.093803705305410476e-03
-6.387217724817988336e-03
-9.010139629651454582e-03
1.401662772890896469e-02
-2.692807106776349668e-03
-6.421219890922840422e-03
5.811146091377840731e-03
-1.852219130499240668e-02
-1.632439934917542107e-02
2.440791871909721300e-02
-8.806483406751299675e-03
-1.758196455382187318e-03
5.672759632704404802e-03
7.757307668289816459e-03
1.154016864952446889e-02
-2.710493166539121920e-03
1.067389135551765093e-03
9.644712023284349872e-03
-1.084617464732870636e-02
7.672263309348312070e-03
1.662689464775857912e-02
2.459891383031502510e-02
6.875623497354704707e-04
-2.087926325345130715e-02
1.369472771758871096e-02
-1.536532186710188458e-02
1.061880033834608668e-02
5.388379983001649262e-03
1.193701745892553241e-02
2.458405277004528568e-03
1.272911958485168846e-02
-8.059463947271156697e-03
6.897250234143862020e-03
4.257124188849537721e-03
7.667096352972246898e-03
5.975993421405817116e-03
-1.215010359320145908e-02
-5.608682794760780875e-03
1.192688080412136059e-03
1.899612506635085796e-02
-2.683134955309813760e-02
3.743436370654663805e-03
6.060526207041298276e-03
1.306861869317017116e-03
2.275736749721000551e-03
9.171383647807750117e-03
3.430443607792751926e-03
-1.684552347149172657e-03
2.109805580142980197e-02
7.603408614644245091e-03
4.310029831219087428e-03
-1.305372372419013466e-02
-3.047427235434409937e-03
8.414046872345974865e-04
-8.090775530550247535e-03
1.104637556056781893e-03
-1.351558933874199425e-03
2.358649532460089599e-05
-6.426221195238663100e-03
1.002247729032044662e-02
1.340991994438813298e-02
3.478612700794181650e-03
-6.314960559745670492e-03
6.282975447505149795e-03
1.007314085379509952e-04
-1.424681649494972599e-02
1.285772772287434307e-02
-3.051338562722376302e-03
5.068049180060754319e-03
-1.449814387608810810e-02
-4.464679769055959584e-03
4.364942706551893509e-03
3.603739891819289325e-03
1.560778371870291670e-02
-7.870970202431231202e-03
1.712420434763882752e-03
-1.691803979234645858e-02
-5.158805889179184957e-03
3.924639178087083007e-03
-1.632268371818358524e-03
7.751768053242589183e-03
9.710938453964980746e-03
-2.257312518368494430e-03
2.290722587329018997e-03
9.682431801457155873e-03
5.866911983155638326e-03
-2.070518889683115732e-03
5.203707812292564065e-03
8.393802825052455729e-03
-1.431685190812802440e-03
-1.501244167426845494e-02
-3.979043215969671650e-03
-5.419102990278101134e-03
-9.170273127448985012e-03
-4.741423204966073446e-03
3.139897083185213059e-03
3.141406971991061309e-02
7.248616359658884532e-03
-4.922037519908982819e-03
-9.998806671523334175e-03
-1.950025065048132875e-02
1.623468803594488308e-02
2.541218662225712063e-02
4.837938561662570580e-03
5.717723409169634882e-03
-2.135338971904339120e-02
6.750726349097627144e-02
3.497288165217070366e-02
-5.125959775307657729e-02
-7.208687352766161849e-02
-8.192150896581965047e-02
-5.337483491440377786e-02
7.754781897271340214e-03
2.839513050054454178e-03
-6.322532696385582685e-02
7.402888831698705395e-03
-3.960908916762242299e-02
-2.330842886104315947e-02
2.662581616003465226e-02
3.481221129763354544e-02
-7.678405516058104362e-03
-1.018354647530275159e-01
1.632318178123899968e-02
4.598095994596896469e-02
1.315098734135416308e-02
-4.840435136981804248e-02
2.600197900066255133e-02
-5.823769929734535361e-02
1.355676674221490546e-02
5.184632036477762607e-02
5.298489990619984456e-03
1.666427354133509162e-02
-3.034161760552573500e-02
-3.649453171784115824e-02
-4.214118355428046747e-02
-1.840284294117039768e-02
1.966239820475165941e-03
2.459637533266968018e-02
-9.462504393242084089e-02
-5.886418719984092690e-02
2.843643963993143162e-02
4.190210715478970976e-03
8.136686945909940571e-02
-2.543339323540985599e-03
3.656942328649084167e-02
1.151422063564309754e-02
2.870951888771624931e-03
-2.937491444895190540e-02
-8.015469932174125456e-02
-6.724870210313997620e-02
5.032987694126482038e-03
6.105051939504198971e-02
1.155409295957665200e-01
-1.766105656252272768e-02
3.728541456883519012e-02
-6.806391253716512213e-02
2.236357126265398759e-02
2.470650739660703796e-02
4.624953284655612673e-02
-4.526407892295592622e-02
2.794250623249436988e-02
-1.037655701755892529e-01
-9.202797215378352713e-02
-5.058338626389287385e-02
4.704093983383592775e-02
3.272144393883161945e-02
-4.799478230201661977e-02
4.496514146659765995e-03
-4.914499939104632203e-02
-5.107622721576385305e-02
1.097769367281183940e-02
-3.086790083739016782e-02
-1.244771143985031782e-02
2.355384120411935581e-02
-2.591858662270634869e-02
-4.228690641545820167e-02
4.444185623560537729e-02
9.618876262786320644e-03
-3.043510544894407338e-02
2.030900490514148463e-02
2.844466028899488366e-02
2.091420090053516118e-02
-4.269119419789956654e-02
3.073817995350277069e-02
1.060431992677784117e-02
-8.499418772418018773e-04
5.002695752339859220e-02
4.971393068177106488e-03
3.286173350063847920e-02
1.276874280728792881e-02
1.755964541082129238e-04
-1.284732268978163762e-02
4.381931168707414725e-02
4.218006071382313094e-03
-5.423170012245361049e-02
-1.105217958987675213e-02
-8.517900138990373154e-03
-2.554267712286045766e-02
8.767459548548042075e-03
3.833518801932380565e-02
-2.127835761350093530e-02
-7.644736193728170204e-02
-3.403780027797545515e-02
-4.299840254350590502e-02
2.041544336129889198e-02
4.692723134383980366e-02
-4.330816509678383185e-03
-5.618420278366829251e-02
5.131050465004436539e-02
-1.863004565685573086e-02
4.220672012562300991e-03
5.346625338874447242e-02
4.183478717598254626e-02
5.365099633044193711e-02
5.303913850970939925e-03
-4.652568474482460248e-02
2.027565673513633676e-02
1.884163374018591169e-03
-7.393812861022286929e-03
-1.170140953259776566e-02
1.676029415147326992e-02
3.098977748337081867e-02
-5.800434433156068104e-02
-4.939829078865114881e-02
2.008867699561650219e-02
-4.640436159871083599e-02
2.322395758506473271e-02
3.492212033360169582e-02
1.702054398626249437e-02
1.099109035770631793e-02
-5.806639629399659719e-02
-2.649487685514370638e-02
-3.477663072220332340e-03
1.992261850209657223e-02
7.374997094231339201e-02
-3.188816760752045260e-02
-2.152879693230680402e-02
1.087386474999296748e-02
3.168804553066781327e-02
5.409597438469388592e-02
-7.470605613141461168e-03
-5.132129057325469056e-03
-1.296203058906948355e-02
2.675584070281029903e-02
1.562260766660759047e-02
1.400057442918774785e-02
1.790566236308684459e-02
3.235296306852326886e-02
2.332319551642103583e-02
2.112354075445718737e-02
-1.933801820034700830e-02
-4.331482924189983263e-02
-4.600025427677349038e-02
2.735492272265012056e-02
-5.994163703158442852e-02
1.366879520152389921e-02
-1.659233247301602728e-04
1.996564068019449426e-02
-1.876934194978385761e-02
3.283509464672674377e-02
-2.913021204903078198e-02
5.522926534521022807e-02
6.491666035597375151e-02
2.915946110639053290e-02
3.707637558721541427e-03
9.105641398571957812e-03
1.128570846159305911e-02
-1.190887728983721326e-02
1.161427247094290634e-02
-5.201721129369982904e-03
4.386832821447447621e-03
-6.322453753803735158e-03
-4.629771635178824701e-02
6.210297898876975496e-03
4.319234073311495684e-03
-2.616097243100089925e-02
-4.526156695231000476e-02
-1.469523618670692637e-02
4.046608930783040636e-04
-3.619436313087177892e-03
-7.081789749734695993e-02
-6.446051410560838858e-05
-1.650067150327055778e-03
-1.876583595808764765e-03
-4.882004231488425855e-02
3.382186184181496663e-02
-3.274439521752641608e-02
1.816556801369652308e-02
-2.875909904208542867e-02
-1.660143549949625805e-02
-9.822223184975876348e-03
-1.561283962038309374e-02
6.462952933843524317e-03
3.496837914119347440e-02
3.833489679279476758e-02
3.269901686771160311e-03
1.345206464277282597e-02
-1.097281080713760192e-03
2.006865199104415284e-02
3.634869282413869841e-03
-6.553357682007214524e-02
-6.485724696564852676e-02
-8.485564708018163149e-02
-3.014179120086958250e-02
8.988258200583906093e-03
3.685897785065595650e-02
-7.986510381262923453e-02
-4.291478663092587395e-03
4.003676117240480281e-02
-3.226312261034751817e-03
3.807336913896083863e-02
7.198688403608638486e-02
6.711023406445826289e-02
7.349451880451364494e-02
3.690068188923162351e-02
-2.673052470895733237e-02
2.337599477283354779e-02
-1.676806690904747996e-03
3.446069253121068765e-03
-2.168014048160314330e-02
-3.521447682756045309e-03
6.976860722520321356e-02
-8.171141213118024438e-02
1.862126438516720564e-02
1.699481511173652967e-02
-9.786050868998665692e-03
8.123969011621015590e-02
3.213051507418599601e-02
5.213469928158761396e-02
3.568214683245582181e-03
-1.049703051577847990e-01
-9.087415990506473445e-03
7.299210360693816381e-03
4.238115439827228048e-02
1.038909791966841217e-01
-6.425962058554245127e-02
3.465408028228463520e-03
3.911322200958883971e-02
1.116062308449013302e-01
-2.171593498166860675e-02
1.977383313305702134e-02
-1.902079041437739274e-02
-2.549121664926785186e-02
-4.198728918309411681e-03
-2.331869249666286559e-02
2.770656826018335836e-02
-3.364568771809900438e-02
1.293091812849362504e-02
2.364698140658969341e-02
6.607899832362872095e-02
-6.628625557505510475e-03
-2.576554293063618856e-02
-4.001854452759792680e-02
3.828088823377479803e-03
-9.610697160851996990e-02
2.096201258077725824e-02
6.468596637159275062e-03
8.133882712210119270e-03
-5.176520877255820496e-03
5.721476159281922366e-03
-2.007116628113886359e-02
6.991622895774426971e-02
4.010371643632856115e-02
3.001664584182090617e-02
-8.269105385863751226e-03
4.539088376121983709e-02
-8.248467269180331015e-04
9.139066906726861506e-03
5.194505662014076673e-03
2.870715593626262802e-02
9.930514824011896224e-02
4.934481991380591792e-02
-7.508338628669372627e-02
5.751370281855423122e-03
-2.020825948065865796e-03
1.697503674639568721e-02
-2.134188529516216695e-02
-2.363406872269655998e-03
-1.826577249442927486e-02
-4.343791496501237664e-02
-5.960887518389373224e-02
-3.450307569917322043e-02
6.707862021103502825e-03
-5.835907589175644283e-02
-8.102560761452322347e-02
2.683148271236685672e-02
-7.829878688879453319e-02
-3.138304335644485216e-02
-2.831153749262165648e-02
-8.751950516974284222e-02
-2.852180927206487276e-02
-7.660891489094758314e-05
-4.689321880912735580e-02
-4.290770701493746295e-04
4.771582533400627740e-02
1.255937179550490994e-02
-1.781520995863623488e-02
-2.773068779473455026e-03
1.168021935504695574e-02
5.142693138164530428e-03
-6.509180020239290973e-03
-1.002924985275722644e-02
-1.976935944257306177e-02
1.018105676976516216e-02
2.070673257148005972e-02
9.017264213486312491e-03
-9.776717474115922610e-03
3.733259001437027203e-04
4.222360319224024473e-03
1.395930766958099331e-03
2.275299572541516525e-03
-7.520102325922770406e-03
3.770915498034401164e-03
-5.711963274174370296e-03
6.112359765057554135e-03
5.465660028882326008e-03
1.162865066910661466e-02
8.187876761306172799e-03
-1.107486371077956964e-02
-2.371507392471310788e-02
-1.612311671921263590e-03
2.174646006468279255e-02
-8.395600435743059281e-03
-1.955112385679848904e-03
-9.282935084303403639e-03
1.181041053068290509e-03
-8.820940757696453527e-03
9.166416975333832942e-03
-4.152110995750660401e-03
-1.060464555520455356e-02
-9.478633232998264976e-03
-1.146431151329011834e-02
8.689810144444634274e-03
1.914124519013214037e-02
3.357070645306117762e-02
-1.150176075748705548e-02
5.272200251968284235e-03
-7.971643097726817352e-04
2.977888584859612886e-02
3.873382372075335686e-03
-1.393313476093951996e-03
-2.174421973575261374e-03
1.711663569106577389e-03
-1.023726812163511073e-02
-1.820680763989698803e-02
4.848452965919310305e-03
2.881248201361850253e-03
1.595833116673822313e-02
-1.840105597569092815e-03
9.846311710124617048e-03
3.759152904122816524e-03
8.473250124648959436e-03
5.240859866741637936e-04
4.116656424712380503e-03
2.195129179481758539e-03
-2.536266526717160467e-03
-2.900964866985197409e-03
-3.993713434125619431e-03
9.841897329060709729e-03
2.363406312903785101e-03
-2.415484722045277075e-02
2.514399407517674614e-02
3.841685328486736575e-03
-3.089460302830052737e-03
-2.010399056474477392e-02
2.059082627599169435e-02
1.407985875519618749e-02
-9.795381455599814526e-04
-7.967661685354796366e-03
2.347137606764010745e-02
1.240562979945228654e-03
1.283185493596937510e-02
-1.256451628982979338e-02
8.033423343144909879e-04
2.391329311493022372e-02
-1.284460123074549105e-02
7.962772388694437653e-03
-1.132543930899147441e-02
-2.272232269310265826e-03
-1.151952891583777130e-02
1.099398266901210723e-02
-4.109384293415012553e-03
-1.539629515584981824e-02
-1.754866939102048273e-02
-5.901131458541023292e-03
1.197576427789590579e-02
4.451995124768672214e-03
7.288229416814812935e-03
-9.314447161817252310e-03
-1.388320604738668695e-02
5.435425030124826917e-03
-1.430859747949354832e-03
-8.605546519998695520e-03
-2.327420720921220126e-02
1.095685549444496559e-02
4.469011826709606318e-03
-4.083897435519880798e-02
-8.051115399244574214e-03
5.031094816747983672e-02
-2.102071109666664786e-02
2.940418853884174070e-03
1.027859976549764989e-03
-2.708270674988677226e-02
3.640066382740237902e-03
1.561737378709863316e-02
1.076799145095844526e-02
-1.019232208056565503e-01
-2.863676474963499155e-02
-3.188398000302206017e-03
8.542471710316154598e-02
8.037497824634286248e-02
6.957988844598152200e-02
3.092032132916578205e-02
2.792778584343519332e-02
1.623924747569602256e-02
7.960472180555018540e-03
1.784564174011323001e-02
2.898186826377534622e-02
7.322060825132586416e-03
-2.098669624538369166e-02
-9.287517833557596553e-03
8.570373604323178185e-02
4.247019201093193627e-03
-4.031709886809652782e-02
-4.111653861936656607e-02
6.030536713203695637e-02
-4.637310668184793649e-02
3.911567114358537045e-02
-1.499380370333524594e-02
-5.818311986869650204e-02
1.459023039235815382e-02
4.031180477628983766e-03
5.647612271541015139e-02
5.063282377176617916e-02
-6.413948438841200186e-04
2.056537432765030357e-02
-3.499185280459517211e-02
-3.036516588326182431e-02
1.263161283929957468e-01
2.796321707380107491e-02
-1.831143444769763691e-03
1.074751241167081796e-02
-8.548476678791193384e-02
-1.850698475099503068e-02
-4.829453047621703327e-02
-2.662817610890120396e-02
-2.031966771915646661e-02
-5.979560354480194413e-03
5.704317879204685166e-02
7.749651955306149920e-02
7.166061117895385774e-03
-6.729393246869498635e-02
-1.076334436366316732e-01
-2.040858247066371089e-02
-2.894349696483880172e-02
1.032141401470709763e-02
1.129405390598288948e-02
-1.142409440123093485e-02
-4.338223830886663024e-02
-2.138917950954179192e-02
-4.709682465453220168e-02
4.421247805595340113e-02
9.939336333786845390e-02
-1.461532958977618431e-02
-3.932255799602262653e-02
1.194939471959740804e-02
4.932768138795536050e-02
-3.707341412213195631e-02
3.875784600205529895e-02
2.528974745133262883e-02
3.924810799238641346e-02
8.061343770709314405e-03
4.263905842143630304e-02
-9.294489013481642414e-03
3.478213707894096951e-02
6.953069224300352513e-02
-7.238051863716457590e-02
3.290153264936140215e-02
2.806606228159107957e-02
-3.513518953461470390e-02
-2.404770352197246192e-02
-4.742426015444443921e-02
4.843197194285706747e-02
-4.737937225005466740e-02
-4.545939590998349794e-02
-8.287980663797506892e-03
-4.582902359375325141e-02
3.703968125554407773e-03
-2.273522856495569996e-02
-9.818735101483162461e-03
2.791433219370414998e-02
3.260231334767650646e-02
-3.763917188629837401e-02
1.191347789169945603e-02
2.835969704862824348e-02
3.028988770823172125e-02
-2.102741834510473730e-03
-5.891540744767784134e-04
1.701091389009693963e-02
-2.512578209363391935e-02
2.028819884867418682e-02
3.578929677948209515e-02
1.142105059097740620e-02
9.013894273417475886e-03
7.374099773347258038e-04
-2.001921908100374320e-02
-1.664124987815463266e-02
-9.245322920320190110e-03
-2.700678984670776966e-03
3.503972108763801774e-02
2.484290010783223035e-02
2.032544008927913374e-03
-1.530389912703732612e-02
-1.848114978349740074e-03
9.371862559401495513e-03
-5.901368138049515981e-03
-4.808191893981339331e-03
-9.239376895289943409e-03
7.443647109506840512e-03
-2.831525766985496483e-03
-1.510462415375036192e-02
4.711643068045347216e-02
3.354766028918324677e-03
2.270848658607269640e-03
-1.732134050337304221e-02
4.548623200837616926e-02
-2.555738145696842198e-02
3.045776125966009884e-02
-2.845115651044637095e-02
-2.792553381477768520e-02
2.527071822881557864e-02
2.352732360521108540e-02
1.768758333292047222e-02
-2.191820782604554109e-04
-2.359769946918523209e-02
1.501789528011892097e-02
5.260382559770315249e-03
-2.943030329249233905e-03
4.611331146695037131e-02
1.216497206559974571e-02
1.169689112204013413e-02
9.560379888501412127e-03
-3.212544666419586692e-02
-2.188605021702175538e-02
-2.310376811284792914e-02
-3.408417223182240441e-02
2.078043917463362998e-03
-8.139949026739663057e-03
4.224102094167746062e-03
1.262429510979656139e-02
3.282051997958571488e-03
-3.518738207458321082e-02
-3.193078798413945957e-02
9.044597859896286694e-04
5.542054620246551419e-03
1.425747232381794488e-02
7.823752148041464294e-03
-9.334859392890490146e-03
-1.756848288740293224e-02
-1.464955843727623608e-02
-1.285461486295756857e-02
-1.178565230504032522e-02
3.676888360694374053e-02
-1.402181102812627075e-02
-2.757862545787541711e-02
6.936571865208155004e-03
9.505729586117457608e-03
-3.054347591765838726e-02
1.828662722469612603e-02
2.856358496422670146e-02
2.479987448001520333e-03
-6.444486027555847499e-03
1.997965722428316979e-02
1.382796172047854287e-02
1.404622307450090896e-02
2.571577119766305444e-02
2.171955759524002167e-04
4.647887779005710485e-02
1.046955007200937524e-02
-7.964241760649633933e-03
-1.190982984980118627e-02
-2.409856280212459290e-02
3.012274087976658105e-02
4.028597208724224617e-03
-2.652060458813628244e-02
-1.980323290694330565e-02
-1.561238675804873383e-03
7.589476000810879523e-03
1.823810563488718287e-03
6.512625574914565792e-03
1.638750425157176407e-02
5.116139435009905284e-03
-1.104363123839279849e-02
1.586999267507410716e-02
-9.848592561784623792e-04
5.980137591582746284e-03
-2.532335109685612817e-02
1.791882650036478487e-03
1.957926986311132878e-02
-3.758936921362429628e-02
2.393733492379533298e-02
5.189193064116166820e-02
2.799581051321901187e-02
3.329795494224366270e-02
-8.293322693196927484e-04
-9.115410928572308460e-03
-2.541793089825201968e-02
-1.810055392207484889e-02
-2.632668789746188745e-02
5.482590854561662785e-02
2.907674725524076603e-02
-8.640639741868866991e-03
-1.493538253728645369e-02
-9.934033518064091725e-03
7.208913837307780355e-03
2.159401268578660035e-02
-7.000459785162916997e-03
1.823157272368711168e-02
-2.952697356098636042e-03
-1.590134000472917877e-02
6.266295550594385040e-03
2.055174357523614076e-02
4.533223984194033329e-02
-4.122239801950070698e-02
-2.375143026779856850e-02
8.008672065388712513e-02
-7.178247601548365386e-02
4.147222553269483067e-03
-4.933143711015117172e-02
-5.646470621862861167e-02
5.569899982642520508e-02
3.078259575545738702e-02
2.516599055702258003e-02
2.640279955259628233e-02
-3.140034689815027202e-02
6.609094596949667555e-02
-3.056643117322456471e-02
-5.539180698406022396e-02
4.259559197986196449e-02
3.757107796520304382e-02
-8.117163565774819511e-03
2.611218031180858462e-02
-5.615844235994907341e-02
-1.408493214492150501e-02
-2.015200277755492542e-02
-4.689042459686099812e-02
-1.425554484509932232e-02
-1.569667629092636255e-02
2.733308996696184531e-02
2.940131660367257399e-02
-4.483976214436866461e-03
-3.350956005712252966e-02
-4.202916925943113446e-02
-3.237604193395154928e-02
2.296656815490510581e-02
2.780697671193788426e-02
1.343948521774459334e-03
-3.246949937366754718e-02
-4.921991544577627303e-02
-1.724161122314607324e-03
1.935962769727180011e-02
-3.455004197174075045e-03
4.105954166272848121e-02
2.288274959289855748e-02
-1.970695869818592239e-02
-1.766278262717602132e-02
3.630123481787538020e-02
-2.636310326214221303e-02
3.481849956558678849e-02
1.042182316058807949e-02
-5.264042667455039182e-03
-2.074926534852955182e-02
9.769226697356617195e-02
-1.394027642451095214e-02
3.497769930514369602e-02
5.189946529717984203e-02
-3.412417529928716414e-02
1.707270026849390387e-02
3.810610575559811308e-02
7.144999107203991312e-03
-1.308435359517956141e-03
-4.742056741044583384e-02
2.592942863979250806e-02
-8.126350874031407212e-03
1.407738261742033474e-02
-6.003195633291955567e-03
2.805093044145136327e-02
1.375936867383782854e-02
7.464952858918075295e-04
4.298168248299383265e-02
1.731933340773226387e-02
3.100660935899744730e-02
2.198725265004112042e-02
5.153093454474304627e-03
7.637124857415116680e-03
1.748720861598613424e-02
1.393722993890519381e-02
9.313299170559523679e-03
-3.507908153266306450e-03
1.078993676251339441e-02
-8.735920892653029068e-03
-2.649782995095460291e-03
-2.096783260173314383e-03
1.321530086376651071e-02
-1.452274034093763979e-03
-6.991265503161241818e-03
-1.131938782663400624e-02
-4.537351440314756242e-03
-1.570972841569000938e-02
1.622547262606907972e-02
-9.013843805744240975e-03
-4.993670288972990902e-03
6.859267771386747502e-03
-3.510907093720852003e-03
1.235701025085736947e-02
6.117149588086661510e-03
-1.041443344336021037e-02
8.590991834664832988e-03
2.397197378649719435e-03
-4.303963484166631326e-03
-1.884623121645435462e-03
-8.933173649226959501e-03
3.812896787139453091e-03
8.289232685023680686e-03
1.577214460436558024e-02
1.339448050522338510e-04
1.892602568542417138e-02
-1.015757197536396733e-02
6.597371901571718635e-03
-4.637759883306125271e-03
-1.925033206327163076e-03
-9.478613944858490376e-03
-2.241235650970525850e-02
1.608078771171660148e-02
-1.002501283864480446e-02
-1.017107519606481533e-02
-1.757330041127309547e-02
-1.213200950371348327e-02
1.353579170600903133e-03
6.601387691491340109e-03
-4.947069978364726159e-03
-1.891969505359671413e-02
4.280077911122857578e-04
5.736946894382528687e-03
-2.843206667477314337e-03
4.577228206189618140e-04
1.085375638771627314e-02
-9.238186431490076969e-03
1.675313256010354298e-03
-4.264218355193839468e-04
2.033792860478247574e-02
-1.534522108565569351e-02
-4.721731449454987829e-03
1.765893008250637520e-03
-6.343575514803375878e-03
5.065438445385628784e-03
1.103545019264275465e-02
9.858570940312054443e-03
-1.230118090390455374e-02
1.237884052568189591e-02
8.371444067887031520e-03
-1.200008254655268551e-02
1.888428026888405026e-02
1.211881247786166741e-03
-3.552015425365727397e-03
2.014853679815623716e-02
-9.663046103303792392e-03
8.372463550934804849e-04
-2.859023561414811981e-02
1.389928981613582212e-03
1.429150272492639949e-02
-2.157125237840317941e-03
1.629532616276234414e-03
-1.003709122818167727e-03
-6.496952601495947083e-03
1.138711008496165814e-02
3.156015688462776234e-03
9.357092179093046830e-03
1.234148494307023280e-02
-7.669175928097731777e-03
-8.302372649802852722e-03
5.932379741641635035e-03
-2.916054588975848516e-03
-3.096715021733344175e-03
-1.163721115602684916e-02
5.310173727372274020e-03
-1.999094571378842982e-03
-2.068679148503194468e-02
-1.226678587793747499e-02
7.215212762114424014e-03
-1.065765792194474891e-02
-7.989818176107200964e-03
1.250872588702963729e-02
1.069398066971335125e-02
2.238791344560517229e-03
4.186881706340649101e-03
-1.357232546723463051e-01
-9.130945452493952064e-02
7.043498801128213194e-02
1.404682860482390494e-01
1.788035837520639271e-01
-7.998664881536049487e-02
9.521232106910783310e-02
2.688798136145200638e-03
1.738503432284059860e-02
1.316966842768577395e-01
1.126316870728579778e-01
-1.042920406363887637e-01
6.621094231732878310e-02
-1.151887508305844826e-01
3.742077088105501964e-02
9.378890638768178079e-02
-3.803450336337881738e-02
-8.680129709767486768e-02
-7.478075164561351351e-02
-7.308644902706083746e-02
1.492168447415461174e-01
-6.550147004694825692e-02
-8.963917084431168025e-02
5.398216456316425743e-02
8.415959586414856197e-02
1.748777040614028777e-02
-2.452011759989730991e-02
-2.689320143885985948e-01
-1.906091345287103805e-02
-6.400408594274928364e-02
-2.279081348572484234e-01
1.100814402227120459e-01
-4.220637798121202981e-03
-6.767331063471275021e-04
2.058688830140623371e-01
-6.452746774489966086e-02
4.552545560913347916e-02
-5.792204855257177681e-02
-2.369016761640277413e-01
-2.059122820521720049e-02
-1.292060955326684857e-01
-2.271676782349023038e-01
-1.023847024970317432e-01
2.957566987363768884e-01
-1.202543996387592656e-01
-1.229690535102888338e-01
-6.340833599393176645e-02
8.084620196090065714e-02
1.459083823355228071e-01
-2.253636184595336767e-01
1.437453776288860341e-01
1.305290478680980470e-01
6.896782360447785420e-02
-1.357109137367872864e-01
5.439951835359740917e-02
-2.369805729925194837e-01
-1.008860852662159385e-01
2.746450854402002813e-04
1.070106691279435196e-01
3.660524582629570700e-02
-1.851599539494220127e-04
2.368908570137904374e-02
-1.202871819548356203e-01
1.392434334570767651e-01
-9.887721487657062658e-02
-5.821649416605659266e-02
2.925482045364352079e-01
1.320495830615761590e-01
1.741420667330818850e-01
-1.551029331250226295e-01
1.783067563253321886e-01
-1.653083655490430459e-01
4.299800014317534114e-02
-1.806684145718512879e-01
-2.500212833112075983e-01
-9.234235143895921927e-02
2.527604851034620514e-01
1.210441543621574301e-01
5.230701858671409771e-02
-4.099518476320293536e-02
-2.046618874404686761e-01
1.028115610826101506e-01
9.083429995567528226e-02
1.266814982483647489e-01
-1.784182033638997966e-01
4.298269852045366601e-02
7.927622286583779765e-02
9.583607108649955242e-02
2.473089030300235341e-03
7.782723770041864719e-02
7.002692609077457164e-02
1.953926599612018367e-01
-1.667341989821517489e-01
2.754112354765346771e-01
5.455994124291213554e-02
-1.035972609677526107e-01
1.606141300394992866e-01
1.661018791112317816e-01
-3.227469544672448981e-02
-1.276172915253251938e-01
-8.605577530317203017e-02
-1.154550003944814357e-01
1.393898485473236970e-01
4.386597777749377813e-02
1.786490001419316354e-01
-3.321554899419931067e-02
7.881147776358007895e-02
2.437800201479644810e-02
1.488857064435528989e-02
1.038931334365911924e-01
-1.250800390956112278e-02
-8.727083523961970402e-02
-1.658758505492769853e-04
-1.911162742391849662e-02
1.322732458747514217e-01
1.337744125525812955e-01
-7.451510007381239448e-03
-7.881340252422591730e-02
-2.502162782848146860e-02
-4.037990114080663995e-02
2.185947317035939752e-01
-3.199040511543031762e-02
-5.583469047370824556e-02
4.463463270112865561e-02
4.652540700051795652e-05
1.425347126642842466e-01
-2.996617292577395675e-02
-2.728199041597718644e-01
-6.441875454240916787e-02
7.234902405294540984e-02
-2.348266692881364748e-01
1.815704725799406893e-01
-2.879335916041921364e-02
-1.090766973915388988e-01
1.170586151025995864e-01
7.223564509626967389e-03
1.552509060196624602e-01
-6.658341989593329069e-03
-2.068227869636549698e-01
8.555635874310322728e-03
-1.052309081872952745e-01
-2.386375236715716219e-01
1.039412528537840691e-01
2.759315643562418319e-01
-8.463046224409039031e-02
-1.158416316313118644e-01
-1.818291274352891729e-01
-1.690094508303345913e-02
8.063820350324260589e-02
-2.574323647728588016e-01
6.956263544709706537e-02
1.159065002677814454e-01
9.390118228550281554e-02
-9.984334512877475823e-03
1.171137042354173340e-02
-2.835464771187064525e-01
-2.355310471531639749e-01
-2.029392625110038040e-02
7.854475157556034537e-02
4.125023138735534056e-02
7.924583452410165207e-02
1.020315789483804830e-02
-9.601515930838500079e-02
1.038121859568943567e-01
-1.025883427095345413e-01
-5.433394189792133816e-02
3.690866124347935151e-01
1.052343878873166910e-01
1.166407781527685483e-01
-1.404080400572370602e-01
1.995377790862495060e-01
-2.145281573749751314e-01
1.154146728828510798e-01
-6.764442345749051289e-02
-1.465118319648177070e-01
-2.155415971561373475e-02
2.776746576310870074e-01
8.721620442012463503e-02
1.247342674357799497e-01
7.481604124788752974e-02
-2.111355305584823316e-01
1.220145920508790421e-01
1.062909666585555024e-01
8.206097758588777602e-02
-1.624058279677824124e-01
-2.156790429766010375e-02
1.724130070083146060e-01
2.862009036762905995e-02
-7.975258957255838832e-02
4.301876405504589246e-02
-5.989686441612540081e-03
1.420535611766897133e-01
-1.674316800122132298e-01
2.153212664998957193e-01
6.766311568649704955e-02
-3.739524055514103010e-03
9.733258987360177139e-02
1.465204245267797689e-01
-1.187447642797368787e-02
-8.804076182455276844e-02
-8.120552317123273453e-03
-4.214480752019529597e-02
8.590376601026669667e-02
-4.681414989538096316e-02
7.401001733950172967e-02
7.648094193473743696e-02
5.385988573079458080e-02
1.607848521452701768e-02
7.769006197984010438e-03
-1.098281213479929130e-02
-4.490020107140601374e-02
-1.239965240336489243e-02
-6.673690137377402687e-02
2.761447395879843350e-02
8.255488499571608796e-02
7.257057149214480099e-03
-3.457359339258833653e-02
-4.202497817881500203e-02
-1.880945888056315130e-02
2.411924126027131104e-02
6.177209879303652285e-02
2.115235362513110187e-02
3.350198421161227832e-03
3.158370115695912500e-02
-3.476336579655733838e-02
4.944635582699475479e-02
3.753807393294209677e-02
-6.278105918491841408e-02
-5.835915947472378185e-02
1.047579130178372953e-01
-1.290244811514562051e-01
6.334594776994585674e-02
-3.549047686317825107e-02
-8.413771566210484498e-02
8.806328181990029369e-02
5.417247034649716464e-02
8.362378539868596528e-02
8.528022983579783278e-03
-1.192240289834078787e-01
4.942028317496366396e-02
-4.183383634064270079e-02
-8.464389406422492823e-02
8.086423891250231477e-02
3.863647358062093085e-02
-3.315930081705270593e-02
-1.539648816871963879e-02
-1.248072050198681671e-01
-7.426387966750533365e-02
-2.262692470019998098e-02
-1.393327147038966873e-01
-1.686380084041138802e-02
-3.439680011810628078e-03
-1.426879663915282164e-03
3.686867070241749145e-02
-1.402860859323322093e-02
-9.136756602099874169e-02
-9.596645876555780219e-02
-3.129267229633951597e-02
7.307307483831448902e-02
2.025745868341840769e-02
6.280082183868225532e-02
-6.690854348870134589e-03
-3.222728748728220793e-02
-2.155450590588674220e-02
-2.881608573638943724e-02
-5.862371772504586243e-02
1.360918971597008809e-01
-2.483579081445258172e-02
1.545652408800737669e-02
-4.540242867781099645e-02
7.172753276962469393e-02
-8.984617183337244295e-02
5.006236367986086760e-02
8.130581064839657521e-03
-2.812429260535337372e-02
5.638407501872954447e-05
1.502812582167931954e-01
3.026672953256584128e-02
1.012665117956806360e-01
9.065455791213970771e-02
-6.310390668614837550e-02
8.538628014741539429e-02
4.868295529778007835e-02
5.299332529985399665e-03
1.086850303705108253e-02
-1.723937835010843495e-02
7.523230074061700023e-02
-2.129086867925872317e-03
-3.296830835061675263e-02
-3.473123706695697283e-02
-1.132429018130258133e-02
2.293745575536868669e-02
-4.914166528172084214e-02
6.690536585498918498e-02
2.120342616506887268e-02
5.820497173471202851e-02
1.796807508263425016e-02
3.876834673298076850e-02
-4.806106237375219747e-02
-2.418145321990749011e-02
-9.570255721768833670e-03
-1.452667618322077414e-02
7.861549513899036834e-02
-8.114359329804669840e-02
3.735083916556754258e-02
5.979934130775424461e-02
-4.692608344180583362e-03
-1.979285603558259693e-02
1.977923273698669812e-02
-1.524152817306472472e-02
-1.563581303221512619e-01
2.973665758325516606e-02
-9.103478095350432675e-02
6.921934695812889671e-02
9.360035406168361327e-02
7.662970821675620103e-02
2.187237813507170517e-02
-7.306631996552600053e-03
1.566731460441160920e-02
2.865499220502538968e-02
7.489692846481114941e-02
2.876237773587651120e-02
2.715890722919402436e-02
3.600527735940736804e-03
-8.237700047478940801e-02
1.038004278828203591e-01
-6.781064651216601969e-04
-1.395979238203215629e-02
-6.334739199699376822e-02
1.220364647664796409e-01
-5.063888135536056406e-02
7.220181478897549909e-02
-4.750290025302972979e-02
-9.251398291512843985e-02
6.818195197784673173e-03
8.691174946012243663e-02
1.308235418712322129e-01
6.563058501700901048e-02
-2.334233461397762499e-02
3.385209580272761226e-02
-2.046695677479530226e-02
-4.782980390429313056e-02
1.736175909836606412e-01
7.487877849810402157e-03
3.311084890608760514e-03
-1.021149007190610102e-02
-1.425914426081938968e-01
-1.099116577049540910e-01
-6.137783343018005794e-02
-9.909157781661957765e-02
-4.838487314707270309e-02
-1.882927743300166767e-02
1.775364696520207591e-02
1.184858545210199787e-01
-1.561437665426215066e-02
-8.311040491658988616e-02
-1.431577181795989362e-01
-1.397503479210094116e-02
-2.069207142747119671e-02
1.099991878162869495e-02
8.010447336809302377e-02
-1.860450977616904394e-02
-3.328635329561714651e-02
-4.725762640399590320e-02
-7.008567226136840078e-02
1.264728401412859408e-02
1.219758807199120415e-01
-1.997625345599557053e-02
-2.487846794386514016e-02
-4.493044927499000203e-03
6.971877281838197160e-02
-8.000839649715302260e-02
5.190951692501593467e-02
7.515688325743231923e-02
4.901383336193025630e-02
5.455405591369278523e-02
7.695143991634358083e-02
1.454433784492273687e-02
9.593919806026796060e-02
1.124816625872686326e-01
-6.953760180499524157e-02
8.379139983229323685e-02
1.071198984370815011e-02
-4.171273393924077033e-02
-5.101020969232154118e-03
-6.406235019557478261e-02
1.472231412083015445e-01
-6.477956880861630851e-02
-1.054820513613433514e-01
-2.574423008873405125e-02
-4.252271745821672999e-02
-2.743742688125827556e-02
-5.057667947019891391e-02
-6.215952850688657820e-03
3.423101654866800986e-02
7.554646078157652156e-02
-4.520333430610071201e-02
3.946386225900692934e-02
-2.077731706449519045e-02
8.877688401867204343e-03
-2.655699776090943501e-02
-2.133892388946761684e-02
1.257160917958654311e-01
-1.412592322019356472e-01
1.039883585916757253e-01
1.444327327637112690e-01
3.933914921987990976e-02
5.368234042069144896e-02
1.504003744225807480e-02
-7.302923776815350987e-02
-1.626117825245688431e-01
7.265549172616669708e-03
-1.527714532670234882e-01
1.399020426730193389e-01
1.515456088029820680e-01
2.132031578790077528e-02
-4.307844147915665389e-02
-1.810148093644711395e-02
5.886594934676557707e-03
6.174769803338857332e-02
1.014792306064484229e-01
6.804725979092425547e-02
6.633970029675743951e-03
2.517364337302038443e-02
-1.175061535137843782e-01
1.546540556801546673e-01
4.493641917741728053e-02
-8.306406183351473793e-02
-1.080373752538310167e-01
2.093097129619604924e-01
-1.518793748580256342e-01
8.632979060697902607e-02
-7.903708542980583673e-02
-2.069051599560506882e-01
8.893117203783361402e-02
1.175518652008007980e-01
1.716189750751709042e-01
9.502600052862014701e-02
-1.239842171505323859e-01
1.219800219596799268e-01
-2.131119476629960222e-02
-1.093509974826742948e-01
2.071198062932189388e-01
5.087996132312818526e-02
-4.418069017170123017e-04
-9.315830503428332646e-03
-2.155920152195988648e-01
-1.471022455803125406e-01
-7.669455490944269982e-02
-1.639484720347281488e-01
-7.690448399725019479e-02
-1.597127107868604248e-02
6.580205781642599165e-03
1.238132143309655375e-01
-4.243181279909367942e-02
-1.231389565583571738e-01
-1.960770821341354941e-01
-6.252499100898252504e-02
4.932761009157950183e-02
2.198339984556718293e-02
1.036923540097702545e-01
-1.437139829507506558e-02
-6.469868245662781236e-02
-5.903623727173299557e-02
-5.544672433973586029e-02
-2.355625435149952610e-02
1.885579320443523665e-01
-3.936138637980684390e-02
-3.229367826649027357e-02
-4.813553677231929839e-02
1.074312977834289556e-01
-1.193897130234828768e-01
1.044551975292509205e-01
6.427093765164215711e-02
5.272102081578750737e-02
3.647831957498166161e-02
1.785169382820047668e-01
-1.008902008762141509e-03
1.466698265264783363e-01
1.746844366980374874e-01
-1.011489258372346434e-01
1.210413667829935980e-01
7.312686527002909553e-02
-1.853411458482387766e-02
1.298126192079978626e-02
-5.484414411779801185e-02
1.781952040651429980e-01
-5.515359865665901001e-02
-9.299324893614918652e-02
-8.438710063687784868e-02
-8.197828058689436009e-03
-7.365010750478127519e-03
-3.095056242029947668e-02
5.529595811856368587e-02
5.748979683826305198e-02
1.110664651284418436e-01
-2.110244630004219288e-02
2.443645257872145704e-02
-3.607429142510405751e-02
-4.086706829446712548e-03
-1.514610412596993638e-02
-2.724765746133338273e-02
1.746101442433038442e-01
-1.876006287498512837e-01
1.622566197213465289e-01
2.295614657475144871e-01
1.318815547415574940e-01
9.135874894564702253e-02
-4.084328159016955770e-03
-1.126694023386117793e-01
-1.661241663537791347e-01
4.024860308596239084e-02
-2.179321989006019200e-01
1.588743704678292068e-01
1.952602700420068282e-01
1.508322651197022829e-02
-9.050079249192162500e-02
-1.036717087752315608e-01
-1.258396820922443385e-02
1.223711567424075192e-01
1.200640271452174945e-01
8.457489166970272310e-02
1.328256925624913924e-02
2.652662548053847866e-02
-1.735157774862369773e-01
1.591913824646754017e-01
1.157404750316341352e-01
-9.526123644951318969e-02
-1.582680906519957909e-01
3.253150331802767692e-01
-2.475764523818351215e-01
1.067224868964389839e-01
-1.433769949685984868e-01
-2.530444259043705402e-01
1.661266723686597169e-01
1.736501543667073599e-01
2.395404224517741210e-01
5.389559539146627359e-02
-2.397310718515731354e-01
2.207993672704160470e-01
-4.605176655556117958e-03
-1.556352779517869156e-01
2.180110568821326533e-01
4.815929403507016732e-02
-2.323533679639575023e-02
1.252991350922491110e-03
-2.818600037490935351e-01
-1.836007143242650297e-01
-7.264481664657831961e-02
-2.659284664825621314e-01
-9.546229505762156287e-02
-3.226454127471967831e-02
1.825907422495764640e-02
1.048367338574528324e-01
-5.022974760022694274e-02
-1.676239492183694280e-01
-2.292303823896103265e-01
-9.552013264195061137e-02
1.445453770781612024e-01
-3.103202064812769952e-03
1.528821931744829554e-01
-2.463783881949752758e-02
-5.073743779483966265e-02
-9.711666255353262889e-02
-7.117901571259598048e-02
-1.150418179820205528e-01
2.097510632387394325e-01
-7.642598173421810692e-02
-1.557101121853455422e-02
-9.622314865144437901e-02
1.458286085097919016e-01
-1.865331369807864959e-01
1.237232161517755336e-01
7.313295064529576339e-02
-2.370543740158884485e-02
3.381192652181138486e-02
2.702978016984179388e-01
2.801627948341064295e-02
2.081379145833896771e-01
2.510570362306419612e-01
-8.481350238476995096e-02
1.703279566374080733e-01
1.160723686677637700e-01
1.788449555521949563e-02
4.879718037627091970e-02
-6.898656778225641106e-02
2.438793417517307882e-01
-5.965301466919276790e-02
-3.898381302044605368e-02
-1.124093242321431291e-01
1.884485091881480875e-02
-3.406988641630558090e-02
-5.929458097661609306e-02
7.374913175284958378e-02
7.592127014660149387e-02
1.625405129262947612e-01
1.794359011720539354e-02
2.358204791864334723e-02
-7.305380802462009548e-02
-2.805785804534485783e-02
-1.102491457426525365e-02
-1.724793063077884742e-02
5.972208978502818039e-02
-7.749353521950216872e-02
4.736358892738182919e-02
8.914287502295803467e-02
2.938892007829543851e-02
1.925121032875838634e-02
1.129030574233026891e-02
-4.377664102117483774e-02
-5.590039291608394495e-02
4.733965326797526241e-02
-8.284068767146574030e-02
3.426460230014509445e-02
4.593156103617879876e-02
1.250162801241109546e-02
-6.700624165253685378e-03
-1.944888762539294380e-02
-2.697751352360975435e-02
2.701723265250335904e-02
2.309492690123431807e-02
2.778892665567690712e-02
1.106922953150141567e-02
3.452175366090876052e-02
-6.164998764485898203e-02
7.197896549889627738e-02
2.780144769074669939e-02
-1.726606782665409887e-02
-6.563253726248007014e-02
1.150006053106100296e-01
-8.998017737567591545e-02
4.302415089243346452e-02
-4.755151992533009769e-02
-7.772074926095193237e-02
5.878661548724770786e-02
8.813049306837221486e-02
9.216943975129493483e-02
1.865306054892997001e-02
-1.091922196445889726e-01
7.024569148430585830e-02
-1.551757753945907405e-02
-6.786230765536178933e-02
6.290773589878921601e-02
3.607134252266039343e-02
-9.194262769317814235e-03
-3.206230689814860285e-02
-1.178151411086045541e-01
-8.767691642484844172e-02
-3.632243839688956144e-02
-1.007815379017037161e-01
-2.883345431380201010e-02
-1.954437043218297185e-02
-3.571498094589540401e-02
3.273372549802752024e-02
-2.957694161364717456e-03
-5.288171817854104423e-02
-5.877043770237547898e-02
-4.395291784010056657e-02
3.934577398918727431e-02
-2.390314417584328555e-02
7.897035225046748763e-02
3.529672320765532383e-03
-3.267813815664683680e-02
-3.551516810442661293e-02
-3.218717794815528083e-02
-6.788188477737605586e-02
7.716612661525397432e-02
-1.093970492150783159e-02
2.425605303148067188e-02
-1.836302285367431494e-02
5.113952385159156039e-02
-1.015429726504799013e-01
4.507918498684419795e-02
-4.829088101296555822e-03
-5.653865787898570278e-03
7.411043087716280391e-03
1.221336877002569682e-01
3.540679310442183814e-03
6.790693423674269702e-02
8.793175898577745842e-02
-5.385978231723909798e-02
7.804332384155426849e-02
2.468120821681344529e-02
7.067361905925339388e-03
4.014835865457738739e-02
-3.456183102555616948e-02
8.112378262482751456e-02
-5.478484729140227841e-03
-2.977742018974932625e-02
-3.722205074152984405e-02
1.879721507166486321e-03
-1.311622514283708636e-02
-1.920739215662272542e-02
4.076969080407184115e-02
3.776058087035077254e-02
5.343573126509485599e-02
3.093795314309748939e-02
-1.979904968577912532e-03
-3.760342456129411870e-02
-7.971651552798521972e-03
5.923757740214939671e-03
1.440367771286075278e-03
5.721523582177343026e-02
-5.652593307238053949e-02
1.169736033621727733e-01
1.187850657125634340e-01
1.012538776177007854e-01
5.339183079983237518e-02
-5.504189656785027016e-03
-4.543332186334592820e-02
4.532572524876329889e-02
4.663385014035976300e-02
-1.178254226451094233e-01
-8.998689147889366426e-05
2.427566948641837405e-02
-3.146822467307184429e-02
-6.829175175889547200e-02
-9.848051332013474379e-02
-7.350952324172128904e-02
5.287340958247247619e-02
2.921532515779795211e-02
1.689757782158957805e-02
9.209746501730268001e-03
5.906298596992990563e-02
-6.438892244323268788e-02
-3.106152697934264767e-02
5.796699370114741928e-02
-3.740914864401975043e-02
-5.905510250454582000e-02
1.194276692550639146e-01
-1.295414445214196630e-01
1.136364730099301452e-02
-5.820348019387315552e-02
-4.339976026509399787e-02
1.430950306131283933e-01
5.031512148800629247e-02
6.305160188072352068e-02
-4.771730306077992534e-02
-2.193409605109534755e-01
9.503621547212948162e-02
5.711085064305496985e-03
-1.051779205435260656e-01
-2.356077551434623135e-02
2.228165783080424470e-02
-2.945055682286444251e-02
-1.313163710374362289e-02
-5.704967712682113695e-02
-8.659783002208634728e-02
8.403114520353797967e-03
-1.435937998430933671e-01
-4.424285239189404417e-03
-2.688651887153518851e-03
-4.182262370644154736e-02
-4.500496635086843195e-02
6.626669282569527634e-03
-5.860269489021590478e-02
-8.975082230757481377e-03
-4.515372143616073336e-02
1.416214314864392143e-01
-1.589862329181720990e-02
6.710749502388221877e-02
-5.380754310264009542e-03
-6.524422656089871007e-03
-5.881503316695225331e-02
-5.646955837916873416e-03
-1.555939842233316217e-01
2.999052677217932047e-02
-3.844645931837066544e-02
6.519286806533663992e-02
-6.558114425028922778e-02
5.133985186436564735e-02
-9.198209160227065195e-02
2.968262383343879193e-02
-4.768738208556913549e-02
-6.357564300335277752e-02
-3.335205797283734286e-02
1.740629817951439839e-01
3.592681968954701544e-02
7.052579242785581015e-02
4.007369963229446413e-02
-3.285419652870030099e-02
9.167478684857623128e-02
5.303332646720188004e-02
4.177438823588415506e-02
6.775714000372955181e-02
-3.101917621304432424e-03
8.830370925927459591e-02
2.074218551537480165e-02
3.162258706054226626e-02
-3.829558141603923993e-02
8.132764984943795239e-02
2.754299326836396819e-02
-1.503175632266876872e-02
1.096143102574251155e-01
3.634701621430978108e-02
3.443626200716572161e-02
6.400404932146182280e-02
2.426223770015598774e-02
-1.321470908453348247e-01
-3.256126772129442487e-02
9.681401418523712110e-02
-1.749250210349935844e-02
-5.179003856459098686e-03
5.504437355940193510e-02
-1.478188904613550458e-01
-1.451209936135161860e-01
-1.684799358808202197e-01
-1.650061763045109209e-01
7.220867577531674131e-02
1.127234550025406901e-01
-5.528839320654072714e-02
6.968824959458545798e-02
4.536223630647296529e-02
-1.921750288379893146e-01
-1.109583172877630503e-01
1.308518460698088748e-01
2.420544448608705213e-01
1.765862918029728612e-01
-6.474096268296912482e-02
-1.244333887998794463e-01
7.132035579030138184e-02
-5.908620542477337201e-02
1.053104298904588981e-01
4.751723059005036331e-02
-1.299575024441858469e-02
2.422366666839066707e-02
-2.560320762392059302e-01
1.195117571975529147e-01
4.160936839253969594e-02
-1.643216940600622511e-01
2.752828678905904769e-01
7.921815679242096009e-02
1.290892714213815740e-01
1.193397302767104651e-01
-2.764617919363479004e-01
-1.395827120408929881e-03
-7.920593723089706245e-03
5.216368601013594841e-02
1.931439992819228846e-01
-2.392829407896617522e-01
-4.531020049202998633e-03
9.302606257669851497e-02
-8.167415908809164127e-03
-5.937127202153750366e-02
4.207096936767538986e-02
-4.579955413728598046e-02
7.391767047995671802e-02
-5.923454370140752989e-02
3.921315801695362396e-02
1.080331659874971539e-01
-4.179738705320904663e-02
5.429231769712580813e-02
-1.147293398747022269e-01
1.980280959274801841e-02
-2.455949291172298404e-02
2.545942364692823073e-03
9.818576095641623480e-02
8.576364192124977248e-02
-1.580071425004000163e-01
-4.469995477640133913e-02
5.988306414017875723e-02
1.130255878024714750e-01
2.882322084778414159e-02
2.049052562166202643e-02
1.214655728198575819e-02
4.086175623766784976e-02
-3.482974953266212287e-02
-9.964777567771079467e-03
9.509913410988987681e-02
8.457594751165907476e-02
-2.267210184893607428e-02
-3.570985760585648067e-02
-9.167565709425987142e-02
-6.751196226470046816e-03
1.699907703213128229e-01
6.240465014219098022e-02
-1.775680907480857995e-01
1.791965521464555441e-02
-2.899834215149526412e-02
-8.241540725018332847e-02
-5.945377098110168207e-02
-7.230394130362119767e-03
-1.311596438724018654e-01
-7.319210249372759547e-02
-8.252260832796452783e-02
-3.366533397079964768e-02
-2.009861164164134916e-03
-1.027265014062425132e-02
-2.160131525137808928e-01
1.300796723022682178e-01
-1.150177728726491794e-01
-2.801239660721001334e-02
-6.288562974244318871e-02
-9.954903188005373438e-02
-1.320852855934866003e-02
-3.325708755525193933e-02
1.131258317702935404e-02
5.078847352028591916e-02
3.448263057790175012e-03
-3.439381071198004125e-02
-1.278756622938978689e-02
-2.787253542569638476e-02
6.215128550571762805e-02
-3.731755644562191609e-02
9.609597658159019229e-02
6.166360328935373974e-02
8.293461957116285421e-02
2.105110257473518515e-02
1.291785678833120600e-02
-9.821550517625989019e-03
-3.733689030193478031e-02
2.019808904380376510e-02
-6.330433278327282642e-02
4.814894199237991675e-03
6.381468340981670540e-02
-2.085881178801924588e-03
-4.864515547482556324e-02
-4.599317808360400828e-02
-2.214708466609845855e-02
2.470303656686010513e-02
6.907990413821286924e-02
1.346360452392846886e-02
4.932639939259579999e-04
2.862822466231745508e-02
-3.529054145831257705e-02
4.756244187648332039e-02
1.598407449274948100e-02
-6.545961724556347006e-02
-4.538143335125636307e-02
1.049963816411923351e-01
-1.044277022556967111e-01
4.916911072247479725e-02
-2.052742526023247638e-02
-8.047380530952628896e-02
7.794203577845665309e-02
4.847428450660143384e-02
9.022202799539690010e-02
2.063540525887695015e-02
-1.198996909659630350e-01
4.673680882353565408e-02
-8.099829180349276542e-03
-9.712351879499157847e-02
6.856633988399023216e-02
5.290070625015645678e-02
-2.408401250799592497e-02
-3.777954061428385329e-02
-9.545303006859540140e-02
-5.707224029938381960e-02
8.672481323803806798e-04
-1.228074473950937079e-01
-6.966894847076719050e-03
-7.190008990626638348e-03
-2.559628164317458935e-03
7.708453613657430953e-03
-2.818205732174794767e-02
-8.834017446886394120e-02
-7.409787388236192818e-02
-1.399552795590773904e-02
6.309160225974368152e-02
7.343969277427739957e-04
5.878101754639561416e-02
7.742870751666207363e-03
-2.492862472884220873e-02
1.441355390382686487e-02
-4.778933854842556950e-02
-5.222587406616975569e-02
1.225045377202400032e-01
5.815725732223085871e-03
3.741601735618790142e-02
-5.916183066913571070e-02
6.147151205488812775e-02
-1.026033279715784646e-01
4.697521220425034810e-02
-1.502629019376347519e-02
-4.830580190673808283e-02
-1.106250259557913472e-02
1.424314760968444227e-01
5.614850223698738402e-02
7.619000600114883559e-02
6.232874909919076251e-02
-7.704978052063903016e-02
5.950950081180825940e-02
6.138578427198933263e-02
2.125146285638964891e-02
-2.275674884989420041e-02
1.745848806989213882e-03
9.707218169035178312e-02
-1.074456486876946366e-04
-3.582467499469766531e-02
-7.743613647814209279e-03
1.542359883839138947e-02
2.020945579824913116e-02
-7.170741385112323896e-02
7.821567136329274361e-02
3.491266451002954241e-02
1.119686229860969787e-02
2.386681934452556178e-02
3.894276758628997803e-02
-4.010060770691604992e-02
-4.791407650894560777e-02
-4.253823851837480047e-02
-1.634046983905616812e-02
3.114037173035422157e-02
-2.220440086084854436e-02
3.266739391050371699e-02
3.502812943739166030e-04
-3.124250950822733339e-02
7.083703193822818260e-03
6.110138945201295038e-03
1.256169833832391017e-02
-5.725072664071743228e-02
-7.395110485545078327e-02
-1.074719434343587507e-02
6.709248235836307028e-02
8.219982727276109458e-02
6.096241633343857380e-02
2.994850871906154337e-03
1.455601845037339352e-02
2.865047415848267012e-02
2.075469445978612992e-02
3.292477684133429672e-02
4.907750124306490408e-02
-9.978290630695099347e-03
2.434086145474382776e-03
3.726504158331864821e-03
6.429479868762282002e-02
-2.726759092617934283e-02
-5.233883703923957603e-02
-2.104767303989000735e-02
5.694955378024997572e-02
-5.177960954533305377e-02
4.973368738139674616e-02
-1.688222382352877818e-02
-7.256720623378028201e-02
6.749187016509178294e-02
1.895343662913649349e-02
4.572876000045728723e-02
6.434366561000950946e-02
-1.765651240246223982e-02
4.655626675365670541e-02
-1.529854524625637834e-02
-4.112508475318610995e-02
1.194792693363627561e-01
6.939269560102362400e-02
-1.545186574128619948e-02
1.897921361338240215e-02
-9.268738199002653222e-02
-1.454100771261587939e-02
-3.045888076451233259e-02
-4.176741968304942265e-02
-1.320443336746042430e-03
2.056568074586865788e-02
4.222190195962823717e-02
5.770089578342304376e-02
2.911322046901503122e-03
-6.016425972903943764e-02
-9.199851590977095595e-02
-9.521246100785526328e-03
-6.166599798635618614e-03
3.964425906100192687e-02
1.136572756255827162e-02
1.190672863656699583e-03
-8.341914506812821151e-02
-1.137510253588375209e-02
-2.957376211367081578e-02
2.583267905544444840e-02
1.180636374384584214e-01
-1.622148634956565791e-02
-2.181738391847411196e-02
4.209688929394523639e-03
6.026959550486276490e-02
-2.620973864656317778e-02
5.719195125611838820e-02
2.554106501849645605e-02
1.613217587706858303e-02
-1.662524294050330559e-02
5.344643636353035854e-02
1.109374943144225689e-02
4.611769413109185339e-02
7.805424850079580035e-02
-4.538336177457433923e-02
6.774234345971860694e-02
4.091224878287332001e-02
-8.791966016986747096e-03
-2.590687573782161218e-02
-1.795468238572865000e-02
5.812845390816042540e-02
-2.438099937689279170e-02
-4.792646325067641960e-02
1.875743574456273030e-02
-2.747685852791894798e-02
1.679170385324171497e-02
-3.644470447542830227e-02
1.147264677922706609e-02
1.783567303635659462e-02
1.428937423623965162e-02
-1.626564532395183282e-02
3.903047928087339385e-02
1.825952447674945162e-02
3.065735876628090939e-02
1.394635059005482590e-02
-2.424939804898592136e-02
6.293116209815582951e-02
-6.339161460291846406e-02
2.762753690791364125e-02
6.891307609970873105e-02
-3.084596408272870151e-03
1.736824012509559714e-02
5.932517914707695871e-03
-1.799858554772342314e-02
-9.950168436611023237e-02
3.291379510001962022e-02
-5.807580994085138199e-02
3.337297757205364562e-02
6.931429219095500138e-02
2.777509330733143877e-02
6.911570393839210069e-04
1.611513852161836069e-02
1.754520835694158010e-02
4.211398226984956056e-02
4.011769470061640058e-02
3.190685636034571587e-02
2.020482340675426244e-02
9.126887790192167102e-03
-5.375606217235204959e-02
5.559200535003871319e-02
5.451282092762952704e-03
-6.326407605362891796e-03
-6.371450096085951031e-02
1.079366649017869800e-01
-2.986264825226992575e-02
5.902707158396272580e-02
-1.124522823447533793e-02
-7.186462476339236516e-02
-9.837034297624731860e-03
4.217810864640874485e-02
6.732552542468096812e-02
1.766586031993148259e-02
-1.412169202051092622e-02
3.746982840736591547e-02
1.549395700495372497e-03
-4.619992601131830273e-02
1.263206840912870499e-01
7.865809981289958661e-03
-1.086298628036545463e-02
-5.871531748270959229e-03
-7.692550503964280806e-02
-7.525611779038667015e-02
-5.200921631938444645e-02
-6.404361047576329069e-02
-3.790738181442349086e-02
4.786291355832176901e-03
4.399974073690649141e-03
6.849586141691642316e-02
-1.774812597955963481e-02
-2.806903629397232078e-02
-9.866848667522137850e-02
-3.907213259508304781e-02
7.729245451922626964e-03
2.376471672712514652e-02
4.414761168316008039e-02
-6.698794282507265947e-03
-1.998499031813328122e-02
-2.700064040466119281e-02
-1.905185807627647263e-02
-1.457659745781519217e-02
7.193805789030272013e-02
-4.420017834352269609e-02
-1.752461898456876251e-03
-1.408253552168546932e-02
4.222065002034179615e-02
-4.608326083162767040e-02
4.099591393267681266e-02
4.921432901922562914e-02
3.986997084583803613e-02
3.575394667417347572e-02
4.109304595324360376e-02
-5.967346198691995257e-03
6.230931134041398783e-02
9.488077554394921953e-02
-2.317888852336446454e-02
5.650291836392484085e-02
2.988739862209910739e-02
-3.176090810725813729e-02
3.011554433025885949e-02
-1.448604207627081364e-02
7.970393108797936554e-02
-3.112071115616664788e-02
-6.487993536151379081e-02
-3.492418530385009434e-02
-3.296706647490341147e-02
-1.755194760209984745e-02
-3.104385580240695899e-02
7.568340730004735270e-03
3.914716418573663953e-02
4.185209360441137505e-02
-4.368547116452155959e-02
7.123523577655609638e-03
-1.009680220319256888e-02
3.329448776858396665e-03
-7.469265668389643564e-02
-3.096995475272258658e-02
1.361370417389730358e-01
-1.343078599876176282e-01
1.655120076309365695e-01
1.787880577691414175e-01
1.393052082975746175e-01
1.326381401420970718e-01
-1.451541363134020452e-03
-7.150753147850713587e-02
-1.477376778274013536e-01
-3.154581204434440955e-02
-1.445080984623491327e-01
2.154598957286907035e-01
2.016908871948143445e-01
2.600400397564181162e-02
-1.161362212982649106e-01
-9.344544254949756212e-02
3.683806638451968263e-02
1.043257453219266911e-01
8.952886759723432952e-02
7.809350875349679866e-02
-7.836610375469784534e-03
-7.133591651783622624e-03
-7.179757000383718557e-02
1.495885584565792292e-01
1.324112032038659570e-01
-1.692225562987736687e-01
-1.337481822279079913e-01
2.849410903809182494e-01
-2.851378417486114536e-01
1.015811029051351122e-01
-1.422577941676397284e-01
-2.616540411620123519e-01
2.288403142053581085e-01
1.044302695178601359e-01
1.606560285500656104e-01
5.273054486879291680e-02
-2.213322715817773179e-01
2.283176179676375261e-01
-1.842899965835704396e-02
-1.802613683389834021e-01
2.608244019006189518e-01
1.405801443496158265e-01
-3.288218777923694602e-02
1.696408765497090659e-02
-2.614959743049365959e-01
-9.172826794164122555e-02
-5.793676377937284627e-02
-2.289744224769323933e-01
-4.179177879333531576e-02
-4.881014073910493883e-02
1.039449966418369009e-01
1.317635713289037058e-01
5.109524971619433184e-03
-1.557499432933287797e-01
-2.863493298986183322e-01
-9.728621027186734604e-02
1.262887246353692761e-01
5.898963152867302273e-02
8.337752290623989815e-02
-5.947194195796966232e-02
-1.025120705864012299e-01
-5.297715256832005032e-02
-6.802578328545171027e-02
-3.575744911817419630e-02
2.830330450366496664e-01
-5.720783983032002445e-02
-6.028524685724030024e-02
-7.284777127037755928e-02
1.365973432855140945e-01
-1.372047266653411701e-01
1.462830664458515673e-01
6.353294849571834713e-02
-4.922789547201462251e-02
-2.319214686675651754e-02
3.033653561322162129e-01
-3.319928044999373787e-03
1.908855947474113468e-01
2.309349217721953507e-01
-1.100698148481417532e-01
1.454355003168529004e-01
1.646814509199508447e-01
3.626838359432216219e-02
3.570748401255696008e-02
-7.043385327076397140e-02
1.797470788905729810e-01
-3.581841210690642208e-02
-1.718712746916868997e-02
-9.793858410018581317e-02
5.336660773828148102e-02
2.155172679125321594e-02
-4.937978556381668327e-02
1.264523542619019059e-01
8.407934217406166921e-02
1.167090186582433048e-01
5.556841128669748331e-03
4.615837169447176147e-02
-1.249088844583787564e-02
4.569184769142701358e-03
3.401486830184604986e-04
-2.020014918749912097e-02
6.803682209829205185e-02
-6.320098409181652832e-02
4.878924190341289019e-02
8.814706510222536373e-02
6.010400535861875476e-02
2.960605657654062986e-02
2.757815900096926773e-02
-3.268157378790804285e-02
-6.034286655449635356e-02
2.863579625708967055e-02
-7.840334581673238934e-02
3.918619133827323797e-02
4.462923728644648674e-02
1.657340724577180749e-02
-3.439832478445214309e-02
-5.695889024563950687e-02
-1.826413075774658765e-02
3.751116409663776685e-02
5.902498853609629975e-02
4.769878774353381035e-02
-1.031980144069087873e-03
1.507343435204213690e-02
