1.042956328118904041e+00
-3.737977422387270821e-01
-9.933052226032627885e-02
-4.500305249055957524e-01
1.272002477907840101e-01
9.551837354561037996e-02
-3.130115384060560418e-02
-7.741077556226821921e-01
-1.460044326510585681e-02
-5.523294267423517478e-01
-9.796649993666811662e-02
1.925970923462202444e-01
-6.638956646280035345e-01
3.655281512551071532e-02
-2.139764876325106202e-01
1.963089546491003368e-01
4.066851462150035124e-01
-8.833758481597174528e-02
-4.226768143791586052e-01
4.972579282285565991e-03
4.272916760892456756e-01
-2.027621553663944143e-01
-5.404616554649355198e-01
-2.796658170543700472e-01
-3.987930727295143501e-02
2.191694113394118404e-01
-3.268918955559054762e-01
-6.033445352175073051e-01
2.573363946308633854e-01
2.805461235325625302e-01
8.568513132516959729e-02
1.743274995357561863e-02
1.248818622841637443e-01
-7.255021249142680206e-01
-3.621212889601146956e-01
-4.038267394748443762e-01
8.419326922356086540e-02
-6.184699723601449345e-02
2.623868310572192719e-01
1.084676543389630626e-01
-2.925921015214489329e-01
-3.571734442339154492e-01
-7.796087646339146249e-02
-5.971610667371320957e-01
-2.767057821089888292e-01
-1.978864104411565406e-01
-1.591527276041753425e-01
-9.973806344837576887e-02
-5.200576632384683595e-01
5.423711931918198115e-01
-3.296511650449822639e-01
-5.519472324072297598e-01
-2.188889493560563018e-02
3.800819111857065002e-01
-3.331677513857588258e-01
-8.581996611612568993e-02
1.741081228658447888e-01
-4.272691253856399918e-01
-1.224011605072335487e-02
2.812166378030268588e-01
1.740816514692766215e-01
-2.923218890955256999e-01
9.577813559497963536e-02
-3.066780851885579362e-01
6.942087631151139249e-01
-2.724805210424919300e-01
4.435897254317588967e-01
7.887411523420646831e-02
-2.378429801099825047e-01
6.355740515582046779e-01
3.820886968148110019e-02
-2.139961506245678380e-01
-4.337149386333603029e-01
-3.698441627162509238e-01
-4.496280029126223377e-01
-9.354465846190464229e-02
2.370411187669540509e-01
1.091917865258625470e-01
5.204109476049335603e-01
1.887352800690712540e-01
-2.304935524882154863e-01
5.478368372912562762e-02
2.809844318883026881e-01
-3.498711802994847742e-01
2.596709734445954224e-02
2.616197817845830054e-01
5.102510547474278096e-02
-1.639119715573270353e-01
-1.924804543574064331e-01
-6.694575166804467292e-01
-3.412597117164064414e-02
-2.601570335761259622e-01
-1.024615732352646830e-01
-1.669067464494963793e-01
-6.377230833280300715e-02
-1.956083069822961429e-02
-4.502939791800224245e-02
-5.775534091862467856e-02
2.682855740503004571e-01
-6.156829625565083397e-01
1.461492381265142859e-01
-1.346575771558608525e-01
-6.304794924798461098e-02
7.991932771315225781e-02
1.692196818201399111e-01
4.782260932638639911e-02
-5.131128689947862809e-02
-5.013927077814311212e-02
4.288842984444993928e-02
-1.174450511649551693e-01
6.867514268886042161e-02
7.630469224226071878e-02
-1.897460582807229332e-02
-4.737506345721206186e-02
9.203408049065171792e-02
-9.338454578142581231e-02
1.329123923994225964e-01
-5.210118550804647246e-03
-1.397146363161359817e-01
-7.749105068547335051e-02
-4.390586125231762255e-02
-6.862455302511519251e-02
2.386279760338754288e-02
-1.059969428152920772e-02
7.879749008969921809e-02
1.508744414636395137e-01
-3.973059626733881772e-02
-7.409637679613283179e-02
-2.751462762260130021e-02
-5.228508627385806962e-02
6.167382692775974506e-02
5.162719128662806439e-02
1.731980164431484170e-01
-1.406137334701055425e-02
-1.167536537197720048e-01
-1.623559350181355276e-01
6.584626848363939189e-02
-6.353899513868173365e-02
1.113792457462769309e-01
-6.958143458896078049e-02
-5.149080653378883266e-02
4.456242584338548918e-02
-4.185963974398140136e-02
-5.501445887267984725e-02
-1.783301360858458584e-01
1.321597046023552935e-01
-1.761369421553512019e-02
-1.582950476716457611e-02
-1.344767145833785371e-01
-1.067077703251767540e-01
8.545648177268153067e-02
-1.481689570990313565e-01
-4.387708241913310797e-02
-2.929203583836292521e-02
-8.666167787682385604e-02
-1.174483849985369921e-01
1.163503316097635881e-01
-7.251788303725290041e-02
7.708951238385393367e-02
-6.818841160158405079e-02
7.493203669631355590e-02
-2.418678849207241410e-01
1.709761250939617339e-01
-1.044843232221455004e-01
-6.396180925579705856e-02
2.120796588677546432e-02
-1.516383600020851929e-01
7.189301635211366170e-02
-4.953772223851826695e-02
2.468366288971673705e-01
5.323096042717662124e-02
2.473579819404822522e-01
3.272386449353987398e-02
-1.134920537412423547e-01
6.707249443105924025e-02
-1.031118869805140170e-01
1.990387765790788688e-01
1.470201812612500873e-02
2.364717764626520780e-01
1.512457327307542843e-01
4.906998727065596533e-02
-9.837740282525558877e-02
3.428039983520376754e-01
-1.282084164137625437e-01
1.908888539462308132e-01
-6.808614305583990389e-02
2.178127132097186225e-01
9.397955644323953417e-02
1.321500459222655320e-02
-1.617320092450325389e-02
1.834975914405116704e-01
3.040572289973928616e-03
1.024732295610429056e-01
-9.478364672855335571e-02
-8.374178238321357270e-02
2.626613222059940855e-01
-4.337933555463437119e-02
-6.756967492314894241e-02
6.408250904810382231e-02
-6.085748394837547232e-02
1.170457119636247184e-01
-5.380920010350517813e-02
8.637550369634219198e-04
1.795295427500858895e-02
5.787244582081403632e-02
4.264367736641419548e-02
-2.817542823797215129e-02
-8.417474309922406972e-02
5.100576396090855669e-02
-4.166628137354078804e-02
-6.057128855362334079e-03
2.169170056056280924e-02
-2.929737958610873633e-02
4.600942666594072701e-03
-7.886346563070158883e-03
-2.754886078203292593e-02
1.362012038067536845e-01
-1.703143524153064026e-02
-6.193568651492391969e-02
-3.596374079598816526e-02
-5.942031343510497353e-03
-4.415577025620393004e-02
6.143191789712021574e-03
-2.981643896343656383e-03
2.050342258035907014e-02
4.383114209442118270e-02
4.734446574545444868e-03
-3.277327879275296341e-02
-2.956512785288925235e-02
-1.107364544167477836e-02
4.305807372582921844e-02
4.149148654219357579e-02
1.071015149864009419e-01
-3.008815164494752295e-02
-5.576761842019893611e-02
-9.164116455682035089e-02
5.382792521463463514e-02
-1.456360113459606587e-02
3.498104248237098729e-02
1.837226014452689226e-03
-5.996972281350382294e-02
-8.163282391551782537e-04
-1.565094488774565820e-02
-7.235477799205215776e-02
-7.665856147905557305e-02
3.861027839100770326e-02
9.246958875362637845e-03
8.428616211449766870e-04
-8.239186384977975619e-02
-2.717434177789140176e-02
4.672466748118406926e-02
-1.010328006531158451e-01
9.207673388671582318e-03
2.156620711472921267e-02
-5.217850304687816215e-02
-3.414582660463828800e-02
9.572838484178287921e-02
-7.441249814430186960e-02
8.391196047705076072e-03
9.306612054110910762e-03
7.238215191583388664e-02
-1.255826570583188639e-01
7.656654027940668072e-02
-4.202401454514090307e-02
2.151489728306569746e-02
1.027925619840728069e-02
-3.159368825675859527e-02
4.871727139855381444e-02
1.422450500129983017e-02
1.185986555302098316e-01
1.941571549295404570e-02
5.823176575549592754e-02
-7.018564402673702074e-02
-6.540291892787142292e-02
3.144366814106736713e-02
-1.921533454995184159e-02
1.608174150436059990e-01
-5.762152163122759643e-03
1.256439517755270907e-01
4.755654887227635935e-02
-1.086263029131464891e-03
-4.673757097061281840e-02
1.480631708672741631e-01
-4.138783945960588379e-02
4.577008135633987840e-02
3.513361664856155114e-02
8.046323264210465676e-02
1.523369028979586030e-02
3.161396626737685706e-02
-4.711372245289401767e-02
3.862789118184899867e-02
-3.827767684538754128e-02
4.604399216671765244e-02
-7.158981939944226991e-02
-4.675340186265339315e-02
1.324260254710723228e-01
-3.479931406521650020e-03
-3.991636832154955156e-02
6.804638692387761367e-02
-5.369851755027205131e-02
4.806258678591305428e-03
-3.283229144889383833e-03
-1.006414068022280610e-02
-9.105969764314722839e-03
1.691208411404583958e-02
1.286937118891171017e-02
-7.771507520265931446e-03
1.395889480953618061e-02
-2.169493980903262204e-02
-1.129992855203950861e-02
-2.014878627099121397e-02
4.678418168168594661e-03
1.142113679306758743e-02
-1.521877819419233460e-02
1.265993712657125132e-02
6.840250432967193974e-04
4.088042618696165545e-03
2.107853206163459812e-03
-4.672531989785765831e-05
6.195262152804213718e-03
-1.466361318755912170e-02
-1.407915983717417888e-03
-3.341471761486920766e-03
-1.010951139913848253e-02
8.268672023586238345e-03
1.314012308461391838e-02
-7.475476548495585752e-03
9.600575864355639227e-03
1.247157742518843239e-02
-8.456631587076272188e-03
-8.916563008770932077e-04
-1.491563180039181744e-02
-1.298666552730782554e-03
4.560257388682186983e-03
1.731709763237862174e-02
-9.674263182226390881e-03
4.657926052997766499e-03
1.273646295741430283e-02
7.077047662168701320e-03
6.015394735640602550e-03
-1.231885065772429224e-03
-7.001909012228939820e-03
4.042772485188866546e-03
7.381394519824936891e-03
1.578815261161633718e-02
1.008194074107086544e-02
-5.737416345130681369e-03
-1.165119807628725059e-02
-4.519865009208453091e-03
6.745868794634267591e-03
-1.616443731871463826e-02
-5.348531454245816427e-03
4.988892468192058886e-03
-2.366335013951399290e-03
1.228074145316527394e-02
-2.272300267546486369e-02
2.748566655667524210e-03
-1.238540765626254883e-02
4.713108174959847532e-03
4.713679822161856957e-03
-1.777241116520004646e-02
-1.456103468479146359e-03
6.628169030335790898e-03
-9.084581064810016288e-03
-9.560122142103749665e-03
5.318903593275053042e-03
1.777154246362767183e-03
-1.255325859193824611e-02
7.442001217077207076e-03
-8.595077547070707757e-03
1.665106270084112808e-03
4.603010223293931349e-03
2.605918109576618215e-04
-3.248420219337657105e-03
-5.164007096423394415e-03
-4.350676226705340634e-03
-1.831468282662056246e-02
1.433650615077357174e-03
7.386686585498388434e-04
1.706625873113413669e-02
-6.167975192726630465e-04
1.132737105248906792e-03
-2.695937141321576216e-03
-3.473500237557583872e-03
1.372949298303326529e-02
-8.135696441302117665e-03
1.655174873162421414e-02
1.314654272111089527e-04
-1.009717621152724648e-02
-6.281398823871685820e-03
3.608269851193270593e-04
1.282735298824691679e-02
1.517422238344084962e-02
3.531443479962469937e-03
-7.355870018531743444e-03
-3.160415285453099278e-03
-3.483696707420758792e-03
1.072292170274401560e-02
4.158180855355409801e-03
-3.271387356025584180e-03
-1.166101528560322120e-01
-3.722843307984312344e-02
-8.115510488367307096e-02
-4.219881436580713574e-02
-2.149906988352311837e-02
-6.871130822664585358e-02
4.448025353770861112e-02
4.357474590295688094e-02
-4.706578557275901964e-03
-4.714627469638491691e-02
4.218212958855788175e-02
-1.328282371179081468e-02
6.564725369558743751e-02
-6.769259171749521242e-02
1.115982495285687409e-01
-3.797896889525689823e-02
-8.158311013933097766e-02
4.772786126066663054e-02
3.380603396547482431e-02
4.643312656299355273e-03
-1.504149176424951322e-02
-3.657773712085727463e-02
-1.015142226178535403e-02
4.618956229532920899e-02
7.167718692188312923e-02
-1.415004998269928094e-02
-4.544433825366245294e-02
-2.981452235781298019e-02
7.761382271200771565e-02
-5.286917642292310315e-02
2.539295701786843662e-02
-5.530132967339966565e-02
-5.329962918739800798e-02
1.744205523211529718e-02
-1.257647825875455802e-02
4.445402658162573434e-02
-6.005287536370966517e-02
2.142629466712468386e-02
-3.393182186830795422e-02
-9.690003439180465417e-03
1.204454664469905983e-01
1.559963326470252196e-02
1.051898525880922905e-02
9.375888658412465104e-02
3.407749392505388109e-02
2.438039677646550510e-02
-4.613066554564454469e-02
-2.493120436371416143e-02
1.981106359385201993e-02
2.278674910945907919e-02
-5.031306726824222308e-02
1.002250676952759212e-01
6.842495742143503423e-03
3.404223959017030343e-02
6.955861135692156978e-03
-6.734913474297930802e-02
-7.281032323797093087e-02
6.354333238160610187e-02
-1.606015391818390106e-02
-4.179697027606965598e-02
-4.555254756949034256e-02
9.583884540339887570e-02
-3.397962744736334612e-02
-4.853674581232118868e-02
-4.689931654316009668e-02
-1.985458366126529803e-02
-4.491173229474320489e-02
-4.978129881089956438e-02
-7.741097705522273498e-02
-3.788405783448530600e-02
7.793924538921806477e-02
3.287621737455286020e-02
6.488095330272562744e-02
2.160449105785362464e-02
-2.007556605687193726e-02
-5.530506139841381841e-02
-1.877076954045160118e-01
3.616869460381572782e-02
-2.556707875479349509e-02
4.207372171279551848e-02
6.497185886648562669e-02
-4.910681366254934658e-04
-3.715201630244670955e-02
-9.186749682132341194e-03
3.149923822677854618e-02
-1.100284445331236732e-01
3.808287992765650720e-02
4.812750850287493554e-02
-2.910082980285967971e-02
1.160100499022219955e-01
5.494129275526945383e-02
2.797140619926024793e-02
2.478970169282436117e-02
8.455168575390095698e-02
-2.119688730262265022e-02
-5.949090928746014750e-02
-3.442962063462481903e-02
2.602744082820969418e-02
-5.263911205074087163e-02
5.939848909640666613e-02
-1.021528051568780689e-02
9.866755096926943525e-03
-1.636359511502934183e-02
-1.529949152370628333e-03
1.065871621202186398e-02
-1.592906059345232384e-02
1.689345996634535052e-02
-3.106841368781860895e-03
3.137484443876215577e-03
-2.834580919874526116e-03
1.355858647146460615e-02
-4.592255204707767179e-03
1.046919803000537832e-04
-9.572180832188314364e-03
2.250017085300044448e-02
-8.454721463307817569e-03
-1.881094722423894486e-02
2.031543336395475602e-02
3.107003828001411467e-03
-4.944435292179886685e-03
-5.742283988345721173e-03
-1.676358099053861309e-02
1.345542045667842343e-02
8.543212625106004834e-03
2.045784520666722034e-02
-3.155727116430584889e-03
7.197024332457065132e-03
4.336160557166029821e-03
9.456644720841024185e-03
-3.832770561545746635e-03
-1.809954309093075040e-03
2.878003614322147477e-03
8.953228578446879513e-03
1.085370489047590356e-02
-1.265285413501416809e-02
-5.741074130661015518e-03
1.482178537793696002e-02
-1.336963950899164788e-03
1.689182691672117161e-03
4.288939604483357759e-03
9.105232470237804854e-03
-1.284758929471940640e-02
-1.388748864488558755e-02
1.174221080611680817e-02
1.065505401635471854e-02
-1.762105668797858682e-02
-1.769042348065596928e-03
1.006741025174382430e-02
-1.841751415998496566e-02
-5.843669785941568891e-03
3.164160192588518113e-03
-6.113241925121538564e-03
-7.696531026181147039e-03
-1.465351771766923959e-03
-6.725257896476617009e-03
-4.875826281930301792e-03
-1.357021657603680979e-02
-3.053509312964020408e-03
2.661711383266318186e-03
1.885227885465126088e-03
-1.221561571370389371e-02
-1.398321726331572083e-02
-1.365737968581303037e-02
-3.137384608168013872e-02
-4.535943055000534255e-03
-6.397189707849243803e-03
-1.021679308096130542e-02
-1.368821449540717425e-02
-1.702705616074009706e-02
8.611301602908412456e-03
3.285282141421054514e-02
2.164097868668600835e-03
8.314883041786907611e-03
-9.081575936893309178e-03
1.537256549846035582e-02
-7.795748619450441376e-03
1.646021955183401891e-03
6.697543500769095708e-03
7.417977921022052105e-03
3.867190680368608083e-04
5.621747260156260972e-03
-9.108009464369881550e-04
1.479381105086662734e-02
1.235014616986936271e-02
-7.508058657570718976e-03
8.316786352367461221e-03
1.641456567607021966e-02
7.638212556257646842e-03
6.768515916027316622e-03
2.078126666144631055e-02
9.145035608370990013e-03
8.452794329328574413e-03
-1.019989070645490464e-02
9.495456587350289274e-03
2.456207215912272184e-03
1.273946805360324369e-02
4.935898897818325956e-03
2.605287416894863650e-02
2.807110112372874361e-02
8.847014026461231043e-03
5.706121926876000193e-03
-3.688097578259117576e-02
-1.025367801852606481e-02
2.067539172922791546e-02
1.036460839939368772e-01
9.622400936085385992e-03
-4.149670747768316459e-02
-2.868377241026080424e-02
6.374669922251409437e-02
-1.733087020208256765e-02
5.313123650202052767e-02
3.308037660362893317e-02
3.588051704461664437e-02
-8.684419215681520032e-02
7.203648907450854733e-02
-1.242939807781685141e-01
7.035843237613746692e-02
5.091671123496888107e-02
-5.881743951443473700e-02
-2.390041643979541608e-02
-9.469747234653690506e-04
-6.796304074540061857e-02
4.839867485343840592e-02
1.119867277863076556e-02
1.381321778471652217e-01
4.681768100685657075e-02
-3.134521929098196130e-02
-1.521404146336764046e-02
1.151791424828145852e-02
-7.226694555378460061e-02
3.570102314287249348e-03
-4.273493519095565574e-02
1.074438374324240830e-01
3.252679711687279235e-02
-8.002365514440568095e-02
-4.034318208014176649e-02
5.657265080394868056e-02
-2.372776930542182597e-02
1.365458834717824975e-03
-4.631652214994517319e-02
9.531016355704173548e-02
-2.441630174376397538e-02
-3.304050767880788858e-02
-9.604683041642969599e-03
-1.127440082496192902e-02
5.830120067844490883e-02
3.714094054065904347e-03
3.711782964589738654e-03
-4.809350555198578514e-02
-4.569850683797817281e-02
4.393709586496111208e-02
-1.711416752876277966e-02
8.826730522117584923e-03
2.400659976090291359e-02
-2.176554157945922649e-02
-1.017131225564273378e-01
3.950781409283510293e-02
-2.654776042336663873e-03
2.901908526117603221e-02
-5.759372140068802493e-02
-1.674139779410105302e-03
-5.454074724153921971e-02
1.290484939308682855e-01
-1.171706293889620831e-01
-5.710998541178631538e-02
2.106059303107725086e-02
-1.049209735274045513e-01
1.788245635649585857e-02
1.333629389135251690e-02
1.232623089265824229e-01
9.461856754270657477e-02
8.912688603264737330e-02
-2.117569406702799611e-03
-5.294367640788490842e-02
4.812077197568254833e-02
-1.467003441188673499e-02
2.899026110095834566e-02
1.773935715214833633e-02
1.058777726454206702e-01
7.962182834086856120e-02
6.153538655641255933e-02
-7.290664316874752304e-02
1.625121684536609268e-01
-2.651534314654796845e-02
1.030788615763937044e-01
-2.816009199954455644e-02
8.601224106716688633e-02
4.254886069108158864e-02
-1.635637948837432437e-02
4.449327702998857881e-02
7.804373071129720729e-02
3.564233842194913793e-02
8.601948863445153803e-02
-4.060661730523750651e-02
-3.644920737831260082e-02
8.055477418771625486e-02
-1.187164617186264176e-02
-8.393262281690176685e-03
1.718685882780691260e-02
3.174886657409436291e-02
1.872683787128773952e-02
3.354370619345571972e-03
-1.317147071775508910e-02
1.102768572050469471e-02
4.372380402431898065e-03
7.120388626374736865e-03
-1.756917632069292592e-02
-6.100558582085083975e-03
-5.399406564067755002e-03
2.361200166496464550e-03
3.947851412059163534e-04
-1.874559426731989970e-02
1.179864508035050399e-02
-1.465764755455647300e-02
1.693313896703659005e-02
1.721360086913194601e-02
-1.624402871516899497e-03
1.138554896890877494e-03
-7.454636855862953153e-03
-3.033871923607265914e-04
6.480348656041814981e-03
-8.150427214139291388e-03
-6.463605580455328639e-03
-5.619177102630314342e-03
-1.638053267887115477e-03
1.867283792826418196e-02
-4.791740076196226474e-03
1.283429014541431420e-02
1.228667018659375908e-02
-5.405905285863717158e-03
1.460674528391185667e-02
-5.986656221617404038e-03
8.949222529253030023e-03
1.047629193570893090e-02
7.248880560677678627e-04
-1.185890919142607719e-02
1.254587490444329829e-02
-1.414294767608552036e-02
9.877578603483285619e-03
-9.437956850318739849e-04
1.047928565102858658e-02
4.624767449710515468e-03
6.748446139108818173e-03
6.168308492172282047e-03
-3.114543977625673556e-03
-2.187712462440126199e-03
-1.186366871937710211e-02
8.721177648753398320e-03
2.489714750103536544e-04
5.292095237236432020e-03
8.056967177764639762e-03
4.149846850444846927e-03
2.597336915690590629e-03
-1.270326057913147288e-02
3.851816895213550519e-03
-1.090213791839446562e-02
-2.081935078881649165e-02
4.217693263978680718e-03
1.715000567780129714e-02
-1.774626011984451607e-02
-2.256364415348604321e-03
-2.663031099905529761e-02
6.712791739373860818e-03
-9.837953331235599688e-03
1.128355747532772992e-02
7.260579732042597191e-03
3.152671553824839407e-03
-3.660567884711742655e-03
1.375886622157520417e-02
9.925367353957378208e-03
-1.025752712998229468e-02
7.276002954654096390e-03
3.469351377397547100e-03
-5.214138678249954570e-03
-1.440481437269365865e-03
4.976035228324508786e-03
-2.318921611936430177e-02
8.254009840511859417e-03
-3.114700731668322369e-04
1.020286115045404042e-02
1.205145907991420420e-02
-1.835370969798908510e-03
1.188871717065095217e-03
-1.019793857413136759e-02
1.855925917395073775e-03
-2.455579624446189470e-03
5.507138629874884853e-03
1.574383292428990430e-02
8.099976902095835582e-03
6.479167795850662367e-03
-1.411235827180583845e-02
2.694170340348688106e-03
1.027305071652914042e-02
-3.225385967014023861e-03
-3.567409306935080768e-03
-7.228318516029329580e-03
5.768689869797869602e-03
-8.172231388927852017e-03
-6.756611285140861484e-03
-1.575749885362148772e-02
1.957636069596458209e-02
-8.476064272712338643e-02
-8.979665574140374695e-02
3.946476510539946234e-03
4.979443414138207818e-02
-6.845637087264213119e-03
-1.414774679292849467e-02
-5.681333061514992969e-03
-2.264990061962765359e-03
-7.254284467012708792e-02
4.738926079237674310e-02
5.017431108059003386e-02
1.845819886843545754e-02
-6.669191653980251211e-02
1.189795942161958747e-01
-3.922002976271971725e-02
1.404597666332539976e-03
1.548355918508648871e-02
-2.963988474829515676e-02
-2.343926010396242543e-02
-4.562055508110368640e-02
-6.528611565734265820e-02
-1.709175182399213025e-02
1.708248138087850934e-02
7.045189976446991631e-02
7.851596990446663149e-02
-2.746317883058462667e-02
-6.303283455907607302e-02
2.389642714809937785e-02
-6.500434829522868177e-03
5.098411124986428761e-02
2.174070739910410541e-02
4.139969877502464035e-02
7.357758678591528288e-03
-2.545272016032281565e-02
-2.666305379138804790e-02
1.418467241447299125e-02
-7.180943133979903956e-03
-2.476052874904946955e-03
-5.433388000834644266e-02
-6.734728946957467023e-03
7.815586100810345549e-03
-4.323766968297532154e-03
2.548288601631616690e-02
-4.914453335766224423e-02
6.973219387672270619e-02
-2.674871730299805545e-02
-1.512686071470506315e-02
-4.713967398995930203e-02
3.375197117810013400e-03
-2.555662433056455490e-02
-1.185638173590525951e-02
1.072134999756333036e-02
2.239952650173073065e-04
-2.146847203626474701e-02
-7.082195207115223046e-02
1.202846937645848241e-02
-2.062052875236851379e-02
8.282184231591075904e-03
-3.419929723617277234e-02
2.533787872242911077e-02
-5.013392654715234653e-02
4.193856216943441656e-02
-6.126344308892951729e-02
-1.881955363382669527e-02
-7.476086356017501780e-03
-6.609590411211943572e-02
2.373984671977380848e-03
-9.408537946049926048e-02
7.479562552526827779e-02
3.592864705440916573e-02
7.919625760165605044e-02
4.949287967762606988e-02
-4.678465091162273271e-02
8.892285775309403256e-03
-7.451020583117703988e-02
-1.298087991099998971e-02
3.827721163776767743e-02
8.688298752375564482e-02
9.548157990948559493e-02
5.276925965353979758e-02
-3.546150011620515657e-02
1.115690617866228473e-01
-4.358311462989487850e-02
1.097557156036936127e-01
-6.739957492697049024e-02
1.076147930401636643e-01
5.054435492467237306e-02
4.954813180075482923e-03
5.219730815627420667e-02
1.100863080955851725e-01
1.042100870350810490e-02
3.042518370938240846e-02
8.304218430191233694e-03
-5.334658473249646871e-02
5.335934642034605851e-02
-2.135572292634467170e-02
-1.653746688390397152e-02
7.925601432116556946e-03
-1.204795556439907343e-02
1.997944336783180098e-03
2.406789294275658853e-03
-4.002207454654300132e-03
9.437623384906149507e-03
2.436061849967540924e-02
-2.539226542548418374e-05
-1.091843048057837724e-02
-1.852212075023659810e-03
-2.199242522759055785e-03
1.971191372378318027e-03
-1.455344642396061948e-02
1.819507830431250830e-04
-9.002753628666079755e-03
-3.135665912274553796e-02
-9.261560063109788507e-03
3.730068686625519908e-03
5.769442595753490437e-03
6.306789082388290779e-03
2.155147817313371114e-03
2.624138432440150780e-03
-9.820238106028552488e-03
-7.198481772371752773e-04
1.875836373398620527e-02
-4.880308989594625731e-03
9.897649868043549917e-03
-1.093572291897852364e-02
-5.823217996441743677e-03
-1.649729284856260494e-04
-1.594789123056705379e-02
2.434306262723366730e-03
7.009106886500720895e-04
1.429498801429222919e-04
2.195431774916653880e-02
6.334104941552872684e-04
1.148492757344139964e-03
9.620171442709693835e-03
-6.980132967415151463e-03
1.388263032257368648e-02
1.065288568442130865e-02
1.308865588788695779e-02
1.202175552270056368e-02
9.939378465161640558e-03
-4.981315946694047855e-03
-3.929115241438916120e-03
-9.240115475423587785e-03
-6.281394015866535773e-04
6.139534611188329424e-03
-1.135671686064108725e-02
-1.873181090149825603e-02
5.810628826788431095e-03
6.275134869965416466e-03
-1.190643272568415014e-03
-2.020244194018706516e-02
5.765839494703542921e-03
-8.661908373650731297e-03
1.148701628149465317e-02
-1.835696387535756466e-02
-4.929145954353723012e-03
4.607865849865880846e-03
2.262894695969613207e-02
4.274621782507458286e-03
-5.655635737275539233e-03
-1.388983254473116075e-02
1.129940070533475005e-02
5.049806210519457335e-03
-6.150796767258037527e-03
-3.357042471944078187e-03
-6.103847605899070418e-03
1.163184508874090008e-02
1.536581789152312479e-02
-6.247533667532417789e-03
1.169153295732930711e-02
4.303597150469287355e-03
9.770972741381377460e-03
-1.555691493996482974e-02
-1.253891432975006576e-02
4.429622937689863503e-03
-8.749611126853586575e-05
-1.592054396700064156e-03
2.446029912165022940e-02
5.516906249148116007e-04
-4.471410408083230717e-03
2.829725532826306462e-03
-1.187755145008455304e-02
8.261179103316638669e-03
-1.606710597301969079e-02
4.908898728203056963e-03
2.142788600034752425e-02
-8.183291412132255929e-03
-5.186045967374292021e-04
1.320634896068337977e-02
-9.048601384212382262e-03
6.162383796031203204e-03
2.422503140884167943e-03
-9.550103927752118943e-03
-1.638432113219322542e-02
-4.119877212584034665e-03
4.256334101390413932e-03
-2.271405426524719662e-02
1.098563646251229410e-02
-1.072852037805686540e-02
-6.048358245071603842e-03
-3.895950878155791247e-02
-1.980183343410933585e-04
3.388850711514729275e-02
-1.494124131955920989e-02
4.982278767649687447e-04
-1.783124562832984206e-02
3.008548333737979391e-02
-3.614466725217928278e-02
2.491466816248591454e-02
1.419381702256194283e-02
4.665146060591545546e-02
-4.484973007745517853e-02
5.978864481725647273e-02
-4.599751680767916184e-02
1.109530824238065452e-03
2.799207701184775257e-02
-3.067493185932278557e-02
9.549675984991684227e-03
-2.262456435212316375e-02
-3.385042470258997627e-02
6.920475032603307791e-03
2.162549581194110615e-02
6.234226535340905984e-02
2.450559853256952664e-02
1.271497865848804885e-02
-4.756457527179196415e-04
2.197624506631842833e-03
-2.954950080922800343e-02
2.165223212393525484e-02
-2.401522680801445112e-02
2.936625959698527591e-02
-3.011215348912598712e-03
-2.617030143849786300e-02
1.393086458695242356e-03
2.820351187949318023e-02
-1.001307620468166147e-02
-8.860774302802560884e-03
-4.064488032400500467e-02
2.978686473264166232e-02
1.143188625802772466e-02
-4.151310059996178581e-02
1.110869549155673978e-02
1.407080343703700923e-03
5.520953890649415302e-02
-2.484779185367782216e-03
-6.616312992623070823e-04
1.405973770888713399e-02
4.482736758541223075e-03
-1.407045859308184675e-02
4.377298453235187875e-02
2.771602148586983089e-02
1.296714062511485945e-02
-5.930103243863198235e-04
-5.496230597285180902e-02
9.202270105609240344e-03
-5.973854022751744729e-03
-1.793681149416511550e-02
-3.748750786690217829e-02
-1.330153558263338920e-02
-1.173585936681599030e-02
4.135722741899622301e-02
-4.129767829569330057e-02
-1.245254093748250288e-02
1.912187001135633559e-03
-4.746350590255833668e-02
-2.790776405030680890e-03
-4.321064334545200031e-02
3.559727523851557995e-02
4.798925378555889132e-02
2.461831548838865416e-02
4.817930909020357033e-02
-3.007900286154852748e-02
5.308325290305663212e-03
-4.310709081932853626e-02
-3.202410517136368429e-02
2.627952426398556113e-02
3.098385294884872798e-02
4.215065491884082555e-02
4.301408497460123409e-02
-3.245649526463144363e-02
4.488489629761275440e-02
1.202655762287039611e-02
3.732821320618361777e-02
-4.633657196539297390e-02
4.466093392601688805e-02
3.638249114446314575e-02
-1.074877969349332003e-02
4.345927215426461515e-02
2.902692585125875649e-02
4.672710137791413754e-03
3.466693817874539479e-02
4.342060510611115039e-03
-3.193697508609234098e-02
1.575262299621416756e-02
1.042801775026813444e-03
9.419395329174528458e-03
-1.218482291046891347e-02
3.715330200938285476e-02
-1.932727595003968721e-02
-1.382103912311918870e-02
-4.087637365099947018e-02
7.999734953692924644e-03
2.586940460298231895e-02
5.372497574072473969e-03
-7.679674511815433834e-03
-9.600502181585460551e-03
2.756460649333584284e-02
3.647585827613519446e-04
2.619187351880643971e-02
2.085488811272940765e-02
2.876267914534109266e-02
-5.092557737987335464e-02
7.061094281792169858e-02
-5.553642897045982935e-02
2.731307783039191653e-02
1.582644316922114658e-02
-3.187713899390635930e-02
-9.507386755769637460e-03
-2.831777200774959757e-02
-3.873478331658327528e-02
3.499405175546097674e-02
8.205054343259549077e-03
6.640569324371232984e-02
1.505737815997493408e-02
9.848518109832013825e-03
-8.378360412202780650e-04
-2.434472954210603650e-05
-2.154103540653892063e-02
1.556067013911904134e-03
-1.699893891347594582e-02
5.995067445136061102e-02
2.533285140052713574e-02
-2.336972361175400359e-02
-2.050375111474044693e-02
2.569163410999503530e-02
-3.087833798633105725e-03
-5.014162952908190682e-03
-2.179430187525407264e-02
4.227807180527717867e-02
7.576123059338481756e-03
-1.961642688588625255e-02
1.887720634788135968e-02
2.138069492074286086e-03
4.265591479398329888e-02
-4.849783752787652398e-03
-2.010821209418100011e-02
-1.673879108828087853e-02
-1.526168762952317091e-02
5.544848859404375579e-03
1.032468378657138731e-02
2.206353736793780287e-02
1.001282367833637547e-02
-1.974156359117446025e-02
-5.765983879352285651e-02
2.018058555484097613e-02
-2.324546416349214471e-03
-3.259677876699550517e-03
-4.223379426085063088e-02
1.895069583600633364e-02
-3.271573402386999257e-02
3.520270542126579388e-02
-4.961938953572780225e-02
-5.743440295639151705e-02
1.516276757609364562e-02
-7.378074442749334161e-02
1.213319096503391419e-02
-2.180906135790928319e-02
3.863267572426250240e-02
5.498592069633854995e-02
3.834457577219511221e-02
3.272480314850002760e-03
-5.229910273159921186e-02
3.057498702887143788e-02
-3.314818528314684293e-02
-1.119217945907514250e-02
1.045761825172292214e-02
5.186235812327388839e-02
2.806328956903232641e-02
5.138165965702026078e-02
-4.316678887309163132e-02
7.007130594264140977e-02
-3.009748229110867368e-02
4.082014007151982260e-02
-4.276991425741678149e-02
5.876880579465199733e-02
2.869378601302148557e-02
3.384460943042354435e-03
4.981094994328071068e-02
3.013065036641245087e-02
9.091850505841474889e-03
3.517419336095150423e-02
5.320056633516842375e-04
-1.259723309648524449e-02
4.292060641253745562e-02
1.016940220582064104e-02
1.490253505581772865e-02
9.627828266405756563e-03
3.372365247854513387e-02
-2.135041888998015155e-02
-2.297406415040582559e-02
-3.858895752695055970e-02
-2.368135166543790249e-02
2.116685794285712297e-02
-1.679173877348770494e-02
-1.052859416593944497e-02
-3.694181117908556383e-02
1.573970320628371652e-02
-2.660998474154194215e-02
1.018573175972961077e-02
3.195943523035457701e-02
3.200605566046087896e-02
-7.057331184256025736e-02
7.552648995806189591e-02
-4.118376615372625754e-02
3.059536841292207626e-02
1.906515003891199461e-02
-3.484040525288045753e-02
-1.089480511113406769e-02
-2.703044747927006372e-02
-4.325122469970393152e-02
8.333437098083953248e-03
1.005838056874623935e-03
7.409286478924753672e-02
3.396427332803084870e-02
-1.065732067079218012e-02
-1.673299065359990651e-02
2.418766194934092451e-02
-1.915326612904013834e-02
3.050516515520313582e-02
-1.708319252228842830e-02
3.115167129177555741e-02
1.863629007770077964e-02
-4.412297899655003713e-02
1.487854303630259216e-02
3.637620490070516549e-02
5.538223474794262170e-03
-3.622533945541005218e-02
-2.659019796278569436e-02
1.675606372633418190e-02
1.089806306641703457e-02
-3.672536643298898035e-02
-1.955298504454271169e-02
1.513646123784268861e-02
3.935928497122923031e-02
-1.254696998062544006e-02
-1.756985408027925133e-02
-2.653187369480376062e-02
-1.114724472540323114e-02
-2.051185242248185214e-02
2.924880603344480814e-02
2.595934087778171279e-02
2.289143153275808792e-02
-7.668578659716390571e-03
-7.728643240367878697e-02
3.010461097241707781e-02
-6.763280534554670480e-03
3.073718007262018267e-03
-1.360647744653365777e-02
-9.734536466966396337e-03
-3.163735576917684617e-02
1.448458898710580992e-02
-3.378651498309147294e-02
-5.689809555853514791e-03
-7.708036039747082069e-03
-4.713106695408061930e-02
-5.652595954365038228e-03
-2.227090139659864895e-02
4.518457056464176419e-02
5.733082870344750892e-02
1.978513708859848744e-02
1.434626081507197476e-02
-3.798772179704559826e-02
1.164557690798772444e-02
-2.565403272443599059e-02
-2.612755427221968504e-02
6.807392637040521680e-03
5.899198214014347158e-02
4.770825142065936858e-02
3.905657392651491061e-02
-3.446154114806369156e-02
6.150323370951750468e-02
1.329064191029026391e-02
2.721751055453447074e-02
-4.789876523429482252e-02
5.005878181027872270e-02
2.052017152829408234e-02
-1.934916218748189073e-02
3.566621328634233395e-02
2.154160257692363037e-02
8.063379241475265857e-03
2.658184257895232147e-02
1.175841036000179959e-02
-1.311365208960774652e-02
4.114607299938787509e-03
-1.390378532398135400e-02
-2.276696920881196313e-03
6.482366210975862904e-04
3.035098074883185379e-02
-2.931946408221365943e-02
-1.889201174682692431e-03
-4.046172827898936869e-02
-3.933107455301228933e-02
2.855078368235867969e-02
-1.106124711491814072e-02
-2.505637061988827928e-03
-3.464263506602554415e-02
1.886011827928320977e-02
-3.714600767938750631e-02
2.469995172601337219e-02
2.160067027154435534e-02
6.101032787372301369e-02
-7.385752253030704317e-02
7.097657914806380919e-02
-4.456988815965726158e-02
1.276913793870918315e-02
2.649469234915766830e-02
-2.233776352719486769e-02
6.447483284756280568e-03
-3.180977214695237393e-02
-5.353944232885926580e-02
-3.865799171677590605e-03
1.563562066599287828e-02
1.019848283753786861e-01
1.533054734448122645e-02
-3.421660285859284140e-03
-9.198524838256104744e-03
3.507111177091823406e-02
-3.258814980515116477e-02
2.998926160268614721e-02
-2.573304927680716489e-02
3.418691685532457281e-02
2.441689200760789949e-02
-3.274826397088465707e-02
6.035048933973678233e-03
1.917188031586999908e-02
7.562154402675354617e-03
-2.465631757380295011e-02
-4.515275812409102335e-02
3.044340611362198606e-02
5.272823021533540842e-03
-2.878959219936352842e-02
9.050767803334870340e-03
2.482298014223644281e-02
4.331020192557947374e-02
-3.980514292659195763e-02
1.510999134319967324e-02
-2.274185120848860528e-02
3.371680585845080944e-03
-2.924584485513929619e-02
5.248598019883223692e-02
2.313723296844507130e-02
1.171186302279020840e-02
2.927525638915685815e-03
-7.385229733946808983e-02
-4.324995821685205868e-03
8.325701597017863553e-03
-7.913408630630097002e-03
-2.200662950862557199e-02
-1.158339801751363807e-02
6.834304386363040766e-03
2.719847074750035565e-02
-5.445240247026299912e-02
-2.712757460052325764e-02
-6.646696527071139452e-04
-3.897134936170771474e-02
-8.491063044699166164e-05
-3.313377280912740280e-02
4.098047192758751123e-02
6.657685731916851424e-02
1.356350658624428090e-03
1.204728681126895906e-02
-3.477162229625442580e-02
8.435852273646420388e-03
-1.361414124313683159e-02
-5.313771800399642170e-02
-1.920573038259996155e-03
3.232403924817228713e-02
5.355824674967214760e-02
4.436299692294168318e-02
-4.565179503906113129e-02
3.538280287125012552e-02
1.688370527793883746e-02
2.310582576171216901e-02
-3.654898082029030271e-02
5.054929902585820339e-02
1.756073928767522621e-02
-2.789526713966499274e-02
3.530056836386313845e-02
2.940341341992129542e-02
1.603547511356366931e-02
1.461452281534232969e-02
2.533190740975525476e-02
3.184433440476170697e-03
1.083910638058916244e-03
1.315640200602911057e-02
3.434570360806074585e-02
-7.733158153401312011e-03
2.498133794188582904e-02
-1.725957389983960588e-02
3.052835480628270960e-03
-2.491182365881868628e-05
3.458448069310148150e-03
1.397748211932307513e-02
-2.104664707604491074e-03
-9.133440415711012103e-03
3.342191888855153541e-03
2.353412030335456234e-02
-1.848864556618612005e-05
2.053272096453020307e-02
2.357889088360695315e-02
3.658028496554623782e-02
-4.765172982203470797e-02
2.053059413295166280e-02
-5.231336593506901583e-02
4.657332479110249876e-03
1.575349304441694964e-02
-1.981025638618821513e-02
2.119734087130512729e-02
-3.682919840967980446e-02
-1.072391662751077425e-02
2.548009597646610710e-02
2.004214424499142430e-02
6.826178640952178245e-02
1.640530150849336954e-02
-8.708239269742458835e-03
1.236978140674132622e-02
-6.750204937911268716e-03
-1.473129687059291162e-02
1.738969892250693400e-02
-1.747820242224966750e-02
2.877464178500235836e-02
2.820039933019205525e-02
-3.186596531555566797e-02
1.018320717644369093e-02
3.162270267854383476e-02
-2.522407669223390193e-03
-1.490918874094422295e-02
-3.430397937018465210e-02
4.658224415315600359e-02
1.639422111391521109e-02
-5.282899755080859572e-03
1.245141840168354462e-02
6.403924974380612728e-03
3.028059717650481361e-02
-8.428039006490002996e-03
-2.735007991647461865e-03
-3.108101191347394793e-03
-2.725819355658014309e-02
6.413701029048377369e-03
2.246835516373372685e-02
1.394509909821284310e-02
5.985651700643642749e-03
8.982786444198084114e-03
-6.159927999856611158e-02
-4.536226966739735980e-03
2.748259012859438199e-03
3.178441764504146352e-03
-3.665322821748605298e-02
-1.405224957110619982e-02
2.273291057665136321e-03
1.884973383080687515e-02
-3.116563921552455846e-02
-2.640002865214139544e-02
2.456959425363375651e-02
-5.383683559707678340e-02
-1.982559234396568879e-02
-1.048464621451212359e-02
1.560790221818589979e-02
3.330031448971611935e-02
1.832608117031272674e-02
-8.216969270465715111e-03
-3.396769385064155045e-02
3.538430153567819012e-03
8.351910980710969615e-03
3.464550583291642252e-03
1.204616007974302662e-02
2.926858903608139592e-02
2.876045668058074475e-02
3.822597749384667315e-02
-3.393753997688987029e-02
6.049296762346921541e-02
5.186981305662083548e-03
2.585825943899664262e-02
-1.260402151220898354e-02
3.215178559359097715e-02
2.326510550553751930e-02
1.128815538273972990e-02
5.582746568688010287e-03
9.593451128478685391e-03
1.275250841908265667e-02
1.600884327354659123e-03
-1.293277708490093124e-02
-1.877036119747731158e-03
6.571468740738734687e-03
-1.057473124166761515e-02
1.585553040037989206e-02
-1.846148434563225915e-02
4.477314001879612732e-02
-5.590021770359500375e-02
-3.295475945817778751e-02
-5.554570549579553040e-02
-2.220992331909999937e-02
2.551889628285433642e-02
-1.847421189801802185e-02
-1.950474570810370456e-02
-1.882725364098288348e-02
3.475201535312105044e-02
-2.109987549578250590e-02
4.142502107651176158e-02
1.629183362047688030e-02
4.765915704078438342e-02
-8.634388759364858279e-02
6.641249249504098395e-02
-5.877202281055105698e-02
7.547852628930830018e-03
2.650927952728100376e-02
-3.066986088780737640e-02
9.333315404434673265e-03
-2.376535185119636132e-03
-5.357575422344967864e-02
-1.933184521025434720e-03
1.387120665852454443e-02
8.997960354139693251e-02
2.964197420536235361e-02
-1.397716912093372246e-02
-3.862320746230793467e-02
3.192308602549144558e-02
-2.923334112487215031e-02
2.100003562410085109e-02
-2.112966802362088725e-02
4.506572889850381236e-02
3.337187990786178501e-03
-4.812937209465067978e-02
1.293308803916898633e-02
1.889129681385649448e-02
-7.876949881117342777e-04
-1.816653290648287400e-02
-3.968800669907570494e-02
3.737763868881886775e-02
-4.935835265806411132e-03
-2.851005324085616188e-02
2.487777194979118311e-02
2.588892476287196417e-02
2.932990863223547059e-02
-1.118960983480569125e-03
-9.421886921069157553e-03
-1.383657483467162427e-02
-2.011294831914178880e-03
-2.407231333042791216e-02
2.310741948847226321e-02
1.439689787660866464e-02
5.331921161044852683e-03
5.257375685898802060e-03
-8.398056094759008550e-02
1.198953602833812380e-02
-5.420073610714951778e-03
-2.972555782591930051e-03
-2.274849027963502662e-02
-1.111355625397522119e-02
6.863580496883959527e-03
3.571279258717650895e-02
-6.591907577247008154e-02
-4.100637555518792110e-02
-3.028453127737893574e-03
-1.877193162682969443e-02
-2.247340191046623414e-02
-5.352065192523023512e-02
2.110056413004765194e-02
5.909948529314406479e-02
2.531424393942540221e-02
2.603549942046778226e-02
-3.911734403331308674e-02
4.972623590388742035e-03
-1.851249232079969081e-02
-5.716191792057137566e-02
1.217523431191192690e-02
5.714271831584199351e-02
5.281327737112610776e-02
4.867598686153015719e-02
-2.144602966339538910e-02
6.292539743341481195e-02
-4.034717411259598589e-03
3.060408579323460609e-02
-6.527754680980750457e-02
5.093349556959322899e-02
3.132659791068742594e-02
-1.535485990711391024e-02
2.489613709782685300e-02
3.101583543680144772e-02
1.772437394537946034e-02
4.533208166996393479e-02
1.585132999911731400e-02
-1.438729567051503719e-02
-7.152614439101415665e-03
1.280573565725406059e-02
2.463603841521302615e-02
-1.526349972901264694e-02
3.617114376752310345e-02
-1.405088947665587666e-02
-3.755577341407367181e-02
-4.523914993405978718e-02
2.248316758474745714e-02
4.612580391015642239e-02
-8.400562805529022264e-03
-2.788570598230744046e-02
9.748751819293112464e-03
2.466537804898995268e-02
-1.985779124872308690e-02
3.532372498705881048e-02
3.010767123895063957e-02
2.420960938643955049e-02
-6.047925626477049926e-02
6.393220159761070498e-02
-5.488454118394378578e-02
1.872605017759328486e-02
9.169326022471016580e-03
-2.318975881978495301e-02
-2.859111632734734516e-03
-4.406621826790322466e-02
-3.140598978698517368e-02
-5.613149031811373417e-03
1.310516081731778401e-02
6.670309471053267880e-02
3.082030762980744049e-02
-5.422334363685463697e-03
-9.112689330255956469e-03
1.441946900877895052e-02
-2.232145903510568061e-02
2.747084751654316551e-02
3.077478538556697313e-03
3.205995908133146832e-02
4.567688211020828198e-02
-4.055119532545906763e-02
7.194279353285437835e-03
4.431321846367334422e-02
-1.708324999516895940e-02
1.338612432902697158e-02
-3.591848783879110496e-02
3.885610688773286775e-02
1.437413414119520332e-02
-3.372030765181723705e-02
4.142377404249285300e-02
-6.784981146106374220e-03
6.649274001884375451e-02
-1.545646194871471302e-03
-3.325275110733990486e-02
-3.347599725233152412e-02
-2.783979019035821845e-02
1.648384762518870922e-02
2.929451083521665902e-02
7.375902315834990258e-03
5.644250016650082316e-03
-1.955066314842995173e-02
-6.657878517685757169e-02
2.592978835283169317e-02
8.197711275649683521e-03
6.953704869641410755e-03
-2.924604284175248703e-02
-9.822370881731979503e-03
-2.488887914357666709e-02
2.195229147564029329e-02
-4.130451662837287402e-02
-5.175119467499358222e-02
3.309155759815227138e-02
-7.113103264891017241e-02
-1.318210400840817871e-02
-3.411722733176997951e-02
3.050458923482856841e-02
6.670611658521871656e-02
7.026138245128039916e-02
2.906074509801883851e-02
-1.597683800968072165e-02
3.196056670637693192e-02
-2.117147132492781109e-02
-2.572791843261526198e-02
1.720454985231138073e-02
5.789799588832308941e-02
4.240947350743592970e-02
3.573338144367937258e-02
-5.253098173987499203e-02
5.986752768554599868e-02
-2.826285039964030951e-02
4.692331625881138168e-02
-4.960021524194365566e-02
6.369442172278687309e-02
3.938386936122257459e-02
-6.499331599072950653e-03
4.555038766238966863e-02
6.167357641932343093e-02
-5.166957131869128047e-04
4.032286483448278835e-02
-5.676480493289418235e-03
-2.554514273141268374e-02
2.894539787274792719e-02
-3.725471862688021878e-03
-5.299493811048507606e-03
-1.183372206357904619e-02
2.321958357944183676e-02
-9.249715373332434779e-03
-6.711195608237575418e-03
-1.710259069145876609e-02
1.593264582726848511e-02
5.175003614449408262e-02
1.311119245940183670e-02
-1.774880885319778372e-03
9.820120732748955153e-03
6.595397396624781867e-03
-1.823675207516136515e-02
2.354174510654107738e-02
3.099848538482568097e-02
-5.961673648504218874e-03
-7.754461325388903141e-03
3.106017583482260230e-02
-2.005655726861209007e-02
1.321023537508576352e-02
-1.112351292970822220e-03
-3.454122536990714837e-02
-1.105312593714864559e-02
-1.503847947721398751e-02
-5.492420910443613323e-03
1.195922425146584214e-02
1.856065038589709004e-02
1.328046765903674944e-02
8.815755144070432439e-03
-2.045315026531711530e-02
-1.910289672565602948e-02
-1.263224455638673437e-02
-1.147274707423815918e-02
-8.350010252201298415e-04
-3.272176571364580119e-03
3.836759621336924275e-02
-4.820926434082444152e-03
-3.529075041338020774e-02
-1.796690224011603804e-02
-5.196754928117656991e-03
1.922996477130671858e-02
8.940280830633641831e-03
-1.485798670879536106e-02
-7.535297279627511079e-03
4.459596457655587605e-03
-3.095193598270856890e-03
8.805183900516683204e-03
-3.868879080494646433e-02
2.992822066445945117e-02
6.010993755013070358e-03
6.928397531159302398e-05
-3.267242381380819349e-02
-1.293372919175759042e-02
1.902719183624618313e-03
-3.152273039371432904e-03
-7.579009407595904343e-03
3.555870490155659154e-03
-1.404930969362604219e-04
-2.280434769499032135e-02
2.058489669254336130e-02
-1.525374584395701449e-02
-2.637131417280985830e-03
-2.139541403414222526e-02
5.146983376640001245e-03
-3.069822436586083780e-02
5.220064112021496894e-02
-3.258389840045301106e-02
-2.048714299946264791e-02
1.735210743338949299e-02
-4.856172397668282598e-02
-4.622264623523476834e-03
-1.390256695817370866e-02
2.517096574707333029e-02
2.877679085831910677e-02
6.967755386117562011e-02
2.412284908803908820e-02
8.916386277847821243e-03
2.372640920518393620e-02
-1.432355334556386327e-02
9.312406748372355908e-03
7.256276087525359228e-03
4.420327307994464938e-02
4.689130520591723583e-02
2.704026744757766741e-03
9.130811203701415940e-03
5.381535942720713783e-02
-2.044314179439646675e-02
3.689430754310107918e-02
-3.331552612770945915e-02
4.531213567297888434e-02
1.842411212436883758e-02
9.792902196860540540e-05
3.010902734656081131e-02
5.134547967822962466e-02
-6.663121402577265075e-03
3.727288350457542976e-02
-2.923045656998417025e-03
-1.365118912853278618e-02
3.956229676354976882e-02
-1.102751976043467308e-02
-5.870634425807845155e-03
9.908942789073062543e-03
2.116361664804309456e-02
-1.664459417001578900e-01
-1.124131462346010663e-01
-1.867578472411980661e-01
5.554732619342282740e-02
1.940183157861944674e-01
-1.323356047380129241e-01
9.982565956611240410e-02
2.418593411878357802e-01
-7.973252637854193192e-02
-9.743506318414538181e-02
9.097610770235751987e-02
-3.352781235145742972e-02
-1.200572126812066154e-02
-6.612273419198307078e-02
1.101243133909956262e-01
-4.988593230493564012e-02
-2.159923403215077420e-01
1.108715568271558122e-01
9.322244490415215745e-02
3.564459279295737609e-02
2.620605883906769462e-02
1.107460050713434674e-01
-6.763932227099598953e-03
7.314277750421187274e-02
1.447802426965864031e-01
2.706497821681248112e-02
-1.947504136809788955e-01
-6.742665931512892286e-02
9.126155979043411304e-02
9.225381897441067153e-03
-2.368361482880467200e-03
-1.167073163083274107e-01
-1.152632444421983482e-01
-2.584031169202739148e-02
-6.768582961274814680e-02
8.283943130232539198e-02
-1.214470756589784289e-01
-1.533242587755446074e-03
4.919449025525887698e-02
-1.175671457188988932e-02
1.698540223353341150e-01
2.436256465965325538e-02
-2.585802188532863172e-02
2.046303896877368633e-01
-2.101772513988483734e-02
9.592789316176127123e-02
-1.203447111123151086e-01
-7.177634716499435574e-02
5.983358278752655759e-03
-3.500312716147677833e-02
3.507648827057967961e-02
1.309188448273522765e-01
-1.769624049405195132e-01
1.162568979342671477e-02
1.929665570313907411e-02
-1.165721074606769908e-01
-9.703828398252418996e-02
1.473035788876131957e-01
8.022364722960544092e-02
-5.638619183731109069e-02
-1.685621436917557892e-01
1.203442489195604148e-01
8.140785216032045760e-03
-1.168974562634763487e-01
-5.895682487326581178e-02
4.055651380131990169e-02
3.137472611399241135e-02
-9.748300751337334036e-02
-7.418022590016948303e-02
2.008245594557719199e-02
4.309578227104111231e-02
2.450225089173621862e-01
2.466304533936984344e-01
1.481613770428445442e-01
-8.171883505592765495e-02
-7.406380517461282065e-02
-2.967177032546788329e-01
1.018793454649572633e-01
-6.186258778074351511e-02
1.123290266576439655e-01
1.069554983464466019e-03
1.718175367652526736e-02
-1.091004571716691490e-01
-6.200050620171312921e-02
2.161936571136229002e-01
-3.802802438372392957e-01
7.260021746110605079e-02
8.459481099505880564e-02
-1.398234201976654711e-01
1.205025564400021704e-01
1.987696336644938777e-01
1.106699272153684882e-01
7.797220222724518535e-02
1.538803779233001087e-02
5.346206589409989440e-02
-5.959855437545778789e-02
-7.533182860507103840e-02
1.645308524578297307e-02
-9.650564163478805857e-02
5.597252581955266398e-02
1.362825063962019023e-01
-9.410464579691567300e-02
-1.185706337950585831e-01
-6.423558171501098091e-02
4.678589594496165328e-03
1.003520196542512059e-02
-1.871228643078432993e-02
-1.200575919037875083e-01
9.657495475756963654e-03
-1.255874405728638898e-01
4.348426532830319824e-02
8.681151239999908287e-02
2.165663809674544821e-03
-6.507049628090207094e-02
1.524432640538055383e-01
-5.232904814581072761e-02
7.418627607767717957e-02
-2.718610215405965411e-02
-7.712647687716595035e-02
-7.380319401681748048e-02
-6.674449812150834438e-02
-1.404331796987752790e-01
-4.473420877845282230e-03
1.713995547861061827e-02
5.182262409655066793e-02
1.323460028534065858e-01
1.874990532854796388e-02
-9.003962854724585629e-02
4.104905469158728198e-03
-3.815925260979519118e-02
9.056515963236536071e-02
7.857753352889088050e-02
9.978089139692822296e-02
-3.977269633903790513e-02
-3.370102730371382638e-02
-1.324013135997011426e-01
3.583078391710364102e-02
2.962218479014326871e-03
4.400571876339541555e-02
-2.886980296551410266e-02
-5.487520630214030859e-02
3.290029857248012723e-02
-2.074857879530184537e-02
-6.808876675040735627e-02
-1.541138729703173116e-01
1.092795951391952042e-01
-3.411844557733662020e-02
-2.906245195123077774e-02
-7.554045027405373314e-02
3.901316911972827622e-02
-4.143510026154920839e-02
-9.298693879562237863e-02
7.248382135145285676e-02
2.244317523725453817e-02
-1.010183922790657551e-01
-1.116896375670753810e-01
8.374579916650337630e-02
-8.143892203128536011e-02
-6.617401111773512506e-03
-5.512653668819577496e-02
8.225661319582681930e-02
-1.568595453394634187e-01
5.910503376143898258e-02
-8.376592823896068796e-02
-2.237565522429614193e-02
-3.431788148093263546e-02
-9.345950918221444803e-02
2.676375007022694166e-02
-1.296989497960479576e-01
1.302692428044769368e-01
7.964391189250061287e-02
7.312819003094089831e-02
-8.086801786933275936e-04
-1.112598213445069179e-01
5.306254364401503595e-03
-1.563803352803738167e-01
1.061507707436995518e-01
3.134462405831676957e-02
1.579426087992719108e-01
9.168874483875399939e-02
7.507265394210374532e-02
-9.267000151670351515e-02
1.883164882522962713e-01
-7.035029229856011590e-02
1.131915258005602998e-01
6.934193585800890389e-03
1.548010070643126013e-01
4.833495706356361749e-02
2.662000776797081650e-02
1.957541652545394945e-02
1.610663885526806838e-01
-6.446539400675917186e-02
7.753261815689677094e-02
7.877983040843691137e-03
-1.120783074624348424e-01
1.367168781080130013e-01
-4.285518416070432934e-02
-3.347369712822761273e-02
5.827571386389433783e-02
-6.647974566355505099e-02
-4.500283329098774820e-01
1.441729032329853999e-01
8.330291270383441415e-03
1.896129573299615637e-02
-2.348543051673467746e-02
-4.531135785313968045e-02
-5.558648263142450252e-02
2.719230442356467339e-02
2.174848038142711826e-01
1.131998314391959304e-01
1.265001917346184890e-01
1.743325478600201567e-02
3.895283944363419626e-01
-3.302297442174932929e-01
3.754940752220238265e-01
-3.329038212899400051e-01
4.966331708831524944e-02
1.581124091567685241e-01
1.027173982033800261e-02
-8.033617347620970045e-03
-1.839641516482295458e-01
-2.596417262539371107e-01
2.476136005079942470e-01
8.653697137493357450e-02
4.631178419787645439e-01
-6.457001951409786777e-02
1.497537455058129963e-01
1.495042912845621907e-01
7.737865793510398382e-02
-2.468435477225705832e-01
7.812808476497887233e-03
-1.287635344869192400e-01
1.297904102671054161e-01
3.811817382545641952e-01
-1.072976300157465895e-01
1.356265837547906694e-01
1.169195537606055740e-01
8.596772930810245295e-02
-2.391670898608214968e-01
-1.626682101317194484e-01
4.130749942798181973e-01
-7.397226343461651282e-03
-5.559481500392145226e-02
1.678931022129746542e-01
2.711949195320057515e-01
1.940985251540837953e-01
-2.905192261744928700e-03
9.821694689679058565e-02
5.740659811486700792e-02
-7.503470490196920140e-02
-5.243812827455732878e-03
3.144965506850436188e-01
2.839714853817928431e-01
7.285042555396648023e-02
5.166896908059807197e-02
-2.874751487237686698e-01
3.580819072002031089e-02
1.360121104784442481e-01
-1.380772005579065376e-01
-1.752701677355692766e-01
-2.269188509028829612e-03
1.769809206158484416e-01
9.343156544337026526e-02
-1.482931869798354563e-01
-3.387556037147042010e-01
7.414401855313829115e-02
-3.411583378795527421e-01
-9.052655702539316729e-02
-6.801170317600978288e-02
-1.823766300795383877e-01
3.936631546835452911e-01
-5.260966884644090874e-02
-5.032643664371248826e-02
-1.006996007831392065e-01
2.320372568581743900e-01
6.478357942229966485e-03
-2.905180152373210145e-01
-1.525041396426642798e-02
4.111907317073547341e-02
4.657195012486300967e-02
2.832619566450385595e-01
-2.239874287730826141e-01
1.655859679630694026e-01
1.485914163327832493e-01
4.855030052813335932e-03
-2.789095334597444312e-02
1.475668877446958682e-01
7.525543081013261193e-02
9.588573772774018622e-02
4.064285801475425175e-01
9.039453000013740122e-03
1.109557868044424023e-01
1.664134465701165855e-01
1.414588176923857743e-01
-5.428540419994565963e-02
-1.729681973524909572e-02
-1.469954389495348873e-02
1.110751853100546277e-01
-5.385526593922261573e-02
3.972807229300515108e-01
-8.074402686450270206e-02
2.223850685872748659e-02
-2.615529613758531963e-02
2.429320809484793522e-02
4.518027730881435389e-02
-1.681076486002355125e-02
-1.166131994014238914e-02
3.017191379874802071e-02
3.314942248199009844e-02
7.657190220096254073e-03
3.056553100293905520e-02
3.269044597927630441e-02
9.057561834377844678e-02
-8.744224058953206646e-02
9.109002150999212510e-02
-7.244677344186079004e-02
1.983089076449315660e-02
2.498429618854508538e-02
-2.263821730627522955e-02
2.324612340954855180e-02
-5.204304752850030802e-02
-2.454160128517394318e-02
5.129607552796132397e-02
1.687388413358510003e-02
1.064892661363008031e-01
2.451062958408925171e-02
1.324345355135117357e-02
3.949074134343814879e-02
3.108822242228443528e-02
-4.523310112387872450e-02
4.750057516643506859e-03
-5.327958215386149887e-02
3.989221327216559837e-02
7.817228085815071392e-02
-3.026686714628077854e-02
2.550539561792533258e-02
2.177023802777901598e-02
-1.421775547603907003e-03
-2.744711869351779826e-02
-5.122422056608343793e-02
7.402204098367505536e-02
1.062455173588807041e-02
-3.446835072211849177e-02
3.016799128414544839e-02
4.438525800849550673e-02
7.828340378616945039e-02
-1.829676390923819576e-02
2.179749292097470786e-02
1.944609574699597901e-02
-4.587051380524416466e-02
4.461757759718278961e-03
6.499793051050889447e-02
1.856846260085580000e-02
6.864025333402592154e-03
4.058420061937776172e-03
-5.580861662765498887e-02
1.777644330628678354e-02
1.756673442900604995e-02
7.450662127851043377e-03
-4.223497895477521663e-02
-1.949171349059301145e-02
-5.925464313823222261e-04
1.592424556003522312e-02
-1.783909955037556519e-02
-6.703305372461415557e-02
2.567294046608782979e-02
-8.175962821197715891e-02
-9.068321577097559691e-03
-1.092929944514899228e-02
-3.233373303412703705e-03
5.741774092828358378e-02
4.590030288586770951e-02
4.066266981118902418e-02
-1.674106207300414886e-02
2.667807019161811538e-02
-3.618049274203656226e-03
-5.805157982764578423e-02
7.521438913461643214e-03
1.202825999989390153e-02
4.362415021846859087e-02
8.703128931978747207e-02
-3.650855813604027278e-02
4.863528110931530229e-02
1.752981387153225434e-02
3.326406013381624782e-02
-5.256938565570783845e-02
6.793041801771855515e-02
4.369545872252555974e-02
7.383054405485595627e-03
7.190081025860269037e-02
4.298786562113088294e-02
1.269091362804162897e-02
3.873507408316165246e-02
1.026856915116210710e-02
-1.515459655247126947e-02
-1.454866044846000843e-02
-8.003401165668173889e-03
2.381458490248141574e-02
-6.810588654958244989e-03
7.668755198635118786e-02
3.587562835774908698e-02
4.745338896950021534e-02
6.241858808601825209e-02
-1.140379441929647159e-01
1.311496325353819770e-01
8.117494810527063620e-02
-1.952425610085009589e-01
-2.586663344614251736e-01
1.583746842644631059e-01
3.269277415603186968e-03
3.882229122584935493e-02
9.439921820978545985e-02
8.251456076256948047e-02
-2.505145471971664817e-01
7.852271583960621082e-02
-2.056188015539859582e-01
2.733254447166080237e-01
5.737043336930271187e-02
-2.637128646989272407e-01
1.636550040451287547e-01
-9.915954260358881417e-03
-2.243961835638317026e-01
-3.968002251250298332e-03
-5.578417996850987270e-02
4.068820479839757032e-01
6.889739947367437556e-02
6.566289538935367320e-02
-2.901140039224919462e-02
6.360797079507843343e-02
-9.973645000211993350e-02
1.033332645604928893e-02
-2.244085248285744294e-01
2.450642774731207618e-01
6.335504231255129071e-02
-2.912203042552791721e-01
1.777606083792853883e-02
2.483157161787458156e-01
-2.173207653695532343e-02
-1.062863451764776979e-01
-1.487622035941409127e-01
6.361768951539985284e-02
-7.985560194578088244e-02
-1.196899414788624993e-01
-1.775344945910823924e-01
2.001220341185206697e-01
4.688887511688697579e-02
5.308960325977434697e-02
4.993282214845854577e-02
-1.443628463501850367e-01
-4.181681853566018847e-02
-8.003964732542190319e-02
9.699342154210252587e-02
1.567175095972837273e-01
1.126730660024614777e-01
4.143922339582747916e-02
-2.585690359433702734e-01
1.702078328241308225e-01
-1.214344450835468520e-01
-4.334001235745233577e-02
-2.982501411436270025e-02
-4.225341499454359634e-02
-9.354126569624990339e-02
1.495272200096470772e-01
-1.800460661310614163e-01
-2.285500076714497633e-02
5.330143700671791801e-02
-7.949838530260899816e-02
2.359911797419515095e-02
4.402397513147628116e-02
2.770316437111101093e-01
2.106363127558895654e-01
-9.012647517258634555e-02
-1.120715187312219946e-01
-2.861562738170321252e-01
3.009285729961883732e-02
1.115670884745560837e-01
3.063649240053655659e-02
3.031663069048023572e-04
2.270107484923917229e-01
1.256671014095256111e-01
1.194617148503190063e-01
-1.292952942553279860e-01
3.401313089379220944e-01
5.171068084045824659e-02
-1.209836457530164867e-02
7.859530572368848833e-02
1.274986410773225887e-01
-8.532772178459300388e-03
-5.429996827003574084e-02
-2.888694590846802718e-02
-1.003629250505895798e-01
1.347619177414591599e-02
1.166350809384706227e-01
-6.164658609213680834e-02
4.410323852555513881e-03
-1.552141252983495895e-02
1.118717783261616444e-01
5.906613816240147141e-02
3.731929308053671263e-02
1.253213288940332459e-01
1.800989185398398779e-02
-1.507593414512154069e-02
-2.404129270453937532e-03
-2.404407660767259036e-02
7.304440525761272951e-02
4.452115078529103598e-02
-5.424910312821421693e-02
-5.055312700867634068e-02
1.646223247031731660e-02
-4.265089395437454169e-03
1.319316886401561244e-02
1.920922673234281425e-02
1.878426230922692480e-02
-5.778171945927067232e-02
6.394475760726694036e-04
-2.909293423081262334e-02
4.805006749653241427e-02
8.317394733863107958e-03
-9.086662119171576291e-02
6.002394002793247363e-02
-1.457197044694575651e-02
-2.299440234973462727e-02
-2.217643132013652832e-02
-2.001497871656057748e-03
8.373841827107855740e-02
4.813955151786538517e-02
-7.424244321202828206e-03
-1.591267389365838211e-02
-4.073398852904057052e-03
-1.555372639876174100e-02
1.368957930839524023e-02
-4.526516063082566127e-02
7.020785030020967876e-02
-1.397363922612958852e-02
-7.975008346775853962e-02
9.905743184311994326e-03
8.385887026886536255e-02
-1.871945701334285644e-02
-7.914811982795488116e-03
-3.927539354062894311e-02
-3.770735530108650785e-02
1.653322841320054026e-02
-5.420891818475616353e-02
-8.027153972298993467e-02
4.272062976680853635e-02
2.640304599571090607e-02
1.230721148239334595e-02
-1.581941638828505275e-02
-4.763090859077484529e-02
-2.662487068197263301e-02
6.859938590406074177e-03
1.503375624836650847e-02
-1.887946719103484813e-03
1.852114978564272860e-02
1.451635744206638233e-02
-6.005829928490563629e-02
4.303599151485757585e-02
-1.399576157742513441e-02
3.450652444843952532e-02
-3.433139683987778551e-02
-2.772999519843191707e-02
-6.049523623026550889e-02
5.626680763124450313e-02
-3.768587037072151924e-02
-3.017770008187731223e-03
-2.015796153354386736e-03
-8.019563775274263576e-03
2.636548999959805947e-02
2.246493139715013271e-02
1.006781358911821023e-01
2.426630338004705928e-02
1.320430305275123624e-02
9.283610190191983122e-03
-4.051753115850201953e-02
-1.484679247993165446e-02
3.077067815955625979e-02
3.073831407587850409e-02
1.543574887389943286e-02
6.019093716643370007e-02
2.727388381202621934e-02
4.594849429325322497e-03
-1.513745704721420997e-02
1.003804692946864974e-01
7.271959124629796649e-03
2.108813478987438608e-02
3.057759006918845442e-03
5.368548014543481073e-02
1.321718912123871423e-02
-3.598217067483353016e-02
-3.833968382710268435e-02
-2.289837870773173828e-02
4.179586919618358785e-03
2.408287712559741001e-02
-4.407043197125284223e-02
-5.304663358447879278e-03
2.318054567555497339e-02
3.599324414749363599e-02
2.262072575510909109e-02
1.522545388090176810e-02
1.402255877005113491e-02
2.332471108224847267e-01
-4.688445851511151286e-02
-4.142559780380776144e-03
-6.000910650331343910e-02
2.020029941237141413e-01
9.923246819303317701e-02
-1.403101699062861973e-01
-1.729419150367236258e-01
6.512560495310650011e-02
-5.275080964685938817e-02
-9.323542062215552789e-03
5.615919437384590124e-02
-8.644181354576399579e-02
-7.785108041454605332e-02
-2.470681515904261938e-02
-5.158206812206019704e-02
2.045151113383903430e-01
2.046666741726795025e-02
-2.476617764576661274e-01
9.144860615246976077e-02
4.305692014497975589e-02
-6.072014789752640945e-02
-1.097681085553591507e-01
-7.942227923767762598e-02
1.915805269539119504e-01
1.190294316376265815e-01
-4.591808790136167606e-02
-8.485364597172545542e-02
-6.635809871493381258e-03
2.051074791774978867e-02
3.498302131133754905e-02
-1.012614794805096058e-01
1.917157106251683729e-01
-8.470129422446205647e-02
-2.093312613330012839e-01
-5.780488427486884379e-02
1.969313779479206772e-01
-8.088960296895550406e-02
4.026451939764521398e-02
-6.052481350027988372e-02
-1.207154646890281208e-01
-1.119232950789183882e-02
-1.147135068465690161e-01
-1.886187954160025437e-01
6.562629179941867341e-03
2.775149816341677608e-02
5.140371833568996990e-02
-1.123198847612550712e-02
-1.948781945672468374e-01
-2.409492412889453761e-02
-7.329672697814678404e-04
-8.240137481070795855e-02
-3.179995097690221928e-02
4.070412745898707024e-02
-2.292790156778563501e-02
-1.251927288889977397e-01
1.267970151810040857e-01
-1.690329795390995704e-01
4.316981436551783902e-02
2.378714143577893153e-02
-1.968676894448602790e-02
-2.498566346482783418e-01
1.475790470499168949e-01
-1.198889343333568169e-01
7.838073226976449703e-02
3.558138383155109302e-02
4.806566427184010004e-02
9.083768354986322680e-02
5.027512868992872058e-02
3.663363416489864299e-01
2.458310048266661163e-02
7.040536243041069231e-02
-1.445849721786304949e-02
-1.436734389023292535e-01
-4.501957414828852699e-02
8.433662735051918047e-02
2.260881089927183896e-01
1.674493884979864206e-02
1.954479312743342134e-01
1.191634284238180103e-01
-1.483430602481975932e-02
-3.789899884736934454e-02
2.592163466304428510e-01
-2.993051798521607909e-02
8.330720908887569165e-02
1.336056463406713225e-02
1.065358622192119215e-01
-2.404672707841442811e-02
-1.050972836440239033e-01
-1.894260431199599748e-01
-1.261428792204813236e-02
-3.218720312432128000e-02
7.780503874279072474e-02
-1.377905620349296478e-01
1.693745311523797703e-02
9.603854182136309370e-02
7.093827087358457739e-02
-1.207615384234492738e-02
6.556418093709588668e-02
-5.100163923659504356e-02
-7.384989954780465937e-02
-3.062063799339020259e-02
-4.105430208454157598e-02
6.189489906373690092e-02
5.998646763860473324e-02
-1.602244206154298384e-02
-2.121679191025154995e-02
3.555989807967546018e-02
2.865448216840610005e-02
-2.121591267290946683e-03
4.741466574231022885e-02
4.492149674846231816e-03
7.530322115385536252e-02
-6.265429102154726482e-02
7.141375215467132831e-02
-9.178992881692030203e-02
1.331482441106723348e-02
2.894406611852745267e-02
-2.987429726406153410e-02
-4.818656737374632862e-03
-4.304314044929627436e-02
-2.887739200018221361e-02
7.627140996151919594e-02
4.211591885739343621e-02
8.858176666867655091e-02
3.714553328095974299e-02
1.228232636185083021e-02
1.319425319010086948e-03
1.848185445860887552e-02
-5.502522149227016823e-02
1.849667941105032380e-03
-2.975225142085467095e-02
3.923657169586122762e-02
8.619866673566815851e-02
-5.289956945304843255e-02
8.823917729471632970e-03
3.741351938528685722e-02
-1.413003637166706898e-02
-2.310233262519828870e-02
-4.682936990280939238e-02
6.901407199482194332e-02
3.124362801151245317e-02
-1.929842667174639162e-02
5.198008846635524677e-02
2.041086470202701370e-02
8.828480737501039066e-02
-2.950048038903010841e-03
1.938948850807053950e-03
1.579665664334674140e-03
-7.022784697742803783e-02
2.259557045838771205e-02
6.253064507109167003e-02
-8.836301358605408787e-03
-9.558333569448065545e-03
-1.134730218091081939e-02
-9.308918110302531745e-02
3.497213016696826965e-02
1.109838541070700020e-02
2.488761837466397370e-02
-5.973130675732369471e-02
-1.681064008357111353e-02
-5.550379961451914861e-03
5.881784132267511150e-02
-4.487315804572544059e-02
-9.469308885357383132e-02
2.803139337584856575e-02
-8.879350474466850274e-02
-1.377280445585832985e-02
-3.540044381509281635e-03
2.612222828061224605e-02
5.518839498667980209e-02
8.839472879220341972e-02
5.969789809707416045e-02
-2.048669415927732024e-02
5.030726427938312512e-02
-4.742060981233818528e-02
-1.180205159769843158e-02
1.465209972817990876e-02
3.641605651648700814e-02
6.151888281828007260e-02
3.713445838737513410e-02
-4.408993757645762734e-02
7.535120107891730978e-02
1.853663833498089527e-03
7.591339528902525668e-02
-7.554070136004738256e-02
1.018885203682245999e-01
4.075853831599490773e-02
4.738283446520397948e-04
6.121882793304492254e-02
7.524220249117824499e-02
3.799666593089127964e-02
7.169845348960589282e-02
-6.411193042466821652e-03
-2.501733042024898573e-02
4.257416866345652140e-02
-9.529595322424155163e-03
1.085964615804573376e-03
-3.014255783562266693e-03
7.121681766680271197e-02
6.719141436892472896e-01
-3.783350285274392211e-01
1.431480092023410533e-01
5.697305442707049083e-01
2.292106634896070860e-01
1.988043092146709601e-01
5.664553092682231977e-02
2.164762163071557999e-01
-2.497572929564007282e-01
-2.058237380444687958e-01
1.538307652831310407e-02
4.804452839696469330e-02
-4.310713359451742166e-01
6.198202698155763635e-01
-2.979635775855418722e-01
1.725623787672244946e-01
1.487433434157211243e-01
-2.262424561989873073e-01
1.078918677425187295e-01
-5.564484754016623125e-01
-4.506826075402604881e-02
3.798326450481839256e-01
1.314417552673741718e-01
1.100957250781318432e-02
-7.543113691454618186e-01
2.469480265146093700e-01
-2.255107244989543874e-02
-5.097013420531458505e-02
-4.931682263406999001e-01
1.006541476263628776e-01
1.457098006473976359e-01
6.225024767437322692e-01
1.598263624255660820e-01
-1.864440247245505722e-01
3.036378231525025950e-01
-6.456816499549274946e-01
-1.229453674771323890e-01
-1.782246721271774914e-01
5.933372311632446605e-01
1.971345235872797585e-01
-5.851509456079159177e-01
2.562344576869770574e-01
1.356434731789687431e-01
-1.384253378170141879e-01
-9.361393691297426045e-01
1.211508053682268243e-01
1.025378121039295792e-01
-1.372300167422539630e-01
-1.105123574962214444e-01
-3.454158900708449997e-01
5.318446969282291104e-01
-8.931111746637433457e-01
-4.095127110915580682e-01
-4.477968067094456606e-01
-2.840481937940355639e-01
4.242622379224517681e-01
2.148028033931793368e-01
-2.424886868885150482e-01
3.073183013272275943e-01
-4.135277289172365443e-03
4.430617739612532358e-01
-7.547191646106121699e-01
2.867468267243630242e-01
2.526845334682747968e-01
2.178433377796986509e-02
2.063639053708280283e-02
-1.993542278528109279e-01
3.726183194680431354e-01
1.761939239052180972e-01
3.556218527636965110e-01
-5.105845468214841310e-01
7.187902122030930263e-01
7.527708277708547446e-02
1.622213576155168147e-01
2.216359835213717322e-01
-3.051416408012110337e-01
1.181841635970748650e+00
-3.739883973164911252e-02
2.792160638267137673e-01
2.883571958355802840e-03
-3.274197358617366160e-01
2.858750832706437664e-02
4.264394168301202104e-01
-4.945303630939182904e-01
3.922418364004277014e-01
6.266731730111307908e-02
2.130528095444261527e-01
1.396832488506670467e-01
2.859572228371934921e-01
-3.703902644106208952e-01
4.858387982201251010e-01
-1.754014485782429966e-01
2.173415810283704092e-02
-3.842382745791415588e-01
-2.570155974271859933e-01
9.597487056322843157e-01
-2.099471356785955201e-01
-4.293833670785728307e-01
2.320060092327450585e-01
-5.328291582603859045e-01
3.197352600878193840e-01
-7.823198361319839977e-02
5.823848819096232310e-01
7.685430827645846064e-01
2.577447323693087267e-01
4.080406213289765605e-01
-1.651263234593903784e-01
2.055271554109130150e-01
1.008158315032904595e-01
1.593357269371050988e-01
9.531577289768103367e-02
9.750911741086858153e-02
-5.774909975877198787e-02
3.246642548970619657e-01
-1.507239769822969477e-01
-2.690161666694738107e-01
4.876413477642629890e-01
-1.377539650639081625e-01
-9.207896021150560606e-03
-4.855630038059711717e-01
-2.720789202281706509e-01
1.779666714040150644e-01
5.428419760571090436e-01
4.674467945378898981e-02
-2.450121945445212224e-01
1.256430301447676312e-01
3.220428942246868487e-01
3.209854303915006257e-01
-6.159525030879564600e-01
-2.073979790688842140e-01
4.253192256636553759e-02
4.714966254871706952e-01
4.916944366898266527e-01
3.257196401370749950e-01
1.682517871201688608e-01
-5.402505744948558064e-01
2.259688963815875695e-01
-1.345087966635521159e-01
3.190330612084791850e-01
-1.722266146087004721e-02
-2.487452463931513202e-01
2.623751114856581190e-01
7.646541261718781124e-02
-1.521993453796555151e-01
-5.412948296922392988e-01
2.121596616782571165e-01
3.265932981112259492e-01
8.808045697580009492e-02
-5.966755967232050678e-02
-6.513682806848810625e-01
7.106891102756557332e-01
-7.275309467816072351e-01
-8.625252834305699445e-02
-4.645855723751941002e-01
-1.624658369994565477e-01
1.972829510636668060e-01
4.362391143896053314e-01
-2.172226089215399669e-01
2.021426968204041719e-01
-1.685401696172576236e-01
5.686444517986881664e-01
-7.992068507969072311e-01
5.432804681925474943e-01
1.945969438917314331e-01
-3.323826589335275306e-01
2.279698760140978775e-01
-6.370486690031357258e-01
3.773587141570860504e-01
5.198609036890650126e-01
2.777430352799687974e-01
-1.837463248514375758e-01
6.078546345769668680e-01
-1.611357672616453851e-01
-2.107656629408364082e-02
6.620217396902630114e-01
-3.017765258396467795e-02
1.297580673549549202e+00
-1.840481486993153781e-01
3.889128878919027033e-01
-3.335050260438146563e-02
-9.817188268699286735e-02
-2.610805509052301909e-01
8.560810257760685937e-01
-3.459622613402014157e-01
2.867308039379949935e-01
3.027252219966767854e-01
2.778452278979287038e-01
1.222689920233185484e-01
5.179326423369753352e-01
-1.225430745896276680e-01
2.845519637053961493e-01
-5.971183555589488351e-02
2.387799978153974101e-01
-4.664415176840742139e-01
-2.643203247644186349e-01
1.088619474652690933e+00
-5.970357011348035453e-02
-3.845857541228321352e-01
2.857248611993655762e-01
-8.185815250908319574e-02
-3.328849324656949493e-01
1.498787803206229619e-01
3.423112434763447287e-01
4.754746269768040379e-01
2.626629062221267907e-01
1.653699696430133426e-01
-1.816324008031521831e-01
3.321880245723881631e-01
1.325993194954047383e-01
3.056315414029737165e-01
1.301503787428500425e-01
-3.142927232325820261e-03
2.968347548491073185e-01
-8.014410095664974143e-02
3.776256655078430446e-02
-3.208208498919124518e-01
1.656921512545544706e-01
5.445250605984136572e-02
-1.345450898710257720e-02
-2.607020117474796381e-02
-2.570744373398861082e-01
9.453564786937067310e-02
4.758957584363791016e-01
8.944194769245475407e-02
2.432328747969105254e-01
-1.916233512263207373e-02
2.826472498963059632e-01
3.860144093424309197e-01
-2.748020285646796124e-01
-2.390247930493389628e-01
-8.683992826005426657e-02
-5.611866517993915893e-02
2.767627480012058716e-01
4.869985441897041190e-01
-1.213020989635360883e-02
1.611590227734042979e-02
2.671641970804388699e-01
-6.366872739955160843e-02
-2.348450910476545736e-02
-1.718005854382251840e-01
1.221263384461724888e-01
1.920210700932177550e-01
-7.380170936169409054e-04
1.435445267024781646e-01
7.567972729842303847e-02
1.878483761615099279e-01
2.087449828326954360e-01
9.456330828552503287e-02
1.202476232712457876e-01
-5.760710012723103679e-01
4.383800694972515566e-01
5.765404768097855820e-02
-5.453187376331211644e-02
-2.734885323188930850e-01
1.534194466829210401e-01
-7.952432117893726282e-02
1.901250627814025373e-01
5.739823318170328426e-02
1.090996132511429795e-01
-2.146774437520013457e-01
7.019390962003622947e-02
-2.370109825873730480e-01
3.274628229033526017e-01
6.401301881610167721e-02
-4.188997118608195902e-01
2.933562425073010238e-01
-4.829834132639709288e-01
1.090446946968929298e-01
3.722233723870611022e-01
3.636918948585247252e-02
1.648586408878242524e-02
3.487905594584461699e-01
9.619194980388794114e-02
3.270190736230362688e-02
4.441894685525280551e-01
1.408266288426767987e-01
3.569651115277019948e-01
-1.171928524651057874e-01
5.823122770600418219e-02
2.754017189659387684e-03
7.973890868377787877e-02
-1.919482074425187534e-01
4.459669315550705004e-01
4.234091047339304942e-02
1.137664576306904041e-01
-3.018509386743488399e-02
1.348078904335091588e-01
1.110049346428445133e-01
2.340925898158615903e-01
1.922972850584483140e-01
4.734874496241815722e-02
1.262166619731344697e-01
2.219047407166935826e-01
-1.970700695580611672e-01
-8.029625931012546874e-03
3.929678710534858510e-01
8.116358567546691494e-02
-9.255513016162647544e-02
-1.637030252357049576e-02
3.484130327746376987e-01
-3.768714908321382229e-01
2.117743532404310347e-01
2.886630208394997954e-01
2.264669135464973948e-01
1.771508512307315431e-01
1.429888099815024294e-01
-2.020013690270249518e-01
9.675462244177823745e-02
2.408237312824679233e-01
2.903621277953204460e-01
1.283853847350496791e-01
2.924901246485799022e-02
3.607999639066030717e-01
-2.850237324525335403e-01
1.274354444860526236e-01
-3.952647520216449606e-01
2.330296293006688946e-01
1.188796754585857984e-01
-1.149218539573805820e-01
1.170557624909820404e-01
-2.017843341033522808e-01
-1.057320300185464051e-01
3.557137775439636052e-01
3.764524025971886095e-02
5.131274192185911742e-01
-7.906181098284713327e-02
2.315066351427263192e-01
3.126201788170424600e-01
-9.050222210848712923e-02
-2.463572913115593399e-01
-8.961572936321943184e-02
-2.310016275750517989e-01
2.985530943358405409e-01
4.516492538628278930e-01
-1.776839380720746375e-01
1.201801166014477285e-01
2.962365655779237161e-01
2.120051211950819709e-03
-1.979801554799010821e-01
-2.218130431171457528e-01
2.930201867289028983e-01
2.859540748253165676e-02
-8.039766795913509678e-02
3.795286060272184264e-02
3.218030003474965373e-01
1.326790270801688487e-01
1.867644128293888262e-01
1.517994320858394031e-01
6.740368220435903612e-02
-3.794749863161063219e-01
2.099486384118808835e-01
2.407898606275472864e-01
1.314488484787341427e-01
-6.233980993285156980e-02
1.686380556862251412e-01
-2.220966063854054040e-01
1.567681471372572855e-01
5.413783826924953302e-02
-1.525777193043051719e-02
-1.668744445353348982e-01
3.850758066503561471e-03
-6.561584486868381194e-02
2.637695453049591077e-01
-8.774708843648949819e-02
-3.343490007755184901e-01
2.504841538909944321e-01
-4.079790348289218382e-01
2.178721578475079426e-02
3.008581796746356840e-01
4.571488678746054440e-02
2.324873810759829351e-01
4.688134326539877134e-02
-4.749098521075162394e-02
-1.185690210033624320e-01
3.330724091222808658e-01
2.216126365861637026e-01
6.528415007072262133e-02
-8.149718713148391969e-02
8.726677410261947376e-02
1.130715088830914518e-02
1.825473387917122825e-01
-2.380454315289914080e-01
4.225649406338904401e-01
1.575565222096744489e-01
1.405193465788564210e-02
4.273284135021526015e-02
1.214141201393736658e-01
8.821316707147265276e-03
1.247158181147445533e-01
2.145720707500632929e-01
-1.167951643502449233e-01
1.328606906317945646e-01
1.970939702525978665e-01
-1.124476547271539839e-01
1.728688213404913632e-02
1.202108807510165051e-01
1.268728641122250089e-01
3.314418424569029464e-02
-1.032184056610397499e-02
4.165623819115172322e-01
2.373634850268454000e-01
7.435305107516515521e-02
2.536316079143564051e-01
3.479028273161730023e-02
1.865372700526776728e-01
1.873473924104039900e-01
-2.449699127210365757e-01
-1.644797377929861637e-01
9.048445739820229483e-02
9.454274030402934348e-02
-7.665953373086926981e-02
2.866495029118864765e-02
-1.178074048359959575e-01
-1.868616816718140367e-02
-3.017855952482645376e-01
-4.550794300435458822e-02
3.013552198641742952e-01
-1.861087655946252334e-02
-2.870729672773982832e-01
1.819911132882316152e-01
8.850222953302863682e-02
4.301233672285922904e-02
-4.750058541754456631e-02
-1.251546678072019136e-01
1.331765091904924536e-01
3.162791047949509854e-02
7.179611685636730356e-02
5.404539743012908015e-02
-1.284686011827939622e-01
3.551671134074067121e-02
-6.513045683857977830e-02
-1.577108211441596575e-01
1.975389080573435041e-01
-3.184674595835072092e-02
-1.820371598755085585e-01
-2.076564774545847439e-02
2.443694724687155151e-01
-9.910058727816434265e-02
5.440423922058675726e-03
-2.345156561264370026e-02
-1.520677279243654034e-01
-7.450712136811499242e-02
-6.311593198846371378e-02
-2.860464971551734403e-01
1.128599938955345688e-01
-1.287977238100038724e-01
1.733209003387013170e-01
7.654586549884719038e-02
-1.248140994276032145e-01
-1.312791243653301243e-01
8.095170977987169170e-02
-1.046918649870146323e-01
-7.898192575269603888e-02
2.101713346307331268e-02
8.381096642616396586e-02
-5.549415515870258220e-04
1.835344675930261071e-01
-1.852103623341873062e-01
4.518183051532451838e-02
5.769344594872798798e-02
-2.406750383114295011e-02
-2.609818100319630241e-01
1.872614030427220133e-01
-1.772354543208717187e-02
1.399275852090843542e-01
1.229861328697810507e-01
9.374673904708122341e-02
8.094627530358572409e-02
3.226394318168519515e-01
3.609755452403445863e-01
-7.476340610443903134e-02
-6.824809429735571864e-02
-1.468022505411940015e-01
-1.165092077445145091e-01
1.140810032561423090e-02
2.847652646559408196e-01
3.613290806341743489e-01
-9.077291380510560392e-02
1.348570478387050575e-01
-2.490961833339763384e-03
-1.064446179226262029e-01
5.741169174041440074e-03
2.721816212754086250e-01
7.310291176990209826e-03
-7.174004376671419547e-02
2.046099568625942833e-01
-5.354506750333548615e-02
-1.484629378548497913e-01
-4.623388546147461087e-02
-3.280494865496206280e-01
-2.194927924579456735e-01
-4.218366048327552853e-02
3.237432185329287837e-02
-2.596674884270532280e-01
1.009443897994945910e-01
5.383450521975128439e-02
1.661241644976796383e-01
-3.444559331917029094e-02
8.174170716465350983e-02
-1.827651837601311849e-02
-3.831531408862162702e-02
3.057038281991726336e-01
5.513641776930021665e-01
2.141146073995946475e-01
2.387473391473707018e-01
3.262932700932371088e-01
-3.955639424454793773e-01
-3.691652959203037959e-02
2.059339170014041764e-01
4.140792673188096185e-01
-3.788135150753633995e-02
-1.029286150710051560e-03
1.166605194548406832e-01
-8.409049320206483935e-02
-3.481004593159693350e-01
-1.940683854062892899e-01
4.224348855361241828e-01
6.220377381711677915e-03
-3.492308559110543498e-01
3.014691909773533629e-01
-7.169620323118543193e-02
6.399178301474213459e-02
1.884467264256851904e-01
-1.325745327360145775e-01
3.391890148965434060e-01
-4.454999863374949770e-02
3.022287561016605006e-01
3.395792255817909333e-01
-2.402065714209621616e-01
-9.678755041609594933e-02
-1.829603755305668766e-01
-3.072734773721270685e-01
3.576856753004043488e-01
2.546482964061996257e-01
-2.141538479595475053e-01
1.501914495194095200e-01
4.641824289106530887e-01
-1.254777099721533506e-01
-1.404631440360159245e-01
-1.425667113280275344e-01
-9.031616542195408659e-02
1.764266665061324860e-02
-5.558131543546289410e-02
-2.773595110271530051e-01
3.995256221547288655e-01
-8.233140967138674604e-02
3.531602558135413239e-01
2.037133624845507973e-01
-3.532521708422851903e-02
-4.720332351708040330e-01
2.593203281031916663e-01
6.419960395913879014e-02
-2.786534458923329433e-02
-9.021714964571746209e-02
2.587786881081700630e-01
-3.200082035432057822e-03
2.651619524216565216e-01
-1.714282909125347532e-01
6.461011655993552372e-02
-1.147415094664184197e-02
-6.159373973613423148e-02
-2.798717757098149739e-01
2.651901429891035944e-01
7.221871535957065380e-02
-6.717778980045484294e-02
2.906449990656215232e-01
-1.015891821572114384e-01
1.169777502852793333e-01
6.710788612059005454e-01
2.790288506757040987e-01
-1.079524922017573857e-01
-9.874436183458197569e-02
-1.292727246558034726e-01
-1.187269240420375932e-01
2.590629018719904919e-01
4.985702771773500297e-01
5.019912787586124914e-01
-1.762211151974305834e-01
6.048028451849631754e-02
-7.182126608876557294e-02
-7.557927750904272490e-02
-8.136911369892219081e-02
3.789346291608799988e-01
1.794275569240861568e-01
-1.935926731485465846e-01
3.082921460118555612e-01
-8.238200456344520195e-02
-1.637277126932649429e-01
2.037202705903845903e-02
-2.458127403843067826e-01
-4.177679044167973976e-01
3.430395799945220453e-02
7.969843126435832703e-02
-3.677762815066202284e-01
1.918442044941480185e-01
7.912912007059789976e-02
3.236821948212454392e-01
-3.199993272856623949e-03
7.280262797082226456e-02
2.781770793167409050e-01
-1.304369606499446443e-01
3.379403020307071570e-02
3.347571536857129049e-01
3.965772168270200182e-01
2.385648098906597847e-01
1.238230548810088233e-01
-9.466900080418332031e-02
2.902501824967179678e-01
3.166584898062911602e-02
1.665109004983740815e-01
6.850538896691792112e-02
-2.490238334526289482e-02
3.845450536977096379e-02
2.843153848752925927e-02
-1.261080182282841855e-01
-1.891970214216082136e-01
1.033602422412670530e-01
5.977987378730546114e-02
3.807243533753881803e-02
-3.012474232230908863e-02
-8.657744429199608349e-02
1.646451736080441208e-01
2.984624427067290586e-01
3.341070633299347836e-02
8.933094371797743738e-02
-2.521605960772212163e-02
9.025254559489352679e-02
2.023198488172162079e-01
-1.734230613574299085e-01
-8.051196657324893868e-02
-1.109614665802455408e-01
-6.252862670484786445e-02
1.037698791406188037e-01
2.249988125217359802e-01
-2.804516088952795430e-02
-2.615392177501831006e-02
1.105214170534538770e-01
-5.028301214716741907e-02
7.361232184544173884e-02
-3.251996644946049397e-02
1.017312925140072821e-01
6.393150212874047778e-02
2.173200171571817302e-02
1.011767362474232240e-01
2.310495240624459157e-02
7.715999910484441782e-02
1.459519002869329451e-01
4.803990199284467050e-02
5.294329795013542200e-02
-3.877033597335432513e-01
3.911860967875981365e-01
-3.139891205652920597e-02
-1.439913105192458243e-01
-1.793841448400761984e-01
9.133104123563857979e-02
8.317989214073472082e-03
1.045397785523759643e-01
8.010065020067447250e-02
1.374075852676601150e-01
-8.556129282294729077e-02
4.387452543716477416e-02
-1.340556960272301645e-01
2.570295711138227968e-01
3.708755140131279882e-02
-1.774592460221376400e-01
2.009930692123877705e-01
-2.541723916317592535e-01
4.410373903765940629e-02
3.318565212361302974e-01
5.043529305094571896e-02
-4.253016724716928570e-02
2.983836930267361187e-01
5.423488360522638052e-02
1.120592552191180397e-01
2.798317466961715017e-01
1.437009502270703010e-01
2.755811784192037095e-01
-4.356435166169023848e-02
1.784057772380948786e-02
-5.544102125689360366e-03
-6.776352197801187305e-02
-9.108211733743430683e-02
2.537583841946939867e-01
-7.170380821676046457e-02
1.512158517235082933e-01
-5.408563366448936038e-02
4.322282933502066826e-02
7.164053090629157045e-03
1.339552251519540160e-01
-1.591693657004370974e-03
3.712979448337135752e-02
6.755072601690059741e-02
1.338226529305085455e-01
-2.113225375111125459e-01
1.291950689852388451e-02
2.368112695600068374e-01
3.795751160328039026e-02
-1.046399963256770677e-01
3.186105873066921550e-03
1.449644021509668701e-01
9.768976828328104767e-02
-5.230160227690085900e-02
1.981534613355212804e-01
3.214182953340352644e-01
3.083291142899374782e-01
9.543200470912083233e-02
-6.044188969461336547e-02
2.321519046149936039e-01
-6.429067252731385240e-02
6.142583126493406792e-02
6.084711539499985944e-03
-3.061233999381455725e-02
-1.777694730910912013e-01
1.930749115700847729e-01
-2.676737608577008376e-01
-1.529601434385631162e-02
4.024331013609974694e-02
7.768147391609228972e-03
6.394157145431554091e-03
-6.262922285384822738e-04
6.043819886738422548e-02
2.811019797473502391e-01
9.703058614163123652e-02
-1.267663930105818529e-02
-7.991710962059278556e-02
7.756739727246328279e-05
-4.186457393679644812e-02
8.218031136720518881e-02
-1.843591031265096603e-01
2.803480673965818779e-02
-9.624949068431606913e-02
-2.275060564819027242e-02
4.650484319908203962e-02
4.203405409630223306e-03
2.114491409151075894e-03
-8.305882568750215522e-02
2.533833974398459754e-02
-9.615866939211074882e-02
1.731710560464396198e-01
5.035354803297916598e-02
-1.177109504902109777e-01
5.009215247794121528e-02
2.876242590890901174e-02
2.329241575077978417e-05
-1.171837756972746863e-01
-5.724814666489254356e-03
1.228659086218625851e-01
6.497523085812918894e-04
-2.503770953664345364e-02
-2.972574493491981773e-01
2.945030143834875824e-01
-1.936236050389967267e-01
-2.907888200986199490e-01
-1.659174902496640402e-01
2.493426781961153096e-02
1.184878771516586632e-01
8.775835224078834540e-02
-8.119399327132602708e-04
1.936408253277280000e-01
3.471339677178998662e-02
-1.051646359414821347e-02
-2.044014226540923629e-01
1.828785938861529348e-01
6.128746184156400045e-02
-3.350981393884638719e-03
1.670049883561804394e-01
4.354711982663492936e-03
9.262376614293091337e-02
3.055397472831659078e-01
1.731604426354480530e-01
-2.225575211185386315e-01
3.067323857582288649e-01
1.019107412447364802e-01
1.788594197450565915e-01
9.984774793854987729e-02
1.232263093552509320e-01
3.311130899240551373e-01
-3.097948431162690641e-02
2.483037594468033571e-02
-2.297319118832127222e-02
-2.091573320281767123e-01
7.749864146006395227e-02
1.375824313079095085e-01
-1.621240942340827496e-01
1.451855049693308586e-01
-9.588704987890751819e-02
-3.291913668479938548e-02
-1.470896108319223565e-02
2.566187977287368374e-03
-2.047245823358641026e-01
3.446454009994944639e-02
1.137337996441230986e-02
6.496781686074272477e-02
-2.821784936323533111e-01
7.046064348712005598e-02
2.252686723878903341e-01
1.506655668162337931e-02
-1.424674465213465469e-01
4.716656286236772799e-02
-4.701318168926805346e-02
-4.474822585152479215e-01
2.329921343208548809e-02
5.963934210711292760e-02
1.033162223094966359e-01
-1.340850094097362499e-01
-1.082277835450768388e-01
1.398712897257952947e-01
1.417877520738999864e-01
1.888505830979440581e-01
8.334499677981723267e-03
2.028451607244576849e-01
1.424524074413817398e-02
3.205484227195198876e-01
-2.074886583688962116e-01
4.852830845914739011e-01
-3.559148720633465990e-01
-3.516591252351126268e-02
1.948149591931001290e-01
2.628244667685826763e-01
-2.567504812460413843e-01
-1.837950099517584590e-01
-2.546903742111915059e-01
3.325614217620434521e-01
1.765404504815624165e-01
3.292910083447085356e-01
-1.439624114570708380e-01
7.243479518487973279e-02
8.718430769928477153e-02
1.151219239611155631e-01
-2.592089860775767529e-01
2.191649747218165148e-02
3.705744369464630816e-02
-1.509475285999416910e-02
3.343276468973965798e-01
1.690784684235758020e-02
-1.308387890265651742e-02
-8.070783209133662595e-02
1.695339812377958666e-01
-1.450626889178734114e-01
-7.123437756725235770e-02
6.430551169658719202e-01
-5.546737110039574176e-02
4.428438608165631563e-02
3.272790399320530952e-01
4.432407551237836640e-02
1.945365165744900038e-01
-9.742904571560175031e-02
6.029554246012081009e-02
1.122403400644496618e-01
4.377230921425661475e-02
5.394005536230458281e-02
1.557395892134588733e-01
3.479136222305546644e-01
5.635716330076431801e-02
-1.144027909940077276e-01
-2.692243090494788049e-01
-3.941074046645243883e-02
2.800907402394477441e-01
-1.986349971250254420e-01
-1.686957102351521187e-01
1.680915759101030693e-01
2.906107489847740699e-01
8.202430655676541671e-02
-1.506270553069241902e-01
-3.621868227032999377e-01
-1.385828998773338747e-02
-4.286925544300270174e-01
-1.269230757003637078e-01
-1.843001209557880160e-01
-4.030733389796671839e-01
5.232516135295629534e-01
8.859392324728628323e-03
-1.358703044298723850e-01
2.704512558418525892e-02
3.001476688447731189e-01
-2.014583699684762974e-01
-3.864908318458833980e-01
1.862406125943343732e-02
5.406776809242689469e-02
2.555128361890688857e-02
2.712611084311354892e-01
-2.560421161679397040e-01
1.313633690556067768e-01
-2.140535160846324461e-02
7.109349955027574608e-02
-1.050331122512054849e-02
1.500338722908667599e-01
1.433053509264290426e-01
2.417468046450998165e-01
5.436332365583341764e-01
1.754651063614008633e-01
1.065353417624737564e-01
1.360524652288192526e-01
2.523783700613045355e-01
-1.890786035492332817e-01
1.200300555789647339e-01
-1.743293855862159958e-01
5.016510935932531889e-02
-4.036159844809876496e-02
2.851238740387267989e-01
-3.458354392457194809e-02
1.351695140267080153e-01
3.709087208609983533e-01
3.310008468176178775e-01
1.266190757169190773e-01
1.997059213864573191e-01
-1.627963536079379270e-01
1.576686952793167618e-01
1.129183606815764018e-01
2.345681331808066317e-01
3.485137070096842177e-02
-1.100323817290022044e-02
8.970610692144048715e-02
9.406885881482740519e-02
-1.417109969719275164e-01
-1.264783777394622444e-01
2.011526735989559167e-01
-1.505146055833772763e-02
-3.093564175300300700e-02
-5.365223561895079291e-02
-1.150471997432414017e-01
1.131671352176881057e-01
2.673916374477934288e-01
7.074411394340489150e-03
1.359989978471195897e-02
-5.537518631558863147e-02
1.960123681605500934e-01
2.569892102497397524e-01
-2.459693221069476909e-01
-9.835779014018083966e-02
-7.573816669912113164e-02
4.548771168728353576e-02
1.999760997417278918e-01
2.498075503867050462e-01
4.212522396448694501e-02
-4.986595660282631959e-02
1.504276012921670069e-01
-4.934180298640363643e-02
-8.768330575153209308e-03
-3.639551541261946271e-02
-1.527042663604070982e-02
9.049668632822954750e-02
3.511600442554421719e-02
-2.993502675018623257e-02
1.063779951940772156e-02
2.897291334409518235e-02
1.910251563528365115e-01
9.038886404043931788e-02
5.043724236790871757e-02
-3.542198497843695448e-01
3.115215742017581335e-01
-1.088568465705786747e-01
-5.142077722534227346e-02
-1.816072139534208874e-01
6.380559572487558284e-02
7.788212187396778563e-02
1.593860664278805572e-01
-2.780651048862486929e-02
6.511387949093301597e-02
-4.674612073727493072e-02
1.298373126242483855e-01
-2.244808954709602566e-01
2.011868127821084817e-01
1.156451858512615033e-01
-1.612676980772370650e-01
1.949684096969132863e-01
-2.422861445887783127e-01
1.126660397141890507e-01
3.636595180712134945e-01
5.041537870077920924e-02
-8.419645022538685408e-02
1.466003122452432805e-01
-4.047464703873117353e-02
3.828655000620387328e-02
2.873984442880861967e-01
1.786364194517512938e-01
4.474802481102575502e-01
-1.169712847581918375e-01
6.893668826819596140e-02
-7.036227960932893433e-02
-3.558252915050224424e-02
-7.934365126820362712e-02
2.782270325762142282e-01
-9.919754296265384866e-03
-4.107655909339036349e-03
1.386744693920768379e-01
-5.748742113967318483e-03
-2.703900930403298555e-02
1.557710941284008721e-01
-3.478675615996681958e-02
-4.824691402275426561e-02
3.428010055994962918e-02
8.959075111465891750e-02
-2.194880076967100635e-01
-3.034678242300363482e-02
3.107166666656258069e-01
9.651591650488053342e-02
-1.012262860558444388e-01
5.401265704588133210e-02
1.165107970073327448e-01
-1.363948197816357844e-01
1.635226679269034533e-01
3.169400545470484887e-01
1.698923490239312162e-01
-4.122150889452185635e-02
8.522916259351176471e-02
-8.683765716163961701e-02
7.323275649466234882e-02
8.190301698915948558e-02
2.129659338104718802e-01
2.579950759431248047e-03
-2.152478053237887740e-02
1.349780736254728164e-01
8.104968195379954124e-03
-1.258667184914033788e-01
-9.690420578446061473e-02
1.055004416118227317e-01
-9.532604123622038031e-03
1.188799483916370449e-02
1.149850209055079502e-02
-9.534550090936880218e-02
2.600744158232951714e-02
2.025179885400401891e-01
-4.215141665607963217e-03
4.509899727459445312e-02
-1.070022972072373763e-01
1.896138464742405938e-01
2.338936344884635921e-01
-8.736990852481715808e-02
-7.673664055173387566e-02
-7.518454732690213471e-02
-2.037021461862679669e-02
6.879052693148279829e-02
2.321098219139529628e-01
4.472160401071419156e-02
4.186949240617288126e-02
1.087935796151824897e-01
5.731940286400022226e-03
-8.121612204561654003e-02
-3.890224628886835428e-02
6.571841721333468445e-02
1.242923638102938662e-02
5.499722746252831002e-02
2.141253218747399267e-02
1.422152634048780839e-01
-2.934614539564095806e-02
1.297532561041379040e-01
9.380844021020798285e-02
1.277739681324660814e-01
-2.165411332202688832e-01
1.561816174257609213e-01
2.721974003157523470e-02
6.894001142074775157e-02
-9.538082180197966775e-02
8.066143854939733515e-02
6.983878672531086684e-02
7.116761842774402269e-02
3.169674626641223042e-02
2.325733827814056159e-02
-2.556483670758915444e-02
6.531779130925480237e-02
-4.110574686654962923e-02
7.110087908810004687e-02
9.012707344306114532e-02
-1.032570880782710948e-01
1.227164851478864532e-01
-1.566013349065069615e-01
2.290750643147155402e-02
2.777515511878104748e-01
-1.096909840302800476e-01
-2.502269681212989857e-02
-5.883730258161811583e-02
-8.099151516925851002e-02
-7.858069269266592174e-03
1.961353705345587617e-01
2.012419106139044511e-01
1.361401953736837700e-01
-1.007344455678499534e-01
-5.536392093878156340e-02
-9.721285279675369317e-02
-8.633413387092519001e-03
-5.349873450957619986e-02
1.507478656607551815e-01
7.366504948253453644e-02
-1.200217586959519550e-01
1.570263019400888194e-01
-7.760636070487743343e-02
-3.243499242183034426e-02
1.682460494754492997e-01
4.129334222214198213e-02
-1.791722672640009006e-01
4.458723117922450824e-02
2.428902784441285337e-02
-6.903551825641700279e-02
1.286839189635223188e-02
5.799599687690091404e-02
8.364272742910765224e-02
-2.536518171619445150e-02
2.329660847801304224e-02
1.476815516802037487e-01
-1.451183488168552305e-01
1.622319606930423264e-01
2.169810502021111143e-01
6.983573738110192275e-02
4.400942098711595890e-02
8.724491171515628973e-02
-1.502683042887708320e-01
-1.122233593466088683e-02
1.276222125094965132e-01
1.871068343225321395e-01
2.937615314917213505e-02
2.475150354169118952e-02
1.307731019302577069e-01
-1.223841026377287255e-01
-3.244065699753558019e-02
-1.636997119428675040e-01
1.489742985816004117e-01
4.130442735950585337e-02
-9.981206089691309347e-02
1.216783830944572348e-01
-7.150750249820650439e-02
-4.797099509131035056e-02
1.566206885025225592e-01
-1.633237707140873865e-02
2.257360362429728651e-01
-5.328619207987035644e-02
1.591487838829509505e-01
1.862504680386960487e-01
-5.983950305988591789e-02
-9.891852737332990086e-02
-7.895773404708893162e-02
-1.336394936524067656e-01
1.446440449768101877e-01
2.105557599414660530e-01
-9.900266888157893685e-02
1.147363618479224218e-01
1.853337059896057182e-01
6.591737493413615812e-03
-1.185185478502864681e-01
-1.030199314087279217e-01
9.184663297024539541e-02
-2.425651510484926054e-02
-2.890826771675657908e-02
-3.966975494583502987e-02
2.367279651821380670e-01
-1.323337806676403404e-02
1.180024875331858875e-01
1.007626545967275078e-01
5.422421928567473792e-02
-1.717938741038976258e-01
6.646534015239646820e-02
1.156043040854198289e-01
9.093137678855575667e-02
5.570288444539574051e-03
9.521154628261600805e-02
-7.374590492663976593e-02
9.007022142604376169e-02
-1.484829599137216932e-02
-4.638240139120905492e-02
-3.809219256099997952e-02
-4.347139509203869906e-03
-1.298831750038347520e-02
9.045440493415772554e-02
-1.957890829376557340e-02
-8.402160393847428466e-02
1.177520875192108185e-01
-1.239995414296924808e-01
3.227515309525033019e-03
2.074478642146731500e-01
2.438561481634625785e-02
7.501548508606736831e-02
-1.032592680647309302e-01
-8.909191458467119462e-02
-8.638996635368793864e-02
1.486737902532276334e-01
1.916609048438632223e-01
5.734721644362621856e-02
-7.265477077995875776e-02
2.656766427924836180e-02
-3.595388475833657949e-02
6.129384874705529063e-02
-8.302064050785142035e-02
1.887970212420648497e-01
1.084801887489268979e-01
-1.006514679221523351e-01
1.409567867920619999e-01
-2.244667607071331936e-02
-4.986281640611881644e-02
7.997866630901437346e-02
2.350352860560445470e-02
-1.619978566987506086e-01
3.051307653447445783e-02
5.477700492091269052e-02
-8.585171752885646657e-02
4.089877469862169407e-02
1.005073320687640583e-02
1.047620951998913669e-01
1.780756774153060759e-02
1.199374249644615670e-02
2.190762200711126872e-01
4.120477924363778466e-01
9.992977460118671051e-02
4.333663489426030080e-01
-1.308938295184973303e-04
1.538928355486955113e-01
2.794498416939492635e-01
-3.182722491056976799e-01
-2.387567128553174933e-01
-2.368070554095043356e-02
1.539438190246555649e-01
-1.681699181729874593e-01
3.413190810395341085e-02
-2.289366521748674166e-01
8.554359376139424043e-02
-5.827597397562930270e-01
1.763132616389274376e-01
3.677305708287876840e-01
-1.644245062388929035e-01
-4.136749984713026795e-01
3.338795697342412661e-01
1.159367858184005284e-01
1.601770709112108892e-01
-1.591316781414688075e-01
-2.388845357053975271e-01
-6.490548807260683450e-02
5.961279671697524568e-02
1.362353721243361737e-01
7.687804461956980473e-02
-2.215523043947128512e-01
1.608973480134808787e-01
-1.320769224637396155e-01
-1.647947083017716752e-01
2.049705795137484743e-01
-1.298460973647269645e-01
-1.836285657793655934e-01
1.330272572649679116e-02
3.574407801914205596e-01
-1.606798725159774843e-01
6.684464941071037447e-02
-2.408586844426952728e-02
-4.903404218021517602e-01
1.138276669436357087e-02
-3.784290099819952874e-02
-4.663872827480680106e-01
1.976208412809964676e-01
-2.623968014565080109e-01
2.610858325260178026e-01
6.877260497225336222e-02
-1.109773028024987063e-01
-2.516718264484391621e-01
7.548594037774765397e-02
-1.907566369491856539e-01
-2.143186853910920842e-01
-4.596371784871777777e-02
1.488439137938410428e-01
1.902347926720974192e-01
1.825587915910691639e-01
-3.469506562903197922e-01
1.663101932378016901e-01
1.361591813498150283e-01
-7.407611555577667262e-02
-3.727217488637534215e-01
9.939592465130583920e-02
1.511610223884531923e-01
3.163031756999702404e-01
1.046745007239631570e-01
2.743234840484466419e-01
1.699830581154284370e-01
5.319221527975429575e-01
4.867788601807429560e-01
-3.894492107167177308e-01
-1.544456453276534802e-01
-1.313522680651284247e-01
-1.573590229149132158e-01
-8.884628694711875496e-02
4.145656137468524682e-01
6.245110254751264911e-01
-1.209043245335959804e-01
5.870915510028798523e-02
-6.253817187693903878e-02
-2.341444086601411068e-01
1.177998335089325416e-01
1.925337599379894904e-01
8.414576083975840171e-02
-2.390706989772540814e-01
3.322161734976340486e-01
-1.388651453877055297e-01
-2.332212419680458615e-01
-8.683378324183073371e-02
-5.894684505249203621e-01
-3.845915807665845620e-01
-1.227869627888775045e-01
-1.187254160990423163e-01
-3.636720150287701681e-01
2.047919774618173205e-01
-2.260858914559224497e-03
3.181841718046202194e-01
-5.612229888504350478e-02
1.067009184393418186e-01
-1.405629635578160008e-01
-3.741240974476390396e-02
9.275696729385327077e-02
2.661345275585657033e-01
1.443594461286121511e-01
8.634116817899646634e-02
1.346162924244911629e-01
-1.162846140629397867e-01
5.376113688583993716e-02
7.175204762283239612e-02
1.638919725557516915e-01
-1.073823401594952397e-02
-5.961517656435639731e-03
3.337648439018024715e-02
2.977536967556490555e-02
-1.422879374881218240e-01
-6.537533592374186742e-02
1.345794204531005622e-01
-2.820331259875376653e-02
-6.752885973495710570e-02
5.172015948586505124e-02
-2.074279527251845015e-02
5.435039266014422832e-02
1.207717668927796029e-01
-8.376196059553440987e-03
4.950451846533558686e-02
-4.901982621236898596e-02
1.155660197695664720e-01
1.723660500663621586e-01
