4.271938046918002246e-02
-3.691736590241803673e-02
5.036246667858070361e-03
1.075080185366899567e-02
-1.241316191589718516e-02
-2.909251831968453009e-02
4.023321573758351088e-02
1.308410522601563195e-02
2.176534825811160187e-02
3.287747454795656582e-02
-1.105050140736130691e-02
-3.567417258607699648e-02
-6.798029607112438151e-03
2.640033832181032814e-03
-2.616218893569833073e-02
9.713108248190372579e-03
-3.378976244676576424e-03
-3.806430209313308582e-02
-3.319534002676135381e-02
-3.671421959241669836e-02
-8.973253805801177999e-03
-5.028506922233459686e-02
-4.146581727289631869e-02
7.054505740301668035e-03
2.120335896982430707e-03
1.163522932661003977e-02
-4.220128078817266676e-02
-2.859309893264219693e-02
-1.253978467532836094e-02
1.400733637061485695e-02
-4.018188458042149143e-03
-3.015803125796812697e-03
-2.873580822088980455e-02
-5.072247126757314234e-02
-6.426264020746597083e-02
1.480817417773540833e-02
7.175979279871870509e-02
-1.575205228801525303e-02
-1.761144530884434581e-02
5.294319573185779461e-04
2.868707048939515836e-02
-7.005801637030283080e-02
-5.150869263205862247e-03
6.482692276882473514e-03
-7.051427952268120129e-03
-8.829550604836008129e-04
2.584004866918403892e-02
-5.089694904070569265e-02
3.850806775621651301e-02
-1.532474759527826212e-02
7.974239372741084853e-02
5.430947378279009884e-03
-3.571007879572494007e-03
2.035737996639289116e-02
-3.053419722632274777e-02
-2.764693630497688272e-03
2.624349375313416929e-02
8.867221980150146593e-03
-5.755335683449937928e-02
-5.692189220620382482e-03
-1.657084511299667523e-02
7.174790275790139671e-02
4.167392644926525003e-02
-9.545785244466808983e-03
2.250830199153677075e-02
-1.251070683312132011e-02
-2.501400065713697916e-03
2.980484970598823447e-02
1.351179298737292638e-02
-7.955545985596692432e-03
4.809128614183475620e-02
1.632153024334285357e-02
-1.684798178192783297e-02
-2.401091986930762104e-02
-1.892763769409200672e-02
4.831603986574114357e-03
-2.218328402366260416e-03
5.185674457799973464e-02
-1.670475482467749517e-02
7.136102788485419388e-03
2.249012168342010703e-02
-3.454849725946884664e-02
-1.250670563991528039e-02
1.774537510744395030e-02
4.070256687879918872e-02
-3.318982437772861893e-02
3.651257277570344947e-03
1.147608595877633655e-02
-9.107680337594735095e-03
-5.875632685751683293e-02
-2.034079881467036610e-02
-1.343777243259027324e-02
1.086684075196531207e-02
4.934977829501747265e-02
6.077909247924940389e-02
2.674922344091863052e-02
-1.648043236111399606e-02
3.724318023155068907e-02
2.978684928089324682e-02
-4.371867826607588742e-02
4.121721540267028229e-03
-1.515664770390238655e-02
3.273177530659423379e-02
1.716338439855660120e-02
-2.046442971515082237e-03
6.476903979929979176e-03
-2.074198341341856183e-02
-9.235393452554415544e-03
1.568112119128092438e-02
6.319800783207446364e-03
8.430257066386278447e-03
9.867810302590089566e-03
-3.907760375755954269e-04
5.987304512992782518e-03
2.203468259820081515e-02
6.240961897420856976e-03
1.006247214461030229e-02
1.165755897899237691e-02
-2.091385248032363517e-02
-4.281710583095732492e-02
-1.783821625198544689e-02
8.613907482170682361e-03
-3.479098238429219423e-03
1.366749920218696167e-03
7.367246647347053604e-03
2.706228613658405967e-03
3.852440428986173004e-02
-3.167475320205807854e-02
-4.954283570254647620e-03
-3.360163582732539084e-03
-8.686147238167137019e-03
1.360393077537046117e-03
-2.920773128584873424e-02
3.300772666842230300e-03
-1.905800961735757207e-02
-7.292192461160871067e-03
6.221422128578490626e-03
-1.535603621689949315e-02
5.167137913875659641e-04
-8.872826044394736475e-03
-1.238369832900759054e-02
-1.440911703423233825e-02
-1.416812000383723714e-02
3.772100188439231339e-02
5.974438404159725970e-03
-5.867951214951027186e-03
1.076106127794840446e-02
1.383254529880688539e-02
3.988952314109365724e-03
-1.850298210601055218e-02
8.672034388407707378e-03
2.149564634241705671e-02
2.199295022851087064e-02
-1.405000989725057291e-02
3.898393192592795441e-03
2.257074962865161447e-02
-1.330530327338465095e-02
-1.882270695587279219e-02
-3.131000943253473001e-02
1.808792166273142168e-02
2.582311081641525813e-02
6.693710246169821791e-03
-2.224063931821176942e-04
1.025123044400590155e-02
1.385488169610477223e-02
4.159218560915689013e-03
6.272629774504271966e-04
-5.393915293114340953e-03
-2.113977514346837214e-02
-1.152556832013446530e-03
1.203587099451022824e-02
1.441933166519827371e-02
1.423844423676541397e-02
3.682490591749664529e-03
6.499301602179904762e-03
-8.501300444564796263e-03
3.581920442706840093e-03
2.996908844221627191e-02
7.202254383166751747e-03
-2.321014279613676026e-02
-7.631893671434382756e-03
-2.542962817606882892e-02
-1.602916889666239570e-03
6.491549111408686200e-03
1.049330534679582781e-02
5.603596583873753784e-03
2.924437942896572235e-03
-3.473288794603728025e-02
1.715867971915960299e-02
-1.726503563797475937e-04
-1.218943789035369617e-02
-1.526008521341523649e-02
1.563892691458440912e-02
3.208980095864601145e-03
1.700101852198546495e-02
8.944426527964696380e-03
1.773921524168552144e-02
1.197694570860443480e-02
-3.488708047090606675e-03
-2.428403057100780860e-02
1.454222192845031070e-02
-8.028775020785958172e-03
1.210073025170782697e-02
2.568443818885769378e-02
9.484850381400867017e-03
-1.126544972082544303e-02
-4.344750097724748954e-03
1.343603511421731164e-02
-8.016491243763282717e-03
2.318600166174608276e-02
6.042038189877975765e-03
-1.253140683693618196e-02
1.608836302287463757e-02
1.191660065034403672e-02
3.632496004238702520e-03
-6.271849679593740137e-03
1.020494862776304872e-03
1.570480294557903903e-02
-6.902470016809326460e-03
-7.268983721879041481e-03
-7.537805535913407254e-03
-2.279524030544493370e-03
-6.118627023080826059e-03
-1.120952470137050877e-02
-7.279145242643810096e-04
-3.123894715319728080e-02
9.095212388047240262e-03
-1.059072785738608344e-02
-1.542569417589319212e-05
-1.405528037467979226e-02
3.329225788440749213e-04
9.405098309374653257e-03
-1.154241442093006595e-02
-1.895188882528458423e-03
-1.947537992986773725e-05
-1.776885600403253426e-02
5.279166896598671242e-03
-6.397465495612996572e-03
-1.104535981387305427e-03
-2.539693398395897420e-03
5.656388582494922129e-03
-1.708333289791414203e-02
-3.973543496970419198e-03
2.811010145037150243e-02
-6.333663694188412276e-03
8.925416806121255070e-03
1.524066425707660578e-02
-1.029374405559778686e-03
4.713816160295729828e-03
1.702783601428098023e-02
4.087666706721427255e-03
-3.462442466206849204e-03
1.055912428400209054e-02
-1.287285858615733365e-02
1.015865213871267742e-02
1.233257002212755429e-02
-8.535774687966613677e-03
-7.157527158273164006e-03
-1.655143235717516231e-02
-5.240806491200792477e-03
2.767104092263780041e-02
-7.223989495901912737e-04
1.514907275421015654e-03
3.561216502387282243e-03
-1.052670051377778892e-03
-1.984854247909498964e-02
-4.046601356707755712e-03
-1.374521946059519169e-02
-1.301859278411545730e-02
-2.411686068115039775e-03
7.781469542924250755e-03
-1.658844137339763724e-03
-1.829327301997128426e-03
-9.892230952432839314e-03
2.328203962143609185e-03
-2.811128219392185386e-03
-1.510352232785176947e-02
1.192335977603638936e-02
2.391606912975611024e-02
1.180983771827359870e-03
1.017698001814674146e-02
-1.944495300535950891e-02
-1.746004255706574190e-03
-2.969300397670377768e-03
-7.110029612763864304e-03
1.614953468498885655e-03
-4.566558544892115878e-03
-2.950141197884679004e-02
2.955641437974422872e-02
-4.676646420185148409e-03
-3.545778992704565202e-02
-1.401114633275690746e-02
1.149449850909812880e-02
8.225118068478672398e-03
-5.460515296896947986e-03
1.663160474874179548e-02
-2.593591203184765579e-03
-7.242905498106088497e-03
-8.520389456840110620e-03
2.801290286066362122e-03
-6.490888615884497261e-03
6.091881214830022206e-03
-1.499823931682190206e-02
-3.855420988230951525e-03
-4.274462274836906411e-03
-1.776498129308374391e-03
-2.090979073838532265e-03
-8.079853896815538186e-03
3.850260075034390040e-03
-4.806625123521922859e-03
-2.050442252363793034e-03
6.793736042372243607e-03
-8.174646784430840418e-03
2.975916818665903622e-03
1.646558920588387211e-03
-5.788195953745008636e-03
-3.240923896082472077e-05
3.026756019132432422e-03
1.310014356387002171e-02
-2.312840131529786283e-04
1.348724797689962104e-02
-1.561226653343981106e-03
4.047981232511703442e-03
5.118103943445685873e-03
-3.601813211877794973e-03
9.300182797589307687e-03
8.895769751615201920e-03
1.265075026599887624e-02
-8.167730174241433563e-03
3.115946468552279955e-03
-4.749712104472629016e-03
-6.661833883829321179e-03
7.786160454268988181e-03
4.190506187546766403e-03
9.296212572313144670e-03
9.872944345865565172e-03
5.187844906756269511e-03
1.961974425695970671e-03
-8.429614203303060355e-03
5.348004033700045311e-03
1.553954585590393116e-02
8.803986671915824819e-03
-1.089724355641393840e-02
-6.526322018031655361e-03
-3.502865298833558565e-03
9.158405635112058102e-03
-7.127567903161031657e-03
6.062225283571868973e-04
-1.442518691478144287e-02
-7.472568217095917377e-03
2.573932395432688893e-03
-2.433138170674501929e-03
-2.909922673041196242e-03
-9.911191495944307941e-03
1.197286511696506010e-02
1.599304167090773512e-02
-2.804297327795577440e-03
-4.729653545307306584e-03
-4.162723047852348070e-03
1.336172943177273750e-03
3.011802610901022532e-03
7.632843953965268158e-03
-9.765952234232025755e-03
1.030687467871429716e-02
-4.706464764615577064e-03
-1.115985554024342356e-03
-8.054968743858827857e-03
-3.519098444603624334e-03
-1.035361771387188334e-03
-8.843984576061438398e-04
2.296444124942076566e-03
7.566622878993204022e-03
-6.582992231277862497e-03
4.344085106883954946e-04
4.156438227494957914e-03
5.755611668784981275e-03
7.624059759661903565e-03
4.045798101720073960e-03
-2.968795399195728758e-03
3.029476821845370101e-03
9.073329559626379728e-03
9.954704358893444027e-04
1.250368231059423817e-02
1.593614157138611509e-03
-7.739446455829712170e-03
1.529870092701040261e-02
7.100130862034852858e-03
4.537404213643619379e-03
-3.319931930634371572e-03
1.550112804597685023e-02
9.507740603163267364e-04
-3.461233864680506641e-03
-8.799058812123322160e-04
6.370329347927759615e-03
-9.794181529987826956e-03
-1.281006777611031508e-04
-3.376047331086410100e-03
4.905994699058939534e-03
9.125527876348843784e-03
8.633444380535593154e-03
1.894496334285990929e-02
-5.638050819512264826e-03
1.606965245092914843e-02
4.424545831831517943e-03
-1.979527099067088583e-02
-1.605696580263656428e-02
8.823496290387356639e-03
-5.608034884274891614e-03
4.959956507494317143e-03
-1.148787873518299953e-02
-2.170469693451550480e-03
6.552296593158350550e-03
-9.031526313880305218e-03
-7.580393135847208856e-03
-9.885617217266344861e-03
4.135528576005494681e-04
5.986885207635041922e-03
-1.681930388511928024e-03
1.738188841479581040e-02
5.456986183002879819e-03
-7.186147421719328229e-03
-3.041158823741448719e-03
-9.208361685596846632e-03
-1.017193185859230570e-03
4.394626929855796095e-03
3.798104680947785201e-03
2.975907236945549410e-03
5.189761999766985545e-03
2.922857502585920857e-03
7.835635625520092837e-03
1.727264911791176472e-03
-1.111226876392661100e-02
-2.401490784932902144e-03
1.027240506620481948e-02
1.448917544954680947e-02
-1.006438141728817869e-02
3.357303304451517666e-03
1.335093671391856217e-02
-1.947538104192135522e-02
7.795185616620684682e-03
-6.207802186131832281e-03
-2.706339030651523994e-02
-8.763693314492998834e-03
-5.074755261174321123e-03
-1.597601826614395218e-02
3.421127570028557928e-04
-1.957763549145241991e-02
-1.687434902184331217e-02
-1.232967536339301881e-02
-8.092949203103409414e-03
7.917030521411828024e-04
2.913403349097029235e-03
-2.163057475146079947e-02
2.897120773921979531e-02
-1.228713859065293235e-02
-1.413395776142113008e-02
7.666227812850011543e-03
1.944433850311177644e-02
5.406272246613596892e-03
1.335807694938750435e-02
-1.598065953982076570e-02
1.405273436453103979e-03
-6.281097837286033284e-03
1.301444049186396487e-02
9.171705015759919243e-04
7.866069957839533222e-03
-1.418207472689972902e-02
7.715810329897050679e-03
1.808401664274572954e-02
3.869309678959602546e-03
-3.387207801093139459e-03
-4.402191685012288064e-04
3.061588962940187293e-03
6.921969941869633540e-03
-1.248470540074773753e-02
9.874369210005612754e-03
-7.055225131171874615e-03
1.445956090992723533e-03
-6.853238865755182166e-03
1.219612953615555398e-02
7.040923720950344709e-03
-1.768262116520520968e-02
3.684476352074406418e-03
6.041364139858768252e-03
-5.272357663593646264e-03
-8.092178334836396675e-03
1.087772681425719715e-02
2.574838614555760574e-02
-3.072575224289136875e-03
-1.116340248066176148e-02
-1.784400484483485453e-03
6.796997725811089117e-03
8.283566346827952662e-03
1.829640459774064393e-02
6.146148271170516313e-03
-4.774775318782186612e-03
-7.190373214434022525e-03
2.970939988431949355e-02
7.346873933777326587e-03
-7.351484994175426155e-03
-7.736975567622624353e-03
7.932683343366052006e-03
-1.938542550625579116e-03
-1.192070786184231020e-02
-6.419759118290266180e-03
1.068955737251382938e-02
-2.764331715111089782e-03
-3.682581889352651728e-03
-9.243315251811901187e-04
6.191484692544733937e-03
9.802045123768518553e-03
-1.662421251485006815e-02
-3.814850377370980223e-03
4.677817775345382428e-03
-2.158969419730160950e-03
7.513563188345548371e-03
1.050258375479613641e-03
-1.505659291250945791e-03
1.692653019684958390e-02
4.544362449602523321e-03
-9.461254934239937686e-03
4.706763524203581676e-03
-1.042019941949048206e-02
-1.444795203601557769e-02
6.472113768907023813e-03
7.697274877332020010e-03
-6.996311482638976377e-03
8.668304551274756686e-03
8.096631519104632510e-03
2.258966557646834711e-02
1.017475533512356839e-02
4.190373015862343398e-03
7.378901604552502887e-03
-8.097941998413458672e-03
7.303880768076035507e-03
7.026402058584946958e-03
7.002637879100396569e-03
-2.522364652790317144e-02
-9.167091807325881969e-03
5.188442066795636437e-03
6.701974831194346290e-03
-6.249363179028866134e-04
6.107994186302101620e-03
3.327457744990697415e-03
2.115879799260511618e-02
1.830999853060597134e-04
-1.205227696415471332e-02
-3.023042679314726956e-03
-6.464405975582547363e-03
1.026447359212750293e-02
-1.122410032444797791e-02
-8.727453511013248677e-03
-1.474458577976650760e-02
2.551029019055854954e-02
1.214419509671407424e-02
7.097834717810660651e-03
-2.867074950564225694e-03
6.772973826162900952e-03
3.150656670124496635e-03
3.177097055058062313e-04
-5.407575842907553186e-04
-5.515660467808859713e-03
-5.427809700328900359e-03
-1.007559047247039152e-02
4.109452040691016945e-03
2.215246770408130662e-03
3.530552022291479596e-03
-6.291200284411378393e-03
9.402286963855522456e-03
-9.632462327350566414e-03
-4.092131394014158693e-03
-1.881243670213844643e-02
3.515225413548349505e-03
-8.079712793482025923e-03
-7.262272692467690131e-03
-9.769887812769668944e-03
7.306304039251016944e-03
-3.873895448008340958e-03
-1.795381596181541695e-02
5.338401728415158483e-03
4.770231965090679458e-04
-2.255092491813980721e-02
4.181783042549245925e-03
1.358392165935791950e-02
-5.515152189613463764e-04
-1.275278917034163018e-02
3.038710049234309794e-03
-5.308510729932602000e-03
-3.586458360261077314e-03
-1.107508759779670879e-02
-1.397124298675342206e-02
-4.928973765567924714e-03
-8.594364925487750842e-03
-1.145141541348560941e-03
3.194056798959913224e-03
-9.738731771627874914e-03
5.969902802690316146e-03
-1.982203478763714093e-03
-1.136502546354403731e-03
1.857149955341209566e-02
1.257904169988970783e-02
-1.950851696179782633e-03
1.723962917252298832e-02
2.050065155247406123e-02
4.479487386939863709e-03
1.662024521578801860e-03
-6.788396220246478534e-03
1.718832153273744043e-02
-4.423546646779124604e-03
1.184037885515555263e-02
-6.274245764103509107e-03
1.412216888286737908e-02
-6.673354411517744191e-04
-1.577535971552634485e-03
8.377230272831321170e-03
4.728783424854135671e-03
-5.267652793398467856e-03
-2.869387969804512717e-02
-1.739561642014981688e-02
-1.404599036314991937e-02
4.327914249844459771e-03
-2.651856418440021526e-02
-2.504442032474705170e-03
-6.468122450478692304e-03
7.037303042184082577e-03
-2.480154737284490096e-02
-5.624084875897032536e-03
-7.059534159178460465e-03
-4.081079236790084545e-03
-9.125711618265801295e-03
-4.519171730092248589e-03
-7.877343943565442985e-03
-2.793033278523098309e-02
1.708988898657970565e-03
-1.375627801044112739e-02
-5.893311727599727899e-03
5.623853416593737643e-03
-6.206460373105304913e-03
-3.239118835916100780e-02
5.297942385532377653e-03
-4.601228204409839491e-03
7.031487588841160187e-03
-6.888587619136692921e-04
9.805299848177375516e-03
4.422169803289775943e-03
-5.859182213693804944e-03
4.704677471628121097e-03
2.496715323026644368e-02
-2.526224305734254844e-03
-1.692740821033014448e-03
-7.241366552311900157e-03
2.091513806651935578e-02
2.204558703830154440e-02
1.142957042979364643e-03
-1.594569040232095627e-02
1.266721014192822951e-02
-1.685623852863197755e-02
-1.842877260179238974e-02
-1.418184831926353785e-02
-3.158954098331307348e-03
3.236548746335961291e-02
9.020385138820998221e-04
2.201765902501030131e-03
-7.557564268934491986e-03
-9.831906631634555055e-03
-1.381259710436516693e-02
-1.171154757949527999e-03
9.488405401514025581e-05
-1.433491096224577543e-02
-2.858345002139668200e-03
1.876878600457264346e-02
-1.758504173823394840e-03
1.169925507346411542e-02
7.292108864378730321e-03
-5.036874411069048804e-03
4.869938730227873699e-03
-5.784598594057676051e-04
-7.266706740703086920e-04
2.837514650834486313e-02
-1.615765473348453399e-02
-8.095741775327720477e-03
-2.173902483982534037e-02
-2.889977714621821958e-03
-1.409649378498545672e-04
7.874510136245089359e-03
-1.156666388899165246e-02
-2.560976042786716061e-02
-1.497987209695090215e-02
1.493896295479488212e-02
3.603071665771575682e-03
-9.746347980454072787e-03
-2.788887813269759833e-02
2.565830380885609358e-03
-1.264861015704442544e-02
3.489482897234627221e-03
2.220758540934110806e-02
-3.653910854423842672e-03
1.260740926233052490e-03
1.167096596601552815e-02
-1.639287868899714715e-02
1.664350395616741654e-02
1.468716770186706847e-03
4.884674539101242254e-03
3.246971553269803641e-03
-1.121444783898804635e-02
5.590565830971326935e-04
-6.423718297839527483e-03
8.861272464484006494e-04
1.433950404832276364e-02
-1.033449784472214444e-02
-9.969166875184039614e-03
1.854454574678334952e-02
2.712104859879580204e-03
1.718248309152910561e-02
-1.861990246849548961e-02
-8.279931744003197732e-04
-9.485114261982263359e-03
-9.020349199873047355e-03
2.812750313250788475e-02
-4.441808330887498171e-03
-9.463490174357137852e-03
7.028657573591957572e-03
-1.581754777379698954e-02
-7.390589393448874535e-03
6.150071403388828427e-03
2.854882902555041114e-03
-1.285956175121278147e-03
1.175556241480681802e-02
-2.243116341983427200e-02
5.100490928146559667e-03
-7.731748374642212311e-03
9.560260581633390001e-03
-3.209439419742664799e-03
2.998261080944012672e-03
1.764317473314515675e-02
5.730729210831509747e-03
2.278306092183102205e-03
-1.036466496196314889e-02
-1.183088306941455781e-02
1.389702096887065336e-02
1.011271627192238988e-02
-3.105276429819787097e-03
7.735992032737038469e-03
-2.121743400925378553e-03
-2.375667633819588537e-03
-1.591842498381975659e-03
2.094233616125506722e-02
-8.029620601294092108e-03
9.452952202255575712e-03
-7.578450553167230368e-03
9.080902888279977422e-03
7.100767873974055469e-03
1.140583126593388945e-02
-5.383272913673598295e-03
5.973609778366407302e-03
4.404301218521486719e-03
5.974264693137276705e-03
6.372708879327477517e-03
1.676916724734362667e-03
7.434266550877226406e-05
2.442018069805184863e-03
1.776485760364151026e-02
3.438264276069065949e-03
-5.440952918121064186e-03
9.646763815754596724e-03
-5.010708906442401175e-03
-2.787808240431694212e-03
-7.600516949431841175e-03
9.313938275998650054e-03
-1.886474040786790402e-02
1.785692617026854098e-02
1.738153906281226374e-02
-3.753369634955888105e-03
-1.949105121243854474e-02
1.047276595948519245e-03
5.993778838106388280e-04
2.341847568917076322e-02
5.310958118531862449e-03
-4.848486282678849020e-03
6.878229785526302452e-03
3.576755538709449917e-03
1.282274750941857396e-02
-2.241192816621351627e-03
6.361574303217960337e-03
7.000405966955338191e-03
1.546283443847622794e-03
-1.457846693964594612e-03
7.452740431979656271e-03
4.485386312496062941e-03
-7.897331673279765762e-03
-4.933917442922951258e-03
3.393486115673571661e-03
-1.014465893900181291e-02
-1.332862825121555565e-02
-1.768748843568580115e-02
-6.577018522343002632e-03
9.349089585909566404e-04
-5.736558283966600343e-03
-2.618099142611233707e-02
3.605150126981609363e-03
1.127701067400328425e-02
5.199486870806398903e-03
9.951247329488330587e-03
1.133550277290018560e-02
-3.621706979746681498e-03
-8.687245716840326371e-03
1.047653722894862152e-02
3.941904418409132409e-03
7.485108085902212292e-03
-2.722073668441183465e-04
4.282829920449980274e-03
-4.466686960963564025e-03
3.157945875951044448e-03
8.959884493736528649e-03
-2.174762040299886220e-02
4.354769278543467459e-03
1.591082151040814144e-03
-1.025758865701810636e-02
-8.347700963748464495e-05
-1.087055788076283190e-02
-1.804876139693202194e-02
-1.931326319592075868e-04
-1.754588280830234569e-03
-7.201977869830886170e-03
-3.976047214869714817e-03
2.689224812033244941e-03
-2.440533060998248752e-02
-1.369556234472866195e-02
-1.113913604481550634e-02
2.981383516755660174e-03
1.803800612080309201e-02
-1.764693940743855549e-02
-1.000447211329064112e-02
-1.590916962584937658e-02
-3.684367484953488415e-03
8.115277527721955278e-04
3.376123928967225598e-03
8.503156573560250939e-03
-3.842661842918453780e-02
3.674929260000741379e-03
1.166813273771788104e-02
-2.218727616605889463e-02
-2.741723171015821026e-02
7.467060612169638956e-03
2.359260836558913638e-02
-8.923364939134585672e-03
-5.947713668010561235e-03
-6.360922118224543627e-03
1.316620828765793609e-02
1.312224689142157605e-02
-4.291805924162097642e-03
-6.238479934463706834e-03
-2.739451324643171672e-03
-4.040576083415704615e-04
-1.351815606946762428e-02
-4.659248012479219429e-03
-6.349153554070241685e-03
-1.301214978209919507e-02
-6.219002228760926385e-03
-9.174046990782291217e-03
-7.021275535893535926e-04
2.117826955843948519e-02
-9.153919911386778491e-03
5.431378146587144060e-03
1.228201928566009099e-02
-8.201779370706781648e-04
-1.291259209733413953e-02
-4.719044339231098437e-03
6.840432419667072383e-03
-9.859255263012950757e-03
-4.641707546598747292e-03
-1.745388223443714113e-03
1.710825694342099981e-02
1.216553162470837774e-03
4.204464375916120919e-03
2.221054101970613981e-02
-1.074888172102777574e-02
1.855593951086231125e-02
-1.577323728243245488e-02
-3.013720326216597686e-03
-7.163796598278295014e-03
-9.478863781727691826e-03
-7.725193621353570149e-03
2.821029659020929739e-02
2.251119491800368869e-02
-1.879387564251743577e-03
-1.108992266362250623e-02
7.798646047874573453e-03
-8.461078172020315008e-03
-1.558070283995238725e-03
1.442374546365735380e-02
-2.166573285270393442e-03
-9.741182274347124151e-03
-6.637442170343008270e-03
2.975721849967522762e-03
1.281904430935074633e-02
-1.342704176169457961e-02
1.004870570852336130e-02
6.450865363608349230e-03
2.398187026998391778e-03
-9.954798063979910724e-03
1.071746552692855875e-02
4.345809225154735199e-04
-1.009433299076418003e-02
1.035831286192651773e-02
1.223038824653598956e-02
4.842485538814946325e-03
7.673222044575633491e-03
1.046978979408940292e-03
-4.381970583845145630e-03
1.464019818206768666e-04
2.853680863857184502e-03
4.926435847155022189e-03
1.411467422193073704e-03
1.411203597007243231e-02
-2.371509551600795799e-03
7.915288721544132960e-03
3.247629505812598977e-03
-2.681796206024934792e-02
4.035936630964558763e-03
6.273219560914121591e-03
-5.362474414341582632e-03
-1.738230232447228463e-02
-2.474357340338052477e-02
-4.651506980332043538e-03
4.318985253309073381e-03
-1.088399417129786752e-02
-6.750453171681367048e-03
1.321697648989029680e-02
6.133347070020806792e-04
-9.501527964545446181e-03
1.099744281020124601e-02
-1.425910696179612594e-02
-7.683600087630975024e-03
9.622330607685053439e-03
-1.817431684174388579e-02
-9.426052880302427175e-03
-6.809964393568578717e-03
2.151619136411433812e-03
2.432855993789687088e-03
-1.069228345686515716e-02
1.089682775552958463e-02
-1.887544697364241381e-02
6.011386120678084352e-03
2.059298076412143311e-02
3.635324165963524281e-03
3.778835444707196334e-03
1.148019157179727516e-02
5.209409949890371136e-03
1.651990089595573724e-02
-1.835925761870093459e-02
-6.279348741961782512e-03
1.021971870550336496e-02
-3.094694917068143911e-03
-1.453729038860744963e-02
-1.599652223358105294e-02
-6.379610315787399670e-03
-1.159050087937679285e-03
-9.048466918824814645e-03
-8.082233363813145707e-03
4.499088750728502846e-04
9.722323089181117081e-03
9.922769906320113697e-04
5.999848332684762017e-03
4.901268753911278316e-03
1.698457987568510264e-03
-6.722920293092975522e-03
-9.032128663079322731e-03
-9.927271347757520362e-03
-1.216772725166757538e-02
-1.792190388683815444e-02
-8.095102222550492645e-04
7.629330292776988556e-03
1.981452175056063261e-03
4.694750001384226205e-03
-1.253597706013820368e-02
1.437814736438238275e-02
1.349030757713379908e-02
-4.472049949336648865e-03
-2.609782999812005830e-02
-9.798005753056697117e-03
-1.442109915191439919e-02
5.879492589381062236e-03
-3.364746758642480490e-04
4.274832059028885189e-03
1.041245223487016758e-02
1.047067248257615296e-02
2.133776892300770153e-03
5.292806626947185733e-03
5.170507243519701333e-03
6.643565418340136551e-03
-5.508108384316656898e-03
-1.345580233354782759e-02
-1.128997228267314065e-02
1.832203871957546401e-02
5.185509473605021125e-03
-6.639665866824722568e-03
4.228639442859539153e-03
1.863518803029221450e-03
6.131922365954074056e-03
9.291631378289181079e-03
1.835025673044576866e-02
-2.123008206280910769e-03
6.253085778912674184e-03
5.753245153980853822e-03
-8.339522696216360859e-03
2.220551829177119622e-03
-6.246461930343167115e-03
1.125881246159930998e-03
-2.115144546584952004e-03
9.803086712963099067e-03
-5.171571638352700367e-03
1.102345345572909065e-02
1.874112205451564876e-03
-1.066681904458220177e-02
-1.556262475366443571e-03
-3.623506593948621485e-03
-8.202993297541134529e-03
1.105025892229944372e-02
-1.572096514993238589e-02
-1.309539576042584308e-02
2.457755906005839198e-03
1.025108012010995766e-02
-1.603997794458912737e-03
1.846536980310113435e-03
-2.731699467842496707e-03
1.302801881220791783e-02
1.303339533094359168e-02
8.149599186234125769e-03
-1.721041998361032927e-03
-9.389656478914945592e-03
7.003473626618868415e-03
1.557876712678703951e-02
5.014393960165190647e-04
-1.126997637286654419e-02
-1.321685252889137629e-02
1.143932728281942413e-03
7.342925671503419856e-04
-9.658850650933832951e-03
-3.575740687695263577e-03
-1.360640918778974195e-02
-1.208639384718133633e-02
-1.061441505097579334e-02
-3.903482403167722516e-03
2.015379369678251421e-03
1.377261507214400799e-02
-4.311490312151373613e-03
-1.101199922336297717e-02
-4.926478977028516011e-03
-1.440729585150407610e-02
-2.821764021593899888e-03
1.064614104768606302e-02
7.670335370985128381e-03
-1.373760400043280358e-02
-1.396214022060147768e-02
-7.159707717316713370e-03
-2.701611476671697543e-02
-1.474416079283343700e-02
-3.445079714273780944e-03
-6.906040337812919573e-03
4.364094941644912004e-03
-2.174351761805045496e-02
1.403616104803874845e-02
-7.704975885520493929e-03
7.782891534565967561e-04
1.965069908269244381e-03
1.075600253860572487e-02
-2.367545450265412608e-03
3.746865283559326892e-03
-6.124137884728563831e-03
2.115665898308700943e-03
-1.257287483230212256e-02
9.952044660801868253e-03
7.152866666087798544e-03
-5.909214404587509635e-03
-2.073422629326212435e-02
1.041051514755070295e-02
-2.626198712408725055e-03
1.470036098774332549e-02
4.619927507269242471e-03
-1.229914072822522672e-03
-1.898818993607449173e-03
1.610483851699134536e-02
2.119943172352540053e-02
1.611909260510135597e-02
2.743045409478211266e-02
1.152305813374476448e-02
-8.257428400170177193e-03
1.533787977722741091e-03
1.543763550754306824e-02
5.704219242457408273e-03
-8.485197301496114411e-03
1.053915470150876884e-03
7.263417658223083120e-03
-2.705776462044466504e-03
7.726680343117253887e-03
-8.299609665523701579e-03
-1.225766262039214261e-04
-1.323567545675667948e-03
5.306172140324633482e-04
-1.502376012030252027e-02
1.757641545831565980e-04
8.673465828398235419e-03
2.025706225899446752e-02
9.894393594345218031e-04
1.012512703010983589e-02
1.107204364470004004e-02
1.296494567074630254e-02
-5.863922466084718274e-03
9.003604185556381145e-03
7.333196657666479594e-03
-1.322291122004076724e-02
-2.405157443438726492e-02
-3.300209635098095228e-04
-1.075182650888110991e-02
1.097281479543446223e-02
6.429741966854225256e-03
1.291278636038749837e-02
5.522534935800036369e-03
-1.181580151890276702e-02
2.270657736051888420e-02
-1.297473186869429855e-02
1.965211521994167376e-02
4.302520659120061264e-03
5.291060617656266618e-03
7.888684395454367143e-03
-4.393059900026490016e-04
-1.266154283837632889e-03
-2.800282003080439841e-02
-4.699466827429122848e-03
7.034144851118550625e-03
1.245725010713111085e-02
-1.137568352010700709e-02
6.307307967626313988e-03
-3.842984406887010873e-03
9.889016087319959028e-03
5.726491671704923457e-04
-1.212246290492592291e-02
-7.390800040308570171e-03
-3.229753009005168710e-03
1.696130368986458609e-02
1.516373471696903438e-03
1.181871643867870398e-03
8.909979626543440556e-03
-3.709708771857605971e-03
-1.235467578723051241e-02
-5.607206016876041359e-03
-4.450556269674213125e-03
1.807666554531393551e-03
-2.337630072005611372e-03
-2.245129722552282117e-02
7.367906745970182782e-03
2.488000265903725448e-03
-7.269838507158933594e-03
1.446480216401358279e-02
-1.709738904812493562e-02
1.731859057370465022e-03
5.181789875107766646e-03
7.567061280531159860e-03
-1.112364264454752949e-02
1.355756439167404978e-03
-1.334636737300717597e-03
2.852884208188059822e-02
-6.840142183237118631e-03
5.694418436367955361e-03
-4.955810983992683938e-03
4.272785822831370178e-03
-3.732052308103252138e-03
-1.806102026145424422e-02
-9.086812684017807340e-03
1.189659888490140344e-02
1.226752204732950609e-02
-4.606874762172727227e-03
-5.069448761194420700e-03
-5.917036752985473970e-04
8.973135031245825510e-03
-2.980792865813809873e-03
-1.211714189048423811e-02
-1.288460557312242315e-03
7.267106103143517772e-03
3.945732930013774731e-03
-1.433724886416384327e-02
-5.132185310021809485e-03
-2.782657042571170559e-03
1.057653100954445216e-02
4.881907335266577955e-03
-7.162251385279805576e-04
-5.789271436319372473e-03
5.965530674642519071e-03
5.371926347028291478e-03
1.013780953788049645e-02
1.343890184002929575e-02
-8.370775740746513177e-03
-8.563262500149321568e-03
-6.727852738475481598e-03
9.124510778731791463e-03
-1.055520608831952631e-02
1.966430643583738354e-04
4.970815888492751550e-03
1.286032901994871910e-03
1.840728691045129132e-03
7.959383782544536545e-03
6.583998025451239834e-03
-1.597354961626532141e-03
-5.432726069296250730e-03
-1.476234706294566115e-02
1.873103946795803831e-02
-2.741166691013443256e-03
-5.233559252112401743e-03
-3.526981962001369836e-03
2.290958654912727405e-03
5.928943067888491590e-03
1.286353838292317352e-03
1.647134149944828874e-02
-4.552775925116255527e-03
4.019394442772677815e-03
-1.360650114560867791e-02
-2.827571988880339324e-02
-1.753850667174075215e-02
-1.115840401089777771e-02
-1.033488622356381129e-02
3.221362594103932900e-03
8.821439099888190097e-03
-2.151882365183031311e-03
-9.627117740664617451e-03
-2.697516247566463920e-03
1.353507070460651524e-02
1.215889913904275553e-02
2.436570621870254826e-03
1.739229952167589037e-04
1.165555124804389976e-02
9.843942197554779016e-04
-5.573926700378354152e-03
-1.496472227790350724e-02
-1.099683687154741872e-02
-1.243892161520917215e-03
2.303685422186235038e-02
-1.163236482359650791e-02
-1.094664044959146529e-02
1.711974845827675742e-02
-9.937120719725528115e-03
-1.139130024298940468e-02
7.620655867870375876e-03
7.145250769714008368e-03
-8.380098331892286978e-03
1.236530218300812113e-03
-5.827184408470674828e-03
1.306185661503609687e-02
-8.115286487264634224e-03
-5.955757880675580096e-03
-1.285919428892264970e-03
1.622446236660772881e-02
8.118806184284930311e-03
7.996199151845115316e-03
1.597090141360225782e-04
1.768117861912494107e-02
-9.154270904780893378e-03
-1.405364161931829149e-02
-4.046056989214200268e-03
1.077008387501727192e-02
-1.380976671777254606e-03
2.256213912051149850e-03
4.835377868352043994e-03
4.888324031437139665e-03
-7.420781571862523690e-04
4.920283867045347967e-03
-1.745118295216146684e-02
-1.556497280039602880e-02
-7.182176376477648720e-03
-6.524804951874712232e-03
1.711055644674680173e-02
1.741416144137473976e-02
2.746129108572669016e-03
8.474363357461871249e-03
9.695279831906918142e-04
-3.569680040334194740e-03
-6.509207409062514257e-03
-7.503999684631127744e-03
-2.743506152045063328e-03
-7.456655829628355131e-04
-5.370806478851742650e-03
-2.001030707593455180e-03
-3.275661055690421916e-03
9.522457607576416058e-03
1.296346931639336293e-02
-9.382896511272277931e-03
-1.451821951550612234e-03
-1.464830718554915173e-02
-5.785397294269868304e-03
3.765048712673636257e-03
-3.798947653648317331e-03
-1.040248499070062400e-02
1.704409981539169866e-02
8.087903189293182277e-03
1.814211115835505372e-02
2.635591599795937892e-02
-4.997866394390968782e-03
-3.031091964602816713e-02
1.076514700487336135e-02
-8.044220949149661140e-03
-1.070475267671979445e-02
1.224383857173484517e-02
5.836146825523394824e-03
-1.036242723792508069e-03
-2.967984273462399760e-03
-1.313568935802017848e-02
-1.452559243888788647e-02
3.214667049781364840e-03
-2.017506013038370891e-02
-4.426757243982428332e-05
7.582742348195422102e-03
-6.537316135504199488e-03
2.647860395209814324e-02
1.352257102848107052e-02
-1.438734296827576253e-02
2.874946960329834069e-03
8.555342464016837609e-03
-7.864560175889269769e-03
-5.952038242359617391e-03
-3.397572103267279455e-03
-3.076859373267500607e-03
-1.199102902255913018e-02
-7.140388451255124530e-03
-3.390358315218530965e-03
-1.175174011614250023e-02
2.276443491628818427e-02
5.289325721286674588e-03
1.155041706894952697e-02
8.462533825597374701e-03
6.272772896218320286e-03
-9.571107273815352909e-03
-3.463720820292917786e-03
-1.551171924086854580e-02
1.267882333145365845e-02
-5.419664069472027342e-03
1.354834218376863107e-03
-8.824796926981553352e-03
5.367998859347033330e-04
-1.382254654845602865e-02
9.841373314439919029e-03
4.650403815100370014e-03
1.795830268519534381e-02
8.598127172489351475e-03
-2.303580794167500376e-03
-6.603740676010380790e-03
7.144486335325396162e-03
1.950108470699887418e-04
1.987129074612042912e-02
8.032251721171519004e-03
8.461056360963647646e-03
-1.090653292957872653e-02
-4.840078067483695110e-03
1.065588768127040918e-02
5.586943313546339530e-03
-6.463609645595821095e-03
-3.648517535810299767e-03
-8.728944538826128446e-03
-5.938483215647375217e-04
3.854720744032194644e-03
7.336038620566893466e-03
-1.174686504049094436e-02
1.205886906562994923e-02
6.487270216051011992e-03
-6.985100265360719672e-03
1.164155934533905520e-02
-1.038549415355678913e-02
6.089787682757628363e-03
-4.539329589298893471e-03
-1.216533020303858618e-02
5.313430068124486150e-03
-1.489588525796722851e-02
-1.655962727243566121e-02
-5.658520885645513740e-03
1.623176725353375413e-02
5.474864829105711463e-03
-3.460999230797355379e-03
1.453160462111858890e-02
4.625314261171567173e-03
-8.613967581085783809e-03
1.561059421207528636e-02
-2.595392342766261740e-03
-1.652765364803088569e-02
-7.594291067110028014e-03
-1.167098839773183204e-02
1.352122754435600236e-03
-2.372370792882789754e-03
3.696580592299500228e-04
-9.671408329336677115e-03
-8.342746343139924303e-03
1.754250566239461519e-03
-9.469531821195238327e-03
-2.005826933243934438e-03
9.312611870656481092e-03
3.316191276893345943e-03
2.040216667746693260e-02
5.428269046609053745e-03
1.227725831688557430e-02
1.130878820446441953e-02
4.559755160670673352e-03
-2.843073936834592322e-03
-8.586220267168273926e-03
9.577729708204179432e-03
-2.702716347346025179e-03
-1.170397364725346730e-02
5.464220074482324489e-03
8.333607546403999991e-03
-1.326734831520880349e-03
-1.631570184226378145e-02
-1.281534787532481387e-02
-6.709092387698548446e-03
1.894260327562999335e-02
-1.569393378230744124e-02
3.654719235488626712e-03
9.984117714528570678e-03
-1.273236874188569435e-02
-8.944160285241739561e-03
-2.277328592475204305e-02
2.585848972111786867e-03
-9.095898697199619048e-03
-3.082674590809508178e-03
-1.416295221819601673e-03
6.788099606203658147e-03
-7.593728945570402252e-04
-4.188360771992776475e-03
1.839436914851158567e-02
-2.038962800648770873e-03
-9.346638500721296886e-03
7.962911532140023270e-04
1.842865894724795726e-03
5.233150262901146814e-03
2.103794417727389114e-03
-7.764719059308171009e-03
-1.516068253050637665e-02
8.658676197502568686e-03
-1.642153818198125240e-02
-2.765506455934321588e-03
-7.612221538605580670e-04
-7.671849840370354584e-03
1.357609247868067463e-02
1.503446368096302867e-02
2.698413095097114064e-02
-4.495614952263355182e-03
-1.436904279382572873e-04
3.266854849369263316e-03
2.553902563603785772e-02
1.479832863936714552e-02
2.704424634594947748e-03
5.006603623679487490e-03
-7.580017257522828240e-03
3.620552091813665583e-03
-8.621300329011625380e-03
1.790387738343127491e-02
-3.647918137962838630e-03
-5.301209247620146912e-03
1.389538703217056042e-03
-5.770109881413110729e-03
1.702928874253323288e-02
-8.508642420022248173e-03
-1.192910758564751615e-02
-3.692155028051033634e-03
1.259993988024095575e-02
6.398080695321354747e-03
1.014393995249551934e-02
-1.080375987594821285e-02
1.053272403734735983e-02
3.857406396993122259e-03
4.970727406151789806e-04
1.584200025780345064e-02
2.404142816834465256e-03
-8.396065546189344919e-03
-7.178513734912733181e-03
-8.420627845172558648e-03
1.724546437239388164e-02
-1.913004446877521539e-02
-4.343297736970583821e-03
-1.799565164809915430e-03
1.139894771845825598e-02
-1.338721824451334641e-02
-1.983102545027135011e-03
-2.778741635565358525e-02
-2.264907823933553013e-02
-2.100505224320305293e-03
-6.733359867303904435e-03
-2.014779178831123917e-03
9.947902477355904591e-04
4.050010139746657543e-03
-1.122753767273621363e-03
-8.724296295472687857e-04
5.319376597206796828e-03
1.711855004366517538e-02
1.028717099602259079e-02
-1.737856965298946801e-02
1.128417316026364588e-02
1.204918809290083433e-03
-9.356988186394544008e-03
2.918905203621025707e-03
3.401959518389845752e-05
-3.473907711229577873e-03
7.561833361203719288e-03
-3.424370804510684131e-03
1.626619132071494001e-02
-1.432414064290198075e-02
-1.745369611114179834e-02
-2.764307368762775659e-03
4.419738028840557859e-03
-3.724103207538756021e-03
-1.263839842663122895e-02
-1.328379544180587719e-03
-4.967097918660196704e-03
9.436111409859657129e-03
-4.240419383712689706e-03
1.110244490651535708e-02
9.642851203982538352e-03
1.061686510878531373e-02
-1.451082409281036559e-02
-2.240221780657394857e-02
8.025184793496504057e-03
-1.995427661064919469e-04
-3.737739650653267281e-03
1.447281280329000162e-03
-9.137908736709110524e-03
5.844023089363468287e-03
3.172747325926707999e-03
8.093858195957072399e-03
1.247059107368366599e-03
4.676550220741325196e-03
-1.137837886685065872e-02
-1.988001800562817951e-03
1.002283203860599228e-02
2.687999180477072467e-02
4.612816055453009857e-03
4.264968883518272490e-03
-6.040738947919842804e-03
-8.958184496190317245e-03
4.032816322243854695e-03
4.291553638527485261e-03
9.715602760479547656e-03
-1.304411506363989219e-02
-2.330460680200800022e-02
2.549255822121932868e-03
6.481905752098842018e-03
6.566843590119131671e-03
2.964175568039121699e-03
1.548165613359759642e-02
6.589599868431673599e-03
2.367750135943251164e-02
-2.246818337488414377e-02
-1.819168930360589263e-03
-2.603940777373634635e-02
7.080512139149536255e-03
8.566720774924731913e-03
1.197607585425445632e-02
-5.884335525885521848e-03
-1.647308704963998307e-03
5.152532780856722630e-03
1.308450637795825332e-03
6.026993717247660157e-03
-9.034331070836581004e-03
-8.591824460111250825e-03
-1.065719705208378540e-02
-1.054482178283960153e-02
1.349699404695822204e-02
-4.751548930366293957e-03
5.613782342134006342e-03
-3.083724776735516111e-03
8.720546123743655106e-03
5.042345027905779410e-03
8.645633140561166663e-03
-3.202348835595076031e-03
5.807195313939598515e-03
3.377528392653055770e-03
1.962690272318410450e-03
7.337364553184250009e-03
-1.428390366793857308e-02
-8.169981080622218091e-04
-9.611729092511941963e-03
1.071298453591811375e-02
5.773544784007227440e-03
-1.234311662196896364e-02
4.265587022839400014e-03
3.753772190357218541e-03
-2.295357076920852540e-03
2.210164721745559724e-02
-2.030187681990904686e-02
-2.133052965083134312e-04
-1.162660164818449422e-02
3.017782972883913725e-03
-9.796299908320905969e-03
4.322197035285735116e-03
1.407742488341877374e-03
7.252070207326759277e-03
4.480282350313381963e-03
-3.186164155766499969e-03
6.141865854208426907e-03
-2.024370744845776365e-02
1.927758874910353443e-02
5.008476504574371638e-04
5.205588441937305036e-03
4.326721126232991460e-03
3.698864302206442221e-03
-9.181020989073784486e-03
1.124522289524567059e-03
-2.231338208697302566e-02
4.078371146465933905e-03
-1.580337983511672859e-02
3.298139172232739807e-02
8.704730691762242040e-03
-4.707924008338469288e-03
-8.508822412187281789e-03
-4.082542964440445676e-03
1.574742314483898106e-02
6.332794304190469785e-03
3.693195368104852292e-04
1.103596521344599310e-03
-2.007215633151090278e-02
1.811508230649851864e-02
2.562207128786723413e-03
-1.718276409600208096e-02
2.431734498195930322e-03
-7.939241125006922875e-03
1.728976825460026845e-02
-8.563470613814200966e-03
1.976430680982487267e-02
-3.055757343050135265e-03
-2.102064637454056396e-03
4.394478763118879125e-03
-2.497560012902349559e-03
1.509021940266871238e-03
-1.233159031365854957e-03
4.668773460878732941e-03
-9.367511789759610380e-03
9.061249416493511941e-03
1.241943319877099436e-04
-6.642358551983438891e-04
6.035392569545297743e-03
-1.743073120872286070e-03
-7.388149443340677643e-03
3.965071199930606709e-04
-6.863137746573304970e-03
3.941581203980232435e-03
-1.236472553980173458e-02
-3.242603593384370871e-03
-3.950908876835987002e-03
-2.252568573983635553e-02
3.288008757924139065e-03
-1.390539478767484002e-02
-7.507490758788148977e-03
4.958901128392327086e-03
3.014284273648196004e-03
-9.661364440482496374e-03
-1.319508163117241555e-02
3.986415531713835385e-03
-1.170593763587172813e-02
4.144692097313648627e-03
7.297069598151653853e-03
1.930569465501553311e-02
3.741748559321016188e-03
-1.747000032262989878e-03
9.035555172714699115e-03
5.389828003315235393e-03
8.830650090340175229e-03
8.092508489829373019e-04
2.633939263984574723e-03
-2.284174845691420465e-03
-4.384102854073046625e-03
-9.261566239318733823e-03
7.663844466036911704e-03
9.916189640909912548e-03
3.020589050488133812e-03
-8.747917950397197592e-03
-1.044973658543364541e-02
7.052675723771772119e-03
8.987019325262154620e-03
-4.657037609822907605e-03
1.287404815869769119e-02
-1.998639912661177506e-02
2.325373038938448322e-03
1.219462523248673533e-02
-1.086880895938297301e-02
-3.441637515677799502e-03
5.229879451170075903e-04
1.108570408063411054e-02
-9.850322814151352135e-03
-6.156470471730225019e-03
2.481959107810599932e-02
1.984874221008748121e-02
-1.173749975113338312e-02
8.447670719519833477e-03
-5.872109236378021679e-03
1.911859044318112838e-04
1.459031827854578162e-02
-2.881583210145803597e-03
7.925031137719156307e-03
-2.302494405876067893e-02
3.278645534802123330e-03
-8.029404482610923849e-03
5.846525361120550983e-03
-1.126582675737326658e-03
-8.233756451973031978e-03
-3.820939028486157636e-03
1.209152312625700514e-03
-5.791441348675132640e-03
8.710383979374397914e-03
1.288672647657195143e-02
-9.558510904137885317e-03
6.758441637226075306e-03
6.230282245247299212e-03
2.023785866076705312e-02
6.229446065377098295e-03
1.535649617041709219e-03
-3.849941774426535548e-04
-9.886732419736162999e-03
7.322200062880249681e-03
-8.883963528799368806e-03
2.221822379552624779e-02
-2.327889304383007601e-03
-2.413250200197201295e-03
-5.648401344051173778e-03
1.246030129490884389e-02
-1.709500668613973123e-02
-1.207958957885648353e-02
-4.888743064028279505e-04
7.490498720615661708e-03
-4.278084416579223080e-03
2.640070852025026490e-03
-4.180816790424263761e-03
5.660041133119852151e-03
-3.913233278349018650e-03
-7.025790315191162740e-03
-1.106809892704306792e-03
-6.315712361106882479e-03
-1.094542183829699290e-02
-2.003534581132330149e-03
1.729490341884232923e-02
-1.634724108314963842e-02
5.528703897728638218e-03
2.852809792409078879e-02
1.852257002636052566e-03
6.164134014212022117e-03
-9.468092377284681796e-03
2.542696253500223089e-03
-3.206197106449288226e-03
-5.503348041828392233e-03
1.478595716966804585e-02
-4.766736653123740571e-03
1.264963475503737625e-02
9.107608984456760579e-03
7.668591774457762453e-03
8.943709675421967695e-03
8.093422521856923416e-03
-6.787107125231988747e-04
1.806514416313283493e-03
1.934181771270077847e-03
-5.790137273388470604e-03
-9.407407942087603683e-03
-8.111716291247262137e-03
-5.587960467578818001e-03
-4.460345113653429658e-03
-7.667119080488991358e-03
2.135244589948128173e-04
-3.847354642193761155e-03
2.379594271708202879e-03
5.857473462022266125e-03
-1.350125962377278759e-03
-3.713224040938515810e-03
-6.467964906635041006e-03
1.935503732431869198e-02
-1.408406057746591777e-02
9.071541892161172002e-03
-1.554901042096731856e-02
1.017454978562385218e-02
-5.676086764265324096e-03
-1.610944811550454533e-02
5.775987229610995803e-03
-2.340656149422708221e-02
1.728271501222727793e-03
1.246004986211535822e-03
5.998505440707076197e-03
-4.202092138569138088e-03
-2.189757072509100622e-02
8.384424492492503073e-03
-1.217889010930254395e-02
6.453383718587762247e-03
-8.482352127398775851e-03
-5.751558490251318205e-04
-1.515520144353188492e-02
1.173233343629274082e-02
8.064798325148534591e-03
-3.926259362058170423e-03
5.695247502395402693e-04
-2.915231766394802554e-03
-1.933997637021872898e-02
7.838304917246474018e-03
-1.053075424943204427e-02
1.530705559810238009e-02
9.482117140997507049e-04
-1.663391893536252455e-02
2.944322985987678741e-03
4.187779374164401699e-03
-3.802979616501789024e-03
1.837147793974518509e-02
3.456482125097161233e-03
-5.230040622662583683e-02
-2.401917579634434488e-02
1.102433057287391729e-02
-8.728722562891271311e-03
2.414991387523725361e-03
8.521813213469413631e-03
2.751905682481007448e-02
2.378238406552257104e-03
7.842441055799436594e-03
-2.386595204067320803e-03
-4.357491909050938139e-02
-3.042529764293423755e-02
1.949408607867716969e-02
4.473624758000597883e-03
1.534131661321411731e-02
6.460899580816766193e-03
-7.500890741038148020e-03
4.902947374833849931e-02
2.210175509646887873e-02
1.114654472039278144e-02
-9.754701841664556797e-03
2.690011265515921887e-02
5.223489043863148787e-03
3.458419195968136933e-02
-2.133489527307325800e-02
3.282923399883986432e-02
3.484622421648943952e-02
7.969395711072487995e-03
7.684808637843629046e-03
-2.108944796427635049e-02
3.368849960521981546e-02
2.901069146049423120e-02
3.410283965810861212e-02
3.542690383518625613e-02
-7.187766395380228504e-03
9.985347440799935068e-03
2.827589218073842548e-03
2.522742645135108916e-02
1.514013541768598030e-02
1.601703507147227146e-02
-2.942081530611714499e-02
-7.888515317808278415e-02
-2.506144300873032124e-02
-2.606738465641087257e-03
-4.678477680303188245e-03
-3.835675498521139148e-02
1.280735980160209279e-02
5.615383244096146774e-03
-1.958446457907817104e-03
-1.537343989709422098e-03
-4.810635215541729515e-02
4.069626817829734289e-02
9.015216058768905916e-03
-1.180560389196180088e-02
3.996403309252290897e-02
1.142741409766012857e-02
4.716006710165245724e-02
-3.196274422113851068e-03
-6.221465607078082577e-02
-4.776696438188708822e-03
1.736798465555201496e-02
-1.843895174109025370e-02
-4.099661337749969936e-02
2.383649438072633561e-02
-1.266125439257841621e-02
2.410640901036087067e-02
1.326252891869644270e-02
-1.889623247231345419e-03
5.209437338351319974e-03
-1.082520222553035039e-03
-3.029320109128891964e-02
7.365313824509856291e-03
-1.290884117343052070e-02
-1.509208610874276241e-02
-8.941341752509206209e-03
-3.935226584876599931e-02
-4.555694414593696590e-02
2.393844849530459007e-02
2.020849302603548031e-02
8.057961012442657611e-02
-1.807931345741854018e-02
-7.793552677851040521e-03
-6.388860362201491568e-03
5.601933309220354963e-03
-2.165979442756614092e-03
8.041204588026450162e-02
-3.496517033674329672e-02
-7.919100322972822195e-03
2.302381540556211817e-02
3.426936393296103889e-02
-1.741446319355270320e-02
-2.081594587992795058e-03
1.010680486209273102e-02
-3.172421038831323842e-02
7.616672658556637721e-03
-3.857481888037247314e-02
-1.267088253987782437e-02
-5.426866395754075152e-04
1.980464581229118837e-02
1.016031693934980017e-02
3.738475615454055993e-03
1.445401770817191130e-02
-1.666407273453454976e-02
-1.505769646749271357e-02
-4.646978844704318171e-03
1.301098994736579403e-02
-8.371256872006672262e-03
-1.645941348135407031e-02
-6.324580756521290710e-03
4.121785663292548696e-03
-1.287771299591879571e-03
7.722490055146500471e-03
-3.407977001770835790e-02
-2.290635321830998550e-02
-4.387262890970475629e-03
-1.804319190870287345e-02
-6.837119416789023442e-03
-3.132707336771450857e-02
-5.651601491435597098e-03
-6.553945306801464699e-03
7.376973315637481640e-03
-1.168761352438367311e-02
-4.397949064582849766e-04
-1.537801759891078111e-02
-1.745676300290624830e-02
-7.538245284029914013e-03
-4.694669195155335567e-02
3.243858164842817852e-03
5.204413643136861656e-04
6.071509877598960624e-03
-2.205354910502997992e-02
-4.475407946757234412e-02
-4.115275749887228190e-02
-9.636642042445266870e-03
2.327939619319244896e-02
5.491505755978659704e-03
-2.682446581980173911e-02
-1.409705406466225421e-02
-6.817664105349948789e-04
-4.794732417835334375e-03
2.149461358941801709e-02
4.636104946199215426e-02
1.102047015838245742e-02
-9.238609563413933187e-04
-2.478120604232246591e-03
-1.744075759810876855e-02
-9.268661389345511648e-03
-8.215364981837279187e-03
1.029373660877592762e-03
3.433067149571433080e-03
1.060264685683811291e-02
-4.942246347515397500e-03
-1.378517142641136339e-02
9.389375750174159055e-03
9.317840196137183728e-03
-4.864859861899855330e-03
1.785965840554578840e-02
-5.524172033835836847e-03
1.912251005182941457e-02
-4.455084156607308499e-03
-2.040784394124721488e-03
-6.371588692705762620e-03
3.512072978900297737e-02
-8.178663200849242698e-03
-1.211929485972869196e-02
1.265324754835114342e-02
-8.784348798974404848e-03
-8.990174502317113334e-03
1.086670337558564734e-03
1.309589108398068538e-02
1.032386579702098545e-02
-1.025320933567452908e-02
-2.205024497143537147e-03
6.253417863186538569e-03
1.453679172422002929e-03
1.891474147164542985e-02
-1.349665872317467458e-02
-2.669642900158037367e-03
-1.291374047670307453e-02
-2.734476639882621810e-02
2.573746861426744539e-02
1.704088805834463177e-02
1.886697297243189811e-02
-1.663322744824289462e-02
-5.285266307055735274e-03
-2.696322644566866503e-02
-4.276042754072474465e-03
-1.308493932137014086e-02
3.968739075302944643e-04
-1.644056704453810205e-02
1.341533133317721754e-02
1.643375192508116783e-02
-1.159260601550934043e-02
6.971840628284696820e-03
-2.111864656828782785e-02
-1.300336195715105260e-02
2.590948670514761631e-02
-2.637164509563588374e-02
-1.102574789902297479e-02
-5.390887958055432319e-03
1.605727792252351419e-02
1.513358396477826849e-02
-2.140152113820152982e-02
-1.788952162466243834e-02
2.055541642230860819e-02
1.204345205915137960e-02
6.292457497404089703e-03
3.893261774244568922e-03
-7.219978511421196133e-04
-7.641094664098613742e-04
1.252852375012177347e-02
9.780441031070527189e-03
-2.354307923972405459e-02
-3.967241091528781773e-03
9.080055598799726888e-03
-1.532925717509999765e-02
7.082650988512289615e-03
-1.550034816444867923e-02
-2.247422634335740840e-02
-1.769130534823023029e-02
-1.079356462191073500e-02
-2.197293328870801588e-02
2.484417871976024247e-02
-1.351294577363373536e-02
-5.531150652298034466e-03
-2.206519910051568320e-02
-3.603698464947734104e-02
4.475562112430549883e-03
-2.182505258461154771e-02
-6.848505636455805116e-03
-2.777038566593464930e-02
-8.714000227037579233e-03
-2.067885693680129866e-02
2.823512561705474044e-03
8.517735386924523908e-03
-1.281968679357462122e-02
-2.556668570770839408e-02
-1.334106119897763773e-02
-5.062674858584387261e-03
-1.723185676103372241e-02
1.985996330780987265e-02
3.596529763919596723e-02
7.795119860200315585e-04
-1.449131669905547037e-02
-9.976569225860258683e-03
6.685136690368483244e-03
1.257765877731534081e-02
-1.760663280398885519e-03
1.068166010423351152e-02
1.431016584358897788e-02
4.328503889046428528e-03
-6.101830768656889802e-03
-4.250607758812319399e-03
-3.418879198917027483e-03
-3.048559644511576391e-02
-1.967073326615395579e-02
-1.205335355252122945e-02
8.344770852487533308e-03
2.869661558524690820e-02
4.628129564350582682e-03
2.693143397114915877e-03
1.594721926599622364e-02
4.280698739335064840e-02
-7.509671705528317073e-03
-1.357232189865408174e-02
7.282261033455407657e-03
-3.353514107202632336e-03
3.527934470405935056e-03
5.395582569034809185e-03
2.105443965212322119e-02
1.534097796449573892e-02
-2.422343600517030959e-02
5.692997456858574397e-03
3.138333559265750472e-02
5.414068408290340084e-03
1.624247121036546601e-02
4.616703421981839008e-03
1.094585023936356372e-02
-4.706978947576824848e-03
-6.083572949651960826e-02
3.395323390068839819e-02
9.262872212820091530e-03
1.002209572865951637e-02
-1.532187662322242148e-02
-1.569851269162983107e-02
-1.157546920092140420e-02
4.187766285113887245e-03
2.225290500884990325e-04
-4.976310662703766277e-03
-1.886674170950203289e-02
7.820281052716968051e-03
1.274498222799607533e-02
1.502782489426970382e-02
1.343971997209834522e-04
-2.713120603546149978e-02
3.570835678814373269e-03
2.497408559160210761e-02
-9.960048677969832176e-03
-1.117039555932932728e-02
-2.614906127496659672e-03
1.624646614585333049e-02
4.021489059424755534e-03
7.348824943198739926e-03
-8.551940795948051455e-03
-1.168277787629811056e-02
5.281570381720166948e-03
9.302482924000439468e-03
-2.938735234327661486e-03
-1.079991380990855121e-02
4.731211983813097752e-03
2.287933898107391215e-02
5.628574398516155743e-03
-1.231484565705059236e-02
-9.656440891768496362e-03
4.630415221342594999e-03
4.739774910557289708e-03
8.030460305414743524e-03
-1.431882712215140629e-02
5.515308330397564358e-03
1.222659323377757630e-02
1.875855552242171667e-02
-9.515892598058146162e-03
-1.758648603573397288e-04
1.722465948221255441e-02
6.461265445234462036e-03
4.117271375427451752e-03
7.328262446871872289e-03
-1.644842946961622143e-02
-2.352027892372073048e-02
9.303701671806682491e-03
-3.983816841051440565e-03
5.110946559862926744e-03
9.871686266100986040e-03
6.938585915235802228e-04
7.370652387663834300e-03
1.753802739873772804e-02
-5.178962243246838966e-03
1.038371986443357466e-02
6.479096442365777850e-03
2.534557745579424804e-03
-5.181748133065595778e-03
1.503160762272067949e-02
-5.300234567456232199e-04
4.363329805194889922e-03
-3.027511581482297300e-03
-2.294945352650120968e-03
-7.229392163681294496e-03
-1.253998949409148612e-03
1.924737671327660452e-02
5.935973250471428958e-03
-1.570196936240184429e-02
-3.316856960225990705e-03
-8.052424739469245252e-03
7.095178296867453091e-03
7.653829557379788172e-03
-1.139006328433901302e-02
-7.486231875294982420e-04
7.576532881155751201e-03
2.298239886193895187e-02
-4.348270117695820537e-03
-2.969461347904610565e-03
-1.484983979977001246e-02
9.841551518696391859e-03
1.094754744870701617e-02
2.671012014988898703e-02
1.375439693819484723e-04
3.429848727838462341e-03
5.230949383632554905e-03
-1.048324597686946420e-02
-3.807257869983320716e-03
-7.360322386122260772e-03
8.974679184930507703e-03
-1.589801822000526735e-02
-2.034232596940387106e-02
-1.527926351468293252e-03
-5.439225075816296606e-03
2.817905955637114990e-02
-1.609273432667941359e-02
1.930800076031673890e-02
5.112856360953917621e-03
6.956046224691279055e-03
2.028430958477668122e-04
-1.010746272863799478e-02
-1.561105414831452480e-02
1.034230087079831585e-02
-2.237221954895230337e-03
-1.453657677693498407e-02
6.550281681551628314e-03
6.593457163476204412e-03
-3.803747031948912383e-03
1.829731481846938457e-02
-5.326430748807069356e-03
-1.390126659698588847e-02
1.909695276675093395e-02
-7.168279981106772704e-03
-5.653979592135928781e-03
9.552545699888606232e-03
-2.729163206686002069e-02
-8.732593622714722101e-03
-3.308448865207095496e-02
2.517022249627285518e-02
1.309966676820773120e-02
-8.493299808028705739e-03
1.877741709168219766e-02
4.926661770892308903e-03
-1.029499945606415778e-02
1.378320689922856411e-02
9.567986410527798066e-03
2.617314175257766037e-02
-9.778187636691514431e-04
1.499052918061111184e-02
-6.886646864968585212e-03
5.413361965698968055e-03
-3.522153906993696210e-02
-7.552862028680047517e-03
-1.934127398618849802e-02
-3.169576605209743769e-02
-4.347280121368166800e-02
-6.583632608484150505e-04
-2.575610068534817804e-02
1.442094989802361268e-03
3.642656939972380940e-03
-1.249994459969764639e-02
-3.557643768026486769e-02
3.536129648287417854e-02
-2.067890865075792603e-02
-3.075301005364587670e-02
-2.322784894939031782e-03
2.028081111838792028e-02
1.831298322328958963e-02
-1.636217043938891641e-02
-9.477343618733070907e-03
-4.092088616044053245e-02
-2.538614867652915635e-02
2.324938677221806416e-02
7.635028697440453781e-03
-1.763841376285242221e-02
2.316788266411670249e-03
-2.108275247268722938e-02
-2.969964403058187458e-02
-2.666408287489962711e-03
3.648023040930764571e-02
4.545659161580788317e-03
6.484595173635727440e-03
4.334644867267122177e-03
6.734685879958996098e-03
-1.303732236015820410e-02
-1.370229116586142021e-02
-4.486192798339613125e-03
2.846177479186500284e-02
3.801619053316092345e-02
-1.684169312920398912e-02
8.892275404603012384e-03
3.196668241695924811e-02
-2.936034446742474130e-02
-1.832721825558504200e-02
-2.638943142723891924e-02
-7.128091742113812704e-03
4.235450117319722318e-02
6.618317948469299057e-03
5.920412239696914991e-03
8.983850894777472423e-03
2.123958934713160093e-02
-2.214685904301387336e-03
7.381228129237206101e-03
6.409803496496167471e-04
-1.892353683132703968e-02
6.671342193190934848e-04
1.748096173459048885e-02
3.185774519934239917e-03
1.689694027298388121e-02
-2.203662040996109961e-02
3.913051763371673021e-03
-2.143585362306145090e-03
1.309380799195394775e-04
4.373225591153986902e-02
1.517552127330390813e-02
-8.958930264048555955e-03
-3.779913844568960971e-03
-2.421095149737435490e-02
-1.339989977179670624e-02
5.398361206991052728e-03
8.538620599422442475e-03
4.882311781392164804e-03
6.494311214013482290e-03
-5.340963799775488158e-02
3.041430643716249230e-02
1.446608864864313681e-03
-1.297727737257381442e-02
-2.957722562778680037e-02
2.158723591922607002e-02
6.697993699930637063e-03
1.940731150476165609e-02
1.186114151999314095e-02
3.050460617655418108e-02
1.954893049140389756e-03
3.316059092606494195e-03
-7.728570446638500201e-03
-3.708870605461501210e-03
-4.727925023170243511e-03
-7.031187270070032684e-03
5.471216606622720038e-03
1.312034546536807941e-02
2.716297737551924205e-02
-1.519340996341248971e-04
-1.991356276367563932e-03
1.407179482254205258e-03
6.442164876032596080e-04
1.336044612234755374e-02
-9.471898040071327629e-03
8.106876303860140881e-03
9.987754442683989889e-03
2.987513772162185208e-02
-8.419187065735482447e-04
-8.120050607512878729e-03
1.617316852825543064e-02
-1.266491658631636180e-02
-3.009771578943731818e-02
1.024456433398209833e-02
-3.253770985997240031e-03
6.601186564525620901e-03
1.650406377830568316e-02
-1.156980918676167938e-02
-2.046933037125047913e-02
2.133343373598263135e-02
-2.144054124056323993e-02
4.131685912876922016e-03
-4.559643433974313459e-03
-4.522835507449848857e-03
1.311259861493490123e-02
1.475747546885751611e-02
1.308906404034062242e-02
-1.115235741367820270e-02
-1.318057664095691368e-02
2.453424541818087414e-03
-7.754647901938000777e-03
1.145745526966535262e-02
1.975035514574930394e-03
-1.822275185550653945e-02
-2.201365346637209827e-02
-1.485141921942821630e-02
2.538507078218305013e-02
1.782785352287648631e-02
-6.849739026713793375e-04
1.724612896591516675e-03
2.662635880897945735e-03
2.302719497450623175e-03
3.528142764300272547e-03
5.742800170140859028e-03
4.340556264947418794e-03
1.865412274332351947e-02
-2.959610306188254630e-02
-1.352237311373570214e-02
1.517251635281741291e-02
-1.615969541872824822e-02
9.010194729404032848e-03
9.393916355421581474e-03
-7.578504985372538569e-03
3.033776262072965940e-02
-1.190646000531584217e-02
-6.214785447631197314e-03
8.627154997688617211e-03
-8.849000573110200885e-03
-1.943255624797715284e-02
1.345467723167580350e-02
-1.356547964221139525e-02
-3.653359014880638075e-03
-1.176042432649801635e-02
4.081530053149253975e-03
5.392722061634210723e-03
-1.064376846394543032e-02
1.379303016732817515e-03
9.860014397021926030e-03
9.734137071348545472e-03
-2.322673943235256116e-05
1.384839231007267864e-02
1.832629997896386906e-02
-1.896477003294035762e-03
-1.642917847812285902e-03
1.844434301048372693e-02
-1.457949356428906731e-04
-1.658557879879635211e-02
-2.161537200680235457e-02
-5.869437295698929670e-03
-6.300030213388992106e-03
-2.792727006501603826e-02
1.280498709828715997e-02
-1.540499414294558070e-02
-1.942616057162874568e-03
-7.337213712319207506e-03
3.286228802632587976e-03
1.985123037907199697e-02
-9.545941249708596310e-03
2.173557246455509219e-03
1.803385954137905547e-02
9.871682471447183055e-03
-3.156088582171397931e-03
4.820924513603534571e-03
6.080561985227940849e-03
-1.865003831630576703e-02
1.082043407917288730e-02
2.657998621168079778e-02
1.859589491799278765e-02
1.424908192160444925e-02
-6.884851415994817578e-03
-1.603958894487029704e-02
1.263647200496239437e-02
-2.901942092777183742e-03
2.996204028907143574e-02
1.083375842699746058e-02
2.747882128950316152e-02
8.286138310795151951e-03
3.408939651653544733e-02
-1.905166275213033417e-02
-3.702237006057687053e-03
1.402907940159557089e-02
-1.598924501798274639e-02
-2.507069725581568057e-02
-4.898759614085341531e-03
9.270384565829915477e-03
1.625141145799954487e-02
-5.081395821375151757e-03
-1.856379912820570882e-03
7.859955483520730769e-07
2.046453099253724844e-02
-9.521431353659792762e-03
3.317710670564480002e-03
2.209297184367403546e-03
2.972259566455528849e-03
1.752365082242140918e-03
1.652988186863350861e-02
1.969307055278901250e-03
-1.402984333344907929e-02
-1.405780050372483492e-02
1.920306881944340571e-02
-4.910350170156382865e-03
1.287720794855680591e-02
-1.834487873792718399e-03
4.862914399428257262e-03
-2.560255465613147860e-02
-8.890326543427723438e-03
1.448284212359391386e-02
1.189091492322899048e-02
-2.650571104389428095e-03
1.779030210364757753e-02
1.217087567979913479e-02
-6.811443905029360840e-03
5.502449506048454411e-03
1.940564511315768723e-02
-1.541102576979130889e-02
5.762569357623215728e-05
-2.335382023338056223e-02
-8.582945492385841979e-04
2.529792699010887866e-02
-1.845988194283642789e-02
-1.676257580350604473e-02
-3.418699551345503324e-02
1.980304873253692019e-02
3.682060956184523073e-03
2.762714351348723434e-03
-9.306788421684445908e-03
4.899170979404500643e-03
4.186258037996316156e-03
-5.131361457435916484e-03
5.837409474547585256e-03
-1.135635770111288224e-02
7.683234824509711097e-04
-2.753524612712468511e-02
8.127536232484376677e-03
-1.180095079591552722e-02
-2.732019067211554492e-03
-1.507383574497580050e-02
2.021075134839466977e-02
-2.405348758910975102e-04
1.462239004954008458e-02
1.444459015369786714e-02
2.626195691686611031e-02
9.266007503859941333e-03
-5.155608015727285685e-03
1.779280345492697006e-03
-4.854543975855094007e-03
1.889121267679208516e-02
-4.276025696628670686e-03
1.673533620188705218e-02
9.387644526943746126e-03
-3.164381982618816314e-02
9.404505026334560036e-03
-8.350185869286061088e-03
3.130075447987570175e-03
-1.162630229347395849e-02
-3.662506405906709554e-03
1.356513825302991215e-02
2.485218582918274390e-03
1.018535085378823556e-02
3.479977397000195982e-02
1.985118128524472007e-03
-5.799529613299693465e-03
1.354392258566279941e-02
2.710483439233910170e-03
1.699943055781745829e-02
-6.435003586930033125e-03
2.073400436042699760e-02
-6.683666355663011628e-03
-4.695451403791890341e-03
2.469487189957021017e-02
2.671550232898319086e-03
-4.281294243022309466e-03
8.387929837647674445e-04
6.035422287354172931e-03
-5.019928353194870810e-03
2.001138591706434072e-02
1.555556385845518119e-03
1.102904653174205905e-02
-1.740269782535213902e-02
-6.899639494411369429e-03
-5.587692670144079991e-03
1.646828755947946782e-02
-9.085006124327337992e-03
-6.950166744586325565e-03
3.974568624248203848e-03
-3.784163035919177031e-03
1.545282734556649960e-02
-8.132684815512309859e-03
3.796803362387071376e-03
-6.851379404662941500e-03
7.112102436837250971e-04
1.633156097533793039e-02
-1.075968065013026276e-02
6.147741818968333223e-03
1.256310000230737890e-02
-7.791168853699009279e-03
4.017010776525338500e-03
8.065559399427706111e-03
-6.673868614936308806e-03
3.106010124190225138e-03
1.319876446455192122e-02
9.795690282970045959e-03
5.068519272046501274e-03
-5.612564024188552644e-03
-1.995889332393106785e-03
-5.404454666985347537e-03
5.121091999166335965e-03
3.700669202543024200e-03
-2.286451811198713172e-02
-5.267127030069079958e-03
-4.530580535924495951e-04
-1.188950349071963425e-02
-1.666622784290229878e-02
9.803788034230598303e-03
3.983232819468763425e-02
-7.757372723386258238e-03
-1.334404445643734734e-02
-1.089294251993690871e-02
-6.957177731745489008e-03
3.494310280215861403e-03
-9.385198437429338389e-03
-3.438951435412559076e-04
5.331851352474209840e-03
-1.211269335242614459e-02
1.464544690224013450e-02
6.408009328712699522e-03
-9.408029987326907775e-03
-1.500115232233611810e-02
1.690717267536659407e-02
-1.167526736824353248e-02
1.405205701344053012e-03
1.138969182248272295e-02
2.845708755218854212e-03
-9.257029141362600397e-03
-3.399381966424372750e-03
6.740959979272853272e-03
5.591707712855886747e-03
-2.250934263116291176e-02
1.547520006845070489e-02
1.678373205061544499e-02
-2.020214931954857421e-02
-1.036725908388595740e-02
2.487148240889058923e-03
6.365002331477223087e-03
-4.858235269352506255e-03
3.540876934088988976e-03
-2.002109952883177925e-03
-5.720431446385910871e-04
9.079506922491358684e-03
-4.728750160282888188e-04
1.226722311191573607e-02
3.229961968204485712e-03
5.257706286412359119e-03
-2.150939579445902868e-03
-1.334834016323299503e-02
1.293804729413465700e-02
-6.214259879435267420e-03
7.267917132336237929e-03
5.012665059772418268e-03
1.263032052568820868e-02
-1.212137279982234729e-02
-4.520211587515364157e-03
2.074842621391027094e-03
-1.780233077362330246e-02
-3.258418221282018828e-02
5.140324951835460038e-02
3.821604280021045214e-02
1.681865898600110390e-02
2.700100598483616554e-02
-2.415025831349861332e-02
-2.569643590536781728e-03
-4.470429383788028857e-03
5.014465742212554505e-03
4.201018010036398215e-02
4.246020292364715426e-02
2.267994309960843016e-02
1.881058889040696305e-02
4.703851464417806855e-02
-3.615737643232298792e-02
-9.585499230828290872e-04
3.957688922275257037e-02
-7.766518724081773739e-02
-6.605218047314564966e-02
-2.655674100857299130e-02
-1.340316982733963033e-02
2.469064888779447589e-02
-2.562166463476954828e-02
-3.623215750759666617e-03
-5.574423659292949973e-02
8.510011737904310536e-02
-3.914548162026009609e-02
2.066613102999276946e-02
-1.638884573223071961e-02
-1.578168233039802318e-02
2.540581751921132045e-02
4.093720914006347515e-03
1.639139699868725694e-02
-2.697262071117327575e-02
-3.935487242022882304e-02
1.949702066316283400e-02
-4.430752045087417781e-03
2.895013748925767336e-02
-9.508270193032259537e-03
-3.608665341634366419e-02
-7.461227011682432762e-03
-2.418355231151727430e-02
5.161090618987300427e-02
2.195993051734200074e-03
6.554347028962494376e-04
3.556726564991547629e-02
4.190972953257033479e-03
-1.850621269637057684e-02
9.060690225027570946e-03
1.625501063781821173e-02
3.066445053054279307e-02
5.725390923551951922e-02
-6.656786164948345907e-02
-2.999631424069068922e-02
6.267937975402668171e-02
-7.930066013239869815e-02
8.122587477426949660e-04
-4.518378705197949319e-02
-3.935812347700509348e-03
5.762901480126252085e-02
-3.842280508362164431e-03
7.852531967189865791e-03
1.815809537261564924e-02
-3.943363529445388649e-02
-2.302618356007418016e-02
2.806536002343119549e-02
-2.472612975912503661e-02
-2.555233083149406267e-02
-3.739705760655454708e-02
1.177444418403156279e-02
-1.189671535690435544e-02
9.292139288618101356e-05
-5.285716420356474654e-02
3.601367842919031559e-02
-9.489121129669964320e-04
3.097548389784495794e-03
5.039499145823442272e-02
6.206942374220271452e-02
-6.504186539852672977e-02
-3.851735415190785800e-02
-6.434032205836736663e-03
-1.170394537790088972e-02
-2.135763597625395943e-02
-4.295890103789871788e-03
5.660306349522519799e-03
1.438179538452597980e-03
-8.994538216495361060e-02
3.716400770501818163e-02
-2.538933813586033428e-02
-1.534785482974934320e-02
-7.305740103090008208e-02
8.688030650035529108e-04
1.916003882288100021e-02
-2.124688350386413471e-03
2.781432952767193267e-02
8.095504958680140029e-02
2.061889042581845771e-02
-1.229152677367746811e-02
1.361544768833532724e-02
-3.872214736973414451e-02
-4.978684643250171071e-02
8.459115792448350379e-02
5.634589824962100285e-02
2.382414279353102862e-02
4.420368110315605475e-02
-2.432122294244334904e-02
-1.727821952121835411e-02
-1.749639961234997210e-02
4.742550984435859110e-03
5.726177367685668373e-02
2.771305907571177535e-02
7.747969298269642702e-02
2.330820248048807650e-02
5.983323982761500764e-02
-6.787680428733408600e-02
-8.713271860383333886e-03
3.651326551593402775e-02
-1.073921195091041836e-01
-9.974788706336486233e-02
-3.553361636426010522e-02
-1.857369952289928197e-02
3.547092236855519526e-02
-5.113425562962680554e-02
-1.750149605470990508e-02
-1.123524709648929948e-01
1.127731726712195709e-01
-6.318154757483106232e-02
-7.259779487640444576e-03
7.527221375390669893e-05
-1.722941666479079967e-02
4.686400152069004899e-02
8.701965002878401384e-03
1.119642254181907846e-02
-3.387081882091503432e-02
-8.763583441487056425e-02
4.293554688249240359e-02
-1.964026163605839259e-02
2.599203471189939427e-02
-1.441473501322033772e-02
-3.161218035427323936e-02
4.508805144651260866e-03
-3.171075824509868302e-02
1.105297767913703683e-01
-1.090805292566348304e-02
-6.633073964101871001e-03
4.391564810738080721e-02
4.103793090254432424e-02
-2.619987159311482419e-02
-6.841731531665235693e-04
2.043376109423102743e-02
2.482763498994552953e-02
1.083750021917012502e-01
-1.205697838073585548e-01
-3.067534392062885168e-02
1.083401900530161083e-01
-1.101580924871153333e-01
-2.112276953359786338e-02
-9.664374434975470107e-02
-3.981990492765685383e-03
8.053343069952963174e-02
1.573590197808696564e-02
-6.631713270199414076e-03
-4.871273045381203752e-03
-1.624508699983281956e-02
-2.695918762812241423e-02
2.286277230579662062e-02
-3.933765726506614074e-02
-4.002074066823417542e-02
-1.395769014226513546e-02
3.375418842723428708e-02
3.045159483669276912e-03
3.184591801594063853e-02
-5.226481409841994552e-02
6.647147338998707355e-02
-2.722994302536373406e-03
-9.151417340898825026e-03
7.977978739563254540e-02
1.257130163967662140e-01
-5.538851456829841508e-02
-4.101064031315285185e-02
-4.301472466991568266e-02
-5.692641983488332461e-03
-3.959619425614088056e-02
7.718861878321486326e-03
-9.779619601161032225e-03
-9.006159741351005017e-04
-1.361269193112821518e-01
7.205767180179867282e-02
2.412847195993088160e-03
-5.786396779746005858e-02
-8.636364837828319763e-02
1.477416502447202913e-02
8.833349816976220070e-03
1.992054476932752019e-03
2.744697989686869719e-02
6.130561082909222886e-02
2.060824558176468316e-03
-1.835533926622429438e-02
-3.307362003279606943e-02
-3.534005512792141868e-02
-1.354506729431761806e-02
4.366188051767890682e-02
3.032670090089890913e-02
1.192683765236258325e-02
4.334856457614674058e-02
-1.416259612010487175e-02
-2.377344860555752337e-02
1.648586460268072068e-02
1.271205699579759998e-02
4.832757099551336644e-02
3.008594677895294958e-02
4.491926289721117488e-02
2.055763044730369790e-02
8.017121172616127611e-02
-1.983199969558179301e-02
-1.752889956100549262e-02
6.199011045034114042e-02
-9.220429153714143622e-02
-4.909863210787544091e-02
-1.661226597896741514e-02
-1.373871215845206932e-02
1.732010262759810931e-02
-1.279256143996817391e-02
-2.786206373898181612e-02
-3.682966345349962534e-02
8.399774934888590283e-02
-3.653918885902644048e-02
4.509932720898567754e-02
-2.006153781396914290e-02
-8.260602092950037126e-03
2.354678191062980000e-02
9.951680985056483505e-03
3.858898060405060310e-02
-1.279919277920819366e-02
-2.859809241787896958e-02
1.233641630321717121e-02
-5.018016956682105206e-03
2.738510438444396317e-02
-1.398091909463136315e-02
-2.458303438287860743e-02
6.106324230923230838e-03
-3.663471108193685349e-02
4.637154709855453166e-02
-4.678273559219857099e-04
9.385497255365433250e-03
4.253794801243866719e-02
1.775141775805483615e-02
-6.145502112355961076e-03
4.221634121410079840e-04
1.857849851967306384e-02
1.869227313955799594e-02
8.569878444602335721e-02
-9.289918623481228932e-02
-1.666146702013201336e-02
6.638275221460177011e-02
-6.547691028141829073e-02
-6.442419130273328159e-03
-4.587480004770412567e-02
-1.245048315494442018e-02
2.687948536859105508e-02
2.968535603290127934e-03
1.860874861513747702e-02
-6.531615369437142500e-03
-6.810515138643773170e-02
-8.329241572322456169e-03
2.474378336419972776e-02
-4.061503253204832437e-02
-3.093221817536069822e-03
-7.673676591556807813e-03
5.166991407172804272e-03
-2.834209606504400208e-02
-5.794464294931612157e-03
-4.143751004009024741e-02
5.002028698589034567e-02
1.141601641134800185e-02
1.159513640467044020e-02
3.825020137993324909e-02
9.148440479202452069e-02
-3.612673447402283550e-02
-2.734363436447639559e-02
5.572550978741423744e-03
-3.605803121534615491e-02
-4.397981184470527161e-02
-9.275729796322530404e-03
2.522086572074030628e-02
-5.057612266912985162e-03
-8.952307148051795449e-02
4.711939185887900616e-02
-4.866566433942452405e-03
-2.878312772895354546e-02
-3.414208447388268619e-02
1.612371117060336020e-02
-1.191421979178863312e-02
1.680157201938904318e-02
1.810083449456000720e-02
5.326827157951297825e-02
1.270394485583793004e-02
-3.242013936017710402e-02
-1.123109085441043216e-02
-2.593370886875846423e-02
-3.203400518949729714e-02
5.531755153411527931e-02
3.505821173670594509e-02
2.544098023789158336e-02
4.122114751721389636e-02
-2.806746345576166188e-02
-4.311992930414677155e-02
5.068118434875632395e-04
1.105345800867773599e-02
4.327039874196533104e-02
2.316220241016558531e-02
4.674803701447195065e-02
1.930060041482977579e-02
5.450166343945138381e-02
-5.025536940889187981e-02
4.838880487247588028e-03
4.467038936392966897e-02
-7.535042222058606354e-02
-5.886883074375420799e-02
-1.906608772361338341e-02
-1.818924608822779926e-02
1.337294694251334702e-02
-2.017289165558551478e-02
-2.875462581789885869e-02
-6.916971252112563695e-02
8.334552006341970631e-02
-5.075257021120527234e-02
2.737881398681542983e-02
-2.717550787828366954e-02
-5.087915200690773174e-03
1.346294103047804107e-02
-8.676847284445704522e-03
2.982551504644652060e-02
-1.723772025737162206e-02
-4.650569107123287554e-02
2.101464915156930902e-02
-1.965980713814460476e-02
2.296789897429693528e-02
4.175272152414813247e-03
-2.993265521479195057e-02
-2.282769540975314055e-03
-2.735295208207444428e-02
4.701054202984524671e-02
-2.197187099622629688e-02
1.727269270433755277e-02
5.384579297418969762e-02
1.775822545295913926e-03
-2.863905497889672122e-02
-2.091320250192510097e-02
3.508631274678326428e-03
1.356659685842915436e-02
8.340657270812690260e-02
-8.963239981287293712e-02
8.880267696613477688e-03
7.716805184416279662e-02
-5.938877795908827778e-02
-2.504742393736970538e-02
-5.986979139907812331e-02
-5.006207869375377609e-03
4.540083280941956817e-02
6.173518976172727955e-03
2.556708308144617445e-03
-4.157463713771666035e-03
-5.268483297580345281e-02
-2.794540121200928678e-02
2.176544467493878032e-02
-1.920821826374629823e-02
-2.381180741280024618e-02
5.496683580321900381e-03
3.061065917102363809e-02
1.017290827641330862e-04
7.787151115730695829e-03
-6.053756383882579611e-02
4.114208026210294800e-02
2.447197635632167908e-03
5.900957092713429893e-03
5.788180944490319002e-02
7.898921111853436650e-02
-5.207760427655764440e-02
-2.927937133433528363e-02
-3.599324580955217540e-02
-2.651625574628397111e-02
-2.440311657344684110e-02
-7.508341057838920259e-03
7.503444646813472313e-03
-4.729621271615720192e-03
-9.327400327590706919e-02
2.637056346270009316e-02
1.089035470934175513e-02
-2.995192159659025577e-02
-5.533082456743208116e-02
2.863163147821377527e-02
4.699663695413947538e-03
-3.524638509475625826e-03
1.589298876418101733e-02
6.037287228157602742e-02
2.477892695505761692e-03
-2.482598821671260642e-02
-2.880976050627129248e-02
-6.089456772952675512e-02
-5.549063593528844041e-02
8.013654950160634116e-02
7.292904224855488449e-02
2.535257160891055822e-02
1.135052998127819845e-01
-5.116199673034565326e-02
-4.704607530304123070e-02
2.432422124476487767e-03
2.400192169007185627e-02
8.612442981307018297e-02
4.996668791167788171e-02
4.000178335146441222e-02
1.942473951311193825e-02
1.242646804616185374e-01
-5.555080704764388255e-02
-2.077513591668751769e-02
1.062618503369789497e-01
-1.434431508325212101e-01
-8.808544282013454352e-02
-9.909143628309044147e-03
-7.913865369161166008e-03
2.632611275048109267e-02
-2.130381403829374048e-02
-4.858617752800467593e-02
-7.511021820933053150e-02
1.446021268941521942e-01
-7.388004470946833713e-02
5.683083185025596118e-02
-2.592042847775773498e-02
1.747766253646832260e-02
4.413572436575054908e-02
3.089183945510765028e-02
5.133197536717800519e-02
-3.763973511518519527e-02
-8.637696742327094501e-02
1.498542139538538986e-02
-3.837218274275194102e-02
5.502427229102662548e-02
2.863566663567840113e-03
-5.602499451501263134e-02
8.451272504735693469e-03
-6.466212944796723150e-02
8.536243258412781754e-02
-2.101265557150671509e-02
3.964936597432750648e-02
1.039413539872507536e-01
2.160486292026058547e-02
-7.006117635829083035e-02
3.110903769260053159e-02
3.019099434918900288e-03
4.808010940113967291e-02
1.522779227669366353e-01
-1.545761774519011089e-01
-1.265255510412194480e-02
1.215546137115458142e-01
-1.048375975861252085e-01
-1.548301652507354763e-02
-9.277224681419056485e-02
-1.817450514033939341e-02
7.115926700516850278e-02
-1.509871447961699982e-02
1.807415693012420083e-02
-1.763973944854218406e-02
-9.317874308661791560e-02
-5.454257323399522295e-02
3.294252230386839064e-02
-7.109159341541998467e-02
-3.816787517013736641e-02
-2.408416057063708302e-02
1.048737395176941450e-02
-5.297851275684822836e-02
-2.436740147996250758e-02
-8.862854500085266818e-02
7.607468617722880355e-02
-6.566308648607896425e-03
2.059357533777594201e-02
7.460404412178296696e-02
1.562843024743554021e-01
-5.012025912122417687e-02
-2.435653593522632554e-02
9.644608402796229357e-03
-7.186243264589775581e-02
-7.216189141067941293e-02
1.545533509688766689e-02
3.560880437398597498e-02
5.727065581184054809e-03
-1.873301809527208039e-01
9.068011759612712441e-02
-2.017543662221511422e-02
-2.519512021898269102e-02
-7.442662952419318301e-02
-2.365051413231363583e-03
-1.184689526422965863e-02
1.131038206325769152e-02
3.720821471636486660e-02
1.328294790777448664e-01
9.568774043485326827e-03
-5.724185182860657556e-02
9.654048540330979755e-03
-7.164531465773346652e-02
-3.980693000689775746e-02
7.924775539447091732e-02
6.219389132065345632e-02
4.807130978125058463e-02
1.264697167364693120e-01
-5.981755833530243149e-02
-4.143887004345669228e-02
5.632256145317969878e-03
1.767178836231614661e-02
1.111047561206595230e-01
8.635838143341308115e-02
6.690886881291650823e-02
3.021920545657926990e-02
1.808467176685024380e-01
-7.192114586240988539e-02
-4.365776270323223213e-02
1.495812857068772872e-01
-1.658414611325000343e-01
-8.198649487180730000e-02
-5.084669128940469407e-03
-1.220363219431129000e-02
3.098205639495957286e-02
2.099840476355558684e-03
-5.150858890157792441e-02
-9.264383600381140282e-02
2.021696401779795593e-01
-7.632002441607031729e-02
1.033550880847336484e-01
-8.238783809755016729e-02
1.575958955457889069e-02
4.830848324911451996e-02
4.919555909990287745e-02
9.811657722012180616e-02
-1.823320433704124499e-02
-1.029466044798504898e-01
-1.599368545345847617e-02
-1.745076879282540447e-02
8.381443925638706882e-02
1.322217955313926760e-02
-8.533192936734312894e-02
2.930663688014340656e-02
-1.212267371471422300e-01
5.970010527922151727e-02
-4.318665932302456073e-02
2.787443586568824627e-02
1.112149447317442585e-01
3.616416222882879589e-02
-6.556526421618208422e-02
2.359135554316245734e-02
1.218646482045043300e-03
1.193840568070525521e-02
1.629640226586050733e-01
-1.722164340052212417e-01
2.088455414803095430e-03
1.554471749533739566e-01
-1.269822112126809954e-01
-4.866769120203858216e-04
-9.127142773316031243e-02
-4.429245608746569529e-02
6.038716831857278422e-02
-9.826326797277708941e-03
2.358007822848842000e-02
-3.414219633295689088e-02
-1.311263434946616235e-01
-6.160501086994058656e-02
5.783935770199795379e-02
-8.588178882258512559e-02
-6.590846428080883446e-02
-1.587043696768573181e-02
1.978270821844077196e-02
-8.550435215534046840e-02
-2.037400888431875959e-02
-8.258162464293986038e-02
1.173900440486684849e-01
-2.043976394343641201e-02
1.444731302098497920e-02
1.011560309708363220e-01
1.678550374203785500e-01
-7.503820282538774256e-02
-4.368907798991560759e-02
4.562373696300908027e-02
-9.134765078643712621e-02
-7.426286613359381339e-02
-2.736560352538340568e-02
3.533746748336474147e-02
1.153814376826338070e-02
-2.209709057940862920e-01
8.521269322813189440e-02
-2.389348132036934677e-03
-1.063886740923261631e-02
-6.499291762521669513e-02
-2.342756922712179932e-02
1.039839922527479405e-03
-1.691244576900145444e-02
3.490146586076011553e-02
1.516743325753474314e-01
4.292952297062886668e-02
-7.766887385471225869e-02
1.525254288758578353e-02
-1.170940576281510881e-02
-7.029171453391410210e-03
3.921268469829814612e-02
5.141736781603713224e-02
2.876884040317993080e-02
5.710273132987760819e-02
-2.585323733368491417e-02
-2.444750220672290558e-02
1.643230338507428029e-02
7.877284536774778727e-04
5.580715298660535867e-02
2.645404497141008032e-02
3.635207273402953077e-02
1.628370809786586562e-02
1.255047588466856878e-01
-2.473708765115741059e-02
-1.083235592489486393e-03
7.892500364980026273e-02
-9.250918998264034965e-02
-2.845908817084981043e-02
-1.546111493544918315e-02
4.044597850982236537e-03
-1.551221480674488040e-03
3.747577548089570023e-03
-9.605315362217295774e-03
-5.123948716006879178e-02
8.846872207147511713e-02
-4.847562233766413570e-02
5.719213273127866926e-02
-3.459706941967524707e-02
1.268435744902402830e-02
2.915944101158342294e-02
1.322993532622087146e-02
2.938380956767478944e-02
1.396550481342287084e-02
-5.520696348329411085e-02
-9.551032541747730975e-03
-2.302303754041334916e-02
5.310835942144857824e-02
8.706562002848050943e-03
-3.484774815013735177e-02
2.049335996783129346e-02
-4.278656006514336418e-02
2.549921810103555550e-02
-2.487611630741465296e-02
2.578822456097230008e-03
4.846393430262281588e-02
2.012245398193200988e-02
-1.362556946303892721e-02
1.814608642125955726e-02
-1.357471379531205967e-02
2.136418088781815230e-02
7.886715301473611051e-02
-8.700034290445755880e-02
2.491147641392902484e-02
7.429598170641037169e-02
-3.575520335744796635e-02
4.638019101910158433e-03
-2.786045159521217604e-02
-3.012506188912126084e-02
2.204002205118175614e-02
-1.420481716897330909e-03
8.101748339964243151e-03
-5.560051472468599716e-03
-6.656214981819104370e-02
-2.588229342778723685e-02
1.477839030907034112e-02
-4.666314229724612822e-02
-2.623034345275848667e-02
-3.405803056951064740e-03
1.235785925891464548e-02
-2.802890868443400768e-02
-2.359952024451697147e-02
-2.669911969688332568e-02
5.617247118775514636e-02
-2.079541135964934132e-02
2.374967023019428081e-02
4.069034601240289345e-02
6.993007662838839067e-02
-3.792714284272052927e-02
-3.725349795265094077e-02
3.456959991608339177e-03
-6.125067339920817894e-02
-3.723135449015572279e-02
-7.094633405056787953e-03
2.362432243863592587e-02
1.378183301479810399e-02
-8.781916647441283252e-02
4.634112487259822721e-02
-1.355519551512913805e-03
-6.736090078658506924e-03
-3.516023199659781828e-02
-1.974263305074999003e-02
-3.309598761861030393e-03
1.000115977779055497e-02
2.797083868366253266e-04
8.239129767389476167e-02
1.295957104086390256e-03
-4.367447264860913059e-02
1.664499955960143177e-02
-1.848807919106058156e-02
-2.677480448179158506e-02
-2.292477769976713261e-03
8.219392275019180016e-03
3.318468442180522865e-02
6.457558227626741809e-02
-2.594951598739190721e-02
-2.348896028851939211e-02
-9.921008877849106164e-03
1.971914296965394248e-02
3.334705737490888805e-02
3.786958455909308907e-02
1.533857556066898532e-02
-6.550668196722317198e-03
9.667168419766181131e-02
-1.616000091949285761e-02
-1.293895496237617085e-02
9.227861594246344890e-02
-7.671127509790476307e-02
1.317148949825094721e-02
1.979786776156070710e-02
6.159299641794542882e-03
-2.814007350773442290e-03
2.802425368259307912e-03
-1.023397415828654344e-02
-2.363068488862238303e-02
6.428142824984849069e-02
-2.071010838118607367e-02
1.011976463835648904e-01
-4.125061954289103994e-02
2.091195455633479763e-02
-2.178289106215351538e-03
5.102464646205687182e-02
3.223218357605792811e-02
2.303789638125292374e-02
-1.742088963135034890e-02
-6.261019578418865368e-03
-3.040932958746799929e-03
6.297043432984117395e-02
2.225778132903585838e-02
-3.914458888405578096e-02
3.232270554491696590e-02
-5.771818660472792517e-02
-1.738826377805373705e-02
-2.987262933480343621e-02
2.946334041048226035e-02
3.962449487520803421e-02
-8.195583229984803111e-03
-1.981914289762442064e-02
3.951533059852915114e-02
1.647174510566020572e-02
-9.870828167749246679e-03
4.380325663091054478e-02
-3.335665660807994592e-02
2.662762963945214043e-02
3.879148068149567558e-02
-2.564633718256157865e-02
2.766313353845682721e-02
1.668705822872906678e-03
-3.625319288972012749e-02
-2.151452966936638622e-02
-1.123585068039476172e-02
1.676898102108092398e-02
-2.178614906932719100e-02
-8.706005533841063015e-02
-2.145559105811942549e-02
2.745071676731139498e-02
-6.521432545579577966e-02
1.642705472944785061e-03
-6.311186786404314811e-03
1.844735723834948007e-02
-4.891389800463812054e-02
-4.816861192809928499e-02
-2.983275676485782832e-02
2.907204661163991649e-02
-1.547539157231180365e-02
6.989018876212600359e-03
7.129318103947228369e-03
4.245101722082137569e-02
6.388616848691422000e-04
-4.485717737681835064e-03
6.623880100696830087e-02
-7.639000860227379563e-02
-4.042607789900185683e-02
-1.548543929112185941e-02
3.018294530419961264e-02
8.002098839962331484e-03
-4.528570578415447995e-02
6.244503061012610101e-03
-9.110199059221946172e-03
2.000549946962932799e-02
4.543295163706921429e-03
-1.486014805456634981e-02
-8.814093741694249695e-03
1.497450813180156238e-03
1.494181804682797460e-02
6.106145288086969880e-02
-3.344720127713852759e-03
-4.013510788034279492e-02
1.487975615385383858e-02
4.812320578372530910e-02
9.489883667665231434e-03
-1.611817051987595242e-02
1.456490390500571937e-03
-3.068094693106648146e-02
-7.921190629779208126e-02
5.244026196734833528e-02
2.868395792611203726e-02
3.401910099870448460e-03
-1.228485959921899254e-02
-6.931905718200091771e-02
-5.639679470349595602e-02
-4.842533299712444700e-02
-1.048691245653104835e-02
-8.421454617019009936e-02
2.284692008594007770e-02
3.293439435407758548e-02
-8.983678052069243858e-02
4.671671453375755151e-02
-1.120940256882930509e-02
-2.256634905977488760e-03
-3.824436020263384528e-02
-6.036571226588222268e-03
-2.573875143263913007e-02
3.003952741734141479e-02
8.767173759027777763e-03
-6.387286122506147246e-02
3.045951541781043853e-02
-6.914550585356063483e-02
4.128901598168238651e-02
-4.513862364446884212e-02
-1.461881111940672474e-02
-3.887755882759950238e-02
-8.787759344347467749e-02
-2.331380566825764361e-02
2.460037094290315127e-02
2.763072016133420739e-02
-6.298830950507651807e-03
-5.538884212104192017e-02
-1.891633551183766887e-02
3.587727478990555136e-02
-1.346652855621137228e-02
5.146542052924277938e-02
5.162525542993557509e-03
9.800236161328499535e-03
-2.802472174021755982e-02
-1.472032003426536513e-02
1.566181988996402652e-02
3.884149383554984930e-02
-2.963923897030042512e-02
3.048261785826105255e-02
9.407095535693075702e-03
-2.765630261411950591e-02
9.231207251305521833e-02
-3.599473652557064890e-02
-2.379350343089947292e-02
1.436997246287910176e-03
-1.284317293047883973e-02
-2.329011021356231208e-03
3.401607229929030918e-02
-5.057324807522766731e-03
3.903067475813400133e-02
6.064886316303932066e-03
8.465767442683366437e-03
9.018233977425303693e-02
1.158495071107271991e-02
-2.127680711905751212e-02
4.731979455410921520e-02
3.564598255289114920e-02
-1.386005431789731103e-02
9.543697443981672898e-03
4.801391787070106998e-02
2.781630251132030662e-02
-1.108687565315950863e-02
-3.995420673199419348e-02
1.286304091236065324e-02
8.295277106923723553e-03
-1.018110680566202894e-02
-6.074190343998015634e-02
2.777980029199004011e-02
-1.772258439048880014e-03
-5.323565582415126785e-02
6.745232273355253327e-02
5.519638509276807159e-02
3.385557633909703351e-02
-2.679724545594402985e-02
-5.949745280982549935e-03
6.391624255294271750e-02
-1.897763938401809264e-02
-1.825607237253345019e-02
-1.561756653676311252e-02
1.162959797492424917e-02
7.189055436651376916e-04
2.844612686979778107e-02
2.210164885213666136e-02
-1.664714683472874601e-02
-7.529250723000704970e-02
1.561461182983349232e-02
5.569715303199371942e-02
-3.825485209551698906e-02
-2.592958571201887247e-02
-1.728981590311099228e-02
2.392897879249110404e-02
3.705943891622091174e-02
-4.202782698209082957e-03
5.330474093532728413e-02
-1.864603600091005453e-02
-1.409184210654409151e-02
-3.847607176728428616e-03
7.156868338743203883e-03
4.055649102582082471e-02
3.344680614276855646e-02
2.822222817361136685e-02
5.943935267950738004e-03
6.591115495831699478e-02
-2.577899273174533851e-02
-1.231811528968342756e-02
3.615177157717873457e-02
-4.449063279953564126e-02
-3.493285911351553391e-02
-5.734126253881320461e-03
-1.580045953444558088e-02
-4.000113141872730163e-03
-7.849724128572911630e-03
-1.692094808725822658e-02
-3.644233170591851950e-02
7.377428948899802941e-02
-2.786339429555849401e-02
8.856177893748946178e-03
-2.722906748018388140e-02
6.855027703882811060e-04
1.372972356839073822e-02
-5.667209468680847913e-03
2.597084399958528300e-02
-8.180769640825012040e-03
-3.362370625587038364e-02
-7.554327046847603058e-04
-1.166546107769898116e-02
1.586876471249226705e-02
3.815318331877895659e-03
-2.320430588834601279e-02
-4.394395171191720247e-03
-3.746655952105758941e-02
4.064603132750675696e-02
-5.673635975060539911e-03
1.559900426964970672e-03
1.490534784466947781e-02
1.552812472905538629e-02
-1.289261399603893257e-02
-6.986925423613798286e-03
1.426292007680914423e-02
1.188737533629130767e-02
3.857262731930190952e-02
-6.301575408890547347e-02
-9.597443197314904639e-03
5.492242494352071042e-02
-3.693560768669260780e-02
-1.579351041716526780e-02
-4.582795688356532116e-02
-5.634919894428503002e-03
2.417339689852394252e-02
-6.528349911669486562e-03
1.400995136629832639e-02
-1.089218493672306637e-02
-3.677817903924545523e-02
-1.140238912457488228e-02
6.372300873416371358e-03
-1.590021553480887306e-02
3.142050833951197560e-03
-2.982644558348644670e-03
2.651883137177572444e-02
-1.588142697243956000e-02
-6.712926607323249986e-03
-4.599551291334177255e-02
1.203732051792963387e-02
-1.196997217205259629e-03
1.914496191789643448e-02
1.972097184372839998e-02
5.939632123278221210e-02
-2.085676898478961566e-02
-1.572867575349742864e-02
6.231084922417063320e-03
-1.618045008504113633e-02
-2.717551185416194545e-02
1.144253880105654177e-03
1.047258943052530381e-02
-4.118946628785561011e-03
-5.435719494593256595e-02
3.846570801814419571e-02
1.202580043842827774e-02
-2.568699099015021360e-04
-2.089638499361886476e-02
6.872178419868036660e-03
-6.411654095285604198e-03
8.101461049663907441e-03
6.095055869021808771e-03
6.525887567391908117e-02
1.149111091903016156e-02
-2.099117014701806783e-02
5.595288098969230725e-03
-2.810867769660020925e-03
3.907049870097024057e-03
4.766246140377237289e-02
2.336998825822151141e-02
3.741965074494767000e-03
2.066468925510414612e-02
-8.513032221961777321e-03
-2.787878602775572048e-02
4.563833852500966300e-03
-2.600274842233316476e-04
2.758080776681327839e-02
-4.644272286437110646e-03
1.862438794407306891e-02
2.062740529782491200e-02
2.416901705180800417e-03
-9.812878662862258711e-03
-5.944430884513893232e-03
1.614661232944488713e-04
-4.550465252126342092e-02
-4.403181229033931859e-02
-7.473528113281331479e-03
-3.116305834952003834e-02
-3.419242795918007571e-03
-1.860829580834813882e-02
4.511421082237238554e-03
-3.556683129259599618e-02
2.355759491198601563e-02
-4.215181257045644281e-02
-4.712679980889226614e-03
-5.301804556368790687e-03
-1.585306846598041539e-02
1.772406597023312713e-02
-1.987992190463585412e-02
-2.199472488968490930e-02
-3.817935490504456575e-02
-2.418904187962870114e-02
3.373226030684804005e-02
-4.816223557438930746e-04
-6.392848462194441160e-03
-4.588729868943957312e-03
-5.756375114359306953e-03
-3.045175692000295919e-02
-1.424898688045775526e-02
6.402860037474857047e-02
8.986660227927550579e-03
3.357536492313209671e-03
1.320663952181280049e-02
1.336712968250719329e-02
-9.061828534949521383e-03
-1.216879973191835676e-02
1.601759429705219492e-02
2.633809553581073146e-02
4.940965027174196167e-02
-5.407772446040389619e-02
-1.953810546148395180e-02
4.147234171471299996e-02
-5.464461961106742427e-02
-7.923895664627864056e-04
-5.739528388708552142e-02
2.502907029220970223e-03
6.314591503019545415e-02
3.739394680221756750e-02
9.986026554839093350e-03
3.584301888863079301e-03
4.244140783533798152e-03
-1.686678458349782916e-02
-5.122857916364896048e-03
6.070738629398522886e-03
-1.641255277665054288e-02
-2.602201112287551386e-03
9.903240216303782831e-03
-1.821727944082153147e-03
1.940998434105142140e-02
-3.608312928064103670e-02
4.610514796713392760e-03
7.937354111832239196e-04
7.277243291225075385e-03
7.634682482553345473e-02
4.679591588700803689e-02
-2.006275298071839852e-02
-2.849987495704701598e-02
-3.672167663446277569e-02
8.211743639180493770e-03
-1.370539974996125114e-02
3.367349155839782782e-02
-2.810814817614969846e-02
-1.467128651772383816e-02
-5.459910375238277713e-02
4.748775939393179435e-02
-1.818259172697347589e-02
-3.297996183756465166e-02
-5.315374882967987408e-02
1.918070846891792650e-02
3.747733065997172625e-02
1.341291472650510061e-02
5.180504124302891950e-02
2.952359547528909597e-02
2.286642111011490119e-02
1.804016928554697669e-02
-1.986812357078865388e-02
-2.203769654225188820e-02
-2.677686175033780133e-02
3.828627599151187416e-02
2.028114567447640570e-02
4.656120630869999932e-04
1.987922234597222157e-02
-1.649115068875848730e-02
-1.872292295194932787e-02
-2.073647296216547808e-02
1.172662941482489722e-02
3.785282489465067318e-02
2.341187771196603928e-02
1.273489643964179595e-02
6.580238061439996292e-04
4.529742644707576010e-02
-2.555492616345209772e-02
-1.714996512378928750e-02
3.931263456190174643e-02
-5.689150039327924707e-02
-3.624852369695459597e-02
-1.073265867504486805e-02
1.016886991035561606e-03
1.416631300022718615e-02
-1.192770668602521900e-02
1.873425879901830177e-03
-3.159499467145312351e-02
6.216243674157844595e-02
-5.502280187337341144e-02
3.860384458193682339e-02
-2.282621765418006363e-02
-1.161900958189783679e-02
9.674679817177839550e-03
1.722480724782077255e-02
2.790714215428958395e-02
-1.713991952942345992e-02
-1.462812023625141566e-02
1.379631476029554403e-02
9.221902609246029198e-03
3.787110925549216911e-02
9.429999357797263712e-03
-1.374400421723771457e-02
2.245925005101883851e-02
-4.475033888483892497e-02
4.204720829704740315e-02
1.851783833071703926e-03
1.746174520986842199e-02
4.020588572014510698e-02
3.367620618527333159e-02
-1.395189659110963355e-02
2.374797268882622219e-04
2.050949918076372044e-02
9.969063050269226511e-03
4.213599235195689824e-02
-4.412459279814597013e-02
7.346000109493731021e-03
3.781553872232822772e-02
-4.233653472027402304e-02
-1.060712326440174484e-03
-3.081495820245661391e-02
-7.434701588376961025e-03
2.989517240850765589e-02
-3.860708552382733326e-03
5.765154143755953087e-03
-9.455576470322390667e-03
-3.407188706177290832e-02
-1.286007442920076432e-02
1.678177842934716266e-02
-3.048974982709186030e-02
6.784452910663665848e-03
-8.178613204509639634e-03
1.612146218645312684e-02
-2.731009548789893951e-02
8.786423824761840223e-03
-3.978017527129849851e-02
2.576595805424921129e-02
-1.360280800356409095e-02
1.687116064992578990e-02
3.450347461504658236e-02
4.323130255389126542e-02
-2.636495852625935638e-02
-2.400068135689422538e-02
4.130105722723231322e-03
-3.295899085785987392e-02
-3.995599488809883915e-02
-5.593102555295055567e-03
2.048419114930195850e-02
8.010169773331458909e-03
-6.132604850186978290e-02
2.943729646528472910e-02
-6.122383228242516372e-03
-2.219238554721371381e-02
-4.706304635021588134e-02
9.069345840290858954e-03
-2.868191877474180959e-03
-3.853675795832310624e-03
2.779230406695858135e-02
4.689543207286762938e-02
1.542754316971054959e-02
-1.179840097203835141e-02
-1.478420438114667955e-04
-7.119404862886624663e-02
-3.216300296080217697e-02
1.070766761374176007e-01
7.928561749415818927e-02
2.753292813939144101e-02
1.051289897224566700e-01
-4.730983367393656880e-02
-6.929811129422090710e-02
-9.839648398241715097e-03
1.919690091897710907e-02
9.612866760706388625e-02
3.473163317134420058e-02
7.939731303558437980e-02
5.991702430490875031e-02
1.374423032990975679e-01
-6.893063597501973561e-02
-2.717761645053868094e-02
9.138693133538544622e-02
-1.431062597519406066e-01
-9.147920829883451899e-02
-2.270133903017562335e-02
-2.304167506878680369e-02
3.121569165836880419e-02
-7.513325736552904123e-03
-3.591509966522404146e-02
-1.041851763967743122e-01
1.610644201072209403e-01
-9.124585460170397955e-02
3.435954875270113423e-02
-5.416120082070681463e-02
-2.632695301897144870e-03
4.506420013541630881e-02
1.454116096669176399e-02
4.274742465361950489e-02
-4.430743563271448415e-02
-9.752906540519863665e-02
2.142609142621516513e-02
-1.703351622842442376e-02
6.770725100351006331e-02
2.184859295788633103e-03
-5.681859412299210960e-02
-9.298612192464549009e-03
-7.394287363866186569e-02
1.125421647471340353e-01
-1.393673710480645284e-02
3.266509767946335074e-02
9.469282788751315350e-02
3.572600935367088726e-02
-3.855812298888700029e-02
8.523456619920813035e-03
2.647199088048525495e-02
2.771780172302034176e-02
1.406072029084750319e-01
-1.651168726301753820e-01
-2.424968362284698770e-03
1.306395407735973790e-01
-1.292528953068489694e-01
-6.765661606975835116e-03
-1.148464423504524101e-01
-2.413864607892196590e-02
7.977503448720227319e-02
8.024826810719552783e-03
2.761165506081169480e-02
-1.432199855970854065e-02
-8.635186333148509030e-02
-6.428571622426737520e-02
2.832920757234061795e-02
-6.112603094917382768e-02
-6.207244624355368751e-02
-1.511626120441170867e-02
2.672399731982048887e-02
-4.805549626043841005e-02
-7.117317910394118340e-03
-9.159968870945026098e-02
6.442539244814900201e-02
-3.163656615501685837e-02
1.771579900360755952e-02
1.165009198499984827e-01
1.592482067332511020e-01
-6.867604682461055099e-02
-4.380470707070252545e-02
-1.969697701893891040e-02
-6.704372944109687760e-02
-4.813684950441979304e-02
1.147360598522327406e-02
2.179170146947654457e-02
-6.305034950705540493e-03
-1.931916786210511328e-01
8.579817372157363953e-02
-8.785796685843283438e-03
-3.134221257836770913e-02
-9.600573162052865317e-02
6.855093503946276673e-03
-1.083529482659244259e-02
1.527063035985747313e-03
4.647065262730940005e-02
1.221342097238348051e-01
4.638141548576537460e-02
-4.187218067220553619e-02
1.923394493869022559e-02
-2.136792613696332846e-02
-9.025115173051576761e-03
5.215932707482633796e-02
2.736835835403061620e-02
4.852095768298085913e-04
5.224506311796847657e-02
-1.317134185409990152e-02
-1.796785559392729062e-02
6.815032572306953078e-03
5.426463480986493115e-03
2.838597032175190285e-02
2.153153100113832860e-02
9.212587019171186720e-03
2.292135652166806675e-02
6.814367718167839427e-02
-8.792795533644540834e-03
-2.251110203942177559e-03
6.828154021027073306e-02
-6.785351560150508499e-02
-3.738087950765216910e-02
-6.070335874434737780e-03
