3.357493606087978699e-02
1.407752382177222261e-01
-1.607354075423522433e-01
-1.823505704780272602e-02
-2.636048647674059386e-02
-1.648769063091753140e-01
1.692610896587139549e-02
1.365857101733542467e-01
-2.419474315135457798e-01
-4.430092865028879001e-01
-4.977099459362644557e-02
-8.719005172383216540e-02
-2.017381229965939035e-02
3.659442414529447962e-01
-1.174447485435672345e-01
1.614222533339770838e-01
1.700401033760071123e-01
2.489103495681974088e-01
9.707342149784010943e-02
-1.654242795651677048e-02
-6.349684231707954096e-02
1.960655454322872415e-01
2.084768158021171533e-02
1.353359998782380225e-02
1.405356742762540190e-01
2.130908148384764167e-01
1.078520612643551896e-01
1.877852915450225202e-01
-1.069991240370035818e-01
3.448646832920521099e-02
-5.804182650662071535e-02
1.054888770546534849e-01
1.673377099019339176e-01
7.776833967654046831e-02
1.631825839084692364e-01
2.242078057935580349e-01
-1.442249804291870219e-01
4.246982858273193329e-02
-1.732864191604516213e-01
1.596214693116182470e-01
2.317399502895668428e-01
-1.299300740706211266e-01
2.136715468022599429e-01
2.426742568526643606e-01
-1.105903924741717670e-01
-2.768696441020770949e-01
1.220063282070424637e-01
1.846675665267398514e-01
5.211638329635783634e-02
1.096716211102506389e-01
4.998403589617448489e-02
-2.768737735537128430e-01
-1.171147682138599412e-02
-3.185510037801572714e-02
-2.273851343998557761e-01
-2.405280093056091362e-01
9.122019116125545252e-03
1.182261889109168240e-01
-8.213032491597223317e-03
-2.559631703324333207e-02
-1.913434349686820024e-01
-1.788255295328303462e-01
3.659328571517280193e-01
-1.186410632554394107e-01
-2.991141456586428049e-01
2.076173070583767766e-01
-2.719412140567910030e-01
1.410688244372754543e-02
7.777135136112592328e-02
1.433381291914798961e-01
3.658390197369677521e-01
2.063077881019124149e-01
2.780530423313364863e-01
3.404968552584929364e-01
2.183743296148387969e-01
3.216148893546543208e-01
3.680084800152589875e-01
-1.780344939393078696e-01
-4.589750041590811430e-02
-1.597844859457765443e-01
7.974694972336285326e-02
-1.283603944914132045e-01
1.242280116252955473e-02
-1.879390625313605845e-01
2.083333487106956219e-02
-1.985574314496565129e-01
9.378431130423253714e-02
-6.634895594937353924e-02
-1.268103271717982983e-01
-2.860451238800015283e-01
4.653887707864114848e-02
-2.254559517589201090e-01
2.091507916426631475e-01
-3.167544829677935714e-01
-5.307293605367192912e-02
6.900669355668793969e-02
1.856098754736817957e-01
2.814134990358741623e-02
-4.636094298213988552e-02
-5.834434441775242924e-02
1.808810580903016593e-02
-9.915488036753385137e-02
-3.500505829670345903e-02
9.898293260059827514e-02
-1.034384507277406450e-03
-2.691967733957203318e-02
9.846673516747256327e-02
1.009183166948910415e-01
-7.910099231696445313e-03
-1.290998778077873943e-01
-4.196323535735701354e-02
4.705221748847272095e-02
-6.725432875590589771e-04
1.503392467689601553e-02
6.696405106276327734e-02
-9.897250753809869184e-02
1.694295378419811635e-02
1.342488691494988229e-01
6.729422338487482669e-02
7.105508903666514497e-02
1.093581288921973288e-01
6.953231367629730819e-02
2.508292796792652157e-02
-6.452350918462118612e-02
8.984547044072856148e-02
1.175323044396931610e-01
2.905625318096680468e-02
9.184632040875045922e-02
1.091988450426066154e-01
8.701017334074166720e-02
6.274778813159899438e-02
1.260222523061127753e-01
3.208388258025083456e-03
-9.660570283577175899e-02
4.007276737302117170e-02
1.583890121076003410e-01
-9.644179385533231674e-02
3.427403509043117774e-02
-1.504249157095199907e-01
-7.617384950621787498e-02
-4.771880050056082762e-02
-1.963294400449952862e-02
1.928370204756786957e-02
-3.278790901093338317e-02
1.382898299383865034e-02
3.942335813267971306e-02
-9.492530067416725739e-03
4.429149566137093735e-02
-3.595619481100138098e-02
4.300764621521154657e-02
7.415918151589495633e-02
-9.939681034148051264e-02
5.538207968680686905e-02
-1.666681296403228069e-02
-6.344681583154902771e-02
-1.334523891594991546e-02
-2.380766871265049475e-02
4.761574798497367894e-02
-8.832710167816062996e-02
-7.876291212857533530e-02
-3.465045537056583858e-02
-2.600679186618493066e-02
5.675659351880720654e-02
8.668431808248493187e-02
-1.490402567013916213e-01
1.052834878578272487e-01
-3.554045206284348751e-02
5.492360976773643516e-02
6.689425816105028233e-02
4.826392352706708987e-03
8.057809434194178333e-02
1.413872241443672219e-02
-2.114609851255529194e-02
1.346834097016221254e-01
-1.343095921704827618e-02
-9.939949053293314213e-03
5.435658365339033488e-02
-2.730005580510994762e-02
-1.470459355475652301e-03
-1.597647706535215359e-02
9.385358155819840953e-02
-6.762401271395065971e-02
-4.781426537239886337e-02
6.232373897279937236e-03
2.330370627725570493e-02
3.807460019241307864e-02
-1.962709541687966339e-02
-1.274456519817808997e-01
6.526622665289430469e-02
-6.811120069561796275e-02
-8.373423164042491373e-02
1.195726977084485450e-02
-2.854335534228563676e-03
-3.806656594428969170e-02
7.049801322940890680e-02
-2.713737137976750952e-02
5.168237940400893793e-02
-1.697150074742891047e-03
7.174460890135474223e-02
-1.935405436707894264e-02
5.095619292158556045e-03
-2.453497491254885091e-03
1.413255329828622987e-02
3.708230202923978869e-02
-1.797148570509952146e-03
1.099859368106278351e-02
1.786451672768550603e-02
3.462353622381950102e-02
-4.239662437288614638e-02
-4.336973591695972990e-02
-1.855296892847802664e-02
-1.362163105708999629e-02
-7.022521668971134015e-03
-2.950966047483210685e-03
2.938973736368039741e-02
-4.716028716897619627e-02
1.406409427647693951e-02
5.940677739911642136e-02
-3.573220856558889896e-04
-1.297331180828481881e-02
4.489479950382654211e-02
8.655189518058752085e-02
9.058170342719752688e-03
-2.585509940319297845e-02
2.273934127176333031e-02
3.629125314772557731e-02
-9.795933759276688121e-03
3.844215373775874273e-02
6.205793621449676167e-02
1.328771116849778756e-02
1.116526759388144011e-02
2.711366289909565228e-02
1.928322797521301452e-02
-5.644472063838312098e-02
1.816941949452293564e-02
9.298606874389880872e-02
-2.659584021071155838e-02
9.948206870038620378e-03
-6.528533227748234413e-02
-5.825695183947070775e-03
-4.585352663052077310e-02
-1.077331183948426578e-02
1.765861710107856364e-02
3.445515657671730566e-03
-8.288222122972708009e-03
1.943968511870386093e-02
1.595942235826881828e-02
5.255509981009183831e-03
-1.624696542281334546e-02
1.604107360866539184e-02
3.220960028004808684e-02
-4.596551390847816720e-02
2.389231637061247498e-02
-5.426798303974425530e-03
-2.833025653841518207e-02
-3.617116950304805761e-02
-2.251155553674190693e-02
3.564079321432266773e-02
-3.146054438750816445e-02
-2.521840964904381241e-02
-2.306503346533234425e-02
1.669372063535157560e-02
-1.108923171667450513e-04
1.759394504097638867e-02
-8.443260384121083206e-02
4.415817126963661465e-02
-3.465022121873546218e-02
3.425634246709306774e-02
2.872133759977316125e-02
-1.536023866443808790e-02
4.337483580490029272e-02
3.860129486710578428e-02
-2.383470125383652105e-02
3.259913080885457753e-02
-3.364041325277831811e-04
-4.231241958205109177e-03
3.330621500839121146e-02
-1.403098038390742860e-02
-7.403724031395471708e-03
-5.786657141633056584e-02
5.840463572199471737e-02
-2.562407884578108558e-02
-4.192642066106283538e-02
-1.880768785077380212e-02
2.899684088118118300e-02
1.495881353378767612e-04
1.299634969152777160e-02
-5.313831013606519493e-02
4.186108628082029631e-02
-1.688740446635886641e-02
1.217105855962199307e-02
7.650581086669595160e-03
3.760292022991319066e-02
-6.240777688407777440e-02
-4.226571841952885163e-03
-1.292135078752679883e-02
2.074011462496428218e-02
3.655649703527765609e-02
3.018443147767177134e-02
-1.460829054570842063e-02
1.785528778302950719e-03
1.406216534866614430e-02
-2.984541471035308258e-03
-7.325551195529056946e-03
3.701636675613513170e-04
-3.518694622943670941e-02
7.413155161214661894e-04
-8.984620076635661812e-03
7.115716571260103686e-03
-1.859025103892656024e-03
2.058364372737993622e-02
3.517584235642469653e-04
3.167398362868315345e-03
8.357623551218908847e-03
2.824901585437013859e-03
2.660780159396291915e-03
4.367661729826531787e-03
-8.265764269403258480e-03
2.217921320291455800e-06
2.515944872785698394e-02
-7.699418643482740590e-03
-9.028999965510911899e-03
4.277157370431374124e-03
1.115773766797480311e-02
1.556180013905213849e-02
-3.638198757035142079e-03
-2.202320692361308535e-02
-5.261029331400374556e-03
-1.181469472984155410e-02
2.051627320341740598e-02
-1.412605624638383836e-02
-7.480484240954076922e-03
-1.551926134947561979e-02
9.018319297475412694e-03
-2.632602229389482615e-03
-5.096034316923146734e-03
-7.701567345229910072e-03
-4.731478144493967905e-03
7.700959623683435902e-03
-1.493539508453591708e-02
-9.794144045210558674e-03
2.026252264938820970e-03
-7.684580717476042870e-03
-4.882977245887655873e-03
1.393813350694156350e-02
3.166159659325875567e-03
4.884301534397352939e-04
-2.422748894511981589e-03
-4.002223454578243168e-03
-3.140705638840651532e-03
-2.445528714826998573e-03
5.118012487403634722e-03
9.420034739000254093e-03
-1.003969819690183826e-02
-8.939626808632644347e-03
-1.296198327488300509e-02
-9.013034686124743455e-03
-2.649937568104478169e-02
-9.697715443320783493e-04
-3.409710142027549701e-03
-1.756243134854392624e-02
-1.090608457666649572e-02
3.728587262067819402e-02
1.405311622604036616e-02
7.889151891400533745e-03
-1.690209648927350553e-02
-1.890968815126708785e-03
-5.136779259130033574e-03
1.042852842177900696e-02
-8.604126203324326261e-03
-2.829638497990236059e-03
4.917218008274253788e-03
1.455080321240899942e-02
1.948642566612477159e-02
5.426264781085453348e-03
2.269680820927404824e-04
-7.378456171749125589e-03
-6.837986812607355427e-03
6.581302089540548399e-03
1.266561728742563071e-02
1.704078981684426647e-02
-9.732840609027411383e-03
-6.571760966851325839e-03
-1.369944387961701329e-02
3.834093839191016814e-03
4.875766539545666085e-03
-3.420779580039324825e-03
-5.860965336512483775e-03
-1.184524298237027776e-02
5.799248857681306088e-03
-8.094351260941360163e-03
3.594027816747998299e-03
-1.943622018940888846e-02
1.200157951856851805e-02
1.464576057788541039e-02
1.299619820178398409e-03
3.838829620342502393e-03
1.413697318792635042e-02
-3.897239785058929581e-03
-1.938854178376017007e-02
2.920129929062622101e-02
-3.337333956675266056e-02
8.275156795233022319e-03
-4.479122667256132256e-02
-2.439408486192411532e-02
-3.168418223710624954e-02
-8.617286512578091126e-03
-4.420935850737302969e-02
-4.079562646282430469e-04
-1.183900955833437109e-02
3.638324592780524391e-02
3.768760651459356764e-02
-1.276874022763283510e-02
1.719984430440059039e-02
-9.088595621471779948e-03
1.513607026293929203e-03
1.219693475911190310e-02
-4.981258471941208549e-02
6.049199655588099328e-03
6.033445227879984107e-02
-5.924006520764738513e-03
-1.104669266210268203e-01
1.173597279320196494e-02
2.285894274112538344e-02
8.383061718390006148e-03
-3.162311535668113627e-02
4.037637228029064551e-02
4.858352382489816539e-03
-2.228328416119836411e-02
7.223521252353492378e-03
-3.960791140413603278e-02
2.152982996009230720e-03
-6.299176759299067452e-02
4.029584286167349483e-02
-2.994556953054256995e-02
-8.444557324005928789e-02
-7.273918129048910497e-02
1.658757683905044342e-02
-9.247550241694005302e-03
-9.959712189792319786e-03
4.009089484921302821e-02
6.867544982377153315e-03
-9.605352752957549770e-03
-3.902242943241587478e-03
5.647528446548105013e-02
7.363185661675762314e-03
-1.668438806955909598e-02
-8.831066362691710261e-03
5.285440129805148851e-02
2.984095957099254862e-03
-1.877159997239579966e-03
-7.920930080974405854e-04
2.294964915923154193e-03
1.703987541509319496e-03
7.352514670028272546e-03
3.480666144497029935e-02
-1.584525575938395756e-02
-2.683518588582130271e-02
-1.518336454473012340e-02
5.300535171240995658e-02
1.130146569395276690e-02
-4.764369239469665868e-02
-1.362891539791690051e-03
3.305335459194384731e-03
5.298889668191813368e-02
1.385813915710871341e-02
2.513696982988270975e-02
-3.032018494453337862e-02
2.691456630201355393e-02
1.937203216500816769e-02
-2.875739181260649965e-02
-5.710788690618547742e-02
7.624354239785206301e-03
1.350722493970142775e-02
-2.908115928207047427e-03
-7.753377780712811772e-03
-3.789994876344168328e-03
1.348761157959647719e-03
8.326884762655856545e-03
4.211178176285202551e-02
-3.408202347208499211e-02
-2.147384927806252758e-02
2.572070466251316981e-02
1.733849055648576179e-02
-4.000561367695915777e-02
2.167677211570780832e-02
-4.338139700506658120e-02
5.243105852677455020e-02
-2.651096801651146861e-02
5.992526037685201590e-02
-5.945437095248104487e-02
-2.561273946422068081e-04
-4.887311391555999168e-02
5.953139928234669337e-02
4.580880664894471099e-02
2.238427800451857439e-03
-2.476723565916494341e-02
-4.407411416308266994e-02
-3.151833333229660250e-02
-1.086971003997581203e-02
8.267862522974836134e-03
-2.084636094055913533e-02
8.402406459924778451e-04
-5.798253135981655364e-03
8.807271590950170939e-03
-2.894695020423515282e-04
6.704987872508423943e-03
-2.200420493836156149e-02
-2.827495499435370846e-03
-1.180391714455749676e-02
-2.135031688344710132e-03
1.864806202719167250e-02
4.057892413195045137e-04
8.921682241384594828e-03
6.917809346547077083e-03
-1.181346379664087107e-02
-7.712030528059058213e-03
4.069012832134083317e-03
1.560667829695033641e-02
2.002243763638021645e-02
-9.680011996171444463e-03
-3.023743669121419040e-03
-6.068512546805780207e-03
-1.102335950927087194e-02
4.756333359746800667e-03
2.231367433946412817e-04
7.602657723994207979e-03
-5.885660630883645696e-03
9.317033425531745863e-03
1.298075704144802979e-02
2.040202692166443810e-04
6.528323312426994804e-03
-7.524548020155284386e-03
-1.097964652181349825e-03
-1.777646857303427641e-02
3.395993085353301178e-03
-1.397670812749771466e-02
3.611386086767639364e-03
-1.190449517460166577e-02
5.189149443801956661e-03
3.401192331473736410e-03
-2.534369766887284089e-02
-2.290545947902808931e-03
-1.264533711285238150e-02
-7.976557079631027905e-03
-4.220559855545028514e-03
-1.565655910398248279e-02
3.596751371950981761e-03
-6.906459790134824965e-03
9.702623172428224974e-03
-7.216359529482418295e-03
1.201745895249007462e-02
-6.073096396011680963e-03
4.919224635897733594e-03
-4.690299330296720734e-03
2.335982266073570804e-02
-1.150979575336717568e-02
-7.415897026300626894e-03
2.923711450873642086e-03
5.922711468946237519e-03
-4.100895007123077536e-04
5.785989474507192282e-03
8.551367803960874259e-03
-7.825135814463035633e-03
-7.913499946670368018e-03
-1.665286356140879831e-02
-8.380789514775082404e-04
-1.363613939044285364e-02
-1.081572327258725416e-02
5.663131612361185264e-03
-4.495876229116594724e-04
-1.295727603790426848e-02
-1.080229226872194206e-02
1.082989121775092094e-02
5.032015745500056578e-04
1.474242384617348474e-02
6.955977316246413512e-05
8.946986499038456914e-03
-6.088226575152752215e-03
7.183215031328080494e-03
1.401730951404335165e-02
9.605181551728162251e-03
2.414539262986113190e-03
1.623801961836140659e-02
-9.453187049122914118e-03
-1.012142896072823657e-02
7.483963414401056599e-03
4.568446573293680202e-03
5.362557648472289322e-03
1.153583222454488029e-02
-1.259026496281354796e-02
-1.136646974444543122e-02
-1.105169347759571950e-02
-1.103926397142583615e-02
2.414741388220379911e-02
1.064346077680767937e-03
-1.042572423619310060e-02
-1.593332486919858421e-03
-1.177208313805640748e-02
-9.641735430243514662e-03
3.317328491349341713e-02
-4.372460162461006689e-02
4.541945913513622743e-03
3.422542624554836266e-02
-1.983108612831573775e-02
-1.163634029367308781e-02
4.877218566176829556e-02
2.807801715266632428e-02
-2.819839771332974254e-02
-7.110757453129787353e-02
1.635072461125762792e-03
-4.553260585234148415e-03
-1.726444530536613148e-02
-1.320406907052008470e-03
4.437789118657457788e-02
-6.237816401978336228e-02
6.499532478847771036e-03
3.763694255451903448e-02
2.141385445833113993e-02
4.279085424680469096e-02
7.015459149518037119e-02
2.822281746675220360e-02
3.761441652386857126e-02
-2.902307679898529294e-02
2.978637214989366538e-02
3.005637351783259706e-02
6.024801992646716328e-03
3.274044091440306975e-02
8.771617713546826789e-02
4.000698721084729875e-02
-5.107807620018616325e-04
4.554931371209702123e-02
-2.846910745923728753e-02
-6.152875431630851211e-02
1.461302666953702076e-02
6.853816214504579452e-02
-8.539763379062061122e-02
4.844304160986791230e-02
-8.574836157040593987e-02
-4.219987867460159303e-02
-3.123554261379322267e-02
-5.310538035960783894e-03
-3.516029268459322423e-03
-7.636613383509758234e-03
1.104695876794387251e-02
1.895854377284965711e-02
-1.394658249831944204e-02
2.698037370730419632e-02
1.856778962429700766e-02
1.599781328229232195e-03
2.246830562664123981e-02
-1.834347720938042312e-02
3.657109340841541156e-02
-1.008234781660162158e-02
-1.434684612910131635e-02
-1.587727861317632036e-02
-3.631842542072267338e-02
5.580017045918129158e-03
-5.546687463471055429e-02
-3.391261671648402448e-02
-1.642792799328889747e-02
-1.385326799536997465e-02
1.496574784855217270e-02
3.950950345980254463e-02
-5.329585380055684718e-02
4.291943372338340168e-02
-1.372084204277615981e-02
4.114853137721913301e-02
4.710338898563278670e-02
7.838046307046372257e-03
2.533097007838758588e-02
-1.712740359569010773e-02
-1.709144961124164572e-02
3.761284414048027963e-02
-7.598638633234226780e-03
2.533706929771384602e-03
2.667848611819456997e-02
-3.196426054593761584e-02
-3.949109117965696365e-03
-2.032470039495372013e-02
6.431910320167545658e-02
-3.104259950333717114e-02
-2.217076973678657956e-02
1.270822363698505438e-02
-9.835976273441482745e-03
2.886015736859477709e-02
-2.572214215857846972e-03
-1.332327567315877773e-02
4.028849078709460796e-02
1.010815551224193004e-02
-6.342375232837001164e-02
-1.485314205978081599e-04
-6.439803560773111994e-03
-5.962304842014945483e-03
4.540447243263413118e-02
1.466939115166329514e-02
7.450114119337280377e-03
-8.968582132010314797e-05
1.841283689619981762e-02
-3.168705252920726856e-02
3.723930041446093381e-03
8.816015624672489046e-03
-6.322139985056986558e-03
8.646178223187346232e-03
7.831507374614990209e-04
1.273841448080355494e-02
9.400409009258267959e-03
4.613974305408212462e-03
3.773008378147920533e-03
3.299065347124708432e-04
1.489988188895653362e-02
3.587708338317959801e-03
-6.326588489236410241e-03
-5.937999392867593720e-03
5.288107501372343172e-03
1.677215204127975937e-03
-6.576322609044510034e-03
-6.089195259824730462e-04
-1.568294453195044017e-03
1.035173744267019712e-02
-8.531306768649091210e-03
-2.459097101736262576e-03
-6.126102905711146296e-03
-1.333151875663212034e-02
1.503385864799859205e-03
4.311396456385840036e-03
-1.317857762129048295e-02
-1.099042853495653220e-02
-6.879352838509805897e-03
1.072710959552001728e-02
3.269655845150591655e-03
-3.998311410890367898e-04
-6.455235191434415334e-03
3.819804329690200048e-03
-1.086176797482753947e-02
-7.771072619086561058e-03
-2.890403902027739984e-03
-2.540967959688494784e-03
3.943837818363714852e-03
3.563445172674463424e-03
-9.778377098476632653e-03
-5.783938359659584853e-03
2.241228668968757096e-02
-8.567028844964463818e-03
-1.330742649609091381e-02
5.967178448209765375e-03
8.935160098786257103e-04
-5.138297279452789905e-03
-1.718747395967665237e-02
9.446730139527291167e-03
-4.143000488809936953e-03
-3.041454751888304081e-03
-8.151888617693018625e-04
2.006966612215045371e-03
1.923099903315060935e-02
-1.346655399720901071e-02
7.066447027876930805e-03
-2.135026593148398044e-02
-9.839778290116781272e-04
-1.775170651804464366e-04
3.428197981874203919e-03
-1.441779132940669735e-02
-1.556987036209124694e-04
1.086644303674747826e-02
-5.596610178103463527e-03
1.639688543785998431e-02
-1.051841107801934801e-02
-4.641054974211693447e-03
-4.828298882868779784e-03
-1.213807675975774221e-02
7.680724312494245859e-04
-1.046955022104997454e-02
-3.418663016559108422e-03
5.432145213245997452e-03
-7.039614239604541530e-03
-5.040389550628535976e-03
-1.517370772263858074e-02
-3.133552990999661624e-03
-1.189367214962761161e-02
5.774879739610890017e-03
-3.025457259634890470e-03
-9.141151496067057361e-03
1.264316576245825413e-02
1.096602454112639759e-03
-7.280923271481040682e-03
-2.573921301514618329e-02
-8.198602910846980452e-03
-3.191159742243642686e-03
-5.617124792620349812e-03
2.319174066761274869e-02
8.006775511971743475e-03
3.672939158945517403e-03
-1.275961998710554123e-02
-1.338621949142141873e-02
-2.143090220928707892e-03
-1.479096236718400667e-02
-2.655037301595302400e-03
-1.984680894334982237e-02
7.761209681215322682e-03
-3.099306247855573154e-02
2.555146136168233786e-02
-3.250924757951731414e-02
7.911565759520936339e-03
4.450398183846482336e-02
-1.965455460656961167e-02
-2.068463823670026874e-02
2.678863009816105992e-02
-1.479196720067161609e-02
-1.843451741425377807e-02
-6.937384622680205226e-02
5.813573032080218521e-03
1.433191982819500762e-02
-2.557421948383469673e-02
1.970957096068068348e-02
3.636380483883395326e-02
-1.176719078171421101e-02
8.853724040718706501e-03
3.430201589753204688e-02
2.757550009397800525e-02
4.393046413274541429e-02
2.945407105807369350e-02
-3.414725056865069303e-02
-1.100675779627467883e-02
-9.621544874161985089e-03
5.763094718469995853e-02
3.463847991097952772e-03
4.014978901779075321e-02
4.237102968828242167e-02
1.190177234111190231e-02
4.300202325093255284e-02
1.174766552761396382e-02
2.988719595985040584e-02
-2.779305896955652430e-02
-1.001830536823910232e-02
3.650361159511963504e-03
4.288404727920077514e-02
-4.500277823381904074e-02
2.746457970230714932e-02
-3.201364052198616555e-02
-6.230393070919043076e-03
1.340594457953050815e-02
-5.262680746487477350e-03
6.591947345281396267e-03
-4.942451440482599663e-03
3.840101359400555081e-02
1.151274410208898841e-02
-1.905576498142528760e-02
1.586771365012605225e-02
1.662270648937909726e-02
-4.452180958574653707e-03
2.601421842549668864e-02
-3.039400800416938025e-02
2.738830836113407760e-02
8.468127827949431877e-03
-2.239849993953700255e-02
-2.152133831282524237e-03
-8.890060816066748875e-03
2.212315449966788077e-03
7.420637453934651045e-03
1.306940465884748673e-02
7.213560411100809582e-03
-4.044058761399685342e-02
3.916530436011361055e-02
2.393033205851354678e-02
-1.650187668731181029e-02
3.945549105066494672e-02
-1.844644277624069365e-02
4.093251075221980562e-03
2.468141408089943173e-02
1.672912515751596996e-02
1.128682543617976972e-02
-3.106154495584941694e-02
-5.683419818889687714e-04
8.063474715981781837e-02
-6.830436734438070749e-03
4.592845980335199391e-02
3.179610062553454852e-02
1.544340973558189570e-02
1.531433651614863035e-02
1.977939759257529156e-02
1.249076598290093341e-02
-5.149661977191193063e-02
8.563245666615565410e-03
5.216372173522140603e-03
-3.994675848077867270e-02
7.114471604747434237e-03
-1.966081789233688551e-02
-2.809404456767075620e-02
-3.018564353427312212e-03
1.476036236264815366e-02
-2.973746557230752541e-02
3.744226345588695052e-03
9.840382429598117878e-04
-5.763844118061208985e-03
5.882037629470996537e-02
-4.792336927175590115e-03
-1.403076936462393023e-02
-2.993679431456993181e-02
-1.978876683508963563e-02
-3.074514704313374008e-02
-9.055565399645769398e-03
-2.599979924995882499e-03
1.664955919842836258e-04
7.891504538273249464e-03
5.347752382468650388e-03
-9.264291993297479877e-03
7.682910481095109323e-03
1.759340703269258663e-02
4.818892221408519957e-03
-8.808018570161470912e-03
1.689467513187898695e-03
8.519692053717300290e-03
1.472830195715802782e-03
4.017506556302760483e-03
-5.624203473182996620e-03
6.848706396640554146e-04
-4.042400422180698200e-03
-2.230225187249101817e-03
-1.001531101161508286e-02
2.777237740634606530e-02
-5.541976153619189091e-03
-3.916295645254863622e-03
4.846635251171451005e-03
4.083666772944175363e-03
-6.751385112020197310e-03
2.091264608800507893e-02
-6.214638104002490190e-04
-1.116097562885224465e-02
-1.318210994844722875e-03
2.840903309461257492e-03
6.242531198100145610e-03
1.146931994982147533e-02
4.017421770410153394e-03
2.552643230197221801e-03
2.660396318232192536e-03
-1.894490929771831117e-02
1.832932197995688905e-02
-7.949602792672462448e-03
-1.770949594234648081e-02
9.375629675268604612e-04
-5.004354499917701773e-03
-1.844580201438173177e-03
-1.119166667277184460e-02
-8.760612399473580170e-03
-2.352165174612417219e-03
-2.771533099599049997e-03
7.475801990652727186e-03
-1.026816862804769137e-02
1.457570612322944999e-03
2.630841589667253476e-03
1.176644512716116045e-02
1.765144875007333344e-02
-8.180621033293053110e-03
-6.276392081729540232e-03
4.196499398645443281e-03
1.019595760259709057e-02
-4.393858471584732688e-03
-2.077724195385924864e-03
8.148568838740054970e-03
3.673835705942726012e-03
-7.679547805872374150e-03
-1.784380750455112630e-02
-2.803988947768675053e-03
5.608531656345369480e-03
1.513049718407002801e-02
7.669455954377457640e-03
-1.101798064429977513e-02
-7.434041276512350083e-03
2.402349148581183966e-02
-8.775274938539842640e-03
-1.011921608175112355e-02
7.419298295648526879e-03
2.808482964388387890e-02
-4.566547418132052864e-04
8.339576752983902247e-03
-5.017556957551895687e-03
-3.550906700591817573e-03
2.153945659459883394e-02
-2.024598986207754719e-02
6.650212197392676820e-03
1.224388057193813960e-02
1.750833404564865583e-03
2.223579368103580089e-02
-4.040652753976242163e-03
-5.079948279214861230e-03
-6.573396740136840284e-03
9.537870025870852711e-03
-1.883637172833349874e-02
-1.418105920714213958e-02
-6.734191424308894926e-03
1.447516079378811070e-02
1.114855462167940389e-02
-4.635036268073235849e-03
-4.158417449248108522e-03
7.569153844118227913e-03
-3.855723545980621527e-03
2.389047226637608899e-03
1.067111480218316949e-02
7.144880250711077921e-03
1.453709930017237995e-03
2.738263024833128764e-02
-1.142449863872655423e-02
3.288069701378634052e-02
3.253718111497642951e-02
-1.713117165707721268e-02
-9.920467813566594822e-03
1.735179917821849313e-02
-2.587591622753928483e-02
-6.228799257633360967e-03
-1.390741440634746251e-02
1.197796517945766935e-02
7.205230620525355893e-03
-2.825156774115724495e-02
4.865409711581110560e-04
2.254253072005184266e-02
-1.430093817076168693e-02
-5.790842464295814940e-04
2.353896586200775274e-03
-4.474733245770650195e-03
1.979993432604036652e-02
2.365383159860790993e-02
-1.970228906180569034e-02
1.787994489684512078e-02
1.140440919269543243e-03
3.349613847256082549e-02
3.154223057806527196e-03
1.924076221008717488e-02
-2.190434435639075812e-03
1.799705870352629605e-02
1.069116865690644159e-02
-6.272068041953269201e-04
7.697624966353551999e-03
-1.705313888964095706e-02
-1.024971477193614222e-03
2.645031075717134330e-03
-3.480087564476845672e-03
-3.647933658036998233e-02
2.290915853263578855e-02
-1.865486890052839297e-02
-1.517281477573440875e-02
-6.505271538658027224e-04
-9.067235051820504363e-03
4.430428772008655064e-03
-6.259680710967970366e-03
1.513992062344094586e-02
1.791103801795614417e-02
-3.717341832989724815e-02
-1.952240985373005638e-02
1.228379130138411044e-03
-6.012935593626990947e-03
2.780163578266556918e-04
9.154657252925108013e-03
1.666615038371638616e-02
1.163581641853923473e-02
2.338772434935817643e-03
-2.631074746764195359e-03
-9.890590550351458302e-03
5.625971878632064251e-03
-2.778037972662817170e-03
1.780155333043743557e-02
5.943023179270677699e-03
-4.594714663641510412e-03
-7.846767571927258308e-04
-5.884869554169213160e-03
1.016240863083590386e-02
2.453298099397942938e-02
-8.514057999088898640e-03
5.187805610690765512e-03
1.631065204502427785e-02
1.440656499036224031e-02
-2.292154715340944272e-03
-4.787036597385738862e-02
-1.568500878912926916e-02
2.215735933342850850e-02
-6.498773003830661706e-03
9.873813821465468946e-03
8.678026591218711283e-03
-2.478567744854164034e-02
-1.501036471542294875e-03
2.890907678577609753e-03
-6.134498734114682186e-04
-2.790252378250445559e-02
1.491456953593668297e-02
-1.634501798534850059e-02
-3.074652062040494557e-02
-5.869729850311714014e-03
-1.887453741790909648e-02
-7.756672578820427398e-03
-3.448695940563410896e-03
3.151723993243456950e-02
-2.686654871725444732e-02
-2.468447755175220775e-04
-1.773220895919732157e-02
1.020204673386777144e-02
4.513956596598378557e-02
-4.322909419699483280e-03
1.466949476325202098e-03
-2.293100355388464837e-02
-1.203931774262334727e-02
-1.065780199002368776e-02
3.247195097800849306e-02
-5.380328120185797272e-03
4.437206121242864149e-02
3.058127454984702759e-02
-2.935447184679298299e-02
-5.760634514160262697e-03
2.983898258523272687e-02
4.779312382461755812e-03
-1.912999221834608618e-02
-4.397743717277694669e-02
9.165716056742028578e-03
1.445615509531771210e-02
-2.266617517675516280e-02
-2.089874451210487968e-02
3.657230866240805678e-02
-2.853402969985017329e-02
4.021738586398682612e-03
1.216672325535778955e-02
-6.924260143319204384e-03
3.469298706242893160e-02
2.698597538016739295e-02
-3.899872389732893241e-02
7.975652439832413287e-03
-2.076414833418196992e-02
1.236230433596510747e-02
8.381146904084655139e-03
7.839194070229970127e-03
6.874581230953549955e-03
4.259447330995911468e-02
3.839220562995075692e-02
4.169474407501838099e-03
2.031430939241655326e-02
-3.089637838757539751e-02
-2.047096171228295070e-02
2.410799240623828082e-03
5.083201041108051724e-03
-5.676630874773438973e-02
2.248577210644397972e-02
-2.812780996539192974e-02
-1.329779553867729489e-02
1.400672044055501983e-02
1.079330408864571239e-02
1.111945545819747333e-02
-1.116729177612394222e-02
-5.099405934992178296e-04
2.807945554177903799e-02
-2.834874748972952482e-02
1.838109284235351151e-02
8.881619979440358347e-04
-3.579525983387987775e-02
4.507455528559170879e-03
-8.130969935337666737e-03
1.521124905394821529e-02
-2.833727158751448913e-03
-1.285151161999475121e-02
-2.148907501002432279e-04
-3.454554111905011604e-02
-1.267877474471000056e-02
-8.767012800187885813e-03
6.507460599431574323e-03
2.041450205324492340e-02
-2.730163130576108380e-03
-7.736110022008184373e-03
6.403721993480855114e-03
6.813757148646655895e-03
1.416550305092118163e-02
-7.623280380133234425e-03
1.615634034336015101e-02
2.834524266694239680e-02
2.178732040136411446e-02
-2.798184801124899493e-02
-1.822155036231708908e-02
-1.304871294272215432e-02
2.707466171421356316e-02
-9.628636306951777243e-04
-3.096786974548034637e-04
2.372241686559829754e-02
-3.806997464735074194e-02
1.253640311736803868e-02
5.325757659297649001e-03
2.629086023223099755e-02
-1.694023468980702593e-02
1.056918779205731629e-02
-6.614819589724520166e-03
4.987353137391579809e-03
8.379252423994350274e-03
-4.270484067486918223e-02
1.380699078473883977e-02
1.314114688331594581e-02
3.861258669161558854e-02
-4.809441043680794808e-02
1.014721075449481411e-03
-2.643611167352763469e-02
1.782060245558374657e-03
3.722893143746121986e-02
1.169293930911579141e-02
-6.403951942419010843e-04
7.037486863602789890e-03
1.981201616252143555e-02
-1.707016838300827455e-02
1.530119742611039772e-02
-1.822482313450972911e-03
4.018912423514865023e-02
3.154814693310305923e-02
-2.616420589133019309e-02
-1.605773866137151160e-02
7.304389711760811421e-03
-1.617352019514185432e-02
-2.110805166330408794e-02
-2.499126129606470126e-02
7.404339780009729782e-03
2.931000135036578285e-03
-3.615292288940657323e-02
-5.582267061590223504e-03
2.053682414371340095e-02
-3.770598013260501730e-02
4.684459933095793966e-04
-2.392576567528322332e-02
-2.982016586162957675e-03
2.472989262058756035e-02
2.537929445475358564e-02
6.757408821550514588e-03
-4.444490579841526949e-03
-2.060704827652407381e-02
2.864720762594929679e-02
2.230950682672427909e-03
1.308370478624732401e-02
8.263019533019182530e-03
5.095315401317911108e-02
1.507588439478583196e-02
-1.692952571679809046e-02
1.695279582401890486e-02
-2.975390766595802788e-02
-1.423721184539178050e-02
-1.384826793205651101e-02
9.271693702154425870e-03
-4.952447222538441940e-02
2.840284429381503134e-02
-2.787762398880924003e-02
6.435991866855315241e-03
9.259629682730892777e-03
-2.257724093378007946e-02
2.824701407019163113e-02
1.628292562938899943e-02
1.667451547049422778e-02
1.899095084538813052e-02
-1.725112230025117876e-02
-2.579633621388341402e-03
1.946760972022280184e-02
-3.096155844011406512e-03
1.150611843844972365e-02
-1.289376695488679027e-04
1.985119196478312906e-02
5.585905223176770851e-03
-1.542293815672799405e-02
-1.277064055939792359e-02
-6.716836877159402738e-03
-4.026334397456336409e-03
-1.186869686583820704e-04
2.549486209613328891e-02
-6.330680420243131948e-03
-2.398229775152868615e-02
2.070167979441000020e-02
1.975790229457718636e-02
2.827270668066537746e-04
2.193108890694065935e-02
1.423453312795824703e-02
3.837569981970697774e-03
3.733492537864707000e-02
9.762203624440184135e-03
-8.166826185433174318e-03
-1.569945249165343934e-02
1.842566014477101458e-02
2.697755200689650260e-02
1.994111659254347441e-02
8.489184088019081920e-03
1.350847685284023089e-02
-1.532941294452250074e-02
8.525125448652789983e-03
2.457863762261264240e-02
2.787584064993320343e-02
-1.405547974376403046e-02
-6.516949882532462220e-03
-2.594047485061938899e-02
-4.379823595839655442e-02
8.958534561228590279e-03
-3.183511412240558336e-02
5.500817811085926580e-03
1.087284463807432384e-02
2.610504231634773464e-02
-8.787002510014385245e-03
5.725873819014338367e-03
-1.146108202545296356e-02
-6.798376698009572956e-03
3.828899814240462052e-02
1.364368499698156642e-02
-1.753498905666446821e-03
1.921495783097207366e-03
1.200422345149592751e-03
-2.948566925610662456e-02
5.205195705574081760e-02
-1.828881008122690277e-02
3.339583096707249288e-02
1.754749726259121137e-02
1.298269417906826144e-02
-2.259141891012269112e-04
2.242489243186350512e-02
-2.235733714868485753e-02
-3.578792837312188418e-02
-2.401740533654809009e-02
1.810884181972131565e-02
1.216705548900168937e-02
-1.537071793232676863e-02
5.510378572231259577e-03
1.359494416962025130e-02
-2.982815094731170943e-02
1.128439968700210676e-02
-2.360149647416319441e-02
1.466998743094386978e-02
2.973595112287155326e-02
2.570377383919930994e-02
-3.599065400419613342e-02
1.526633371841623968e-02
-5.687912893448808689e-03
5.688277848664891230e-03
-1.853984282621192956e-02
2.337065028379197926e-02
-1.548792006070022140e-02
3.027029853507743132e-02
2.905864954926707169e-02
-4.404145824738785880e-02
1.629041932153895561e-02
-1.573138481481125422e-02
-6.256206332690788380e-03
8.946152732310917385e-03
7.162312650526096421e-04
-5.352008118143930515e-02
4.100037339244088502e-02
-2.928448402923869778e-02
-7.829878554103730098e-03
6.221571901544269319e-03
-1.500124022463799472e-02
2.199468948902317741e-02
9.540168539835258005e-03
1.153585614794855850e-02
2.415690982659915789e-02
-1.341349051365877884e-02
1.339330621720034344e-02
2.126364160995676891e-02
-4.750732010554489272e-03
-5.534705476642504118e-03
6.742789002191633060e-03
2.569371058734404301e-02
-9.071947267620431368e-03
3.765609623856743665e-03
1.138878408756293856e-02
-1.205515093823906862e-02
-3.016831301246135008e-02
2.270094131375800274e-03
2.832374517960491861e-02
1.887593724119271052e-02
-2.822714068321131517e-02
1.025989691278365217e-03
1.687641399773264633e-02
2.009190093544461694e-02
2.521091425195229677e-02
-3.246336609429678003e-03
7.500737080824617341e-03
1.699211599937261799e-02
7.881913961464075830e-03
-1.053339919144152641e-02
-1.936604277317871114e-03
2.870289308995310068e-03
1.443556231803799945e-02
1.940537170738402140e-03
1.301345844047555392e-02
1.359778647010807806e-02
-1.520921502626671439e-02
-2.136709803450325025e-03
2.114521971626683386e-02
7.390972663461098553e-03
-1.217782658640456823e-02
4.246473591478855218e-03
6.963913344458590084e-04
-2.281639369860075789e-02
-5.547374460693363547e-03
-8.279012851484149338e-03
2.239603241998658345e-02
-2.634915497829261148e-03
4.508477562522219401e-02
-4.939457829020213464e-02
-2.093636338547174083e-02
-1.951874755636670913e-02
3.522730622748291261e-03
2.420422521105259489e-02
-4.276078064681927346e-03
-1.327029466716866946e-02
6.687065842641893611e-03
-2.018378790875627934e-03
-1.224649610512455050e-02
1.132806643338761347e-02
-1.747175862861212112e-02
2.151052600288103425e-02
1.403977857152316315e-02
-1.605725058799280930e-02
8.766551502133833676e-03
3.037767125932918158e-02
4.319398568969626956e-03
-1.689353868901815117e-02
-1.574293751949963627e-02
-8.444551280540540245e-03
1.917151550338760599e-02
-3.542487382900721959e-02
-8.962499505994012822e-03
7.088268743495547246e-03
-2.089282344797291704e-02
2.450065366061874444e-02
-1.176190404842997368e-02
7.874049061120385815e-03
2.094595602182755534e-02
1.155958040591425866e-02
-7.141861863243656678e-04
1.259121316712885456e-02
-1.525291970906101843e-02
7.482375883900225025e-03
-7.833453780855703652e-03
-9.724357630374382347e-03
8.934478011489579291e-03
4.288836419466970223e-02
2.752054666967002419e-02
-1.490581162664727892e-02
1.266487048039201431e-02
-3.726681251272791207e-02
-1.492005762833921272e-02
2.231102894270957631e-03
2.225538267779236454e-02
-4.106207231461377061e-02
1.670909857199631005e-02
-1.081256797476734532e-02
-1.365086367430193293e-02
-1.343870336157021970e-03
9.339213541770011520e-03
6.609974350636508775e-03
4.891551437810533545e-03
7.324137043731855472e-03
1.570839786465861448e-02
-4.258722976623029351e-03
1.678934309290321808e-02
2.067348647961139707e-03
-3.881482215507419536e-03
1.200472093049716757e-03
-4.443973503112105296e-03
1.035129881786220687e-02
-1.032177012413492030e-02
-1.758000679005962755e-02
-8.713020947948948210e-04
-1.023869577136752966e-02
-1.519673854516990531e-02
-1.720676832128397241e-02
-8.859476179245212232e-03
9.385870259522179071e-03
5.710223005878613083e-03
-8.532049293501134737e-03
-1.055256083070296898e-02
-6.240607407751646261e-03
1.235106979026196795e-02
1.643128242810639860e-03
1.174962626633487342e-02
1.916795171365684100e-02
-4.228683442792596434e-03
-8.653175735432984406e-03
-4.003742618781418183e-02
-1.146370567978959899e-02
9.520093705993463214e-04
-1.911547512684563452e-02
-2.405213682323395497e-03
1.781929555605798327e-02
-2.998741193969291230e-02
-8.569492413129207661e-03
3.506517448768837531e-04
1.351945974733991147e-02
1.001229156557980823e-02
-5.295204583348100263e-03
-1.325481025034096899e-02
-2.378086955042985756e-02
2.811098616228160235e-02
3.448129551352012521e-03
-1.913611840210027542e-04
5.012492422319958854e-03
1.103985079415608500e-02
3.931335619357026597e-05
4.738581048971539887e-03
-1.294112259969480705e-02
5.752782095911776472e-03
2.388844093094831880e-02
-9.372197354161110674e-03
2.731321079010977371e-02
1.057854852298723176e-02
-1.250950299572108418e-02
-1.627462838716462953e-02
2.776794886605275445e-02
-1.276037477671613206e-02
1.977888536160684121e-02
2.392044569095323411e-02
-2.668369014772392633e-02
-3.198919193060933280e-02
1.129598811590089985e-02
-3.256677331071532872e-02
-5.263294751513221403e-03
-2.687266000866429111e-02
1.177225102979836437e-02
1.457356468588364914e-02
-3.086684708978409616e-02
-1.036746557572045674e-02
1.357733507590996869e-02
-1.665024621341325631e-02
-4.263740598014179213e-03
-1.531331424523489290e-02
4.236173037747370529e-03
4.285659576936806658e-02
8.076744144510292905e-03
-5.135238253865607311e-02
-3.607005478919757951e-03
9.986336834236065815e-03
-8.611253371515054100e-04
-1.628957942526931477e-02
9.386420577161630474e-03
-1.250624245898448615e-03
1.694236951490834045e-02
5.761596707346181533e-04
-1.342193478840637139e-02
1.627782024940379116e-02
-6.871495509159532278e-03
-1.140869091008220489e-02
1.162366905869677280e-02
3.902548974242979951e-04
-5.593903575906999243e-02
1.384631897775498097e-02
-2.055267049143577260e-02
5.516700465649311894e-03
-2.496565971316917158e-03
-2.738178463207972813e-04
2.273132949747540786e-03
8.062081066605639862e-03
2.092746699039205877e-02
2.173478239967373618e-02
-2.344589273898806114e-02
2.783629978471873628e-02
2.505568673315255318e-02
-1.576358828465149534e-02
3.771631258425273917e-03
-4.343937123226994552e-03
1.032036931124393798e-02
1.462105922724379892e-02
1.665087169299463328e-03
3.426019770591494894e-03
-2.122786633221048283e-02
-3.147743703344187127e-02
-9.190090056997543555e-03
3.908361246193342575e-03
9.796007285968157813e-03
-3.160764193759311308e-02
-1.367548971829192495e-02
-1.115568850047028888e-02
2.244785047696960453e-02
1.383563454598033850e-02
8.737156350177714345e-03
1.061321219851788736e-03
2.366654671263125620e-02
1.020578633821922140e-02
8.790923702285544572e-04
-3.695153112887741148e-02
-1.445557066731728048e-02
2.128637946808891943e-02
-3.270181586181795247e-02
2.352325687184867592e-02
1.338172251889597174e-02
-2.032519996368252133e-02
8.871675419179509553e-03
5.730226724556760666e-03
-4.441929334807892191e-03
-3.165781465568100889e-02
-8.186244750017165200e-03
-1.287871456912749284e-02
-3.516602217420028431e-02
1.017725747188913052e-02
-3.422281831084407477e-02
9.700733630278318698e-03
-8.764108515847265565e-03
2.511828729911243924e-02
-2.983634462495248982e-02
-4.299515212018589598e-03
-2.385320582228581121e-02
1.534090205062780925e-02
4.405551097089363544e-02
-8.620338966785549796e-04
-7.311807388700137210e-03
-8.585635302912926828e-03
-2.269385690423701349e-02
-4.238291010270357068e-02
1.802891388855065377e-02
-3.167182385411462797e-02
7.070601689628537578e-03
5.167083200245688873e-02
-8.370071593734366988e-03
1.127277056756125981e-02
3.278879884871165051e-02
-3.337454695728361842e-02
-2.113201533589209244e-02
-4.527815746825823717e-02
3.433260552637562579e-02
3.180951819884202114e-02
-3.299669524314412239e-02
-5.744615661969901428e-03
1.639390274030574912e-02
-1.004304483291997008e-02
4.876550345354664466e-03
1.254364890324724015e-02
6.315753053367710763e-03
5.420423376850962149e-02
1.513080031238355980e-02
-3.624060574079822350e-02
5.784862043804737605e-03
-4.305061779481594506e-03
3.041329739803066631e-02
7.597006239812660079e-03
2.690746757737055156e-02
-1.312672600662034318e-02
1.943382457031472832e-02
4.384464959569799730e-02
-4.255531703524262181e-03
5.544478936678032266e-03
-1.695382789186264394e-02
-9.276816713267143494e-03
-9.286674788563596336e-03
-6.492792739005414857e-03
-3.407224848166833658e-02
1.919279791579166575e-02
-2.057985904357239465e-02
-4.101932839433840121e-03
5.814969142571168106e-03
-1.139810359690509971e-02
1.013362604657063251e-02
4.704983769890041623e-04
2.763320846327964320e-02
2.332093056798539496e-02
-1.285104655140073028e-02
-2.459395785817447208e-04
8.136546694300719057e-03
-1.121139370910782460e-02
1.404758968091055285e-02
-2.133210805185044474e-03
2.952425493583359789e-03
-7.016047680071158324e-03
-4.665037624096612413e-03
-8.158752723583802269e-03
-1.593712531769349641e-02
-2.087775850759240187e-02
-3.792625772838669786e-03
-5.174774449784490943e-03
5.964834228508356789e-03
-2.359711419530631862e-02
-3.823500790926035679e-03
2.593528313987808823e-02
-6.042678346387104875e-03
4.332827990915287530e-02
1.445564887753599675e-02
3.245868307802831244e-03
2.615048635298646007e-02
-2.357462314166460047e-03
3.667530022661075282e-03
-1.256596320166717892e-02
6.576730990012514058e-03
3.399372405713715212e-02
-1.221526407455749905e-02
1.130759204507015116e-03
9.624270289908922263e-03
-2.483071102177473663e-02
-3.642715612232556681e-03
9.255230987667152631e-03
6.324488314795092408e-03
-1.202095534935350429e-02
1.422323156051188107e-03
-1.840206900545209370e-02
-2.824305546679928974e-02
2.196863385403813318e-02
-3.031858846145605961e-03
2.553583706724990923e-03
2.126910914325066612e-02
3.500948580651509767e-02
-3.684831975697954592e-02
5.535491846510242134e-03
-2.033464153908757718e-02
-1.567960510208176589e-02
4.491534537401428717e-02
-1.273427539371195343e-02
1.489001747319608103e-03
-4.012792564048975764e-04
3.821276639447204141e-03
-2.563791994412136649e-02
1.699404301641914070e-02
-3.362625893056984949e-02
-8.875756464647402422e-03
2.379188870264507122e-02
-2.581394346566565079e-02
-1.514188341110436417e-02
1.664615418426126925e-02
6.999732604230327060e-03
7.833609461887122358e-03
-8.640784991666322287e-03
-4.111322158344739709e-04
1.537582595034305173e-02
-1.313440770570801705e-02
8.729051740689353425e-03
2.815721093260359700e-02
-9.057711255664896779e-03
3.314722483719516680e-03
1.071939225789280380e-02
2.063797059320115687e-02
1.029629440629613833e-02
3.942736874613217424e-02
-8.012151905552235970e-03
1.120635538845315103e-02
2.513909846582007774e-04
2.383979067167721518e-03
1.372278982924660454e-02
3.012005796571881264e-02
3.427143857197038727e-03
1.411345500408324807e-02
1.138317903235608851e-02
-9.544205711367222122e-03
2.058591707900886761e-02
-1.356459726804878745e-02
-2.802688509017458446e-02
-2.656581382385303741e-04
5.959781899223246145e-03
-2.512770112303079964e-02
-2.074427013215095032e-03
-3.320619985588044165e-02
5.781131937829893288e-04
-1.816314083057604277e-03
-1.007292023775265520e-02
1.697056350201293050e-03
-1.550857227007756620e-02
5.302118274491079801e-03
7.923044193299576612e-03
-1.282249848519088041e-02
9.163763478918089331e-03
2.770082373581253532e-02
9.155278580178977110e-03
5.332985295305396611e-03
-2.145952018103698331e-02
1.371843320415199949e-02
-1.457180262936318832e-02
-1.936994238043735633e-02
1.064433328060807558e-02
-6.426158696095181887e-03
-8.018563834608267299e-03
-2.287597183984686755e-02
-1.243719749227869750e-02
9.496211618515684044e-03
-2.604239292956343418e-02
-9.973307355786328182e-03
3.195347243337400694e-02
1.362011943606230907e-03
1.458744697857785764e-03
-9.838429511900182931e-03
2.389185847159101123e-02
1.547368066523372929e-02
-4.703501587945955499e-03
-3.113311680802960998e-03
1.226082345836780434e-02
-1.524344336592867166e-02
2.891264004572299123e-02
4.255772555566500470e-03
-1.051183263778318611e-02
-7.024836572409533415e-03
-1.622272593130671264e-02
9.891360310798801708e-03
8.379482453506365003e-03
4.019114062100367230e-03
-2.294958358525591574e-02
-1.791731773958405924e-02
-5.079206628053114896e-03
-1.381931252571836841e-02
1.153884907166095354e-02
-1.144805946590305053e-02
-4.299062827253087408e-03
3.050890550509679621e-03
2.184067421417024580e-03
-3.828630904093639764e-02
-1.337213607427852015e-03
-1.786192779486398680e-02
-1.256716510299107741e-02
2.130341698802245068e-02
1.401921758516598039e-02
3.029249719937930803e-03
-3.422014459723775239e-03
-1.210885581339755907e-04
-4.952555818477600777e-03
-1.497689525286763704e-02
-9.159168130248714068e-02
-5.892049096817854326e-02
-1.282149449006767528e-01
4.687506520454946118e-02
-5.966452976055270502e-02
4.844466059322418555e-02
-1.289970592103080287e-02
8.482048308998793584e-02
3.807048092374008125e-02
5.126593181810448069e-02
7.013733554024889627e-02
-6.788406726703742622e-02
2.173015093663556658e-04
-5.665285456203462966e-03
2.808360007843194867e-02
6.010288563331143800e-03
7.402726951318264713e-03
2.598005897259519220e-02
1.056388204434824535e-01
1.654486686709771143e-02
-2.355206519620199057e-01
2.987170956592393595e-02
1.535284130869493842e-02
-3.808416851734436337e-02
1.689373062877665491e-02
4.055596632474798430e-02
-2.607060827622820903e-02
-4.893983597280691239e-02
5.014566293553623239e-02
-2.958722334436904994e-02
2.631574487644736809e-02
-7.574321351120247292e-02
7.817051128402374705e-02
-4.874122306045858277e-02
-1.788982874103266230e-01
-3.094585041834795741e-02
-2.057308447407819874e-02
2.941873606846435660e-02
-9.693314799725170905e-02
2.166880921411424785e-02
4.527329441538292115e-02
-4.216911495949373506e-02
-3.752967121245451981e-02
1.364798403468056309e-01
8.297359548622717379e-03
8.363684694300656600e-03
-3.960187332212104089e-02
9.320685027247731236e-02
2.025387309645189024e-02
1.464041529447297936e-02
-1.060545493178922244e-02
4.588508251856000808e-02
3.168195562941694514e-03
3.892979903644624290e-02
7.707813101927905863e-02
7.085978531193808279e-03
-1.914975497186116246e-02
-4.889985078770921895e-02
-1.266234644554038377e-02
-3.165782134448294483e-02
-3.935246062141260076e-02
-3.961747029195489961e-02
3.654557356810853724e-02
1.297400248468118245e-01
-6.488247542263755885e-02
9.116545691516006467e-02
-1.233703409585480137e-01
-1.787709774803529494e-02
-3.875923403850185800e-02
-1.205103764845161518e-01
-1.200193442645634545e-01
-4.898357399168596499e-02
-5.482482587216648551e-02
-1.279482233326428853e-02
1.010910814973550037e-02
-1.251041844276488610e-02
4.866043752357231827e-02
1.583791881161670384e-02
8.835470791330270190e-02
-1.335859093890260363e-01
-8.831719834273951686e-02
4.680068690387177710e-02
6.185768857318767189e-02
-4.198181017131540765e-02
9.656350779240009674e-02
-1.308427796855123754e-02
6.424759912749253288e-02
-8.974847643980859990e-02
2.643813184837806238e-02
-1.033518819870282018e-01
-2.637077472218633811e-03
-1.321003509281586941e-01
1.541203906764867515e-01
5.702537634205962630e-02
5.070128467340548339e-03
2.077280364927215975e-02
-9.937976705715310943e-02
-4.452787589451291661e-02
6.232563257954153862e-02
6.117320672475853871e-02
-3.734049473342383046e-02
1.543329602657122351e-02
1.061398365418031176e-01
-2.396493510075565700e-02
-3.242053435375839929e-03
3.039747318539575208e-02
1.061543550359728486e-02
-2.738122930067767719e-02
-1.558321239449540485e-01
-9.586724642557808637e-03
3.909230997496530857e-02
1.892100553104184360e-02
8.340765587481312193e-02
5.325057816721135567e-02
-3.766258872552361026e-02
-1.327131644936303118e-02
6.460624502160339233e-02
3.159237744284886656e-02
3.836706385153573762e-02
6.903416607439648300e-02
2.525884957338239700e-02
-3.397016842005136372e-02
-4.849239783269530119e-02
1.024824848145900330e-01
6.117572825491634364e-02
7.094316843151041163e-02
9.798484104839494391e-02
5.595588497623974616e-02
3.753557409210493689e-02
6.079839134603865630e-02
9.934826076063360545e-02
-1.919902683533672438e-02
-7.349093896420079430e-02
2.320824018139014747e-02
9.036789124441735321e-02
-7.240221388384340817e-02
7.942773128707250607e-02
-1.100904393799874426e-01
-1.559306143630265901e-02
1.341887479690646520e-03
-6.455074609766776883e-02
1.602932290086613379e-02
-3.126371819126815693e-02
3.213567901843373056e-03
2.547284669840543109e-02
-5.204298590902905336e-02
2.300778090217043062e-02
-8.638108121270783590e-03
3.069905777252265183e-02
4.432076764946507597e-02
-8.351924578133528010e-02
3.403753999258783691e-02
-3.342952830737171599e-04
-5.445579654286824417e-02
-9.299976547525764040e-03
-4.800265951036132572e-02
6.682614254332745751e-02
1.211285284021605376e-03
1.427222523501413438e-02
-5.630355233969217346e-03
-8.209296791007777983e-02
1.060067674674124577e-01
5.910951761351735528e-02
-1.101048664556583262e-01
1.022453689336003807e-01
-5.214765141518870606e-02
4.580731610409197185e-02
8.091577936213380229e-02
4.286667517143799566e-02
8.619888430216141040e-02
2.371495860478419621e-02
8.425091643626989382e-03
1.540907432097924357e-01
-2.247980448845759288e-02
2.961058427890924175e-02
3.875873828327879717e-02
-7.758561902941512982e-03
4.477110044820883082e-04
-2.854464276513141163e-02
5.375660615078162174e-02
-4.675015526425595896e-02
-5.762010741854601756e-03
-2.541421407650680184e-02
-3.201388495347760876e-02
-1.850551919289314048e-02
-3.207098788887709218e-02
-3.329946418436563471e-02
1.735421885915272924e-02
-6.562895028999315983e-03
-1.034024851832356789e-01
-1.731956310749851319e-02
-1.369756990467188920e-02
-7.130753988088055217e-02
3.274755316989078763e-02
-3.566330034064727622e-02
-1.233310929719545540e-03
-2.423231194424021670e-02
4.360223135637431718e-03
-5.706836076308664796e-02
1.650989115329203061e-01
-1.332236135125715037e-01
1.771026338930541122e-01
8.966144920857943568e-02
-2.681860371705656679e-02
1.952202882959752986e-02
2.644927147886877786e-02
-1.385128193156133503e-01
-1.223921375693998170e-01
-6.397109167594244861e-02
4.142939622410284767e-02
3.204858163790554049e-02
-1.275226991204062577e-01
-1.230290805281577526e-01
1.375480523058433824e-01
-1.773639316516401609e-01
2.984283727526667804e-02
-1.139192502414350383e-01
-6.858180462694944690e-02
1.235169209816137093e-01
1.265159584007974625e-01
-1.219355202139435768e-01
4.508424205086194320e-02
-5.396521835823664404e-02
2.985200835230766847e-02
-1.334356507534653624e-01
-4.828036100393177238e-02
-6.906135978087035721e-02
2.895265214095595896e-01
1.078652091402785423e-01
-1.022669160372848135e-01
2.485126671257888512e-02
-1.292645566517231781e-01
-9.823375728759206615e-02
-4.788748185411230429e-02
-4.968339865042953329e-02
-3.029642300845741820e-01
1.532470895395905419e-01
-1.368428638570164391e-01
-5.388446178500769235e-02
-3.543639974411164073e-02
4.688135526204208897e-02
-5.908313102435011968e-03
9.806066259878707531e-03
6.168068309616007994e-02
7.061910266698141758e-02
-1.041625839164963957e-01
5.942266659667520129e-02
6.969863526817687838e-02
-8.126064432425320061e-02
-5.002403188764379012e-03
1.279534140008318222e-01
3.000534826690054099e-02
-4.716571451003036264e-03
9.213893527295695385e-02
4.834170087161215358e-03
-6.888508694874764804e-02
-1.848214102510132573e-01
-8.299939885393474437e-02
9.655617714670218510e-02
1.619276993310905244e-01
7.277984491437887449e-02
-1.165162677394627200e-01
3.650819059051407800e-02
4.361315997377018805e-02
4.433290150258895057e-03
6.537559239988248450e-02
8.755145332198786823e-02
1.342016741096526966e-01
9.333383251851770993e-03
-1.331569401827496502e-01
-1.224500889687226424e-01
-9.267617559011231965e-02
-1.115843629564386430e-02
-8.841813801911438397e-02
-1.020252080899067271e-01
-1.077404115719821261e-02
-1.629670332625398066e-01
4.721250308784434579e-02
-2.730917999469966665e-03
4.814934367002327714e-02
8.179167649667671430e-03
-9.255985094591934539e-03
-6.379794138266796713e-03
-1.108882520772347391e-01
7.328181222717644605e-02
-1.147998820844212953e-01
1.334109882483207887e-01
6.846378394948127166e-02
2.100150862368431737e-01
-1.562952451720933666e-01
6.730490053799934036e-02
-1.686562197407012187e-01
6.985138581926678136e-02
1.694279383113191373e-01
6.752377097475632806e-02
-7.111526751664119794e-02
3.256264639413860001e-03
-3.525190144145520094e-02
-1.319712512105293001e-01
3.335013350522051528e-02
-4.864175597676224233e-02
4.154439929182504598e-02
3.273849137011593594e-03
2.562708882111999677e-03
7.980754786730633391e-03
1.017891254420141486e-02
-2.411385493391348528e-02
-2.576700532214378815e-03
-4.558461479898182588e-03
2.161298305517276794e-02
1.140450436296412511e-02
-4.005888535689652863e-02
-1.051550569312358421e-02
4.605979881049434427e-02
-3.191481056009302236e-02
2.446951186731249547e-02
-2.989562173897465733e-03
1.308872759504131449e-02
4.178261917039564899e-02
4.744687564564204624e-02
-2.396623122812709464e-02
1.398723032483187995e-02
-1.966100048946196888e-02
1.501927530313021571e-02
-1.998874451581723888e-02
1.705120831748118543e-02
3.225390178276239111e-03
6.469757900962691544e-02
2.892249287265629548e-02
-2.594750403751277038e-02
8.021338399697148028e-03
-1.918249109156657667e-02
-2.048966893942483908e-02
-1.390542666830977062e-02
-1.171550769153259682e-02
-7.391735790292229547e-02
2.499083240363590697e-02
-2.845849812594628686e-02
-1.761747333850605113e-02
6.135083903423916782e-03
-2.645373077237063442e-03
-3.707469902865185088e-03
1.613973401061948032e-02
8.651148999173744608e-03
3.579552483699387222e-02
-5.110344783362307484e-03
1.971465391860207847e-02
4.429432294509628304e-02
-2.579613849911565476e-02
4.823663164497601907e-03
2.404459567767680550e-02
2.366843241257292688e-02
-1.201928028946363212e-02
8.843946048986608272e-03
1.025420204922417207e-02
-2.330939902724119689e-02
-4.772751826693630989e-02
-2.612116783449484197e-02
1.605392516477107540e-02
7.464556824374404473e-03
-8.383782492841981848e-03
-1.539595929165515562e-02
-2.902958635732581782e-03
3.522746625983887159e-02
-9.862427552464419318e-05
9.929063373990926894e-03
7.172943849013985185e-03
9.873772982745134680e-03
-7.474709955078827177e-03
-9.514186523767795625e-03
-5.841346214996884223e-02
-2.092569212173933657e-02
6.264519076004302321e-03
1.453529749588535792e-02
-1.533103249759681539e-03
1.813819155751761336e-02
-1.234806503011839224e-02
-6.297553546928465196e-03
6.273921690716171770e-03
-1.742077741595696389e-03
-1.788303039904410446e-02
1.214141875826454768e-02
-2.108832763432727520e-02
-2.586771080717105084e-02
1.128785593786735958e-02
-3.064291898868856667e-02
1.856306982787805579e-02
2.742578036952110498e-03
4.194646934052111142e-02
-5.441047069387106722e-02
1.719683730666109536e-02
-4.025990745747295985e-02
2.192541788028790420e-02
4.391862887865694703e-02
2.424674345535209399e-02
-6.996204831786713950e-03
6.834703837089305286e-05
6.669998032884449403e-03
-4.558503269485458115e-02
1.650498525826178120e-01
-3.705600477054228625e-02
1.175554466016828919e-01
1.659625862506859117e-01
-5.828158892492893428e-02
-4.654723078002365871e-02
1.110294111075625506e-01
-2.833164013977125875e-02
-2.077143227697100802e-01
-1.421133734331417597e-01
8.936190499131564657e-02
-3.983901416690497493e-02
-1.631247491154237395e-01
-7.999050669274654357e-02
1.347809414847750409e-01
-1.743001426144507870e-01
1.219650407955730348e-01
-3.389230085926139141e-02
3.415247673758153857e-02
6.919970608064782147e-02
8.981739674558721076e-02
7.633308849709169452e-02
3.908374531644672606e-02
3.808285340673742050e-03
7.398193021687606008e-02
-1.636760986195791995e-02
-1.820953652560369437e-02
-3.935526477433040626e-02
2.383937056379911712e-01
1.034053131955996463e-01
-1.524691123213651189e-01
1.164227783331808416e-02
-1.018921429342102211e-02
-6.693836154065305188e-02
-1.217477559131464665e-03
1.301785543297168946e-01
-2.234211293184253100e-01
8.813829340635033482e-02
-1.603127131907281233e-01
3.757173170092129727e-02
-3.783732138181879201e-02
-2.722824898579722860e-02
1.365251995718549105e-01
7.838994522907639928e-02
-1.793282117771134720e-02
4.173401740681718930e-02
2.130910837224875287e-02
1.040760922626632057e-01
-5.221602621285304988e-03
-9.538273802157377912e-02
-2.366606681309463625e-02
-1.801976184405106257e-03
-5.233944212554938850e-03
-1.642991061780840756e-02
-3.015019005264210801e-03
-1.378331208163197652e-01
-7.261608811069281133e-02
-1.713582051976610954e-01
-9.961268054172228714e-02
3.002338549148298244e-02
-1.447061570600366269e-02
3.770988814462034044e-02
-4.283912479023795766e-02
1.907450071613362927e-02
6.882245591880560781e-04
6.370759620005622681e-02
-9.759983173320108119e-02
1.129263899930638138e-01
1.264199435079283729e-01
-2.007688998291740079e-02
7.912087502142838014e-02
-7.483574581175515827e-02
2.624397008575160648e-03
5.089270115668936140e-02
7.375066989824143049e-02
-2.548574737706510787e-02
1.593535745782909130e-01
-2.004286996912404695e-01
-3.389242960390310283e-02
7.350457624286504781e-03
1.489232940410000205e-01
-9.716060728672520908e-02
-1.928390459280816815e-02
-1.060395614866000424e-01
-5.232015122228130671e-02
-3.367705499502976485e-02
-3.275579052305847838e-02
-4.341121317194505773e-03
3.114470590000420480e-02
4.958453302747606317e-02
1.101340876752194935e-02
-3.647222428497361862e-02
-2.954502777899052288e-02
-9.925822956817056952e-02
1.968705976529364354e-01
1.085083211374977263e-01
3.531209010124625181e-02
1.035566713348793910e-01
1.144627174752278764e-02
-1.469902645652381434e-01
1.693703132944241255e-02
-5.906039435390909170e-03
1.439878120909398110e-02
5.612462844529213235e-02
-9.628008802458558335e-03
-1.266270334047261623e-02
3.452663887514659941e-02
1.610102975693011515e-02
-5.025285474555893361e-02
-1.322887459932325926e-02
2.557393570112398429e-02
-4.587979486765396929e-03
-3.286215357619901717e-02
-7.156672945696872581e-03
1.140155280046789565e-02
-1.496512234871060811e-02
2.216106232590769887e-02
1.223499295002948052e-02
2.687967677349237250e-02
-2.122716806270854087e-02
-5.611038273018692339e-03
4.010926174997014176e-02
2.428028609799884677e-02
-7.749664968100901385e-03
1.538953211465310389e-02
1.871941671502035456e-02
1.885501760276307032e-02
-1.822433099960605110e-02
5.687215427507733879e-03
1.869734003279741041e-02
-2.669793132020292781e-02
-7.821611605271826598e-04
1.757854239492028306e-02
1.009830080809335368e-02
8.841072945001281387e-04
5.995628713057078035e-02
-4.577570476094543553e-03
1.814401319601086256e-03
-1.425362963780671399e-02
2.867158103811198386e-02
-1.200231152129860139e-02
-1.933790113857626961e-02
3.828879371487610428e-02
5.904098234700883713e-03
-2.825474398249379349e-02
2.869055109284595825e-02
2.500481685404189539e-02
1.152279191112118642e-02
-3.143021358367131118e-02
-1.328321485622720871e-02
-6.233001173576683575e-03
2.178251862438937512e-03
1.408911837905752786e-02
-2.288712767929619238e-02
-2.281120841434545674e-02
-2.304233554026632880e-02
-2.471250295166108404e-02
-2.419459584723500367e-02
-2.090632742872819069e-02
-2.458214914895772568e-02
-3.305232911675368840e-02
1.180957604084965570e-02
1.146442015962857892e-03
1.929982832736131361e-03
3.620180716226012712e-04
1.478792417727735689e-02
-4.114730577599298722e-02
2.116312965421038653e-02
5.253171222691217085e-03
-1.509600495374872247e-03
3.458382260719148477e-02
-1.737266030076082754e-02
1.609956501073141547e-02
-1.206385771373811797e-02
1.375712850447791992e-02
2.529659989741657629e-03
5.442035118705212948e-02
-3.248232436044008742e-02
-3.034497517351342905e-02
-3.802796112905936334e-04
2.794100932951703101e-02
-2.854869156241066769e-02
-4.217423353302496292e-03
-2.772887976184663927e-02
-1.168086332924483765e-02
-1.715670373323118642e-02
4.205016697026937693e-03
-2.812205641667767791e-02
3.012442210639117157e-02
-1.821658348764363528e-02
3.961560618779607496e-02
-1.414879583462389824e-02
1.805726691457195873e-02
-4.627540116256530223e-02
4.441108695992739691e-02
1.225130558115418260e-02
1.640777327405397445e-02
2.488042960093783673e-02
1.631479719703065809e-02
-6.354045254995897667e-03
5.348665980475270088e-02
-8.996588093221772123e-03
-8.479124107290710380e-03
8.964716588108573303e-02
-3.214277804532239546e-02
-2.982284704406559447e-02
8.563101393785961524e-02
5.321341533480064556e-02
-8.095916959707297189e-02
-7.112784500822069700e-02
3.108922924649592731e-02
-1.306871504731789424e-02
-5.787086051444854246e-02
-1.705601645530784027e-02
2.813479233227780124e-02
-3.918348039338920979e-02
7.905373724204159402e-02
5.899186214064396083e-02
6.301123001504277399e-02
1.154997297978968811e-03
2.067090585038826658e-02
1.246905191383893968e-01
2.280756253843047379e-02
1.105136172722360338e-02
6.041977495754313754e-02
5.245588312348944959e-02
3.166177910915789206e-02
2.331671636630618452e-02
5.525442351551053399e-02
2.780526722030991077e-02
-3.822000690782201976e-02
1.734718214110936296e-02
3.341971020933837827e-02
-2.928249918022811718e-02
5.063255308422574819e-03
1.194491800596236136e-01
-4.838194764263600151e-02
7.900181672065477315e-04
-6.139640242617711713e-02
4.309667218654154863e-02
-1.380567369150982777e-02
-3.274892867165806604e-02
6.217920763873035356e-02
1.121934521440701507e-02
-3.874685362668209981e-02
1.613716511887235486e-02
6.599225622427272453e-02
4.376662854833077154e-02
-5.345344561977418557e-02
-1.574745592842030639e-02
-1.304724345685336420e-02
-6.275562904686647625e-02
1.405078766598200947e-02
-2.671021966051149998e-02
-7.823274802972965403e-02
-9.614818623994679514e-02
-5.272305633644833178e-02
-1.182106668248831746e-02
-6.288735206659532007e-02
-3.181746879835388453e-02
-7.123611684786673726e-02
1.087007747661884087e-03
7.083035038949824815e-03
2.215435518937421827e-02
-2.898950389264619634e-02
5.011364162094743974e-02
-6.550529416839907804e-02
7.237738946772061255e-02
-4.155913162510652299e-03
-3.778806166085833026e-03
9.554378090995598038e-02
-2.755379731431920054e-02
1.526072861556745583e-02
6.737074717247260036e-02
4.088923903560143930e-02
3.858105613911168991e-02
1.172877489319369693e-01
-6.724836751757988507e-02
-2.604539095158501030e-02
1.843606695075499652e-02
8.493593888433928485e-02
-8.201099040859397005e-02
-1.632684713253554354e-02
-4.806876413269756121e-02
2.126493410943246579e-02
-3.113018844412461170e-02
1.311472515394115565e-02
-8.544220942657233808e-02
9.204382113860168357e-03
-3.356515623833504491e-02
6.923873167789071359e-02
-3.686309293175324409e-02
2.118292389628238792e-02
-8.193898669697448345e-02
1.023544223274850951e-01
4.283675429472814239e-02
5.725251970841148397e-02
3.609382648817357347e-02
5.371492155384940265e-02
-4.032614246553804099e-02
2.882728062040125147e-02
-5.585546492877882518e-02
4.255712954879690979e-03
2.766786124705012187e-02
3.698452464843745170e-03
-1.395545841023064157e-02
2.447862678930355640e-02
-7.198552378182098907e-03
-9.586107099022002365e-03
-4.905022162221771981e-02
8.017278575542987479e-03
2.412045149433205207e-02
-1.508808405304782989e-02
-2.058231886062795654e-02
2.943638669037314248e-02
-3.968062421078681623e-02
1.033407644963625464e-02
2.509380052324525559e-02
7.721320292833212806e-03
5.023315331273123241e-02
3.526153642264308330e-02
-3.557832987890081206e-02
-1.170558774043402870e-03
-2.343338722386017342e-02
1.441246882559809976e-02
1.016739986870870277e-02
2.222311200790743832e-02
6.712048289153203090e-03
6.335832695431461992e-02
5.879033371980400130e-02
7.912491165614111630e-03
2.156691113477837360e-02
-3.842481622380779921e-02
-1.706713883754206254e-02
-1.265683044215712427e-02
8.689810310967518298e-03
-7.224004412978909939e-02
4.536186901986428294e-02
-2.437832520855891250e-02
-3.984485595205466274e-02
-6.265618953548462121e-03
1.219372987481456014e-03
-1.169760094826741668e-02
-3.472107979578582804e-02
4.041909298471708240e-02
4.219473250581969731e-02
-1.808533629440981991e-02
-8.294191516074893343e-04
7.879650767169036826e-03
-5.356861870828599423e-03
1.166471906952481173e-02
-7.303926018502872493e-03
3.457850686880472452e-02
-5.023042871887219889e-04
-1.162729437287878323e-02
4.457727150730284027e-03
-2.600585429163711215e-02
-2.291198133146653965e-02
-2.805587716667690135e-02
-1.234612260142197056e-02
3.735958344722738796e-03
-2.313454495089118865e-02
-2.504343456209744828e-02
4.974051178393897044e-02
4.482401796852763035e-03
3.508222698577129380e-03
1.880207745138088790e-02
1.016086341405641330e-02
3.515381809460976087e-02
1.305955792305361039e-02
-1.494100644792110619e-02
-3.830702935960985517e-02
-2.259007119120950285e-02
2.726145156894192734e-02
-1.763467451203999323e-02
-1.601363796914386309e-02
-4.864650231208095081e-03
-8.391424457349668312e-03
-1.251757668057698614e-03
1.120504927839082072e-02
-2.438777817787869261e-04
-4.919266130613040439e-02
-1.697583469226090006e-02
1.201124815141565603e-03
-4.290680299667030267e-02
4.167639710199515929e-02
-2.918163728313226402e-02
3.453989381510786261e-03
1.749868068946993163e-02
3.949438762992861507e-02
-8.263931197931687067e-02
9.444255512180482412e-03
-3.877873485799900044e-02
1.760691709025857463e-02
5.895258948228278284e-02
9.364418247147789434e-03
-9.679186021235665349e-03
-3.416216500707493393e-03
6.122769092927934573e-03
-1.976153881173371360e-02
-2.784258095583519443e-01
-6.427311555073352001e-02
-3.574900263696590974e-01
9.701330161116125672e-02
8.539633555356652972e-02
9.920953178587935128e-02
7.592776724407111766e-02
5.211406481829929938e-01
2.845011723918867141e-01
-2.008272921918747844e-01
-3.459626999774234046e-01
1.059791746692840819e-01
4.222550904765219326e-01
1.539378029588284735e-01
-2.094584955126854373e-02
1.571615035421765338e-02
-1.032269990019722139e-01
6.055334191099794872e-01
4.553358770383440779e-02
-1.672805148853658830e-01
1.672930723951801257e-01
3.671558547297526509e-01
1.116668641799073089e-02
-2.152325998841834731e-01
1.542254347765871225e-01
4.824051339077186085e-01
5.825935218023069878e-02
3.994236488327768120e-01
-3.327369714796250127e-02
3.750465451622153612e-02
5.393174901826267575e-01
3.605238955612800611e-01
1.145516833629281472e-01
-2.916780821568513149e-01
2.221667771945336767e-01
4.438177259144864828e-01
2.934249617565468093e-01
-8.921335757066146954e-02
-1.617423403192660702e-01
-2.143578623174430264e-01
-1.778203206578876372e-01
-8.588435494590589137e-03
-7.158606353862717597e-02
-2.084841947895071101e-01
-8.971404583353261020e-02
-5.878036448094130922e-03
7.908974649120799685e-03
-1.083438465268515283e-01
-2.819244934896159016e-01
3.479343471583845049e-01
2.845039966128193321e-01
-3.218724640637199430e-01
1.794729703104532836e-01
-3.343364766652757308e-02
-2.002030264454024711e-01
6.227749497777244903e-02
3.718085009299786081e-02
5.733700955053855353e-01
-3.181489400210323060e-02
-3.412323472930698931e-01
-1.868087045206142938e-01
-1.382754448660889202e-01
2.842026990592727564e-01
2.509035927074463879e-01
-6.010771735195011845e-01
1.922124640204335155e-01
-1.113850460945552123e-01
6.985767399331115068e-02
-1.696364509331524384e-02
7.965143110317662867e-02
2.919394484897305242e-01
2.907557386962225099e-01
-6.360839810776773573e-02
3.020904428559876287e-01
-4.649562852401969287e-02
-5.520942734597616280e-02
-1.287653368867714143e-01
2.830044091183893107e-01
-3.568099738259032649e-02
-3.095014463235080671e-01
1.619950071173142658e-01
-5.404611487229578348e-02
-1.995824503596159150e-01
1.492020955693095230e-01
2.888406548179832667e-01
9.266592792069804074e-02
1.386368854135724693e-01
-5.576367825028081260e-01
2.119443901193005519e-01
-4.745696845562719646e-01
-4.938529855382538941e-02
9.937159856148303216e-02
2.686384311157324900e-01
-1.565663043993278658e-01
-1.929345718948009269e-01
-3.164826658876828680e-01
1.210815657018666364e-01
-4.239595643946838383e-02
2.293042287346029606e-01
1.883792408768669435e-01
-1.900176955406131796e-01
-1.614161756029304506e-01
-1.793041710875696859e-01
2.505323826265590248e-01
7.444044157545447182e-02
2.317617311769369359e-01
1.448859477779603500e-01
5.063547065782337819e-01
1.828220624729629817e-01
-9.829998286090092796e-02
-3.289009813132774407e-01
6.864735395267540508e-02
3.630218510846011104e-01
-1.619360975095208988e-01
1.920879983721425210e-01
-3.022548580399972984e-01
-6.789670401541578193e-02
5.407728216937014443e-01
-7.270063434759514720e-02
-1.788690278406078471e-01
3.378351051261002103e-01
5.436701882988999035e-01
1.090410493458144753e-01
-2.751584822223033244e-01
1.580975139842730748e-01
4.310130343186471258e-01
-1.907362059539666199e-01
2.842572518990333363e-01
4.217921718286997690e-01
1.106863096958704551e-01
4.264806390101980593e-01
3.624875844268776737e-01
4.336324344340664050e-02
-5.208150187598091785e-01
1.976666389348270825e-01
5.635315832423659632e-01
1.098782929375939216e-01
-2.381071414229662259e-02
-3.652593230060767748e-01
-2.925778543131617448e-01
-3.928836552497089185e-01
4.867753927435792410e-02
-8.180472076424367966e-02
-2.595434740176861266e-01
-1.330909392654364420e-01
1.405999209730505461e-01
-3.513317521222302647e-02
-3.912326044480175791e-02
-3.756286792590002310e-01
2.364356661511248514e-01
2.914362046966303410e-01
-1.566370978156715610e-01
1.875510579862900151e-01
-2.230558216565752677e-02
-7.718695143457053598e-02
-9.169007500551063991e-03
-3.059380578078301979e-02
3.630962929498499636e-01
-1.448939784931818908e-01
-3.735214493002386726e-01
-8.585174467657161190e-02
2.013240045574949399e-01
4.828510110539916030e-03
3.237448774027177345e-01
-6.522346833863139626e-01
1.120791713194041334e-01
-7.428363547486985241e-02
2.351317694602436947e-01
8.688988570319985949e-02
-1.640645608301598626e-02
1.573969936896830735e-01
2.484549805057315597e-01
-2.761107918422211482e-01
1.370906753331096462e-01
-1.084715327913182981e-01
-3.156328027784850443e-01
-2.037332568431987345e-01
8.546805370581497807e-02
-3.268248495934811954e-02
-3.602638813155713549e-01
3.146108367604137923e-01
9.367305731294052473e-03
-3.368842782206412645e-01
1.704459889751176738e-01
3.620865949705042719e-01
2.139801055867079638e-01
6.161992389998050684e-02
-5.618793743006407215e-01
4.389333681555768751e-01
-3.309911599809114979e-01
-6.159964371205764455e-02
2.255573281462737723e-01
1.525548640083553287e-01
-1.147663369299695146e-01
-8.459394447460255595e-02
-2.022386959507747328e-01
9.651871907837471232e-02
9.435555699096023763e-02
3.508508755888881114e-01
6.895407495546478083e-02
-4.667686617471443478e-02
-1.794924632063419068e-01
7.078991517766804013e-03
1.467113816295748108e-01
4.089426969546038765e-02
1.240203069422362442e-01
1.155487234527961954e-01
1.563236415345826413e-01
8.661567573339018500e-02
1.274095514422796116e-01
-5.129672087799691527e-02
1.287590730902467111e-02
5.917632311444154941e-02
-2.961973662094913862e-01
1.632220766795391409e-01
-2.760926539336950314e-01
-2.387666077256816316e-02
1.353446513653378536e-01
-7.462757247480850120e-02
-4.463351899911352505e-02
1.773673611011853668e-01
1.510930059830013494e-01
1.205503703605805832e-01
-1.174382866442216372e-01
-5.139981372125294184e-03
9.317453554123451831e-02
-1.992566646025230037e-01
-1.024160631487991933e-02
3.365674113470060180e-01
1.066501144573174797e-01
4.776399243257685445e-02
8.855251694507972060e-02
-6.334730345646159833e-02
-2.378140416795465617e-01
-1.415053973954549446e-02
1.473975180606972579e-01
-1.164364297399629600e-02
-3.403003013796399717e-02
-1.480623394980443153e-01
-2.162636965680701795e-01
-2.554560511451973714e-01
8.993354262484702655e-02
-5.722302294527583516e-02
-1.606540203434477787e-01
-2.449065402980583200e-02
1.587000790957234231e-01
3.062093764569969942e-03
-3.048725647684105700e-02
-1.850961318601557770e-01
1.587347857064595053e-02
7.885264793100199565e-02
8.920131386694281350e-02
4.230663082956415133e-02
-8.458640392695377860e-03
4.498571234213657316e-02
1.991742712982104077e-02
-3.242788462796026422e-02
-4.230930924694131096e-03
-1.619142936559547774e-01
-1.747979432512732634e-01
2.458250997852575934e-02
2.170664680256185752e-01
-2.396405159472052293e-01
1.346736919213538386e-01
-1.038963145743083127e-01
-7.373040899064577103e-02
5.708261599947003079e-02
1.187541291287509404e-01
3.505670752861581724e-02
-1.334864163844947660e-01
-8.333907379363941770e-02
-1.520024678717016124e-02
-2.464183143279834176e-01
-1.224409380508639095e-01
-7.026339721275103034e-02
-3.066409373819894979e-01
-1.431345850783654894e-01
-2.782557179346972775e-02
-2.660800528287867242e-02
-6.776654150790790976e-02
1.421488463646263245e-01
-1.157499415498908918e-02
-1.750199367517720483e-01
1.129149021692885113e-01
1.494592965318628508e-01
2.004030111189079588e-01
1.056170023381176881e-02
-2.001397506071472543e-01
2.012368012491357883e-01
-1.982129796743179947e-02
-1.941298025886552606e-02
1.737383663539421308e-01
-5.203603181486388812e-02
8.492680371718736021e-02
8.911149926261514864e-02
-3.219200238464676317e-02
4.521124470485751029e-02
1.020490655142413661e-01
1.767459521795557986e-01
1.566583711236616688e-02
1.130581811738032710e-01
-1.440664018665110679e-01
1.449225331087499735e-01
1.341189293556115103e-01
-1.544512609851420200e-02
2.294578520151210541e-02
9.639652318070798809e-02
-1.741520723255234396e-02
-1.308575778660558131e-01
2.482392907660542145e-02
5.631387228922329902e-02
-4.712439491208351289e-02
-1.122653219687740622e-01
-2.465928013520642115e-01
1.533701903339334816e-01
-2.863733929209928419e-01
8.953810057530746380e-02
-6.314603802517068654e-02
-5.926613169458268271e-02
3.350649499030564776e-02
1.230808447634078456e-01
1.075693733728585871e-01
1.268053179824527310e-01
-4.092006240278538154e-02
8.204626784765252367e-03
-4.365062404670263380e-02
-1.931327167487651708e-01
-1.017281624168279441e-01
4.116498916817067366e-01
1.247125447489495359e-01
-1.748017660923360528e-01
1.785482066078402166e-02
-8.258704924029122707e-02
-1.495090150174653854e-01
-5.886724619265540359e-02
8.951645146475720183e-02
-2.470220551133912312e-01
5.326716014937382671e-02
-1.685698977043331437e-01
-9.671503444008612560e-02
-1.537911011666938110e-01
5.643171535693548152e-02
5.449741567579668294e-02
5.149226551791250515e-04
-1.412255059292315609e-02
8.830832897917613444e-02
8.897400508872908842e-03
8.858659842096483494e-02
-4.991983512768103509e-02
-8.949807443742931190e-02
-1.796880017265453308e-02
1.397965098043800758e-01
7.721284753909410728e-03
-2.020293621672867093e-02
9.017973243103109826e-02
-8.713016281786940820e-02
-9.290481285508220277e-02
-2.301079744940761063e-01
-1.867176958775412510e-01
-3.190162923956789409e-02
6.623965192224812171e-02
2.038475683803231964e-01
-2.536319180327225586e-01
5.956929420658325577e-03
2.967967442564702768e-02
-6.759928271558904300e-02
2.257910550253925883e-03
1.343874311572487712e-01
1.350540775395216442e-01
-9.815296614841621803e-02
-9.427062535077852801e-02
-8.185133043451629786e-02
-1.492432316406721582e-01
-1.350264851941823108e-01
1.630457000886181146e-02
-2.011436958715108192e-01
3.167727384791627770e-02
-2.418086461319417790e-01
-3.908996981266267545e-02
-1.682399163899300776e-02
1.206655950012071321e-01
-2.896086831798333483e-02
-1.042108256706952701e-01
-6.069460716522912663e-03
3.631964591575402579e-02
1.017380668117397469e-01
-3.648355756159585989e-02
1.960225791071146598e-02
1.182476915434014508e-01
1.110446706850713172e-01
-3.473062184180580186e-02
7.479670425970320891e-02
-1.201217472291935262e-01
4.496245564228830427e-02
1.635259843604239260e-01
1.268284568072796381e-01
2.230258584377080994e-02
1.342822416808954755e-01
6.784917015158359321e-02
-9.215095123715549841e-02
2.213417042360005943e-02
4.164977218274375920e-02
2.670998631745796770e-02
1.604258203649752690e-01
-1.391118737984879498e-02
1.362590095548999944e-02
8.394823172250620580e-02
1.275079644560775383e-01
-1.373464377549913074e-01
-1.520542564657730196e-02
-1.777445015338045831e-02
-1.343121955130823775e-01
-3.567273690211858472e-02
-1.177244800660111196e-01
5.090632445371458953e-02
-1.155150296905761848e-01
1.135516290789166521e-01
8.497168425358674060e-02
1.677538391953582037e-02
-1.389690105630800032e-01
2.955479090976959045e-02
3.468090187575395555e-01
7.336812546470868057e-02
-3.377041787390799854e-02
2.147431260838312747e-02
7.833395560609646147e-02
-1.257714275651781177e-01
-1.632878221547504408e-02
1.899774365901820972e-01
3.719139958108925309e-02
-1.046583715828814237e-01
-1.336577078335656789e-02
1.033172716571563315e-01
-9.103804634101238247e-02
3.469950763088627821e-02
2.692551588253355166e-01
2.647652559556201365e-02
-6.247454994297287068e-02
-1.067594751180311469e-01
5.930935324572749606e-02
-9.775849646784852409e-02
-2.677250332212334147e-02
1.325341490984651149e-01
3.378386602527854582e-02
-1.344150545184517875e-01
-8.350153187192479315e-03
1.165799324554738364e-01
1.088455707200734757e-01
-1.826160864105836057e-01
-3.480926958754346212e-02
-1.462295080460271866e-02
-2.277263709260007526e-02
-4.838610610361582937e-02
-7.395656168901813127e-03
-6.064974302796070221e-02
-2.077149235353887569e-01
-2.210627733800872574e-02
-4.990268951583777535e-02
-9.238893600350923940e-02
-1.056502720347826663e-01
-9.042349813733151220e-02
1.405652509649713278e-01
-1.040196703581978271e-01
-3.916648109920720100e-02
-1.257927982112138632e-01
2.212330291355215153e-02
-1.311642773588228839e-01
1.513850189023000503e-01
3.074795082913757416e-02
-8.704279562424510619e-02
1.193497502317789477e-01
4.193493310341762925e-02
-2.146063465012797156e-02
-1.418222904138043659e-02
1.040603132858683583e-01
-6.977182214672443539e-02
1.248673926514993759e-01
-1.688881260545150864e-01
-7.367940480228565847e-02
-9.711376533641331854e-02
1.680474764928555631e-01
-5.752248746137210433e-02
-9.789155885692994719e-02
-5.428892613720969623e-02
1.093591145037311196e-01
-4.719857762792183803e-02
6.564243760908464176e-02
-1.337477300028436233e-01
7.496585534860830680e-02
-1.024564044540760971e-01
1.780458751758901004e-01
-2.059236847963650044e-02
9.943173222054227378e-02
-1.988285265243344979e-01
4.291722793868947561e-02
9.168455634546622546e-02
7.773347829500594497e-02
1.729326804289804120e-01
1.111795608249726147e-01
-6.322913493481867320e-02
-7.888712936729498637e-03
9.214859232243963194e-02
8.877365329040566577e-02
1.993802066068495193e-01
3.023680553627106082e-02
1.275581336135801214e-01
1.038880152586254685e-01
1.906665605507305850e-01
-1.167900455115746805e-01
2.346073203687183972e-01
-2.957440654123073831e-02
-1.927596157686035649e-01
-2.363241621479806112e-02
-4.305059656237845700e-01
1.324004997235943837e-01
-2.445143515045506699e-01
1.178420222522816446e-01
2.954623291766191040e-02
-1.073566088310527189e-01
-2.647892182896440794e-01
5.365575336430247755e-02
5.768065197519649523e-01
1.456765382522908492e-01
2.434966481584151590e-02
-6.409648192155777136e-02
1.791946582383159223e-02
-3.685456452021139695e-01
-1.425710278419367871e-01
3.967255988549309720e-01
-2.915053212590240465e-03
-1.733954086738016542e-01
-1.145738680320662062e-01
1.124669251708989987e-01
-2.013673838954738171e-01
1.192777334463409646e-02
3.290039145282440125e-01
1.114710794269329064e-01
-1.573600463876661526e-01
-8.229334587391004541e-02
6.497670614522285150e-03
-3.000144046643082874e-01
5.655877340916409812e-02
1.160571161179596994e-01
-9.315287864689355060e-03
-2.287560155514611893e-01
7.373679142927705432e-02
1.626412204670015516e-01
1.094830564221930813e-01
-3.299582019741800210e-01
-1.180785602718368577e-01
-3.940538425350531559e-02
1.608691876301290846e-01
-9.001881514755957769e-02
-4.259636713095029011e-03
2.018852730914356269e-02
-2.270640766398590582e-01
-1.193264427104375434e-02
-1.802649194751150818e-01
-1.725066484334076000e-01
-2.136045992107952485e-01
-3.661044134455609250e-02
4.283000458758067786e-01
-3.555893810889393380e-01
-4.767455114350735434e-02
-8.985814912402707855e-02
-1.221733984648481486e-01
-8.841524194955074911e-02
2.139884671823766016e-01
-7.716701901325519718e-03
-2.078588731977122628e-01
3.487133826122511271e-02
9.269400613709120884e-02
-1.235408666931967631e-01
-2.865159888035737623e-01
9.688384489926464560e-02
-2.818894023125743109e-01
4.104917412287830553e-02
-2.260166894685768924e-01
-1.079373348440403058e-01
-1.281782128788004904e-01
2.321849943615382494e-01
6.799983371663147202e-02
-1.999160650045008203e-01
-2.461403759111469719e-02
2.673811483571568726e-01
-5.613797985611637675e-03
1.504432705298289485e-01
-2.027869753792895802e-01
1.947776208529579389e-01
-7.474630095568995936e-02
3.333478449417304756e-01
9.605089378681141987e-02
9.196345164765813707e-02
-1.406260028310538923e-01
-8.211871843177927580e-03
1.910717640185033428e-01
1.260380449365701427e-01
3.463608400378212493e-01
2.535617086348755378e-01
-5.002639159358124310e-02
-4.199471386653294558e-02
-1.377917743554064323e-01
-5.937091683687312216e-02
6.808145348532250452e-02
5.896900188564239281e-02
5.725675818652329468e-02
1.280122871989104183e-01
2.059670186278053094e-01
6.308122427216261707e-02
2.800285392923824307e-02
-7.204120738718508554e-02
3.165704409514737833e-02
5.191177016522618287e-02
-1.626174282550658101e-01
1.052785042647453873e-01
-1.487733695904493725e-01
1.771271721194687607e-02
1.775230437918554061e-01
-2.764335613938354377e-02
-2.214845179683398030e-02
1.368952830417878852e-01
1.406545216452385338e-01
1.308824653320931897e-01
-8.097732612738794966e-02
1.671654677540271652e-02
1.293449535652783644e-01
-1.191995870300063126e-01
3.544347343688795948e-02
2.380750322159336796e-01
8.508779923532305833e-02
4.216804036408550865e-02
1.350174987049410080e-01
-3.909882840056420200e-02
-1.616194776835377933e-01
2.008015191335350835e-02
1.351854607268406783e-01
-1.578262048773400447e-03
-2.723684041871226105e-02
-1.573540260447510719e-01
-1.671386903968088422e-01
-1.955298604094730386e-01
8.295119461026843888e-02
-2.475490695682895648e-02
-1.068597497582019495e-01
-5.858797144841445051e-03
8.557274694832259221e-02
3.251192951300135164e-02
-2.740465424704359096e-02
-1.115982187808383652e-01
7.279535242033965958e-02
1.028925481857881491e-01
-1.743820935103032599e-02
7.001200142890028066e-02
-2.056289156120044356e-02
-4.430434380728839238e-05
-8.771581050876112867e-03
-3.055809350383078757e-02
1.863250261947583392e-02
-1.489967874703409800e-01
-1.730356416859587798e-01
-5.669912829557961081e-02
1.355007682588247331e-01
-1.306798989861245319e-01
1.058918429351289603e-01
-1.392024087335032578e-01
-2.041862978822671371e-02
9.094760504057821868e-03
5.819486782334824110e-02
3.715969404154587097e-02
-7.229242875009950220e-02
-1.794789654706573090e-02
1.334667157139605119e-02
-1.580600341309618684e-01
-3.496308723329585172e-02
-1.751979036517249330e-02
-1.809158364370704597e-01
-4.774552295020212389e-02
-2.932564399092720334e-02
-3.427017111224084367e-02
-9.189931202835710522e-02
8.704803483733405955e-02
-6.320943229012720987e-02
-1.355583521518462786e-01
6.802364345301530058e-02
1.466023186894361563e-01
1.587869148139594011e-01
2.281058035729747330e-02
-1.780308335008591036e-01
1.267182158659000968e-01
-9.336321456681026532e-02
-4.479445138011729777e-02
9.778267236235951843e-02
-1.873800749268120930e-02
5.387745985816429911e-02
5.863459876852459424e-02
-1.642262044563898640e-02
8.548443388296821099e-02
8.160784768576888337e-02
1.523030063167570003e-01
4.302430698213004223e-02
-1.185917720613861442e-01
-4.316165396123167880e-02
-1.436502081507171624e-01
-4.267109833294255306e-02
6.921135743498259274e-02
-5.558883712197286962e-03
7.322581774376839270e-02
1.922670264726556444e-01
1.253159746289133347e-01
9.441437370360153403e-02
-7.724423276390847415e-02
-7.860562408800978937e-03
9.525868325716820018e-02
-9.047472610330015153e-02
4.263547363312045722e-03
-4.154942571029596188e-02
2.406250952209471397e-02
1.703594692839802138e-01
3.186652965018456352e-02
-8.912474917356461024e-02
1.668486514404174392e-02
1.328125514645692729e-01
9.101359646814560778e-02
-2.672747969709546312e-02
-2.045005744683188464e-02
1.615385012920450836e-01
-8.824912818925728653e-02
4.194632875497223551e-02
3.352007353781549792e-02
3.359101647627227294e-02
8.633087469791747570e-02
5.934016511471731925e-02
4.246745858074015001e-02
-6.759028566287517137e-02
4.981696846538655188e-02
9.627379865019260186e-02
1.391015022910934984e-01
-1.282026223368647466e-01
-2.293577666671374818e-02
-1.056064621260293102e-01
-1.198085854434432218e-01
6.004998918463524266e-02
-9.626629251753232239e-03
-9.617959052487597138e-02
-1.105501443483251911e-02
1.551532746273238950e-03
1.006972342773721080e-01
-3.149550003673966259e-02
-1.347672042174829221e-01
6.294988517379718207e-02
6.610820453197986668e-02
-2.980017936031978051e-02
-2.614131445132903634e-03
-4.860083690786505539e-03
-3.442766812516307590e-02
-1.108305436990172921e-02
3.022990679206946640e-02
8.875565704327523231e-02
-1.141934296313460023e-01
-1.722367957756356927e-01
-1.194060638153553039e-01
1.096157013040675865e-01
-8.655114758677706632e-02
4.194709038350997315e-02
-1.093561808289915949e-01
-8.157680650186613369e-02
-1.195709268797307337e-02
-1.782623981246633099e-02
-4.996310294135738322e-02
-7.774686047920183196e-02
1.154782775075712149e-02
2.462747052604380427e-02
-8.880997827550299317e-02
-7.888192803805162134e-02
3.214151937100427625e-02
-1.188546215807436274e-01
-2.213789372590228496e-02
4.045410754922110913e-02
-5.479014732186202052e-02
-4.928558996651195151e-02
3.701539557923640145e-02
-3.447998720279898954e-02
-7.826447872898671665e-02
9.058992671947853348e-02
1.618688572484954791e-01
8.942343786610201795e-02
9.196824109133093506e-02
-1.729967193810836579e-01
5.961911753667185898e-02
-1.630607278061435017e-01
5.750667961031860620e-02
4.587964586448795012e-02
4.177872093542839282e-02
1.053840694868139055e-02
-2.395824022472287790e-02
-2.917646874019757738e-02
1.067392483136154202e-01
6.755101257472553855e-02
1.282287649733263035e-01
1.149981519257394919e-01
1.499297195934347904e-01
-1.849518208461794211e-01
1.018428658053956021e-01
-4.694138879379175511e-02
2.249986849996381266e-02
4.289451069515579085e-02
-1.905919526729059690e-02
-1.568349736351492552e-01
-7.547092363372384649e-02
-1.451378880452488251e-01
1.088898462001402188e-02
1.333670187647120475e-01
-6.975428462174364241e-02
1.029576746803975576e-03
1.420672927310256128e-01
-1.992327293800225108e-01
-3.941228685492739053e-02
-7.305054821326815995e-02
-1.487321728672804100e-01
2.295656852115655067e-01
2.114445243718355849e-01
-2.869283186336150093e-01
8.679996367558612258e-02
-1.251487295483263151e-01
6.224169641039715983e-02
-1.091152350557648143e-01
-8.106496186605026411e-02
-2.260871535519222777e-02
3.112923796372593643e-01
1.478189048538373074e-01
-8.432383401308124471e-02
1.451971316635849996e-01
-2.305518140101460445e-01
-1.686710067579121619e-01
-1.122539584692721498e-02
-1.274013895745957914e-01
-4.767166153642402593e-01
2.587762943348168587e-01
-2.112003439691141626e-01
-1.861764116486593623e-01
4.396170786937842606e-02
3.729216693707849278e-02
-1.010861854976900787e-01
6.333706638077878093e-02
9.029371755063023142e-02
-7.783896910246970897e-03
-1.641165343111684605e-01
4.806316855976781183e-02
2.069120906596677578e-01
-6.148459893391631723e-03
8.695232413409331729e-02
8.884470310270396742e-02
5.207980726590610843e-02
2.558748645282311971e-03
1.374167600127100541e-01
7.532042164750059332e-02
-4.743815867888522692e-02
-1.468342379503192741e-01
-9.500375041941076792e-02
1.244480418398222904e-01
2.131723150047031834e-01
7.271277791353876474e-02
-4.878433674998046421e-02
6.520601052301333578e-02
-2.961829381509231002e-02
-2.125711354458146435e-02
1.438267828830922523e-01
3.399597905927290165e-02
2.033572645042293348e-01
7.290968904666091099e-02
-1.980634618119725132e-01
-6.003039291771872232e-02
-8.947583953381135768e-02
3.509587319982672426e-02
-1.377631547357545672e-01
-7.898072807119101146e-02
-5.775314582332630869e-02
-1.474851852467795599e-01
1.384413416351253923e-01
-6.744370712091235509e-02
-4.325727044867793553e-02
3.341790917487686557e-02
-5.938851754001021888e-02
6.711677511732347390e-02
-1.219016975660082297e-01
1.661039836935012670e-01
-1.981677931422592409e-01
2.147422784955391739e-01
7.315675256718155717e-02
2.548577613622747817e-01
-3.688735010189998498e-01
7.666553243938876994e-02
-2.350350493635731397e-01
1.921426776143167481e-01
1.093692358821226895e-01
3.390006086986204620e-02
-9.725462434598378114e-02
-9.939518975502593945e-02
-7.699534017059699031e-02
-1.004451075595019088e-01
-8.238264866889009885e-02
-4.074358395986850401e-02
-5.073463496655949978e-02
9.462130420288109023e-02
3.193665314385490256e-02
1.146330426758472992e-01
3.873944543559999093e-02
1.637477953014484233e-01
7.228495793621225740e-02
9.887720026523129369e-02
-1.161132467238837757e-01
-2.821869708182178985e-02
1.060850432322615333e-01
-2.022593037863605892e-01
8.763956439826227351e-02
-1.787661250529033186e-01
-2.723981965702694866e-02
1.327204496769599784e-01
-7.675745081637770639e-02
-1.498954197787749631e-01
1.260084352075029612e-01
2.325497085515693396e-01
7.407293613236200225e-02
-8.919397645310535305e-02
-4.536049818611798470e-03
1.000971196875208302e-01
-1.899883681044942929e-01
2.471139386308035188e-02
2.130524422569220477e-01
3.234114073221949076e-02
6.430784143386650276e-02
5.003673616388411294e-02
2.221339873893059605e-02
-1.871203355042386773e-01
3.402135860733888906e-02
1.845545882422969519e-01
7.693230176541761278e-02
-6.606078527226338926e-02
-9.263726709267348924e-02
-1.105215256819476466e-01
-2.153916740318128353e-01
7.439596927478549226e-02
-4.630622025448719731e-02
-9.432462350355354241e-02
-8.728998207466329151e-02
6.368072582438258356e-02
2.205612688134631766e-02
-1.009534732349063636e-02
-1.899745205172800044e-01
3.164295396136038857e-02
6.711912573703922302e-02
4.191590764884609716e-02
6.324410195977523200e-03
-1.175132288373846069e-02
1.997694662604690419e-02
-4.665595332963776154e-02
-1.270576407436195369e-02
3.521264121915494705e-02
-1.024403608036313501e-01
-1.786282297356752979e-01
-4.674632977481681280e-03
2.152643032819030466e-01
-1.602682495034151444e-01
7.609837621444175138e-02
-1.519036811656688801e-01
-5.682946999967046497e-02
-1.328001703994860982e-03
8.120697808558662023e-02
-2.429153561083150989e-02
-8.858385023149324689e-02
-2.488117403346105233e-02
8.488222086961072499e-02
-1.485441453681123902e-01
-1.023145905383354426e-01
-2.857302656172429692e-02
-2.143362589167815135e-01
-8.298896075010116224e-02
-9.643298177044571512e-03
-2.766874042367756595e-02
-1.051274852829199857e-01
1.232572043869756689e-01
3.462844961878366185e-02
-1.336956269872112413e-01
7.548067388096024732e-02
1.882440442280642334e-01
9.028489747623291706e-02
5.500800757434252258e-02
-1.848123310084260340e-01
1.574418816587254966e-01
-7.701630199332347437e-02
6.648427315666978477e-02
1.126793601573616854e-01
4.236141441811378666e-02
-8.342795963759077824e-03
-3.400148709269053965e-02
-1.475608444769054050e-03
4.408791954398461749e-02
1.085924467114342540e-01
1.633113351712074390e-01
3.923466782056017621e-02
-1.473472462985578671e-02
-4.054677224841531785e-02
2.789395063944805769e-02
4.569125527816993160e-02
2.646446517474348656e-02
3.224397636301770675e-02
5.603571498840764081e-02
6.110688167481347077e-02
-6.049492469278327372e-02
9.525722043492380886e-02
-1.280324668813120209e-02
-3.881453026127796441e-02
-4.520020170341829124e-02
-1.537417201371941433e-01
6.162055082862635119e-02
-1.309866821239538959e-01
4.771929784145977071e-02
-8.700568703432458653e-03
-1.934302803415156174e-02
-6.342921299547144010e-02
2.967220963931873137e-02
1.085194223199211216e-01
9.318860882053264794e-02
-1.789785667847614697e-02
-3.127542138184325610e-02
-2.096363532849812583e-02
-1.319131220059672760e-01
-4.978864590335076862e-02
1.779936171052058924e-01
3.655807982959121544e-02
-7.481939971689197111e-02
2.394905005803689250e-03
-7.062457751596409525e-03
-9.293799325002947975e-02
-2.466027915245206856e-02
6.894042750297184330e-02
-2.182733472255094301e-02
-2.307506134188485811e-02
-7.581986398696304030e-02
-5.776723382814982072e-02
-1.031914371967896094e-01
5.951297694679120315e-02
8.221513429252345212e-03
-3.581147437868970745e-02
-2.478669405100236353e-02
4.330678012094986429e-02
5.417257037806433306e-02
4.699308809425494643e-02
-7.084787046724022597e-02
-3.164352578393354182e-02
8.449656420694492964e-03
7.127402538286482792e-02
-1.531047701099352842e-02
-2.631745033480516541e-02
1.534547810357049860e-02
-6.573088194961537734e-02
-1.417624894979976555e-02
-8.718282924474840545e-02
-1.144456482971895478e-01
-7.896107493382338582e-02
1.068742866993917066e-02
1.440475572562457673e-01
-1.638162759444711791e-01
1.121151231882480670e-02
-1.200037653064275900e-02
-5.024669842759828947e-02
-9.433092529279664060e-03
4.069679475337324021e-02
1.580672315708267495e-02
-7.927400137415677173e-02
-4.092210826328613466e-02
-1.022175769949448289e-02
-9.396047651701706915e-02
-1.123608208968052136e-01
3.108442889280885885e-02
-1.176047831408127131e-01
-2.054457776067758479e-02
-1.138384477583943843e-01
-2.581145743499344697e-02
-1.253343172667068829e-02
6.695902836280775983e-02
1.636683198394179445e-02
-8.142292471817300092e-02
1.985465580279457617e-02
7.890122011102312927e-02
4.174334559634786807e-02
2.639863189117128139e-02
-3.543181970846375622e-02
6.910786436430235713e-02
9.481583935628201676e-03
4.958164153706513116e-02
5.172976288312349652e-02
-1.599995666172334199e-02
1.742911328788443112e-02
3.484233702744260475e-02
3.723489112521807115e-02
5.859839971273609477e-02
8.067283081421736113e-02
6.534215771695200958e-02
2.273380577942183192e-02
6.736411995465498015e-02
-2.724821752182856119e-02
9.588209262122364407e-02
9.680113918500160564e-02
-5.091755299410465063e-03
3.539216760181849303e-02
4.514550985545438822e-02
-1.201548403781180045e-02
-9.399051807123154356e-02
3.094038179597824803e-02
3.035101014585632473e-02
-6.297038659235400238e-02
-6.304424488958493278e-02
-1.601718691797676675e-01
7.185768510611513504e-02
-1.498867003432408640e-01
4.828713887555342865e-02
-4.236037112266251986e-02
-5.366206749134642268e-02
-3.785549582544230768e-03
5.443475198408365828e-02
1.038230098897293951e-01
7.142637388670196319e-02
-5.970310679735117525e-03
6.591561970109337601e-03
-3.963524892063726573e-02
-1.425928982701302750e-01
-7.775958402276403336e-02
2.331317257447231561e-01
4.357310617991878160e-02
-1.174046920299471469e-01
-1.776046190764048183e-02
-1.395463787733920193e-02
-9.108751259237451992e-02
4.246697238705210778e-03
9.745078531958546730e-02
-9.996604163910913221e-02
-4.518619595959982513e-03
-8.998618169806459066e-02
-2.608225358347445247e-02
-7.322614340774326325e-02
2.602182459404369166e-02
4.200892747502514568e-02
3.946813202220597616e-02
-3.858087102900200488e-02
3.517693448640266812e-02
1.139134026099305856e-02
5.078141048538817315e-02
-5.807639320665842347e-02
-6.958526730401361216e-02
-5.858153498699341863e-03
8.685769303612844716e-02
-4.028319446801714721e-02
-1.066993129156304683e-02
4.103431992626044994e-02
-1.070551976314792902e-01
-2.748722516906977609e-02
-1.486997963050359639e-01
-9.703918940455341646e-02
-3.506503760245718859e-02
4.483002708303549660e-02
1.430888505068297623e-01
-1.483642627616659493e-01
-3.105696576213390001e-02
1.814723049450534323e-02
-5.048537749673147335e-02
-1.785475800632191010e-02
7.507280021052525898e-02
4.566285303980050642e-02
-5.469411846791819021e-02
-3.133990914079140544e-02
-2.630609609590045181e-02
-5.666150627178913324e-02
-1.078889861921877025e-01
3.171529376219355684e-02
-1.049336846743983837e-01
3.257639488854613408e-02
-1.609029018717304804e-01
-2.643068290177788202e-02
-3.675082550503010886e-02
9.201538118027918767e-02
5.628078693753394909e-03
-7.291950048675062412e-02
-1.977492463347346394e-02
3.521479197330020655e-02
2.388713568522437061e-02
-1.378917469198041867e-03
1.877489874539243347e-02
8.710235373189065267e-02
7.515300061674785870e-02
4.079993776885691009e-02
3.334904232387095324e-02
-4.299502703545179938e-02
5.148685331054116479e-03
8.202215628570333483e-02
7.768939150474034327e-02
1.176668220434268046e-02
1.118223679441719409e-01
4.075511654375944814e-02
-6.272943918042708789e-02
-9.015366253312896705e-02
1.607858589110993108e-01
-4.469003266577357969e-02
2.033711757442132062e-01
-7.787962708190817457e-03
1.488823560786051506e-02
1.181045941076002137e-01
2.405163582189054905e-01
-9.178612440207971346e-02
1.343324584240607467e-01
-3.042813731783718112e-02
-2.149794195950389952e-01
-2.933725815446494491e-03
-1.899756906078342023e-01
-1.281731677660285715e-02
-3.742627917615740096e-02
1.457716732874502208e-01
1.126883687830309427e-01
8.579851165501853338e-02
-2.892148484633901284e-01
-1.141200678055651202e-01
5.940040755497516534e-01
4.313538346732431056e-02
6.838779734841610169e-02
-3.487945412203768275e-02
1.237845254590070054e-01
-1.234347301465241742e-01
-5.366631585581742303e-02
4.182550445214730517e-02
-9.454089979392775456e-02
-9.016493385116639003e-02
-1.272309017075882176e-01
2.350376097482886339e-01
-1.425128012102239161e-02
2.826455885020769804e-02
3.610556281994446448e-01
3.271088084890907965e-01
-2.532699584515329949e-01
6.380380900223229027e-03
1.674034105369727188e-01
-1.930203087845185905e-01
-4.903188073117623752e-02
1.745832295038931281e-01
-8.671982820825038102e-03
-2.046972135613818744e-01
2.297851802030579510e-02
2.491016959293263500e-01
4.357257305233269706e-02
-3.342872822160869450e-01
-6.313032116613430389e-02
-6.064582420022925774e-02
-3.022727751884120295e-02
-8.286706147178851678e-02
3.781587082825694102e-03
-1.342119862399729913e-01
-2.446857189092145612e-01
1.173944427866989784e-02
1.074063541294569338e-02
-5.554711702840579857e-02
-2.169996567028396051e-01
-2.013716285245350512e-01
1.905510254687444727e-01
-1.014732331640626761e-01
-5.601910509001023497e-02
-8.361580545945347664e-02
-1.160774528168755527e-03
-1.926877736860100332e-01
1.302149660577214263e-01
-1.189990242851591967e-01
-1.636871609465158639e-01
2.412083082788297472e-01
1.004673693281843694e-01
8.445544052467317958e-03
-1.091437667477229145e-01
1.576851923815635048e-01
-3.712401574472167648e-02
1.658030708226817806e-01
-1.130016408797044625e-01
-1.427913275076155564e-01
-6.646022468818632567e-02
2.321251817545632312e-01
-3.374116454658510761e-02
-8.217497238323336062e-02
-8.525563448524246801e-02
2.314484587718287079e-01
-1.295806404471852302e-01
1.876061254288201030e-01
-2.927599393965636954e-01
6.386987431601236220e-02
-2.437338970719541698e-01
4.647280685847658965e-01
-3.070537874573944781e-02
2.609957695181573389e-01
-2.732491087393706941e-01
-2.518576749794216446e-02
1.065802011175686348e-01
1.803364310407220006e-01
2.944620869775113614e-01
1.924382773677879854e-01
6.891238541191702614e-03
-3.190698181976828890e-02
4.706580926440839981e-03
2.148288053565578556e-03
7.079713679200293208e-02
2.330377642121999118e-02
4.300062027572104650e-02
4.301643541928965031e-02
9.717859214377609633e-02
-5.046074294494634627e-03
1.163105707666268751e-01
-2.538234838534966439e-02
-5.102398931054939052e-02
9.490050041637559594e-03
-1.645717426413104145e-01
6.147283173122465583e-02
-9.205838350009218352e-02
3.296825379548324469e-02
4.476538342601842080e-02
-5.190875848506153883e-02
-9.633386738460197884e-02
4.543496559827748388e-02
2.009990193467539876e-01
