5.496164481809500540e-02
1.214093498109995450e-01
-5.541091731401959555e-03
-1.596690185873137977e-02
-5.930411294403523104e-02
-2.206316877838860047e-01
1.901493679525954883e-02
-3.170067817188218506e-02
1.544956229978758540e-02
1.537703941983617657e-02
-6.415525467882193800e-02
-1.622626587128175521e-02
3.759868362454522189e-02
-2.284298450989586532e-02
5.591288698900379051e-02
-1.416991588987713824e-01
-4.363786544552217261e-02
8.652232992545538792e-02
1.501247143979040632e-01
-3.130992022118493645e-02
-6.115379084429130307e-02
3.449389785594111912e-02
-6.902388446678403219e-03
-8.389694668522051924e-02
6.253631135985088241e-02
5.277257397835092428e-02
2.209285915552645571e-02
-4.555451029523145678e-02
1.137746266710172177e-01
-1.234073682093749236e-01
5.944803887042739154e-02
1.021203895083394944e-02
-1.858933114110881968e-02
-1.151115682561681536e-01
4.567726354143831699e-03
5.717008454743698759e-02
-7.631985698840727805e-02
-3.603564356381661060e-02
6.215079854656435643e-02
-1.135377102917261086e-02
-6.885922092187139743e-02
3.762448767636113883e-02
5.306121904365671341e-03
-1.042461273087035428e-01
2.678586350386047421e-02
1.932161735877557796e-02
-2.714607440632955254e-02
5.527352777992219218e-02
1.149405593021804971e-02
7.812839779080045510e-02
-2.470650922439997926e-02
-9.290042607444484735e-02
-1.027256906811085252e-01
-1.245248307439703744e-02
5.217023032799007060e-02
6.241004402925448558e-02
-7.023608594025071428e-02
2.499654567951187928e-02
5.594875341741822883e-02
-1.188837085467674554e-01
2.732352634863143351e-02
5.059414172080495958e-02
-1.308529132004186864e-02
-5.630261455261566239e-02
-6.224739006398494201e-02
-7.446480750180860253e-03
5.497431226044787594e-02
3.599974436963999935e-02
6.928317256868303520e-02
7.659265573964905288e-03
-5.331894910475175331e-02
-9.334519945600468910e-03
2.768163601762870657e-02
-2.007556618790299133e-02
9.227894504991278335e-02
-5.397444990377386898e-02
4.559242842797965600e-02
4.740143321124656861e-02
-2.354316998492121671e-02
-2.188520337065118920e-02
-8.060209137784116185e-04
3.407465189048685533e-02
-5.061096226329284825e-02
-1.235841671652630619e-01
5.164130336726294873e-02
-8.695020106916392932e-02
6.823338354349364754e-02
-7.157914911887029892e-03
-7.277055064549198260e-02
1.123021121127103644e-01
2.512488274621293635e-02
-7.737653609682644366e-03
4.306677849476411163e-03
-7.643712113762507476e-02
1.224689251695786595e-02
-6.910626515284820637e-02
-6.903527419095949191e-02
6.775151848217363104e-02
-1.233779777123011380e-02
-1.765141010040227956e-02
1.382656069438292952e-02
7.024973645686193036e-02
1.556841576088229158e-02
4.412925495309679563e-02
-6.453354339748973434e-02
-7.085597848511339392e-02
-1.458939561027126387e-02
2.409222777263086285e-02
2.506371491679754062e-03
1.131565431697722363e-02
-2.615928355810533124e-02
1.701405627459006906e-02
4.136957528158313746e-02
2.938480694418797896e-03
3.276171473062082376e-04
-6.707125838185003242e-02
-4.448830327083347358e-02
9.415926676595914868e-02
6.979689353113821548e-02
-6.770127567079972089e-04
-1.691313511470680757e-03
2.914377941007271003e-02
5.285428620815492418e-02
-3.760994722763005838e-02
5.822183420794729836e-02
-1.184473829359027237e-02
-1.104732264933859336e-02
-7.370571796704766809e-02
7.564798706975899879e-03
-5.358889422419800541e-02
1.003393381561188819e-01
8.557855741611011813e-03
-2.770814553720373982e-02
-5.986439119942619375e-02
-2.209953048305646900e-02
1.462895578631064411e-02
4.088523805293007782e-03
-6.716243228001972550e-03
4.930801141393165166e-02
-4.048530001843494291e-02
-2.940098225891920117e-02
-5.900866387716454699e-03
-1.256199674523781479e-02
-5.082336905572177460e-02
-1.834228006863489191e-02
2.782947552005925890e-02
4.276328546551547323e-03
3.039236276896460642e-02
-6.318048133206174977e-03
3.372951026586760298e-02
-3.761427809533043898e-02
-6.398536769424911785e-02
-4.700100557716357930e-02
-3.650102572398117307e-02
7.140856176472343275e-02
1.025815019135337819e-01
-5.288029075035485284e-03
2.745877739744173943e-02
2.045583394886054535e-02
-8.416861820431199848e-02
1.992187906476856549e-02
3.934772625091361581e-02
6.922673870123596503e-04
-3.976418054574767241e-02
9.124771361433081651e-03
2.811425016051373980e-03
6.457860253597404177e-02
3.899243908172998069e-02
3.259358909954804956e-02
7.563594794499994313e-03
1.739165733948148940e-02
-2.695409076799204842e-02
-1.212712366984909813e-02
1.529961139875313410e-02
3.179633461099690139e-02
2.458048480558632648e-02
3.671840391379275342e-02
2.174232709790050247e-02
-1.413258455351994354e-02
3.223343273377411462e-03
-9.656830987926814935e-03
2.890943844738900689e-02
-3.176600645124435379e-02
-1.356759746963364169e-02
2.894807114926643138e-02
1.964936044922923133e-02
5.264045605771853348e-02
-1.141614317920960214e-02
-2.034667268942422919e-02
1.146406798028541119e-01
3.436195324214975466e-04
-2.633866383615000167e-02
3.654841460047584482e-03
-5.615838444295048748e-02
1.975093557459189301e-03
-3.651004071927162892e-02
-2.305645533133977507e-02
4.926767075131305296e-02
-1.182962663642675438e-02
-2.643713326073966752e-02
5.489933944310362336e-03
3.843823543546205646e-02
1.768271256345825895e-02
1.391440231650729366e-02
-2.051177173210106883e-02
-5.196982810525661162e-02
-1.502910524918317677e-02
6.147759821743867432e-03
-4.786827356068772132e-03
-1.590472491850700165e-02
-1.467974591868418527e-02
2.356094269872865792e-03
3.376225198526268401e-02
4.563607053759660692e-03
1.927096336194723120e-02
-1.218087579135185110e-02
-2.065526053717003235e-02
3.330987711638359883e-02
1.696395605762689857e-02
-1.103222665031864357e-02
3.970850234358465521e-03
1.834764621644068006e-02
3.041553082704835306e-02
-4.201294665081419660e-02
3.887522985016509530e-02
-2.580034218044362226e-02
-1.141172587030689703e-02
-3.305552091875189197e-02
-2.854810769690505502e-03
-1.807303537638822732e-02
5.240675139570923763e-02
2.920825307396812155e-03
-1.628727470056888851e-02
-3.337853273381299196e-02
2.442164660848025314e-03
8.440661252048387714e-03
-9.190661441752704872e-03
1.333531151344896680e-03
-9.624175924601860790e-04
-4.242456249402621477e-02
-2.502181383176123319e-02
-2.487120204574603784e-04
-7.256179795021984631e-03
-2.399581508660106680e-02
-1.966884390683240266e-02
-8.370283001465521344e-03
2.294309044520684293e-02
3.350252734824681056e-02
-9.347169155021895284e-03
1.329210177727917913e-02
-5.202148821308606730e-02
-3.906124368233044458e-02
-1.984051455889336221e-02
-1.899705075566669732e-02
1.257560249384749931e-02
3.254211163982759225e-02
2.611729334738951535e-03
2.117966095674377047e-02
1.205177566668807695e-02
-3.818292203304175791e-02
1.787436710698083950e-02
6.575400537252733095e-03
2.070239525578038316e-03
-5.723016738005688719e-03
2.229186130792806114e-02
-2.356035325857299897e-02
4.790488208167098527e-02
3.478344893043772840e-02
-1.308329211561934423e-03
3.299764330809091878e-04
7.617402272479961885e-03
4.196596453703008676e-03
-2.276390798160165749e-02
2.580140436960838904e-02
1.140032011331717880e-02
-2.020805071740294778e-03
9.441299484061173308e-03
2.131213030968471395e-02
9.005722201605144764e-03
7.796738183067853517e-03
1.027248589475908067e-02
-6.183576372167932413e-03
-2.767075296112502317e-02
-1.183536912500126985e-02
7.434256804846810923e-03
4.026401659219296103e-02
2.426942615474365905e-02
-5.590509314077721746e-03
3.261705200113913447e-03
4.913318257184682430e-02
-2.711768159888063544e-03
1.583541649445532190e-02
1.357733638508720579e-03
-9.451165764864008154e-03
-5.579662907757413498e-03
-9.068673717407080975e-03
1.269047587507289056e-02
6.920944933232680424e-03
-1.147433451323048338e-02
-6.502674283050824053e-03
-9.358987342345810589e-03
-1.333114006996482864e-03
4.251130238425314747e-03
-1.309581520177490604e-02
5.236728646920904388e-03
1.547688177841640474e-03
-4.541234933665382750e-03
5.804654919421066428e-03
-5.670498043559047373e-03
2.537339663576278562e-03
4.757431594695524062e-03
-1.194552450007369676e-02
-1.289292632699040250e-02
-1.344700887546085820e-02
-1.074719171027111939e-02
1.785595373873868560e-02
-4.507983283304432993e-03
-1.079098520920904842e-03
-1.290050387390687288e-03
-2.630605330336772962e-03
-4.009816030975128093e-03
2.640022989851732033e-02
8.249784158672437626e-03
-4.645625866840472247e-03
-1.894875291629254804e-02
-2.425152494460591779e-02
-3.885433437659138733e-03
4.387819462370182340e-03
-1.550559548876896156e-02
8.845093006773505420e-03
8.708169057137053748e-03
1.269926655376096706e-03
-1.424765792262373126e-02
5.572014544004999168e-03
3.385324632124094707e-03
9.362875029289669752e-04
1.335705472514807715e-02
1.617368728578953349e-02
2.987217494583774887e-03
9.689314253423644135e-03
1.214076843753149294e-03
2.115149091337951287e-02
7.893765126943570742e-04
-6.542926363553790495e-03
3.643126933538251479e-03
9.867838620499662372e-03
-1.136552540052448816e-02
6.211391371256961939e-03
-9.541895586535628984e-03
9.463534046703990510e-03
3.674747356069318254e-04
1.132272252489669416e-02
2.286854568456276465e-02
-1.080746393869422110e-02
4.346992056032956096e-03
-2.683351991457967860e-03
2.530652597116896108e-02
-3.146451532925394114e-03
8.157929893473235897e-03
-5.952427914381508596e-03
-2.080692723748127707e-02
-9.097579811285346147e-04
-1.850892637820323455e-02
-2.618946835083254404e-02
-3.099761723733176350e-02
6.200060291395577232e-03
4.578338140373773742e-03
3.207082467986371865e-03
4.064407840512107746e-03
-2.235004009727611582e-03
-1.447383229779503067e-02
-1.088943230785422572e-02
1.178931813703047553e-02
-1.841666391881041642e-02
-1.818772224285347856e-03
-7.024537969268532592e-03
1.062687236369248703e-03
-7.578458242131442223e-03
-7.325155886458547920e-03
7.624570528936699780e-03
3.123765862273329263e-03
-5.523017398975660526e-03
3.318170859262906114e-03
-1.929890815791760264e-02
-1.021411558182797920e-02
3.115268088269411342e-03
-3.453304944059396118e-03
2.176846153680838530e-02
1.011863642152208836e-02
1.056243643244894961e-02
8.311321848553616248e-03
3.367621853330773126e-03
-6.079271630997475431e-03
1.121329994076835680e-02
-6.928565386186496221e-03
1.984094999255378577e-03
2.637382192176575615e-03
-7.491671276220332291e-03
-3.674588980968073598e-02
1.226623702939979091e-02
-1.156290008380571159e-02
1.951616952548377183e-03
-3.484461589659519631e-02
-1.794066414409404772e-02
-1.915879746656148040e-03
-7.306955960797437664e-03
4.552700664990547673e-03
3.769940417081853699e-03
-1.660847283784291223e-02
3.827297788011160828e-02
-2.674289872958819213e-03
-7.345853466898061290e-03
-3.396257500706616195e-02
-6.881862287596036271e-03
1.403910152079034836e-02
1.685741271190895757e-02
1.323339947797721149e-02
-9.065712974436488172e-03
1.840347874807046410e-02
2.806907249783472964e-03
3.877433586465404026e-03
-2.162190250146926729e-02
-1.848854345081237319e-02
1.812577901959148627e-02
-3.418820734641148801e-02
1.694621582802023629e-02
-1.978625632403333608e-03
6.965112807135384436e-03
1.903213982044704711e-02
1.178910144197851950e-02
-2.936326974231796144e-02
-1.363356376734161692e-02
1.389610051435803423e-03
6.257914092113848505e-03
7.986033553450200620e-03
2.117254607206125669e-02
2.692765316909204176e-02
-3.774789821069745449e-02
-1.282058197653770243e-02
4.245992345644591243e-02
1.578155226425887250e-02
-1.018820823287748013e-02
-7.904245889602536448e-03
-1.193464529522562934e-02
2.996168272537117622e-02
4.154623828581204166e-03
-3.783608530821684635e-02
-1.609278748925953989e-02
-2.716317101776192719e-02
4.484124382604813205e-03
5.924083617555668535e-02
2.273534163701793759e-02
2.400495046277232453e-02
1.235771756219544888e-02
-9.114233242868906640e-03
-3.764675342323636764e-02
-2.987930099743334872e-03
-1.488163526400654475e-02
-2.648005169911573677e-03
-3.349166065983410785e-03
-2.195679032711624068e-02
1.856339300476566798e-02
-2.957394982912153400e-02
-4.734034574810449050e-03
-3.136902788403428399e-02
2.373059185343360383e-02
-2.575394713235656594e-02
-2.364910505642347366e-02
-3.669846384235988558e-03
-4.090674924898735770e-02
-7.761972618769893625e-03
4.730277168584924846e-04
2.446193382045716569e-02
-8.306337130843150993e-03
8.258538858394146726e-03
-2.617403193456137311e-02
-4.501218962924555950e-02
-5.261225504338657225e-03
-5.316025814895196724e-03
-9.239640086197195568e-03
-5.776882305274995064e-03
1.694947247309952151e-02
4.578430878277113883e-03
-1.832712740853763289e-02
2.245129884587077421e-03
-3.324080233247990457e-02
-2.999251748678596896e-02
2.853043451801987734e-02
-1.662495621839475690e-02
-2.835783512081241353e-02
2.693633074192129315e-02
-4.419627406723081187e-03
2.497333048070944292e-02
1.443331432098858384e-02
8.643405813592668768e-03
-4.467646497114183962e-02
-2.026289717299315646e-02
2.559218963131001945e-02
4.178280211588555199e-03
8.491466769950148374e-03
-2.966713008353682925e-03
2.004095249763815974e-03
7.974628768669965451e-03
-2.764383516568838517e-03
-1.219018484015886410e-02
1.857111693184879987e-03
-2.017674980206787382e-03
-2.349453622651416582e-03
-6.809383717314092255e-03
-6.572875314155100963e-03
-3.752596158070540568e-03
-2.112759576438717063e-02
1.816584234194066130e-02
9.380180271579505527e-03
1.603288443066379007e-02
-1.157986624515470152e-02
-5.702999131571182163e-03
-4.668615352154160091e-03
-4.759520044394181630e-03
1.526315489212448423e-03
-3.854686686407275600e-03
4.102679475131451245e-03
-2.593968594733173441e-02
1.119601871608866435e-02
-1.377500798489867707e-02
6.128456065661581215e-03
1.183040471212775183e-02
-3.640728585503257616e-03
1.918129805508975508e-02
-7.857656466035652966e-04
2.299619508532754417e-02
6.352069327408913901e-04
1.086017223257426347e-04
8.691559430334519498e-03
6.795674155701083782e-03
3.050436934546938003e-04
1.472971033585904720e-02
-4.995405573158256821e-04
-2.383424988658518900e-02
6.404720324234476105e-03
6.961389821440967449e-03
1.159569658324383253e-02
-2.790342879020823812e-04
-3.598191468027723498e-03
9.565451999417742129e-03
3.600585474972227570e-04
4.273131632207180161e-03
2.130590514371929686e-02
-2.729858868850120693e-03
-5.724887797717842855e-03
-4.239449507053097595e-03
-6.408382780121362268e-03
7.754978013197290528e-03
2.288886506830199296e-03
8.238520025117464576e-03
3.299153221281791917e-03
1.146846720246436774e-02
1.647012521729093043e-02
2.103884281969972746e-04
-1.121271494701381278e-03
6.035703762487831456e-03
1.199482966707710561e-02
7.552614204063866528e-03
-9.930982725946978836e-04
-5.720107588877447989e-03
1.382827226072302733e-02
2.826998335822115613e-02
-8.014843026365511131e-03
7.396599926946649008e-03
9.864409225766762254e-03
-5.539729570889648453e-04
-1.251061061374091586e-02
-1.726763054382942026e-03
7.944313448838204172e-03
-1.800184916531168827e-02
-1.434398033883855020e-02
-9.811646722415632779e-04
-1.780642287540551774e-02
-3.470116868380054582e-03
2.142533410901924923e-02
-1.292438994264328775e-02
1.343121470751785194e-02
-5.739201212636672357e-03
6.869014696558924798e-03
5.816334604025940637e-03
1.377915428249654227e-03
2.692773994464722764e-02
2.126694830586994475e-02
-2.225536986832729949e-02
1.327100771195338473e-02
8.912337396264798095e-03
-1.192236059664629651e-02
7.593609639830987100e-03
-1.057793095413571242e-02
-1.874913435356448041e-02
-3.163025792375349227e-03
3.186261691348286473e-03
2.891071730132055775e-02
-3.741630902792973754e-03
1.469977777347379264e-02
-1.413718773818269450e-02
2.809051832964415060e-02
-2.110458602494908603e-02
2.662844579263838954e-02
-4.012691708297318194e-02
-4.306820241560321838e-02
-3.713446587835875917e-02
-8.584488265747036717e-03
-1.606314654141770271e-02
2.709391703590576655e-02
-2.677412682696175741e-03
2.746861713733677809e-03
2.678356703535527544e-02
6.099763437398155255e-03
-1.267626184653730670e-03
-1.747001077912249678e-02
-1.215470391564658741e-02
4.508355581980081489e-02
5.970067028150534416e-02
-6.534338215937862855e-03
5.484093936771238485e-03
1.831597560263691776e-02
3.023202352306030016e-02
-1.365342646005022391e-04
3.140962505716202863e-02
-1.661929964819466919e-04
-4.094063083448618023e-03
-1.422164215922920756e-02
1.070511815049786462e-03
-3.065627433215196637e-02
4.422953032669171836e-02
1.901025523435673215e-02
-1.594621084648797232e-02
-1.581629822899259866e-02
-1.359627855862593354e-02
1.350543621484780188e-02
1.785304452724308794e-02
6.808490564833229175e-03
1.285405443504910108e-02
-1.667283281329182479e-02
-1.182827262766713954e-02
7.592156201172233464e-03
-5.630415182411279383e-03
-2.717162970358421095e-02
-2.248556461517142377e-02
2.089098754094211724e-02
6.384306479647181530e-03
3.569689866675161000e-02
6.992421194552368539e-03
1.009937332633882405e-02
-6.960208802447705352e-03
-3.735145635594285668e-02
-1.805639337383996637e-02
-9.287144988669483736e-03
4.894756633351023817e-02
4.559600485406271192e-02
-1.359994904223304872e-02
1.704848218991850128e-02
1.852257965028147185e-02
-2.490235899202552020e-02
-7.846026714030302635e-03
3.539529681618591023e-02
-3.159306683047445607e-03
-1.260433481874036199e-02
9.205977634530775749e-03
1.682743585482103770e-03
5.495746286719387780e-02
3.268010262078382988e-04
8.714568516918605803e-03
-4.664423418523484972e-03
1.646480951299071627e-02
-2.189540906314078883e-02
-9.863630423777488762e-03
-3.541965871838426323e-03
1.588539594203521380e-02
1.694173348650750144e-02
9.016072701117873803e-03
2.148630627657891964e-02
2.752333396936120988e-02
-1.216486983351764556e-02
-2.766990900183306443e-02
-4.377437018371023968e-03
-2.877020298764607770e-02
-1.485996299303801033e-02
5.005426197083487003e-03
1.131525315630286903e-02
1.157408566039713066e-02
-3.229741554070494295e-03
-1.045486192732290702e-02
4.697201654775127327e-02
4.178639523154157633e-03
6.829317621420365365e-03
6.535394990921844505e-03
-3.105118341080190941e-02
7.487458434388421721e-03
-1.058572163059524028e-02
-1.212738456969135112e-02
3.025475543572479775e-02
-2.099397660054718590e-02
-1.228398837126847172e-02
-1.023589328969706259e-02
-1.157404004322080265e-02
-2.632505154603375082e-05
1.021325069338460331e-02
-4.913132923016629884e-03
-4.587081087919290569e-03
-1.135800732746446162e-02
8.344254032020674908e-03
-1.114744128527963597e-02
-2.103156221324900804e-03
1.514305114797226924e-03
1.245062328457646923e-02
1.459055780396591650e-03
-1.790516623620087844e-02
9.482471461377347047e-03
8.774574729760332287e-04
-1.746607635898389174e-02
8.526083740460073737e-03
4.702282696624832808e-03
2.131961712794338832e-04
-6.232209179795085777e-03
4.369116105363382227e-03
-3.642662194018182666e-03
-8.344639703096451769e-03
-2.494417154855964932e-03
-4.438250519430035797e-03
-6.137526220477775062e-04
-3.157823319251325169e-03
8.588339554483072694e-03
6.261272890263463661e-03
-1.776943921160611126e-03
-3.586511809322335403e-03
7.805014563933421537e-03
1.464368414968584197e-04
1.409654067130837116e-02
1.536496826144642105e-03
-4.178356048073991226e-03
1.036957323806613493e-03
-5.485237983772359160e-03
2.444188638800093034e-03
-1.298031972852353375e-02
-3.570661354451639194e-03
-2.634222442806479283e-03
1.137771561975662454e-02
-9.496194195376892952e-03
1.008986170400181723e-03
3.755466866965886941e-03
-6.449721229519674373e-03
4.004800160201788233e-04
-4.524060335773580702e-03
8.366557658010248880e-03
-5.965442823477302460e-03
-5.099910702708828660e-03
-1.310160067849239782e-03
2.973447275951500088e-03
5.434837519291846157e-03
7.259762815800749336e-03
1.044556235007568050e-02
-5.893129421657293705e-04
8.588498309401412008e-05
1.262395081118484856e-02
1.399048346879466602e-02
6.053983354241048581e-03
-1.611686162426241272e-03
7.493200349546630563e-03
4.931367779159974256e-03
1.691973937538141307e-02
-9.364049347442930649e-05
2.217084583227920194e-02
-6.278025146442427207e-03
1.888785783876323690e-02
1.089612637507541247e-02
3.347133195781771403e-03
3.337510996579106260e-03
7.720696663213681872e-03
-7.736679497104258577e-03
5.206717892205724695e-03
1.291318175963976182e-02
4.895270453204209581e-03
-4.256261234682485149e-03
3.684278244693805181e-03
3.710372880925722643e-04
-2.168751183054985071e-02
2.230689578083015073e-02
-2.200424332471643402e-03
-1.377075855247265716e-02
-1.253827134388441934e-02
8.568094182749497667e-04
1.073405457975181755e-02
-1.798057114500560549e-02
1.048221523477589970e-02
6.201327338684602467e-03
2.497796988131398906e-04
1.331709362165770481e-02
8.735684046382119570e-04
4.034481892270977074e-03
-9.458476650594601146e-03
1.298044100090166818e-02
-6.917827790840846459e-03
7.001982652458974346e-03
1.766867626173499600e-02
3.624103883268691567e-02
-2.774626212342469478e-02
6.657113187048506117e-03
-2.190807209559011981e-02
-2.514108229472016703e-02
8.954701834350755826e-03
1.969682125277400983e-02
-3.693583543280344172e-03
4.126562215007882617e-02
9.494260180273449840e-03
-2.578883886688575124e-03
-1.463583932051704291e-02
-4.672961324137699102e-03
6.334125923296326892e-03
-1.838716082205164512e-02
-2.215074997365072684e-02
9.557039164088365971e-03
3.917770996867230016e-02
-8.355340259000743758e-03
-1.671416573155437568e-02
-1.864245831820144153e-02
2.105405779292867860e-02
-2.544781826842685765e-02
3.133348977504542797e-03
1.034609075112232282e-02
2.028433132169814995e-02
9.303358369464479263e-03
1.431430374026649958e-02
3.579753672887634689e-03
3.171719910169603501e-02
-1.124877620163798435e-02
-1.260219211875437777e-02
-4.612421281316045341e-03
-1.623530960414491103e-02
-8.464464648594976224e-04
-1.641749166389119483e-02
-1.457420148329676216e-02
2.624762297976657719e-05
1.193951226231064651e-03
-1.556455440072785149e-02
-2.290421776710086389e-03
-1.209270853107555568e-02
-7.892596373939174750e-03
-1.769573284076939382e-02
2.054277120400054002e-02
-5.363405685145992800e-03
6.813252941998766861e-03
-2.162225701632675828e-02
1.395288477511757476e-02
2.356390207443100765e-02
-2.266011929761318350e-02
4.740864217901461647e-03
5.805133469833126912e-03
4.084476110495416368e-02
-1.137442760394837861e-02
3.154097597754397433e-03
2.862503159626979352e-03
2.296859064073878201e-03
-3.686574718611476675e-02
-2.754380708010973830e-02
8.901075725074449746e-03
-4.579131978477772071e-03
-3.551283260699676821e-03
-3.293061271178861216e-02
4.966400807517186086e-03
1.064418306451850836e-02
2.804641186827310298e-02
-1.946658883393547531e-03
-8.299386770315372863e-03
-6.499063031870206363e-03
-2.897575783532145913e-02
9.666927381333257361e-04
-2.648620936691219174e-02
1.751490524050179848e-03
-2.735611137785879526e-02
3.097609638704828475e-03
-1.379490451920509578e-02
4.364082865424236644e-03
2.150735131984288923e-02
-2.412011641488242750e-02
7.328734447445237922e-03
-1.693459035931837303e-02
-8.294984808195640874e-04
2.095239324942759374e-03
-1.895533624890907709e-02
5.010651163984046474e-03
-1.493256604676046657e-02
5.047235393428969701e-03
2.680044281886116708e-02
2.906226700080031047e-02
-4.068685331120581311e-03
1.064285808651131184e-02
8.332075227688962721e-03
-8.876732931958510172e-04
-1.919145440245917378e-02
1.550147769541878641e-02
-1.363463881662441667e-02
-6.310869811075407558e-03
-2.714102583886720058e-02
1.043728992256354529e-02
3.843586320904273605e-03
1.774076826745680027e-02
3.712867438258553050e-03
1.922206190289516350e-02
1.043093968567135321e-02
-1.824310158979406543e-02
-7.459806376541366912e-03
-8.180374795272258442e-03
-1.016978049875747120e-04
4.881212527671818791e-03
1.462124000821699368e-02
5.094584261017177582e-03
1.069333707405222683e-02
2.407535564572284574e-04
8.067680792065644009e-04
-3.103647450795737721e-03
-2.260987784640105819e-03
-1.509447400093216936e-03
8.805205160109092627e-03
-4.980919042573116358e-03
2.573121549576220298e-03
-3.390632015326389224e-03
-1.866856110373940961e-02
9.167081119463526412e-03
4.204263760835438808e-05
-3.407910702628318047e-03
-4.342558839111519686e-03
5.830154980052010619e-03
-1.011841960810702353e-03
1.363937722719140572e-02
1.432316475944691095e-02
-2.888147883345582728e-02
-9.359627513345177702e-03
7.372686316701167718e-03
-5.063039677977061725e-03
-5.122148241359395990e-03
-5.140844904571197777e-03
3.483299665679251227e-04
-8.683125614107192053e-03
-3.975024254338345268e-03
-1.014015274079954967e-02
9.099745733347822801e-03
7.792742880685946333e-04
5.837592091109351788e-03
-4.194933151438910539e-03
-2.203608293801816512e-02
1.365042745441430059e-03
1.003090932661991619e-02
8.957935663602522094e-03
-5.811998649119205079e-03
-1.605854495800005874e-02
1.160023042525940018e-02
-4.346686017592639797e-03
3.202814909513789811e-03
-4.434523139533648635e-03
-4.236815012834202346e-04
-7.379154852443527840e-03
1.267260245910336106e-02
4.080350982450954740e-03
-4.093195601435052795e-03
5.111899731029593240e-03
1.123906098279789031e-02
7.553383555339755891e-05
-9.608545317989183182e-03
2.759465036929012807e-02
-3.414145031033621793e-03
-1.022189173918038214e-02
4.782123854071231375e-03
-3.999365153211105646e-03
-1.056028830734689243e-03
2.647394126854297862e-03
3.783618083770159089e-03
-1.864793206129892241e-03
2.000307454209733406e-03
9.879066883943687927e-03
-5.111756244013799903e-03
-2.043589291000423580e-03
1.987004166837112382e-02
6.820567220408845291e-03
-2.580710927705687826e-03
-1.095732659109734455e-02
-3.715795099085104306e-03
-4.233849765513888856e-03
1.837643168437971472e-02
-1.220691260874135278e-02
1.620887204877761306e-02
2.007168984598125747e-02
2.438046643120435990e-05
-4.263106590709577620e-03
-1.882620195836859356e-02
-1.533800452955347109e-02
-1.054104629626670397e-02
2.489058516316195683e-03
-5.867975613678398129e-03
-5.257116613565625436e-03
7.442198221563261357e-03
-7.091720237089391664e-03
1.129730541940579015e-02
-1.356306872194541942e-02
-4.046509166474478517e-03
6.909765728339421764e-03
-6.694144396794598877e-03
-1.344347378943741567e-02
-1.788576419533988854e-02
-2.185267152549279571e-02
-1.066590763918650979e-02
6.368464278641878563e-03
7.163102481043783117e-03
1.783555106530012105e-02
6.651865384259453111e-03
-7.485856878421372033e-03
1.803062118755925473e-03
-1.329054455496269001e-02
1.929134656971005085e-02
-1.779221047105113140e-02
-1.510480785733706553e-02
6.390322982845749594e-03
-4.323557094867385223e-03
-9.578508271998909408e-04
-5.480334471147507193e-03
-1.351559592109283919e-03
1.116919765862777608e-02
1.833521345856157017e-02
-1.424541559303217327e-03
-1.303003332998259496e-02
9.178126953832386331e-03
-1.066127729315753322e-02
8.492664897382503839e-03
1.178469554734587477e-02
9.017091057670291801e-03
1.507045988482016638e-02
-2.056977153710380125e-03
-4.744696481871080000e-03
-1.670532960770448883e-02
-8.939002488358242446e-03
7.775791750938450091e-03
-1.053716652675057777e-02
-5.259402908692229796e-03
-5.891495065479182038e-03
-8.495535586650712623e-03
-1.156593510872937734e-03
-3.433206165916205099e-03
-1.027864169122233960e-02
2.326763626237183732e-02
1.398596319366167233e-02
-4.805328016007537513e-03
5.193544521508650091e-03
1.190098665223736883e-02
1.366262428851622648e-02
2.418727256583862086e-03
-3.698401327906597740e-03
-6.410862756319826890e-03
-6.156603218443723255e-03
6.780998770137804110e-03
-9.557232094955028789e-03
1.868822470425247602e-03
1.912385597114815662e-03
-1.470633763427398825e-03
-9.770793562853903949e-03
-1.777585905340555925e-02
5.156954073474876409e-03
-2.497086831073136448e-02
-1.023472379639676216e-02
-8.774339667605258325e-03
3.931947801599493253e-02
-2.999397536802640533e-03
-5.236268473222685516e-03
1.868612824855893015e-02
-8.429412270528117979e-03
1.323656733869897628e-02
-1.619925758999663651e-02
1.399539774059215327e-02
2.170257188021140846e-03
-7.199611576615421067e-03
1.230683548873743455e-02
-1.707882398867626578e-02
1.475732266492847146e-02
6.596740900236830636e-03
-3.098365520241311462e-03
-1.358839689459379226e-02
6.284863062567877003e-03
-2.307370684544423137e-02
-9.523682279738031678e-03
1.089995517360292134e-02
-1.258979383438174615e-02
-1.392837393838402583e-02
1.576511195611528596e-02
-8.112789211961587629e-03
1.991727516612107687e-03
4.234788479400998897e-04
-1.141670369404155019e-02
-2.261579169168040793e-03
1.465366525338516329e-02
-2.756925137715827371e-03
-9.892560383497795914e-03
-1.939801209658343533e-03
-2.733135161163629135e-03
1.237807293291107689e-02
-1.307357249962443936e-02
-5.142591428612299474e-03
5.658734542190556674e-03
-1.216064397761535201e-02
1.115392909560198285e-02
-1.154102112102955990e-02
-6.702310709010609290e-03
7.131489989700471287e-03
9.348762090770569490e-04
-3.432003524354735290e-03
9.860411769601248530e-03
-9.635137592999136772e-04
3.543587595517439133e-03
-5.197446449089954124e-03
1.220382567565678374e-03
-1.197567757771213041e-02
-3.146939778564473381e-03
1.435291857789543560e-02
1.497805369066754211e-02
2.737816673844663956e-02
1.796232289787284137e-02
-1.111024033275031337e-03
1.133711632861981490e-03
4.196887444046020280e-03
1.846041049101386847e-02
-6.065135117136062279e-03
1.342797723885400321e-02
-2.702199347133983198e-03
-1.914000130953947415e-02
-5.729865889586748667e-03
5.612598312257229514e-03
1.912089574457365854e-02
-1.243506965376424758e-02
8.491327509789063947e-04
-2.496241861310459151e-02
1.113453919953744271e-02
2.147869036235981830e-03
3.374694116008132919e-03
-2.137542689403085228e-02
-6.564383076624062154e-03
-1.612861766881917500e-02
8.174172678483597812e-03
-1.462937509106998837e-02
-1.586646155785859102e-02
4.642699426980056478e-03
-1.003436211477048978e-02
1.979273514363043187e-03
-1.149494103855184038e-02
-1.655455343327219640e-03
1.099328695839395936e-02
-5.991999155851201325e-03
1.546818302088013436e-02
8.086026786347956649e-04
1.757223895528726640e-02
-1.518519316326409369e-03
7.100467489008128325e-03
-2.436682860473297126e-03
-1.259367799483694997e-02
-4.307508928596387107e-03
-1.279469005318807466e-02
-2.713215709157301703e-02
6.807762261412207173e-03
1.358979754544328150e-02
-4.904086223935021777e-03
1.880464978984396898e-04
-7.585766523440394191e-03
6.990527597636443657e-03
9.384118167689140672e-03
-2.033396875918018487e-02
-1.319792959276397566e-02
-3.602178042943928946e-03
3.456171518462445788e-03
-1.348710950127901716e-02
2.424267763102977424e-03
1.274032303555089514e-02
1.385151522115090489e-02
1.379511044083865309e-02
1.293486897566801727e-02
6.678862655114618622e-03
2.354413473915680996e-02
5.526464260076670298e-03
-4.798159669342377288e-03
1.210676865661031729e-03
3.539291961004307780e-03
-1.157587954612592646e-02
2.435717411645529559e-02
-1.593784613754983814e-02
3.151215536932637420e-03
-1.741321959361721676e-03
-1.303264871067074532e-02
2.510756168530343165e-03
-1.847372590410347468e-03
-7.392360876042642238e-04
1.164295143809614651e-02
-4.534379612988966718e-02
-8.302565599933808826e-03
4.504494967353772118e-03
1.428079833857957490e-02
4.763630163434831241e-03
-4.764106296231500857e-03
-1.256771301045867852e-02
-6.217544552315381994e-03
-3.031235251005924558e-03
-1.051960818048094937e-02
-5.432637920298799550e-03
7.223940593193839410e-03
-9.724911073518650514e-03
-2.755447614039936363e-03
3.698421483199676799e-03
1.041263289020329542e-03
9.681963430798894849e-03
-3.289227414734044886e-03
1.382801827300896708e-02
-1.806062342755991590e-02
-1.633621695197655724e-02
-1.739284841813530311e-02
6.358837631397909647e-03
-2.690089009453224770e-03
1.045972514682698071e-02
3.618546204153447882e-02
2.112678516873983323e-02
2.239060291158757876e-02
3.044195262165021437e-03
1.063522007481735275e-02
-2.066742546194985826e-03
8.658005069169569246e-03
1.795582317116666340e-02
1.012346574370017252e-02
-1.888187412449774186e-02
1.133032209229893963e-02
-5.176503223308959699e-03
4.879188958579556978e-02
3.351622095551342185e-04
-1.242403672530590503e-02
-1.694355720602011214e-02
-1.163309054725387287e-02
-6.747134200527635413e-03
-5.695528298906443916e-03
-1.375374888021298724e-02
8.298375585592951062e-03
8.401654566378750910e-03
1.556114354641810818e-02
1.911289506089526287e-04
-9.324687795888421046e-03
-7.850601156373692227e-03
-1.350067390025347716e-02
-8.702875770534908989e-03
-1.815073008475606015e-02
-6.109093846810297566e-03
1.205206589113173507e-02
5.518512980079084453e-03
-2.801977145490006961e-03
-9.243771026365621077e-03
-4.140440481703383351e-03
1.384404097496505547e-03
2.256027774375464132e-02
-2.021342757918044054e-03
4.620661919261882626e-03
1.605583876905345916e-02
2.368147736773117476e-03
-8.989924132736795345e-03
-1.484577328207833252e-02
1.116083743850199671e-02
-1.006784498963820759e-02
-1.159380001527241313e-02
-1.680233895730063199e-03
3.142525703626492754e-03
8.054744482314251872e-03
-8.542312187584708005e-03
7.716477286296177969e-03
-6.969189964816649083e-03
3.547077659347409179e-03
-1.310386478566326861e-02
1.964485024547801828e-02
9.206467994178226368e-04
3.308378388574300614e-03
-4.235973943808524905e-03
-4.685986543191717792e-03
-5.385199994212826018e-03
-7.481038543018812825e-03
6.172934046915625611e-03
-8.578873166684670287e-03
3.136688567367391933e-02
-1.194548279011922558e-02
-7.035048605100326959e-03
3.909239673127838308e-03
-8.758554168939161264e-03
-4.105844376311193131e-03
1.300251557275832566e-03
-8.982658150822671328e-03
2.678969582556149989e-02
-6.685036274925780595e-04
-1.895152778888391579e-02
7.517332829458600596e-03
-1.799744265742607083e-02
1.623496367513350622e-02
-1.999781295970034026e-02
1.395513540874207103e-03
3.406720991261971004e-02
-1.306037854737633272e-02
-1.057004074158296317e-03
-1.677468676569315517e-02
5.390409851784712728e-03
-8.498745740727380732e-03
-4.602175115180798075e-03
-7.583592300693757331e-03
1.429773757285268850e-02
-1.613981673026787522e-02
2.388762504783258078e-02
-1.109543895053020793e-03
2.933823697861168492e-02
5.808016215415138031e-03
-2.224808709426459932e-02
4.920128412547712313e-03
-9.768446815540047026e-03
2.376171474051429948e-04
1.081338167554694342e-03
8.932338778035599225e-03
1.748709759153906085e-02
4.418590587593572427e-02
1.692396569252073782e-02
4.059123038994617849e-03
-4.544963751797180887e-03
7.382480773449997050e-03
1.291725315365014649e-02
1.294299333816304430e-02
6.979356795466537186e-03
-1.080936635414714991e-02
-4.150113059610307555e-03
2.863415151326434080e-02
2.391671345985264471e-03
-4.255864655710144863e-03
-1.528291729131412043e-02
-2.576634997159767126e-02
-1.157291707896322859e-02
-1.328326421399986072e-02
1.876442836630028491e-02
2.281338920972902050e-03
-1.246305747826098598e-02
1.115495668475483503e-02
9.620878205318207990e-03
1.449031675199132993e-02
9.867402171542818956e-03
-1.358390177442748287e-02
-1.295520769959454532e-02
-1.346724059720333551e-02
1.777022625692809693e-02
-2.345698200482554743e-02
9.679525800824120146e-03
-2.422227913458469689e-02
1.762397795281437848e-02
1.936519651718827256e-02
6.879454565415498183e-04
2.256857822952213020e-03
-1.135519679177597781e-02
2.059908143925208782e-02
-1.251482310597805750e-02
4.488011294572562607e-03
9.775216327419717841e-03
-4.113650048272015670e-03
-2.729650200090246240e-02
-2.084946294938420583e-02
2.030556370443895378e-02
-4.831342524513023914e-03
3.750933690181763001e-03
-1.145324487366006574e-02
-1.572258386297891233e-03
5.738882883169387286e-03
-4.712391208246878745e-03
2.981138477552349939e-02
-1.235729761694583442e-02
1.950206464247154076e-03
-8.599888357509103895e-03
1.393801657208208235e-02
-1.651074560237799716e-03
-2.444683114804790253e-03
7.183829823741409368e-03
4.600044979415177614e-03
-1.256092307674216285e-02
9.612838239121490255e-03
-2.758684612490586857e-03
5.348288416957296468e-03
1.399550000765712419e-02
-1.086047043204300261e-02
1.229631142369040121e-02
1.928481305406130192e-02
-4.909074512445483866e-03
-1.679956847308505807e-02
-9.800852186157008733e-03
-1.148716931014405127e-02
-4.138106641234052738e-04
-1.078879971680426174e-02
-1.015816695309127056e-02
2.223698513284153543e-03
4.155153486406838390e-03
2.621767678360920496e-03
3.854232487497030995e-03
-1.822175510190180564e-03
2.718077704920387420e-03
-1.039017575832854728e-02
-2.051598543049609757e-02
1.576944598345701373e-02
7.700624068247717037e-03
-3.958882550065475313e-03
1.421571386135227254e-03
-2.547792140046143197e-03
2.860958984274074388e-04
-1.621761159529622187e-02
7.489406025195570124e-03
-9.156662485732916870e-03
3.015579579648202183e-02
3.316486809132597729e-03
1.894265792138333931e-02
8.886374788424598881e-03
-8.602377740171997939e-03
8.612177198792911109e-04
-7.950950933284049033e-03
-8.818407093916121736e-03
1.099672669129181032e-02
1.938787104793687072e-02
-5.941113420714698792e-03
7.667186376046134649e-03
1.207175593309556608e-02
1.015712294881117479e-02
-1.085358529901877611e-03
-1.612581419385610698e-02
-1.520318617672034717e-02
-5.492427891150047231e-03
-2.060987394226655028e-03
-2.369863234044931270e-03
4.436814155833598491e-03
2.028998011584232097e-02
-2.146855784289905880e-02
-6.827841783658032855e-03
-3.699382100228854921e-03
1.014310712720216390e-02
1.237585591194520886e-03
1.595558146442834987e-02
-9.525123154582263579e-03
1.752792901864155470e-02
4.693973856561896654e-03
2.821621790844425388e-03
7.807955740244258355e-03
6.940058108801757351e-03
-1.852882929483835178e-02
-7.158799599284725555e-03
1.341947485000415975e-02
-1.418494858614965416e-02
1.038415023364279433e-02
-2.320223564442091321e-03
-6.062901819003576644e-03
1.653690430821067384e-03
-6.867186697649465058e-03
-1.384242327850126672e-02
-6.871217058459916371e-03
5.465253426583611962e-03
-6.758989123501795348e-04
1.821455338680528862e-04
7.236651333118726374e-03
9.497735604164937034e-03
-1.381482318659565077e-02
6.348591282288340923e-03
7.998048502604165541e-03
3.138368558469913864e-03
-1.456292980077778356e-03
3.938769249642422136e-03
-2.605632394732892640e-02
-9.727290680819861840e-03
-1.168564937087268260e-02
1.433538250064169198e-02
-1.424362240477929607e-02
1.419411340713367352e-02
1.083111132782009316e-02
9.281641580232806443e-03
-3.811100603631231362e-03
-2.020977105395009750e-03
3.382403166212633473e-03
-4.926021103382079852e-03
-3.738856551968422828e-03
-2.468634649950893906e-02
-2.373903956942509733e-03
7.021127344457762064e-03
6.209140243900785998e-03
1.033863258388096609e-03
3.446551759562040389e-03
-4.230556250970990417e-03
4.708401466894723483e-03
2.518097168540765068e-02
1.073543810488612922e-02
1.243788579963133953e-03
1.095462626568782794e-02
-6.781613149269272861e-03
-2.097590121470738894e-02
6.721835559618045053e-04
-1.024095519436470786e-02
-3.496165677335689136e-03
-1.025845129213694487e-02
1.475564029596398855e-03
-3.219783777618508256e-04
2.152329047420096023e-02
-4.841236643474433089e-03
-3.568629125447070945e-03
-3.321587601031328416e-03
-8.506945056764247948e-03
-1.821541537731421112e-03
1.292978169166862645e-02
-8.629766202622643143e-03
-7.962768269993210357e-03
5.216785932839793083e-03
-1.629632201564868571e-02
2.074452947039057919e-03
-2.384560863151369801e-03
2.450641865078285325e-02
-2.377792053089947469e-02
1.628102349600673779e-02
-1.218873682684380039e-02
-1.699636419664239803e-03
-1.636691151792684165e-02
5.486980648643689784e-03
9.862759879174365710e-03
2.033467120870298059e-02
-1.183708649008465702e-02
-1.211319054198303075e-02
-5.378653121276233580e-03
2.081993151346960350e-02
-5.806298043237290152e-03
2.442112032239308894e-02
-7.934665330311492168e-03
1.204174662711177644e-02
-1.040715405163989728e-02
-1.313275671917609475e-03
-1.656556574497655612e-03
-1.779089993576730977e-02
-1.685346926696278461e-02
1.794204369217178513e-03
1.270295073830375598e-02
7.640346452292470086e-03
7.827091234071287956e-03
1.646267006528628961e-04
1.871821230382972670e-02
1.593224235109489198e-02
1.737606972481574308e-02
-2.369603491136062015e-02
1.358146418140934904e-02
1.058234852523450356e-02
8.878480730732211945e-03
1.246823029163489881e-02
-2.927562556439374658e-02
1.088047188851017956e-02
-9.629458635210488837e-03
1.213453558819426077e-02
8.908215974214567234e-03
-3.541781414316303410e-03
-5.900220189060231303e-03
-1.322276706932308359e-02
-1.231329041548919617e-02
-1.504638780029054698e-02
-9.770486288860611747e-04
-1.349088972321813885e-02
6.890262497589661611e-03
-1.759490807734710380e-02
-1.506621714669681943e-02
-9.434272370048563464e-03
-5.173942382062937662e-03
4.261139398038038019e-03
-1.959148241976864033e-02
7.632304534343411009e-03
-2.051731839947750977e-02
-1.437106270730199691e-02
2.646772902407004083e-03
-4.681232555924668554e-02
1.682104971733822812e-02
-1.652607631882880429e-02
1.370144231303480759e-02
-2.380390617623309290e-03
2.266438262071029941e-02
1.327399738643524237e-02
7.099727570128776775e-03
-6.132993553874329859e-03
-1.365770926010954206e-02
-1.029760928474587021e-02
-1.042044846836291628e-04
-1.173634720422027378e-02
-1.105210572079189275e-02
-5.601949838897387485e-03
-4.095898038465403007e-04
-2.360060264787437745e-02
-1.901552575230062297e-02
1.603579160188004296e-02
2.644445573566873292e-03
-1.674602851058262787e-02
9.495011288710815053e-03
-8.913860858602995138e-03
1.196359280996724637e-02
1.589790078334615830e-02
-1.026576629224698785e-02
-2.037143809734094993e-02
3.490912369933450721e-03
-6.225160161822892307e-03
1.037528768905248214e-02
-1.718774361390250360e-04
8.333755429035447776e-03
-6.264147590343232923e-03
-5.910941202430352280e-03
8.163498025288101409e-03
-8.928948068302586596e-03
2.214957863240838007e-04
3.921290125288154869e-03
1.503436243052760045e-02
-8.168132742091360407e-03
1.435649917536719992e-02
-7.903233246900908532e-03
-4.290129777126522152e-03
-9.584847166483842842e-03
-1.226437933351481532e-03
-9.520669428541388840e-03
-4.078306206698082553e-03
-1.288818044337979854e-03
2.409591968164537593e-02
1.855537321197623865e-02
9.998464346483047424e-03
-2.305527890772145205e-02
-2.297558588756964601e-02
-4.974657419407557896e-04
1.703833992488904513e-03
-6.432901535691678933e-03
-8.936696996855713476e-03
-1.573839197347724414e-02
7.616956165224481913e-03
3.063503840456829538e-03
2.460659243403996721e-02
9.774540194557970393e-03
6.874047482621097917e-03
-1.985185221114989934e-02
1.734277899980295580e-03
-1.411573073067369337e-02
7.277531303103363866e-03
3.150104870535115620e-02
-7.694090476640216662e-03
1.408461228059851300e-02
2.787153162344275029e-02
1.390675293036305361e-02
7.343694424860403372e-03
1.272880840676284767e-03
-8.333296056390047599e-03
4.330802157062728190e-03
2.212366296966318535e-02
8.596288862908967043e-03
1.907234419900796438e-02
7.716563644190691310e-03
6.810739248861510074e-03
2.032271311808860753e-02
5.467427117149835369e-03
1.609808335117778391e-02
9.011350681559509787e-03
1.382025019475455543e-02
-4.192301519551523172e-03
2.375033270670546398e-02
-1.088980490838455280e-02
-5.616126980808252254e-03
-1.274597687986381289e-02
-7.803072665310302816e-03
1.009801222037581998e-02
-6.464694068284055489e-03
2.901638857960947299e-03
-2.340249784240452588e-02
-1.408549182095517743e-03
-1.515874625982123469e-02
-7.678075894490806429e-03
1.375578718941487290e-02
-6.488253278663076370e-03
-3.156183317465380495e-04
-1.264186718072376689e-02
3.925161337610014525e-03
-8.585231655830921280e-03
-1.219791556973295193e-02
5.631286095567818520e-03
-8.765730807563706234e-03
-8.014598808535602567e-03
-9.884934333354975303e-03
-9.775792836759273144e-03
-1.365470149836210635e-03
-1.591180649716185131e-03
-1.446791114489746032e-02
-1.241029000023658639e-03
1.548482205648132881e-02
-1.872763210397104458e-02
-1.667273306343399278e-02
1.028785678555217513e-02
-3.611946057155163842e-03
3.062687443778405738e-02
1.191684577308210757e-02
-1.127061629842518280e-02
4.092029286941784201e-03
-4.382017231541475433e-03
-2.337318784838891047e-03
-5.533020749069891657e-03
1.667647554609321542e-03
1.308810713052706992e-02
-4.633070053402853737e-03
6.018030569925124189e-03
1.289778897333128914e-02
7.377118047171152618e-03
-1.485958204394695337e-02
-1.101893660685172166e-02
7.688022578021294108e-03
5.705350948057918287e-03
1.773207718703163774e-03
5.636092086522020983e-03
-5.774541889309168195e-03
1.826405472903737739e-02
6.812482667863369555e-03
8.747165737846429243e-03
4.419548852593923986e-03
-7.946874828083275166e-03
-2.104473552552277651e-02
2.506503229126035188e-03
-3.067289634402984091e-03
-3.650318858811468607e-03
2.573025361044295814e-02
5.055295236702451490e-03
5.274160562060327276e-04
-1.357892858078645765e-02
2.746396364564467497e-03
4.635051128854853278e-03
-1.727144806052104478e-02
-9.592040778443770843e-03
6.254142294335451706e-03
-3.808157081166494914e-03
-8.800696406385451545e-03
3.174335599596347750e-03
3.847820128810732539e-03
5.996476995595304699e-03
-2.793658952557482450e-02
-2.483474109275770128e-02
2.253497144747141061e-03
1.936340980397206757e-02
6.017781892874335707e-04
-1.586439154037560390e-02
1.964415563702531092e-02
8.897396803109761110e-03
3.681288168336165978e-04
5.105658975509600947e-03
5.397712973110185136e-03
-1.750020757945918186e-03
-2.810426174696044506e-03
-1.348169869055156761e-02
-4.352264934288573375e-03
6.795059251700557960e-03
9.904783160147997631e-03
5.215495245284139901e-03
4.820055382337586243e-03
-7.340463870548531028e-03
5.260005668334634919e-03
-2.322035031896773922e-03
2.855256132074172545e-02
1.767204305337203782e-02
2.195110346744611612e-02
1.770717833288665277e-03
1.882305663494500143e-03
-7.962925439985916662e-03
5.647498489542498480e-03
3.379190294006596644e-03
-3.292133225047622069e-03
-1.155050673656177413e-03
-1.453415993846791975e-03
3.039011637421695430e-02
4.110180359310647812e-03
-1.448979245642526698e-02
-5.101763572379438595e-03
3.074646883952882786e-04
1.755210815499015642e-02
7.900164322805174402e-03
7.088935154517764237e-03
5.416288995271183182e-03
9.439143237999587585e-03
5.159121973200958208e-03
1.541003453363395774e-02
-1.643849231893014301e-03
1.203954930537379231e-02
2.826972393718225961e-04
-7.693468059436801149e-03
1.578395551932435664e-02
6.838913468752710542e-03
4.369214640935173595e-03
1.394466196917028278e-02
-1.533817778275750306e-03
1.907834447129223843e-02
4.408627132759092813e-03
1.161723778902251820e-02
3.123379861175809395e-03
1.068325931231086517e-02
9.069779833124992424e-04
1.087468662126389422e-02
5.803719866713904140e-04
1.916446386925336337e-02
-1.786898907197881706e-02
1.079564580444560343e-02
6.788740573045327041e-03
9.482070221922808684e-03
1.233534300398955903e-02
-1.530746470947840767e-03
-3.726946846073459635e-02
2.279841926732837937e-03
-5.462928576747751869e-02
8.262522539544364664e-02
1.912355270041463107e-02
2.869666941293642914e-02
-6.531296771469377767e-03
-1.340444090382026526e-02
-4.998462027271224906e-02
-4.668146436689897538e-03
-9.042953774004805836e-03
-3.591704906177295431e-02
1.205874859231338648e-03
3.334502567063494377e-02
3.393896008850021129e-02
6.200543048024495518e-02
-7.947061034975545779e-02
-2.537686188167392193e-02
-1.393128544993460678e-02
-5.498777818821468100e-02
-2.959132650451154825e-02
-5.971226359115026916e-02
3.067495392088527215e-02
-7.540876739637591974e-02
3.278414570999888672e-02
-1.508915404094406457e-02
7.257158159230941985e-02
2.294319855787903262e-02
2.390070004644337734e-02
-1.065736808061119173e-01
1.544901831268657424e-03
2.451982432432456629e-02
3.705966289127691354e-02
4.613827103267435087e-02
3.423683834081486018e-03
8.295386382399138258e-04
-1.439170143336348899e-02
-5.405466720431578373e-03
6.523696508557699780e-02
2.489511927811081243e-02
1.127052033815154237e-02
2.132663975505007942e-02
4.906888298515123953e-03
5.202936637414908028e-02
-2.959645613402517653e-02
-4.260156528213153437e-02
-1.825251248011328098e-02
1.252778005582380443e-02
-9.559470677786551310e-03
1.622709361208867287e-02
6.389378131774930969e-02
1.469286466599931118e-02
-3.732194180759284153e-03
-9.268954484357330714e-02
-1.084797535095356896e-01
-1.977873695375248139e-02
-2.091398612826797856e-02
5.609903430121451979e-04
5.676445858462002281e-02
-1.159624479614334951e-02
-4.838747817265033613e-02
-2.489590744481374324e-02
5.748764138810864670e-03
-6.592838082051280524e-02
2.182371860469518778e-03
-7.565925724848587830e-02
-2.818719178058706754e-02
1.150898965555803739e-02
1.011233203657090421e-02
-3.794366996642026257e-02
3.472122951105866689e-02
6.102622597693684037e-02
-1.421209084957081488e-02
-1.762668641107030532e-02
-4.780332140948590630e-02
-3.331367712820777760e-02
-4.327547793260173165e-02
-3.355908692429283163e-02
-3.029898394915451348e-02
2.308915596022569419e-02
-1.263060486561800450e-02
3.399997894360905909e-02
-2.061287452998360539e-02
-3.718570544297689767e-02
-7.481536496444574080e-02
-5.946501097288596493e-02
4.080534983033116264e-02
-1.759163656690769170e-02
-8.303336069328473568e-02
3.273737598395708159e-02
5.466864964303322187e-03
2.715812790326307957e-02
1.579163041817641328e-03
1.977125952597198408e-02
9.408677126209970048e-04
-2.877463503090291544e-02
-1.970420336788911934e-03
-1.686194101150198586e-04
5.357285628511308795e-02
2.922611750170467284e-03
6.123320800915404982e-02
-5.456493233239018137e-02
2.223538812913161342e-02
-6.270443827538836612e-02
-9.031402095141354003e-02
-1.693182740155064342e-02
2.873125600483007747e-02
-3.719489305195981116e-02
5.531491684006195619e-02
4.198223009360481373e-02
2.363261028945555162e-02
1.526958570743505196e-02
4.926498216072761754e-03
-7.986971796793246661e-03
-2.553026934240884560e-02
-6.398213711735892262e-02
6.740379358518540365e-02
8.885535152890199073e-02
1.123391366811480295e-02
2.454433994252881723e-02
-3.591147218139656774e-03
6.009591905184982763e-02
-8.110866330683270259e-03
5.288211770675396717e-02
-1.486983918824632579e-02
2.856102038118253639e-02
-4.413602769405396836e-02
2.042061537325556494e-02
-8.085515452436822098e-03
8.122967250484998403e-02
-3.182354298082169797e-02
-5.433422313941858178e-02
-6.262074315812504732e-02
-1.603296081660520248e-02
2.069419218898457119e-02
1.308025427576391380e-03
-2.528234170938203906e-02
4.934728496352262794e-02
-1.137624958897907879e-02
-1.009944196084511768e-02
-2.460636919388619129e-02
-4.630410239320680715e-02
-2.917901753454901770e-02
-3.627413492962483499e-02
5.952739083222376160e-02
-3.044681386155095523e-02
-6.432823877268214509e-03
-1.610956578390038141e-02
7.689375362434630080e-03
2.171344140598355926e-02
-5.022222558388150793e-02
-2.287900340470703023e-02
1.374807219766236224e-02
1.185303442495352355e-01
2.448841636402424721e-02
9.559036774531603706e-03
3.938649207751293395e-03
1.435157342213180288e-02
-5.325767088056581472e-02
-4.954233814418499554e-02
7.290895022263965686e-02
-3.757849664631432440e-02
-2.532518077448117459e-03
-2.014394656497419875e-02
8.859896382922238106e-03
6.013547262022684442e-02
-1.509394196490642867e-02
3.316907727169481762e-02
-3.184479767857676530e-02
8.818331277674939031e-03
-5.508428950877866659e-02
1.392497509997711949e-03
4.817974294272865665e-03
4.159565422840785787e-02
5.260285981109236349e-03
-4.051883506723305724e-03
2.374526969251142955e-02
5.865843538634631094e-02
1.690831629200437863e-02
-4.677424822608308719e-02
3.366826519940355200e-02
-4.676004124607837514e-02
-2.392006901692125126e-02
4.395083066930770971e-02
-3.858428709543285789e-02
3.113663446365120060e-02
-3.371492556407266420e-03
-3.804222721989003204e-03
8.942676015120085142e-02
3.382075342453997463e-02
-1.381274014676392610e-02
1.343961504701958985e-02
-1.831526988135117467e-02
-8.733122422929525883e-03
-4.124396350045823195e-02
-2.328792857819911993e-02
2.310669951959631874e-02
-5.666467648486469937e-03
-3.403517783456471574e-02
-2.500061195269038389e-02
2.307318632476474188e-02
-6.478516213111502886e-02
2.714833192912483734e-02
-5.692265661834238627e-02
-5.634718587556587083e-02
-5.020348309949774351e-02
2.266521706886503312e-02
-1.300467499033634150e-02
7.290677800067536796e-02
8.858333371834562625e-03
-1.146936806509938353e-03
-3.577549435356225382e-02
2.601644342363453304e-03
-3.175639230803806168e-02
3.477513942964198697e-03
-4.687740697353488806e-02
1.187078007492691628e-01
8.692414699903390496e-02
4.532933474952461489e-02
4.225125593154685673e-03
-3.104619231781053854e-02
5.060653072773906719e-02
-9.696631614919013972e-03
1.420548951138110973e-03
-1.160654336574743449e-03
-6.917864810059244640e-03
-5.357725445005678128e-02
8.383264953596913927e-02
-1.014460724568677294e-02
5.687830246634986014e-02
-5.429812709477659094e-02
-8.888848114065325823e-02
-7.606478556207557640e-02
-1.376740763230584891e-02
6.249969472090454586e-02
6.095410550686140155e-02
-6.591243524553691557e-02
3.296094078613856504e-02
4.458393879884619410e-02
4.693781032712559392e-02
2.419336531586357281e-02
-2.745689538534565668e-02
-7.400321940184333147e-02
-8.007628254583805784e-04
4.041124175757120074e-02
-7.041819417078941379e-02
1.857368322199421523e-02
-4.034221484794563856e-02
4.038721089878237469e-02
6.227931921195710430e-02
-1.428311682552946618e-02
2.554415988558262143e-02
1.533868124231788782e-02
6.575201354262433240e-02
5.012818292573537754e-02
3.957068815768917912e-03
2.966196006520204279e-02
-1.589824796980702712e-02
-4.313251129543681228e-02
-5.062377848376052591e-02
7.779150856768869693e-02
-2.613283333881744053e-02
-1.001534285582115526e-02
-7.808503700369406886e-02
4.549489732248734875e-02
6.961424528471873811e-03
-4.680276219965446433e-02
5.163622328688489971e-02
-4.220151774170267933e-02
1.494123869970399171e-02
-5.725882085067775240e-02
2.020003889782071710e-02
3.257134075214909025e-02
3.591933980479124211e-02
2.959275398352757130e-02
-4.992609442671078895e-02
7.704259508826023783e-02
3.854083392992470325e-02
-7.023358980444396882e-02
-4.884569692307582506e-02
5.760701919623654153e-03
-3.900939460649762575e-02
-3.091645937478669157e-02
6.941810329855145623e-02
-5.908898110999673270e-02
-5.400524537826004515e-03
4.214876410868155510e-02
-2.887714757751593669e-02
7.518191533494435197e-02
3.192595251504328629e-02
-4.274327966779031818e-02
6.158889969218966920e-02
-6.798306252150991547e-03
-1.175481851780346525e-02
-6.945663582314748341e-02
-4.840216829188475484e-02
5.296546642406124716e-02
4.560701621166939057e-02
-4.495470189432197727e-02
1.045591805356295943e-02
1.989792999541581744e-02
-9.491117610244969444e-03
2.857325742870538490e-03
-9.234369776264928290e-03
-5.529911493551512578e-05
-5.022990479931264615e-03
6.553996172014471544e-03
-6.997653619397968192e-03
2.311687770619959281e-02
4.550723864976325382e-03
-8.211587891388838836e-03
1.480308996530711740e-03
1.196315055280663172e-03
2.103063842217373601e-03
6.411027152119392301e-03
-7.650301914721705475e-03
1.553345460648724273e-02
1.261164421689387784e-02
1.529583582875708968e-02
7.497771019671357721e-04
-6.576442059803479061e-03
1.123378379508074322e-02
2.230022636470458709e-03
9.408379453226419636e-03
-1.399962635144143784e-02
-1.657830044962937607e-02
8.959131935257809301e-04
1.677074911851311051e-02
9.159944425644784768e-03
1.527736628733527592e-02
-6.548673865895239705e-03
-2.196276689229626974e-02
-3.786343922564662512e-02
-1.777804563425875589e-02
-8.435591817006133850e-03
3.037261206195761981e-02
-1.651027643198049039e-02
7.774935705938806072e-04
1.783037566592183404e-02
1.091474699478096541e-02
7.272006843282697273e-03
-9.448044485726518962e-03
-4.029838661729635493e-03
1.251587058641880600e-02
6.053175588906219845e-03
8.158349381343703646e-03
3.054286899580209175e-03
-1.036662852279769502e-02
1.723504493646534075e-02
2.236346124857790940e-02
-2.497209989130951859e-03
1.144304702246150968e-02
3.920063014863995124e-03
1.845755585397255635e-02
1.745342562699103359e-02
4.500971054711578462e-03
2.690596255051430429e-05
-1.378158008297997346e-02
-2.511797220641543218e-02
-2.577971068249215736e-02
1.975407098863096039e-02
-3.316431873866887165e-03
-1.408584799624946343e-02
-2.092378111779463409e-02
4.557847948661129106e-03
-1.059492219533817239e-02
-8.402536997876675767e-03
1.049286718182088421e-02
2.637837662988639763e-03
3.497656532662375174e-03
-1.717492856101913989e-02
-1.766272392859376478e-03
3.301496696382654784e-03
-2.017613576665253116e-04
3.133653382658510914e-03
6.550086764721991129e-04
1.601951849795938895e-02
2.112685164327613233e-02
-8.588469597248822932e-03
2.496953523361572502e-03
1.006270775611817735e-02
4.251840336293400899e-03
2.978634215010875219e-02
5.122445293514613432e-03
-8.351180044124002777e-03
-2.137498984108473360e-02
1.167821667276471367e-02
-1.736975472318544496e-03
9.243198464265106606e-03
2.005051819078989872e-05
3.312521527113249011e-03
9.076911750572361215e-03
-5.377260935807637136e-03
8.550210897327113584e-04
-7.425428678104681324e-03
1.729422113155555663e-03
6.306016741709550774e-03
1.116837819737031764e-02
-2.462508100182759715e-02
1.938033056764340220e-02
3.835871976485732276e-02
5.318104558676800542e-02
2.302709342457742031e-02
-8.645776742514524327e-02
-1.560004980094871832e-02
-5.925201337893749171e-02
1.706773688078984039e-02
3.654041473685017138e-02
3.082198423694480424e-02
-7.014757325433679941e-03
-9.736498428438376471e-03
8.323154956092686241e-02
-3.813988771364022496e-03
2.848622983659728630e-03
-3.619298828649927802e-02
-1.007259083506598080e-04
1.092037634040190636e-01
4.461498758562024852e-02
4.487035383252861026e-02
2.139378633029136861e-02
1.054912920577586767e-02
4.440708576158575172e-02
-2.570669945996369513e-02
5.531168187705784445e-02
-1.620942824050403824e-02
-7.122867421968585855e-02
-6.931985181567780485e-02
4.731822634061144846e-03
-1.567820802407770414e-02
8.630431680875665090e-02
3.507045704035362428e-03
-3.820067060196189607e-02
-5.418941241589788488e-02
-4.839385879647269822e-02
2.001266569248331961e-02
5.500167388764462539e-02
-9.586345151455701735e-03
2.318730552609440942e-02
-1.926863322782754878e-02
1.972341454811510006e-02
5.215629333175602483e-02
2.037076064673878570e-02
-6.141145420869727894e-02
1.545114841401164577e-02
2.405249643332053530e-02
-1.256753686497953963e-03
9.335506079147913583e-02
3.398233868118840338e-03
5.015476732388659403e-02
-6.580860318140345500e-02
-1.994843256164766446e-02
-4.044018583950596823e-02
-3.661262351451225611e-02
5.723359052285281051e-02
1.060013219419007058e-01
-7.020800936725648221e-03
1.655773597727249261e-02
-1.746409287809479530e-02
-5.295587779132018835e-02
3.639824986842378485e-02
4.862548923034796383e-02
6.258076863665054668e-02
-5.333998361500248003e-02
-3.897808012965109370e-02
-5.735036218535686722e-03
1.012599271689694769e-01
-1.472900697176954266e-03
1.312715063122530876e-02
-1.067216607395905228e-03
4.072918376611727592e-02
-2.232439445566077388e-02
-1.790169222513783229e-02
1.572093210289468232e-02
2.120760440270620661e-02
7.137820015362913995e-02
3.066991955070784426e-02
3.388550952162910218e-02
-2.017456695417979562e-02
-7.562624475132510848e-02
-1.338219889149717783e-02
3.648193625788800215e-02
-8.079911123590499331e-03
3.123955107717629742e-02
2.956850434709024436e-02
5.774638921485667625e-02
5.552559323000690744e-02
4.268728775878814774e-02
-6.178666616082489210e-02
7.348364120736024241e-02
-5.344953261686700291e-02
-4.260162836679159265e-02
-2.610924838529702849e-02
-3.393552385325911830e-02
-4.303562629068248546e-02
-3.062252832339930689e-02
3.670334290536642757e-02
4.672152097845767849e-02
3.591876514232589246e-02
-6.615092020143606422e-02
1.844082163447868794e-02
2.475094055198565415e-02
3.290100046397261002e-02
-9.164663134149002646e-03
-1.387840433124655666e-02
3.373204602779081990e-02
-2.322125313955122894e-02
1.223603521448506960e-02
3.236732578663777116e-02
-2.533424459675209101e-02
-2.593793063588061953e-03
3.664640725448915174e-03
3.504322318286109961e-02
3.769564101712261539e-04
-5.395388264460596744e-03
-8.681100166375155594e-03
9.122305201144643300e-03
3.214500168322290824e-02
3.430181241999191114e-03
1.415036920169049242e-04
1.310127763100967999e-02
5.443248086078498853e-03
2.589294805698964808e-03
6.956294223992733235e-03
1.346750694644800392e-02
6.828730442318751807e-03
-1.702227186479301005e-02
-2.901999616784759969e-02
-1.485489506473198877e-02
-1.521654130891570474e-03
3.436528490953191795e-02
1.594435673271454162e-02
7.721920463750075840e-03
-4.575296214823141444e-03
-9.448390488427800896e-03
-2.661582667284894885e-02
-1.002600728312846856e-03
-2.236014285116650051e-03
2.098925311301799018e-02
-1.261606000072414656e-02
1.436389728562397460e-02
2.630712518989360843e-02
1.752775407299998409e-02
-1.841301196901485443e-02
6.324014014789863108e-03
-6.888970333596312369e-03
9.902750391901976243e-03
1.681174700480028358e-02
-4.566978717928081750e-03
3.716373791684482539e-03
-3.425209691131448492e-02
5.871799004904659607e-03
-1.447092895808320227e-02
-1.869981982600969414e-02
-5.807116704417124645e-03
1.494301048759153275e-02
-1.567448649670142788e-02
-9.824122550947144913e-03
2.401768373450599743e-03
-1.058609397995996688e-02
7.772743069742450023e-03
-1.148600481589473823e-02
1.147166688051861477e-02
-1.724987101280269636e-02
-1.105986638629509813e-02
-1.387704736341406099e-02
4.475904256506385570e-02
2.401153149851979057e-02
-1.154647272819916363e-03
1.881081281861066157e-02
6.823413102461648935e-03
6.877471862056940173e-03
-1.353782888749277026e-02
-2.390882048266785784e-02
4.236910111083015164e-03
2.011786665012025438e-02
-3.342991050865826326e-03
5.379141230153224431e-04
-1.828561264826714453e-02
-2.920567865953060255e-02
-1.861188873407201155e-02
1.375403395465690619e-02
-4.175069412679342090e-03
1.785376533662362541e-02
-1.523633179725985545e-03
4.358035232638417245e-02
4.111000618039348936e-03
1.443408304982622160e-02
-2.596465262473557703e-02
9.484469476728620702e-03
-1.759596125640952927e-02
-2.007245277300237149e-02
-1.060581721335363860e-02
-2.116530761382485332e-02
-8.240030444827786335e-03
7.028386314480541616e-03
2.812766097683196131e-02
-7.707294768942963073e-03
8.372322406702490880e-03
-1.006033187519017385e-03
4.558108188691926271e-02
2.070882409906276561e-02
4.495907610413948235e-02
1.102580677691290595e-03
-2.972359621169034030e-02
2.317023442455989901e-02
-1.145510166230843951e-02
-9.243747774077110645e-04
4.438140345724632396e-02
9.465547964386184995e-03
-1.341834575928474264e-02
-1.189624233104044290e-02
4.357900956320961972e-02
-3.028670723751221081e-03
-1.147156448209003810e-02
-3.590692693117990275e-02
-3.241305693619735313e-03
3.790357409008543454e-04
2.892587569594722713e-02
3.011641608093020353e-02
1.955998886583495446e-03
-2.752694178877063309e-03
4.588476823120492742e-04
-1.570100528531506376e-02
6.517548186245641917e-02
9.878593378343698134e-03
-3.556340756599186970e-02
-4.723723182446982094e-04
-1.615282481319385566e-02
-6.299001426692072553e-03
3.184644028909171948e-02
2.492256267446343269e-04
-8.326390424679233106e-04
-4.773553486240224991e-03
-1.521045543292339104e-02
-3.969102453020809627e-03
1.606107191684569974e-02
-3.487790587542752892e-03
6.673450159643124283e-03
-3.172207350118738667e-02
1.488164237891150682e-02
4.036312330321488451e-02
2.862830593346459007e-02
1.888198454772493375e-05
9.349535049801167494e-03
4.442326998622626345e-03
2.547724747500527097e-03
5.823936514773919021e-02
1.596018023413302636e-02
3.549338721988367501e-02
-3.892039298253276852e-02
-9.420898668949793595e-03
-3.587370812155291772e-02
-3.258517273484634602e-02
1.178569305956032875e-02
2.828330611218104682e-02
-1.583143922116966168e-02
-1.662108230022247418e-02
-5.258661990129564687e-03
-4.724076476563217331e-02
4.496558716988391380e-02
1.696557520482148279e-02
3.915338107053504407e-02
-3.268363674866657520e-02
-2.100503929032612391e-02
4.614039702587670669e-03
1.963344681476484818e-02
5.147508995749533467e-02
1.683719386178429006e-02
1.069189495564929968e-02
3.284701095930001730e-02
-1.056350363376842849e-02
-2.121955036114935716e-02
-3.244390663333368563e-02
1.030904251730691522e-02
9.808594575403334695e-04
2.068302969655088155e-02
-5.796427669224685046e-03
-1.866023743629917006e-02
-2.425075113023973314e-02
2.298644608699292220e-03
1.146031144050251548e-02
1.027286627799660172e-02
3.244813660629430972e-03
-1.685971399145102731e-02
1.743666185787795531e-02
2.447606382059526117e-02
1.587728716679065108e-02
-4.344824731604352702e-02
3.553846633375207925e-02
-2.410199615831281478e-02
-3.730925891801818717e-02
-3.987019518620653347e-02
-2.244651298369849599e-02
-2.455520946385065725e-02
-1.736414898174577174e-03
2.154158665178173421e-02
1.666269221634012615e-02
-1.633464837925358059e-03
5.872352621331710862e-03
-4.974662605584943657e-03
-1.665673694158900653e-02
1.779953721154321940e-03
1.179895379163705023e-02
9.976169443277503254e-05
-4.598737187588665398e-03
-7.545601964560043687e-03
5.819912351369951366e-03
-1.630089408614216178e-04
1.619528309176676908e-02
2.241420375922060365e-02
3.783310214778404929e-03
2.027578695704228100e-03
-2.720439068731912366e-02
8.717606089480127440e-03
-1.341286154640693694e-02
-4.971542104073795390e-03
-1.977792371181098449e-02
2.780487777199663196e-02
6.920882695269865497e-04
1.023353252012527449e-02
-1.485653571497608585e-02
-4.125597579102502008e-03
-9.055849471315978796e-03
1.661649049158472934e-03
2.960332424238684701e-02
1.941248958262532798e-02
3.249451594823410134e-03
4.511439583577467501e-03
3.077030440864774504e-03
1.239500118103596497e-02
-1.663783904083501394e-02
-2.937755837719906518e-02
-1.906766146307505233e-03
-9.354903031558363044e-03
4.071093017716459830e-04
-5.270201438512416882e-03
-1.030416658770509641e-02
1.670025561120474025e-02
1.059885469283308214e-02
1.162678979932479408e-02
1.673340808898479345e-02
-1.436231124798160487e-02
-9.704095111374917357e-03
-5.473803978317907113e-04
1.489014274124247222e-02
-2.296978462459264327e-03
9.745977866177828533e-03
-3.071040690206343349e-02
1.504494863053948937e-02
2.220357832536364734e-02
-1.099630310406113235e-03
1.635442411020396683e-02
-8.007019241611148391e-04
1.331833170761779692e-02
-1.364578900912303411e-02
1.795378562265585731e-02
2.830560194838180072e-03
-1.181511815958416131e-02
-1.658014632047668385e-02
-1.353192247235816045e-03
1.817169718272709095e-02
-6.271658757505531659e-03
4.076170839227293724e-04
-2.837590586649706148e-02
1.056239982681728660e-02
-5.373676075146192194e-03
-3.062735502969071016e-02
3.471610297419148311e-03
-2.146645481541757314e-02
3.755732972484191173e-03
-1.108336213573771038e-02
6.320136412059707172e-03
1.737948993256276803e-02
1.257122163535719095e-02
1.652160909770488718e-03
6.556718252415620748e-04
6.222413169227678301e-03
-9.458688483934165128e-03
-1.353276329357264683e-02
5.422158323114130776e-03
1.944433123613409711e-02
-5.930552884831994526e-03
3.382078562041152068e-03
2.123479586247463934e-03
-2.862401388328730464e-02
-7.520012341023499768e-03
-1.274864107512865309e-02
5.968291339381402022e-03
1.267772897858102446e-02
1.923871405973839877e-02
-5.788771196405524504e-03
-9.858804744611922993e-03
-1.800121634606658468e-03
6.013576369223267923e-03
-1.142052896423866384e-02
-1.387070861027408178e-05
1.198211873157957290e-02
-1.085544540680848102e-02
-1.452953975179665028e-02
-4.730932061122568137e-03
1.874416233519489439e-01
-4.858998396173542546e-03
1.226408844119174224e-01
-1.658501878110533734e-01
-2.977516985040666309e-01
1.011154043449525100e-02
-2.912971032056487115e-03
-5.016013484598907946e-02
-8.390247848122110719e-02
-1.340364669452425439e-01
7.091725742600235582e-02
1.771842045445814751e-01
5.044101956092133382e-02
2.557178089592660603e-02
-1.773304606590850596e-01
-1.258168208707451663e-01
1.610513986413757981e-01
1.061448192285083664e-01
-9.087002332264801363e-02
6.230945313218776149e-02
1.643925847738970381e-01
1.023525888188791394e-01
-1.572431257249641556e-01
2.296237570291586871e-01
-1.093980186371685676e-01
1.250086170096057769e-01
-1.127403563924187363e-01
-6.735333766264724881e-03
-1.019827797090242100e-01
1.276104740376322599e-01
8.092361917774207325e-02
3.226041684112596064e-02
-5.379154986315289044e-02
2.355253328809199173e-02
2.922224556950733538e-03
-1.980875557493134431e-01
1.226141968920455433e-01
7.360099510377400567e-02
-2.168477442657920085e-01
-2.190267735661608206e-01
-4.403996129993665437e-02
-5.801498651566749931e-02
-4.065075295761269580e-02
-1.955184018148250491e-01
3.135857919801334631e-02
1.286396513761824123e-01
-1.083123119301467041e-02
3.871152776236376492e-02
2.283439345452008967e-02
-2.233538915031460792e-01
-2.639347512262383844e-01
-1.948147253395477174e-01
-6.148385503550925918e-02
2.395285800903442786e-01
2.161114156931170649e-01
-4.624045622286249851e-02
1.087441532690986423e-01
1.011814300145093271e-01
-7.454052937821691038e-02
4.797194465487727988e-02
7.703774786628962701e-02
-3.474834436703606432e-03
-3.361003594329031036e-02
1.512499467281036014e-01
-9.248180377358361515e-02
2.485761683983797599e-01
1.438912395827355861e-01
1.302997161607683252e-01
8.768312519232729363e-02
8.578512363294236651e-03
-5.567877580006979493e-02
-6.944287918144351202e-02
4.944998920202893500e-02
6.030812122613841281e-02
-6.857705662323825002e-02
2.064377069151762945e-01
7.211586452116219847e-02
6.987507097674001966e-02
1.523791330996224491e-01
-6.581641485337241804e-02
4.025418935127578202e-02
-1.050654447629982835e-01
-2.413637408753547750e-02
8.139382572255602841e-03
8.898852314397517893e-02
1.901526650584667300e-01
-1.786069698649868642e-01
1.166258130400555648e-01
3.058268395091666148e-01
-2.817235145455099926e-02
1.107726911481627385e-01
-2.888439117745606605e-02
-8.815492665572828568e-02
-3.069728303431154201e-02
3.119743358191913105e-02
-6.992188102808817585e-02
4.385921325389924297e-03
-8.710596625143406102e-02
-6.171204949058368971e-02
6.675534730310673376e-03
2.258820743319606972e-01
7.624546450571353939e-02
1.286742128115746508e-01
-2.404667719982817309e-01
-2.940603920241176561e-01
-3.165281877319987142e-02
2.087019696786249559e-02
-2.840855785163205749e-02
-1.000695349223110903e-01
-1.255754365770503367e-01
8.177677575509048613e-02
2.683123514027399570e-01
5.512564859997169664e-02
2.447883768186388809e-02
-1.804923159057117976e-01
-1.219876825328715386e-01
2.600720530843588785e-01
1.318595619939608443e-01
-4.791180399089477876e-02
2.909381630731868937e-02
2.266513603188333725e-01
1.423721206505761672e-01
-1.797480538142615381e-01
2.932459586956577269e-01
-1.142920361202932750e-01
7.111073023871949950e-02
-2.056153912791802985e-01
-1.106548195434890747e-02
-8.461893348275362214e-02
2.214572451999333447e-01
7.878921959493305482e-02
-2.430724519436921419e-03
-8.105515007553051876e-02
-3.082703882975184814e-02
2.732094822792851055e-02
-1.380467824009109223e-01
1.243460317549630184e-01
1.043449952966029881e-01
-2.878300660725320870e-01
-1.849222065868910969e-01
4.297385386917566483e-03
-5.473121251385729136e-02
-8.246672998899273743e-02
-1.960359584922468645e-01
3.546312367581018477e-02
1.187792226396953421e-01
8.964784566488440132e-02
3.345409555267153667e-02
5.955886395311937864e-02
-3.089515821389640648e-01
-2.821850964685447272e-01
-2.322842987123391878e-01
-9.960817852164537134e-02
2.735934255194099607e-01
3.369724434048076978e-01
-4.164293330177736008e-02
1.353589229446744424e-01
8.583609190687739587e-02
-1.307501148673558544e-01
1.174291428309941904e-01
1.048208015711512286e-01
8.417439781722017844e-02
-1.065336879605326553e-01
1.474856910925473885e-01
-1.066687611462846935e-01
3.230583101001521795e-01
1.934599673650907459e-01
1.379834687687312433e-01
1.241663448166859945e-01
6.063023103780598028e-02
-5.748041860006582182e-02
-1.131549395710818307e-01
7.298199080931791483e-02
6.627265545014313086e-02
-7.056117196738005866e-03
2.382010901689571025e-01
1.077214624823847888e-01
3.583806721551496127e-02
8.486012583626958983e-02
-6.923381201413225661e-02
6.982434150105600035e-02
-5.435158086339457462e-02
1.380740974780184831e-03
1.557638349553808893e-02
2.091331197795639196e-01
2.710029742630361005e-01
-1.322703723754845850e-01
9.720411923821299649e-02
4.021891789175653931e-01
-8.089341740990325935e-02
5.161063373253166331e-02
-4.213593021379143794e-02
-1.340550068489736180e-01
-8.170707283592192061e-02
2.447222284789832281e-02
6.708837450489647802e-03
4.478130098504808088e-02
-5.372386962868999638e-02
-9.238304960335440297e-02
1.636507284106755722e-02
5.337407192212671736e-02
9.668530917554023218e-02
3.180568614301881869e-02
-5.585185285678333222e-02
-2.680335886306266929e-03
-7.728748829624623035e-03
-6.934518366263924330e-03
3.238749210512265747e-02
-8.254913469332697540e-02
-5.945942208306697480e-02
-1.171776469463023211e-02
1.294935954015379032e-01
3.314797782988333774e-02
1.092526642000536848e-02
-3.685597297801494060e-02
-7.579667380159926977e-03
1.049932068385951295e-01
-1.082065542699450419e-02
2.753014939698271695e-03
1.840677044198238757e-02
9.710731810795464325e-02
4.268357549311703469e-02
-5.839087767392093370e-02
9.543779502403244852e-02
-5.052156669292519331e-02
-5.861221244574126715e-02
-1.068900889088531536e-01
-3.787909641906118258e-02
-4.090135277842978784e-02
6.579849015771295495e-02
5.498262920101441159e-02
-1.534073025054293049e-02
-1.564069576471717807e-02
-4.893312727600351852e-03
1.566369757354561798e-02
-9.376937592222982579e-03
3.652386599620342789e-02
1.018320989084370298e-02
-1.215441785181265999e-01
-3.341315347853812678e-02
4.746989548250895447e-02
5.299885799268953812e-03
-4.203136805822151739e-02
-4.681986038264610711e-02
-1.462105098379668303e-02
7.079350048666829820e-02
1.041267704437848773e-01
1.063109342312375249e-02
1.579824841821626108e-02
-1.799651445195341870e-01
-5.335265494046640550e-02
-9.103106666175143913e-02
-6.547869077826173889e-02
2.706582555357765069e-02
1.530467163624843197e-01
-1.037612548827227497e-02
4.499437649973628967e-02
9.285553258546784886e-03
-3.219696590692575078e-02
8.786679575910789908e-02
6.755434853460645303e-03
7.606501558502822002e-02
-3.180419739988852440e-02
4.774529683852341000e-02
-4.898210484795659930e-02
9.823281953261640831e-02
1.057228237079253785e-01
-7.846690326986602640e-03
8.618080788046915408e-02
4.240567184817699981e-02
3.074144019100247607e-02
-6.118828732289109673e-02
2.091043061057939328e-02
5.420869320617426740e-03
5.763793616125334474e-02
9.788168362392669908e-02
2.900877427520964086e-02
-3.877735283669993954e-02
-3.701783908844385323e-02
-4.122593180882655993e-03
3.814288051470223623e-02
1.768137019949546015e-02
3.500730652455612962e-02
-9.538162171978467260e-03
1.450598862904573794e-01
1.007282071593518513e-01
1.127143248313250412e-02
-3.251798608004073665e-02
1.236725919481532904e-01
-8.051296882319844417e-02
-3.150599416714589679e-02
-1.450190834695813148e-02
-6.141651149692875511e-02
-3.515805817245643006e-02
2.465623471505440367e-02
3.626144733608298310e-02
1.502221006395707513e-02
1.519208487856667233e-02
-3.816650141178441064e-02
1.186815139076941548e-02
1.465971373948100204e-02
1.060413815331972126e-01
-1.029080383502520117e-02
-8.131769192014424996e-02
2.072645761685892526e-02
-6.913949358596638284e-02
-2.194853490519337903e-03
7.332266404400672455e-02
-1.908045040305273582e-02
-1.871972633881993642e-02
-2.640136674915037618e-02
9.997461083010078520e-02
2.222780090690744739e-02
-2.645098043507336863e-02
-1.178216868049461116e-02
6.733358614260351836e-03
1.734926042808726254e-01
6.987955091436206384e-03
5.940139781491712151e-02
1.757648949069734370e-03
7.592373321140184761e-02
4.673513753784770686e-02
-2.436630018360833386e-02
3.649050968666183586e-02
-4.287371296507809515e-02
-1.448690692150858828e-01
-1.288153096879251780e-01
-4.288187158118665458e-03
-1.321533434674937446e-02
1.182206137714952587e-01
1.797470717123694425e-02
-6.286179210904990766e-02
-5.400635276426332676e-02
-1.791428040562560720e-02
6.060165027798864595e-02
1.025262457025661739e-01
-3.194497212476849618e-02
2.423952956687030688e-02
-5.478008613553978640e-02
5.070543153808786813e-02
1.173933139440684614e-01
1.563333985433786044e-02
-8.487065285415540394e-02
4.544105719540675326e-02
-4.285105312973971382e-03
2.786160762090484147e-02
1.394050127526088312e-01
5.600323788239940266e-03
1.963775478431583829e-02
-1.177691111013470515e-01
4.563048246027907352e-03
-5.787852810736929948e-02
-6.715890231099819196e-02
3.106574221118048665e-02
1.750597184470588374e-01
-6.620890904381292012e-03
5.253789308009403081e-02
-4.433353533146419667e-02
-4.412448695129526921e-02
1.109775735830278165e-01
3.935609652294376481e-02
1.023641913496171618e-01
-5.590131660300672739e-02
-4.886629787107250183e-02
-1.993636247960028918e-02
1.096620567395836243e-01
5.374225649718863962e-02
-4.666635388582099364e-03
2.769221746235505863e-02
7.682659419981327509e-02
1.372816605844593557e-02
-5.073911671083593256e-02
4.378499003017932711e-02
9.974480622453827175e-03
1.505938260261810713e-01
3.527196712721501759e-02
3.744371309957799515e-02
-5.867321928747800536e-02
-1.677151100934005934e-01
-1.263565778806831699e-02
3.586564031577712391e-02
3.436244649984403904e-02
6.912588940047113828e-02
-3.728424791472818856e-03
1.489620580983120057e-01
7.639203482982706572e-02
1.083699902555542993e-01
-9.775659333857492084e-02
1.017507439544401981e-01
-9.352534856162073029e-02
-9.864304369833057362e-02
-8.575215840367530736e-04
-5.805004202536549751e-02
-9.455313679320798137e-02
-3.248675838697245161e-02
3.388373591791296602e-02
6.310593445148193759e-02
9.842891785885481137e-02
-6.206361638051487162e-02
2.997606776636555989e-02
1.620762941281777073e-02
2.240783920759655823e-01
-2.090362690915927371e-02
-4.384509063384829652e-02
1.704779485508671130e-02
-5.638002501158861229e-02
-1.011587829563337197e-02
1.053643300122921317e-01
-1.475819324678466771e-01
-6.400881030411668948e-02
-3.641502741960369466e-02
1.573705346513623593e-01
7.131084881068375236e-02
1.487168694436025174e-02
-4.189744683115709939e-02
4.384460162623341623e-02
1.301976397966983223e-01
-3.446848707988608984e-02
4.073593229006690353e-02
-3.911065274606797398e-02
9.750249267629826355e-02
2.443261189463551836e-02
-7.278154693964102029e-02
5.822184512563341463e-02
-4.683891057399215685e-02
-1.745037324938779333e-01
-1.211523055843773539e-01
-1.819508333980838360e-02
-4.892049958781157643e-02
7.602216974149345052e-02
7.644952349554991200e-02
2.272851404701374534e-02
-2.089823364603696568e-02
-1.474211628143555670e-02
3.331991960176054757e-02
5.442819873454346480e-02
1.408150203484614428e-02
-4.461796188114455948e-03
-1.338882503587170425e-01
-7.929813898927917312e-03
1.307065234072841697e-01
4.283599418944606524e-02
-7.207329640853178676e-02
3.491097736157712517e-02
-6.355525284373725325e-02
9.475249329072150950e-02
1.839497997457068545e-01
3.907824846065969387e-02
2.621528538428564460e-03
-2.260501712847083622e-01
-2.539421499989618150e-02
-9.508044307652181726e-02
-1.396097744284736375e-01
-2.172594415137214102e-02
2.273612486149274581e-01
-2.738445089305257402e-02
7.162480883508297314e-02
-5.292619112893218181e-02
-2.142015667063635470e-02
1.892301636275535714e-01
-2.283304998293726393e-02
1.875353638032428716e-01
-6.375222657530395243e-02
1.392721419799871838e-02
-6.999039708575474639e-02
1.269754739290677170e-01
1.386324485054807876e-01
-1.215670713519048998e-02
1.187620783118464446e-01
5.359587698703189435e-02
6.146751115512147368e-02
-9.257988783168188962e-02
4.106336602679809544e-02
-5.133042070300769533e-03
1.225999819033477267e-01
1.044678124523754636e-01
-1.683542413937322952e-04
-9.658800383269607048e-02
-1.484898806382125014e-01
4.230999355255106453e-02
2.700526284694108187e-02
5.575270159610835885e-02
5.876263399321281222e-02
-4.188051102886173466e-02
2.145127586259716335e-01
1.317614645182124955e-01
9.534505592529467222e-02
-1.088159677971184958e-01
1.192474626276305016e-01
-1.477759556101264360e-01
-9.400587108151886584e-02
-2.827708277048737728e-02
-9.516011661107519337e-02
-8.437670787782119985e-02
3.465257474579661046e-02
3.633132961589393556e-02
3.467477400124720915e-02
7.981013972937890666e-02
-3.560027312614409689e-02
6.785478703815259194e-02
2.191553922650879907e-02
2.894541294392766750e-01
1.727904413177142398e-03
-1.387381442636882387e-02
6.732163043303433791e-02
-5.247580558533400906e-03
-5.310413820322301692e-02
1.460424412159306296e-01
-2.482811950691891922e-01
-8.838092437060923734e-02
-2.922164542947028668e-02
2.370101503439236978e-01
7.705528086313816194e-02
4.124043951758609577e-02
-4.894312507316869038e-02
7.927434826609809637e-02
7.013163022329078899e-02
-1.467646706109421439e-01
5.724313468910843285e-03
-2.694764210473313965e-02
1.730402520370838970e-01
-1.032233902444202288e-02
-1.108703324562606146e-01
8.691562322319340561e-02
-6.181840405851957154e-02
-2.062689724881118514e-01
-9.947785055824712175e-02
-6.387989839873051134e-02
-5.137825878839387406e-02
1.308169929652574538e-02
1.304625818437133711e-01
7.951693495303133186e-02
1.568668092902451849e-02
7.999975307639477576e-03
-5.213481058967960567e-03
2.604237315562331605e-03
7.065738405141709644e-02
-1.048127837767548129e-02
-2.162044656156944800e-01
-1.038422150917609095e-02
1.373589360435326090e-01
1.166183455563685745e-01
-4.763528522093554707e-02
3.644214741621470272e-02
-1.408428324150134969e-01
1.596907802093135709e-01
1.986556093565146341e-01
7.992857094743485713e-02
-2.415823475260992642e-02
-3.281701220579060219e-01
-2.252085563131515575e-02
-1.506838959056090443e-01
-1.745212321126336785e-01
-1.122964767742604675e-01
2.740768287294855221e-01
-3.852392166056518158e-02
5.785981339082186398e-02
-3.192567112546722263e-02
4.633355421824950082e-02
2.796113658575581362e-01
-8.252327361516893778e-02
2.281234189611918983e-01
-1.067225706422698095e-01
7.711992433848358086e-02
-1.126836459451094896e-01
1.222825754597233194e-01
2.296261336393107255e-01
-1.404663776912722442e-02
2.019589682759889704e-01
6.808285866350528848e-02
1.600504630711635512e-01
-1.232581170252035757e-01
2.953208029965303377e-02
-2.454932292805711222e-02
1.474999413943811621e-01
1.623271655011963854e-01
-7.530284168957099115e-03
-1.575757969444857853e-01
-1.226615514141826957e-01
8.498039163257400941e-02
1.067626734209563104e-02
1.072981147337302293e-01
8.442178524510340898e-02
-8.449740771209575396e-02
3.026357482870579152e-01
1.580919523852880593e-01
5.806944229443887495e-02
-9.564857120140229929e-02
1.004267037702879506e-01
-2.095780653455272813e-01
-8.969805035045953778e-02
-6.062400442716486121e-02
-8.579034006206055774e-02
-8.766679267139590448e-02
1.127121946744834430e-01
8.678871216429741298e-02
-2.029582654493160276e-02
7.515826213188515903e-02
-3.875110001988812947e-02
3.641707337469673317e-02
1.667611137468017366e-05
1.076362861033102747e-01
-4.694418283187876129e-02
1.322887350059913716e-02
1.041459620112930628e-03
-5.868083183326454344e-03
-1.910416775433739986e-02
4.878611558149612004e-02
-9.516018268345195763e-02
-6.090392236296827966e-02
-1.303645847251761782e-02
8.512001708747066187e-02
2.295408377270900802e-02
1.267412970324573174e-02
-3.596454407266265474e-02
3.748690804623878298e-02
3.982125384431886572e-02
-4.410719012378527121e-02
2.167880976279134772e-02
-1.738446888082544398e-02
4.418949418456223632e-02
-1.409869528407969690e-02
-3.954080137345659246e-02
9.875009903023677232e-03
1.160811620482864182e-02
-1.014911148807379343e-01
-4.687924331136592015e-02
-1.684150332352215770e-03
-7.434308390510391100e-03
-2.973224224732674836e-02
3.374632196477481832e-02
2.683199676645683235e-02
-1.339618889222629963e-02
1.407053918135232722e-02
2.945746877211751977e-02
1.776127810469690926e-02
1.519745373429112366e-03
-6.872972794764856987e-04
-5.124220470037696429e-02
7.613137230786905067e-03
7.857474579747709964e-02
6.012020151745369606e-02
-3.172408377607794511e-02
4.562876787604192019e-02
-6.244527233076193479e-02
4.819571321769044320e-02
7.970990071117095566e-02
3.682219675638383205e-02
1.599566963023707489e-02
-1.227863555473738544e-01
1.853269499926632827e-02
-5.572019927688507540e-02
-6.177299084725179634e-02
-4.519032035873778858e-02
7.975480109467869561e-02
-2.055454012164376065e-02
6.491625070405216379e-03
-2.384143248229278738e-03
1.159151636215000059e-02
8.908575231234197589e-02
-3.237089600982943904e-02
8.031982451505965959e-02
-5.726396026339217876e-02
-2.165392032367674004e-03
-4.599882688096190719e-02
3.055605359979723240e-02
9.122057803137337273e-02
-1.820114380024627845e-02
7.963633546843143507e-02
2.442514182507626169e-02
6.938282052519750831e-02
-1.835699109936817300e-02
1.220591632741592665e-02
1.167988112812810841e-02
3.440466919293861531e-02
3.849412664628145547e-02
-5.916219952419408436e-03
-7.074887433423972249e-02
-7.204793195646733150e-02
1.612053021037959666e-02
5.191848474579726855e-03
6.215732928409421071e-02
1.501772878092239548e-02
-4.118578367342029534e-02
1.056367919366971442e-01
2.107022299763528991e-02
4.437919543685416718e-02
-5.561237310227594433e-02
1.638693687131612120e-02
-6.691596794812161575e-02
-6.112634634494739511e-02
-1.100321619389364389e-02
-3.258953683334426393e-02
-4.102943774740520216e-02
2.243306276834401355e-02
3.480277123341522783e-02
4.434539363602303576e-04
3.973099051416983940e-02
1.450108184664414442e-02
3.433688975966055906e-02
-7.885158196477021902e-03
1.392011801329353371e-01
-2.947310418944343313e-02
4.884893644683863112e-02
1.940534417159984343e-02
7.463043528462663667e-02
-4.416566473251352237e-02
5.459837715210393017e-02
-1.619184074646800864e-01
-6.958237359607186145e-02
7.141370102244692063e-03
1.140909143717789981e-01
5.589659061338131396e-02
4.375976642308909703e-02
-1.370620439441499680e-02
5.154344180497424238e-02
-3.768664596362503172e-02
-9.098604086944940550e-02
-1.108849798346114510e-02
-1.895004827012011436e-02
9.080881967999038240e-02
-4.829201948177152398e-02
-4.620843717131053324e-02
4.220358157180740394e-02
-4.025142941415835694e-03
-5.218426972751501192e-02
1.354641028002673796e-02
-5.700328399527160306e-02
-1.621166447024948928e-02
-7.664287260145116742e-02
1.010740483724763966e-01
7.217949819084476526e-02
8.142190444170316344e-02
4.570601311485360946e-02
-3.395558034621853211e-02
-6.052440894303075941e-02
6.785003442660555995e-02
-2.606750693398257254e-02
-1.102710469492910184e-01
-4.608488721076758887e-02
4.830527047236086308e-02
7.359330190413208850e-02
9.413376367697640773e-03
-9.285334947485722815e-03
-8.240102266050060298e-02
8.614075997136248775e-02
6.633452778035736630e-02
6.085912677287273059e-02
-1.669170172158170734e-02
-1.724775968613342092e-01
-1.317659778960764269e-03
-7.992847414097702108e-02
-7.657707161341978375e-02
-9.311462101077043474e-02
5.955938707002365190e-02
-1.911219756244909515e-02
1.413821053121975570e-02
-4.003608553708490163e-03
4.582661474601344015e-02
1.380948710801629120e-01
-8.876522687164827008e-02
9.258117006421617834e-02
-3.729444471944229345e-02
5.484649909961727271e-02
-7.185910927894233191e-02
3.914500389703550604e-02
1.480748351480712377e-01
-2.679351844236844971e-02
1.085507236831951966e-01
-4.825638444453399581e-03
9.349376216045210408e-02
-4.570293723490934795e-02
-2.190867313697129545e-02
-2.577878836970533619e-02
-1.441031031770250749e-02
9.883935795854477402e-02
-1.878665160683709243e-02
-8.603161306087403482e-02
4.506033895721149596e-03
4.884745478798710461e-02
-4.949290023100543640e-02
7.636018341626756023e-02
1.659762620876914507e-02
-4.918523771694246344e-02
1.159211311105279724e-01
5.572723162371331918e-02
-1.415215972435125008e-02
9.186979929746373272e-03
2.260856405874300465e-02
-8.755936622797842739e-02
1.262257787035987386e-02
-4.255812286371200848e-02
-3.828536208026626919e-02
-9.351865176815656738e-03
9.907802878928811952e-02
1.381277133477068833e-02
-3.010135678873024009e-02
1.315912253811887464e-02
2.470948740962821549e-02
-6.271727136487760534e-02
3.325576616885916187e-02
-1.722618781650562536e-01
-9.423182352250313032e-02
-1.471735630827033028e-02
-2.213158374569239584e-01
-1.156732520829515699e-02
2.719206461592982293e-02
-8.868947443871050274e-02
9.207186752411535002e-02
8.958891621869474395e-03
2.633464456713153698e-02
-1.165035081065795841e-01
1.929009371437379050e-02
-1.453206557523537522e-02
7.098702967191794673e-03
-7.024160668846085587e-02
1.195737506196689892e-01
1.526088033292574975e-01
6.087662125281267760e-03
-2.914163846186900581e-02
-4.862104453513058783e-02
1.847830302190181170e-02
2.050932552001071690e-02
-7.873534011821696488e-02
6.953400901612419305e-02
3.807930597987051885e-02
8.119364503367576579e-04
2.033727732968371171e-01
-2.562542689601461643e-02
-1.998893792675887626e-02
-8.926638899505681679e-02
-1.089525379824593937e-01
-9.973002787380809420e-02
4.382097800634635748e-02
1.291884542087815280e-01
7.574168501959281652e-02
-9.323459286989085881e-02
5.108982186325998487e-02
1.370310971948116019e-01
5.301924163731831091e-02
4.577741151480061582e-02
-3.191558363368714180e-02
-1.223058396587449609e-01
2.579749765019554320e-03
4.628580806104729689e-02
-1.840278578409659804e-01
-2.718404244559241914e-02
-6.232021247753188886e-02
2.019156077763736498e-02
2.134090971501823586e-01
3.241659936580568169e-02
4.817172221953198302e-02
1.410077001334443525e-02
3.339023493152235705e-02
-8.091049813020295689e-02
-8.231177520990733132e-02
3.115289595884782395e-02
1.698731894193212730e-02
-5.693876064560685762e-02
-1.235462483498894065e-01
1.111346615086144934e-01
-1.330378973132336218e-01
1.585433836322568818e-02
-1.903476022670889944e-01
6.707056285539124418e-02
1.155225839069913768e-03
-1.480858886810810793e-01
6.465907125403085043e-02
-1.382915474494272323e-01
-8.014435006205473944e-02
-1.005434491509784450e-01
1.371222357244516188e-01
4.896401691105747161e-02
4.371099204170321439e-02
-7.379981408602032111e-02
-9.825375561707888616e-02
4.171121198701444738e-02
8.882412806440359576e-02
-1.057809465673245353e-01
-4.891075644325165728e-02
2.745142836516819770e-02
-1.070210981001094019e-01
-8.694398548943327310e-02
1.119594409316047590e-01
-2.129614086214806079e-01
-6.090060677742750728e-02
8.642020296004310209e-02
-8.159909653817873365e-02
2.728428471918884629e-02
1.098394630187018994e-01
-3.583006546960101207e-02
1.503292825748172856e-01
-1.750170766559585103e-02
-3.310497534073193141e-03
-1.606710087032835188e-01
-1.500858753864454664e-01
1.258152670196313883e-01
5.679541001454478655e-02
-4.691425898826798863e-02
1.664333980655122863e-02
5.309837668595732835e-02
9.762794753654879809e-02
7.139777732567746844e-03
-5.353458470268210312e-02
-4.396806208352458528e-02
-2.171563125045402091e-04
-1.293894273522999336e-02
9.986260478125112694e-03
-1.059036708640998803e-01
-5.952899353865989673e-02
1.368943521108923617e-02
1.198757606912664170e-01
4.021974537849061504e-02
1.739586102547081847e-02
-4.976582043349728895e-02
-2.217221892426281867e-03
7.110553001175086429e-02
-1.149949383577138521e-03
-1.070285218913666000e-02
2.613188291234854604e-02
8.687776437660298112e-02
5.417734952400216769e-02
-7.092507449945807674e-02
7.264617912066154148e-02
-3.411265288489841868e-02
-2.332011167925161083e-02
-6.129746918075798523e-02
5.855264814004179814e-03
-2.296629754607436291e-02
4.756124126680726788e-02
5.994750203889842588e-02
1.582502961326810384e-02
-1.317963372305345875e-02
-2.965392620221920985e-03
-2.351326171136940060e-03
-3.628418296338347532e-02
5.656612562146223072e-02
3.503574505342227884e-03
-1.341089280406524142e-01
-5.060273684636351632e-02
3.122992897265021439e-02
3.095056204181587112e-02
-2.359164968116716360e-02
-5.004122315539032140e-02
-3.176070085696628548e-02
7.076868015139554935e-02
6.858398276354263357e-02
3.285817854436844793e-02
1.528788681052763512e-02
-1.512178797846545630e-01
-5.099738482253866889e-02
-8.803037709308568493e-02
-6.434727635932380174e-02
3.362490703089231897e-02
1.504603199669943547e-01
-1.962437426020710932e-02
6.091676869214745355e-02
2.035580940547641535e-02
-1.284574843797399099e-02
1.073307292828931669e-01
-9.475374247740883313e-03
6.204507204338140236e-02
-2.333277351781977427e-02
8.212824603371964016e-02
-6.610382988846791319e-02
9.805779954263448006e-02
1.071503508000721666e-01
1.757704255105728419e-02
7.699607323126805847e-02
3.479974528749758822e-02
2.961214892472927018e-02
-6.775325416652550059e-02
2.126092566044629831e-02
1.675494894325503439e-03
4.828688225505527176e-02
1.024086841959224448e-01
3.801769078156726905e-02
-3.162686604273196728e-02
1.289300934718355836e-02
-7.400443254554629584e-03
9.598749655167531508e-03
1.144850998098422695e-03
3.480076572439525645e-02
-1.906296700694020199e-02
1.378864035220739581e-01
1.125889777176073969e-01
-3.094827429110878075e-02
-3.089395157106896383e-04
1.104687413296359111e-01
-8.373521031677261250e-02
-1.069621937753519351e-03
-2.421326439325115903e-02
-5.390938366566286333e-02
-3.580870443011113097e-02
3.557552785447609667e-02
2.191084270930656469e-02
-1.582553769913939675e-03
-7.043107768475160083e-03
-2.618361366978751853e-02
3.599820782139972336e-02
7.314129939141318648e-02
5.892328694127508398e-02
5.281138145215388824e-02
-1.156899036782458173e-01
-4.111633439990083384e-03
-5.952711807201623018e-02
5.857212839448963128e-03
3.295399039457098250e-02
2.801622136126563634e-02
-5.611956199383833638e-03
-3.033998234350705064e-03
9.635723536027578084e-02
2.284686382653396478e-02
-2.716439447396185383e-02
-4.953419016461339114e-02
-2.997328347167445978e-02
1.397123678698405091e-01
8.823745929031642787e-02
2.214195793164586146e-02
-2.085556144135592913e-03
3.074773329303387773e-02
6.279951062627726899e-02
-5.692476498547210245e-02
9.163487510554234328e-02
-2.393385513884500188e-02
-6.842277394205821539e-02
-8.196846200027316232e-02
-3.644605094383672472e-02
-4.067540366797175316e-02
1.678964545547611820e-01
1.357760394322014667e-02
-4.381745675679046131e-02
-6.261150120829328536e-02
-6.046648769090907233e-02
3.742804544814970491e-02
2.211014802158237785e-02
-1.824460580821347933e-02
4.260650086071191694e-02
-6.829472536642468283e-02
7.206440345369226862e-03
4.397536569544047147e-02
-1.091710316025362205e-02
-8.268049481943121060e-02
-1.968752555629545153e-02
2.005381765125829885e-02
1.967186493541821582e-02
1.025630221763319250e-01
-1.020237475184103230e-02
3.025630731754440361e-02
-7.223231543828091683e-02
-5.294244439075171393e-02
-6.538365301660679918e-02
-3.043975492129995936e-02
1.276564633959553219e-01
1.638598047589766293e-01
1.945291277640546004e-02
2.896045784564829986e-02
-6.339199820206458530e-03
-8.227519737856801851e-02
3.419441677914883404e-02
5.158023318305465788e-02
8.750862699653476351e-02
-6.488721858376379770e-02
-8.169962375781790465e-03
-1.783045213586928772e-03
1.047660927879889015e-01
4.786632278075266672e-02
3.381128367363026715e-02
1.610097957918862899e-02
7.658409120555025040e-02
-3.353673442412808542e-02
-8.338658703633376745e-02
3.726988807573329478e-03
3.044910301191669846e-02
6.913754874882431511e-02
3.686585952152317269e-02
5.647475036124326858e-02
-1.172479404866684331e-02
-6.018131254508403416e-02
-2.448085790664218664e-02
3.763328868695324514e-02
1.438484253655349402e-03
3.624975968591071657e-02
2.025622840943412661e-02
8.589069410575367325e-02
7.243715301279154972e-02
4.600095156169724253e-02
-2.363972003021952428e-02
1.402951733762139719e-01
-4.785242380166462167e-02
-6.857752947681686195e-02
-4.108815989639279936e-02
-5.687036558682666970e-02
-4.493786096301631561e-02
3.721668094981755558e-03
3.515877781533036789e-02
4.220394037847186725e-02
1.323996723567675074e-02
-5.127149991378945892e-02
3.080286867935141601e-02
1.345384370073820710e-02
7.577487420100818827e-02
-2.488925204368417146e-02
-2.180506723459809532e-02
3.370310652804542340e-02
-3.029947283285542789e-02
2.481107023362574219e-03
3.034728576448537246e-02
-3.377326586926777258e-02
-8.358753032347397346e-03
-3.380456556507649424e-02
8.010534319171511153e-02
3.311115415708504317e-02
1.092294733854896720e-02
8.147777336116091701e-03
1.728554581691644013e-02
8.012188922314585071e-02
-1.856832117795271034e-02
4.068474403460040079e-02
-1.493796204373819443e-03
4.295847567009117990e-02
3.510480926976815991e-02
-1.909561882188197390e-02
4.057233841419379677e-02
-8.593556604656008013e-03
-1.141161962921820316e-01
-4.716713474391633770e-02
-1.378528499463449464e-02
-2.193895118636007835e-02
4.993956705983283728e-02
2.164252298282613729e-02
-2.547358071232675575e-02
-1.042231924859573534e-02
-6.634116396199177213e-04
2.153036367063687964e-02
5.225516783770421669e-02
-1.146182651943952746e-02
1.553385391151174827e-02
-3.234225154087567999e-02
2.229236377732780536e-02
8.786090855018743873e-02
3.683732219786765849e-02
-5.658865439127248875e-02
1.877835578292702881e-02
-2.405640082119788609e-02
1.090780573098886971e-02
1.021276598067542563e-01
-5.937224791698394837e-03
8.811365618804384726e-04
-7.817549872080310769e-02
1.708391398463578875e-02
-3.270700257255738236e-02
-5.471653379794519378e-02
-5.698876410842576394e-03
1.145935977204372014e-01
-2.503918692305172333e-02
3.824813172537036565e-02
-2.078342248052368266e-02
-1.453987180015939469e-02
7.331475240105896074e-02
-6.558702097606470237e-03
8.791338617017849244e-02
-5.600731181614899967e-02
-1.007915030607489139e-02
-2.243898999338383993e-02
5.942370805378847237e-02
3.083618173469369547e-02
-2.737603502246731962e-02
3.299409019484446370e-02
3.156450945915463546e-02
3.189908427998969231e-02
-5.384844810845165752e-02
2.300262341419923029e-02
-7.683614753259669986e-03
7.909798536536746805e-02
3.308915098398623744e-02
2.857914784312689041e-02
-4.112023315576075755e-02
-8.767348527197894870e-02
3.676878477967922797e-03
2.394653043116348398e-02
4.745575280928004958e-02
5.482219208546316308e-02
-1.109276829160137263e-02
9.998647484259910734e-02
5.152530740470059184e-02
6.791766464135094716e-02
-6.041475759394341477e-02
5.786791886065782708e-02
-6.133193276601513894e-02
-6.028504587996517255e-02
-1.490392053901692460e-03
-2.093867223667859531e-02
-5.859651490148422986e-02
6.279777417840188072e-03
2.667009432405550301e-02
2.545164513769599540e-02
6.399156144644739530e-02
-3.916236614285926315e-02
1.116520235042505194e-01
9.342295221673460603e-02
2.635649200419513116e-01
5.954826275002327723e-02
-9.036346596393386721e-02
6.090391271126612688e-02
-6.601594975398830667e-02
-8.472487922111590977e-03
1.499537370380299994e-01
-1.465399748795916668e-01
-8.020688612012738528e-02
-2.683544622474342764e-02
2.625335039039131124e-01
3.308486250010409663e-02
6.481834842588552435e-03
-1.015687123902110495e-01
6.572769507946700507e-02
9.810623574654557533e-02
-1.873840521494751082e-02
5.649983201617123085e-02
-2.154998954052079682e-02
1.434145324095476015e-01
2.131109776553716598e-02
-1.285065412360147652e-01
1.911617896411035855e-01
-3.911856376622013798e-02
-1.941578722251721678e-01
-1.310938387692502372e-01
-1.120358698932402003e-01
-1.605214042038350525e-02
1.426505221529657252e-01
1.341719541911820246e-01
3.366952953728626075e-02
1.069582940565858703e-02
-2.312685015573537686e-02
-3.233178837766362973e-02
-1.203119646058137433e-02
8.488628324975280859e-02
1.326557705061256510e-02
-2.289255537589804657e-01
-3.013225851050579940e-02
1.232482991683738482e-01
7.800118244627511632e-02
-4.697990533072958497e-02
3.767470755348371891e-02
-5.152924670386842959e-02
1.282990595848174098e-01
2.219264023000842578e-01
7.822789503154654878e-02
3.734053677899477897e-02
-3.387364816640752729e-01
-7.805592958155647965e-02
-1.866198710865728250e-01
-1.538307785132814187e-01
2.039683588815089169e-02
2.930534265743340860e-01
-4.517403551971766601e-03
4.060599094444087426e-02
-1.320018684150179970e-02
-8.940613454221441048e-02
2.354199166337770655e-01
-4.634575559714925602e-02
2.568342450708235858e-01
-1.376249288264447257e-01
5.024959066833893651e-02
-1.288788303024014925e-01
1.679903496501723992e-01
2.568311132237462990e-01
-1.960346441309167645e-02
1.467747437261389398e-01
9.837650133167598343e-02
9.146425819678137559e-02
-1.559307174111007332e-01
-2.960590333655176501e-02
3.665636454356186597e-02
1.078669662152957343e-01
1.878939910347183218e-01
2.414714995479635452e-03
-1.573765580986692669e-01
-8.598175251686511478e-02
3.462797082851177405e-02
3.654448639753530431e-02
9.962883154050149181e-02
8.040180702174612448e-02
-6.830194380685448985e-02
2.830010471636725811e-01
1.741648196625842082e-01
4.235394624378179679e-02
-8.700507348694187792e-02
1.989899065800217470e-01
-1.702220020519300825e-01
-8.990950083318170749e-02
-8.400668369816745307e-02
-1.163529675988271145e-01
-5.576362583130757555e-02
9.723378422510481345e-02
1.361394656255602298e-01
-2.089964159334345081e-02
3.742367990745274625e-02
-3.932797074183457670e-02
8.640210451240904616e-03
-9.340175405937825928e-03
9.332805742238690916e-02
-1.468966534949223308e-02
7.849984009145442605e-04
1.212560098704155813e-02
-2.533311013576868258e-03
-2.511216158683886659e-02
7.030581477905900600e-02
-8.116826251900330358e-02
-3.394088538556076090e-02
-4.694306741693467580e-03
1.085326479194818061e-01
1.974805408493065031e-02
1.678402898498721624e-02
-2.801285750102657304e-02
2.925357126523166901e-02
4.385089641469286370e-02
-3.920993371528109367e-02
1.187872544953275447e-02
-2.881037583532308419e-02
6.239821913398960196e-02
2.241592017557058388e-03
-2.893057166866645075e-02
