-1.073643362946879575e-03
5.017948229950968363e-03
-4.389567711127315836e-02
-8.297990338050504136e-03
1.525175409207035239e-02
7.519214041756415792e-03
9.506505039796588064e-03
-1.770243439796531301e-02
-1.566762772392889247e-02
-1.118180343252878489e-01
-4.849334951602542881e-02
1.240414181480309005e-02
-1.708130835496521685e-02
-2.453069930354649653e-02
2.502305126761388346e-02
7.059402304558758633e-03
-1.977045731207262291e-02
-3.943077735036910197e-02
-3.604457764019725757e-02
-1.370961031356166156e-02
5.505106686875755988e-03
1.785286853654161759e-02
2.596522309390721789e-02
-3.918897274926431973e-02
-3.936652137241760177e-03
5.627177389486893305e-02
2.645675974413075685e-02
2.705797265499260834e-02
-1.633666121293285076e-02
-4.779183731436961735e-02
-5.587522170250285025e-02
1.681373519802782657e-02
1.043783595388053237e-01
-2.093773460738903788e-02
-5.511678082763390302e-02
-1.144814984741404119e-02
-1.784355671147820968e-02
-5.676948550419504830e-02
-5.470479038298590958e-04
4.095751720542160218e-02
2.135260658366259362e-02
-2.286726725302419549e-02
-1.196680134541969198e-02
-1.361456845821241643e-02
5.522323228126391897e-02
-2.706956042022484743e-02
1.008275101538596858e-03
9.306988434177640435e-03
-3.148685163858324504e-02
-1.038031809174387761e-02
-3.828159062441779253e-02
-5.517086490415303024e-02
6.525346628024762674e-02
-7.020688812615155650e-02
1.586663615724219750e-03
1.375883706665295692e-02
1.239776566026948301e-02
1.256081749121030350e-02
-3.959182753410598471e-02
2.182551506094831603e-02
4.737260669562500665e-02
-5.825410430959095803e-02
5.866359492786735186e-02
6.524996420129895724e-02
3.567993898125901547e-03
-6.342968937765156023e-02
-1.680590062559370480e-03
6.883771226284739198e-02
1.768566955698766541e-02
-4.306432471765607450e-02
-3.448993098448525918e-02
7.801279499461047373e-02
2.326561424693888297e-02
1.444665389325546813e-02
-2.514528722191201188e-02
-1.238540985304018190e-02
-2.503620875726210102e-02
-1.713428825013841791e-02
2.215339406653940579e-02
5.593238549885366090e-02
-1.224994205806912567e-02
9.601338141237480972e-03
-9.391515997587401160e-04
-3.335750698506938922e-02
7.093445608434353900e-02
-4.060055798519877912e-02
-1.382315089365820059e-02
6.631441006370087689e-03
2.934869382979059943e-02
5.821112613200695590e-02
-1.849186033665906059e-02
4.553685089353341590e-03
2.348661860611299043e-02
6.903611762476501157e-02
-2.152925176085119033e-02
-1.148992815225484236e-02
2.399284193277635008e-03
4.053024214969833117e-02
2.206342509208354327e-02
4.710338596235677522e-02
-2.222617736034390376e-02
-6.368261722775664033e-03
-1.367104420931060729e-02
-3.170668784697348950e-03
-1.068399460251521702e-02
-3.934074416396741818e-03
1.829261761292004171e-02
-1.380273132445252425e-02
1.194943742423356867e-02
-5.151067847139462197e-02
-3.403741723565927718e-02
1.660181740921393839e-02
-9.889461169105977917e-03
-3.670448642635589648e-02
-1.638715250105397814e-02
4.243070885240875982e-04
1.090443611231922856e-02
1.601911493467464767e-02
-2.615169027571059499e-02
-5.644734712141595903e-03
-8.313967244530640326e-04
-4.487532062140439301e-03
-2.709269438217453037e-03
7.786212805236039126e-03
3.936446163528243593e-03
2.146262324656691284e-02
4.257545421574508542e-03
-3.103530956738234821e-03
7.210641558114545303e-03
-1.445342429847891637e-02
-4.410220089868721605e-02
1.045843472326893168e-02
1.253976294953954192e-02
-4.009148077641416091e-02
-3.569418827472387729e-02
1.158937494640772210e-04
-1.383975695423804962e-02
6.474484606966959301e-03
-2.195462219952592012e-02
-1.430195082887766086e-03
1.012692978806560042e-02
1.694780643815825202e-03
5.029028404690100932e-04
-1.596799521485939982e-02
6.586999597905048888e-03
4.166123884127647704e-03
-7.636963283838990807e-04
1.016087080056443659e-02
-5.920054233178297966e-03
1.375047822298380851e-02
-9.775075221431310177e-03
1.632209787842885812e-02
1.892104471787657213e-02
-4.009579517312834851e-02
2.154915856495621257e-03
1.387441407559079042e-02
-4.756011475738206734e-03
-7.050203677620421258e-03
-1.869391888173563623e-02
-2.877168822604338639e-03
-1.105861842885617072e-03
-2.806180592999898971e-02
1.161137919721506005e-02
5.080705515063135835e-02
-1.062412769761414931e-02
-2.477051489567922912e-02
-7.144755217752674428e-03
-8.839993926190298917e-03
4.960244224712889727e-03
-1.881546871574167612e-02
-1.066975500441121917e-02
3.186380299111872538e-02
3.741107927896729964e-03
1.009956256285199881e-02
-2.420709543071071848e-02
5.400557093666925185e-03
-3.117222887854157257e-02
2.308550328493035042e-02
-9.743390220821395668e-04
1.529434764606275865e-02
-5.328089882496966608e-04
-2.761215827695721881e-02
-3.230042692794053705e-02
-1.231841041972854241e-03
4.922463766147651409e-02
4.357340254731722172e-03
7.234253275024840960e-03
2.933098756459581388e-02
4.049381365186819487e-03
1.089560986450690411e-02
-1.764526840671648555e-02
1.688586133154668665e-03
-9.870087125281444551e-03
2.351602045939078876e-03
-1.540711062164199473e-02
-1.193981825903254503e-02
-3.270707159488565885e-03
-8.880790808998326180e-03
-4.457521965802105704e-03
-2.142839561002526667e-03
6.504690469270689619e-03
-6.795088151617218256e-03
-1.520992458210828138e-02
3.837278211822701263e-03
-1.740570803630953414e-02
-2.385766844939644915e-02
9.192078140753012772e-03
1.684381922109118431e-03
1.643357926272627501e-02
-1.275045222715197671e-02
-1.008644015626014752e-02
8.155343903176823922e-03
-1.464120475155096697e-02
-1.602676763617898181e-02
1.146194798386435424e-03
2.071402517631364473e-02
9.448987623506368769e-03
6.745941528691309572e-03
-7.962971141773236491e-03
-8.404061100932837605e-03
1.727273788453343286e-03
-2.263908609623990417e-03
-9.600768193913235271e-03
-5.477184800078782265e-03
1.017207867105564614e-02
9.969760560278238121e-03
2.686804394205690762e-03
-1.091756888855784959e-02
-4.419329903199076780e-03
-2.336247179423525319e-02
-2.196581827981887794e-02
4.047743540886063716e-03
1.132912862117719556e-02
-1.205215090571563723e-02
-5.525793282459800539e-03
-2.090705886258701837e-02
-2.251599629568667646e-02
-1.225622624242449568e-02
-1.322894234666307026e-02
-3.040024786055337686e-03
-4.430226453949985890e-03
-1.185764807439308385e-02
-2.581294732063271042e-04
-1.877654506254539460e-02
2.676837469184409693e-02
4.166168976566016029e-03
2.061456603046792763e-03
1.466537147206545613e-02
1.954469302247160284e-02
-5.388411212366444811e-03
8.717552655643183782e-03
1.575022129118383227e-02
-1.458540993658715909e-02
-1.292725705531232692e-02
2.410781038065366172e-02
-1.294962539740421130e-02
-1.376452146427196987e-02
-1.243879538352441437e-02
-1.186149903373159495e-02
-1.284341385145803573e-02
-2.290195085456993556e-03
-1.386115790270779462e-02
3.771643107409528191e-03
2.883554601668690542e-02
-3.603740809087036760e-03
3.895765577310975752e-03
-1.568536979349659938e-02
-1.229777908366267228e-02
-6.090135015613087205e-03
-1.374237292171618524e-02
9.316893793248902681e-04
1.663325739140740500e-02
1.734236764075203913e-02
-6.998975530920571557e-03
-5.951541650007628748e-03
2.571236475667984522e-02
-3.338319108599860363e-02
-2.078933900957834202e-02
1.405278439235718019e-02
-8.569790155067237569e-03
-2.207706066429076033e-03
-3.316504323708192176e-02
-1.303082146653128728e-02
-1.180636515778990883e-02
3.842758071707686601e-02
-5.285259045674777813e-03
-6.438812213704491957e-03
2.522156836275951663e-02
-3.047395730704391577e-03
5.104388375342165836e-03
-1.228387348679753702e-02
5.106858472566170801e-03
-2.919469856630461935e-03
9.330538086257909869e-03
8.329144095530522859e-03
1.810970207078205999e-03
-9.664543270686422327e-03
-1.261487251184805966e-02
-3.432510529838565978e-03
9.801721260652148521e-03
-1.807551036959480521e-03
8.847632406507675851e-03
-1.257668430638841581e-02
-1.327689329310986939e-02
-2.263712016480270896e-03
1.004912186441699572e-02
2.638089290337064866e-03
-3.981140095781136694e-03
1.266718330683586080e-02
6.352064510140372801e-03
8.864477336601098503e-03
1.478208333769900386e-02
-3.426402563196978036e-03
-1.308629045991509254e-02
7.649602758867720537e-03
-9.130046327669267756e-03
-5.670068919688321489e-03
8.144943957527977021e-03
2.008929043986228732e-03
-9.981174870979875671e-03
-1.075103453123299121e-02
-3.129602718500931920e-03
3.124522957250882530e-03
1.399561666969184647e-03
6.456331582866818228e-03
8.788098615502977842e-03
3.720443450696584581e-02
-8.620858568616680123e-03
-2.577353012422350584e-03
-6.544297479938251602e-03
-1.641924523797577348e-02
-7.970186029770665731e-03
4.408945512034479104e-03
2.722060873026320091e-02
-2.953869144579212777e-03
-1.204026016814929885e-02
1.225738277269405223e-03
-1.470795516241767999e-02
1.532508521256482382e-02
1.727702743059036927e-02
-4.793376305033048533e-03
3.048917600720447291e-03
1.389429353849556091e-02
5.210540224827571974e-03
-1.545395926004539296e-02
1.899972539505812019e-02
-6.250917165706479720e-03
7.083448555497307009e-03
1.754740807319317072e-02
-6.459572728363009893e-03
-6.148725137955347517e-03
-1.936399511673678360e-03
-2.810684004038914528e-03
1.962727152246383430e-02
4.959168256785979542e-03
2.281067142224518524e-03
1.984469903203617269e-02
6.820952871663240637e-03
1.299640905128505303e-02
-3.295345340156546031e-03
-1.494439219995186835e-02
9.906914575060064843e-03
1.169596693091006293e-02
5.066845192846401551e-03
7.184483032129672158e-04
2.940695937207241616e-03
1.124104174380146683e-02
-7.457738268659854994e-03
9.056159136701791637e-03
-7.798423029765163064e-03
5.539990635604015445e-03
-5.025633907922763934e-04
-1.503899470041260462e-02
2.608722167247017401e-03
-1.355338500529400247e-03
-5.331095798552255675e-03
2.692159724927572790e-03
-3.434334835052138372e-03
7.061088920306823891e-03
4.471174864883195946e-03
-6.173612233959135248e-03
8.778024946946069024e-03
-9.508365305068667769e-03
-4.983373194606770945e-03
8.191684441453576243e-03
1.149146978844564279e-02
-2.185576613358820820e-04
5.792008155483006427e-04
1.176695654974498940e-02
1.145982464384734216e-02
2.486781562312430967e-03
-1.317728457718934151e-03
7.848725338318483444e-03
-2.600641352995999162e-02
-5.791173530015121355e-03
2.764607858302917803e-02
-5.895098402446031019e-03
-2.700932931444939480e-03
-1.000051403351762125e-02
1.019361850324072838e-02
7.591552405770818530e-03
1.812901722528621057e-02
-6.166476076979039191e-03
-2.629751576528986494e-03
2.672121131019239426e-02
1.258244218502893585e-02
-5.084849214225187729e-03
3.642928533964362448e-03
-1.707012161987903759e-02
-8.042718865605043288e-03
-3.565895340819046511e-03
-1.691630054756148790e-03
5.340171766066013903e-03
-2.998105926385544054e-04
2.235211191010971765e-02
-5.100014661697417281e-03
-6.053150732202984205e-03
-2.853621552803204883e-03
-1.441461023154813788e-02
-2.327243712081538047e-04
8.966131529443531131e-03
1.596357346665228799e-02
1.258900119947650893e-02
-8.468200166808796323e-03
2.045304403071394796e-03
-1.005527257429101630e-02
2.458208999614859124e-03
1.173152025342603065e-02
1.015137771029529443e-02
4.555748509266344462e-03
-1.380894465415655019e-02
-6.731932550903848948e-03
1.643949223157141655e-03
2.942827547627067247e-03
1.427152119545539374e-02
1.942734034864408710e-02
8.147928963852343887e-03
-1.438873090117554279e-02
-3.851455169687701113e-03
2.176318379523671173e-02
-8.769929706330246988e-03
6.038194530173334254e-03
-7.214121525928738482e-03
-2.100778840871233080e-02
3.886097058708750784e-03
7.372011207705139908e-03
2.705795575838824529e-03
-1.162905723380853367e-03
-1.657721769049544380e-02
-1.071908088475896983e-02
-1.707056996506328694e-02
-3.091426942745850379e-02
-2.458584740801832082e-04
-1.328320125999598450e-02
-1.456643159630528501e-03
-2.373191024607667482e-02
6.480376929825342087e-03
7.670256597179354874e-03
-2.526471782284857651e-02
-6.643531644854344664e-03
4.731252521541748184e-03
6.740695590476918769e-03
1.404284385772895140e-02
-2.976851828925615798e-02
-1.340369819039364738e-02
-1.412172333673445204e-02
8.104908941069490641e-03
8.866368799924875159e-04
-2.929165265134726307e-03
6.764998708973097826e-04
-6.107807079058710786e-03
3.122873447206603315e-03
1.246500001358838775e-02
1.253580253261301486e-02
9.954900363393217461e-03
-1.952320516274897930e-02
4.487643683452295119e-03
-2.206277709721027672e-02
-1.428633473263879634e-02
2.261333659348465502e-02
4.465200081550538356e-05
2.929027376159837673e-02
-1.393244682236834597e-03
8.088316841077147074e-03
-7.267387010883852132e-03
-1.073642006420902698e-02
7.512731441345233720e-03
-1.011492191997308797e-02
-2.081596911754841396e-04
1.077214869485038605e-02
2.080969027682524897e-03
-3.791586225700177733e-03
1.709294060147327834e-02
2.310595148240160435e-02
1.349836515470193097e-03
-5.011716485699370741e-03
7.395112580679774790e-03
8.309232552217082554e-03
-9.921756269028201083e-03
1.304165566275372785e-02
-1.292249226132526248e-02
1.880652508027001388e-02
-1.057799337304704676e-03
-1.235170171763451917e-02
1.486151579876458621e-02
-8.375977118945228395e-03
-1.815637698327602495e-02
6.066967951584490391e-03
-1.894780406750043097e-02
-7.402044059289256649e-03
7.338015762788745178e-03
-4.516243931290101106e-03
-1.825594323425655530e-02
1.114843306840561550e-02
-1.442246378735115818e-02
5.989906173412697099e-03
1.354718648200631433e-02
1.845837042143127354e-02
-1.094301123994194727e-02
-5.597276650816776326e-03
2.365511079487136320e-03
-3.705534200695462764e-03
-4.254241138533222080e-04
1.373118238370218611e-02
5.005307317587920010e-03
1.189689474076679500e-02
3.192383515280962890e-03
-1.759330870821465423e-03
1.582985655621685014e-02
-3.209852331513405287e-03
-1.427186900779785911e-02
-1.012893407503150274e-02
-1.006501342446661229e-02
-1.854174721104394179e-03
-3.231382234437720196e-03
-6.871735989614054241e-03
8.208084754269691016e-03
-6.042764113701122250e-03
-8.693823893123673804e-03
1.865938936931845946e-04
5.208094622105655103e-03
1.258472221851388538e-02
-5.109129627514122710e-03
1.032688509059466637e-02
1.076874864549905164e-02
-1.921988351163535984e-04
5.047535897956614143e-03
5.518599813010296139e-03
-1.125022342034875077e-03
1.556044724050645658e-02
-1.968602851146405812e-03
-7.353241017125326275e-03
-2.755073699554007848e-03
2.645071028416192717e-03
9.564025311360985909e-03
4.674492311216781222e-03
3.362476183674661077e-03
-1.555249579309261020e-03
8.865027577883381055e-03
3.824679161760149645e-03
-6.123813184303672670e-03
-3.310581222210640887e-03
-4.165536567972128595e-03
5.023467647294553237e-03
8.395772793219272515e-03
1.873459231077469200e-02
-1.409668416213622974e-02
2.191660421379265991e-02
-1.851226423029475252e-02
1.971614824216845127e-02
3.234057166678037942e-03
-5.308464862675395246e-03
-2.276177476547298472e-03
-1.092848009941389982e-02
-2.489044484138543817e-02
-6.520913962898455991e-03
5.288612302670905960e-04
8.122340167168663055e-03
-1.024391241975952877e-03
1.851714259997465709e-02
-1.019293728200397486e-02
-5.895680070846351720e-03
1.374628113575988332e-02
1.409170147183370220e-02
-5.129590198408991338e-03
1.279462010004845003e-02
1.166291981632759135e-02
6.899342019494319501e-03
-1.035645576847351755e-03
-2.334443734992100016e-03
-6.319849010630787696e-03
4.515430794793877378e-03
5.390622795508741641e-03
-5.771643239533436211e-05
-1.775059006415284288e-02
1.314634309050244192e-02
8.669528739421868482e-03
5.717850996262009537e-03
-1.251244941908179545e-02
1.206603189791872859e-02
1.635813734388162285e-02
-2.272812396978518210e-02
-2.100658620639276122e-02
2.157190945236304308e-02
-7.723240215917001432e-03
-2.256225165409219031e-03
2.786002890968347981e-02
-1.602288041474888777e-02
2.949301294640192458e-02
-1.104124630187980176e-02
-2.983852246757359022e-02
1.012056076793912789e-02
-2.182244838107094340e-02
-1.655998869357965322e-02
-8.227289490306368899e-03
1.522356862041320501e-02
-1.710553211918190708e-02
-2.647835457278512657e-03
-7.455573845944242668e-03
-6.948361039850052198e-03
-6.745377392448242190e-04
1.703118572283046986e-02
-1.583681255851488584e-02
8.459368836028068050e-03
-3.959525559930288097e-03
4.805992298318335562e-03
1.383011995577733758e-02
-1.754452901270123905e-02
2.268989328033769754e-03
-1.031926029066811308e-02
-1.696620549800292518e-02
-1.662079225490246948e-02
-9.521089013839169552e-04
7.686357421862272110e-03
-3.163610071713173627e-02
-1.521852370513824236e-02
-1.471861882371359662e-02
1.955120945343775257e-02
2.591602293893547119e-04
-1.188089516946422980e-02
-7.036466103897836416e-03
1.477869074920691410e-02
6.832325138711140000e-03
-9.438260670016256418e-03
3.109487092748280945e-02
1.029013457419319759e-02
3.149486994085634942e-03
1.771472854740823930e-02
7.063212582943297069e-03
-5.807323997933473356e-03
-3.664598831933745231e-03
2.113726951548976565e-02
8.697598519825509855e-03
-3.699491356347534878e-03
1.222421022882740592e-02
2.321341159927124004e-02
1.322673120465601634e-02
-9.587021071791873919e-03
1.167495891614764997e-02
6.300049182516525388e-04
1.023834982247208772e-02
-2.930049528848001350e-02
6.867595755405043849e-03
3.196860097728986688e-02
-9.860817022696449774e-03
-2.091888119476687652e-02
1.233080415584248985e-03
3.556285120997894605e-03
-4.457888283458249189e-03
-2.719856111602354104e-02
1.794519233266178918e-02
1.063022203465065381e-02
-3.913651586090242940e-03
-2.522697481499970498e-03
-3.335019453195160744e-02
-3.567323605582109914e-03
-7.229588048246599757e-03
-7.697344636583750184e-03
-9.406462822872076884e-03
-2.109202057527417157e-02
-5.962302091188600127e-03
-1.922447667400366961e-02
-1.631356301808602541e-02
-1.076717576984705105e-02
1.782681489839109401e-02
-1.693937408817777117e-03
6.290649275568043798e-03
2.256041506125579243e-02
5.584730298460578723e-03
-6.044194743493408462e-03
1.125945626514976254e-02
2.161300182542864184e-02
-4.825150636297158464e-03
1.318225501848192469e-02
-3.839140826726781218e-04
6.671301953770326584e-05
-1.702232934109933909e-04
-1.641671538657150584e-02
7.057450195926056463e-03
-1.538031685139431063e-04
-2.278606485291785611e-02
-8.838440694336968054e-04
4.782203228762201518e-03
-1.680883012320041458e-03
1.324704177453440122e-02
-3.510777240767400022e-03
1.004688110125920644e-02
-8.320576263374117321e-03
-1.283181670854829405e-02
-3.637580261976460644e-02
-8.296060135858967372e-03
5.592756448338394998e-03
-3.493200432004369554e-02
4.507592247933274975e-03
-3.338917322315023035e-03
3.979381461904252411e-03
5.624499833659543126e-03
-1.295661882502643393e-02
-7.544713798217409471e-03
-8.468052225492956123e-03
-1.917212743378820042e-02
-7.556431076453869883e-03
2.356922847625054357e-03
1.933898118176002878e-02
-2.605481304905459591e-03
2.305264193313092541e-02
-2.974001579207503562e-03
1.595369002780563938e-04
-5.903151667038387777e-03
-8.581277975362951865e-03
-2.399430138337336083e-03
4.193788076132109674e-03
2.638935813591921069e-03
1.336330820987868297e-02
5.825609346515472388e-03
-1.112254911752400856e-02
7.044466057112386097e-04
1.877719975156896814e-02
1.085664871426364475e-02
-4.414881786029441028e-03
-2.286164279911287543e-03
1.887554141265171707e-03
-1.343807001773577410e-03
-9.703173998103621287e-03
-1.508405043768295921e-02
1.131187857493191895e-02
-5.103187062291581963e-03
-2.273099967028515897e-02
1.333501463269928453e-03
-3.532921771505115067e-03
-1.575257738952485706e-02
-1.577309668722353189e-02
-1.698509746490239197e-02
1.597552231409888343e-03
1.279414027763689336e-02
-1.333637686284764624e-02
-1.379523254060942457e-02
-1.312413005301905217e-02
1.769274851518099281e-02
5.408157116094626342e-03
-1.605221098647945446e-02
-1.645593179841621165e-02
2.026986319891199012e-02
-1.350772946667343384e-02
3.102728297061754011e-03
-1.269598761739925384e-02
3.699749480399182680e-03
-1.470354803517793726e-02
-2.489225879758246926e-02
-1.809685406592333526e-02
-5.464717147734684741e-04
-4.707834635415779172e-03
6.671855215645545664e-03
2.196166954177724943e-03
-8.464031164300596030e-03
-5.531893117311401445e-03
-2.485301348600314764e-02
1.662457081954886104e-02
-3.858857109930188367e-04
4.504529174395478265e-03
-2.081725198966256560e-02
2.390338833328408113e-03
6.140997281746716704e-03
-5.144346278275728143e-03
9.165727675144523870e-03
-8.065138534156218730e-03
8.278448797349744273e-04
-5.901910948569907530e-04
9.796251615217040250e-04
-5.960673907957365208e-03
-7.526183597773532588e-03
1.392674554066945097e-02
1.934459366721177215e-02
-2.441164303576161612e-03
-1.834242650247121242e-02
2.811247742363901046e-03
-6.869719959669054118e-03
4.460414918456663373e-03
-2.371925743216449743e-03
-3.217595605698864505e-03
9.654122531292962106e-03
1.210477578279953344e-02
1.109095021905283189e-02
1.274293657388214304e-03
1.293583636974173293e-02
7.210870318446545475e-03
-1.166589366122684074e-02
1.125659518251882762e-02
-4.149101278678385581e-03
-2.891447901447508073e-02
-7.118232369676904051e-03
7.076552001711921246e-03
-1.549198237476206476e-02
-2.291562987030902956e-02
5.808871146839715907e-03
2.519091213538958429e-02
-3.773992057336641396e-03
-1.504753740135591350e-02
-1.278887124292159012e-04
1.392064678357593337e-02
1.104250829881076902e-02
1.034642316869867525e-02
-7.537587116774652554e-03
-9.734471949220575154e-03
1.622255415512223811e-02
-3.590275396037038319e-04
9.007349435615562283e-03
-2.984326963082012071e-04
-1.179112902797624027e-02
-1.492287606105626406e-02
-7.388467270289794143e-03
6.831437569900040453e-03
7.234599854106010287e-03
-1.065541705249358449e-02
-6.575139417980294283e-03
-7.455385454174514974e-03
-1.744090387335128084e-02
3.000390588932800879e-03
-6.027122400511022125e-03
1.676659567430403841e-02
-5.928198838210827978e-03
-3.866983217663938141e-03
1.697659874138532192e-03
-6.316522181557290665e-03
8.238501441930249844e-03
-7.515429657986259782e-04
-1.357485755011486779e-02
-2.666092581099205328e-03
-1.831068460094692485e-02
-4.762573770870432571e-03
-8.558078450777044377e-03
-1.794222344137053060e-02
-1.216965269860920650e-02
-1.268977529642334283e-02
-1.248824051596991811e-03
2.704852339157644281e-02
9.335922172382009679e-03
-1.352648784906120482e-03
-7.459282045396514911e-03
-6.265778882067737053e-03
3.119759373988680463e-03
-1.218935249167653681e-02
-5.375448132062607062e-03
-3.671775700141590923e-03
-7.044863487215820806e-03
-1.918801378388951956e-02
3.336497076687232419e-03
-3.399074511886028549e-03
2.336480729077921800e-02
-1.959212565684186752e-02
-1.153761647884401012e-02
2.472486845042311948e-02
6.269038305781542662e-03
-5.133446196852990348e-03
8.594884806471407568e-03
5.294999684294743152e-03
-1.988787522754858345e-02
-2.563191451743690105e-02
-8.286379724108264636e-03
6.554627012859059673e-03
1.361730530239681214e-02
1.654668932591966957e-02
-1.868684449688348681e-02
-2.544187925977895240e-02
1.747183307496708027e-02
-1.049378362850396547e-02
-1.244649091098361596e-02
3.328496290759618698e-02
1.563937578335253611e-02
-5.977866680379777991e-04
-4.400215934838904927e-03
7.485189142644484497e-03
1.427293944308777318e-02
-7.004251005188831536e-03
9.571192458676568366e-04
3.521360484000700484e-03
-2.131220622907739268e-02
-2.278557992606152719e-03
-7.078201555915881148e-03
1.263960524892863112e-02
-2.546147309310262119e-02
3.573907521386782572e-03
6.268165522095131038e-03
-2.090630450261260573e-03
-7.404480018864576310e-03
4.716657438229620095e-03
2.451503282145233668e-03
1.314090539513596348e-02
-6.592466696196504911e-03
-3.374090878115500181e-03
1.018568218335559432e-02
-2.430697026153444754e-03
1.034923788002895320e-02
-9.885234914202843323e-03
-1.359801991952900137e-03
-1.550722079800924240e-02
7.910720872795162090e-03
4.681980135512442062e-03
1.507139331466640988e-02
4.121627927353025203e-04
-1.450002612680140711e-02
9.683904981463433218e-03
-2.399892965879319925e-02
4.565991826253358414e-03
-9.207927522905820505e-03
-5.221913091676489219e-03
-1.338310439626538026e-04
8.390175688003743970e-03
1.806197908408349942e-02
-2.114391751606055012e-02
8.899542995563176906e-03
1.419920953272025069e-02
-8.380584430251305020e-03
1.532349590731330383e-02
1.880195554859446366e-02
-3.468841805003228859e-03
-1.112926156277884923e-02
-1.411011419625195218e-02
2.023612861281439985e-03
4.874139769751859030e-03
-1.561291929814735517e-02
-1.078012609861923703e-02
-2.357016752321638119e-03
-2.435983767720451519e-03
4.138896511853402960e-03
1.485263279660734015e-02
2.740117621998217068e-03
7.924663495371313607e-03
1.599440966111765824e-02
6.620763673806162770e-03
1.060672662017523443e-02
5.071342622003586174e-03
-9.681867133944050546e-03
4.868711114390175676e-03
9.704373940322925940e-03
1.238090464457709990e-02
9.477322943657910323e-03
5.136116293320175689e-04
-1.476454576369124437e-02
-5.547217678624309645e-03
-1.095869223758725707e-03
-1.225288133418302519e-02
-5.825713057996876991e-03
-9.727135374992444683e-03
-1.638996504231622370e-03
-1.099274449119984516e-02
1.673363629341215186e-02
-1.123982360308913367e-02
1.003137945070906728e-02
9.583401612350047477e-03
-1.682619757889704595e-02
-4.802310261143953856e-05
2.408150740101300605e-02
-1.196296265521687961e-02
5.045622163299363222e-03
8.050781191116233209e-04
2.194186845351706397e-02
-1.452044785318432930e-02
1.960220955478374910e-02
-9.661971780178494826e-03
-1.702671503789311485e-03
-9.388104834003669491e-03
-7.708157494443185383e-03
-2.349310621139848719e-04
-9.967795865802439505e-04
-7.555625354345485954e-03
1.762386643119973756e-02
-5.769038607818287659e-03
8.694151442578379116e-03
-6.727198083940502324e-03
5.110906180598231161e-04
1.166446874297370415e-02
-2.737295919518040535e-03
-1.674052874417448046e-03
3.957985350196670184e-04
7.335178071692477833e-03
-9.884052348016746439e-03
-1.267299317108936275e-03
-3.165999876647161075e-04
1.916609200039472855e-02
7.264290650786718422e-03
-3.312743444192242821e-03
3.513840330103433149e-03
-2.305481198582262029e-03
-3.234187568816446982e-03
-4.085129099352606714e-03
1.751383314210819275e-03
-9.004435104810040724e-03
-4.290752070669444362e-03
-1.067141049264766712e-03
4.365881388850704516e-03
-2.933636625713402848e-03
-1.561726355895081027e-02
4.642013192604769328e-03
6.030645196507838815e-05
-5.207920304160952715e-04
-1.513494992519656083e-03
-1.864929817467361750e-02
-2.004480890216078434e-02
1.064528545017208276e-02
-2.136425339197239696e-03
1.813207888035333476e-03
1.096550993294194420e-02
6.972780549112400118e-03
-5.123256443805809454e-03
3.797109164435864999e-03
1.206457247681692185e-03
-1.182403085520727232e-02
3.447685788006657243e-04
1.045633486293514984e-02
3.590994107035207217e-03
-3.889190549075595155e-03
-4.383926589991905820e-03
1.069410279644685512e-02
-1.077838801854163683e-02
-1.597958762998375436e-03
-1.107781478065672075e-03
-7.570586725775079167e-04
-8.259412274077473221e-03
-6.483725821547112536e-03
3.642483395962296984e-03
9.712037926881347469e-03
-1.025683110054804656e-02
2.443794174198005500e-02
1.081852008225121266e-02
-1.097233245073092438e-02
2.603575223596679266e-03
4.618771422937939693e-03
-1.273801106981747519e-02
-7.031552774685422523e-03
7.423419186737442894e-03
-5.504639726414184420e-03
-1.905801343838484097e-03
-9.713708495730269052e-03
9.444934306303878193e-05
1.920110581459231677e-02
-3.821418488125586863e-03
-7.563192418382895868e-03
-1.035542462261906070e-02
2.310446862665598358e-02
-2.162194898577797714e-04
1.379060686952824494e-02
1.253426504316859473e-02
-2.962813334178340287e-03
2.590582031815005185e-03
2.198336285912141084e-04
3.079006456445917538e-03
1.242258984478963012e-02
-2.295534348334633476e-02
5.931670128697977620e-03
1.365520749379799982e-02
1.337611499500247910e-04
-1.131024684673540524e-03
1.224158862938173539e-02
2.391103681089062211e-03
-1.927117434878590930e-03
-5.922405905013885391e-03
-5.840379572983459000e-03
3.446904517974043632e-03
1.537949998714068130e-02
-1.524684018359860442e-02
1.578463418452332942e-02
-1.072341487214364779e-02
3.715314986884835080e-03
2.865176630419692325e-02
9.223092541555493601e-03
2.945954004563635254e-03
1.927811640342035060e-02
-2.277324393204149203e-03
2.054159109043829021e-02
9.879792117799759618e-03
5.926822748075159103e-03
5.155003319939721433e-03
1.017799628332079209e-02
-1.453987637951197932e-02
7.347014445722208076e-03
-7.659108148792418899e-03
-7.961115452110239382e-03
-1.693439885068823928e-03
-3.150158188069882709e-03
-6.266745266590809972e-03
6.117713192764286404e-04
2.640016370541598510e-03
9.021108773624180246e-03
-3.317030137781031701e-03
-1.404252922591301897e-02
-6.139979923466488444e-03
-1.113326169731147439e-02
-8.079681972751032518e-03
-9.997057083973354477e-03
1.885015126054797110e-02
8.202572298864016856e-03
1.801946947897564656e-04
-3.892532078250148745e-03
7.793477669957329891e-04
1.685706796391387872e-03
1.098817627984203377e-02
-2.446198709227744364e-03
-2.868743735494231131e-02
3.155979335124676349e-02
-1.684493161123902212e-03
7.092322875821847200e-03
-2.844798731702110305e-03
1.140317100831290606e-02
-6.579262060431260474e-03
9.589238468219065878e-03
2.020264297285026805e-03
1.958502254927751204e-03
4.443235099652277989e-03
-6.116567510122793670e-03
-1.446352251976936940e-02
-2.346240921412456534e-02
-2.841957220673857216e-03
3.250683930523345314e-03
-7.489026154057720763e-03
1.420805156546352515e-03
-3.648621297162377933e-03
3.395561348344660040e-03
6.610426870441752506e-03
3.031487007487038143e-03
4.795106146602002607e-03
-9.982690738458050578e-03
1.278529176187069571e-02
-3.993014861738539492e-03
-2.586603213096629137e-03
4.960692818578385684e-03
2.516760881203028433e-02
-1.431487037788533104e-02
8.590669591779480016e-03
-8.505467478492642272e-03
-5.387413986410098318e-03
9.164314211305452096e-03
7.132706294065035285e-03
-2.099770185506083520e-02
-8.424506490842809114e-03
-1.016666702759971841e-02
6.756913936864547120e-04
2.323093223526082225e-03
7.380520789899252566e-03
6.715115749097123540e-03
1.485252790085084956e-02
-2.190140634707422873e-02
-7.441119387055147860e-03
-8.964471309875259248e-04
-6.822889167305319288e-03
3.502922665218235858e-03
-6.527849103847723454e-04
1.684773280894128616e-02
-7.280249833604104936e-03
4.735411474903044975e-03
2.852437436540111552e-03
-3.662020734544514395e-03
-1.553295092789997410e-02
-8.668570265804604463e-03
9.807706683115468074e-03
-1.108390668507799014e-02
-5.517547290114707681e-03
-6.391761875509626746e-03
-1.213074523227308235e-03
-2.201087120565493795e-03
3.869451648338047191e-03
7.573417309252843642e-03
-1.671424382504812026e-02
-5.928683405023432891e-03
2.522793816216699434e-03
-1.534645296135132841e-02
-5.508637382119509901e-03
-1.144784924849246051e-02
-2.917709988940149057e-03
-1.675065630256728638e-02
1.266977429429389825e-02
1.590269564441249353e-02
8.178607938414201445e-03
4.468349431447680466e-03
-7.771996919797644933e-03
-9.648152462798162757e-03
-2.200934319188166746e-02
7.480685564282690825e-03
-3.406863774212158351e-03
9.186036496982867474e-04
-1.292207406684442927e-03
-1.260804863009440304e-03
1.357224829037452334e-02
7.225159609407287749e-03
9.251774102220127263e-03
8.218095223855980541e-03
2.402015182833376009e-03
-2.020247530006605632e-02
3.653810913873853285e-03
-7.610362121455838298e-03
-4.446543873294259673e-03
1.484135332008589686e-02
-1.617740719558175347e-02
-1.414148252191421012e-02
-2.393272475664901238e-03
-3.476332399270674195e-03
-7.089061314668256529e-03
3.449671143937790580e-03
9.354099393027970680e-03
-9.732296945905620847e-03
9.232234549503596024e-03
-8.489400556577694225e-05
-3.414023845249582537e-03
-1.644791370230122216e-02
-7.169118903329504662e-04
8.026536864046647513e-03
-3.322003272220169605e-03
9.415829124844005485e-03
8.581374762020159766e-03
8.423812487574915044e-04
-9.141854153191509430e-03
2.506487243021471387e-03
5.190194392966274509e-03
6.485317602929048693e-03
-1.713175489908127375e-02
-8.421210405762661472e-03
1.092321043684913243e-02
1.143972734826621124e-02
-8.258058543047692296e-03
1.141777928278434051e-02
1.056023404680593407e-02
-1.144328267578628017e-02
2.272329473631192766e-04
1.118292093597933988e-02
1.841250891398705722e-02
9.412999896790275739e-03
2.444346308216974531e-02
2.312656771559389469e-03
5.495140305813039742e-03
6.361850710823396295e-03
-5.953580488173610893e-03
-1.657890539712821715e-02
7.499342691297236456e-03
6.718289128507060580e-03
-1.078546044111777791e-02
1.673686678493353786e-02
2.986935493668572625e-03
4.296021233644126310e-03
-2.956683989545098520e-03
-1.753904838779458573e-03
-4.829831687767740037e-03
5.801718951309566691e-03
-3.911571283454707594e-03
1.427040675432749220e-02
-1.679471803923265547e-02
-1.484792950888121077e-02
2.476483852008637930e-03
-1.767772997407946519e-03
1.763507616242604784e-03
-1.294000159533198295e-02
-3.113854188248422594e-03
-5.358698104064712857e-03
-3.204983911633005854e-03
4.341113038968827040e-03
-9.044846140940872303e-03
-1.232979817907594016e-03
-7.852960030581018379e-04
4.699021152836910069e-03
-1.578236690100566150e-02
6.404323525569449900e-03
5.655389904470599360e-03
-1.880557685134886690e-03
1.080626331780751986e-02
-1.006204994144079511e-02
1.763742035410222498e-03
-7.625736252619044319e-04
3.499672898259574907e-03
2.150380567379868088e-02
1.256245436108253261e-02
-7.154845053251110941e-03
1.208383896299969730e-03
2.044892927840777364e-02
-9.110021946615580457e-03
-7.883903305557091179e-03
-1.285108948897991515e-02
1.206761558031840646e-02
-7.777848610365310777e-03
-4.982605100907066750e-03
-1.517323205607974158e-02
-2.321789607241590229e-03
7.173803247711742041e-03
1.178691509340019754e-02
-2.158039166299651965e-02
-3.315417254581337538e-03
6.981178270737240128e-03
-1.130939995720220761e-02
-4.051005794444529143e-03
-2.196611803891202613e-02
-8.802141978452533710e-03
-1.192582487532047736e-02
-3.368640497930478536e-03
8.813114876405851034e-03
-5.810765612857113002e-04
-2.586171669159509877e-03
1.226413140178676635e-02
-5.670512337769783012e-04
-1.278428826104748353e-02
1.464695079678506907e-02
5.465875118478122525e-03
-7.539012570959414614e-03
-1.603062546332201938e-02
-5.781790107492208904e-03
3.225937725200370143e-03
1.989804442465848561e-02
-4.664013357620603976e-03
2.777139879873350477e-03
-1.255679769477096100e-02
4.255616908597536011e-03
-2.661794201539390524e-03
2.918058086567730698e-03
9.354398493702066955e-03
3.459129635775799218e-03
8.705000283920003024e-03
1.233571173403421629e-02
2.128408404651225064e-02
8.811974242720878314e-03
1.670741056461117272e-02
-1.330689239648846257e-03
-1.921747402758750001e-02
-8.960093756204672369e-03
2.526604764662090160e-03
-4.330724108658394987e-03
-5.626534288225697525e-03
9.094713489420763394e-03
-2.533645021551158595e-03
-9.988805312026291863e-03
4.669104750846921406e-03
-1.772185809427621883e-02
1.649888530586585481e-02
1.245993641626953752e-02
2.780473523850036585e-03
6.352176727152334182e-03
-1.570399261167230737e-03
-2.478198132289939019e-03
4.132544812015304971e-03
9.585776688149373267e-03
-1.272468195796408984e-02
-7.744150154087999297e-03
8.770947849020452325e-03
9.688412144230596629e-03
7.528795443824826301e-03
6.374773429020963965e-03
-2.066948299431499003e-03
-5.563486096314332677e-03
-1.710512894966552053e-02
1.544448309801348639e-02
1.501222293530524166e-02
-8.283253824636354831e-03
-1.533754240932512459e-03
-1.093061466734709074e-02
4.094718369484234995e-04
7.440317574520325522e-03
1.135627471106846753e-02
9.268204530770216129e-04
-9.513274094163231415e-03
3.355797673160213976e-03
-1.178449636565367595e-02
-5.608780859888752926e-03
2.549992039354110132e-02
7.174376672855813271e-03
7.249974912140908986e-03
5.948994765292143008e-03
-7.175154971252351542e-03
5.579525320363704424e-03
3.634371821559252442e-03
1.032579616913244409e-02
-4.055574895137566659e-03
1.583429859666655917e-03
-6.092529194279369675e-03
1.289468203445320003e-02
-2.517552787790015671e-03
-5.210354918560542456e-04
1.040039213104500433e-02
6.942243162681880839e-03
-5.968135993334330001e-03
-5.600251975356851375e-03
-1.330156364682203406e-02
-8.188935717865135008e-03
-7.453154303525838173e-03
1.133040674846063321e-02
5.523753781230840605e-03
-3.387970750514262414e-03
-2.809356314978021362e-03
-3.435188779490271418e-03
1.343336547447217776e-02
-4.365486427982768168e-03
-2.385195990524395689e-03
-1.068247373952938006e-02
2.802906986404754726e-03
-4.570650888428087928e-03
-9.786702305841160979e-03
8.288699309938547116e-03
-3.789507665518102985e-03
-6.828393358880105631e-03
-5.254589598811092339e-03
-1.975906788098316571e-03
-7.700763880530614794e-03
3.121625776640410670e-03
-1.458211767585850492e-02
4.362515081122701624e-04
9.387042445484328201e-03
8.571322309872429074e-03
1.839256377048077359e-02
1.895985361044976022e-03
1.047897277911282203e-03
-7.211227940345037689e-03
-2.314384292978885829e-02
-5.546814440824220614e-03
4.182287561506264038e-03
-3.475655753516623033e-03
-1.165738601203202864e-02
1.209832272434476635e-02
-2.736030761129271127e-03
-5.420701582569058957e-03
-6.208756767238279156e-03
-1.762397973192207775e-03
2.177465031853926050e-02
5.201202382676690071e-03
8.551949942995025478e-03
3.938406773263802146e-03
-1.209657946306046811e-02
-9.264164529525869413e-03
1.094994610918779282e-02
1.969922676069840121e-03
2.404140623008574340e-03
1.000692652843726896e-02
1.615156403714527317e-02
-3.413698928703693541e-03
-5.462939632234914585e-03
1.473462189927795228e-02
-2.728321890073686327e-03
3.012300408444632590e-03
-2.978519669822527523e-03
1.702628895285068084e-02
1.097341903053442556e-02
5.155286581128664530e-03
4.090106596190814202e-03
-2.879120543761760215e-03
-1.352812738854368250e-02
6.782132501379390006e-03
-1.202946573073137432e-02
-1.927442713342247468e-02
1.498145017146603787e-02
2.120699246830838516e-03
-3.963649808577548311e-03
7.800430014154263389e-03
9.115879837414861755e-03
9.650563035410328339e-03
-3.094801333863207368e-02
-3.273232342239708326e-02
1.364563209141841579e-02
-7.116118110903773414e-03
-1.693794884579191001e-02
-3.747646527737050551e-03
4.638069899374073352e-03
5.860982652541023644e-03
-8.220375701325537826e-03
5.403100557343983555e-03
8.270842459979818595e-03
9.913975153077188296e-03
-7.415213023147151222e-03
8.659881649515277849e-03
5.048983446820900969e-04
-1.787818186582987995e-02
-2.005697830498529358e-02
-5.076554515320627799e-03
1.822715783193428613e-02
-6.457021278562516875e-04
-2.924841268210507262e-03
5.828158923836800412e-03
-6.358439617847491503e-03
7.014443177133872220e-03
1.762267189597424219e-03
5.673677606384597283e-03
1.813473743923657610e-03
-5.572779234465659705e-04
4.668532655533539320e-03
5.165114056711165441e-03
-1.230862513321758249e-03
-1.040246788390341605e-02
1.088158059966220712e-02
8.216847906763616663e-03
4.118247622055233939e-03
-4.938314749147821106e-03
5.957885269599369309e-03
1.396026306140292234e-03
1.329156218357123963e-02
-3.628495529010994109e-03
3.513697466139786146e-03
2.252145633370782572e-03
-8.476156629167027820e-03
-2.600334585887729977e-03
-1.873965837299385734e-02
1.460323830844145569e-02
-1.893293642101105331e-02
-3.940467635878202105e-03
-2.303642541773900324e-03
5.979329894958172915e-03
-4.940491684502503270e-03
6.488902271169318288e-03
-9.174786291116678386e-03
-3.112292556106594811e-03
1.288823918123979326e-02
-7.813890954503865255e-03
-4.086089196238088493e-03
1.046396885654428226e-02
-3.654741024713377157e-03
6.087363703645905580e-03
-5.779358152210665144e-03
6.900477328430334491e-03
6.112928005434677126e-03
1.816829730803596948e-03
1.785601067924500168e-03
4.680941043677096323e-04
-1.252346252143487527e-02
5.666230406154018802e-03
-2.043139620146586580e-02
-6.366748760957844679e-03
-3.129036828816500210e-03
-1.614512213773890842e-02
-6.988892581141873360e-03
5.852319622392008515e-03
-9.729259580190162057e-03
1.237802497321238010e-02
4.683889662765693997e-03
-4.925068816201536373e-03
1.333006339175167067e-02
6.299513011304282671e-03
5.896353930806283623e-03
-8.312561911853899458e-04
-6.699165388777387001e-03
-1.196904337177821277e-02
-1.417428727793348942e-02
-6.828237689778274451e-03
4.757406863157504287e-03
8.633249305485928829e-04
4.681141235543429154e-03
6.500007455259134564e-03
-1.476705238200542482e-02
4.299637767201974943e-03
7.407629585494623047e-03
-2.174746710163429075e-02
-1.557045240259597981e-03
-7.477341643774364742e-03
4.230255222092262589e-03
-5.988743237921546544e-03
7.430771703564491900e-04
-6.349101161059773381e-03
4.198621258566227060e-03
-1.782446308703080490e-02
-7.914286024451513274e-03
1.351392593843619462e-02
1.916234557476873684e-02
1.615511939769525770e-02
1.487075909413921367e-03
1.936300764896334639e-02
-4.419494450090979618e-03
3.018156914648542372e-03
1.973122634374688527e-03
9.984844539750264980e-03
6.612005994157626673e-03
-1.726484012781356187e-02
-1.473562085188800420e-02
1.314616519431391524e-02
1.317330652419611801e-02
9.408304778184450184e-03
8.477701228276518161e-03
-1.307861412542444222e-02
-1.479303179425371824e-02
-9.053059234828280538e-03
-7.528100605093345464e-03
-3.478592204909431405e-03
3.655885265520661658e-03
9.660762509283951638e-03
-1.632779147623406773e-03
-7.694920277004261601e-03
-5.687136288257438506e-03
5.830335051881055733e-03
-9.526677954931001349e-03
7.640623829104814350e-03
1.424405760301723778e-02
2.098996845252446009e-02
8.961906267653337380e-03
4.119411636840824772e-03
7.107994042669496700e-03
1.570540792290044813e-02
1.566963231148166963e-02
5.164342692843253840e-03
-2.891505568389770957e-03
2.980964815212657805e-03
-1.305108681464175677e-02
-2.536243827031648551e-03
-1.891050336761114156e-02
6.357342471458761989e-03
-5.749564320772965025e-03
-1.031701302280727157e-02
-7.995635141390218179e-04
-1.441322121191380284e-02
-5.448617843496345037e-03
-3.950735065849244709e-04
1.033033242784986427e-02
-2.059906082406021827e-02
-4.713611900930122535e-03
2.744786129931005552e-03
-5.989000495086932788e-03
-3.080959186519213137e-03
-1.860715450134170154e-02
5.690248876834286783e-03
-3.497748233360281796e-03
-1.672949549036982075e-03
1.336985017516383392e-02
1.450847575138033670e-03
2.183585467306326921e-03
-5.712062183684453454e-03
-6.831398202310126795e-03
5.417228535786686346e-03
1.309433599046947935e-02
-5.567478361398778795e-03
-1.942125475457264286e-02
1.604871844571263001e-02
4.938689425988494058e-03
-2.214865583788524356e-03
-1.459512294004432827e-03
1.721948476676328846e-02
1.580367218259585982e-02
-3.931892642171673025e-05
-1.112604632694768128e-02
1.109589983470947103e-02
3.812013946047181946e-03
1.148093888543845996e-02
-8.583895185497813856e-05
-1.150063487966294972e-03
-1.702941988980177616e-03
7.221813690849011131e-04
1.427363348271552465e-02
3.478271417108063594e-03
-1.353237027152887420e-02
-2.820180956775172150e-04
-3.642486880325387574e-03
2.527177830873288383e-03
6.431136642652494212e-03
2.573070643976035042e-03
-7.642008907631187920e-04
-7.935534090721012897e-04
1.857021721127007086e-02
1.112996185773267553e-02
6.795266845148279162e-04
1.701699568476183061e-02
1.308613845576040964e-03
-9.175100852283485375e-03
1.037747213555283154e-02
5.498332886356044856e-03
2.091304195109010592e-04
4.724679374206570970e-03
-4.005469560078701516e-03
-4.719227701361170956e-04
-5.318530228480704974e-03
-1.917386735892944762e-03
-8.797351210813450159e-03
-8.969714950744986370e-03
2.848120127405556908e-04
1.198835345350807505e-02
-2.318761457413807698e-03
4.847725919443915204e-04
2.036037361140201601e-03
2.878887127906313691e-03
-6.026240123547852053e-03
-4.916553763942996258e-03
-1.170647476619953494e-03
7.492643637009654446e-03
-1.207198522578391969e-02
1.768532468823163367e-02
5.602030005385913100e-03
3.425516622231834611e-03
1.842842215308937090e-02
-1.767660292747269893e-02
6.699900992046654846e-03
3.994865338228526788e-04
1.024060010434625807e-02
4.082211068868360319e-03
2.837328498612087780e-04
9.417871077177102134e-04
5.524640433160868218e-03
6.672984010553238698e-03
2.114580279509064350e-03
-6.126592916218156180e-03
-3.206150634859774619e-03
-1.522400785787421731e-02
4.323041312905112859e-04
-4.291501181416501262e-03
5.283464934696729606e-03
-8.792893129201075813e-04
9.121125906137516476e-03
3.707081503036775195e-04
4.370905723937354957e-03
1.792005157365763809e-03
-5.398018894704021027e-03
1.334646866389444485e-02
-8.596365162442554109e-03
1.969963165983919240e-02
-2.433257939975220357e-02
7.108268240604300424e-03
1.951323085290535735e-03
8.991696981939059120e-04
-9.779783556203522701e-03
1.475435291918324003e-02
-3.173372331539633679e-03
-2.003966792427399127e-02
8.973036225067671304e-03
6.797079708874376007e-03
-7.762025465640248235e-03
-1.257744910517896893e-02
-7.645897921455401154e-04
-1.660141306932036084e-02
-1.451929984927805006e-02
5.968108662779542366e-04
-1.200333327484890376e-02
-8.722482550942581639e-03
-6.147889974613602627e-03
-7.989089803071647376e-04
-3.022431700546067673e-03
1.759880037782296514e-03
-1.967140532560526095e-03
-6.881838825194180713e-03
6.242827040091858057e-03
8.855664585300383751e-03
-2.232797280723108901e-02
2.058226720398793202e-02
-1.648194641704865421e-03
7.434251689103350130e-03
1.511272083574018502e-02
-2.598365891168911718e-03
1.321100319697806821e-02
1.212507946965361155e-02
7.570010060061986915e-03
-1.383130530934385696e-04
1.258576428621997235e-03
-6.653182805157944329e-03
6.460087906949801492e-03
-9.438581009799463031e-04
9.433683319380220837e-04
-9.659190878674613762e-03
5.227192573712654070e-03
-1.609796318184466071e-02
3.308406165635180331e-03
1.694680105520042501e-02
6.353655866992725595e-03
1.569169800949389310e-03
-1.273657678358684764e-02
1.425615664641830677e-02
1.439066525265053978e-02
1.027887043461927705e-02
4.538686345013530875e-03
-1.088075613325377965e-02
-1.686599623843302751e-03
-7.748275345330465393e-03
-1.159170660298964803e-02
7.131688262396467144e-03
1.092149629296445580e-02
-8.053468243582098327e-03
6.511712377685876726e-03
2.541259880765974616e-03
-5.909646536875279646e-04
-9.576707890280817875e-04
6.803062004461343966e-03
2.073521365635603436e-03
5.050579967588193948e-03
1.402836166914933104e-02
2.711229353616857914e-03
-2.691782813988633210e-03
1.455886958096562316e-02
1.896579201710618060e-03
-9.592116864380042726e-03
1.268968989267150668e-02
-8.627947343026619656e-03
1.341757027352072709e-02
-1.624621984686982698e-02
-3.609504115454021701e-03
-6.161545423804649403e-03
-7.318959299594505336e-03
-4.337839216414686103e-03
9.499143798265816119e-03
2.002548153204889228e-02
-2.741276275836497522e-02
5.689918393995475540e-03
2.329971697644220643e-02
-2.508559425399611506e-02
1.789571599036038005e-02
-2.585994332970958844e-03
-1.586825719080178082e-02
4.297753891114994285e-02
2.854388561691310194e-02
2.212627152775314965e-02
6.596391683731922528e-02
3.342797774411750827e-02
-3.288064250382179143e-02
-2.487705414232089032e-02
-7.436590416524167454e-03
3.722565228302324170e-02
-3.269797152422333070e-02
2.990372825166697293e-02
-1.072971329904730091e-02
3.467826968757121986e-02
3.603781162549855172e-02
1.137171816951161075e-02
-1.253640008428856881e-02
1.345106297166642761e-02
3.842536952996460087e-02
-2.134439235965862255e-02
4.213040759552334064e-02
3.115682036776239519e-02
-5.197403950835080555e-03
4.901334016068409002e-03
9.967845075704234031e-03
1.310668143955679051e-02
-1.514940454572668129e-03
4.676763646870801122e-02
-5.219734245182476584e-02
3.187923927546799235e-02
-2.019280523287996735e-03
-3.793241667518130762e-03
1.672072297700743972e-03
-1.954382140769020740e-02
2.125635642832127831e-02
-2.148409177668804404e-02
-2.602115038001042921e-02
-3.378794591458129937e-02
-2.497296745582204894e-02
-2.622250741175459129e-03
-3.065133357501233571e-02
2.791400897148743274e-02
-4.674350465327015841e-02
-9.730146412278685430e-03
1.319784126906397258e-02
5.653761488345315778e-03
-5.709100017991283055e-02
1.920500156205739301e-02
2.526068284416256929e-02
5.945556160950032226e-03
1.114459644296868744e-02
1.402426879378704597e-02
8.819306797606617232e-02
3.683041202377527242e-03
-6.623987342070315754e-02
2.125142686996935731e-02
1.481640280197727387e-02
1.677050245836622655e-02
3.317279195108680662e-02
-1.241024198363341671e-02
3.819026784465340274e-02
-1.548909779117903750e-02
-1.152636884175466288e-02
6.517517076979046850e-03
5.350343406394229492e-03
2.227144308941133438e-02
-2.500198002343779688e-02
3.651814619262664513e-02
7.455041681253395634e-03
4.769924936311062576e-03
3.963667774400407226e-03
-2.962047493400037437e-02
3.713361942958007950e-02
2.562998142762364442e-02
4.548298673055402308e-02
-4.691580986552103955e-02
-1.488816957517363412e-02
-2.114936261923911973e-02
-3.594634290619466016e-02
-1.469321805445063418e-02
2.081714876723807228e-02
6.257589540439893391e-03
-5.331248552010747765e-02
2.198651332476333001e-02
-1.641244086660658894e-02
2.064206739342687794e-02
-1.607850407990523908e-02
2.588195266169414713e-02
1.299748286837703421e-03
3.400095953289816730e-02
-3.415322626274211459e-02
-3.546030401223399485e-03
7.620476800142844502e-03
-7.873692533872976920e-03
2.012366676146772060e-03
3.166519259316552537e-02
2.157197939523529742e-02
-6.964090413145579417e-03
-2.176074628828253421e-02
1.098781129321626214e-02
-2.275969058237719764e-02
-4.018950316392577021e-02
2.366767160340590287e-02
-2.075422143491961052e-02
-1.994712323972542070e-02
-1.447118581218105431e-02
3.603748923527968356e-02
-2.988657571746115502e-02
-2.069137962209913542e-02
-3.165295329621568149e-02
7.112608119381687993e-03
-1.978645144277148618e-02
-9.801990943335725515e-03
8.630876603715415332e-04
-2.559028705640087678e-02
-1.376476546002672677e-02
4.882787186104838029e-02
-6.826733197537885114e-04
-7.845574260541741951e-03
3.351726850772679400e-02
-2.354360123225556281e-02
-3.327538680461257503e-02
-4.328510399222446590e-03
5.516765357248106828e-03
-2.308480860956652406e-02
7.062799759458560957e-03
1.045742222399287033e-02
-5.854261639388338642e-03
1.090298983890082216e-02
-1.788644559389813982e-02
9.524736878948407773e-03
1.018369872194689260e-02
-8.094318550155087805e-03
1.274054102199114608e-02
2.794248790902627289e-03
4.418107329609181205e-02
-1.076738143366528372e-02
1.135393374090469358e-02
5.540662969842576058e-03
-1.746317523072838176e-02
1.581985965206127512e-02
-2.282018420647771023e-02
-1.189913589647674519e-02
1.877418699457825482e-02
-1.195604509416645783e-02
-1.402286100451197517e-02
5.499755925230574022e-02
1.564137506233719607e-03
-1.607546829061072893e-02
6.739040681917416592e-04
-2.572768121892212920e-02
-7.885204884262090458e-03
-4.073009662813840970e-02
2.405143610653231317e-02
1.419570600167600199e-02
-7.720998015304019954e-04
-2.151370173346145095e-02
1.154831063401633683e-02
-3.147319785645099309e-03
2.896285884039219438e-02
-8.867909383664078146e-03
5.272178411507530069e-03
2.851520460120839442e-02
1.316821562315253526e-02
1.091358607415986344e-02
-1.415428894088246320e-02
3.259579611499655027e-02
-4.862334195245020946e-02
-3.980247709433930997e-03
2.298454247776187537e-02
-2.658553658421565664e-03
-1.089520285343576096e-02
3.431815321903182447e-03
-2.651140188752998395e-02
-2.054506812905771557e-02
3.003701545598080544e-02
-2.544398278711310427e-02
-1.059426449866192332e-02
2.809239520533460266e-02
2.960568911331968797e-02
5.540283345782695242e-04
2.858159603196730285e-03
3.659330114965676090e-02
3.216120053504357978e-02
-2.236563725611994888e-02
-1.899605629829284256e-02
-2.876133371985371487e-02
-2.958392233770552188e-02
1.242727017010993550e-02
-1.479041020068831529e-02
2.568262800982511543e-02
1.080504328260547056e-02
-2.395343783159885678e-02
-1.390929552702624070e-02
1.068921827870047622e-02
2.325860298676713997e-02
2.086984832167804345e-03
1.240985452238572116e-02
-1.958158030344748363e-02
1.178139374025530782e-02
-3.213146205908331415e-02
-3.541565002196042644e-02
1.340799375077226206e-02
-2.087752440793169337e-02
-2.676195112785375793e-02
-1.697430056405887372e-02
3.933202124666207444e-02
3.039795040475972484e-03
-1.765640996126732407e-02
-2.752193523653894205e-02
4.313706846508977115e-03
-2.123907824556681492e-02
1.660514642522625470e-02
-1.991479220015131973e-02
-6.624963049806247006e-03
-1.507348045645528524e-02
3.918431749026784344e-02
-2.890877411538145605e-03
-1.491912342855603729e-02
6.015662086911352209e-04
-3.967851445379497188e-02
-4.564259722365517080e-02
2.587361326949878457e-02
8.003482481290024458e-03
-3.304177699554834008e-02
-9.411042568464315005e-04
1.056284584605897067e-02
-2.227271990828029111e-02
8.293485525821727919e-03
1.278977510577486085e-02
1.733519864025789272e-03
-3.245081446503213663e-03
8.408346120611016536e-03
4.759637356146178243e-03
-1.933328395536644193e-02
2.983427043228311509e-02
2.838687370641348670e-03
-5.450040716547414898e-03
1.554357002461931488e-02
3.448561525158229564e-03
1.161465371534420137e-02
-2.475008648455526844e-02
-3.944202635492485148e-02
2.828369797337319802e-02
2.447668597764336360e-02
-2.313878407490840144e-02
3.294808892503306441e-02
9.481731259987311380e-03
-2.847600377659842419e-02
2.481185942174604728e-03
-1.951331326873090993e-02
8.577833466280120403e-03
-4.757756560352586345e-02
3.007080386884296991e-02
1.797959105692740686e-02
-6.596265615144075896e-03
-2.459587535541202935e-02
-9.435771084630374672e-03
-7.635489806981739756e-03
1.377293987806774318e-02
-2.222195415958103624e-03
9.871146342705744772e-03
1.731735351553992733e-02
2.693109450575594324e-02
2.512133243981017408e-02
-2.136291570328194625e-02
7.996232849410853105e-03
-2.762393941562312286e-02
-2.439073362314888443e-02
8.099317808934554733e-03
7.865617365745959655e-03
-3.679217206469385243e-03
-2.415655692307539047e-03
6.582527196625376914e-04
-2.032913949824856348e-02
4.934882371848871990e-02
-4.466020618466579051e-02
-5.614374851459031854e-03
3.149772285471084260e-02
8.544725667599386773e-03
-5.023146152018305964e-03
1.643384470975185405e-02
1.907203804848408082e-02
2.953623504267232150e-02
1.445307892968299666e-02
-2.308578042378657200e-02
8.856736497652983528e-03
-1.212572633461501265e-02
1.632910858812246799e-03
-1.503388698204296756e-02
2.121646141738566319e-02
-8.755109467667974293e-03
2.919776697792689744e-03
-1.462363473604088183e-03
1.939184772610370042e-03
1.315135406393498109e-03
3.666782431439901974e-03
1.836523266284945805e-02
-1.911203463555948348e-02
6.051824740689422041e-03
-4.387281742254422676e-03
-9.785413750438216526e-03
2.432649954591870056e-02
9.004264922790602282e-03
-1.008917712260407225e-02
-3.837289018147364058e-03
2.217740582545588493e-02
-2.453912865942372971e-04
-1.869049544175001082e-04
-1.121470533780235916e-02
-7.964311133810656959e-03
-7.629428356437892821e-03
2.270281418845200246e-04
1.654316017225967647e-02
-1.323157113953746591e-02
6.240345856689775116e-03
1.756506359408917944e-02
-3.923090943948599578e-03
-5.634312312962741487e-03
-3.017711277220865365e-03
-1.163324768153890451e-02
-1.259150281322020393e-02
2.343763221529599275e-02
1.486297562105746116e-02
1.085189805166369634e-02
-9.299060974889136050e-03
-7.055537967197360143e-03
3.652648170990049903e-03
-1.101446094040144964e-02
-4.196357895298190137e-03
3.264901515437825842e-03
-1.114595586317827097e-02
-5.552127181134360566e-03
-6.883749799287439824e-03
1.578941146075797447e-03
1.967719964273773048e-02
3.117612632560867909e-03
-9.557656495093738019e-03
-5.320773019501726618e-03
1.143056953919898214e-02
6.955936019908513443e-03
-7.709183706303889168e-03
-7.904253336675146069e-03
7.840641153365662808e-03
-1.944516899229222981e-02
1.819525639360311010e-03
-3.878289490048643200e-03
9.330570197553436987e-03
1.053074402698657821e-03
-1.144355087939634419e-02
1.232128984540296381e-02
1.679459792991116335e-02
2.644867782316178383e-03
6.085509535580389297e-03
5.234170680874066992e-03
-2.661881253436291107e-03
-1.967400044391296593e-02
1.226925041206501556e-03
-9.904500912316141145e-03
-6.985774994149496382e-03
1.800409235722173328e-03
1.581472587861946014e-02
-2.699848531200462008e-03
-1.195484248168442870e-02
1.427341852081871580e-03
4.323987916748100666e-03
-3.403062899651605484e-03
1.262156262683963165e-02
7.505045205445199166e-03
9.047864896527745351e-03
-6.713910646071057130e-04
-7.899343302887391893e-03
4.349438235660378106e-03
-5.047100874063888652e-03
5.089293170120403817e-03
-1.154224055263512218e-03
-1.677304945875138925e-02
4.624246365547386890e-03
1.448802141227506675e-02
-1.403051421340213711e-02
-1.212656116016327078e-03
-8.690663764103826600e-03
4.491174002463330442e-03
1.253321404678185876e-02
1.774376665337227751e-02
-1.237192059607488022e-02
-3.361648263320109707e-04
-1.006775234011156490e-03
-1.613285435958648067e-02
-2.645993127341432667e-03
9.888095709823133822e-03
5.254501004026494379e-03
-1.345348249620720651e-02
-2.850330771268603028e-02
1.432390643904028066e-02
-1.700641051724043409e-02
-1.215979372399992459e-02
5.624588477461421598e-02
-2.116238609145900274e-03
7.163481772249952542e-03
-2.637451368162143164e-02
-6.082774326022148681e-02
8.314499530529985763e-03
-9.868243325746730438e-03
-2.909117755079506859e-02
1.045741730409244404e-02
-3.618658825932839990e-04
2.038582294684906232e-02
-1.315704295594526639e-02
-1.106297395092263949e-02
-1.557407804914908052e-02
7.688041391915569935e-03
-3.855823590160925056e-06
-1.791964043912210036e-02
-2.270828392116385278e-02
1.978662329047438037e-02
3.479173275278777538e-02
1.301612981953383964e-02
-6.003949623295820950e-03
1.999788011105562910e-02
-2.172162328040832743e-02
-3.451982071717406286e-02
1.809582148506324109e-03
-6.621552614143091584e-03
-1.781691643845267209e-02
-4.646779210862016923e-02
8.337870061346135467e-04
-3.142463115314000216e-02
1.765754677519543875e-02
-6.230608640925482285e-03
4.870961665224495321e-03
6.290290445713535121e-03
-1.486181561638593406e-02
1.363867892373166191e-02
7.490901210661148144e-04
2.289625770076989322e-02
2.093632068687589472e-04
2.047603093125920440e-02
3.026086234648614134e-02
-2.335906837543640785e-03
2.345556693631831863e-02
-1.031021408818116013e-02
7.564223537038775556e-03
1.420615212926553197e-02
-1.728712458802787733e-02
9.043572809931873027e-03
1.522777205714756499e-02
1.073466303009092300e-02
-2.365260529808402290e-02
-3.063561737260150908e-02
-8.452251641832152565e-03
2.357347590920118047e-03
-5.706282880164399718e-02
2.535619895228418547e-03
7.748187540604731249e-02
-1.024571946369263672e-02
-6.720048153547267950e-03
-4.746899590305209832e-03
-1.080534298005740579e-02
2.118883720899186491e-03
-3.522182656619377711e-02
1.627102467620528473e-02
2.388054013679905430e-03
-1.577904885877626662e-03
-3.722366545970480587e-03
-1.139527071629495812e-02
-3.543374903982665376e-03
-1.689960834576558629e-02
-7.393770035668721478e-03
-2.334765026930678625e-02
1.698514033973215660e-03
-9.862037695138832494e-03
-5.410568482576583876e-02
-1.508788459171321768e-02
-8.050233196849714001e-03
3.676611399735455615e-02
2.141659902978735805e-02
7.597421907525930742e-04
1.373061634785198437e-03
1.229332026598228475e-02
-8.128525775465862691e-03
-3.551407364925771720e-02
1.255575534229495457e-02
-3.154227392925101903e-02
2.608081017780554400e-02
-1.332693907962372547e-02
6.059615767433611418e-03
-1.554436085877987849e-03
-2.165183816701227518e-02
4.474512609340632573e-03
1.079004979787627494e-02
-1.695503999359886105e-02
1.668180473617703399e-02
1.007494779885866878e-03
1.226422072136584829e-02
-3.370541787490329011e-02
-2.187074068430947763e-03
1.498278429278389334e-02
-6.696249867724565416e-03
-2.580835032444748784e-03
-3.241281601198070430e-03
-1.093469712140829157e-02
-1.318350347343922278e-02
9.467160541145195132e-03
1.486560493268590955e-03
4.865820582385750603e-03
5.096486262613870652e-03
1.760807613464435498e-02
1.357951424687126648e-03
7.025406463966072691e-03
-1.185193949727568995e-02
4.098864608818274247e-03
6.165902057156979685e-03
-1.474258467564023949e-02
-8.282735002875451016e-03
2.859924075449421857e-02
2.647349785377798095e-02
-9.735439573708035100e-04
-5.667048020894772942e-03
-1.155164475201811772e-02
-1.046140858351336106e-02
8.750658868776838364e-03
-8.372435939835798716e-03
-9.484682954964761270e-03
-1.450082205137794228e-03
-2.001734871254103390e-02
-1.747759090351561420e-02
-2.980389627585905421e-02
-1.097382923290291488e-03
-1.771915635277488896e-02
3.491501528415294313e-03
-1.180441100135815741e-02
-2.360704552669339962e-04
-7.249585659342306677e-03
5.380531000559920195e-03
-7.270210577217001667e-03
-4.891253531046095906e-03
2.020194314231430269e-02
1.891469628845358908e-02
-1.856379871227951950e-02
2.000587130938963343e-02
4.462965272607991897e-03
3.126348149059780292e-03
-1.086921367764396001e-03
-5.849516842324449040e-04
1.374014696691022545e-02
-1.337988387494668842e-02
-3.529382050377327662e-02
-1.138429869969796726e-02
1.586933839015139402e-02
-8.330642132707540351e-03
-9.197279298501224651e-03
-1.510021752886039209e-02
-1.245848244924448005e-02
3.584307321802771701e-02
5.796215477467898947e-03
1.130118224909779263e-02
8.439960213610195328e-03
-1.403959286009179644e-02
-3.010092016295527664e-03
-5.503150919228117291e-03
-9.889567146598658709e-03
-7.410384654539282044e-03
-2.028048647825586321e-03
-4.832870005866240180e-03
-1.216235387973361136e-02
1.013014666685707783e-02
-1.227222598625076627e-02
-4.759412323267148484e-03
-1.027103744206153213e-03
-8.398583114764022334e-03
8.018273717517713020e-03
-2.028063120220123874e-02
-2.170460285756106028e-02
7.600271110756214553e-03
7.641753911817335439e-03
1.221872292715244120e-02
2.124239457946798526e-03
1.200794408406279622e-02
1.292087399775527536e-02
9.189442498396416942e-03
-9.135222718718942134e-03
-2.717345336461555894e-05
-2.720866110317083503e-02
-1.007739880411242725e-02
9.385358134397175575e-03
-1.073761330868239564e-02
1.699711605748490881e-03
-8.061923105918229401e-03
2.759599752605061337e-03
-3.623462092803321054e-03
-6.717368517151179122e-03
4.378050896132293889e-03
-2.549007805925825390e-02
9.364652198309989309e-03
-2.551252077489826395e-02
-5.117596838408095851e-03
3.753213015940149583e-02
-1.153460569653167074e-02
3.016819494368046511e-03
-1.409419862556965733e-02
-9.301763559546408558e-03
-2.382971490877679524e-02
-4.035079024859964357e-03
-1.119513045756899286e-03
-3.336265878415440580e-04
-1.664221581961029730e-03
2.075655542483745633e-02
5.505841577644521659e-03
2.397413330902391920e-02
-1.092340317629480681e-02
-6.395640089996285343e-04
-1.070853605690867552e-03
-1.341850531644948018e-02
-2.392066378881075803e-02
2.791512784281219642e-02
8.049805058965941659e-03
-2.888371381703645074e-02
-9.879296628309396783e-04
-2.512934159720223680e-03
-1.376205649926464172e-02
-1.899786797334229380e-02
2.683683591155678304e-03
1.529323811075531357e-02
-3.092286995542480391e-02
-3.249798641988926179e-02
-1.358806498868979015e-02
-2.898393582553542014e-02
4.683187290544094106e-03
3.276051795649752556e-03
-6.272456491555711104e-03
-1.869544389709882097e-03
6.073795564682683314e-03
-3.095674753266013796e-02
5.422987328919023735e-03
2.123012216246756775e-02
1.391126073803259505e-02
1.447070084958255391e-04
1.336118821630126983e-02
4.088388964221063328e-03
-1.693023242452290633e-02
-5.458710334993082183e-03
1.024834322200817750e-03
-6.815591624799324441e-03
-1.863572380455639360e-02
2.186044555769631539e-02
-3.576032408655420956e-03
7.897106007754353674e-03
7.610646678809823013e-03
6.307253193878826700e-03
3.263405908571921621e-04
-4.470123729726581570e-03
-2.720027324039718183e-02
4.452745226994611616e-03
4.293354094915478175e-02
-1.418804247188130106e-02
1.895069552443005845e-02
8.267063066359159329e-03
1.785140536649462359e-02
-2.039025419361923525e-02
-1.046887998467133617e-02
1.512024340114630390e-02
8.101842528427525419e-03
-3.980172619741264954e-03
-1.230514543554822419e-02
-9.835879289722310875e-03
-2.254247814211180270e-03
-1.166661016809551407e-02
5.730464818675275358e-03
-2.629232566827106529e-02
-6.157770768129037717e-03
5.654163943684720238e-04
-2.740033924274552432e-02
2.466261556228985588e-03
-1.719477217742914829e-02
1.684873089936170590e-02
1.477081997836316579e-02
2.531422110211588652e-02
2.067450143703167612e-02
9.129699910603793558e-03
-2.878187199157079650e-03
-1.800232505193084809e-02
-1.911409860697583368e-02
-2.152749586464724335e-02
1.006695959840703952e-02
-5.995209580099724808e-03
-2.121969830386849498e-02
-1.105607653156557950e-02
-9.318560936966821875e-03
-5.339960161615329125e-03
-1.048847559305271342e-02
6.935362511357090823e-03
-1.708688589182481496e-02
-5.329831100397158621e-03
-1.818066485024546694e-02
1.009166807455358361e-02
-1.289832644864211380e-03
3.251632471896232553e-03
1.157227015559613402e-02
-8.630321150786046669e-03
1.794789503791841337e-03
4.595599267964997105e-03
-7.943152202265060802e-03
-1.197946041703532895e-02
-7.808970421507446281e-03
9.395256479334790009e-03
-7.735619091218412166e-03
2.337984970734145393e-02
-1.228209095412711310e-02
-1.107955067260548571e-02
4.085347995802495065e-04
6.165699831024096939e-03
-2.080709786979749194e-03
-8.754856392028498302e-03
-7.840040262030462809e-04
5.335081797954177758e-03
-7.414486785820204560e-03
3.534712150631798017e-03
-1.231807064107024417e-02
1.094592668675622993e-02
-4.550047723806648612e-04
2.138286888139584799e-02
-1.709162858742265326e-02
-9.137818050937751221e-03
-3.789658018516203330e-03
-4.137595903302488027e-04
-1.469215268580251546e-02
-1.326087667354692266e-02
-5.602285095995157387e-03
-1.492826787197470625e-02
-5.603912025346681307e-03
-2.309413567843021046e-03
-1.903832916217433786e-03
-2.703797102761357554e-03
8.681549451055328714e-03
5.470229240568088951e-03
-9.965868858542959938e-03
-1.591122559883382430e-03
1.342443974911960644e-02
3.150599198187626487e-03
4.694949069111002855e-03
-2.185586664114738242e-03
4.393319343216425137e-04
2.351106300689950399e-02
-2.621807315754415106e-03
1.544097925989691526e-02
-1.525047052196406086e-02
1.655521107353296120e-02
-4.680595020643335200e-04
2.122549394028969225e-03
4.055977963493808715e-03
1.642804032129537364e-02
-1.903969214589730855e-02
-5.437968573764609230e-03
9.046214999313482996e-03
-1.121316187619023248e-02
-7.872673803387400179e-03
-5.198008345665570441e-03
7.311914724005829334e-03
-4.400648390019684143e-03
-2.252571244333054744e-03
-2.247456242692073836e-02
-8.432880279648311689e-03
-2.302373882582087194e-02
7.360949341542588793e-03
-1.571600038571263278e-02
5.019058540441819188e-04
-1.735400595230675649e-02
8.900960856026152168e-03
9.837828623855317950e-03
-1.540043226738618300e-02
7.169135478799140183e-03
-5.250555003415259027e-03
-1.349756298513230673e-02
-9.758897517897310858e-03
2.300267563261164643e-03
-1.666971831459522144e-02
-1.770231588119277125e-02
-1.693662632221588904e-04
-2.149233082852389839e-03
-8.536024524692644930e-03
1.307070777959928355e-02
1.169248261548445217e-02
-3.713438966559743488e-04
-7.998775772789326957e-03
2.114681920434350899e-03
1.043627503040141409e-02
1.798998355363440674e-02
2.067886619556547241e-03
-7.244123754017684977e-03
6.346104876601362660e-03
-2.670066808228591451e-02
-2.111171695660716413e-02
-7.248075006545026677e-02
3.119401399919212101e-02
-6.277790176676494027e-02
-4.381030587321112918e-02
7.877815642144712915e-02
-3.760428789277669992e-02
3.672167899180805301e-02
-5.895430631274437699e-02
-4.087308815504062803e-02
-1.157403867440067770e-02
-3.680557166854923901e-02
-3.958702123447261495e-02
-3.191565994497026770e-02
-1.167817184699885234e-02
6.582864480161364218e-02
2.322270152852210640e-02
-6.234099577468987449e-03
-8.664188488865437465e-03
5.114766082442385141e-03
-1.124592294804403108e-03
-4.640002814822404703e-02
-6.324715014343677832e-02
3.600861688167300567e-02
5.117414383924706600e-02
5.245157350492376733e-03
-4.246328433517825712e-02
1.222128022325806584e-02
-3.608988862900966432e-02
-3.575572384629825684e-02
-1.657978016582821804e-02
9.336511490117058512e-03
-4.273890810464186368e-02
-9.633019492306119091e-02
-6.273145466274875071e-02
-8.438637434668133652e-02
2.175015641104795922e-02
-1.751266654313493251e-02
1.580321096188606758e-03
2.902948035122581219e-02
8.371435227674358520e-03
-3.152479436259151419e-02
-2.290509420400916457e-02
1.277221841017423150e-02
1.441750755994125263e-02
5.224506402592894033e-02
7.497853232423049019e-02
-1.587387236551688827e-02
4.776473202823872111e-02
-2.379515638952569428e-02
4.662800033972519520e-02
1.807057858042497881e-03
-6.671105363887439021e-02
3.682515054043735553e-02
3.563958132166929194e-02
-2.370763109631085844e-02
-8.275415387403926154e-03
-1.572115672955684551e-02
1.434851854753068506e-02
-1.989587726390272190e-02
-8.247722507560142913e-02
-2.677246888352000434e-02
1.625920473332878868e-01
1.270130606754915452e-02
1.502504939952525875e-02
-3.800696064617213599e-02
-3.489410762641791119e-02
-2.770985492293589342e-02
-2.238277794634562293e-02
2.775441010218194365e-03
4.839812264793652910e-04
-1.877693336153744147e-02
1.762792065744595363e-02
-3.982817856214419805e-02
3.359198320446563080e-02
-4.332662777786561864e-02
3.176116147610325707e-02
-2.342462680378628800e-02
-1.314526436788260311e-02
-3.478612863366343372e-02
-8.307357600009840359e-02
-1.855342835641302437e-02
-3.670299018307548317e-02
8.553326095151203567e-02
3.818232268953620362e-02
2.703089763909246809e-02
4.447748782915916105e-02
-3.288122732588773158e-03
-7.310277124299039385e-03
-2.966163706248396009e-02
2.749289214563722938e-02
-7.786622661724627859e-02
3.680731744870031907e-02
3.231523180591851230e-02
-3.230563761351613189e-02
-6.069057453456237067e-03
-3.905928675179909382e-02
1.894537122424748768e-02
-9.953806077435262134e-03
-2.513759588511180199e-02
-4.107485726444621427e-02
-1.208606413387497691e-01
3.090782470715048094e-02
-7.872357293228256225e-02
-7.860365417119118125e-02
1.143463973623507490e-01
-3.338003701206510715e-02
6.516431415594631238e-02
-6.211338561622708337e-02
-8.400378251150997233e-02
-2.118333151574047432e-02
-5.270267512796145137e-02
-6.305764379193469493e-02
-5.510619994204161987e-02
4.365629610667759626e-03
8.929961798228849834e-02
3.871967805755657105e-02
9.962851612490365716e-03
-5.377061702728512527e-02
2.524087482921279213e-02
1.890851949885530292e-02
-7.065102266134205833e-02
-6.914653590943797834e-02
6.097226265703380860e-02
8.128520996910325314e-02
-2.580771431580183850e-03
-7.329686709093495567e-02
3.001828455135180027e-02
-6.263901867643822952e-02
-4.334442222241889631e-02
-2.347595803524617220e-02
-2.678412168726567941e-02
-7.080362857979020930e-02
-1.205820598555706474e-01
-5.066332489999757910e-02
-1.281509619203861083e-01
4.705508122526957243e-02
-1.657256570409809671e-02
1.266284649588268578e-02
4.573624313957556226e-02
-1.132364575164400422e-02
-6.298842946094536377e-02
-2.791137644828391509e-02
8.313615067941782302e-03
3.504431217616160721e-02
5.796789328794908075e-02
1.173244007400983946e-01
-5.888593985133151396e-03
8.062296057641039904e-02
-1.780997516651477985e-02
6.912050506099580438e-02
-3.061892546421037670e-02
-7.391738121775079384e-02
3.939625343756612136e-02
5.558808532910389927e-02
-5.003262973147087900e-02
-1.863522769950298058e-02
-5.060324681621432980e-02
-5.893487124706694828e-03
-5.010243148898791549e-02
-1.251402884711782237e-01
-4.591290910852119378e-02
2.329374457093133788e-01
5.392068021983166017e-03
3.069461298950298955e-02
-5.361593887229465505e-02
-7.115385441904124864e-02
-1.405221020965241943e-02
-3.695556483634234585e-02
-1.109035128263548622e-02
-4.650999851705384233e-04
-7.241043425028753470e-03
9.779747811603395694e-03
-9.340457905189313015e-02
5.960598210009949299e-02
-5.609286693660293921e-02
3.517334008134422041e-02
-2.649852942042708534e-02
-3.581456480701952771e-02
-3.506519810195167508e-02
-1.484734577040269510e-01
-6.146050912538261052e-02
-3.228199286560232140e-02
8.956734121854166564e-02
5.738536220459816706e-02
3.551989641561139471e-02
2.222840838383846954e-02
-1.462856455605263161e-03
-6.640898717968433083e-03
-4.079025013096764657e-02
3.289675336630363406e-02
-1.249405918458188353e-01
2.068479903384129806e-02
6.367192550630947773e-03
-3.109812724055515884e-02
-4.644758996843155463e-02
-6.949046934034394662e-02
-1.678000204870416442e-02
5.631900037123814019e-03
-1.899565620602583146e-02
-1.452750007996953668e-02
-6.180759618154349488e-02
1.209340041053103172e-02
-9.752226418381793049e-02
-3.595355904209978498e-02
6.437379271538308523e-02
-1.387429090744504885e-02
1.086667884753110200e-02
-1.815431400291103378e-02
-1.562173168958968725e-02
-3.216585879211877885e-02
-1.061252619452853797e-02
-1.516670710780833840e-02
1.787044379428203973e-04
-3.061323000298806982e-02
7.289217487559680742e-02
1.720567966778634161e-02
5.287769702345914563e-02
-1.376743970356614916e-02
1.590966181845538882e-02
-3.142843728529659108e-03
-4.342269566707690487e-02
-3.785131509446845038e-02
6.020293219694020787e-02
3.557704792630647650e-02
-1.984060023412697812e-02
-4.824254102983915188e-02
-1.913316538640864525e-02
-8.936367391763344603e-03
-1.181548707599992636e-02
1.020716827685486973e-02
-5.542597521868652261e-03
-1.037643287504704144e-02
-7.613769598783033665e-02
-5.511165078558325631e-02
-6.533944977816746880e-02
-1.582913813908804618e-02
-1.010874947534025521e-02
-1.055121896619030768e-02
8.938394328294482424e-03
-1.179015736286884684e-02
-1.928646152444258091e-02
-5.746480476560126421e-03
-8.306815958392750956e-03
2.826637887179299716e-02
3.737802193091796510e-02
6.089407049603636629e-02
2.530776818371262282e-02
3.471961334042487912e-02
4.696736967459110186e-03
4.301118688182124089e-02
-3.078920335341629386e-02
-2.765938109651271820e-02
3.598987896681363208e-02
-4.245226019440371396e-02
-3.229359483844848611e-02
2.619693732985507728e-02
-1.724736706643751130e-02
1.198293125571308661e-02
-3.736422657371889222e-02
-5.272772536887745248e-02
-3.814182185478842690e-02
1.121653602862746624e-01
3.453079869389047256e-03
5.040407539468433340e-02
-3.789169016534855300e-02
-3.522580397676597364e-02
-4.627816103017171057e-02
-2.044801712365748939e-02
-1.296978088832319645e-02
-1.830118120076085556e-02
-4.913164450284999984e-02
1.508749864659083423e-02
-1.636012313443291691e-02
2.447375700186650224e-02
1.328707948897910746e-02
5.176330777960994056e-02
-2.783177246689473583e-02
-2.984820309510369599e-02
-3.831923739020728220e-02
-9.126227200520670158e-02
-1.787217539270505307e-02
-2.624131037371803601e-03
2.200537071975674705e-02
5.657863615705119309e-02
2.995943470604578787e-02
1.364000998822785873e-02
-2.263141761203337279e-02
-7.520784008873109688e-03
-2.731819434529571961e-02
2.990101959093189460e-02
-9.292717020083117452e-02
1.030218311557685312e-02
1.574967689535278215e-02
-2.310882902349671239e-02
-6.561834548701965704e-03
-3.365777325484421018e-02
1.608613575381972333e-02
-3.486926570173460443e-02
-6.792866814451587604e-03
-1.930810225305680874e-02
-6.182051635476697865e-02
2.681612010104608007e-02
-5.312195525715937561e-02
-5.374879945677576987e-02
8.640063646138976261e-02
-1.275074055321792112e-02
1.827520554158645200e-02
-2.772085677191868727e-02
-3.923023208076163726e-02
-3.732788304517535571e-02
-8.694421454367601623e-03
-2.937732101966238421e-02
-2.279644859102132257e-02
-1.106855860670753061e-02
6.905065767980693436e-02
2.717207369998857550e-02
4.663816433106988263e-02
-1.540270478712994426e-02
8.695960123810327416e-03
-5.577843646566785218e-03
-3.100210089106849448e-02
-2.967916949823731082e-02
4.618746039459522418e-02
3.739262322265231309e-02
-2.809391531006917922e-02
-3.837607920107715537e-02
1.016753973245320894e-02
-1.299338847114803706e-02
-2.413586263004117299e-02
9.501656890815359663e-03
-1.307288962998190592e-02
-2.060760611901651246e-02
-9.312585337456100176e-02
-4.866021994021844238e-02
-7.254625239730784492e-02
2.152541656247734109e-02
4.403646285503238014e-03
-1.816730847098519189e-02
1.407336864796132798e-02
-1.638880601734310841e-02
-2.165726063903579413e-02
-5.851165074441821599e-04
1.299383977200686303e-02
5.099245204084727756e-02
2.403558263681862539e-02
5.681521773732446656e-02
-1.608002440143853351e-02
5.308919836347272131e-02
8.462262743078090288e-03
7.129977871257670019e-02
-3.676269856844001371e-03
-3.889149077731314519e-02
3.596214133142457831e-02
-1.328661699469331492e-02
-3.487870033611842335e-02
3.720898519038543743e-03
-2.601073445772294351e-02
1.784315845347625787e-02
-2.381907940935207649e-02
-7.686385260371930706e-02
-5.213080850547528733e-02
1.192508125897945997e-01
2.319726034552335638e-03
4.087775610214300359e-02
-2.796021499749937536e-02
-3.366309113868051067e-02
-9.788223000823085065e-03
-4.093392200269881098e-02
-5.313118158186361066e-03
-2.596974673528757577e-02
-2.835846606347968216e-02
-1.013216082918455725e-02
-2.492844822268785662e-02
1.761253223081259839e-02
-2.396667248945482873e-02
4.410227462882131133e-02
-3.115434294706287063e-02
-6.659260838642349321e-03
-3.054858425385706747e-02
-9.982205680904716882e-02
-2.665857143050209821e-02
-1.742860272686403561e-03
5.608278913213198685e-02
5.468821624321663910e-02
2.741016070267908791e-02
4.271897021815694584e-02
1.345116647423953308e-06
-4.204721248931572535e-04
-2.667083185567880807e-02
2.748782099772291085e-02
-8.930512201488882695e-02
1.619674031791835944e-02
2.573584561391382280e-02
-1.489592930799685938e-02
-1.629580716000476881e-02
-1.961681928577724623e-02
-9.283212514055495107e-03
-2.919180806848397855e-02
1.083440128006207597e-03
-3.924143162682546676e-02
-1.109281379101111492e-01
3.893654286817924831e-02
-1.567884979053487671e-01
-6.986678489503551914e-02
1.380829849997562975e-01
-1.517066545706862238e-02
3.185592072527048541e-02
-3.146172347580570433e-02
-1.997173776496864381e-02
-6.695163743711346482e-02
-1.722772965706806728e-02
-3.117952086205956486e-02
-3.807380452244303604e-02
-6.870446062645817198e-02
9.845742140487921679e-02
3.987918490003120042e-02
1.035086632222222969e-01
-4.431869057807686502e-02
1.097537814543654393e-02
-1.713017389594536505e-02
-7.151304872995599415e-02
-4.094175215064037310e-02
1.271816734596220855e-01
9.210855155542227446e-02
-2.703819933359096275e-02
-7.912219511496966506e-02
2.740225068743314812e-02
-1.657390208352439373e-02
-8.878966222092174801e-03
-4.879154060290775974e-03
-2.758590670896513344e-02
-3.989871203403858035e-02
-1.422162618624343289e-01
-6.242695609530572731e-02
-1.265726523430156791e-01
2.989531485312747067e-02
8.299066751866949684e-03
-5.241275780522857385e-03
2.770882132696455766e-02
-3.841253023226321676e-03
-6.356648350528333602e-02
-6.945368863332362572e-03
-8.999053456350528460e-03
6.552507322650526211e-02
5.998952233765615649e-02
1.053581429577484657e-01
-8.836140914316354539e-03
6.848710493345233630e-02
3.613365209626627494e-02
9.716798634902613918e-02
-6.123086865682544205e-02
-5.270290152528717825e-02
5.021044046006437750e-02
-4.679630775936060444e-02
-7.343499165216252345e-02
2.923798891497738847e-02
-1.065707935895212483e-02
3.473252589676187330e-02
-7.337738026568640937e-02
-9.935625101315807839e-02
-7.347761737958266592e-02
2.033755886623660192e-01
-9.623886140675341067e-03
7.707545901614251682e-02
-5.776808495117491393e-02
-5.273497833489432934e-02
-4.747759943701516938e-02
-1.790080293260616975e-02
-2.568542034333605104e-02
-3.431441790558904109e-02
-9.828487600021021398e-02
3.254724455724576204e-03
-4.639225506176056918e-02
4.542717511788833123e-02
2.077781264245706985e-02
7.721923775127938205e-02
-6.946365818621189070e-02
-4.245546553354548336e-02
-4.841642067463528681e-02
-1.685164791046512289e-01
-4.153578788982717485e-02
-3.443716283048504651e-03
6.946058625697031086e-02
1.343919405374706388e-01
6.652656026244364862e-02
4.331351432999989287e-02
-3.067042323172762194e-02
-1.026558007843812910e-02
-5.540851761996926778e-02
5.520015587212061259e-02
-1.601708800990794823e-01
1.276044968454767212e-02
4.263944777440719508e-02
-2.562901368288651033e-02
1.235982322961281686e-03
-8.768719264799017254e-02
-1.966267632301641616e-02
-2.828082336730668167e-02
-1.381080904702664154e-02
-2.954552963114210479e-02
-1.479335385705982664e-01
2.991988374840507531e-02
-2.167318430802645801e-01
-9.051879658798468731e-02
1.687897521341130413e-01
-3.187220343138525997e-03
2.322257475054092038e-02
-1.445757440613276365e-02
-3.251983012600904305e-02
-7.662560744024077275e-02
-1.735355178786190944e-02
-2.880436584245272061e-02
-9.107845783786863367e-03
-5.428975879254553660e-02
1.413423643783723593e-01
6.642345870296505195e-02
1.695961893617145833e-01
-3.295940992927431923e-02
3.867738268051071349e-02
-1.623219830056369523e-02
-9.377928849610892015e-02
-3.184824795203702180e-02
1.608641164527401246e-01
7.012293332644022048e-02
-2.950845809275296286e-02
-1.041969594959013118e-01
6.669266835707504150e-03
-5.133831397411644550e-03
2.215517610232489720e-02
-6.072172867220736875e-03
-7.071110648095245421e-02
-2.105811256471019910e-02
-1.624523015860485642e-01
-8.343182351247083184e-02
-1.247740269413724901e-01
2.678227195208790837e-02
-1.480769945312314199e-02
-3.485922751141296710e-02
4.390847690975121370e-02
-3.291680522998815649e-03
-9.263788733152741872e-02
-1.147291412984026079e-02
-4.034910518893426723e-02
9.433573231255359959e-02
7.659293839327512010e-02
1.107707937412047705e-01
5.033835197472436365e-03
8.554263761308231184e-02
3.250752873851703306e-02
1.537987840969095577e-01
-8.778892993651238319e-02
-8.663966745015407034e-02
8.232432674178714882e-02
-8.744625836359365412e-02
-9.864218148754054505e-02
4.067003834886789154e-02
-8.394953348238870169e-03
4.846035080254414151e-02
-7.231747538045128765e-02
-9.017224405436848056e-02
-1.122856348042850227e-01
2.275453050953453737e-01
-2.294295292591743383e-03
1.394453632802504506e-01
-9.998510709328299606e-02
-8.762326009971878327e-02
-8.970521275213523549e-02
-1.199483089429287212e-02
-3.067146514809068747e-02
-5.846913068461548346e-02
-1.105518339638724284e-01
6.290136433954147347e-04
-4.590313406763866372e-02
5.531686381574939249e-02
4.081337023990285612e-02
9.363671457181428626e-02
-8.399871182340154507e-02
-7.287740180764169795e-02
-6.450238149112905162e-02
-2.246788193118988142e-01
-2.877111830031183273e-02
2.954240639354158496e-02
2.551252954279169260e-02
1.535439458373787647e-01
9.136096792854245252e-02
5.157593120273629844e-02
-1.115888735614546830e-02
-3.743445241239078125e-02
-6.660481841775393874e-02
1.170953438029103018e-02
-2.160307402599091209e-01
1.622447155095343638e-02
4.228638079774119790e-02
-3.520325211321394254e-02
-5.508012196530152026e-03
-1.205994774808746561e-01
-1.266000668286274694e-02
-5.509113797195285683e-02
-1.179654304479223551e-02
-2.010545324554968358e-02
-7.938984717794055068e-02
2.517447210540435867e-02
-9.660272794191551715e-02
-2.542154356862941916e-02
7.519236621579791779e-02
1.239996034451451177e-03
-4.194952938398434535e-03
-8.908076251278979410e-03
-2.253266298521670354e-03
-3.184039620450210273e-02
-2.126980890383699599e-03
-9.595056134060534619e-03
1.253922345139494438e-02
-3.222501641438760972e-02
4.669188000595745486e-02
4.788395485852418171e-02
5.876836525762386271e-02
-3.747138058923628681e-03
9.218491160128877704e-03
-1.048901026666580055e-02
-3.678286909720158981e-02
-1.146811865418556273e-02
6.679261176851269965e-02
4.687483202094076123e-02
-1.726751156448326149e-02
-3.527311424368110432e-02
-8.108075538638230551e-03
-1.055964833428685475e-02
1.789038947249383879e-02
-1.813813707941716938e-02
-9.181048769762313599e-03
8.283408421280976167e-03
-6.674080522168365781e-02
-5.218342820546708477e-02
-6.298244377499265245e-02
1.204336070973233315e-02
9.882180238792188237e-03
8.816455010221005417e-03
1.027467022376612853e-02
-5.722599714199924116e-03
-5.099608473481626741e-02
-1.515932193102699672e-02
-1.491403507336679264e-02
3.646927750267368179e-02
3.495069455295212596e-02
4.486311277689777194e-02
-2.667845895817853343e-03
2.921637322721733557e-02
1.552477478159400293e-02
6.161154290017803459e-02
-3.983916550154349007e-02
-3.055337871695249646e-02
3.613249039372026100e-02
-4.974595828609144205e-02
-3.544565354010910385e-02
3.913779134653190550e-02
5.435429571091726295e-03
1.764517100774133304e-02
-3.084947358869534473e-02
-3.809222036447627163e-02
-5.453448893024644833e-02
9.298106552171929440e-02
4.473073999044963230e-03
4.484404129824222374e-02
-3.863788900540365140e-02
-3.702805546729633079e-02
-4.022691117691624269e-02
2.076756720492589983e-03
7.810753582557893558e-03
-2.751998144700825225e-02
-5.453112906923161113e-02
1.457251566754657647e-02
-1.464876726916939341e-02
3.114631753312019011e-02
2.969489946261928692e-02
3.665269782370250001e-02
-3.998104185634550334e-02
-2.204006223856820948e-02
-3.046153392515595429e-02
-7.358011407709283414e-02
-1.838042899121873977e-03
1.817016800207538543e-02
2.361792888763340065e-02
5.997813502413574388e-02
2.899462471333421124e-02
1.104567178641487762e-02
-7.426178022706616394e-03
-1.774363835904228456e-02
-2.752326518028734917e-02
2.438222580352458410e-02
-9.773577565615615415e-02
2.716190960908180987e-03
1.300710227391722179e-02
-6.653630102756973724e-03
-1.955481288954446367e-02
-2.928394045040035379e-02
-4.390874110826530584e-03
-3.498310313035424279e-02
-2.551642231971378363e-02
-1.124103462280805731e-02
-4.481508230130162168e-02
3.907265730744449370e-03
-9.018617444315846221e-02
-2.719979014072780241e-02
2.700906192964676669e-02
7.367315697505920358e-03
-7.321619341565929751e-03
1.333586949637032091e-03
2.787767195725201694e-02
-2.673587116610775735e-02
1.609684597944089149e-02
4.867239122139988688e-02
2.242000004780192110e-02
-6.726005021790606997e-02
5.061272470878094842e-02
1.387814821810177436e-02
7.342667415208962989e-02
-2.947357998630406248e-02
3.062990023439773196e-02
-2.544246690847548620e-02
-7.335610211427004597e-03
8.638874479335381662e-03
7.587288916084339307e-02
-5.626392894346810176e-03
-2.596734273187135261e-02
-5.870846843133130030e-03
-5.981978775193416177e-03
2.957766779302169191e-02
4.897031438798445102e-02
-2.853427809983760579e-03
-6.673627542460703645e-03
2.736273957971478710e-02
-4.123833339425892613e-02
-5.666833200679862598e-02
-2.357381111649346078e-02
-1.922251267875543096e-02
1.033367325654800835e-02
-1.874528257787521843e-02
2.199647922876648686e-03
-9.065626603493999805e-03
-4.128814438566950212e-02
1.302338510910918713e-02
-2.923749236686832079e-02
-9.273474377922745482e-03
3.014913981784288211e-02
9.165959812810080959e-03
6.194691550161651912e-03
2.901827002610267783e-02
3.690941450506866200e-02
4.476725133925750499e-02
-3.580748088957923930e-02
5.900827038869383388e-04
3.481438135449285709e-02
-9.814313533582134930e-02
-4.379176289849858600e-02
2.978645989684551923e-02
1.497397712719507031e-03
5.264468257861088657e-02
-3.925115778666786459e-02
2.096047697348875360e-02
-6.111016190559726002e-02
5.550019516554558635e-02
1.407998506881915496e-02
7.621457356558049290e-02
-4.490105274123577794e-02
-6.739632687123151521e-03
-6.468398452776898122e-02
2.577307690452733391e-02
-2.026824601074310450e-02
-3.906514591377578671e-02
-6.945534329702086895e-02
1.800763141100808484e-02
5.264253016507606034e-03
-1.411459806521715536e-02
6.035003958400565749e-02
4.510776786323993787e-02
-4.564175559727644271e-02
-3.512157709448883447e-02
-4.092059927968652588e-02
-6.315142972101171759e-02
5.641727103537438198e-03
3.871130807812544344e-02
-1.796607836316121282e-02
6.171689030918198898e-02
3.569209197398287570e-02
3.601992383688233136e-03
-1.972604681732798709e-02
2.012382056130198205e-03
-1.358171829222812842e-02
-3.486177042834363166e-02
-1.021353325527760425e-01
1.207749280449589742e-02
4.558074186083828361e-02
-3.416682525032140733e-02
9.594833863751307118e-03
-4.459180296409075844e-02
2.735676741859962083e-02
-4.485026343858988795e-02
-1.356069263569432276e-02
1.159466266520524456e-03
-9.908201127304125735e-03
-1.975173747742866789e-02
1.056415956774647141e-01
2.214685904912955944e-02
-1.555499781650782586e-02
-2.878273253033747023e-02
4.232957004295958420e-03
-6.968210622432885470e-02
-2.880799376902012238e-02
5.518560287341651993e-02
-2.481495286169047021e-02
-1.902923718179874712e-02
-1.274399945896116486e-02
4.982924202447844286e-02
-7.461279608486862114e-02
-4.667971880726257822e-02
-1.256688532773483635e-01
9.020439235550405457e-03
2.314563792848775906e-02
8.041287282062261829e-03
2.606062303068683653e-02
-2.892064942071588540e-02
-6.699474518137064905e-02
1.207792297469180084e-02
3.712181350486415399e-02
6.351232163717619728e-02
-6.163904392966502652e-03
-3.821408370912424135e-02
-4.512171924603979728e-02
-1.578669851781459160e-02
4.436944949071817274e-02
-1.195819517895085893e-02
1.941314485194913647e-02
3.187127225845528405e-02
8.654621182009752250e-03
-3.983258148612549981e-02
-9.235278970612015650e-03
3.261354347065432979e-02
8.201463466548517683e-03
-1.790060728235502718e-02
1.041864951695742683e-02
3.846403070617154807e-02
3.033109503879649269e-02
-7.530209674815810383e-02
-3.364815585570367362e-02
-1.498323680432534725e-03
-4.457634415663538907e-02
-1.549867448509849310e-02
-4.508590882302807717e-02
-1.439486701159661541e-01
9.146169346988415605e-02
-1.696045497900101201e-02
-2.862828666889409221e-02
9.407732371031450602e-02
8.485950134918393561e-02
-4.501113538940659103e-02
-2.661319326085256551e-02
-3.110697979147228343e-02
4.809370577956787601e-02
-1.630520348777441883e-02
9.325788168403181810e-02
-2.005613705863822441e-02
2.419002813462316215e-02
-8.349376317827876537e-02
1.768191703353420505e-02
3.787954739962442335e-02
3.983378053766805510e-02
5.468971526734120285e-03
-2.173553936235455078e-02
8.109677522564345820e-02
5.748680433314563853e-02
9.970782611812176524e-03
-1.524567319801929666e-02
-1.534725989331323266e-02
-7.835161423672669379e-02
-6.047592668790902071e-02
6.844723460431204054e-02
2.356515093085861240e-02
1.596151261743791738e-02
7.288709308058838321e-02
2.931142858967312678e-02
-2.055654384393618486e-02
3.315044952705333003e-02
-1.089265544756952697e-01
-7.065055237965328638e-02
-1.567731257921729099e-02
1.265471717588449556e-02
3.623243319619041947e-02
1.145793024199471231e-02
2.852101202120087709e-03
1.147123412519659713e-01
2.535036399304111537e-02
-1.647782336886183599e-02
-3.579948189338545000e-02
2.403369907582898757e-02
4.608988990238780531e-02
4.859955703887300360e-02
3.135928129145734711e-02
1.252767606307855818e-03
7.823022464975801574e-03
-5.543762938214381875e-02
2.227460591594482980e-02
-6.662357347380226669e-02
-3.666776780863978402e-02
5.251184238688724748e-02
-1.543623062616483049e-02
1.045604364664078079e-02
-1.340946328181003185e-02
-3.023813089453586400e-02
-2.724251847559408177e-02
-8.552518398024205881e-03
-1.849009707594551771e-02
-2.192466814705870681e-02
-2.960229995153224394e-02
5.743823346622244780e-02
2.867505367023548760e-02
3.733461867820089125e-02
-1.135242946508748484e-02
-3.251065097009702603e-05
-3.252871627802080695e-02
-3.482735182742110330e-02
-1.675937013775836634e-02
5.623046151173899387e-02
3.203161577063391025e-02
-6.550912185966404483e-03
-3.906289599228857795e-02
5.698662721897469925e-03
-3.949071551385878974e-03
-1.263793613253762216e-02
-1.237356034871592118e-02
-1.449965497242423212e-02
-1.513230308905274581e-02
-6.326092923112218436e-02
-2.587969645132220248e-02
-7.819241334225165985e-02
-3.992807321093624039e-03
1.135804782122878942e-02
-1.427000403756971750e-02
2.561567967388007905e-02
-2.282363030095232309e-02
-4.010935487017457807e-02
4.753865189225217440e-03
-9.173774543400759277e-03
1.396145465031881951e-02
2.703184888232891547e-02
4.818203431905874329e-02
1.171959301266279480e-02
3.321019030141894590e-02
1.522220043177444603e-03
5.192265775560073182e-02
-3.336402904969320432e-02
-3.562315101094055969e-02
3.117423698142800584e-02
1.029455155131676469e-04
-1.363185969031645642e-02
1.852411550559942763e-02
-1.306698597035382478e-02
4.503141526694430692e-03
-2.147018211891116302e-02
-3.353283152685798685e-02
-2.564035303882025718e-02
8.473086071669398700e-02
-1.201952275919181135e-02
2.780867179256022934e-02
-2.986513653890593076e-02
-4.428068615175766859e-02
-2.350497278054533221e-02
-6.468615092143557149e-03
-1.436003373357357983e-02
-9.862743537918059258e-03
-2.973454463383195731e-02
3.273448432023786520e-03
-1.616214648283734179e-02
4.210478998785073014e-03
1.130601379788847768e-02
2.769134893466423941e-02
-2.215985617869897437e-02
-3.648565096931887658e-02
-1.636644301348118974e-02
-9.939446533592398436e-02
-2.103761242677552185e-02
-2.028077786195251354e-03
1.561679721003699124e-02
6.708239605754665047e-02
1.649087082588542377e-02
1.917411962463675193e-02
-6.101572802019529333e-03
1.907354790287673404e-03
-1.078937391895696922e-02
-4.114683671961601868e-03
-8.432266271719474071e-02
1.002519665821548743e-02
3.486393622274534809e-02
-2.580819423330430254e-02
-1.195374892893893287e-03
-3.976748176567421883e-02
-4.766173172730581858e-03
-2.157535176492596588e-02
-1.092606787130346669e-03
-2.314890849039075594e-03
-7.058899394462436749e-02
3.290299398088675220e-02
-2.597323238267040812e-02
-4.438085696409101860e-02
3.509465595179992597e-02
-2.332667853216631448e-02
1.556703791551353362e-02
-5.165674604016369520e-02
-4.834711978962186185e-02
5.183507085317094927e-03
-3.511155193155710008e-02
-3.632231353203516089e-02
-1.527754590326969343e-02
5.013397340931487201e-03
3.199335372377356407e-02
-6.450043565871386997e-03
-2.482562109610107347e-04
-1.570008167709574173e-02
-4.001682987073551696e-03
-7.430480896523984982e-03
-1.464801883798478276e-02
-3.593965909717061757e-02
3.033927031010436037e-02
5.263572855019810204e-02
2.861848969018894375e-04
-1.849117269588856916e-02
1.864292786669933047e-02
-3.491122916365888701e-02
-4.435555558233780088e-02
5.213493860001702264e-03
8.482856337208008468e-03
-4.063113634567775551e-02
-7.189900344167680923e-02
-1.605898783018844950e-02
-7.218118374929215209e-02
9.999401567070062558e-03
-2.378299439669653847e-02
9.532140596024451726e-03
1.999904831652854487e-02
4.870505084680808172e-03
-8.172615028733256487e-03
-2.398490655654715586e-02
2.003454442648282263e-02
1.841481916311396919e-02
3.109889914155356677e-02
2.756715135166883102e-02
-4.165381871483141846e-03
3.733247691208689545e-02
-1.484233174909780836e-02
4.387050103731605227e-02
3.013167173150740549e-02
-3.477113443224819078e-02
1.280085266843711787e-02
1.726533719825080332e-02
-2.191116166220051162e-02
1.748252953362748824e-03
-2.725960902913488262e-02
9.404121946982313407e-03
-1.275092254849505280e-02
-8.027783905502122730e-02
1.048529614540227341e-02
1.068689515165501258e-01
1.789471437330789061e-02
-2.762114985176244639e-02
-1.898252711414906771e-02
5.853404010074970791e-03
-9.030524803417294341e-03
-4.485637494260805158e-02
6.866185800448259234e-03
1.301045258664443836e-02
-1.671830232017406173e-02
3.519976855261171093e-03
-6.001026242775620370e-03
1.308754802611756217e-02
-3.600907326161710553e-02
1.111449834495546567e-02
-6.437215051600131757e-03
-8.101874627264561701e-03
-1.569340353378098282e-02
-6.344764518332809966e-02
-2.129591312193445524e-02
-1.882430060653507431e-02
7.831765521326769508e-02
2.265123097731740632e-03
2.370626061874936755e-02
5.269473141455470466e-02
1.968907900410545031e-02
-2.913565598815460664e-03
-3.742673399604616591e-02
3.070234765920893186e-02
-3.750316654648890025e-02
1.822679155536249124e-02
-1.883763916648163381e-02
-1.898301351647239607e-02
-5.560971467230071096e-03
2.126324439117711212e-02
7.067167348005697243e-03
-7.076192229225500806e-03
2.211773790208689059e-03
-1.073706356285245890e-02
-3.788480216422855651e-02
2.565340297898795890e-02
-6.185191876057433841e-02
-3.330331734784175435e-02
4.518519039228545420e-02
-1.039918885171374268e-03
1.415749361385033010e-02
-3.909508604752081652e-03
-1.782085079206501693e-02
-3.237059435129145679e-02
1.674823407400826542e-04
-1.077696436742864479e-02
-1.969364460679143974e-02
-1.997642564850257013e-02
4.134580011962260548e-02
2.240948753494058018e-02
4.642225815181472842e-02
-1.720616321403882834e-02
9.081574235483677940e-03
-1.318950080981331173e-02
-1.719394424021915280e-02
-3.306768101123394588e-02
4.169055250711262151e-02
2.721217050643002025e-02
-2.540825266403825416e-02
-2.357268058244647857e-02
-1.127431713236881747e-04
6.074752128873651437e-03
-2.190051806593321798e-02
-1.281842968105643618e-02
-1.728673163982929334e-02
-9.421867205150027610e-03
-4.951814500427683535e-02
-1.574582111307496618e-02
-4.630585601772916476e-02
-3.401932197036724049e-03
-2.019133968391344323e-03
4.900560677460166076e-03
2.545701779329362022e-02
-3.629454450084500759e-03
-1.887776000206356497e-02
-9.974541161826951108e-03
-7.548732104741727282e-03
1.409121458027733087e-02
7.775334329765682707e-03
5.385641766953646464e-02
8.241009500913096253e-03
1.741489619409574210e-02
1.005480052424233793e-02
3.631461477895769202e-02
-6.409614926739860309e-03
-2.276723324167308563e-02
2.606092760233875982e-02
-2.087700440004548047e-02
-2.038158643104812789e-02
2.371556753336319726e-02
-3.433689095125893459e-02
3.718335808246095442e-02
-9.115408385704610802e-03
-3.869026082366525121e-02
-3.785563051028858345e-02
8.816039875556554162e-02
1.978157336660653701e-02
2.691417948930182810e-02
-3.785599859245585008e-02
-3.620841895901653895e-02
-1.933805764540779196e-02
-1.019144282712659486e-02
-4.353136056920365628e-03
-1.632605210150177635e-02
-2.430847923683896253e-02
-2.409876625596598862e-02
-2.758640114026953555e-02
1.409287285861461278e-02
3.891413902009476043e-03
2.238970341008827969e-02
-3.029527604923189232e-02
-3.206034109354267275e-02
-5.502994693369698230e-03
-8.385939769009848055e-02
-6.615144738868929467e-03
-5.852600288554217316e-03
1.831022248180455211e-02
4.187649149176848190e-02
2.934407876695424230e-02
1.883606000204586170e-02
-6.147993637104005871e-03
-3.260201655807503252e-03
-1.913064321214407934e-02
1.830932087720402168e-02
-7.542127682126502364e-02
-4.622591542386061958e-03
1.130712229110906542e-03
3.437368874039180115e-03
-7.420863128321011568e-03
-4.863821467367390738e-02
1.758220754203949736e-03
-1.689826790644153101e-02
-2.797385648533745606e-02
-2.594548736388666010e-02
-1.377397573918332230e-01
4.960130861133493774e-02
-1.650298122583805371e-01
-9.088687103112685906e-02
1.567886681240097668e-01
-1.319086963250782306e-02
2.308920068838938092e-02
-5.049848108370978000e-02
-5.711618419090224580e-02
-5.396853001763975144e-02
-1.393561732096275201e-02
-4.160963547969947357e-02
-1.995478047574459832e-02
-5.268173401982306076e-02
1.174972249498085347e-01
5.083172822225304893e-02
8.464742567554242592e-02
-7.301453782585254348e-02
4.082616189943816254e-02
-2.627776150839967323e-02
-6.861216933034340604e-02
-3.249766595804363944e-02
1.280411863911113668e-01
9.927814203512320967e-02
-3.140537641035782285e-02
-8.700391740528448659e-02
9.546476488085776577e-03
-3.741461419916395498e-02
-2.114682181022827651e-02
4.548877095156634957e-03
-5.658238301770846489e-03
-5.327633759082939929e-02
-1.302936573055229474e-01
-6.840927876966955423e-02
-1.351457786893953406e-01
2.618754077041230907e-02
3.245445409813816143e-03
-8.757400105107709248e-03
5.488638410192578365e-02
-4.793872502691335843e-03
-5.357014071676668987e-02
-2.176900875454954032e-02
1.498988174716526763e-03
6.745264568512771008e-02
4.625192232192532754e-02
1.262938844191945353e-01
1.247318650993292123e-03
6.192767508492837136e-02
1.332815080452373104e-02
1.221983444585434120e-01
-4.001885156459280418e-02
-7.086403590479987968e-02
6.971499274161011006e-02
-5.104266776056051724e-02
-8.168508901704628344e-02
6.931854198485454949e-03
-1.376068711802469133e-02
4.923212415420620547e-02
-6.336126826220524200e-02
-1.236450098971513673e-01
-6.897854331490446689e-02
2.454168979735344425e-01
-1.705051578432167231e-02
8.280779954946959620e-02
-7.140334823355817817e-02
-5.017959615512537080e-02
-3.989898489925675085e-02
-1.011045747422026873e-02
-4.217588937584223346e-03
-3.461107347028261755e-02
-8.714868608563365593e-02
3.585326979898681952e-03
-6.836594247190543039e-02
5.720305906741320057e-02
1.067568410338613077e-02
6.980385462125109075e-02
-7.414661403461973721e-02
-4.951112953259897281e-02
-5.239100765899375872e-02
-1.951022430587285306e-01
-5.877557381384614088e-02
-8.556556587057805030e-03
6.639228403248749466e-02
1.369413854526624064e-01
7.864875621314094956e-02
5.185346875122686522e-02
-9.177507439607700615e-03
-1.787690631020910637e-02
-5.943935219365838185e-02
4.978264115869966006e-02
-1.865086776333122476e-01
1.497952826355632150e-02
3.420944936998256830e-02
-3.327532682976306472e-02
-7.413453328301367398e-03
-8.782438478964602058e-02
-1.423370864848255007e-02
-3.491412846405530374e-02
-2.481155235477900539e-02
-1.128636458052445501e-02
-3.390402225598723035e-02
9.492986007388307113e-03
-8.574345137250213855e-02
-2.468689392911974090e-02
5.360407630451892447e-02
3.852127204766132330e-03
3.478176089704085663e-03
-2.303823311728321523e-03
-1.829915098875956048e-02
-3.018289182134951953e-02
1.263719422354775022e-03
-1.247739669240687313e-02
