2.061270074477588102e-02
1.126041214396958194e-02
5.232202864571750683e-02
2.566925625104543585e-01
7.767696340886870096e-03
-1.085927860669096828e-02
-2.592123890752982829e-02
2.345460180191952793e-01
1.858817750620972431e-02
1.743969957515608404e-01
-7.925731710010146258e-03
-4.316674431737680395e-01
9.721154629158944641e-03
3.632797413975155654e-02
1.542642447474289061e-04
-1.453578665255991645e-03
-8.461673203976531263e-03
-2.454579341321767583e-01
6.950227990267681885e-03
-2.864253435791208613e-01
-1.014828901415686796e-02
1.844474812200709579e-02
5.707970585847353673e-02
-5.771928628908627387e-03
-7.330360234976328500e-03
1.639057975381877884e-03
1.549484750242397513e-01
-2.405679451854964290e-01
-1.409383649273295361e-02
-6.858202988246505337e-03
-3.096116052419401465e-01
-1.312937567293841722e-02
2.282660705499488796e-01
-8.863090946124498742e-03
-7.938001786001800189e-03
-8.670009744125038720e-02
4.523439576264644962e-02
-3.528480706609352646e-01
2.479708803130973582e-01
-3.612127785238036619e-03
-6.937993825876431417e-03
1.636395377270011553e-01
1.176210498495610240e-01
-2.551222125277375352e-01
8.844217106906678005e-02
-7.704422195388627159e-02
-8.804970023067015816e-02
-4.270002776496793252e-03
3.102546737467532512e-01
-1.480272818301505214e-02
-2.303376946696673311e-01
-2.110438728190865143e-02
3.086377278079304176e-01
-9.254129081967495118e-02
-3.035231436601550439e-02
-8.552704652250867415e-03
-1.483747613287834770e-02
-6.086623386531578306e-02
9.477073656803305934e-02
2.933267649152379031e-01
-1.268776983889595422e-01
-6.025204135531603972e-02
1.114794845709540794e-02
3.797436372614028670e-04
-1.271934938379101487e-01
-1.975431836993671569e-03
-2.568385050392122393e-01
-2.034705856337793578e-02
-7.437796812475931142e-03
-5.535665369457699880e-02
-7.268926624762835423e-03
-1.494385719483008468e-01
-7.875295164698911665e-02
-6.002752449799705209e-02
6.162635408672162808e-04
-1.911861514971859369e-02
-2.277516491085684533e-02
-4.256678576608420583e-02
-2.774326145261351694e-03
-1.060512437127609023e-02
-7.484040819385471763e-03
1.744964146365363122e-02
-5.608821983096091285e-02
-1.289039674616338470e-02
-1.981691068725109639e-02
4.811238852923502285e-02
3.193128001362393054e-01
-3.027912815670499511e-02
1.000694467079071975e-01
-5.895002941382018226e-04
-2.786646916862823287e-01
4.390999205307618593e-03
-8.797661728024912253e-02
1.836796547044076411e-01
-7.216973996007515491e-02
-2.885115738898306418e-03
-1.229386490329335488e-02
-1.076380230364623186e-01
1.510075252731997442e-01
5.855811816978722523e-02
2.514906251142532551e-02
9.110633562118211279e-03
1.692764343714981204e-02
8.743954491256425432e-02
-5.395511537263993247e-03
1.864790088158668063e-02
2.783894944800954091e-02
3.190404978584773094e-02
-1.456915848611539492e-02
5.118217997447311457e-02
-2.507872206512054059e-04
1.649046731665983548e-02
2.960467903406386204e-03
8.088038650488627024e-02
-5.582515802834357721e-03
5.621019662363222098e-03
-1.120537124729032580e-02
2.075372614242215058e-02
-4.442695891529611397e-03
-9.891048130066298905e-02
-2.291495093286334550e-03
-1.455291112955362474e-02
-6.049274706004772323e-03
-4.647130557955091168e-03
-1.803366831791937018e-03
2.832592384518271833e-02
-1.191836366107610311e-02
2.543477659964382340e-02
1.694873021001396668e-02
1.369586842908387253e-02
1.032011027930970215e-01
9.472916478031443918e-03
2.048802655243580489e-02
-8.856595837404522553e-03
6.440204123855064813e-03
-7.000045673721035089e-02
8.421646214594812052e-03
-5.730070088785112203e-02
4.477175756864117118e-02
6.187581916623028505e-04
-1.544419310730882106e-04
-1.743800421094661088e-02
4.061685358751079833e-02
-1.771300659530560817e-01
2.737379918250718025e-02
-5.953836405933742026e-02
5.915446993056508451e-02
-1.328522405675589425e-03
8.652469519445160628e-02
-1.349436986454121594e-03
1.004233864761178152e-01
4.788371280095681491e-03
1.413824470509660314e-01
-6.095143140476348004e-02
-2.170958463616210615e-02
-7.324964704082249749e-03
-1.534058587493193453e-02
1.681830693346984262e-01
-4.583486727039316234e-03
1.074816689694424732e-01
-6.598488197280724665e-02
7.286584139808884031e-02
6.057178664327297034e-03
-2.489786968085317895e-02
-1.000225050291175949e-01
-1.161018444525388667e-02
-1.521299299742925049e-01
2.586338811662895949e-04
-2.109806809357262294e-03
1.445630399100348573e-01
5.527861266178774567e-03
1.552200847773632097e-01
1.291264208546757941e-01
1.615216650487205086e-01
1.941106313292088837e-03
7.027884248411254975e-02
5.476351076182277983e-02
3.768363561333417516e-02
1.290237333988395255e-02
2.624649959757986793e-03
6.880348846720711446e-03
-2.659355619214525887e-02
1.472149521559258101e-01
1.097486354024501849e-02
4.553737451000890689e-03
6.625008252316478413e-03
7.127924554425880965e-02
2.342138490714448448e-02
-6.503893333545761497e-03
5.820889110681174393e-03
3.730663083446144473e-02
-8.463117905102089666e-03
-6.456305617203952907e-02
6.263895963555539403e-02
4.643819801947650372e-02
1.602775302563936438e-02
-6.058659838808722227e-03
4.739766452137612364e-03
3.647194931931469625e-02
1.021076534309627165e-01
-5.801865164826000738e-03
-2.155817646508588828e-03
-7.800716126106137759e-03
8.223659467281058122e-02
8.465415903432789088e-03
-4.932110767807127739e-03
1.810945678348305221e-02
-6.937154557132743649e-03
-1.382581095294982756e-02
5.693181066627518716e-02
2.114830776318554848e-03
-1.340033367140021012e-02
9.946502775373908603e-03
-1.367044816618038540e-02
3.919956699008430613e-03
6.386484271636958150e-03
-1.383281892072964897e-02
-2.314341864215969935e-02
6.312653406585207010e-04
-5.346101812777275669e-02
2.265492645105276516e-03
-4.920716102055600408e-03
-1.734154908060267855e-02
2.559401668471816740e-03
1.332721736897651225e-03
2.175408050664369777e-02
-1.969919014726616638e-02
2.270582870466419240e-02
-1.344747508616515874e-02
6.522438303117913776e-03
3.578269135722098732e-02
8.457667706047547126e-03
-2.070885580834902137e-02
-1.810751360486593034e-02
-4.613224749062900219e-03
-3.088278407678426637e-02
-7.206047710899122702e-03
-6.263232380641928221e-02
-1.976135200539810843e-02
1.886368597836701050e-02
-2.692330644904236941e-03
-1.948040147798124622e-02
4.197779694418567187e-02
-1.096827912174081349e-01
2.450101940969773989e-02
-4.864620230497448267e-02
2.273462555101001675e-02
-6.152675357835227406e-03
6.499824365417182503e-02
1.549391755411744448e-03
3.631971699432529760e-02
1.818191302105739765e-03
6.258326784898592121e-02
8.362680464135475219e-04
-1.782485421202977677e-02
5.500468260537313839e-04
7.946561765903123464e-03
6.274131047084491319e-02
-2.633048403639135990e-02
-5.618951567072395618e-03
-2.117209474796189275e-02
3.430395241430887754e-02
1.511468225630216433e-02
-8.261834910729523931e-03
-6.188802967401522970e-02
2.200137778228936167e-03
-6.371493608002262721e-02
-1.669117062245543265e-02
1.113652140607335368e-02
5.032041785310001347e-02
-5.511523246489967703e-04
4.411337046671626877e-02
3.675701104091617238e-02
4.377115474591104782e-02
-9.003339043148426632e-03
3.807390878777021110e-03
5.357188524875080606e-03
1.876950421657871959e-02
1.673458168915886030e-02
1.463128431262322249e-03
-8.744828652718115297e-03
-1.791314772057730695e-02
4.943800837365638912e-02
-8.637769099944127629e-03
-7.092769061684598038e-03
-3.950229463165253092e-03
4.225751678373872167e-02
2.176928678885179259e-03
7.279618993135288270e-03
4.968341571245663002e-03
1.127325628731572389e-02
-1.056852199845531581e-02
-2.636498324455887471e-02
4.173700388642784948e-02
4.459229504195529742e-02
1.104819669039876391e-02
-1.363180244046881609e-02
-2.745520521333108879e-02
9.563877193253180961e-03
6.207083406375812212e-02
-1.723939596783908602e-03
-1.956960602658722615e-03
4.858279381169523965e-03
-1.767938577878334222e-02
-7.434401944286401880e-03
3.821541039997743746e-03
-1.535165307399091045e-02
1.721704670500043277e-02
1.223885179948054364e-03
9.668016016050180045e-03
-1.668126933682006346e-02
-2.513308268354642883e-03
1.128561548354412025e-02
1.322757115046834485e-02
5.063229506556390404e-03
-1.078169369076901335e-02
-1.297213572021367091e-02
2.061709801879996889e-02
-1.524098644796096844e-02
-1.246428584207293078e-02
-6.046344961620007084e-03
-1.400935630874796181e-02
1.560983556592861025e-02
-5.850902402902265209e-03
1.180156642162135186e-02
-4.058366500791015311e-03
-1.684380307770644986e-02
3.413408145666238774e-03
-8.689172048370927270e-03
6.202323633699345857e-05
-6.119879004514929173e-03
1.584495140073227107e-03
2.213678142330905915e-03
1.929206881002318991e-03
2.775194712760514597e-03
-3.892256370140061584e-03
-1.447201517539741487e-02
1.456626233770249960e-02
2.446295003364215570e-02
9.914239737885001402e-03
3.226542631105273613e-04
1.797009513601970435e-02
-3.233448223226446754e-03
-3.669695731924113927e-03
9.851351329383950181e-03
-4.031980104734131203e-03
-4.780894956156268687e-03
1.942726536043885366e-03
-2.562464632238313760e-03
-1.419297362325790297e-02
1.058908540201700631e-02
-4.225577844621828533e-03
1.446757996741896042e-02
-1.071093194868168522e-02
8.678076562529777813e-03
1.976118494575822976e-02
7.030724165733155846e-03
8.468767972480382988e-03
1.622976733769424928e-03
7.710658656716494995e-03
-8.119394750987782641e-03
1.173101687704192382e-02
9.478699229897379064e-03
-1.179621549346825679e-03
1.037677235276156240e-02
-1.764986554450842082e-03
6.513096097221037113e-03
1.038110719247149587e-02
9.365077246894747132e-03
-1.167315792391246387e-02
1.268846675704773941e-02
2.707233099765270993e-03
-1.209526738367837709e-02
-1.827035436743596267e-02
-6.128709801580410534e-04
-1.282129316978803703e-02
-1.449389139608600607e-02
-7.988399538491319438e-03
-1.915977975244903542e-02
-4.037363150939253693e-03
-4.391929608633842255e-03
1.125344772170173806e-02
2.090868933025005847e-03
-7.807522991193842181e-03
-1.462430994527415522e-03
6.527861981620948842e-03
3.868083410056968115e-04
-1.456533998325757655e-03
-7.556211100687809830e-03
4.586804287746180063e-03
-4.345692496945077060e-03
1.410771348856857147e-04
7.316973839239661326e-03
-1.298874492709243753e-02
5.210881796977463731e-03
-1.652236847501205568e-03
2.060484595488408163e-02
-7.823734491437209226e-03
-4.443033324301937613e-03
1.590588019900846146e-03
-6.211744367476287193e-03
4.095511631746190546e-03
-1.605265118882062345e-02
-7.487730204998820083e-02
1.155199836035874410e-03
1.545032312121866896e-02
4.140883221745254687e-03
2.198065988507403104e-02
-1.398174509451434455e-03
-4.022342035227995105e-02
5.311496302117414171e-03
2.764315742399492751e-02
1.509639858895110535e-02
1.188932839506198907e-01
1.064568264452455011e-02
-1.328372718587175413e-02
1.323337211705071827e-02
3.012423669756980268e-02
7.227309958843783355e-03
7.380715185888762908e-02
-5.630680952213608197e-03
-4.144202506417895941e-03
6.579017812337725757e-02
-5.860556113766578028e-03
-8.428684820616203985e-03
9.356176148004154841e-03
4.528004024276367778e-02
-1.327822567756174743e-03
1.502680322621000909e-02
1.290157638421998189e-02
-1.669937526203128103e-02
-3.794983791370774504e-03
4.372652233402293115e-02
1.249719514470173584e-02
2.815693783588612913e-04
2.466292932224038031e-02
-1.601212756625786798e-02
5.362071519438022654e-02
1.157537670429805016e-01
-1.510093422817391888e-02
2.991843187059675148e-03
2.530547983504550721e-02
-5.039198330967683409e-02
9.234441138714558073e-02
-9.725588246315345145e-03
8.293469768349071014e-02
-9.794986374520128769e-03
2.784975342419817625e-03
-3.645097553029998799e-02
1.218127291058082595e-02
-3.937213955997882070e-02
2.386059930154378270e-02
-1.291932819387425248e-02
2.636638130490167806e-02
-9.063823068857215434e-04
-2.779197002323850491e-03
8.131174704673144182e-03
3.739585190490359728e-02
1.455996010895882833e-02
1.275764636978672373e-01
8.314608239408943433e-03
-1.114004712050162618e-02
-3.024233746489436107e-03
-1.497256922299972787e-02
3.145503315036909942e-02
-1.579345872322254415e-02
2.809342148029499164e-02
5.163345412652330666e-04
1.431340940484264988e-02
2.136206461319214642e-02
5.056393176601090694e-03
6.306829688651012511e-02
1.941015798051239777e-02
9.005253813512054117e-03
-5.853363874553925254e-03
1.065958346390430238e-02
9.649858995086411581e-03
-2.429429157677470003e-02
-4.548873438422473825e-02
5.632375744344098739e-03
-1.289082237113951292e-02
-9.424469828620427037e-03
1.412514754648553326e-02
1.208702229353826769e-02
6.403835193535961645e-04
3.545351000842328782e-03
-1.999078536248946603e-02
1.925452881743175762e-02
-1.762313932055549828e-02
-1.715077214728052621e-02
3.115781410171141602e-02
-7.262118973019529231e-03
6.428138756881009164e-03
-3.594929868976644294e-02
-3.583643714280915910e-02
1.641236494912714367e-02
6.414618147266839751e-03
1.918111492094922224e-02
-2.146627291963931414e-02
-3.890881809120028123e-02
-4.525677638867918288e-03
1.667071499322650766e-02
2.129989761586188399e-02
-1.376910930239122997e-02
6.973073203981448691e-03
1.923496798955888487e-02
-1.496969055201444665e-03
7.045887269871678633e-03
-1.776782632633758935e-03
3.715551016701062938e-03
-9.767865669377734372e-03
-1.432688170969739078e-02
8.316547937980523636e-03
1.053660389329244508e-03
-2.262584260213977572e-02
-1.305773424074137268e-02
3.275415745369097877e-03
-2.342721218195876597e-03
1.339891254508414516e-02
-7.371204052917046737e-04
9.055094185595052858e-03
1.499560543860249846e-02
1.842858212668446738e-02
-3.001205449220495283e-03
9.520093839806833755e-03
7.736161730044453788e-03
5.030550083038611529e-03
-6.630090002626390366e-03
-5.842888744656745195e-03
1.002487027405111336e-02
3.529623833738710845e-03
-1.318635458327996335e-02
8.724295924848673306e-03
6.757250219225223497e-04
-1.399640920657932615e-02
-5.189148961786391179e-03
7.689083506485029466e-03
4.287080239529844281e-03
-5.353520379196535783e-03
-1.572078839085476812e-02
5.046929173985233684e-03
-4.848602545461813337e-03
-1.956021858588315177e-02
5.589571593922211534e-03
4.948215020559499147e-03
2.535931304691713128e-02
-1.633819554246464939e-02
-5.777920248084621830e-04
7.708306077724635594e-03
6.576977342071891122e-03
3.172344348210037312e-03
1.191131677852087269e-02
1.274886209442716890e-02
-7.893622746727873424e-03
-8.272702587218183634e-03
-9.706889599839469557e-03
-1.168000952773385649e-02
1.993661298219832206e-02
8.974169223982673277e-03
1.253165840988868483e-03
-2.790932752459423204e-03
1.332570745913472590e-02
7.975570114111355316e-03
-1.812879700654592221e-04
6.009728990169362073e-03
1.086320844180584805e-02
7.289478404043020672e-03
4.381630726085562408e-03
3.680112330783655815e-03
3.367605287611267779e-03
-3.371267877736464514e-03
2.423434192359770825e-02
2.801374739768337438e-03
1.112067227340922046e-02
-5.079966998145100422e-03
9.352622550130361076e-03
-1.063036013220279054e-02
-8.384094907727252660e-03
-6.556250771112003689e-03
1.089542304135426680e-02
-7.119868046816780170e-03
3.947405523751287316e-03
8.423267014406283365e-03
1.441352194931740278e-02
8.174427766151359104e-03
5.279196800436653479e-03
-8.721286028331743170e-03
3.671543138187285168e-03
-5.374246607660801943e-03
-4.344958705031667923e-03
-2.394349425842232180e-03
1.222895225503026553e-02
-8.603382138332581197e-03
1.098235949023339784e-02
-5.744181755081225957e-03
1.239715829659250070e-02
1.349800988744306353e-02
1.011746644023150954e-02
-2.179495003171136574e-03
-1.008201882099544902e-03
4.908930118614015679e-04
-2.916368880375112566e-03
1.278470452536737204e-02
3.841511945383953297e-02
-5.603875940292418929e-03
-5.378230964450005439e-03
3.233755448564198248e-02
-1.523041337873829761e-02
-9.373377416440660179e-03
3.577824306833466556e-02
-9.638566057293710895e-04
2.084215458994244027e-02
-1.796798460812715735e-03
5.259522026243789589e-02
-8.042273127375163325e-03
-1.074860345007520694e-02
-6.567778068889851099e-03
4.304706368038382913e-02
-1.320507148700103724e-03
-1.788699512740916236e-02
-1.469584243148960509e-03
1.383731706527423395e-03
-1.644777624468916899e-02
-2.333054024608444826e-03
-1.042672226293812161e-03
1.514152751036010151e-02
-1.086425387191133907e-02
4.009336295756574936e-02
1.578952454657362239e-02
-6.530219613063273408e-04
7.466407357046070392e-02
6.175940391370444288e-03
-1.114428206706659895e-02
-1.218052697582915588e-02
8.484727038458740600e-03
-2.334087910315218312e-02
1.050699052918821312e-02
-2.020378192229515396e-02
1.066955786864469229e-02
1.907499562777894772e-02
1.147869687809563097e-02
-4.335812078521668333e-02
1.311138765664715544e-02
-5.256135546326230062e-02
1.501358475407689637e-02
-4.471011429962366834e-02
4.780364016081527917e-02
3.274905953387155944e-03
4.254372445757528126e-02
-3.918447246245450170e-04
8.351371690081772770e-02
1.825369102028174401e-02
5.187359245719174589e-02
-3.263464273601166671e-02
-4.283083596808378787e-03
3.141384680504307088e-03
1.156160679021058998e-02
1.020318514087104333e-01
-4.047304595462860276e-03
4.128004753170943369e-02
-5.707368608749802076e-04
-6.406928438388630187e-03
-1.263608095844250510e-02
-6.451013453704732004e-03
-4.301523155578248353e-02
1.113353945338779044e-02
-7.447416517851555839e-02
-6.696042338705841075e-04
-1.527125092830994638e-02
9.376945099314429322e-02
-4.800877304375588371e-03
6.838307626808939887e-02
5.634317154735769134e-02
6.548320530023622743e-02
-2.912195567575247453e-03
4.868059492568507785e-02
3.179464451610372611e-02
1.915085084732561643e-03
3.209340064561203801e-03
-8.868499810372961617e-03
1.373376241308429946e-02
-2.823900368344734249e-02
1.160303835020176505e-01
1.429538404582360311e-02
2.703866402851677880e-03
-2.356015199483461366e-03
1.790558663941195158e-02
5.153003948844877419e-03
3.239701190994007714e-03
2.308880351049985916e-02
4.069682689484270532e-02
8.132283147925318395e-03
-4.039377161233122238e-02
3.808081230921370186e-02
2.805631139091096377e-02
4.211023843649012131e-03
-3.806375484661960167e-03
1.570426206733429794e-02
1.534084834464379508e-02
6.999260578940147415e-02
-3.479473965901010938e-03
-2.256656732692647466e-02
-1.870364129841786335e-02
1.448771596202241179e-04
5.855471303810338111e-03
-6.138555757410146287e-03
1.568093797984264608e-03
-2.128267200741349851e-03
7.649943280366342316e-03
-7.022176020468028947e-03
8.218455240914468440e-03
-1.115403002539590467e-02
4.508398390494932663e-03
8.060505536391949014e-03
5.881326442251227915e-03
-3.968274110091661415e-03
-3.149834860176128470e-03
-1.363236334455191281e-02
1.330357663857139640e-02
-1.964229378846622538e-03
7.254170166613485918e-03
6.146871477806003896e-03
-4.120124434358873704e-03
-1.996674156914243683e-03
3.376762014505742693e-03
-1.700603505034044933e-03
-5.214161285984555624e-03
1.074908285508170344e-02
3.674510722695793589e-03
-7.124603954760961450e-04
1.145109476548220907e-02
-7.082408657401978447e-03
2.886997957720830572e-04
1.416772890413877002e-02
1.300404793033939962e-03
8.016301327717094763e-03
-7.118252243233697983e-04
7.406891643521667026e-03
1.653435605775321546e-02
-4.599196564978149174e-03
4.932600080732295507e-03
-7.439357902162655085e-04
5.357968877769035687e-03
-9.814295537643073081e-03
6.430813376986664609e-03
-1.363009496849185154e-02
-5.226861124446037857e-03
1.156412224694421641e-02
-1.316613469256362919e-02
-4.020153938359202241e-03
8.473922346215325557e-03
-1.703996083668240374e-02
-5.151679627617947350e-03
3.181926630257669256e-03
-7.664250950767647827e-03
-5.069050590361300936e-03
9.560766187499658217e-03
1.573705274892610653e-02
2.095162605706423625e-02
1.054721450324778986e-02
-1.791374327096916267e-03
-3.777067804252670375e-03
5.174512941940067647e-03
7.424870646385704591e-03
-9.796341058825677045e-03
1.828785460857234105e-02
-9.927374344221097033e-03
7.726665709068324204e-04
1.773278477444116888e-02
-6.112572501522988214e-03
-3.282348359746143935e-03
3.892387722918127461e-03
7.090303338194370785e-04
5.649749045978047675e-03
-2.628772362841539159e-02
-1.495822569845462651e-03
5.097304757064979701e-04
-1.247122015916965303e-02
-5.860598171940460850e-03
1.526402628267522869e-02
-2.799645392330341303e-03
2.489320752273459832e-03
7.152317875856157615e-03
-1.251962927804670458e-02
-4.356100762909567020e-03
9.307643053093490534e-03
-6.385834859239063535e-03
-2.494570509434469643e-03
6.758257669164137449e-03
3.700325337339000886e-03
6.751286525963014901e-03
-3.519185827500156700e-03
4.755417926348566278e-04
-1.241128040209981808e-03
-7.684735414701378969e-03
1.268149493867462563e-02
-4.005681688547053226e-03
-1.064216427691930603e-02
1.412646449091796083e-02
1.297143304007344726e-02
1.250423908702951283e-04
8.787117311584463630e-03
5.317761368583927978e-03
-2.371850744199167568e-03
-5.127790757901247963e-03
-2.069675713877110190e-03
-6.672644256744092277e-03
3.034181321731661482e-02
-1.937944783731139486e-02
1.666694085741896904e-03
-4.455355508346244692e-03
-2.562292632310143176e-02
8.379030881896133362e-03
9.306131384362281711e-02
4.579550076023508609e-03
1.620603882052232964e-02
-5.663880611581111751e-03
-1.897027821510143333e-02
1.459020331707507057e-02
-3.626097469708252502e-02
1.218775621754474361e-02
-9.503707583299677783e-03
6.381583532646489809e-02
3.151070961241709233e-03
-1.211497821395689754e-02
1.601853866849876906e-03
5.613498496214039402e-02
1.684162411750369267e-04
1.070311660870325310e-02
1.662568508981160072e-03
-2.410565178509227729e-03
6.179581539547693812e-03
3.509635272063508366e-02
4.194800302747644059e-03
-8.439804234531883900e-03
-2.522588308424928219e-02
1.313254670699508936e-02
-4.605067638222849757e-02
8.567641734948980292e-02
1.108870740234620469e-02
-1.490175740960705993e-02
2.258783134102432949e-02
1.467712822936090636e-02
-5.042583513298978803e-02
4.771691944399555213e-02
1.891098065833725361e-02
-5.068664814759773173e-03
1.301224511948260998e-02
5.929121322812523631e-02
1.219574754889551221e-02
-1.834879793205717799e-02
2.141360157275032372e-02
6.562201533974755530e-02
-2.131161613000345789e-02
-8.455949666950469609e-03
-1.241775837834105780e-03
-1.091325825087491493e-02
7.858826610865303486e-02
2.798479854318341661e-02
1.330782369208943772e-01
-2.617513197589655533e-02
-1.005623483465109894e-02
-1.257263528269718551e-03
1.612744667787731692e-02
-1.357691185955214701e-02
1.186226792618340700e-02
-4.127045296095931820e-02
-2.943997667732072172e-03
-5.386882965423287276e-03
6.420316671796236219e-02
3.957188704224716240e-03
6.664158809814062223e-02
5.912808612951091919e-02
5.695927307804671963e-02
-7.891586830535457162e-03
2.633514523380377920e-02
1.288091218182811810e-02
2.182562510385924887e-02
-1.750245566176279743e-02
1.560648731202430835e-03
-2.083748249232109627e-03
-2.208325793063519588e-02
7.444290489151142443e-02
-9.046132694339625207e-04
-1.957915695378656395e-02
1.413509617885534003e-02
4.739715906965628889e-02
3.686873775663190595e-04
1.378634288989471135e-03
-7.035460503256097710e-03
5.108628009706996966e-03
-1.628320296519925742e-02
-2.462778501529167344e-02
2.765064809176152189e-02
-2.645280349570428013e-02
-3.561144943470552146e-03
7.010055671884120668e-03
1.672893952277686863e-02
2.681653196276784917e-02
1.286395223172662021e-02
-5.768433980316087749e-03
-3.548384731679435702e-03
-3.958803202834325179e-03
-2.333037758198718351e-02
1.439643504251410071e-02
-1.746169270179438390e-02
9.589892632113817704e-04
9.368316897296396703e-03
-1.958470895326256886e-02
7.422786773957281738e-03
-6.633926859740972917e-03
-5.165528151552007882e-03
-5.983377149014731770e-03
4.747031917982236096e-04
5.914233625475290128e-03
-1.629101791666370249e-03
6.351200217767713138e-03
1.262899554465596666e-02
-1.160433344204907409e-02
-1.485769764599618840e-02
8.915460861852958843e-03
2.760559894574450644e-03
1.596140025033407654e-03
-1.249934657381886020e-02
-1.293498163614568985e-02
-4.915041237581377516e-03
2.414187498782796940e-02
-8.498258533594607589e-03
1.088530425921014830e-02
-5.006597407580640246e-04
-1.287718802254833594e-02
6.079986358480799630e-03
1.904309094613442638e-02
1.208843087151173327e-02
-4.895620949431337202e-03
6.084848019666624572e-03
7.384217390450520217e-03
-7.901781990197344341e-03
8.067421238002248085e-03
6.744433205208543065e-03
6.709765960214631895e-04
-1.869704403861217499e-03
-4.211484793532103456e-03
-7.036975324733966280e-03
-5.211001346009914992e-03
-2.257221178016747751e-02
-3.506489526631316900e-03
3.966590885982744508e-03
6.623553382726249687e-04
1.999771731362709817e-02
8.529513511227996420e-03
1.832015998801416259e-02
1.193241483865568019e-02
-8.874839216319718033e-03
-6.483820495489309036e-04
-5.356032262383011305e-03
3.202614101782982111e-03
-1.414270234616927906e-02
1.461110972986451838e-02
8.484111951335976051e-03
5.143659578698977922e-04
1.204897990018703388e-02
-6.618525306262197996e-03
4.913117601691480325e-03
9.288801226176030337e-03
-4.700302451990435483e-03
-2.654987564533190739e-03
7.779955295984978896e-05
3.591124427034219409e-03
8.273879691661443006e-03
-7.593303140421177322e-03
-4.107084772198987474e-03
6.003178341611651800e-03
4.862158922442941580e-03
-1.033959851293980020e-02
9.123599468913152696e-03
5.690470999506188308e-03
-1.931100716636938858e-02
1.146291126534779506e-02
1.156832340616178924e-03
-7.396852007189498764e-03
1.306421690455123255e-02
8.627217301369569449e-03
9.310871158016964175e-03
-1.812304128263518208e-02
-3.680410825484729028e-03
2.231149076851453306e-02
-3.132628111667233334e-03
1.923024145813283584e-02
1.401346323792050999e-02
1.835792662909455780e-02
-6.759550520822867059e-03
-5.338439564576804956e-03
-2.518896538896134817e-03
-7.900078760287907549e-04
-5.383236390735958573e-04
-2.790001445476932105e-03
-1.002616741261645392e-02
1.057836574073122218e-02
1.593577601699627463e-02
-1.368442053749786488e-02
-1.063294994892858419e-02
9.259188723770462193e-04
-1.714133964330219126e-02
2.975160827213386245e-04
1.284070749410815308e-03
9.708014274269467433e-03
-1.502012820034415684e-02
1.173707229169658906e-03
-6.327251903426034385e-03
-1.601954240478311794e-03
2.980577665312472008e-02
5.625234518915955134e-03
6.120385071652242881e-02
-8.672819953108864416e-03
6.807289320672735983e-03
-1.823234170579210445e-02
2.038975611237004316e-03
-6.026097320247124182e-03
2.986000195467316751e-02
-1.533146660133883482e-02
-3.561918505221188525e-03
3.273598520843207238e-02
-2.988502184367334419e-03
4.856832607537569027e-03
-5.227589969412823820e-03
1.779583949436326640e-02
2.062927166293014071e-03
-8.432281669471474589e-03
9.246504745976840203e-03
1.136978264642670051e-02
-4.405513453579705703e-03
1.516568641657386335e-02
-4.432754266502263521e-03
6.880301880029577981e-03
-2.985092378273154507e-03
-1.622322448739150699e-02
2.255334374263689642e-02
5.289913156952391615e-02
-2.429051238888711370e-02
-1.686043278549218677e-02
-1.263289779785816379e-02
-2.100579402516686289e-02
4.357258967974435987e-02
6.832877563060395405e-03
1.860825416777752220e-02
4.863380139049540592e-03
-1.073539627031168918e-02
-1.443400845072472481e-02
5.435047104743549913e-03
-8.296897249436895744e-03
-2.096678919487329415e-03
4.457058653712725298e-03
-7.306185183843258088e-03
-1.393501921016992605e-03
-8.312545237144738919e-03
1.411571113471721435e-02
2.902544757989004853e-02
3.493144913312574008e-04
6.572311268297678644e-02
4.799205003214922216e-03
1.242770378982140794e-02
-8.694542089770145726e-03
6.991455634897490203e-03
-5.388740797181446225e-03
-1.121163872376091828e-03
-1.694788101591674506e-02
1.055863546806330537e-02
-4.210180695474749837e-03
3.090976260472023257e-02
1.262013532826741086e-02
4.303864751721186988e-02
-2.214289692214818379e-03
1.336195574533689638e-02
1.221363117033171658e-02
1.738933573863904545e-03
-3.359355624056409480e-03
-1.001932376574373547e-03
-4.923588459221678489e-03
4.095136953963996428e-03
1.239340923516576596e-03
1.430804856381605317e-02
3.469157942743854306e-02
7.165922322280401068e-03
4.547634989277928724e-03
-1.089121292677834238e-02
5.097173916513947182e-03
2.225453620427082432e-02
-2.451433702659384060e-03
5.383699135346391683e-03
1.829927418849802701e-02
5.601149953759444397e-03
1.194744566169879694e-04
-2.637992218942045511e-02
-9.467476530602980667e-03
3.839518678026951088e-03
-1.686111473376446018e-03
2.438251592627459913e-02
-8.248174125878457441e-03
-2.045942221689417070e-02
-1.468725286895374883e-02
4.221309958693883306e-03
5.982500234868262830e-03
-3.025499734485720404e-02
-1.379534561207462068e-02
-1.099573459357298076e-02
9.254670041583619791e-03
9.449596846900779751e-03
-2.551164867393964156e-02
-2.334646969347182327e-02
-8.924909244777847264e-03
2.358692442659879318e-02
5.018578471805049124e-03
2.562647176462998916e-02
2.604064773656778083e-03
-2.332108807974293211e-03
2.040160745634027328e-02
1.687732897868123721e-02
-1.669226797915865975e-03
1.386109917273742331e-02
-3.644358948732503902e-03
-1.289679990392954452e-02
5.592993689974333840e-03
-4.547532083149338940e-03
4.670131578986570602e-03
-1.747852685362700706e-02
-8.186617914318901172e-04
1.265176441776444047e-02
6.653732587855571388e-03
-1.041742484727650742e-02
2.208986498199718221e-02
-2.826121566270904314e-03
4.626450557312448628e-03
1.615900542850513431e-03
-7.673989215414978374e-03
-8.629747116604889051e-03
2.031247556376066226e-03
3.142216626785523416e-03
5.106096195234087476e-02
1.346902377299847783e-02
1.791635241509291834e-02
-2.588016969290840921e-02
9.499683169158888371e-03
7.780610793334343835e-03
2.999751732512042929e-03
5.114109857740075510e-03
1.233042408339515145e-02
1.935585371997519330e-02
2.364045516891216409e-03
1.788464556575853140e-02
3.206214137466368349e-03
-1.131431675967719402e-02
7.839336182662874977e-03
-5.752408647647831719e-03
-4.672278636095909647e-03
4.429851546361256425e-04
3.256443479032615257e-04
4.176573219621630001e-02
4.228932189121391641e-03
2.492872989476844353e-02
2.875337721332892407e-02
1.178571851056836942e-02
1.488934983876767952e-03
-2.218510339143403565e-02
-7.544817590516780977e-03
-2.228049376536756290e-02
-7.727180856883822738e-03
4.375493760553068705e-03
-4.882545213757314220e-03
4.197908831906873445e-02
-1.229012676377292876e-02
4.332615660594373030e-02
2.344123946182155235e-02
1.806815179824875287e-02
4.508348192261471196e-03
-1.037755851627885631e-03
-4.604848793662338902e-03
3.316675239157054669e-03
-1.005729381894572387e-02
1.321174919565336683e-03
-1.219446990872386297e-02
-2.477845371677326811e-02
2.936559815828577308e-02
-3.772124616941081084e-03
-1.634149241456907611e-02
-4.191821826447393248e-03
4.828900556589170272e-03
2.089973929814664330e-02
-8.025411524509885050e-04
1.908306336074095007e-03
6.799966925155690074e-03
-2.207335819904897994e-02
-6.800887706236790654e-03
-2.102775411262022137e-02
-2.813834437883289130e-02
-8.027914237985961160e-04
6.907256420181735398e-03
1.241319701949279534e-02
3.763237380256475619e-03
1.094846184081986820e-02
-8.497788117184925868e-03
5.224478983867752308e-03
3.741624069483325161e-03
-1.786093345755320957e-03
-1.075109432652277507e-02
1.150297340449839452e-02
2.556802242937113948e-03
-3.781059552662066527e-03
-9.805933086281689443e-03
-5.882129471437691666e-03
3.350321162548470198e-03
2.511260562418666034e-02
1.613927432410110566e-02
3.520039260135885556e-02
8.572881376743354473e-03
-6.294154885389916486e-03
-9.855788720527074512e-03
1.220139507170681786e-02
9.284500106143636633e-03
2.219146983936803527e-02
-5.538767082544636920e-03
2.577642467606163206e-03
8.985006814121418092e-03
6.561553910315354697e-03
-7.704822359578782608e-03
-2.266704571046968854e-03
1.466415974219052558e-02
2.428291815464446099e-02
1.415568642676571023e-02
-2.704287806002583783e-03
2.679371623031066157e-02
9.316449495627675270e-03
3.353839166843174645e-03
1.357240166302662275e-02
-1.114614374740967827e-02
-2.520755555823424310e-02
-2.577077078434498146e-03
7.519731691970558095e-03
3.173782062334908755e-02
-3.672583551776978372e-03
-1.256361166636453010e-02
-2.773398865143463649e-03
9.841948632824113960e-03
2.468600143200662747e-02
2.867849473896677114e-03
1.570296677841661465e-02
4.621305688217650434e-03
-1.515892374787124533e-02
-2.741909662670574069e-03
-1.668784145946746941e-02
3.925805547173147380e-04
8.447363445993616438e-03
1.848424202765160465e-02
4.791414717096895669e-03
-5.771244248576034783e-03
1.084254541447924464e-02
2.912608925281771205e-02
2.503747881055315774e-02
-5.735882242163992291e-03
3.432587413767913820e-02
1.822652713454371576e-02
-1.476940153232565896e-02
7.552270639734327828e-03
-4.673811377803269509e-03
-2.524877322233389301e-02
-1.046493211058091739e-02
-2.015828887594426494e-02
-1.374512426891154847e-02
1.226621424575038977e-02
2.379909549499063803e-02
-7.834813728942686961e-03
3.270438132500317480e-02
1.038467133470839798e-02
2.559992500540528640e-02
6.576955323600258349e-03
1.229991193719255811e-02
2.121914177812567973e-03
-1.102599160483749320e-02
-1.669219816193263928e-02
-8.253221474551130851e-03
-1.937972752984883692e-03
-5.899085350783810078e-03
2.923204940361431511e-02
-3.520667135748477023e-03
-1.476507088919629639e-03
7.946011574543877104e-03
1.093187931321298878e-02
1.929637915606526380e-02
-2.666893153022664460e-03
-2.751384761752571125e-03
3.354744120436011640e-02
-8.409312379557722442e-03
-2.462324720790933993e-02
1.437121652145657380e-04
-1.933791868888574267e-02
5.704421570946331330e-03
-8.423882204299671522e-03
1.320501654414073462e-03
7.318620584327133194e-03
1.457204894498184689e-02
-7.476937695346872435e-03
-5.348236988776007388e-03
1.836490275591868074e-02
-4.978704630859371455e-02
5.014041625362504083e-04
-4.163810531451457055e-03
-7.832481774690815482e-03
1.030546332946554421e-02
-1.330567164044813185e-02
-1.025474815939813635e-02
1.392587371028082728e-02
1.085005500729291361e-02
6.120327754448926134e-03
9.116986755198722148e-02
1.008632941077751725e-03
6.302488182704719596e-03
-1.317850640029874119e-03
1.454512135571691019e-02
-1.793366704115855956e-02
2.569506733160646303e-02
-5.767061333855093069e-04
5.240156264854933278e-04
6.205277236183673328e-02
1.642532109585473354e-02
1.896507001046498792e-03
2.262147881588637277e-02
3.751863730610524583e-02
-1.027230892834030476e-02
-3.998393837227289492e-03
7.460521373809201814e-03
7.030892679207065114e-03
-6.579231969034996831e-03
9.489313469495299497e-03
-1.050245630475261189e-03
-2.944567468791713712e-03
-6.297525424964687570e-03
-1.119077072285981807e-02
2.358029288622504743e-02
4.924901448948493937e-02
-5.409055736309079966e-03
2.122783570780122780e-02
7.735804149341250074e-03
-3.467424458041033037e-04
2.204432691387371926e-02
7.187150918367105241e-03
4.471487393035254720e-02
-1.573146868169673918e-02
-3.177079086338777895e-03
1.947278014478973779e-03
7.094225825871082469e-03
-1.963641441222796491e-02
1.615317587015733039e-02
1.671861780041654019e-02
-1.446431769726340801e-03
-9.866204780985435990e-03
-1.022971899589805028e-02
1.748195391964177338e-04
3.423398805268339923e-02
2.077637829625645499e-02
5.635161386321114324e-02
1.607149091262758886e-02
-2.451404937171892950e-02
-1.406014295139923487e-02
8.895647030453066734e-03
2.806559765835576082e-03
8.688058909261347010e-03
-1.926029616173879910e-02
4.610159453724631501e-04
3.612296911559996406e-04
1.063478247096460820e-02
-1.309490697750366126e-02
3.692891746600570485e-02
3.382750964938387346e-03
2.382767577725033309e-02
1.096076949845513522e-03
-3.440322570346526082e-03
2.201899384501584261e-02
-8.848107473096620493e-04
-1.697246526395285171e-02
9.513840429390544792e-03
-9.189399907257145284e-03
-8.955486496711243666e-03
4.586050427679849023e-02
-6.948841405082588005e-03
-9.989633524026847889e-04
1.136745832446356928e-02
-4.847552111350347977e-03
8.644161794189281212e-03
-2.888163278906736046e-04
-4.223716244308093476e-03
2.470865134508987496e-02
2.795275085773177900e-03
-3.471178204053442900e-05
-2.404763852055652809e-02
-2.201628633450982211e-02
5.433319943178775788e-04
1.222647160180879988e-02
3.942334290317812788e-03
-1.096559165817896468e-02
-1.447422395407770360e-02
-6.775025593456756451e-03
-4.819525295559185483e-03
1.110196191753657496e-02
-1.195204161969824069e-02
4.342796093394580594e-03
1.370298983286835984e-02
1.002061582997878023e-02
1.858624944384607534e-03
-1.864852846116949597e-02
4.470781412008027582e-03
1.054086426972510905e-02
4.867602313417265097e-02
-1.986683161498549715e-03
1.607708213081872339e-02
4.317779609121335507e-04
1.197002361848749190e-02
-2.276142022262621009e-02
2.712004466532494038e-02
-2.995469119159548284e-03
-3.892707328833501360e-04
-4.976585955185438941e-03
-1.122189542338770246e-03
1.309701929663611465e-02
7.928436756459980236e-03
-7.446393191799568351e-03
6.183784922211740462e-03
8.149164448308179182e-03
2.644153063079677721e-02
-3.434770944968256173e-03
-4.676588366183519890e-03
3.325361584926197350e-02
-1.693450566741025107e-02
1.407704025825621749e-02
-1.211749776963036429e-02
1.325994816005017290e-04
-1.727653482055312162e-02
-1.823833997820726097e-02
3.486329229049307116e-02
3.224020960988894374e-02
-2.185346489558050252e-03
7.447787963704878902e-03
-1.156240403878323886e-02
6.349732552699602524e-03
5.295910711867010678e-03
-3.262032081925273636e-02
1.496849476512870404e-02
-1.022274992043431226e-03
1.828178102083634696e-02
1.070530394000189338e-02
-1.189254278851746734e-02
2.979159182814145740e-02
5.943794733392943237e-03
-2.961259339840439583e-03
1.687106643594283098e-02
-9.879451873073274298e-03
1.940435106035899365e-03
3.298185601448790864e-03
2.899459292510049579e-02
-1.372607615526782836e-02
3.620688953145848737e-02
2.066075352120126142e-03
-7.749325169551812310e-03
-1.784649336062770278e-02
-2.170687574597016372e-03
-1.260902029422726785e-02
-1.937053612230746780e-03
-2.171711970907081943e-02
-1.345791622258284007e-03
4.867271099234518443e-03
2.182563667180493355e-02
-6.299004138772375076e-03
4.356467945633984290e-02
-3.561320955154839533e-03
1.621360364838092538e-02
-1.504745415697070036e-02
6.805896510857374279e-03
1.358409771856285315e-02
-1.377814859442589267e-02
1.813650933356727177e-03
1.092460864379677819e-03
-1.514936551361558033e-02
-6.379805389284384787e-03
6.488199904351715959e-03
1.668292146693412317e-02
-5.745153480609455250e-03
-9.014117051256266902e-03
-6.902466467324363131e-05
1.958922303918393323e-02
-2.473091659966009104e-02
-1.847924674979408875e-03
1.893678160995959994e-02
-9.513308467751422498e-03
4.867962625791005804e-03
4.703816322635766397e-04
1.520589472219781996e-02
2.965316195590336421e-03
-5.609928691738052392e-03
1.214802055670079380e-02
-5.811647456090350897e-03
2.509342111990747054e-02
-2.483321268251768507e-02
-3.135625842330196436e-03
3.462162299001116366e-03
-7.660532200125906577e-03
-1.331013216641869189e-02
3.371263524704759887e-03
2.592339238462544604e-02
1.661641167745558229e-02
9.599341814581992954e-03
-9.875230061896972389e-03
9.951136077542912378e-03
1.817883758185944235e-02
1.229698192254733390e-02
5.782156675332609380e-02
-2.811825515020041372e-03
1.976494113229526964e-03
-1.457263591978919318e-02
1.571714520875002255e-02
7.340604182818549067e-03
1.593424615645673559e-02
4.512261908037300782e-03
-1.042167895926803325e-02
3.527067576845754893e-02
8.530343770748514617e-03
9.490381620902373777e-03
3.567610354875324361e-04
8.796020781722450541e-03
-2.049461021695629052e-03
2.352727971944096677e-02
4.932582630527634036e-03
1.717459202354975137e-02
3.504982319427509419e-03
3.301602633918633567e-02
-4.841355520468696230e-03
-1.481053330927873833e-03
1.376660217947137631e-02
1.097458395102006781e-02
-7.414004890625055773e-04
4.825246887231778026e-02
1.574986926506255144e-02
-1.021228701420377749e-02
-5.929399680574128431e-03
4.372563071427614141e-03
1.459595594186361561e-02
1.179438114614100213e-03
7.259353504651449608e-03
-5.527294594641374450e-05
3.750802160560406245e-03
-4.320263058409176335e-03
-8.652311051267094072e-03
-1.716981203211236442e-02
2.036452741702707292e-02
-7.483899192361254116e-03
-1.508090379896939379e-02
-5.267628255269647761e-04
-1.441872757033088072e-02
7.418620465786503887e-03
3.594202885830213856e-02
1.475150719456101885e-02
4.928425119311040381e-02
1.260576479838267441e-02
-1.180430406376687009e-02
-1.122631121408696787e-02
1.873024324012885836e-02
-1.966594925487114356e-02
1.613159395985692274e-02
-2.492408980314142486e-02
8.423650599495135366e-03
2.354661427368830509e-02
9.475378693297354868e-03
3.397293525185346181e-03
2.144263417532521129e-02
5.634031503173677485e-03
-4.938901609533315196e-03
-7.956584611030057333e-03
1.014225272257512390e-02
-9.273114893138245923e-04
-1.685630451498179236e-02
-1.815235509299320885e-02
-1.496004082234197530e-03
5.941328703322625894e-03
-5.660721709448849129e-03
3.808842539249105569e-02
-2.397026537801267947e-03
3.867459062686456569e-04
-8.716537809214781884e-03
-1.076878163685813378e-02
1.085172637848901174e-02
-9.240092135938531362e-03
6.296436237388259097e-03
2.779555263737246151e-02
-1.441561528746441653e-02
-4.460853060902983044e-03
1.264041259623091031e-02
-1.398372794581622183e-02
-9.580089375556084461e-04
9.328807222292338774e-03
2.311148407895467424e-02
-1.711628901634473787e-02
3.587422569900033248e-03
-1.778259152799500226e-02
5.924440047221485837e-03
-1.067332500655686529e-02
-1.935611909460325727e-02
-1.645436432425766149e-02
1.316935100181965655e-02
1.325138411362283830e-02
2.087609549587969137e-03
-9.683229702822534340e-03
-1.925894165579500675e-02
-1.353555001237548121e-02
3.464263254332865943e-02
4.605033504889234283e-03
6.404798984235504644e-02
-1.053311803600954361e-02
1.405241498381658641e-03
1.340340656593724984e-02
2.737139960922201076e-02
-1.391980941582428764e-05
1.659905099956687780e-02
-1.601933190969069554e-02
-2.695939132061448903e-02
2.525614715124762169e-02
7.646678494989857765e-03
-4.528394014045534523e-03
6.927539573915377814e-03
2.200903237664146930e-02
-1.095441489665720085e-04
-2.700284251842314034e-02
-1.168548938980711917e-02
1.729655169316393279e-02
4.500417777667607006e-03
2.328382151216066773e-02
-1.997844434263628885e-02
1.537738668917356701e-02
9.113744545759083771e-03
-2.038513189451133319e-04
1.895966335578276596e-02
3.688370705763519691e-02
-1.287008948672694816e-02
-8.617046490512246873e-03
-8.131086266863799331e-03
-2.219137145680411677e-03
2.051305924553890186e-02
8.769887506092661350e-03
1.340041778265471661e-02
9.011564791089563334e-03
1.816721882493579606e-03
-7.636085405232114279e-03
3.943995066200758036e-03
1.346696050498247949e-02
1.378286111420106395e-02
1.009549117972243990e-02
2.732645105177781107e-03
-7.872277282100065970e-03
-1.150377090400632116e-02
-5.092255289478349670e-03
4.713126924481807201e-02
1.260643158019524902e-02
6.117612485895626562e-02
3.693703793412762577e-03
-6.568552544809945493e-03
1.102361330255011325e-02
-2.751596355692186892e-03
7.969507598511355734e-03
3.419162926580747355e-03
-2.715584047963458605e-02
6.721534524475600465e-03
-4.217527228099260395e-03
2.974029515888660172e-02
-1.273078359840058155e-02
2.242439492291836006e-02
2.746704389036450783e-02
-2.360214758123326071e-03
-7.042582611581635517e-03
3.724840605360182216e-02
2.103191969653723549e-03
-1.653415841159659380e-02
-3.566245008579330134e-02
-3.040542418821072686e-03
-2.186388822807174438e-03
-1.074519213797698811e-02
1.710056608813075377e-02
2.459633587617843838e-03
-4.352253525157458690e-03
-1.944930644520290186e-02
-7.686904730614858156e-03
1.028707859144616966e-02
-1.840772810404468426e-02
4.885657296365596841e-03
2.156329811610052660e-02
-1.292021770898831370e-02
2.363102268614396088e-03
-1.380355859612755927e-02
-6.241816283065297621e-03
2.611100375738020004e-03
3.936615801849017819e-03
1.005044206883782230e-02
-8.662774876072911736e-04
-8.379133941357625945e-03
-1.034793801083016065e-02
-5.756367887976435518e-03
-1.324540366426618827e-02
1.611056601452727391e-05
-5.248591349373702211e-03
-8.386361801676103756e-05
-3.610445973869885446e-04
1.503220365797750370e-03
-2.272551564577561176e-03
-1.836704745913303113e-02
5.827129475946489154e-03
1.582388511203261169e-02
-6.563759318632569721e-03
3.982398287620166760e-02
3.759105382088990654e-03
-4.459087837281629045e-03
-1.006237099830874573e-02
2.942964475642625283e-02
-6.366174473435015635e-03
7.396360045843892311e-03
2.584709544195175606e-03
-2.743757164583601402e-03
2.202657015194433437e-02
-2.740724591340902398e-03
3.390218918653590662e-03
1.047742096686638154e-02
-7.783356052857987040e-03
1.677891995146487542e-02
-1.352104910730403224e-02
-1.331347997617909028e-02
1.251123893883397328e-02
-1.397218015822311935e-02
1.037292006346486085e-02
1.335741313559407921e-03
-1.554045692970499335e-03
-2.192397890382474096e-02
1.060954728343794888e-02
2.381145543288883646e-04
2.522501153215987030e-02
-8.223383578296585006e-03
1.530074145552342071e-02
-1.225566254352764874e-02
-2.072947223110837081e-02
-2.218143473832023815e-02
1.783227723332917727e-03
1.314745636011032531e-02
-5.548446810121209979e-03
-3.322826816123494384e-03
-4.604745055850155812e-04
-1.055152063454855606e-02
9.343191038868743983e-03
1.315698014261341628e-02
2.903104041777174703e-03
8.227449890019946158e-03
4.025064756883341664e-03
5.244444798303883951e-03
-6.666653808446745995e-03
3.467473485232598629e-02
-7.193880876997750182e-03
4.848217821910572045e-02
4.227902085705895034e-03
-2.036347693730777234e-03
-8.456903834676517129e-03
-1.633923002710909594e-02
-8.111363722192274639e-03
-8.196516639852763700e-03
-1.582849805650819730e-02
-1.645703692088762785e-02
-9.932013087881098184e-03
2.857972390495227069e-02
2.677866647295825547e-02
3.834608087122636649e-02
1.148460742609250240e-02
3.444118313125427155e-02
-1.688480888221612075e-02
1.530257676554234655e-03
4.941563244388984255e-03
-9.478169896209602888e-03
-2.206567069684671825e-02
3.209452195149358703e-03
-1.151269572556179671e-03
3.483567651166220250e-03
3.534935743610106984e-02
3.272561897643457614e-03
4.945657985395817275e-05
1.502227741788814824e-02
1.313204414275205220e-02
8.780799894733308866e-03
-7.063156061647666260e-03
-8.068936467587287109e-03
2.198154970231639901e-02
2.216759477938041686e-05
-2.652612244577394300e-03
4.742700896255037067e-03
-1.761155004532983376e-02
6.300219188252941145e-03
-1.253519637399599235e-02
3.862746480447700088e-03
3.926252207870285955e-03
-7.082284589547184830e-03
-2.691794160990392329e-02
-1.735486800958886732e-03
-7.732200893495551342e-02
-1.964861772660373984e-01
-3.002195687968900462e-02
4.317480779382663718e-03
8.329363318144950706e-03
-1.180443523130764311e-01
-3.531511772040187708e-02
-1.405552004692779966e-01
3.469867622134443965e-03
1.843359588857565456e-01
2.733452107802737154e-03
1.433117419791683222e-01
-2.928959803375310797e-03
1.368412641254373877e-03
1.107473921248455784e-02
1.572064820047224809e-01
-5.127266552425840430e-03
2.552269541552135701e-01
-5.136631021562577254e-03
-1.116888962473220389e-03
-4.717913865446070332e-02
-1.790584163498745588e-03
5.501819023679985730e-03
-3.133758579928758170e-02
-5.742203583922161209e-02
9.158153273510900860e-02
-4.160450844403597824e-03
-9.097973076439727462e-04
9.245663067251745637e-02
-5.939235759487322165e-03
-1.003512079359815679e-01
3.543764732249401334e-04
7.680769653959169420e-03
2.578427421766026767e-02
-4.703940132456108786e-02
1.463311299847346314e-01
1.076915244220443962e-01
1.494311333689554732e-04
1.516416428002284849e-04
-8.939535205836124376e-02
-1.009583531343236501e-01
2.566899945821427553e-01
-5.497648774606873900e-02
7.514083284635635074e-02
2.161277824476268150e-02
8.287451147643299862e-03
-8.680471455293191363e-02
-1.581584976642262663e-02
4.330301491171616168e-02
-5.137987870622385059e-03
-9.944078063343778084e-02
8.473800217815451175e-02
1.924338609497453206e-03
1.907049814089171319e-02
5.535293287560340281e-03
7.468609498460843099e-02
-6.801162981607328240e-02
-3.703553310062852183e-02
1.322190536093718338e-01
2.293455688676455939e-02
-1.301815848908534530e-02
-2.336881790450748633e-02
1.541748063182064345e-02
-2.717655683569592667e-03
2.078779702931767698e-02
5.124144013511191392e-02
-9.001347010984922211e-04
5.375277159655456050e-02
-8.171006765272626274e-03
8.440355388975702422e-02
2.326099786011163323e-02
5.331296427560276024e-02
9.857956030947023773e-03
1.658493727439636425e-02
2.496669274353504730e-04
1.696559113974428030e-03
-5.896758284666241134e-02
1.957821217118135490e-02
3.710121079935462668e-02
-7.683108683747101597e-03
2.439015569960087740e-02
-1.222600337281738204e-02
-1.158665127439508294e-02
-7.446306054416452005e-03
-1.331109256708644384e-01
3.862298621068804838e-02
-3.501939588345204246e-02
-9.357509616683789069e-03
1.442924404931032745e-01
5.929604396814283250e-04
-5.371255617800533948e-03
-1.113836286967236772e-01
-1.682659350589408090e-02
4.269916434006694635e-03
1.026096713820651846e-02
1.189176475488803453e-01
-6.231450953332592912e-02
-1.000989557132209995e-01
6.732904072935069935e-03
-1.331968635053612515e-02
-9.685240395075386810e-03
1.090267349668474703e-02
-3.969329614991749106e-03
-5.018479072007153881e-03
-5.252125461259906855e-03
4.209977410283906318e-02
-6.078061182171946852e-03
-1.538236282630773590e-02
-1.030780166819886485e-03
-5.265687905143405512e-02
-6.688169213963605399e-03
8.939159381100400537e-02
-5.911016493587330570e-03
4.716637844934307502e-03
4.527560606367924756e-04
-3.529592617393854936e-02
-1.758212029047644120e-02
-2.409562828103479354e-02
-2.151330577167560182e-03
-1.405801435041204549e-02
4.661413369552037944e-02
-1.868642502663919605e-03
-2.051330426450503203e-02
-4.824590097701288161e-03
3.554759921531675665e-02
-6.038762029810575138e-02
-7.187362056305047521e-03
6.720047789905848022e-03
-2.125338998621655734e-02
-1.927935639733869590e-03
2.790375304573039159e-02
1.265867141987702879e-02
-1.562995327071977541e-03
-3.424166177745914530e-02
-1.240156339114492114e-02
-4.279197203447603071e-02
6.900083195648432088e-02
-1.396491825854386318e-02
-8.803822638155000407e-03
4.402138389378743022e-02
1.472501299689023269e-02
-6.910159185983420771e-02
1.291886491996111774e-01
-1.211662644729418273e-02
-7.049830196657794852e-04
1.618835982120770019e-03
7.796418759919720998e-02
2.194049011129980270e-02
-4.309132791403991192e-02
3.898200527763648338e-02
1.286268863788841699e-01
-2.820716894132993535e-02
-1.318046739002263004e-02
8.086847612503501349e-04
1.434412445714778120e-02
1.737007132475021365e-01
7.537314324274312083e-02
8.518633770391811910e-02
-3.741547063715263549e-02
1.124513797901033202e-01
-3.844807407677510672e-03
-1.054694312697454853e-03
-4.818184341328226455e-02
-2.220002202037366784e-02
-8.161611790038655889e-02
-4.098806333283221311e-03
-1.388390743374606426e-03
1.265707869800955232e-01
-3.089440671080641732e-03
1.686804850618229823e-01
1.425078990833251458e-01
2.140471735252317820e-01
-2.063944568051550438e-02
4.323867926041367882e-02
1.128602170609688607e-02
8.857634164675345922e-02
1.214224889188077715e-02
-9.002281908299707147e-03
-6.441255397944688384e-03
-1.345931832584514910e-02
1.448651194133753484e-01
1.208586099577139278e-02
-1.200645314287120992e-02
1.459126303319859680e-02
4.585188510152180680e-02
1.052536152070707685e-02
-3.509458221237474976e-03
-1.809812470921335834e-02
-1.204455800354112781e-02
7.343491480752882550e-03
-4.010650979336147920e-02
1.220560622881241945e-02
-2.150235071808515031e-02
4.197806375308418348e-04
-1.089176207919900080e-02
7.592623254259044975e-03
4.668008454554392617e-02
7.921708456444855398e-03
-1.014953672816742980e-02
-7.946983749578846387e-03
-1.109774433218290932e-02
-1.683114274539610766e-01
9.142545679820247807e-04
5.251947515225436182e-04
3.809848341815830902e-02
4.282244523821390932e-03
-1.793689451725356473e-02
-1.194837682438366772e-01
1.691068488642228024e-03
1.828840537433780444e-01
-1.456267877791170458e-02
3.075897882533262795e-01
-7.639657627713531004e-05
-1.303958385187386874e-02
1.588667206613954969e-02
1.645350467459124888e-01
6.056725546020006769e-03
1.818812409619362525e-01
-1.961731610157831790e-03
-1.635539143034672391e-02
1.654174239271044011e-01
3.889609637445894282e-03
-2.464576425070951274e-02
1.094949266672462507e-02
2.846185122327523839e-02
4.398959538121841040e-02
-6.702274697932661569e-03
1.517689056252232056e-03
1.160940405580503931e-01
1.289905039267621838e-02
-1.836054556600211912e-02
-8.222634202725053257e-03
6.651125900888565055e-03
-2.942090816990786291e-03
-4.419840339701899823e-02
2.176393754282323900e-01
2.014300908277864843e-01
-7.629120926816550241e-04
-1.138220860181177012e-02
-3.461656963355445177e-02
-8.299545873051977773e-02
1.549380826646448439e-01
-6.279696021384796600e-02
1.781444683396443962e-01
3.281190385792806530e-02
-9.202747801131816322e-04
-4.540386357317539867e-02
7.324787046274413259e-03
6.083074214842491140e-02
6.286734761793789927e-02
6.388713774352241040e-03
3.766372871039165571e-02
-3.594477908710906437e-03
-3.444868957579071394e-03
-2.278666110047004379e-04
2.150038899140065130e-01
3.210758486677856016e-02
1.790880993334974802e-01
5.800846798882437066e-02
-1.679208109046717579e-02
2.073689627318523257e-02
-7.768993514200325627e-03
-1.806084734521015527e-03
2.454896725752086714e-03
-3.675434076795511783e-03
5.940689903477968520e-02
1.476481693896592503e-03
1.312918346377499879e-01
1.308936777840901712e-02
2.175023859269843152e-01
8.001514544444905674e-02
1.387038020860494325e-01
-1.188499396666141536e-03
3.214660226942295945e-02
5.665579039641974873e-02
-2.223552791631274242e-02
-8.954916895744025052e-02
-1.320044154811068383e-02
-1.075844034134712870e-02
-6.353617731489462350e-02
1.976035242784136559e-01
-3.982926046693618070e-03
6.173396698776071126e-04
4.106005215436856100e-03
-7.851469238531259831e-02
4.058889807527309851e-02
-6.664302560891505189e-02
1.068289806590964029e-02
1.404279423888110667e-01
-1.742300966178935567e-02
-2.227059159375465933e-02
-1.314260080316523027e-01
-1.054452772226848606e-02
-7.042542179149094590e-03
-8.309696355229465731e-03
1.070639871786376041e-01
-4.306522729791840975e-02
-6.546915087559083968e-02
-1.870555577848830378e-02
1.289840924641561144e-02
4.508260904379628197e-04
-2.736402493014660625e-02
8.649750853390066399e-03
-8.907369583720441825e-03
2.038892185090036835e-02
1.422568614016811103e-02
1.419524627561503591e-02
-9.363746617283761481e-03
-3.157689400920122604e-03
7.248889316513140724e-02
-1.257654316458091913e-02
6.173350009716011000e-02
-1.488919761871327144e-02
-2.254513191467452660e-03
1.983436236402958894e-02
2.386672374308123137e-02
5.295768271760471942e-03
2.094897929571634329e-02
9.057667573149411760e-03
-8.971258017880756955e-03
3.634467858678099017e-02
5.871576681435057565e-03
1.139500059608287985e-02
8.849890239480158807e-03
2.628810043552220685e-02
1.978585662357486633e-02
-9.249571428809864188e-03
1.177614738485657613e-03
5.446908355715722461e-02
-7.590132676686254425e-04
2.039190119619343697e-02
9.818258267375652715e-03
-3.842128519292831168e-03
-1.695382131456515951e-02
1.530711607779218150e-02
7.226767123830871165e-02
5.472788195739043682e-02
3.837541101017984645e-03
6.634320187039040263e-04
1.450892603357081638e-02
-8.123655266328220353e-03
1.153784608756000356e-02
-9.876694075746301690e-03
3.779940701451672130e-02
1.151488815748854914e-02
1.788196045067969031e-02
-9.104446269899667266e-03
9.309953046678748692e-03
3.387477402069183352e-02
1.091378716658435513e-02
-2.238747421076523608e-02
1.462044088588660036e-02
-3.386781441509180424e-02
-1.162561584123142887e-02
-1.254327965617066561e-02
6.498573448436888167e-02
-8.536940185958160135e-03
7.769167797310541634e-02
1.037988879627106155e-02
-9.176350554697395440e-03
-1.643794450524107414e-02
1.731188141062394879e-03
-1.033842076251399386e-02
1.820526735963413911e-02
-1.967155601192091888e-02
-4.201550237368512943e-03
-4.965115903704938119e-03
2.703589835033496161e-02
6.355153607041734258e-03
3.826718096927281959e-02
1.098285808224275240e-02
6.655513813918990419e-03
7.420353142533496265e-04
3.928720714916450821e-03
-2.689159575460792293e-03
-1.383947632227317762e-03
-2.198966152244989300e-02
-3.387429550017272140e-03
-1.086625495139214963e-02
-1.961508994760563507e-02
2.975495885118521061e-02
-1.298405547133044124e-02
8.194576339282361177e-03
9.263203332191391817e-03
-2.785496399424010686e-02
9.919745231086874240e-03
-1.442386639051023225e-02
-7.219012074603396723e-03
5.121022170270270873e-02
3.433114589793848440e-03
-1.344223581466553498e-02
-3.793428285703733666e-02
-9.403467993719875906e-03
-1.160768846896885823e-02
1.618831445593290827e-02
3.449136151494175406e-02
-5.667054348234275112e-03
1.653516658628764735e-02
-2.479925776944347238e-02
-1.022607078709508038e-02
1.100296609196817488e-01
8.938452503247619474e-02
9.414965501251376309e-03
9.428774015040920775e-03
7.221776885270579649e-02
1.285897635317035659e-01
1.907738065599954777e-02
1.009600369339993531e-01
-1.006884137836415016e-03
1.131001580193263939e-01
3.380306368929996818e-03
1.589978862631077905e-01
-2.848533436831781566e-03
8.430195009349427185e-03
1.058225170866244902e-02
1.324558520951303999e-03
1.073718838762087284e-02
-8.750495833780524979e-02
8.492431316380064446e-03
-1.264300918408918679e-02
1.007427361664492010e-01
-1.317854094400521849e-02
1.194397027038712408e-02
7.451627234234421693e-02
1.053768220949005546e-01
4.930621706263968451e-02
-6.505631457283275916e-03
1.143891548934144846e-02
1.283832934009935811e-01
1.858662535913749997e-02
9.685311506312135887e-02
8.212818999943518813e-03
-5.728217311263170478e-03
-9.400790408377839025e-02
3.525898860721409650e-02
3.912360357314033366e-02
1.301509605424160110e-01
-8.642000126849628400e-03
-3.423196996432522309e-03
1.226323321832433269e-02
9.343718957573847461e-02
-9.341461115455512720e-02
-4.376907182228590570e-02
9.721117131873277528e-02
4.741971083937162462e-02
1.868004732504077725e-03
3.290525323783872330e-02
-2.227089975430698258e-03
1.451064870654861227e-01
2.640628664208648051e-03
4.703053638771814704e-02
-5.266410543451589127e-02
-1.437169950446144651e-02
1.126939515453925095e-02
-9.385688401596580747e-04
3.802637774660250908e-02
8.159556926446058511e-02
2.615473943072291751e-01
-5.909436478838649143e-02
-1.405080062092032012e-01
-4.405483900639516059e-03
-1.859884625118908563e-02
-1.130687939669763886e-01
7.801736278673356180e-03
-2.069180409632753737e-01
-2.756321166643694101e-02
-9.262810470452783078e-04
2.884940880905781033e-02
2.824087514774794704e-03
1.046614176310958245e-02
-4.218240381504730074e-02
-8.446287009056814565e-02
-1.377002557979386047e-02
2.489976922432702092e-02
1.878656874134063126e-02
-1.006186130798351758e-01
-3.697125012812666617e-02
1.565241782586120620e-04
2.793418093183160935e-04
-3.830723243147937662e-02
8.375267757736401530e-02
2.298192454469393659e-02
5.848660996263273584e-03
1.996477942806756251e-02
7.347381203631318802e-02
3.079441149297864819e-02
-9.498139409162163413e-03
1.169055139030582410e-03
7.796108214610761311e-02
-1.741596449613995110e-03
-7.134059779208568042e-02
5.040241907032087104e-02
3.766854218169277818e-02
-1.332010315209911089e-02
5.499894948549690146e-03
-3.607362154249394576e-02
2.516665691643211675e-02
1.792408080444415075e-01
-2.127171886004002987e-03
-2.727708825367383509e-03
1.272382102759956474e-02
5.054021103827188027e-02
-3.237089269789339592e-03
-2.434316747660366514e-02
1.738330570669920083e-02
1.123895212806763286e-02
1.130881746185039352e-02
2.650147377273998420e-02
4.311177688122771676e-03
2.171019923232811455e-02
-1.905124063932176837e-03
9.455306501299718877e-03
7.857577765420351371e-03
-6.172677249807471261e-03
8.089021920487965422e-03
6.827655667203680508e-03
-1.281365747143850368e-02
1.786982716337945018e-03
-1.124446901302162370e-02
-2.508592537212249451e-02
-6.171820728439148147e-03
-7.227844417608431105e-03
4.727254335520357335e-03
1.664172193741871378e-02
1.809419647555540397e-02
2.600681215124732437e-02
4.190138449999332871e-04
6.964895306980160286e-04
4.062478090587823970e-02
-1.483664791112821943e-02
7.230726039301243503e-03
1.422371804714183275e-03
4.294898301647501367e-03
-2.800989395471205692e-02
-6.779980031769840786e-03
2.293009385883322884e-02
-9.326793754778411535e-03
-1.352086594668828329e-02
1.050111590926905598e-02
-1.209909589996800662e-03
2.428174215190304422e-02
-2.157226616285225565e-02
-1.509959059031891308e-02
-2.165021743973868235e-02
1.813214748185403707e-02
-5.509087460979506488e-03
2.203005626650961224e-02
-6.862922124453011731e-03
4.785578872943883899e-02
-2.443695834098056317e-03
1.669236276313965789e-02
-3.814968658815409957e-03
-4.055330557993927325e-03
-5.497461959980068889e-03
5.773245972902640161e-03
-3.021243460045801646e-03
-3.219246665877505825e-02
1.469808696166554664e-02
-1.088766608076147287e-02
-2.056194941916139954e-02
3.126472790961447746e-03
1.126057120885784642e-02
-4.565525089710772977e-02
-5.336090229211345147e-03
-8.119356495579768684e-02
7.727701914403926073e-04
-1.574345424850664976e-02
-2.250451315445008843e-02
-1.058792230949832588e-02
-2.755068277305166430e-02
-3.554253829268620712e-02
-4.311425599598221053e-02
-6.987353687227518782e-03
1.122600128133697389e-02
9.473199072158468292e-03
-2.705814603858413409e-02
-1.160009749107236351e-02
1.005766907152161153e-02
9.248543327541028716e-03
-5.046317576267811932e-03
8.801966889136057792e-03
2.419274162076453030e-02
-5.353569678086413271e-03
8.241110853772761966e-03
1.266242431449451054e-02
1.598202396850025291e-04
-1.409713531741255133e-03
-8.332352480909530415e-03
8.911940145105400057e-03
-3.898278901507662821e-04
-3.271263826016214404e-02
1.360300154392489989e-02
-6.450971020196819700e-03
-5.163933985105573178e-04
1.610633291576795247e-03
-1.020622694769055384e-04
1.019722638730964810e-02
3.841169051995730471e-02
-1.024215459849917888e-02
9.738440678593371716e-03
-7.374476662904820047e-04
7.765084041066876164e-02
2.139256377702920126e-03
8.570325607368763955e-04
4.403044455863639600e-02
-2.500262537853591583e-03
8.738777908332951263e-04
5.912657894961019511e-02
-8.470764241488777310e-03
-5.813654493996891701e-03
7.569326542147166922e-03
8.291795988276626228e-02
9.289666808970493917e-04
6.282579325380878866e-04
-3.608826278465191318e-03
4.563345699843613518e-02
2.049387296325665131e-02
-1.607786851438861367e-02
3.515325662170273608e-03
-2.355949445207861006e-03
9.116963172473223700e-03
8.222388788368468343e-03
1.748991757476195744e-02
2.861159295347524487e-02
8.754238610904465159e-03
3.943035889194196342e-02
-1.279467620362549976e-02
-6.561900748621037407e-03
7.217199442155436406e-02
-3.873143475170382540e-03
1.955829720321702880e-02
-7.355462719748158754e-03
-7.454140819998006286e-04
-8.519194411509785347e-02
-9.989361294688985440e-03
-7.168585041988680129e-02
5.791364455819597579e-02
1.358382757454292683e-02
-4.109435160773345849e-03
-4.753143892552005173e-02
3.704132224649736571e-02
-5.926188218354701276e-02
-7.554680922401350862e-02
-2.110335652621152594e-02
4.675285854468221730e-02
-9.479541043706416273e-03
1.200875297249222040e-01
-2.597297825737445148e-03
8.535053325243276146e-02
3.358147900347421139e-02
1.294741885879874266e-01
-2.528275726141551716e-02
-2.778467482664943172e-02
1.878633295246125287e-03
-6.706229610408032029e-04
8.319751601200946201e-02
-4.453353002024371121e-02
1.195071764563701566e-01
1.754789006668966899e-03
-1.625024602425419740e-01
6.908329061026418673e-03
-2.393611375381627174e-02
-7.715882737968071670e-02
-1.069454102505121643e-03
-1.484237750668608025e-01
-1.652258467197750477e-02
8.818945618049611399e-03
6.377758587933821111e-02
-1.054023357519731771e-03
-1.768484758043780379e-03
-6.506443666842266771e-02
-1.232017374116446962e-01
4.048261971904513080e-04
4.931570483016307904e-02
2.689817086657314560e-02
-1.277900979795774938e-01
-3.443238107797168962e-02
-9.598084822233287966e-04
-6.439804375579059534e-03
-1.525473488373258954e-02
9.165006252577680146e-02
-2.910773399618448321e-03
-2.315349602046815579e-03
5.465802869340918337e-03
8.936470545699948254e-02
2.549490726757534798e-02
7.348254257868943456e-03
6.531313659524494442e-03
3.471562488402602648e-02
-1.355922101719724861e-02
-5.049798031746186716e-02
6.466464366095035776e-02
-1.654848182427580763e-02
-2.897171050825512670e-03
1.424306472069785529e-02
3.651466704426753820e-03
5.435128582144301695e-02
1.437187132098539100e-01
3.023180918111747530e-03
2.788613075311521024e-03
-2.107907901326621855e-03
-1.691767993454053667e-02
-1.666041087645085683e-02
7.333801474853285200e-03
1.913141691029124694e-02
-2.895346499492055387e-03
-1.691797968276725558e-02
-2.462937223578008997e-02
-6.536124055261520981e-03
6.104628249010304875e-02
5.541468355003915068e-03
7.487099397012891844e-02
1.879574210009948843e-03
6.873872953258694692e-03
1.183055691016518876e-02
5.206205005136538971e-02
1.654070361756058635e-02
4.840672318892639409e-02
1.801724674670154847e-02
-1.038624490244647799e-02
1.109168164420037093e-02
-5.568666806408341906e-03
8.741855411735272377e-03
9.257993946244836778e-03
2.379404283323727914e-02
3.775773220797610380e-02
-1.406070506889430666e-02
9.660781910482788351e-03
4.450578569358146219e-02
-1.154472228894320128e-02
-8.123233417767406275e-03
7.371712498767758748e-03
8.536786517111484909e-03
-1.267445731777736007e-02
1.417479766274169425e-02
3.074158183583716383e-02
5.727100840216593769e-02
-1.196422005872552381e-02
-7.679153278335745271e-03
-3.013948391744251942e-02
-1.774467633041168155e-02
2.618078105641544889e-02
-1.521483592769333308e-02
2.013224465142348860e-02
3.837887478137813613e-02
-1.431703798048699489e-02
-8.894647707188209351e-03
5.494121445723779314e-03
2.333308965383203842e-02
1.265851367547918618e-02
9.886906675995931967e-03
8.685160394023795291e-03
-9.933431070505847199e-03
-5.755384086880546701e-03
-6.051068252641355477e-03
5.748548095618446346e-02
3.613743859617712939e-03
5.278041785066467373e-02
2.119660528102640731e-02
-7.662878351342596213e-03
-7.978408235021916409e-04
1.394448135635811782e-03
-1.064873356717432364e-02
9.136728399120573607e-03
-3.998574170581169901e-02
-5.450846400369253886e-03
9.234028088811664647e-03
3.308286387185962324e-02
-2.190432896511636598e-03
4.151100052959323661e-02
3.254175784510420638e-02
2.264082067334348067e-02
2.457885533921847984e-02
1.610983862358081331e-02
-3.110598750735266930e-04
-2.127636319361565775e-02
-2.652576737657603642e-02
2.415287409427578549e-03
7.466025420807386598e-03
-1.423978597842944296e-02
6.196439568755203464e-02
-6.323871283273867910e-04
1.452529233458924908e-02
-7.156315145047717659e-03
-4.112264401177047335e-03
3.052654445566297964e-03
-1.460089903636345096e-02
6.456031264432333765e-03
3.895083105412600055e-02
-9.370357491103482048e-04
5.807677510873576754e-03
-5.145776498472185746e-04
-6.213847975385185587e-03
-2.222701952130277936e-03
-9.744676536456034835e-03
1.862300051615275315e-02
-1.809886850997975694e-02
1.565890785919439674e-03
1.054828904457257993e-01
4.716406291737002855e-03
-1.042210436307233340e-01
4.041887156880479837e-01
-8.196930950264672998e-04
4.311661537120458298e-04
8.944184087241352152e-03
-2.001049705719680771e-01
1.222135300333981054e-03
1.356007217046124869e-01
1.763890859593746085e-02
-2.282680171081525045e-01
-4.352639573068272684e-03
-4.778145059558271401e-01
-2.612569801053144999e-02
-4.958662414494188937e-03
-9.538975056237379655e-04
-7.140762717073012578e-02
4.786706047609840496e-03
-3.514179122207027328e-01
1.368320184886868095e-02
1.253652135396646737e-02
-3.553378286994571256e-01
-1.257861932048801382e-02
3.365588507203495436e-03
-2.172622541796586856e-02
-2.807298388006226886e-01
4.578353163321048636e-02
3.093929331492549159e-03
-3.037284873614469125e-02
1.118637869126889867e-01
2.308719249491851533e-02
-1.847080369038524572e-01
5.989662830811618051e-03
-1.100963261022697322e-02
-1.619040887840758614e-01
-2.073642967312457411e-02
-3.728356596057519345e-01
-4.584132869313131686e-01
-4.757654773409497086e-03
-1.008327788469746966e-02
-4.458645372792474637e-02
1.608922445143651792e-01
-5.727051095419393167e-01
2.726612859100259745e-01
-4.834154328760068564e-01
7.793981618867205918e-02
8.676053384503208329e-03
4.292526221323645919e-01
4.587658014172035607e-03
1.641568886374370206e-01
-2.749936969073168633e-02
4.612600000029686287e-01
-6.366802511352240290e-02
1.559152905813314220e-02
-1.301862415679740830e-04
-2.701762946235620588e-03
4.347092392138978689e-01
-9.149505193315984886e-02
-6.581699079314561329e-01
-7.646188994702023123e-02
6.480332498933588647e-01
1.264394824726109562e-02
4.597271127616857182e-03
-3.196199339144453200e-01
6.299826951230121271e-03
-4.118541064489585346e-01
-9.046443911269519411e-03
7.730773490997871512e-03
4.303561307930130475e-01
2.112310402979300158e-03
5.139194954070605004e-01
6.348364943783487702e-01
8.465277316508245109e-01
-5.705461250786700647e-03
1.741046290532768936e-01
7.445022730344703910e-02
4.575890984020190566e-01
2.915190811594393083e-01
4.983458585180617142e-03
-4.172691893597203468e-04
1.893142534215758871e-02
2.844170600377303182e-01
1.017394888535689927e-02
-1.860083951888286298e-03
4.112054076011359936e-03
1.581521907277047556e-01
3.052467165048874595e-02
3.717905673544860679e-02
4.660271095150502613e-03
-7.660293409562168865e-02
1.662845409152358123e-02
-1.598996978399487290e-01
2.270471138374373365e-01
3.284562372885220238e-01
-1.990186115636676314e-02
2.522082048318560234e-03
-6.723487767898984890e-02
1.637734313995347357e-01
1.924294528248688962e-01
8.370956458420963919e-02
-4.222432717880851907e-03
-9.190333532163072472e-02
4.698210121648436211e-01
1.089589010142642811e-02
-1.894742049517810292e-02
8.656402935786297603e-02
-2.949720432988172103e-01
-2.447845988278019372e-02
2.166123698667835606e-01
-5.157381066527900321e-03
2.931813003813012533e-02
6.508199191533245963e-03
-3.454328753595979906e-01
6.886927502372848335e-03
-4.815677584260819933e-04
1.099135067951523617e-02
1.399250070000020163e-01
3.589077691060610191e-03
-3.540290597992328814e-01
-4.908271530605083817e-03
-2.540666995246749008e-02
-3.418034784752158606e-01
1.241258694266181295e-03
-4.529118985484530515e-04
2.815841725145439012e-02
-2.862426072176027514e-01
2.455740341830715545e-01
-1.705794827704815858e-02
-7.155180602234326344e-04
4.401161390873352119e-01
4.951413247980798217e-03
-2.895222971604567985e-01
-2.815216700912837045e-03
-1.407338907575561050e-02
-2.403182301093928219e-01
-5.005140353404789744e-03
-2.215273337855314939e-01
-5.115982404940826456e-01
4.964260513102660907e-03
-1.218839053724322594e-02
-2.013715982722561748e-01
2.200419723815742745e-01
-6.587190364480279836e-01
-1.236146547300898298e-02
-4.984322882303519608e-01
2.251686322530474516e-01
-5.494738579252771496e-03
3.884731342671689514e-01
-9.519743707783162590e-03
4.824540870622319733e-01
1.969342522223796466e-02
4.029349758384741520e-01
-1.012704007176639526e-01
-1.337006219078176392e-02
1.490986751246100445e-02
-9.638703681742312110e-03
4.968862368350415171e-01
-2.450340549588244654e-01
-6.283348155588327488e-01
-4.599965513206535905e-02
5.157092943048422473e-01
3.281149191575957746e-02
5.510955526415627775e-03
-3.922398445846482229e-01
-1.070597337007426911e-03
-5.759397727352898455e-01
-3.848508308319667590e-03
-8.374420409564710529e-04
4.803304930659668681e-01
-5.471437048290191292e-03
5.691791094759854897e-01
5.814318449762425622e-01
7.915225865544662787e-01
4.167111537752165966e-03
1.571290393166630550e-01
1.287578555840802053e-01
3.531270153667278033e-01
3.122324019413242335e-01
-6.667431508821881035e-03
3.924950521670616393e-03
-1.535918189536835191e-02
3.147925272848257627e-01
6.856269361364384935e-04
1.182934115411964950e-02
-2.831282825998357889e-03
6.847452572452177033e-02
6.695735286121877461e-02
1.901584669132731775e-02
-6.458215203371704682e-03
9.466793108870510953e-02
-1.448574936028435532e-02
-2.278602959145908657e-01
2.462974986532635302e-01
5.164273090811140055e-01
1.403932057427622303e-02
1.414283799743056361e-02
-4.125146641868873004e-02
1.245664372579643880e-01
3.627046239836921315e-01
1.482403137587819586e-03
9.149117960584735032e-04
-1.263535096389713144e-03
4.636702047314893160e-02
1.997200448191692457e-02
6.600474641447313939e-03
9.060048202165731090e-02
-1.566884813879838301e-01
4.694837974841883747e-03
1.010756037231813273e-02
5.528153939892026247e-03
3.444086819206667593e-01
9.815223106751304501e-04
6.163909971488401411e-03
-8.484317908456027318e-04
6.969546503342342707e-03
4.107179273788187624e-04
2.283191104154305151e-01
-2.229222444153999838e-02
1.521682879300778266e-02
-5.458928321647005082e-03
-2.289822825092736880e-02
-1.002688036923839038e-01
-9.219800470237331930e-04
-1.769176855913098118e-02
3.649139769478172007e-02
-1.166262463944753719e-01
2.546406887555649479e-01
-5.193602313729988457e-03
-4.964527563497297914e-04
3.978162824485895754e-01
-8.379300268047134084e-03
-1.582283568286043107e-01
4.528100232163466583e-03
-4.914608941615644395e-04
-6.356863800697862277e-02
6.708072375300551740e-03
1.550063299371332026e-01
-1.306474366446166990e-01
4.743358511552229866e-03
6.501676667712849057e-03
-1.497418517655908776e-01
2.463654772291421630e-02
-7.814581134608411528e-02
-2.174691671137134741e-01
-4.181801240174032319e-02
1.758720535887071945e-01
8.698550318949549920e-04
-4.347528504355122059e-02
4.437709081928255922e-04
3.785730071224575610e-01
1.477741804859368686e-02
-1.958645717775929496e-02
-1.713463066095232898e-02
-1.552019031867892624e-03
7.945307150573172831e-04
-4.352665080325335278e-03
1.763568097307895988e-01
-1.865747919626306872e-01
-1.441620616048338577e-01
3.928796209971039538e-02
-6.382155910203340249e-03
-1.793692358668298389e-02
-3.297145401929347380e-02
-1.261856540906681201e-01
9.497589193483119141e-03
-1.658243127235007053e-01
-5.350663315356092228e-03
-9.055441856922868613e-03
1.352935857963308286e-01
8.486640330097140533e-04
2.142542379876392067e-01
7.431624071252976305e-02
1.134206227449252452e-01
-1.641175230621189779e-02
3.141271870141029710e-02
9.045326661452568473e-02
2.525428972120323176e-03
7.073780453775350974e-02
-7.772111986181288491e-03
-8.963645203864888632e-04
-6.581160397696639297e-02
1.303619421573411208e-01
-9.878743239116478947e-03
-1.210548500605075802e-02
-1.214039157338802320e-02
-1.408560493237593081e-01
4.269729440290736394e-02
-4.567531664688238152e-02
1.041147924977669885e-02
2.525565931240005280e-01
-8.675756883956151078e-03
-7.455711822423022328e-02
1.159974422787508203e-02
2.393258996972302821e-01
-8.597148085517480887e-03
-4.722534873387637840e-03
6.402273845140191155e-02
-2.118641300112275930e-02
1.926114627540632673e-01
-7.665778279804805022e-03
-9.266558208687306411e-03
9.194351339606084139e-02
-7.235252579844455830e-04
3.980840175088633248e-02
-1.048062222492518979e-02
7.356964327266619919e-02
-3.855240008764008412e-03
1.620549847140162827e-02
8.661810745502129469e-03
-1.055439345083789525e-02
4.176903895541048684e-01
5.010482615313741062e-03
7.368618775312063551e-02
1.948408457823864667e-02
5.373800801006959303e-03
8.482047261407178393e-03
1.547127332179832615e-01
-2.200718994627511374e-03
2.051695132086582898e-02
-3.095630912401178304e-03
-1.328200020579592758e-02
2.688587831192685088e-02
-1.113427379947360633e-03
8.229563710157721326e-03
4.897801864812095091e-02
-3.049537308868854532e-02
1.913736031035608298e-01
-2.803104104360598994e-03
-7.307626696337404630e-03
3.592408091486682387e-01
1.212846300202068649e-02
-4.216480297455648535e-02
8.561637503720827616e-03
-1.101339872667529175e-03
-6.141319522189261221e-02
2.567941718069402871e-02
2.971248006949770426e-01
-1.176312000705353328e-02
-8.278616688499169929e-03
7.538537119310283544e-03
-7.884694412941603558e-02
3.405188063035065327e-02
3.379857622807645734e-03
-2.602021430206420960e-01
1.577620782783629994e-01
1.131649459394446777e-01
7.935341033759094748e-03
-1.319501982589998679e-01
1.198184108885760532e-02
3.086464337408492131e-01
3.464297291244208300e-03
-1.469731844912104957e-01
-2.901573071905356321e-02
4.141546306708509401e-02
8.998619125050268119e-03
-8.102663649564299450e-03
1.345525178877740417e-02
-7.031805271406491031e-02
6.191479007521745459e-02
1.633738898950632063e-04
-1.721842178850870320e-01
-1.555906128397334040e-02
-3.056846720726337160e-02
-8.138211594026442675e-02
-1.830169057450844409e-03
-1.290736824153337903e-01
8.676384502429692128e-03
2.669431944731415381e-04
-1.994499847246321636e-02
-3.333536154410551410e-03
-2.212773728448803878e-02
-1.465212838819271723e-01
-1.507751456510600108e-01
-2.526467973835035477e-02
-1.347947661162137052e-02
5.696131556614881380e-02
-1.397070880197950338e-01
-2.200644792286010273e-02
-6.007975750455070950e-03
5.837028862320019391e-03
-5.036874093518767942e-02
5.632985740156847346e-03
1.584932112777001634e-02
3.093670363247889962e-04
-2.884006657316284458e-03
-1.493442930813753955e-01
3.657518690319384175e-02
-5.745339810776865092e-02
-3.292275235640111913e-03
2.135900697296300443e-01
-1.180938242035574869e-02
-5.290255922581747761e-02
-3.046654779390051138e-02
2.057125986731591083e-01
-5.551674054130177269e-03
1.858216233578808196e-03
9.643835101364234622e-03
-6.174997569460648206e-02
1.735446926635920706e-01
-2.195580824756943744e-02
1.759721102098799365e-03
1.089188466696457830e-01
2.225344113359492004e-01
5.026248161518473423e-02
-7.333406081144325413e-03
4.981857759091332105e-02
1.473399640173177552e-02
2.502048080368515087e-02
1.748167679557925680e-01
2.726564516197993969e-03
1.041717353130968415e-01
1.936586086494332046e-02
-1.430828783965944762e-01
3.435813366864643500e-03
2.731837816382377479e-03
-1.618210693510422141e-02
-1.074167550700146773e-02
-3.112148941449265679e-03
-1.468849934001471291e-01
1.096004857652203466e-04
-7.581322621907200798e-03
-1.355651771430403940e-01
-1.133097735759739343e-02
-1.143803334473172083e-02
5.892405392226957722e-02
-8.820156655902947063e-02
7.426791209561713070e-02
1.747587560086561256e-02
3.689405144417939614e-03
1.840121817969462004e-01
6.379196525268530232e-03
2.308983880094017324e-02
-5.044321115852142164e-03
-5.094912228146271024e-03
-1.444202060205196092e-01
2.323464875556664408e-02
1.838452781129001207e-02
-1.326634187280522903e-01
-4.415588044711568454e-03
-4.187253704050342487e-03
-4.949057876463586886e-02
1.182170823030910672e-01
-1.937309102818088602e-01
-1.718063830173459927e-01
-5.421191552100798616e-02
8.596506674081792754e-02
-3.794743099631232679e-03
3.016291669603447106e-02
-6.204257650758777942e-03
2.008157056764163506e-01
-5.730753018698377110e-02
-4.667386008726873842e-02
-7.597452691745847086e-02
-1.157275537087020141e-02
-2.038149419899023922e-03
-9.830104077843366400e-03
-1.199043695501465362e-01
-1.274374465801702272e-01
5.192962510786366948e-03
-6.891782313136250726e-02
-1.740151764858635375e-01
-7.030032405316780433e-03
-9.059322596097903538e-03
-2.109106189710059365e-01
8.295723885911154838e-03
-3.086369050802761360e-01
-3.204805539448186968e-02
1.264055965058323745e-02
-5.673646994848237368e-02
2.765547626485821264e-03
-2.249346916459513401e-01
-1.954959410265854625e-01
-1.682196141473804307e-01
-3.527598808228707764e-03
1.156720227977398865e-03
3.823655789614372608e-02
-1.321700900011312518e-01
1.065071747979928068e-02
2.437154210770235870e-03
5.969309176848127188e-03
-2.926780284051259257e-02
-7.487420314612948380e-02
5.050733816022103147e-03
3.094113380028464325e-03
5.942255379503206224e-03
6.250583688636440760e-02
-2.666834756279381439e-03
1.852254740941907882e-02
-1.094549133845793389e-03
3.079127796766717440e-02
2.783492259432825740e-03
-1.113844297319437626e-01
1.797882938866044444e-01
1.551046858696807362e-01
-7.719502174065449168e-03
1.835212739817246308e-02
-5.845522089338148902e-02
2.991584753152091991e-02
2.546733044059394935e-01
-8.338391279494535707e-03
-1.237779921640541972e-02
8.199003977451516101e-02
3.273212767043736093e-01
5.411155730652882079e-02
-1.407647986063867949e-02
7.407904321091308975e-02
-2.003902365742786240e-01
6.337644534111820660e-03
2.088140470594604670e-01
-1.316411631595578932e-02
2.074865207844916459e-01
2.991765359670247107e-02
-3.814273980310757817e-01
-3.962790502723885847e-03
8.884871040550898491e-03
9.858206678470702797e-03
1.066461701383674410e-01
-3.099005663862088727e-03
-9.680441361324987337e-02
-2.387198310256748342e-03
-2.323948087914960194e-03
-3.350685373118415522e-01
7.610050649887100012e-03
-1.726861605073359840e-02
7.722965030977051171e-02
-2.333662003344753322e-01
2.125962925935012404e-01
-1.100386717973779807e-02
1.034372763892599592e-02
3.316560954070625900e-01
-1.534763739146389897e-03
-1.897513352783869178e-01
-4.867463705007807166e-03
-3.508496420714802676e-03
-1.528187234788879467e-01
4.738278426624904739e-04
6.158424908100579298e-02
-3.902541931645316375e-01
-7.992413096938922462e-03
-2.250473686103570889e-02
-1.812266142189423723e-01
1.276277689353016442e-01
-2.428554161419723689e-01
-4.002766041287446064e-01
-1.515412994735478858e-01
1.371419995464155384e-01
1.064402562586897437e-02
7.631345666322458809e-02
-1.200255675616263527e-02
4.139018783053503014e-01
-5.159670450524790619e-02
-3.327748972668242988e-02
-4.995038696228124020e-02
1.524780074404245497e-02
-4.784697004308068741e-03
8.759467164968285507e-03
-1.179189991558376588e-01
-3.565922480815298945e-01
-3.589118307036597844e-01
1.767026030911901177e-02
-2.860407395338822600e-01
-4.336230103863193165e-03
1.508845403346981487e-02
-2.491033000572392964e-01
1.602722134259939452e-02
-3.469630246983839705e-01
-2.340769987192400925e-02
1.002747861838443680e-02
-8.347509823565157916e-02
-1.271671503272051723e-02
-2.371653005673145798e-01
-2.705599414557088855e-01
-3.104565999445105251e-01
5.368223911749219618e-03
-4.249075939146592512e-02
4.784345070131060251e-02
-2.122101812917809027e-01
3.886366540167916772e-02
1.105136274666672271e-03
1.565103873934037965e-02
-4.312537321783747879e-02
-9.583373411073262127e-02
-1.897813936743221810e-02
1.602165786575164563e-02
2.234941491429102631e-02
-5.004524748374425402e-02
3.351563103391110455e-03
2.057501765158819412e-02
8.382527740952860559e-03
1.127406894082296634e-01
-9.653933756821562193e-04
-1.425485399965854272e-01
2.116004141112972914e-01
2.904263695195952177e-01
9.247123168491957037e-04
7.494733922466045341e-03
-2.114942279326235269e-02
1.484065640360579703e-02
3.465634558358902662e-01
-9.576007652887500235e-03
1.679132922081371391e-03
-2.112910154080304553e-02
3.666200522317854260e-02
-4.067402711634034163e-02
-1.378533730546447310e-02
7.963196789954889165e-02
-1.627497918491324358e-01
-1.350622351660326313e-02
3.442991580413600622e-02
1.460753789305691171e-02
2.725688007009787750e-01
1.741647841118681463e-03
-3.294693878402411152e-02
4.483082359651125934e-03
-1.629418845747993699e-02
-2.335395082947331474e-02
2.227673262824992895e-01
7.166192602447706353e-03
4.349238611317803732e-02
1.465766860292110193e-03
-1.576230511534525104e-03
-1.334797688314886543e-01
4.530232387744076786e-03
1.372220086639911558e-03
4.939874168201305316e-02
-1.338554353123397600e-01
2.354770880912014086e-01
1.590454943330004561e-02
-2.155903612824438143e-03
3.328707450583507921e-01
8.448831944433153661e-05
-1.484358794244234059e-01
-6.476414870232503028e-03
7.618647484966853227e-03
-7.429961686476875549e-02
-2.689653706650935519e-02
1.095784182985246186e-01
-1.409943675949896502e-01
-1.192609016602220670e-02
-1.536142788419554012e-02
-1.487309591495901695e-01
8.373302698497654684e-03
-3.731487572705331768e-02
-1.732135330540727214e-01
-8.945131371922966645e-02
1.418174589233712757e-01
-1.217003792434263876e-02
-3.259189721552722269e-02
-1.131778084627929832e-03
3.199539576129238339e-01
2.069981450530805969e-02
-2.958983389163875877e-02
-4.322393820926697175e-03
-1.549683944173341774e-03
8.750954292749248478e-03
-9.036181223277381727e-03
9.987248178475682803e-02
-2.115604311546860905e-01
-1.486751705108127208e-01
7.477804487443279191e-02
-7.561643501652726140e-02
2.977106961324181697e-04
2.478684241310083556e-03
-1.403495596045523375e-01
2.085714730839800107e-02
-1.542426165093718493e-01
1.375114876651347545e-02
-2.579423739738868210e-03
9.262039745230229992e-02
6.695165236109612214e-03
8.490515287363188668e-02
2.576953812699998760e-03
-3.341371408514481195e-02
5.521284677985616000e-03
4.682258290225475156e-02
5.623769648367945434e-02
-5.243886412694465093e-02
6.259110908759893746e-03
-4.469627379775117058e-03
8.302034940443564839e-03
-3.949776838584453248e-02
7.975558936838933466e-02
3.004948583281062680e-03
-1.011031789106099600e-03
7.699366691191928368e-03
-8.474310590806675980e-02
3.311249013525933982e-02
-5.412417059630408867e-02
-7.491398958749859692e-03
2.117888279634763671e-01
5.654235153059143128e-03
-4.888587341768151073e-02
3.903603013105565872e-02
1.717540292274639113e-01
1.190948796731337855e-02
-5.397160116790609974e-03
6.656003880214515778e-02
-6.980723846099696692e-03
1.639855546602551339e-01
3.950087662578682240e-02
5.712839005954829449e-03
-5.177531799641702653e-02
9.551692874230537089e-02
-9.043461844847815005e-04
-2.099117272126005407e-02
5.742324924490246202e-02
-2.420745348707029898e-01
-3.779229601211987061e-02
1.916969420097446725e-02
-1.471185298413410329e-02
1.747957680832923077e-01
4.539935519193507782e-03
-2.135271059079695000e-01
-8.055786377896712730e-03
1.987997279492162081e-02
7.900037317420869482e-03
1.721518299934859664e-01
4.287336747852154325e-04
6.134287079337519266e-02
-4.055922836043134895e-03
4.813344303943823885e-03
-2.667640202989406406e-01
1.736309496838977021e-02
-7.261431029944232689e-04
2.847020422945004819e-02
-2.423753084342135378e-01
2.217762822738576778e-01
-8.003953251911591696e-03
1.355895136339103912e-02
2.407255254477300710e-01
-1.192459087176367741e-02
-1.865388546616366106e-01
-1.066310180240324229e-02
6.044758422326248527e-03
-5.526196605115704652e-02
-3.367304127112112633e-02
6.926246042484497309e-03
-2.322865484416072324e-01
1.170728027232691842e-02
4.223658634282828443e-03
-1.463853780965119478e-01
9.152063442655664072e-03
-4.457103295121436076e-02
-1.537673242433338083e-01
-1.432099814140849192e-01
1.223458163114077568e-01
9.814068229326180885e-04
-8.349783177592048217e-03
6.097815329569157908e-03
2.533245608853648134e-01
-4.113623823919491940e-02
-9.972083109790426392e-02
2.589889624826652997e-02
2.912681111679912577e-03
-1.976797202328856983e-03
1.109052315653177509e-02
-5.794108236298321259e-04
-2.986270634841434735e-01
-3.869951939986856493e-01
8.449342569250541113e-02
3.844447371669667234e-03
-5.770267009407219726e-03
-2.120942793596239384e-02
-1.235366828292442792e-01
6.600554015170354352e-03
-1.550866751713002312e-01
1.352813822104529870e-02
9.857929961888301298e-03
3.268022751254695546e-02
4.437435237937928899e-03
2.118286376899194967e-02
3.086554122472901299e-02
-1.842090431199738809e-02
-1.747256976001419423e-02
1.666651204469695585e-02
3.550178007442494899e-02
-2.279723546725975422e-02
4.677227869519670622e-02
-1.134039924164321686e-02
1.381992420352097170e-02
2.048741801383104424e-02
-3.754054529992725125e-02
1.170270658586333013e-04
-8.636773068176457901e-03
5.537372804934334938e-03
-9.309552451262939621e-02
1.963617309604477612e-02
9.337263580379643810e-03
7.758399392784716235e-03
1.410291610622470826e-01
-1.596085659745069552e-02
-6.165444995958629937e-02
3.546040467712834043e-02
2.122263793935913745e-01
-6.523364641045113939e-03
9.268758615911285720e-03
6.413163883452405178e-02
-3.225555299125618808e-02
1.249369871653025488e-01
-5.962483579136491213e-02
-7.083261189048382402e-03
-1.803363883617710717e-01
-3.860807624585718134e-01
-4.579218218606282559e-02
1.412278089252433193e-02
-4.501412292133240289e-02
-1.351746209178494862e-01
-4.089465315544703328e-02
-2.446407181788948226e-01
5.939908740528930531e-03
1.932258782040001399e-01
1.573821040083809089e-02
4.798715072248592728e-01
-1.443858821267670310e-02
-1.046969857178109767e-02
1.592958391576527674e-02
2.243533000761281926e-01
-5.877418441999678750e-03
4.347675652780710887e-01
-9.445314562690394072e-03
-1.823164429663482605e-02
2.079390458010303422e-01
-1.446263093548652394e-02
-1.327660594380069073e-02
-7.261450720535925218e-02
-4.479682596322197979e-02
3.956792315665966231e-02
4.793975473425665657e-03
-6.112393060960896740e-03
4.998557570023103719e-02
-5.709949255935479161e-03
-1.381016668783577872e-01
3.829779508867941660e-04
-1.756323603125579599e-03
6.717928161889959171e-02
-1.266156500788360451e-01
3.288863541523149303e-01
3.582983727424113307e-01
1.650704004440489703e-02
-4.016685499370502071e-04
-2.543589732364915160e-02
-1.849293345506883846e-01
4.423741011927766476e-01
-1.483650664038652783e-02
2.050759980185277442e-01
4.384825945439083800e-02
-1.823408869479120620e-02
2.703601853890267789e-02
7.853054379890318792e-03
-5.187874308323018463e-02
1.080335015430853862e-01
9.001609177049856025e-02
1.637643377704401382e-01
2.538160900895781308e-02
-3.010837696967951817e-03
6.267467139944011764e-03
3.547631414648881321e-01
6.198800063972897262e-02
4.836494593841167422e-02
2.048667906108815329e-01
1.681635582043067567e-01
3.689377121533723991e-02
1.051039666523173599e-02
7.960033186052090093e-02
-5.542030594743495645e-03
9.669277375147890263e-02
1.090041672842029519e-01
8.099412831962891218e-03
2.228649675899150029e-01
-1.239552198523997256e-02
4.080913312140781457e-01
2.619540037866915361e-01
4.669972331341732397e-01
-1.162920014906974886e-02
5.008279889245122879e-02
3.271459199062731055e-02
1.043251088255663789e-01
-1.605164811817711423e-01
-7.326745894496364091e-03
-3.147648771119591644e-04
-1.025626260847003340e-01
2.896613540627128169e-01
4.450697425817344913e-03
-4.674225140980901166e-03
-1.721337001877498371e-02
-1.569046639326623360e-01
4.792287369559350418e-02
-7.093219210532858421e-02
3.505512732466766184e-03
2.148680955874187615e-01
-2.136081731283749879e-03
2.031832410175351059e-02
-1.878816396759268037e-01
2.905240266767963875e-02
1.931276611257203013e-02
-5.103130585426820728e-03
2.259214940394938809e-01
-9.285792871918632785e-02
-2.975124682722919411e-01
1.237305884327672030e-02
6.597470773414495018e-03
-2.672222772144000613e-02
1.354157965469971192e-01
2.326642264299096097e-02
-1.030952415340939156e-02
5.184072026787783088e-02
-2.020241936439578501e-01
-2.250553864025989833e-03
5.808056593409097190e-02
1.703808538333555700e-03
1.303003530768457596e-01
1.602040766221092755e-03
-1.202715319493162099e-01
5.786480442106213496e-04
1.346181599615907040e-02
4.062730732638192808e-03
1.272039839101257175e-01
-4.441994655434378103e-03
-5.590669257001909531e-02
-7.663180638923725897e-03
-3.670251178449550344e-02
-1.800977677206085370e-01
2.070770187428651321e-02
-1.989942453961113150e-05
3.159860574582070564e-02
-1.417303527331419954e-01
1.663398387643830745e-01
-5.306593443594479799e-03
9.446838929644787303e-03
2.416659510425361868e-01
1.432750075124851431e-03
-1.438308631292705975e-01
-6.761179925003244114e-03
-4.325237022756558795e-03
-7.410445977572996390e-02
-1.974876016530199493e-02
7.900281629518743007e-03
-2.081281445591708634e-01
-5.647266634497388402e-03
8.786414454133613730e-03
-1.018735532508492636e-01
6.762967927336847873e-02
-1.802847186196638307e-01
-1.546613956776858312e-01
-1.321249298950563367e-01
1.348370638705250757e-01
-3.661453844034343996e-03
7.014100220850667811e-02
-2.321369019369606118e-04
2.689350443503631394e-01
-2.940535161250476277e-03
4.755805457277435810e-02
-3.141584515435091179e-02
3.250800148884312041e-02
1.158397204262747414e-02
-6.139904286090612853e-03
8.669638162640323775e-02
-2.031649257780276940e-01
-2.791814010132563917e-01
1.483474375280786385e-02
5.103281146967384579e-02
-4.166172545932183245e-03
-5.664909027989176171e-03
-1.270731160813844962e-01
-2.465578291681758561e-03
-1.666134548072593646e-01
-4.501541136069308127e-03
1.411884976732663381e-02
8.476875619600854339e-02
-2.063173516578145020e-03
9.911760354200255252e-02
7.216629075170095942e-02
8.973351866695174206e-02
-1.144254244515775440e-02
1.386105154843139502e-02
5.335609054353589176e-02
2.543278963357880479e-02
8.134332941013659724e-02
1.660644096101436540e-02
-8.549575079671484917e-03
-1.585962877686213426e-02
5.368818633945855734e-02
-4.464193910056225671e-03
6.405375415221028178e-03
7.669463056520798953e-03
-7.819461188532632334e-02
3.382867196211402500e-02
-3.792554614064943055e-03
1.632266270949305365e-03
1.148362645631048201e-01
-2.111829908478346160e-02
-6.507599233335419064e-02
7.471972890817876745e-02
2.421246984986624162e-01
-4.880806619257670870e-03
-9.285062248505466381e-03
9.520942947981513721e-03
1.843783447081830465e-02
1.713744587455422186e-01
1.082958750240914543e-02
1.133769869341242839e-03
1.046979722861937773e-01
1.180112235495124340e-01
3.858188608758895966e-02
5.923734605941212948e-03
6.923562255766219087e-02
1.178316264591514340e-01
5.108989432671661585e-02
7.072565550491163866e-02
1.804258810346359015e-02
2.456668801931849444e-01
-3.110903387821347191e-02
1.167169481231743536e-02
-1.851485144582469544e-02
-3.916111960965394830e-03
-5.606854396327126157e-03
3.212726703423619823e-02
1.439757549730586415e-03
-1.891784162111986300e-01
-7.502162965457414255e-03
-2.148951962562562976e-02
3.980092094394735436e-02
-1.434605560814922014e-02
-4.325635334385602958e-03
4.960183918740845160e-02
3.788056761098677894e-02
1.529447469154960326e-01
1.895666354030771990e-03
6.979807424614892057e-03
2.620430689366607391e-01
1.942331913730686518e-02
7.116033910759252124e-02
1.527124295315753551e-03
2.111662282413214950e-02
-4.701810409866073043e-02
7.612011570776211489e-02
7.750743698487722044e-02
-1.235306161501570008e-02
-1.300136496021899943e-02
9.767318043033660496e-03
-1.805717309205256624e-02
9.628350773333958779e-02
-1.974896100664991494e-01
-1.216168126888456519e-01
9.100114638326756156e-02
7.526641013231753774e-02
-3.103220878517246647e-03
5.598045329522436525e-02
-4.764604481526060753e-03
2.550920048382152028e-01
-3.467266893384990650e-03
2.211570615652598288e-03
-8.562938810089072705e-02
2.562147332245820475e-02
-8.798990435636087556e-03
1.981886261037596898e-03
-6.106221519882862672e-03
-1.970876646691541775e-03
1.494999608423055737e-01
-7.157682175880036857e-02
-3.828014904976076438e-02
-2.868044694091457375e-02
2.437706851126134836e-03
-8.750690472470021297e-02
-3.375017959314611377e-03
-1.071012584502675086e-01
-4.223931144163826923e-02
8.935962207368964433e-03
1.700717136925784106e-02
-7.253816774261375236e-03
-1.435414285262451338e-03
-3.498863514121443308e-02
-7.201891405334084895e-02
-6.362705878185511907e-04
3.392616498857667362e-02
2.802220766862145371e-02
-2.112310132274316035e-02
8.793600236240527168e-02
4.637536321983515742e-04
2.412691940923261408e-03
-4.709683338181668705e-02
-1.685361666081916423e-03
-1.315196000014126967e-02
-5.400649440904366390e-03
9.267740975694748959e-03
-3.080296817798588993e-02
2.564495803325983134e-02
-1.083217029745879925e-02
3.349635753398261858e-03
1.074269978475419357e-01
5.870311612332530619e-03
-2.438351968601429332e-02
4.433094112868096043e-02
1.805845072113415051e-01
-1.100764058366838702e-02
-3.936720015425904042e-04
-6.589407436163079168e-02
3.928115974459479159e-02
2.180448021900711353e-01
8.659866120094179831e-03
7.387412756878508104e-03
4.470211517680531405e-02
4.159173248696688280e-02
2.314488677698118765e-02
-2.487417729393794942e-03
4.119357056530846550e-02
-3.927043207758942715e-03
1.082543550908481728e-02
3.998259276378598320e-02
8.709568930516739180e-03
1.741229141442672268e-01
1.623241989907338659e-02
-1.609461899381821326e-02
-2.474507143550909449e-02
-2.048162891328200036e-02
-3.547305864542361475e-03
5.912811310793331110e-02
9.409269947180661647e-03
-9.976406480835225965e-03
1.435526508678151804e-03
-3.158502818619686459e-02
-1.004139408606020620e-02
1.162975879040958893e-02
1.288647346981330183e-02
3.139441305590459641e-02
-1.764467553232898153e-02
9.611608558838109773e-02
1.360319748938703180e-02
3.528287933779092420e-03
1.656536707991693724e-01
1.307927496275887967e-02
2.856585490521558728e-03
-1.409983246148449436e-02
7.472965709390643266e-03
-4.709502804612895194e-02
1.271847230343587688e-02
1.220000141247193914e-01
-4.825872912913414803e-02
4.900647982892385483e-04
-3.757381197774014355e-03
-5.130291513538743492e-02
3.294230621745677934e-02
-1.783197180464239293e-02
-1.598297156545639419e-01
6.421380107250823643e-02
6.372775457129935262e-02
-2.784308004784709616e-03
-5.652033167307544959e-02
2.877886793805072008e-02
1.584161142707548875e-01
-2.364978517161866328e-02
-8.285624553204218312e-02
-2.368721432385722039e-02
6.928369088529409692e-03
-1.516127850382158367e-02
6.024263464007035239e-03
-5.694577483556688413e-02
-5.482133175707586820e-02
6.738052202248064233e-03
2.631218924046168847e-03
-9.583596453543387350e-02
7.588359168910051994e-03
5.120414075386303318e-03
-5.650540485560481135e-02
1.064827455465978089e-02
-9.995083900518363096e-02
6.203357560929102267e-03
-8.209192443025505742e-03
-5.303429042207288141e-02
-5.147846081705273816e-03
-8.066639108577662587e-02
-1.076829762702624649e-01
-1.239107555261362015e-01
-4.499855154093633340e-03
-2.285917855759289283e-02
2.641268483584891316e-02
-9.482765513508070732e-02
3.750594918959172970e-03
7.156715552664899213e-03
-5.183518169098101647e-03
-6.729161546324599272e-03
-3.690249457178149117e-02
8.507929372420472078e-03
-1.063145650187670779e-02
7.856153094620239646e-04
-5.824891129678209239e-02
1.927291803793282181e-03
-2.523356185946584729e-02
-5.016390897158133286e-03
8.038449122091773091e-02
-1.942818429889761828e-03
-4.565612526060257303e-02
1.530695948475534023e-02
1.057078988358621102e-01
5.256583830978770605e-03
-8.195639598193317152e-03
7.766763440964579400e-03
-3.005896942988747420e-02
1.108578777855467185e-01
-4.086546679179826023e-03
2.221979601770500759e-02
1.683364858769295924e-01
4.897182987663663556e-01
7.578269103596879663e-02
-9.946651505167531868e-03
7.312352593183932270e-02
-4.334194028953414842e-04
3.806928328921525828e-02
3.406357190828941950e-01
3.529228213104404922e-03
5.531129013682829082e-02
2.027098486987408479e-02
-3.663990477306863780e-01
5.728871490662341449e-03
4.180425071613686101e-03
1.270110916588242621e-02
-4.658326674942365325e-02
-8.860887565107633881e-03
-3.286977796057692913e-01
-1.319644799677483632e-02
9.539242747917630466e-03
-2.513022464323968475e-01
-3.760222868851129628e-03
-9.328037017633275876e-03
1.273677588326135035e-01
-1.004092558222871301e-01
1.365433084619480930e-01
-1.093082835516433031e-02
-1.766347981012098695e-02
2.196402292478868978e-01
-9.098442098876160719e-03
1.918401113767445945e-02
1.256517212927514213e-02
-8.747468055900675579e-05
-2.342306917614836448e-01
3.034531878634998472e-02
-1.154627504184348452e-01
-2.882616943639133011e-01
-1.007227856646707642e-03
1.134934105935321916e-02
-6.347435589025379743e-02
2.568468009703752108e-01
-4.301807598363794338e-01
-2.514576968038282900e-01
-1.918823680296821155e-01
1.155533439051198430e-01
5.173189864606934137e-04
2.146581217763380844e-01
9.288106900236023714e-03
3.301181328478361432e-01
-7.755885473415112530e-02
8.457346022124891116e-02
-1.324702118061726885e-01
-7.801408620035749433e-03
-1.520315349541637509e-02
-3.704914098870594561e-03
-1.922797888520048903e-01
-2.489152226418723246e-01
-1.454745766220014724e-01
-9.122051584509514865e-02
-2.941176324209078263e-01
-1.484616911503968371e-02
-4.533380684703453706e-03
-2.646446320361559024e-01
4.788038941979659742e-03
-4.400329155410775406e-01
-5.980611294948296602e-02
-2.148123533055121964e-02
-1.169901237904573260e-01
-7.522110933219494124e-03
-3.082159541789897261e-01
-2.714961899154169633e-01
-3.565502187912626963e-01
-2.202538821992570776e-03
-4.197438212195402779e-02
4.067959894955203853e-02
-2.199334907421903740e-01
5.475681397516233423e-02
-5.227143399138477545e-03
-1.536444624445849894e-02
-5.870894732265575199e-03
-1.407467770809859298e-01
5.525869216511057440e-03
1.144752473616810796e-02
3.050224712908176580e-02
1.942115298995458206e-01
-1.494093853819514379e-02
6.274534144981346040e-02
-5.961301295905369231e-03
-4.003046878991289859e-02
1.874704189996472328e-02
-1.626214773460464558e-01
3.619758425410437574e-01
2.300709735729468963e-01
-8.968832793721839272e-04
-1.572572000510691695e-02
-1.014728536607707177e-01
1.067428742372972528e-01
4.890146131210839076e-01
-2.888948548282938705e-03
7.276461746327112651e-03
5.902367396348821328e-03
8.321674119582755935e-02
1.052485636516799217e-02
3.810566256821603954e-03
4.071169596733267143e-02
-1.309990037256012763e-01
9.461426415792919403e-03
6.518364898711960509e-02
-5.468205335684524736e-03
1.404070375900551004e-01
-4.932104428683511954e-03
-1.179079308109504121e-01
-3.037645773137980995e-04
-2.516140842246549630e-02
8.216455219662873941e-03
6.773634315361902469e-02
-4.821917916035901863e-03
3.688270571507414313e-03
-3.179833584938175986e-03
-1.243307878029020069e-03
-1.092227072612522304e-01
3.719979049363547098e-03
-1.080850154692273267e-02
4.747127029908702889e-02
