1.585008827434362727e-03
8.361328515261532562e-03
-2.349333218564308989e-02
5.067846204719183428e-03
-1.084256999112924620e-02
2.247345282143143469e-02
2.414526384912846213e-02
1.634481067312235775e-02
-3.113253600066180626e-02
-7.321033320559807225e-03
-3.348044258505151419e-03
3.935451060204816359e-03
-4.332874899647426448e-03
-2.196713383450438380e-03
2.641529220119224683e-02
1.233598015780554107e-02
-5.055851189303381225e-03
2.001630249637176631e-02
2.493393263880672867e-02
1.639826413043696295e-03
7.497705555058849052e-03
-5.548813184916079506e-03
-2.169695856803501716e-02
1.879455971221491786e-02
2.615133184655160301e-02
-1.844393294915192688e-02
1.554471699965688687e-02
2.724575771845360803e-02
7.483256899024275793e-03
1.942395348363476493e-02
1.178270164795950335e-02
2.883400674565252987e-03
-1.576219252089602549e-02
-6.688135405371804267e-03
-1.967146195318739479e-02
-7.894018475190271722e-03
5.005760582538836337e-03
7.059625482710133078e-03
-4.267738518396420495e-03
2.248311634796110528e-02
3.328961316500349960e-02
5.698939980918099439e-03
-9.919800722693565900e-03
8.094029685394563134e-03
-5.964911125877066407e-03
-3.027582589270518681e-03
-1.452894446545829540e-03
2.967279268362272432e-02
-1.745144142946625926e-02
-7.416966944403303487e-03
-9.753333941349636577e-03
-1.271569782900824029e-02
1.420502438960399155e-02
6.499288776727903116e-03
1.479647476929560335e-02
-2.500013844644469532e-02
1.633780256267630682e-02
4.207980972832659101e-03
-1.209089985147488409e-02
-2.928848094233293866e-03
1.416885470545774326e-03
1.588658486094720809e-02
-1.739960490941010315e-03
2.306447639239081037e-03
-1.198260632205222454e-03
2.643294925996836527e-03
3.930989584890913664e-03
-2.902417556077371494e-02
1.117727094149226739e-02
8.301937094593873218e-03
5.335229477399801475e-03
-1.161837569749631788e-03
-1.279494719321309752e-02
3.606962899235314698e-03
-3.116543288010058255e-02
9.741606403796641833e-03
4.000521059950096041e-03
-2.051895468016025435e-03
-4.057205818170297497e-03
-1.838747427117013236e-02
-1.142842671113606995e-03
-7.428279380853647536e-03
1.416427038945773089e-03
1.283563063736158777e-02
-1.365253062516642510e-02
-3.295145254810360330e-02
-3.405606081524602865e-03
1.421579783050308694e-02
6.655159125584745629e-03
1.457872057069928458e-02
8.070614403851658972e-03
4.556073480121223922e-03
1.330464569993083240e-02
-7.023396516578781163e-04
-2.454072152199924389e-03
-4.915160481848469994e-03
2.558808581515111327e-03
-1.127120601868184663e-02
-1.663284876986112146e-02
-2.567463869159228827e-03
-1.880789339774436436e-02
-5.732388994547586367e-03
-5.921952030620474330e-03
1.291813774099258381e-03
-4.766653128434693472e-03
-7.813534361372049056e-03
1.660825450221014438e-02
-4.621003192629675495e-03
-1.392697178609058131e-02
-1.217364555393380537e-02
-5.977969611871375259e-04
-7.371115333746208753e-03
3.776637021345109931e-03
2.955690260152328899e-03
7.863153561721597518e-03
-1.220175953159664123e-02
-3.914669892293221910e-03
-5.292351222689093771e-04
-1.122361918786234612e-02
-1.321523092285810386e-02
-8.810193768561666583e-03
-9.868867467615406383e-03
1.830713503053156077e-04
-1.147154862305018071e-02
-4.193934095552274283e-03
-7.365527877836326384e-03
1.945771619045249048e-02
-2.200763359373897506e-03
-1.347626823168214701e-02
-1.580022417035598439e-02
2.997784364270411443e-03
9.512310151610721756e-03
-3.885902258432066760e-04
1.122199540782594686e-02
-8.110303805621487186e-03
1.066624899629053588e-02
-2.275103516948002742e-03
1.106716029143534584e-02
2.578119615259722754e-03
1.198317810563401774e-02
1.016044283235496490e-02
2.068688734238108198e-03
-2.194135439887934594e-02
-1.350178209731068071e-02
2.558853889647582855e-03
1.535393749029310929e-03
1.088650810969408675e-02
1.337226171262154498e-02
7.767662639533834791e-04
6.060289816244398414e-03
-1.386382272779905153e-02
-1.370349257164348369e-02
-1.126678696955314869e-02
-1.232564774526423435e-02
-3.725557219879105809e-03
3.673505873833540335e-03
7.988570551499114131e-03
9.081956534769987377e-03
-3.413917044128975033e-03
2.454291366969519814e-03
-1.763071211959016046e-02
-1.249948256966115258e-02
-7.695779813902902354e-03
-1.168175772884589431e-02
1.301288828837611142e-02
-2.137787262482365724e-02
8.498674507109166623e-03
2.079167792442692536e-02
9.375025570326408000e-03
1.467315937382543227e-02
2.045221227196801581e-03
2.942655899002924805e-03
-5.500247621041946811e-03
1.159881882951060289e-02
2.084026449827636879e-02
9.631851711892666645e-03
1.499034653818516688e-03
2.275312327570095869e-03
-3.098785431936922768e-02
2.505726189052620220e-02
-1.258550217284688799e-02
4.389392669991448379e-03
6.786557638127242373e-03
1.979310244191049076e-02
9.463228952321200266e-06
2.588683667455318922e-03
2.785991393732021107e-02
8.292243129992785122e-03
-2.207484525079370444e-02
8.894375762940040508e-03
7.593706636150196303e-03
-6.215200025106292631e-03
4.437240030374905130e-03
-6.633982653620641191e-03
-5.660908976798149179e-04
2.313406416524220119e-03
-1.614568064099208833e-02
6.558979611050460602e-03
4.355662866946220270e-03
-1.702245524992443762e-02
-1.176317674465936734e-02
-6.968000960083421853e-03
-4.748190983125496166e-03
6.896283338626463255e-03
-1.128788535810707101e-02
9.009773816858154035e-04
1.720693546336371461e-03
8.729695032365711663e-03
-1.809851394114203246e-02
-4.573458952668887217e-03
-9.429854069905867220e-03
-7.112431178355621726e-03
9.821743439396511330e-03
2.027613978149626905e-02
1.245996042896081561e-02
-7.442896567303998109e-03
-1.235352263079611025e-02
4.595751904180878956e-03
-9.488877053864783889e-03
-4.232717913997961941e-03
1.445330835682245938e-03
-3.696386979522553202e-03
2.976223715578307609e-03
1.031967730274827976e-03
-8.722693067387387450e-03
-6.530322061287566031e-03
-6.648764361672681103e-04
5.997248970796166707e-03
-4.808174680120728961e-03
6.151961772646818115e-03
1.705705815038736223e-02
-1.607501470418653579e-03
1.117603638904856624e-02
1.199629569065378126e-02
-4.865313188800437540e-03
8.545012318051421404e-03
-1.659906790401463605e-02
2.355117540153324474e-02
-9.630340504536863064e-03
-1.747413107565135015e-02
1.282254797246848779e-02
-7.644021530728109005e-03
2.384070916890469391e-02
-9.494412810441086453e-03
-2.494552869422476428e-03
-2.045377220679035508e-03
-2.084199914464522510e-04
4.455546412781265231e-03
-1.912879014250132249e-03
3.006750418522064101e-03
-7.477762375641315573e-03
-7.539317552834265586e-03
-9.223836038366253764e-03
8.703054097659158970e-04
-1.049692634076339164e-02
6.564916379320109678e-03
4.832876252824925764e-03
-4.046963592329941815e-03
-6.071858214296416839e-03
5.002483467880536674e-03
-8.028610795199783018e-03
-9.919542222409902937e-03
2.225579077506809403e-02
1.070052148781672902e-02
-3.384701435935536309e-03
-1.750360259842251645e-02
1.389816718965517818e-02
-8.242122304680453773e-03
-1.050727289185118818e-02
6.178688711032138438e-03
-1.400464323370016057e-02
4.246497606874891605e-04
-7.958574916182258041e-03
5.143328700985713015e-03
1.109941596757038976e-02
1.767201989564836685e-03
-6.775837079932869184e-03
-8.029257863349934443e-04
-1.630151299042393535e-05
-5.643913041886924886e-03
5.092789490174881931e-03
-1.124564994941834421e-02
6.084894453847199819e-03
-3.125110928169467887e-03
2.302535625188898566e-03
9.307745356985371032e-03
8.388048405566993996e-04
-9.569049799774774880e-04
-1.166588015923782605e-02
-2.399559466094471419e-02
8.807544737306664123e-03
-6.128213347211261888e-03
5.012922153617429492e-04
8.989160101688263224e-03
3.273025544886262739e-02
-7.637576089121094272e-04
-3.970425922334695247e-03
-4.622508102608191040e-03
7.106706860150490725e-03
-9.131374344128069184e-03
-8.009926507497044934e-03
-1.380258195922301999e-02
5.179500609106573415e-03
-3.081969897817965313e-03
-4.090814839129378738e-03
1.451224746070266247e-02
-2.335692227897189638e-02
1.754606457162081546e-03
-2.603076742826054835e-02
-1.099638285918582217e-02
-1.050178684439270760e-02
1.375997862763219705e-02
-6.778147571424150176e-03
-2.129308996205195662e-02
1.365001626654438992e-02
8.495336878140332185e-03
-2.656971550402213982e-03
-1.695159998491191367e-02
1.185955427651304295e-02
1.033931650937965248e-02
8.575130316611747489e-03
5.400723105982115947e-03
1.302112393105886445e-02
1.175002115913190495e-02
1.227627016140318827e-02
-3.310604142946764646e-03
-8.491934134222445252e-03
3.730948308993133587e-03
-1.234279666977287004e-03
1.165515992373954059e-03
-7.046716053567019704e-04
8.548190589228605793e-03
-2.047386157480731231e-02
-2.216168448582069364e-02
-2.588803657719796966e-02
1.520108290106254000e-02
1.847963696125404709e-03
-5.253152968277431840e-03
-2.527339084759128510e-02
6.435813188985842898e-03
-3.568438678170880295e-03
-6.336213294440133995e-03
-2.096021987460041508e-02
3.963975935203680780e-03
8.279721341167391516e-03
2.030769606572285432e-02
-8.918957832467879279e-03
-2.004239048406847648e-03
-3.343053850701977522e-03
1.016971241502979961e-02
8.211299214106146035e-03
-5.768803265352566607e-03
-7.382616201680105607e-03
7.850401545750578317e-03
-1.067567218867030571e-02
8.400648427884993205e-03
-1.135230977828363685e-02
9.480787559608542733e-03
-4.542930600112893118e-03
3.064770673160279769e-03
-3.047919184423264916e-03
9.729004971910688512e-03
2.114992425603020448e-02
8.890304940388775445e-03
-4.529505118686023325e-03
-1.757197546784066561e-02
-7.151754934977226467e-03
-3.132226358278717131e-03
2.091601039749033802e-02
2.943311969554729575e-03
8.103667351894614304e-03
-4.861898947892833583e-03
1.175067844736884517e-03
1.045889027524450447e-02
-2.609470634928691673e-03
-2.130809690360322209e-02
-2.333378872967065490e-03
1.254391051256397056e-02
1.003702979843501888e-02
7.633687775244029673e-03
9.524235274472443724e-03
-2.381203162096255394e-03
8.388283884990712508e-03
-2.146681287413806840e-03
-2.075591517475706548e-04
-5.902185606402246890e-03
1.906391136459351099e-02
-4.015874447969193864e-03
-8.562349614085152869e-04
1.579423659860598392e-03
-3.126355097172104063e-03
-1.071650550527109062e-04
1.060253471424212057e-02
6.152840475221041903e-03
-4.298704497901862515e-03
-1.245699778657060556e-03
-6.582384608861828294e-03
-3.702514237317002486e-03
-1.040558592782362887e-02
4.853424182816556444e-03
1.497027045269017261e-02
3.650682933909142440e-03
5.636453079549954767e-03
2.825950757932882071e-03
-6.860113206882085396e-03
-5.984859699093978379e-03
7.503150114874599513e-03
-1.082454109066208724e-02
9.707064840672125286e-04
-1.268158235570086834e-02
-3.230905937196010963e-03
1.071204623877550048e-02
-3.123544740794525348e-03
1.009106251786221452e-02
9.613262954178282416e-03
2.163462217808870443e-03
5.749306135740167405e-03
-9.107827764512839734e-04
1.061216652270228870e-02
2.772685576240517102e-03
-2.014757883715700276e-02
7.226936084643536748e-03
-1.074727647186779662e-02
1.399399847968807106e-03
4.624351741551304372e-03
4.163470943640052227e-03
-1.352177136953234540e-03
5.752431163432023464e-04
1.497993339062253168e-02
2.917318307724443144e-02
-4.270302001427157997e-03
1.090509879001905257e-03
-4.534301537841918701e-03
8.878842157317089548e-03
8.504640372240088522e-03
1.206438440388233474e-03
8.087161091464957832e-03
-4.880268718150149480e-04
1.135617684768343814e-03
-6.193090374812787631e-03
1.367618348673948353e-02
-3.688868696390043274e-04
-1.312916174194475073e-02
3.150343431555922727e-04
1.825508141583793292e-02
-1.872804827314571152e-02
-1.290735662630969859e-02
1.845384225681977923e-03
-1.283033591291121017e-02
-6.955041902521425998e-03
5.199614956486847163e-03
6.709242509203150592e-04
-2.662239303127937953e-03
5.877563010191605951e-03
1.303796234600884500e-02
1.964751937438818583e-02
-2.202297619811188355e-04
1.032464610407040316e-02
-1.571441727573971367e-02
7.951086964606193103e-03
4.220314446342682616e-03
1.214956185774237899e-03
6.885562617423763611e-04
-1.529219440026154640e-02
5.798577232830620307e-03
2.091824481804722361e-03
1.009926106339243367e-02
-5.698309194254578061e-03
-6.059389784351538674e-03
-1.994014416735103573e-02
-1.230694458808441168e-03
-9.831390374813290395e-03
-9.324328855665931989e-03
-9.938943833862684193e-04
-9.344841299314185848e-03
-6.895565974147541480e-03
4.730764239671517157e-03
-1.688825061710632616e-04
1.159074229469771178e-02
8.259068024204778424e-03
2.365061392343933283e-03
-9.198425540670379652e-03
-8.022755965696664465e-03
-5.426808908001490815e-03
-1.264989737769766504e-03
-4.367530107307248700e-03
1.403863705879640836e-02
2.559025336019754050e-03
-2.435859828885334681e-04
5.252796077240594677e-04
2.142359040112471261e-02
4.113123068573926698e-03
-2.681567269348163283e-03
1.706282228779940069e-02
-4.259087708060533758e-03
2.469918694720801486e-02
-4.409548041102996987e-03
1.058861206073816348e-03
8.340460327530796816e-03
-4.250028336280363243e-03
9.552140092076090438e-03
4.434507875851890872e-03
3.178069410658904397e-03
-1.165963077080562835e-02
-1.218382057699052279e-02
-1.812520406392082286e-03
3.446193198570132732e-03
2.885734872169756597e-03
3.446329242399950085e-03
1.626429049551588249e-02
-8.008301479119905864e-03
2.171775262021010278e-03
-6.543096089368365988e-03
1.756183011126912288e-02
-4.333709448059790918e-04
4.042191885672254820e-03
-1.539767698411804303e-02
1.687981481338591064e-02
1.214771578791888455e-03
1.829971374330330303e-03
-7.580524837054802368e-04
-1.042509059564558638e-02
-1.537708293192295919e-02
-6.911142568828545357e-03
-1.552850512383376546e-03
-1.300318420335069142e-02
2.143970615200288532e-02
-2.108309435525782156e-03
-7.716453594908741914e-03
5.402813625660235659e-03
1.381089248708621854e-02
4.417480521753510726e-03
-1.554368691951373135e-03
1.064746819487322020e-02
-8.575014916200300250e-03
9.126233611848440924e-03
9.358923949129505787e-03
8.012535010924562787e-03
2.171448239632758903e-02
8.847452906660909985e-03
-3.064715537757940582e-03
1.586694116915238553e-02
-1.581274900984530824e-03
3.094049811938364390e-03
-4.765504957800393952e-03
1.677729460716089263e-02
8.096885114908160958e-03
-4.735147872139124255e-03
-6.256115759768591383e-03
5.118197658458016521e-04
4.779970109083379187e-03
7.201364710057512816e-03
8.827050596656131967e-03
1.131905265400820352e-03
-1.435623428782414369e-02
2.799918935891451124e-04
-7.394609915311101123e-03
-7.272241108296955206e-03
-1.435917708519503753e-02
9.464494722927931439e-03
-9.073978234167539431e-03
4.461879262616457419e-03
-7.123983525246176812e-03
5.973045238921131754e-03
1.264766996391480242e-02
1.100009240412781579e-02
-1.680492487981354727e-02
-7.084415595614125885e-03
-6.182557133989692588e-03
-5.188132673861824661e-03
1.142898030198196725e-02
-1.061615832926861118e-02
4.723903945497974835e-03
-4.577421429491649631e-03
-3.487719096795237859e-03
-8.264165325664462811e-03
-5.987848445642167741e-03
7.323089126044702094e-03
-5.540104559421361137e-04
9.931342020131950915e-03
6.774270681995754780e-03
5.780105352731232035e-03
-4.901993891135707215e-03
1.059601502728673220e-02
-2.316777528844830240e-03
-6.516099875956412463e-03
9.874121912388509389e-04
-8.989684125891713243e-03
6.060963116537147061e-03
-9.976137454326442291e-03
6.828401480289034674e-03
4.961190928166885235e-03
-1.400057790551934890e-02
-8.133208922463294396e-03
-1.056708739621008836e-02
1.777938719401217157e-02
1.251966719170688122e-02
-2.029599761618774924e-04
9.149425937850182156e-03
-1.975161806276252378e-03
1.371050326225542806e-02
-1.698727143345892671e-02
2.161866697764532053e-03
1.869638229946036026e-02
-1.411200378816359659e-02
-1.072193806632225702e-02
5.524984878323970124e-03
-5.475241351931726431e-03
5.770490024940953463e-03
5.143444626698767154e-03
4.228507489409233031e-03
-5.267628361871236863e-03
5.076770455260693274e-03
6.198068088223084374e-03
-4.221955012098640991e-03
2.781722078911466264e-03
5.800577014271912982e-03
-8.156904816782838824e-03
2.479099959251122344e-03
-9.806627008525201430e-03
-2.563675635089967663e-03
7.411707646384234132e-04
7.126051617899671099e-03
-6.390853066184212783e-03
2.469792305830343423e-03
2.884562358422325477e-03
7.261503254869549825e-03
-4.804946877165804445e-03
5.018998074582047345e-03
9.600249616901250505e-03
-7.971585286163745260e-03
1.319060816860938463e-02
3.515332703238953534e-03
-2.902015802334202959e-03
1.804169492961562107e-02
9.793316423221687123e-04
-1.011952304607728961e-02
-2.618057119410072998e-03
-7.271097540941973852e-05
-5.924889211549775984e-03
-1.363270504083064980e-03
6.514226277540845255e-04
3.860043173608501341e-03
4.951946570825507127e-03
-1.235387383317566347e-02
7.159601442695041028e-03
-4.791081557390289292e-03
9.375381536792837950e-03
7.937213690741700203e-03
-2.090938551306210577e-02
-3.434833896774971973e-03
-6.005355366646152222e-03
1.180165974587530850e-03
-1.854277847639384559e-03
1.701881490483661205e-02
-6.785893540555034201e-03
5.162195326066317674e-03
1.109789079482568878e-02
5.398402016278738835e-03
2.592809047592519248e-02
-1.863578238330049555e-03
1.647189740417431825e-02
-1.196481171752381001e-02
-2.091924617651290050e-02
1.756724123328861145e-02
-6.770372733561695090e-03
6.727295307143442947e-03
2.650429860725739099e-04
-2.300202250990264919e-03
-2.440358740676159405e-03
-1.392830597236730493e-02
5.720021804431909369e-04
3.144534563712715006e-03
-1.518959439583621694e-02
-1.633108933732869104e-03
-5.812976696889704444e-04
-8.603964848214218017e-03
-2.798995712639384546e-04
-2.750309525004965977e-03
1.068239312288609376e-02
1.574421645780282181e-02
3.591939155536859156e-03
1.285426908690988227e-03
-1.023297764569639987e-02
-1.509108184810801535e-02
-4.302177114325968742e-03
-1.373704845789460935e-03
7.628881795012822618e-03
1.463134822642965342e-02
2.907904032345393769e-02
3.089841824372657666e-03
-1.472855357123220880e-03
1.423846237823549882e-02
5.587496518634461722e-03
1.073513810390519128e-03
5.705682920355640555e-04
-1.093225594936298242e-02
-1.605124191353399579e-02
4.902907080595935059e-03
-2.962267656976208877e-03
7.686293110691308841e-03
7.664562400161478370e-03
3.431040994397573183e-03
4.391270049784186391e-03
-1.438816936327757321e-05
-1.250497433986849129e-02
1.478954059400082802e-02
3.722147095102008602e-04
-4.848780070727407021e-03
2.458056945037981160e-03
6.284061699251505297e-03
1.256223042717970369e-02
-1.571061241861034311e-02
-1.900726460529625003e-02
-1.455426391506173299e-03
-1.727917366237182936e-02
-1.057452798443842684e-02
-2.715264921811374847e-03
-7.481713950384223655e-03
-2.061536252085233861e-02
1.109328378830125479e-02
3.450768789251616731e-02
-2.164207939018339757e-02
-1.182182192012662912e-02
-1.267554398898297283e-02
6.308963670386106767e-03
1.135447257552450436e-03
4.836751307137800680e-03
-5.849358808409840620e-03
-2.510552079782706579e-03
2.324926667848763173e-02
5.162742857420182276e-03
6.821094026839382915e-03
-5.714117642434311806e-03
1.841247354071917685e-03
-5.502467474397236373e-03
-2.329458784535670332e-03
3.008548154794255317e-03
2.106205769454700088e-04
3.810465136022345915e-04
-6.986041643006071257e-03
-2.699677836599002206e-02
-1.765826183003824448e-02
1.186244705064311636e-02
7.984523643099225229e-03
1.131768119989650517e-02
9.114810081319665511e-03
1.027107466965620662e-03
1.724403669097219257e-03
1.260429059034955937e-03
5.553676109901752207e-03
-3.088606180563330624e-05
-8.279412270999658360e-03
1.604393227905569902e-02
1.037204708572024396e-02
-2.491584174759597665e-03
1.143277361274856914e-02
7.189430040739416307e-03
1.308198042312004941e-02
6.688004269879764367e-03
9.127988778474600828e-03
-9.409361612853068407e-03
-1.006502659375284672e-03
-1.154229230419195375e-02
-3.924858779755667840e-03
4.296571159169411489e-04
-9.404651659955605772e-03
6.718544782236785667e-03
-2.356466335454535663e-04
2.377408456296258282e-03
3.068146086483109630e-03
-2.010278492674920283e-03
-3.773363306744735145e-03
-1.768015754553965702e-02
1.793248362347788297e-02
3.337178098917199624e-03
1.662402290297383331e-02
-6.875636864924357904e-03
8.984232181368113218e-03
3.051898976288920304e-03
1.773247993762760988e-02
2.845764114372214149e-03
-1.096866461106250738e-02
-9.490893823618935451e-03
-3.547268566049014641e-03
-1.326412460782822392e-02
9.817639722981077316e-03
-1.836095933476998912e-02
-7.900269483402021231e-03
1.509094684874713252e-02
-8.485427034859393397e-03
-1.253264821874722212e-02
-1.241246753377125761e-03
-5.074378213067983444e-03
5.779977641884099203e-03
-1.176047278428756643e-02
3.761299085875754056e-03
-1.570054177716983038e-02
-9.759158145883736063e-03
9.639413570028889863e-03
-1.159727760407700155e-02
2.207834768600797082e-02
7.047615613132397414e-03
4.080050010792202198e-03
6.374130731115775980e-03
-2.482665184494459425e-03
1.172781605964989034e-03
-4.776894212820324143e-03
1.570950532499075861e-02
-7.752810603922035380e-03
-1.693142708855521934e-03
1.028005832963234563e-02
1.180280700585240386e-02
-7.457420305772214167e-03
-1.113761270709641557e-03
-4.046531365747030665e-03
-8.498375617714501798e-03
2.638000872684845115e-03
1.292187828551430266e-02
-9.746312078084698460e-03
5.225492612491220920e-03
7.822981108406495271e-03
1.306509196617513038e-02
1.691029372589305038e-02
-1.355943206454866519e-03
5.310359615838032218e-03
-3.123128301013027627e-03
2.369358663753827476e-02
-1.460221783258745624e-02
1.271221869203690040e-03
-2.343870651351705539e-02
-1.184030495363780138e-03
-4.765977973675676778e-03
-1.006051371863273328e-02
5.047461997226470286e-03
-5.838096073807113283e-03
2.453153789116019850e-06
-8.911929095244979296e-03
2.553459574670433746e-03
-1.482304930130556517e-02
-2.843329718363189155e-03
2.960581514302991143e-03
-1.614196748159307110e-02
-1.195902702842531820e-02
-1.430960979535326550e-03
-5.571697553486147994e-03
4.295313434015229394e-03
1.296529547168559504e-02
9.592283745166029635e-03
-4.424908469844110633e-03
1.274480879898903449e-02
7.026289120322345635e-03
-1.017013369723217785e-02
-1.185914771745434464e-02
-1.160659220351860886e-02
7.591913573073942080e-03
2.004773138313712191e-02
-9.609089936755750572e-03
1.674561300711250797e-02
-6.234362490076466624e-03
-8.970194434523832624e-03
-6.151410259351052304e-03
-5.716142571829097539e-03
5.195606389794199705e-03
-7.835896485253655147e-03
7.064588820550430671e-03
-1.420995727490828239e-02
7.856452966039845220e-03
1.806525817227667280e-02
1.282948000202841811e-02
6.858412210824847526e-03
-3.821148337088332847e-03
4.818611403103191006e-03
-1.976814872123105679e-02
6.200293816837095309e-03
-2.366685239680386531e-03
3.385523083712544366e-03
1.338794100888131972e-02
3.694156034014530864e-03
4.666404830561790215e-03
-5.808789887737417397e-03
-4.177526400187044076e-03
1.247333932389954082e-03
-9.254533588031908439e-03
8.134224668118362079e-04
1.525486737546786391e-03
-6.130757785467003639e-03
1.468271262208539416e-02
-5.903658474354456318e-04
-1.273745504784652531e-02
1.716291657221007431e-03
-7.626480012136904914e-03
2.253104443195971460e-02
1.423637053903664858e-02
-3.557422180496087015e-03
-1.680573243596956631e-02
-1.408879458944672404e-02
5.530305595997281158e-03
-7.868768465090402115e-04
1.209755286319039343e-02
-5.489276946014590847e-03
-5.224575541467361799e-03
-1.970447635333886366e-03
-3.248817587538936104e-03
3.123199605264126693e-03
1.198661424502624358e-04
-4.730946664202845264e-03
2.353540494764024341e-02
-5.353971705678489505e-03
5.550687880463855799e-03
7.697040503003228958e-04
2.248944002215616175e-02
-2.020372514582306420e-02
6.264482093609315214e-04
-5.967796613258756315e-03
6.090551283278453250e-03
-4.805239562223183152e-03
4.768517408955236757e-03
-2.224322696362084680e-03
-2.353516218704741324e-03
-3.609994692137076435e-03
-1.714535535459534715e-02
-2.798692127457146159e-03
-6.729954362131952694e-03
-2.194390772241150769e-02
1.290429887751731904e-02
1.079871929458240190e-02
1.187615193669852402e-02
-8.918446383484754381e-03
1.121622433509325079e-03
-5.773423621408268341e-03
1.825891226131664061e-02
1.361180404733758516e-02
-5.557286397003501945e-03
1.662238400798093235e-02
-9.971257149034434830e-03
7.050474992617345241e-03
1.386281667490024683e-02
2.638186432686791174e-03
-1.942324168803327049e-03
1.697215014690229770e-02
7.431243802884295209e-03
-2.912547475086955592e-03
1.587515536810493386e-02
1.049998768851653948e-02
-2.068119768909361736e-02
-5.216316705382481080e-03
4.120424133456142106e-03
-6.486371016617524521e-03
-5.683397012226942303e-03
1.004760695633024302e-02
2.855035260512974165e-03
1.034170976901489444e-03
1.899392309165145705e-03
-2.279717191869243959e-02
-8.347096615113130599e-03
1.243599587016215244e-02
2.508784687645884259e-03
-1.693452460654825548e-02
-8.323319387842257472e-03
5.174193652889746281e-03
-7.395419591067083596e-03
-8.514567804393032013e-03
-6.254949633187097471e-03
1.678349395915771508e-03
3.728412801599129481e-03
-6.901092614399876625e-04
-7.205142078391651994e-03
1.561304853553496276e-02
-1.041594412643304102e-02
4.039825484000098173e-03
4.623479954124681823e-03
-4.325991380107520497e-03
1.302908144949878463e-03
1.412894103105507594e-02
-2.008312392101464436e-02
4.215730578967825069e-03
-3.951801328029624742e-03
-5.747121982260141172e-05
2.581330447952653439e-03
-1.741896230789212333e-03
1.312044691039741112e-02
1.866866703690362242e-02
-9.209879410272198835e-03
-5.955484877228443136e-03
-4.239519152245185829e-03
2.025974187028937740e-03
-6.957814936795820270e-03
-2.030489302586172343e-02
-5.930414894520425785e-04
-3.614248604785301727e-03
-1.231126687243605175e-02
-7.023521306188000753e-03
5.222762540392748495e-03
-6.533957550819448172e-03
-1.570378889186522034e-02
-1.153564410469698834e-02
-6.592456304114651007e-03
1.692397902811907480e-03
6.795647128113978773e-03
-1.833333232583694156e-02
-6.103275625256824634e-03
3.283927458581976065e-03
-7.040670350713852665e-03
1.497714087003254027e-03
-2.779310743341647464e-03
-1.360120205375659223e-03
1.618213503760245180e-03
1.386089767678819196e-02
8.573020271628963018e-03
1.633567116234450195e-02
1.281991427017256310e-02
-9.122015035435913563e-03
2.001564715902764535e-03
1.371253181872721105e-02
1.896911780845480372e-02
3.901190531696347341e-04
2.160487807541584815e-02
-1.088944367261411757e-02
-1.822882361432179169e-03
-1.846480546748451371e-02
-3.017641800042666911e-02
8.324538762429715966e-03
-1.487628148070721003e-02
-9.130284864045020441e-04
6.977237882816794343e-03
-7.701986507875666944e-03
1.449168108347269118e-03
-5.067028579145010925e-04
-2.861227008505623330e-03
9.513022270786718887e-03
-2.780633709976436038e-02
1.604941558245841227e-02
-2.523669186738674631e-04
7.579235419062358954e-04
-1.056659461552649816e-02
7.184217586623811713e-03
-8.752914776531901808e-03
-6.015531886521999216e-03
-7.616076355733593026e-03
-9.346003623840129157e-03
3.195311137114042067e-03
-8.497476281442461251e-05
4.005656998871941557e-03
2.329713110771445585e-03
-4.650261973593902698e-03
-7.235803573687504472e-03
-1.911934679303105853e-03
3.426840480963663435e-03
-1.855904293894870100e-04
5.254550051575759481e-03
6.738304064231601456e-03
-4.123079373626086972e-04
-1.837155642392050356e-02
-1.219471102079169172e-02
-2.066739365688137486e-03
-6.909590838513805441e-03
-2.060565913765884799e-02
8.624350689611846171e-03
-7.201423524751698890e-03
-6.067996622180600423e-03
-1.381947631735739104e-02
8.786555592286741934e-03
1.746813459020104750e-02
1.795481414999737079e-03
-1.717401448958916915e-02
-2.266090856499569650e-02
4.215140373555451361e-03
8.295277241109894409e-03
4.907442129246234516e-04
-1.091611226688764692e-03
4.653916553646803879e-03
1.064471001362827900e-02
-3.070117237728766171e-03
2.351014453787808340e-03
4.937203104600793556e-03
7.282616519995979872e-03
1.334378842888622610e-03
-5.109352135927458689e-03
3.795028429250292198e-03
5.400955733366441178e-03
1.506864025535461452e-03
5.617931758178313154e-03
-4.831611406463900277e-03
-7.226258181566961279e-03
-4.021888275945509870e-03
-1.445604551652832082e-02
-2.184638117898301743e-02
-1.793974538335176352e-02
-4.008486095589043098e-03
1.834817049179910536e-02
1.458016054563128321e-02
5.881348005543775292e-03
5.707928484887808858e-03
1.276549684605708321e-02
-2.891732879252940144e-03
-6.549564813372443089e-03
1.032093628836348170e-02
-8.453933046182892860e-03
-3.832629577244865780e-03
1.011272778416704050e-03
8.762500128066039867e-03
-3.415953678800658262e-03
-4.153506875086625943e-03
-5.940916398895344785e-03
8.640678720173100569e-03
-7.959955471061269747e-04
-6.106723983786758320e-03
-5.056123375689357269e-03
-1.583949610720968362e-02
-5.913091782851927040e-03
1.084006986240852906e-02
9.224147991174470873e-03
1.427572573266663869e-02
-4.445568601452732672e-03
-2.207676440807438550e-02
-8.538788098207602054e-03
1.218946039608152440e-02
-1.117813570413424620e-02
-1.100997255386016067e-02
1.369654970339634521e-02
2.866234939479700688e-03
1.138277575183171443e-02
-6.519200878630948548e-03
-5.213591255045836072e-03
9.283508693024017724e-03
-6.552750941596442724e-03
-8.402862751397857655e-03
-9.908018442691186867e-03
1.540465338205685569e-02
3.471950128902705473e-03
2.510658770729779984e-02
-6.563978402674198499e-04
4.322702231177011876e-03
2.950664301791129825e-03
1.626285698634557381e-02
-7.764137317486997578e-03
1.543777143390894120e-02
1.381016431037684379e-02
-5.669933274687241100e-03
1.101310070793883218e-02
-9.786775068186421081e-03
1.127117661275646443e-02
1.416104814892163791e-02
8.111893216026504205e-03
-2.407385162336745342e-03
7.353201023818660767e-03
-9.852642157466303882e-03
-1.419875695522525294e-02
-3.130211895910582198e-03
6.714118969727888089e-03
7.199159475459251945e-03
-7.706080526694488071e-03
1.006555569688421213e-02
1.163970407987813521e-03
4.726003756070268347e-03
1.421981863498290519e-02
3.101130664744304426e-03
1.419119151469930458e-02
1.498148711584733339e-02
-6.948661186036574240e-03
-5.241152664888035044e-03
-2.168380961154436209e-02
-1.914639436013854839e-04
7.137957982349517165e-03
-2.945000893470082776e-03
-1.549854544923437568e-03
-5.678448220298874631e-03
-2.269757454048373403e-03
1.202672151471153618e-02
2.195294482296911848e-02
-4.004073656876681875e-03
1.414626896518040092e-02
1.816381953012539540e-04
-1.412373734810330825e-03
-1.032761836551360397e-03
-7.565830639055158569e-03
-2.197382792911423913e-03
-1.933006859988449511e-02
4.826693424343750198e-03
-6.227804085061595333e-04
4.718358041261958881e-03
3.585915164107474854e-03
6.405801532189229347e-03
5.985893052070393079e-03
4.966861922788992287e-03
1.400072401695949976e-03
-6.871188409948255542e-04
-1.787422955059504671e-03
-6.331544662753113388e-03
-1.014179906889560619e-02
-9.700783993741747893e-03
6.434242771897693072e-03
1.892626699636930365e-02
-1.536715099090146374e-03
1.226704296948510388e-02
-3.647475710591434935e-03
3.942065121137791443e-03
2.677980870349113904e-03
-3.076810222120295382e-03
-4.792843649125111058e-03
1.091792229992531553e-02
-5.106062083976014264e-03
-6.646461236300739601e-03
-1.655927344739946405e-02
4.217824543113981965e-03
-1.110118114405219238e-03
-3.022925547800979582e-04
-1.346298930900918442e-02
1.099775545255225620e-03
-3.442174927835328201e-03
6.454853531231543977e-03
1.142331779986843418e-02
7.872853479704853066e-03
-3.783147826814999438e-03
-8.713818131706369680e-03
1.673823791686640571e-03
-4.169628299023565333e-03
-3.232779200193787623e-03
-5.075300108435343641e-03
-1.490199642823453186e-02
-6.690035332353602097e-04
2.011339437563269914e-03
-5.308904568430069214e-03
-1.501373684193781262e-02
-2.083052165092465213e-02
-3.515364799889289776e-03
-7.194217243742997286e-03
6.890655144282930959e-03
-1.063795287250461977e-02
2.455612855436608514e-03
1.956536004471944035e-02
-6.423961620096330788e-03
6.885488052460880630e-03
-3.819480829409883753e-03
7.838449215388036337e-03
-2.367009969727010710e-03
-9.102876886039782539e-03
-6.856027050811010562e-03
1.296950163463349293e-02
-6.114005102537527561e-03
-8.485876916466903938e-03
3.757071335531823961e-03
1.206246548440100853e-02
6.389956732990070137e-03
-1.523515805956504252e-03
-2.480317776022950005e-02
4.456225229439076535e-03
7.599526023098671090e-03
3.606988836147422776e-03
2.110310549375151497e-03
1.570220222522897280e-02
3.122773201066715923e-03
4.536801239170753543e-03
1.889747150040626406e-02
1.972614653318837188e-02
-1.541772118489740523e-02
-1.843571830272885828e-03
3.701623368104906171e-03
-1.175186469575809599e-02
-1.013230433881941867e-02
-7.653431913488164921e-03
5.207398748361780766e-03
1.012982328865423207e-02
7.885904897717399553e-03
-2.476792124942632858e-03
1.526082688683272348e-02
1.204536814550971786e-02
-4.239449187108085271e-03
-1.611680202794100406e-03
2.600534081377525383e-02
-4.560132359651233001e-03
1.880785030905019915e-03
7.272908775898840640e-03
1.224925704910384723e-02
-4.300436820628669547e-03
-1.179753694989083392e-03
7.191066027772545846e-03
7.079047395130566057e-03
-1.001084283826751860e-02
1.261088941011779402e-02
-2.459703228601784614e-02
4.642244249664783003e-03
-5.905506427961550349e-03
-2.558235870887548124e-03
-1.221464899340855706e-03
5.559866363103601987e-03
-1.070719158061643776e-03
-7.864109923346022241e-03
-9.509707921638453978e-03
-1.399388060404266505e-02
-2.639909453096841475e-03
6.715916918424094315e-03
-1.076204122973959884e-02
-4.988502244332752508e-03
7.399512660264450335e-03
4.691327004654224399e-03
-5.878931308126613201e-03
9.488405045450934786e-03
-2.155533160843271703e-03
-5.448550662268069299e-03
-7.434018937986062656e-03
-5.145531674382140472e-03
1.647949815655260289e-02
-3.201980105999582479e-03
-3.070229933241298316e-03
-1.685198177631657898e-02
2.827400644745828653e-03
1.616452254375280034e-02
-1.162365258451665030e-02
4.787334464125539944e-03
3.828703536040903646e-03
-1.409828751343593194e-02
1.263451309551134362e-03
-5.404204051710124156e-03
9.459707982420391056e-03
9.140838698338567617e-03
9.254972352554078144e-03
7.109932038718186006e-03
1.274979190263304980e-02
-4.724894720978813588e-05
5.849180526621802420e-03
1.360147674889186468e-02
4.488113833021633615e-03
1.282497621150580948e-02
-4.784412202875550600e-03
9.660759134621341518e-03
-1.391335495448698702e-02
3.220691419408434550e-03
1.063934752830732883e-02
-7.271293777968772590e-03
-1.453596923189808335e-02
-7.685610622969660070e-03
-2.689796611652807336e-03
-3.639940691717654872e-03
-9.916382011155074755e-03
-9.073084751017725796e-03
-2.052694007045457320e-02
-2.954525600900687228e-03
3.035476345602766950e-03
-4.000472416411282768e-03
-1.932101707203771890e-02
3.736525684806720100e-03
-8.980229961022349536e-03
-4.650358879739828130e-03
2.349143771919905838e-02
2.148310417750526509e-03
-1.016252777580696270e-03
1.007323849585250314e-02
-4.027891568890484657e-03
1.404754703770364627e-02
-6.398454352768339964e-04
1.923227702291100891e-02
5.923494760764624542e-03
-9.620177963824045470e-03
-1.456624501467197567e-02
3.371697912258738924e-03
2.328358722399148737e-03
4.045534356907692572e-03
-8.314981665791119220e-03
-6.538323944761830799e-03
-1.515503703818751706e-02
6.572948972064294841e-03
-7.278415625619049506e-04
4.415117101961569916e-03
-5.587096671151908951e-03
-5.548257276528416500e-03
-3.864659957975174771e-04
1.347758362383198738e-02
-4.922782539445592909e-03
-2.530483299773461300e-03
-6.506150108897643114e-03
7.506404480462733342e-03
1.984624826413035163e-03
2.332454187335417442e-03
-9.805200696072200774e-04
4.391066434975385464e-03
-2.886026469542106888e-03
8.675243901472723743e-03
-1.090611428525828375e-02
1.821554901222962458e-02
1.251586112140685818e-02
-1.011105209303386938e-02
5.923765875961037536e-04
2.139787453819223719e-03
7.255867959766760253e-04
-6.587079409793250573e-03
2.510956987500985883e-03
1.317785599106953767e-02
-1.228900911733917488e-02
1.941361950458877703e-02
3.318117783277392801e-03
6.090024154985103182e-03
-1.031729848381002712e-03
6.078848196126713371e-03
5.698648836113747417e-03
3.908140703563464484e-03
2.052453507254245815e-02
-2.706938294544620344e-03
-2.080795753953770810e-03
-6.423564773121032134e-03
1.289187798506753573e-02
-2.217848164391529944e-02
1.624468551744891534e-02
-2.555239683292763030e-03
-5.743748880375386216e-03
9.591106548727112643e-03
-1.287096030887780428e-02
3.636121595300514583e-03
-3.029522139319123022e-02
6.097291700334597948e-03
-9.811221291910846368e-03
1.614282565667369803e-03
1.857329873307432544e-02
-1.064331864670608856e-02
6.801516170094985478e-03
2.591831097402955229e-03
3.605923449661123468e-03
-5.475193909183858135e-03
-6.975971969097373611e-03
-1.023037806419301726e-02
1.123936083806495630e-02
4.437733039681228918e-03
1.274836614607204391e-02
1.434865504168336811e-04
4.720370274672724444e-03
-1.041953184156412145e-02
7.644454379781186713e-03
-1.393121774173117916e-02
1.098169382162797643e-02
1.931749094329500080e-02
3.174086381030292721e-04
1.646597138606402388e-02
-1.875113577596308322e-03
-1.429444982967497356e-02
1.110120726166372550e-02
-2.417142945786975050e-04
1.965161706924426974e-02
-2.556456725908079659e-03
-4.763054543189137839e-03
1.744831553981598515e-03
3.267791734455557234e-02
-7.066877938667347030e-03
-1.808320906559720068e-03
1.444969429726521148e-02
8.955743646261124860e-03
-2.664192210306114486e-02
3.294132935250707137e-03
-3.175001059983707016e-03
5.332942244550693302e-03
6.406409652261285843e-03
-1.119414369748899726e-02
7.742571646497048779e-03
-1.685117730161614846e-03
1.492070654898463439e-02
-2.631177299741870382e-03
1.263205688538568058e-03
-8.181558508685442960e-03
1.719335047398352218e-02
2.568921624235789413e-03
8.465966750856483009e-03
-1.974306690827976052e-02
-3.648673069635623503e-03
1.123814457468077718e-02
-1.134061842918514295e-03
2.034521729793286205e-03
-8.758521931376210545e-03
-7.433193853142953250e-03
-9.545512106739744568e-03
-1.518232012239343134e-02
1.106239060582796946e-02
-1.724021000328844651e-03
2.432743351292071185e-03
-5.066687077713578468e-04
1.028797860416352100e-02
-3.220384588251765188e-03
1.873535395507138629e-02
1.726283846780599530e-03
-2.905341907179581108e-03
3.128398812450737445e-04
-9.531570800788119469e-03
-4.595537939305362023e-03
1.036746651037782289e-04
1.501683445386600355e-02
-6.206760933670210992e-03
5.971064553772293532e-03
-1.210637180234816522e-03
3.789945337301184238e-03
8.340762374800348572e-03
2.018949692972569435e-03
-6.763827795963112295e-03
-5.034183300151626878e-03
2.510313798683591266e-02
-8.083697737579879916e-03
5.746724668677237642e-03
-1.186573048493044097e-02
-7.532895144132471105e-03
8.479886808132932816e-03
4.238522323614016436e-03
1.113233405669573038e-02
4.651173303254250470e-03
3.022800462886596640e-03
-5.284564978525863044e-03
1.729694412785926470e-03
-1.267307069573788639e-03
1.126815861097005310e-03
-1.531680440139633831e-03
-1.774706692655031795e-02
-9.945104624092490977e-03
-2.157392405170972458e-03
1.980098254402743937e-02
2.803456055442785522e-03
1.679941824763492991e-02
-7.514488040479851833e-03
-1.213723963248913157e-02
-4.171984096166604303e-03
-1.016266380439277695e-02
-3.046847318169355542e-03
1.016478511631761956e-02
9.726546443194544408e-03
-1.529582900556376857e-02
-3.583434945319062645e-04
4.105222763457984717e-03
-4.610385462060390648e-03
-8.914392550068261922e-03
2.119957644232016263e-03
-2.085907679020675750e-03
5.512734427761148371e-04
-2.128805173899455880e-02
2.275529643101177439e-03
-9.573368483827223580e-03
7.574505029461566473e-03
7.281422431315897996e-03
3.685718598727100604e-03
-8.179952072279858197e-04
-1.762882959087157687e-03
-1.917570275765149111e-04
-1.069146766754451930e-02
-3.800765534636360576e-03
1.865679550897513667e-03
1.006664727350035406e-02
5.872706201011801061e-03
3.811792955531876324e-03
-4.192795445850348857e-03
-1.308362337209064905e-03
4.455566572581695813e-03
-2.772327967108556210e-03
-8.061802413196504646e-03
6.817471291089302263e-03
2.038517428438654452e-03
1.703182775325511392e-02
1.041444697300418672e-02
2.089677620736135610e-02
-4.567082617272991488e-03
-4.345481689780127978e-03
-1.578809723543892971e-02
1.337913679533804696e-02
3.146864640522464146e-03
-1.178831545197189107e-02
9.298263366173727812e-03
-9.419976734503059113e-03
-1.386725788837597957e-02
9.058172615572937861e-03
2.247234272658672847e-03
2.388320202510412285e-03
-5.022271512593999392e-03
-8.361513913795626946e-03
-5.701672101038518341e-03
1.708927919339608623e-02
1.610843670114209952e-02
-8.031894506710298212e-03
-6.502507968291234772e-03
2.590180305902731617e-03
-2.123986766858979545e-03
7.026188174588904149e-03
-8.583093457269328277e-03
6.504410051104336440e-04
-5.896748740140439655e-03
-2.299908370563035973e-02
-1.005852025625367241e-02
1.210330027244821069e-02
-7.108404581481183107e-03
-1.436556890171953454e-02
3.746737364694660739e-03
-4.118030153323647136e-03
-2.789031921357700353e-02
-2.985114724382473966e-02
-7.721143122144116626e-03
-1.227158482759945456e-02
-2.077115676384861786e-03
-3.217187020138829318e-02
3.938161134713740949e-03
-4.193205928973752828e-04
-2.750043790240192052e-03
-7.285042043637722162e-03
-7.748020013910704613e-03
-1.559732784033909109e-02
-1.719398521735377577e-02
-1.395495672413569165e-02
-1.451406700122619131e-02
-1.542638687608205439e-02
-4.885760453549676391e-03
-1.563447729086389062e-03
3.097493431941579934e-03
4.199085036717575999e-03
-6.445492975901123515e-03
-1.777755932608605363e-03
2.317724969214301003e-03
5.106275325632264606e-03
-3.228474603215028603e-05
7.598294993214000856e-03
1.092514460424014698e-02
5.624388909240283889e-03
-2.423177908962193591e-03
9.263602356740140154e-03
-9.944341105566150210e-03
-3.555229175584784587e-03
-9.370435757076458691e-03
5.310990411168152285e-03
1.411303832415593956e-02
-1.738260435464893811e-02
-8.950950920231326088e-03
2.295940135957862810e-03
-4.925159304461325209e-03
1.909224452326977600e-02
-9.199474166627795782e-03
4.707840615440560088e-03
8.278198897167120610e-03
4.496064068728967966e-03
-8.810428084023859407e-03
-1.874627961253111028e-02
2.294280038205540832e-03
-3.930238824263914028e-03
-1.429236711613302534e-02
-5.584899542226140663e-03
1.419803673971584785e-03
-1.976185799624117362e-02
-1.207559887899533127e-02
3.801468427454175909e-03
1.412408382202252725e-02
-4.063003211673923108e-03
1.208878592834984611e-02
1.635020093392180671e-02
4.589687410001338716e-03
-1.604652766049629795e-02
3.847235375494645424e-03
1.789835687769010834e-03
9.955170633513350451e-03
-7.632437582291502071e-03
-1.068985441873464195e-03
3.092833427387468859e-03
1.502220321552728312e-02
-1.214603660840766521e-02
5.204147979054925786e-03
1.182051940810334737e-03
-3.672546520059716702e-03
1.070181972822252699e-02
3.198732671773688030e-05
-1.743285446923974191e-02
1.142485580697944272e-02
4.762292112643942352e-03
-1.347117919262628798e-02
-1.340266896159812053e-03
-6.830217112001321167e-04
-1.572652421325713631e-02
1.354385764190360955e-02
6.901559517592100075e-03
-1.388313568927238527e-02
-2.624022054102713355e-03
1.945050461993483304e-02
1.689907416146063657e-02
-9.733102028971558212e-03
-1.271751841710219808e-04
2.401560564392685865e-03
1.056172015806794776e-02
-8.680653545875632870e-03
-9.644318771388330630e-03
-2.132384365076591889e-02
2.975798179809975162e-04
1.984295331370614437e-02
3.418422405602019806e-03
1.311626175682589074e-02
-2.402626843954380927e-04
-5.656590471365898105e-03
-2.692885476052662031e-03
-2.946528138986808081e-03
-6.189019851438520847e-03
-4.309629555838045446e-03
2.066188521047064575e-02
-4.988145294038977447e-03
-5.732747608831846109e-04
-5.357003539955979173e-03
3.567374630259094806e-03
1.056367036314203277e-02
2.255716330716020165e-02
-8.735235547977412626e-03
6.925725168039279303e-03
-3.016336655993166575e-03
-6.382493470447612657e-03
1.169785672424679401e-02
-8.436360945423548863e-03
-8.784117054083829135e-04
6.120382584665565694e-03
9.579557838062595712e-03
2.769064894984506978e-03
-1.570592097191657668e-02
6.258753625103318646e-03
-4.363677694820249781e-03
5.649330790541420670e-03
-3.137072141966117979e-03
-3.088811950754758676e-03
5.701003833273337977e-03
-4.037618674577078855e-03
9.676261146707540450e-03
1.481052690931892925e-03
-1.081605962190140824e-02
-1.476918083676271101e-02
2.015264497404291658e-02
-2.823724619772959629e-03
-3.687091646364505301e-03
1.287966691117732598e-02
7.009013835445956908e-04
-1.273515549429006521e-02
-2.944884911745081907e-02
-3.647460570638537663e-03
5.953568839008742050e-03
-2.181701722493944312e-03
1.092136131535822487e-02
-1.169566800878251572e-02
5.334626251151363893e-03
5.171131926612296259e-03
-1.815286991724105988e-03
-5.645073109461713583e-03
-7.602034919220328028e-03
-6.653666182947114626e-04
2.430094401766105024e-03
-1.975974183253267728e-03
-4.403654614705909340e-03
-2.975177133826336154e-02
4.027265179237901789e-03
1.338409815181306611e-02
8.261360463676715657e-03
3.610494507190548032e-04
8.680756946492234824e-03
-4.583304136013747858e-03
3.461356697673942558e-03
1.248469123304107517e-02
-3.154684142635932192e-02
3.297897805756209305e-03
-4.782669135666809193e-03
3.475656717861493050e-03
1.147660749602908391e-02
-1.203607601359847103e-03
-5.768553176856827842e-03
-9.010629172236198428e-03
-3.899038090657346934e-04
1.033334207963867470e-02
6.164964463485512330e-03
-4.953579818234701214e-05
1.721610399341812897e-02
-1.667668208280573619e-02
1.356432262747782856e-02
3.684803944634948338e-03
-9.751120294924930237e-03
1.799733178285079990e-02
2.748714663009427933e-03
-2.435114180078597375e-03
-7.529898461645298524e-03
1.947055626213411647e-02
1.570327898641419792e-02
1.863224374706576227e-04
2.572890264601276206e-03
7.395701658406168312e-03
-9.514996454077799190e-04
-1.174433592575200268e-02
-6.864079199490498266e-03
2.674868879114050604e-03
4.817516975183404500e-03
1.502202907069535680e-02
1.228956775608797125e-02
1.138280501335288929e-02
-6.600073334836033603e-03
-4.945831854156850643e-03
-3.151172358967149756e-02
-5.411337566615725264e-03
1.252926146670920761e-02
3.504538210219351226e-03
-1.326552353665482083e-02
5.334541228863975016e-04
9.873086960120337069e-03
4.622098885414716745e-04
-6.384135023687457361e-03
1.424877796711979637e-02
-1.584483099965445368e-02
5.562996498074984641e-03
3.432363820722239209e-03
-6.366693878803880886e-03
1.596227688835365243e-03
-1.597524637336374467e-02
-8.652515069641496942e-03
1.642308141418306194e-02
-4.006201015396668348e-04
-1.229293275709406746e-02
-1.306793786912406087e-02
9.208626562426398127e-03
4.718802032879144959e-03
8.313197917291898290e-03
2.415432211907618098e-03
-2.980113217115072394e-03
3.090500425385185775e-03
2.490751035828563456e-03
-4.670503868168288455e-03
7.195688516434659357e-03
9.064404881107554837e-03
-1.208417941841871159e-02
-4.268626377216763225e-03
-1.226260517865276380e-02
-9.397763826143280472e-03
-6.528692809996770180e-04
4.142798362961052326e-03
-6.214781747280202079e-03
-4.698159964627446859e-03
-1.204003795379941788e-02
-1.122003848255799909e-03
7.203177027228188298e-03
1.955027621293705959e-03
-4.838900582791774187e-03
2.065121185490915653e-03
-1.159452675465757338e-02
2.552369286833897424e-03
-1.140843145528666960e-02
-1.293217081128783877e-02
9.129095622948993002e-03
2.026936923552301664e-02
-6.970885693935596934e-03
3.632054577148419346e-03
9.890910416601029001e-03
-9.872382297869948184e-03
-1.347608622675800644e-02
-3.319607255860125648e-03
-8.583633745511147842e-03
-2.048571147607076981e-02
4.308351181047337039e-03
2.178304263026747262e-02
4.262652103430748796e-03
1.484563816058414969e-02
9.766561359569278858e-03
1.458608128734035017e-02
-1.856314562778218005e-02
1.978894361696769029e-03
-3.662845223307787269e-03
-1.195899030652579874e-02
-1.861343819930959395e-03
7.375199572802757300e-03
2.609097027469286026e-02
-1.922654760570204069e-02
1.464695366774153166e-03
1.075800801439662571e-02
4.296100517476217871e-03
-1.322414472496348525e-03
-9.635516763095181014e-03
1.031359012700649481e-02
-7.481655032583056295e-03
-2.433059114340969421e-03
-1.483065940011896698e-02
-1.468851499621512402e-02
-2.869006045450175207e-03
2.091374481817368305e-02
-1.095115346824126860e-02
2.025007069890879150e-05
1.730495724211695684e-03
6.716339910139939098e-03
4.700750715843227644e-03
-6.326634254227120509e-03
5.765308528061026568e-03
3.564530562217159762e-03
7.520173261541405509e-03
-9.146964719493409779e-03
2.203041298746233334e-02
1.344775776562691545e-02
6.694060530410285079e-03
-9.204782857829413301e-03
5.839881174834010008e-03
-7.743860369794255093e-03
4.549547295094942545e-03
-3.512097899069599200e-03
2.472592156663929244e-03
3.542992675900732101e-03
-7.684907229935931993e-04
-1.284840731503555239e-02
-1.394104772290929127e-02
2.812204420972475721e-02
-1.595103895688146367e-02
-3.898471725701007241e-03
6.051344250193805945e-03
1.808566374908618032e-02
1.727115324241238967e-02
2.914809707683598764e-03
3.171029706513263380e-03
-2.069475353227147492e-03
6.767162556742882008e-03
3.988208171246763328e-03
-6.693739372161558281e-03
1.877553139687280007e-02
-6.603887212073324305e-03
5.506768026402592345e-03
4.474210604820834207e-03
2.068676164508274559e-02
2.036389376617205732e-03
-1.350073671135763528e-02
4.657746599483487092e-03
2.365342563393523553e-04
3.982266155038056976e-03
1.942230570260257069e-02
1.518159480645718150e-03
5.291336615642568825e-03
1.023403992310704252e-02
-9.758885230367605546e-05
-1.617929791458305039e-02
3.437078223967856942e-03
2.032775852166156250e-02
1.772470089483586461e-02
-1.124193193929500477e-02
-1.161556116891201106e-02
-2.771865634963157233e-03
-2.186639563911123296e-02
-4.152030158173455367e-03
7.482397352598614375e-03
2.852276652692260425e-03
1.387763788605682683e-02
1.399475463665652251e-02
-3.981337723782818992e-03
-1.431291413817002050e-03
2.838420200229145249e-03
1.248501859712222023e-02
-4.092041551807302363e-02
1.447007853543683586e-03
1.269157634688296982e-02
1.627945144463513460e-02
-5.334973330172335451e-03
-1.090417862271061099e-02
-8.661613978935021939e-05
7.687146108451017867e-03
2.923902305510925077e-03
-2.897760787992788301e-03
1.511838236605062002e-02
1.275496718708366527e-02
-2.017382049449466599e-02
-9.889074725975032995e-03
-6.721657784528047800e-04
-6.706618903198096303e-03
3.433379507449832446e-03
2.611425996090369159e-04
-8.794022060197425467e-03
1.098159455637431458e-03
1.181240200830266894e-02
5.218912715122555170e-04
-8.930708021721016354e-03
1.206472716168226038e-02
3.599940812523452424e-03
-5.461089305257411930e-03
-2.162084866917076895e-02
-4.786968477401091701e-03
-1.617951426840117182e-02
-4.071051786492728593e-03
7.107379769020706096e-03
-5.744276771086557001e-03
-2.095420090735368099e-02
-3.432189643561861341e-03
1.679067581685962868e-03
-1.448616955032807079e-04
1.341147512837087899e-02
1.070506348761606982e-02
-2.597003084983898463e-03
5.089902568078540253e-03
-2.456489237520711327e-02
1.742866704403340031e-02
-1.288458506993348917e-03
6.529848670119805555e-03
-6.728429874246409821e-03
-1.381812199730892213e-02
1.961587903614775072e-02
9.176299005914091006e-03
-1.237105615773745207e-03
-1.849835740350238124e-03
-2.667506555051885140e-03
-6.326505613027606605e-03
-1.043273783573340184e-02
1.940690310375081011e-03
-4.355353549306953398e-03
3.231947786358585224e-03
6.290001405652872763e-04
1.254474258212093588e-02
2.810806331172280900e-04
-2.468783333963494881e-03
-1.263935669943414344e-02
-2.770983760579266535e-03
-9.235598570304648369e-04
6.792254272946313294e-03
-4.236573480561957837e-03
-3.522276270288627383e-04
2.616913931014618402e-02
4.329423736019994730e-03
5.757140089751064220e-03
-1.692865475806702366e-02
4.323299941914366881e-03
6.775765545853845197e-03
8.840992517888363045e-03
-2.662333124566561640e-02
1.040621890320839529e-02
-1.353884397047633564e-03
-4.769869571740064512e-03
-1.098877586431522280e-02
7.915180371635136686e-03
-4.743232367213776751e-03
1.815118868751448714e-03
2.909239379086369162e-03
7.791308978770052247e-03
7.438077068365199322e-03
-7.835784519450832977e-04
-9.563289037527927805e-03
9.300785668272769369e-03
8.145114359451351019e-04
3.396548610791555131e-04
-1.762253631150258529e-02
6.390005360486360197e-03
-1.484002192735783387e-03
-9.067752673582512787e-03
6.951445049390448869e-03
2.093706936869207946e-03
-1.053281085689543664e-03
2.872929556490455040e-03
1.427081383643745774e-02
7.494092497190098061e-03
-2.384671934035037782e-03
-8.498657621169561707e-03
-7.737006518071500895e-03
-1.325833086594521487e-03
1.378768788355754123e-02
1.040570243847828077e-02
8.044412809857136998e-03
8.458067058323552254e-03
-2.034813680564379751e-02
1.217168347610676597e-02
2.175821738790051363e-03
-3.206590349140774499e-03
-1.204794535659199813e-02
-9.677477595408720892e-03
7.271695035802153671e-03
1.204817062157881487e-02
4.989255125270568823e-03
-8.606112514574087297e-03
3.832852014174251381e-04
-5.425057451502744536e-03
3.053600953269630831e-04
6.767729953931708037e-03
1.898576021680330184e-02
-3.149479020780450444e-03
9.579182615409747789e-03
-9.219559896115809595e-04
9.143627036920514914e-03
2.657876049692812354e-03
-6.578259783255671622e-03
1.150156019765473543e-04
7.274974953204527486e-03
-9.255456218791485376e-03
-2.541213920361904376e-03
1.034503620696228124e-03
9.107562755349192518e-03
-8.167951541522935552e-03
2.250347434763634146e-03
2.254672483161056402e-03
1.131824373128021734e-02
9.189089539813594110e-03
4.451811192237522738e-03
-9.808897589653871318e-03
3.688684458707500169e-03
3.345605276890360660e-03
5.134988228847789729e-03
7.187051668894192495e-03
-6.926817170776334090e-03
9.072997562182345127e-03
1.460331672774964513e-02
1.712151089288387398e-02
-5.164235765055247979e-03
1.839827559146712480e-03
2.719972145930233797e-03
1.694480434285257006e-03
8.514890331389845038e-03
1.009879887977274335e-02
-1.132548579941021309e-02
1.057042545354329628e-02
1.022430979735099339e-02
1.700376303869605837e-02
-7.590811232056767291e-03
-8.635329654253967591e-03
5.704674758908474114e-03
-1.148936934819937659e-02
-1.213571942095745086e-02
-7.306566183245731755e-04
-1.975600308965363375e-03
-1.613642430311913734e-02
-1.247668098677278976e-03
-2.327438782992177421e-03
1.565779432733131055e-02
9.952989715516074101e-03
-1.178430596809081771e-02
-1.525954207591650146e-02
4.625806694042756961e-03
-4.632698837438445176e-03
-7.116462953134952522e-03
-7.823913252872360686e-04
-5.912156170569888083e-03
-8.912350702953452698e-04
2.043552064401741100e-02
5.788934661107291227e-03
-1.294189244947404000e-03
1.376908762516710315e-02
1.174322376019270621e-03
-9.627722763818897037e-03
7.640741196778814319e-04
-2.963810192319634232e-02
-2.052619618292465808e-02
-4.266387700867037107e-03
-1.253733186363651005e-03
9.959373983958335480e-03
1.440191302113087192e-02
-1.710873184941153228e-03
2.437067730205796229e-03
1.195893124172336258e-02
-4.365776745168516333e-03
1.366151532256388787e-02
7.235224244510378259e-03
1.614523350378831937e-03
7.122605209486596207e-03
4.173176110077402717e-03
-6.075385426017695933e-03
5.350459826900402435e-03
-1.236951579021348946e-02
-6.567982762259094373e-03
-6.826631922451390118e-03
1.006093095596411954e-02
-1.066707979847841131e-02
1.363593677958006324e-03
4.375027721591009250e-03
5.526453536376390967e-03
1.386527631384336986e-03
1.190794751475851218e-02
-1.773057491846008124e-02
1.399586382056100704e-02
-3.223586128789963142e-03
-1.158521323931419045e-02
1.711436663738638217e-02
-8.283843645604365910e-03
-3.083657327282367938e-03
-7.043822140260743922e-03
-8.958779671310753562e-03
-1.809207839723866518e-04
7.006375651930569874e-03
-1.194970410994090036e-02
-1.536721208424984136e-02
8.770858162080121326e-03
-2.025367834818363189e-02
-9.300658602389351784e-03
1.567091931389208090e-02
2.605150246947798148e-02
-7.906468239014920532e-03
-3.545425021773028311e-03
1.002217825573419215e-03
-1.386984671316845389e-03
7.776914133694749938e-03
-9.955724244735284986e-03
4.655751590380266015e-03
1.594686872011271891e-02
1.417575644370593036e-03
1.021396056687817050e-02
1.156213535642996310e-02
7.153852498276398048e-03
-3.821522459680198359e-03
1.396244065990081412e-02
1.792392041382957074e-02
5.722181912321987717e-03
2.432256966326606668e-03
-6.557345041461205143e-03
-1.453596725835806314e-03
1.557542118554272083e-02
-1.636948646273652871e-02
-1.250683314955867986e-02
-1.140575082432677013e-03
-4.213886517843502474e-03
1.144166686527353823e-02
-7.961113686977612514e-03
9.289790027513157578e-03
1.359290696687390047e-03
-9.820412175754586817e-03
1.610649908310179956e-02
-5.455129884691002282e-03
1.637686935955384379e-02
-1.051256502649688084e-02
-4.444026156640166342e-03
-6.683255096286398050e-03
1.390844654065186495e-02
1.757915501173588912e-02
1.113214732598187540e-02
-8.582700843673012059e-03
-1.128077337331377661e-02
9.446506557922075206e-03
1.168620703174663884e-02
-1.625416284277085132e-03
8.714183896912145594e-03
-1.460191850781499510e-02
1.340749972226660050e-02
1.441722557462158869e-02
4.016956762393830704e-03
2.541139961443981618e-02
-7.287335379845775313e-03
-8.747714418832619812e-03
7.542472794460772928e-03
6.819760802323019885e-03
8.781878213144649406e-03
-7.082273456642537192e-03
1.008450449134834156e-02
-1.692800458406085520e-02
-7.065228288078747275e-03
-9.700224854822713178e-04
-1.074364928543835316e-03
-1.788056603181410395e-02
1.653244805390882699e-02
-5.674174886348569771e-03
1.220245240795878386e-02
-5.407403750874005197e-03
1.233636993651482383e-02
-2.266681327974518195e-03
1.162892387366925781e-02
1.785895762864009306e-02
6.109086358442436873e-03
-4.534238781347697811e-03
8.536543262847891625e-03
-1.075901569910322347e-02
2.417658095786655650e-02
3.658602651754689229e-03
8.372378280632879546e-03
-4.701660333138078188e-04
1.902064359333185267e-02
-4.777284419253558650e-03
2.735180673584128395e-03
1.430130253721672608e-02
2.104508975116487282e-02
-1.481770535123262157e-02
-8.724966135508407244e-03
-3.139326475941527084e-03
-1.160888624532011200e-02
-2.423536292761260466e-02
-1.884360209209241148e-04
-8.803494727238366999e-03
1.267390382210804205e-03
1.405030207226421954e-02
4.960528977903014280e-03
-1.437859708295583655e-02
7.738169904445260476e-03
7.059273308033296810e-04
-1.775289010137519330e-02
5.357517711809848919e-03
3.931180437406338844e-03
-1.581731671896332431e-02
-1.142154357086215023e-02
-2.410008511092192815e-02
-9.936030675272716425e-03
8.214995680367541062e-03
4.575577158537353327e-03
2.358394330766636071e-02
-1.178467972473458761e-02
-3.336953560588742343e-04
1.742652705820206885e-02
1.112840588544056035e-02
3.896667895081160592e-03
2.046278811157371206e-03
-1.461107256947624319e-02
-4.439903548777969500e-03
2.253043621474214511e-02
7.490124751398070197e-04
-2.660155881657925037e-03
3.041446730909503661e-03
7.276836356343957014e-03
1.927752604455579147e-03
1.285096686989408050e-02
4.321450762826316121e-03
3.176750901132494465e-03
-1.693980030817753349e-02
-4.385030254330094142e-03
-3.294673537573998470e-04
-2.105386361123793085e-02
9.453357262487306970e-03
2.263448421993839547e-03
1.812883730492106254e-04
1.174580204799574243e-02
9.381641184611806336e-03
1.052619239291445463e-02
-3.382173541981607200e-03
-6.499436911494944555e-03
1.719829653505469680e-02
4.632019724270122849e-04
7.814044942317056874e-03
4.646291653122044496e-04
-1.242728860845799567e-02
6.815481543368201965e-03
-8.641312733737183810e-03
3.919902382289566604e-03
4.610670328868344756e-03
2.027503036019591334e-03
-1.826235383413342406e-02
1.337561093912557767e-03
-1.524583179756133083e-02
1.366799264626648858e-02
-1.229107802754271332e-02
9.593286324012514216e-03
1.355461132704625406e-02
5.466687202278738486e-03
-8.925181694850856454e-03
3.086890880646238344e-03
7.424904620163021163e-03
4.707698028089417688e-03
7.432295874177331438e-03
-4.407503555070268510e-03
-2.897758287494907933e-03
6.819933181664152716e-03
4.433489614286639444e-03
-5.263386274983557813e-05
1.374129994284889423e-03
1.157101545880580458e-02
-1.330997754711404479e-03
-1.022021808283125714e-02
4.937331239011901948e-03
1.013357175680707802e-02
9.685621691198910768e-03
-1.254117569089855007e-02
-5.680014393448869561e-03
4.847117812229982670e-03
-4.157247590241120068e-03
-3.890974209002111793e-03
-2.969357068027771076e-03
3.024359162690775250e-03
1.989653022067474492e-02
-1.184973865728340334e-03
8.777193687561113053e-03
9.850886190862519903e-03
2.694018610172119058e-04
1.162383441491936058e-02
-9.080692031920667082e-03
-2.381164729183587927e-04
-1.515976391967049572e-02
-1.907063326646205818e-03
9.360220835874654907e-03
2.743225738057240501e-03
8.947668834360350543e-03
-1.061407273517167051e-02
-1.982969328366313705e-02
-1.125524988555357507e-02
-1.704018121309790884e-02
-1.130032599444059926e-02
2.474674831865780397e-02
1.124508105791996665e-03
-5.953824109713326887e-03
-1.050821818953082609e-03
-5.523646950521894812e-05
-1.145082250179247502e-02
-1.860261313064692085e-02
1.490231015704297779e-02
-1.826126633467883842e-02
-2.529276574068993304e-03
-1.182266670368018781e-02
-1.012247275262513624e-02
3.543497408083063054e-03
4.566628267063550621e-03
1.517799463396159567e-03
9.128998440138244574e-03
-1.673404079709910194e-03
-3.024898112519696942e-03
4.434581045306452106e-03
-2.624226165142893186e-03
2.908711732111003787e-03
-1.619664402054338866e-03
-6.007639192536848825e-03
-3.170428955786411696e-03
3.666389161028622227e-03
1.226068566064264856e-02
-1.250181168683583630e-02
-1.369830087195741085e-02
1.046302471871350150e-02
1.732645160139409390e-02
-6.581723840934273866e-03
-1.049440939632040846e-02
-2.019728676726256344e-03
8.429027549712699366e-03
-2.697488130895642580e-04
8.258180139459307331e-03
-1.320504380826091444e-02
-2.612072994704371307e-02
8.380246058676332072e-03
1.327436847502614162e-02
-6.181100562243935573e-03
-6.997460201743532088e-03
-1.214523214938872941e-02
9.928541862848857830e-04
-3.032940908935626879e-03
1.299840337901472971e-02
4.055784318220826204e-03
7.125182464173808634e-03
1.827267112476705074e-03
-3.758155105422656284e-03
-4.935951222916652855e-04
-1.959613013395713685e-02
-2.241274294175261538e-03
1.685631961036182513e-02
-9.982068446735088349e-03
5.998613511518222606e-03
-2.333268023849044068e-02
4.489166767771924325e-03
2.263906576870423857e-05
8.491001310890705298e-03
-1.737024133515786828e-02
1.025789125385809242e-02
-2.536341708864293769e-03
9.930679714106794079e-03
9.047201261780435161e-04
5.801086344394472578e-03
-2.164948749831445071e-02
-9.440044462896151831e-03
-4.580250931086275908e-03
-2.171530473192978799e-03
-5.686946828331995892e-03
6.342969950042697674e-03
3.868690434035388943e-03
1.298862542071113971e-02
3.844045175564549696e-05
-9.476258228825003641e-03
2.370415543019877176e-03
2.644785950154104545e-02
-1.193212873162850622e-02
-1.951087241999628977e-02
-2.298427302605582812e-04
-7.084217692317712999e-03
-5.556887622752365238e-03
-1.087072395134699304e-02
-1.005115480749683553e-03
-2.821340388105615226e-03
9.919193570679225858e-03
-3.942329187625013241e-03
-2.143384596197766070e-02
8.568539797031836814e-04
4.802040081367236340e-03
4.934201408648807539e-03
-1.323244988451455564e-02
-1.186299781984170854e-02
4.505633547208812324e-03
-3.129489960957737051e-03
-1.228927125103693348e-02
-1.937138398950371404e-02
-1.355265962581541153e-02
1.230269204804882235e-02
-5.549063540019711152e-03
8.551733206946823124e-03
8.485498736541480323e-04
1.521499429144799326e-02
-5.749716701747367882e-03
1.854189816320021833e-02
7.986209027319059531e-03
1.019647817474353445e-03
-2.475835391962793184e-04
9.836627453964529727e-03
-1.380655258061412594e-02
7.642641861660674600e-03
-9.198131014584763968e-03
1.550058289426874299e-02
5.309802678385949597e-03
3.437532984216965393e-03
1.053417280078631363e-02
1.127634033828240831e-02
-4.258002523633484110e-03
-1.356476010406557249e-02
-7.348332443629332876e-03
1.305477394421118145e-03
2.524987193373149762e-03
8.852833225937306247e-03
-4.043328345976955097e-03
-2.431657679489033878e-03
-6.221429556609965258e-04
-2.375057089265508736e-02
4.355676529932069502e-05
7.056366540275317220e-04
3.104608914322484498e-03
-2.154046449653731002e-02
3.667395097720055949e-03
-1.282845249308556560e-03
-1.661813042091800016e-02
-1.145171217003575735e-02
9.892381644604293991e-03
-6.509639094883636979e-04
-5.260023921331583030e-03
1.274749086947321065e-02
-1.256591885212416521e-02
-5.440611445321196296e-03
1.031581014032540745e-02
3.485104937316761253e-03
-1.723280832271998058e-03
3.091238278519363013e-03
2.934410974701551276e-04
8.170707577899999699e-03
1.739908428533785967e-02
-1.068034246087913412e-02
-2.753371969259676630e-02
6.110721545785125809e-04
-1.450638164259455097e-02
-1.177587812788696928e-03
-2.829483503386212746e-03
1.150036220255433103e-02
-5.659728353090219544e-03
7.007509248900772696e-03
2.479954177895298331e-02
1.877913400952773912e-02
-1.840232592434954198e-02
5.915694522761172879e-03
3.294854982050612110e-03
-1.099889474013089966e-02
-1.322931623616036695e-03
9.599362827336803405e-03
-7.403975356342804362e-03
1.563995389455430374e-02
-1.242704121599369667e-02
9.280202367310249473e-03
1.029299761984451417e-02
-1.831256751846656317e-02
1.121544273024273168e-02
1.668596359640231929e-03
-7.836315710856437463e-04
-9.245577483872176316e-03
-9.203925391926184169e-03
1.144973727844684867e-02
1.070578494772917583e-02
-1.060014200267945204e-02
-4.622210082160922891e-03
-4.508431160163974341e-03
-1.492028121371323512e-02
3.189774058995193534e-03
5.987814373289492356e-03
6.408768990269106750e-03
-1.285599768795158901e-02
-3.517458093416332178e-03
-3.650266821622884413e-03
-4.273300898465932571e-03
-1.747634579024649401e-02
-5.328103856954038813e-03
4.974097578791203357e-04
1.893364036666800917e-03
5.733073198692782702e-03
1.372961543047329647e-02
9.284547717749220067e-03
1.578643193974482370e-02
2.029707917246086069e-02
-5.617143601805218295e-03
2.872941156298728684e-03
5.679773126132514095e-03
-9.242967325205414184e-03
-6.922427723938208953e-03
-1.097978827148734203e-02
1.209834720578060845e-02
1.611881762768122657e-03
-1.223874480097924752e-02
-1.078496082407410898e-02
-2.071322062228650104e-02
-1.535782076872765174e-03
1.163788296514370497e-02
-6.509402219050295334e-03
1.107111210272610467e-02
-2.567661870481111725e-04
-1.508037805853842603e-02
5.251821267136466860e-03
6.234179199369600105e-03
-1.735760704074990404e-02
-1.626092353385641268e-03
-1.695699337600694440e-02
1.061708744773205877e-02
5.338924055294867743e-03
-6.800156972614044767e-03
6.314354158968736933e-03
1.435800105075938065e-03
1.963037255726456445e-02
5.065465902961008163e-04
-1.831125277847035424e-02
-1.103672517849914195e-03
-1.937481767045519734e-02
5.180588566913003380e-03
-2.617326284335842745e-03
3.216989037493036413e-02
8.778330711389148097e-03
-4.137533677146162589e-03
-2.236448769585825877e-03
-7.517348154359699587e-03
4.454424117621714682e-03
1.123219462735083711e-03
4.704307830118858330e-04
1.081161345417649315e-03
4.062088868477909537e-03
-7.186822879069434261e-03
-6.681257163485748718e-03
-1.237811623777191694e-03
-1.239365956047472350e-02
6.825092900642031057e-03
-4.839599922509638108e-03
-3.878755162298972575e-02
-7.923822985683821526e-03
-1.765174853495940499e-02
2.108575892075660943e-02
1.213336912790433271e-02
3.327554011757617378e-03
-1.655082629232455804e-02
-1.170870964603881043e-02
2.222498474786781773e-03
-5.024282773848763204e-04
1.980830505784500484e-02
-1.176638748087286204e-02
-1.289735835837913479e-02
-1.784828216267444405e-04
2.114334721981336873e-02
8.259382867255747260e-03
-1.078861392299027217e-03
2.417193283198303556e-03
7.426921598711622987e-04
1.357841420452140895e-02
3.181050761375334244e-03
1.715490293178235578e-02
2.194358806253079303e-02
-1.739033843315147170e-03
4.132784475866070097e-03
-3.486797131630393030e-03
-1.379234540226702450e-02
-1.174043819794581486e-02
2.162688265540657889e-03
-1.264374582903712504e-02
-2.059334930412322611e-03
1.500046016543039873e-02
1.558816600122778055e-02
7.678886826343247519e-03
-6.506625256559050194e-05
2.764173253197513714e-03
4.766005187061198370e-03
-1.163779410186742067e-02
-8.157447205256884368e-03
4.491373473719723931e-03
1.286386450812526325e-02
-1.134026666256872200e-02
-1.712439924926385327e-03
2.695148562518277779e-02
-5.309071698156571026e-03
1.062138392798734655e-02
1.041635002027893652e-03
1.507826006318337868e-03
8.269162029611648514e-05
2.151891225299111879e-02
1.085525480607734024e-02
-1.075728809938078338e-02
-6.327852193987486794e-03
-2.003187075806358436e-02
1.554136373900202699e-03
1.215812374679983146e-03
-4.649454392315434392e-03
-2.480328488310151822e-03
2.187062630088331197e-02
-3.998911921623861387e-03
4.661446906196118657e-03
1.155395862889415986e-03
-7.954265086749852821e-04
1.532179469670369443e-02
-1.923742565311603939e-02
1.905724001358705816e-02
-5.703441293260851433e-03
1.806186322087031948e-02
-7.611770166264371536e-03
-9.099625035987671251e-03
1.693298937608061355e-02
-2.925052839433404765e-03
4.153219148850526184e-03
-1.538345849688585801e-02
-3.586677784486666087e-03
-1.496149732919373025e-02
1.316393659315077090e-02
7.537067093126196583e-03
1.941017630420037964e-03
-1.278679772783508986e-02
1.629167884536483757e-02
-1.771243388520673742e-02
-7.056964026253993542e-03
2.078352317039940458e-02
1.212042693351173851e-02
4.674641422538866956e-03
-3.042698106083142548e-02
4.052143546799433227e-03
2.071498985594276074e-02
8.030622365313627720e-03
1.091354841868033207e-02
7.388341864666413648e-03
-1.156797072696393903e-02
-1.968914115430506293e-03
2.170685706743813448e-02
1.759231496956130750e-03
-5.232996196720529798e-03
-6.679297947469819453e-03
-8.858878321289542432e-03
6.230581020136544135e-03
-2.136550092641633855e-02
-6.976870857496839410e-05
-2.029508585106717250e-02
-2.108790106303233894e-02
1.132142035732038032e-02
4.404998078323969952e-03
-1.575118905750818882e-03
4.483830680409179800e-03
1.289212264699608670e-03
3.705649382049777327e-03
8.929605171086740442e-03
-2.186330705928567208e-02
-8.711990738327906811e-03
-8.218666017711602489e-03
-1.007336193817087982e-03
8.100627313475501634e-03
-1.690647419394140580e-02
-7.715185061171218536e-04
-1.443900853557198057e-02
5.423594201448747772e-03
1.255379689645835621e-02
8.887023618541618070e-03
4.837208129585968651e-03
-1.744560150201060174e-03
-1.418577196866231834e-04
3.982273401525464503e-03
-3.583853069279300391e-02
-2.571735636093282207e-02
1.287946332999157298e-02
1.259571326608126740e-03
5.139419648157585868e-03
-3.524280252278686951e-03
7.986500753101475822e-03
-3.346623586029474906e-03
-1.026196678973874789e-03
-4.474489315657761979e-03
-9.450052990893463220e-03
-2.166044643992313945e-02
-2.591846275568967031e-02
-2.591018598054620203e-02
6.193121511644603637e-03
1.079487390789048498e-02
1.415579617289717748e-02
7.637746733581596455e-03
1.689462240466016105e-03
1.153452887547022632e-02
-1.139456293803465040e-02
-2.299093728687541180e-03
-2.124101765192589267e-02
8.277029438071403789e-03
4.367655216988309066e-03
-1.676679152343051732e-02
5.978199580298269519e-03
1.508795558687594292e-03
-8.474834920613185177e-03
1.549128233983073678e-02
-1.156993901152182213e-03
-1.474439191971331541e-03
1.286751420305735569e-02
3.347840989663126553e-03
6.243422665268257357e-03
2.181331855227510927e-02
-9.860728636670673675e-03
3.281612724752828308e-02
-7.529027356339070866e-03
5.593937248495764111e-03
-7.567426010629201873e-03
1.479890100655728222e-02
-8.051048329939896036e-04
-3.137623652964813270e-02
3.989091493891294346e-03
-4.673374542023435788e-03
-1.102035387009438726e-02
-1.848416513202415234e-02
-2.914334548521560833e-02
-9.162909550183633359e-03
2.199875891375156767e-02
1.985861066641086276e-02
-3.573604688624875195e-03
-9.883837358003482246e-03
-1.963744675223935265e-03
-2.479016910254999359e-02
-1.079806203033525230e-02
7.823378434492477343e-03
1.325378766212494987e-02
2.290020186193807150e-03
-7.569087302238932183e-03
-1.189904479732231853e-02
2.001731057235744959e-02
7.871593669565067966e-03
-2.942344205886006543e-03
1.175388036844165172e-03
-1.304169094535730848e-04
2.969616907548636945e-03
1.290379882477997063e-03
-1.032630807219378326e-02
-1.394563001629471610e-02
-1.433595715601862497e-02
-8.952696490390982600e-03
-5.808743282294780326e-03
-1.990806036729356448e-03
-4.560821218426794506e-03
1.916333730343775313e-02
-5.724955480483072054e-03
-9.449591391549553437e-03
-5.299202270091742627e-03
5.774798894018650167e-03
7.556553942422984844e-03
6.697678267502436313e-03
1.932027854607564626e-02
1.603855371521940116e-03
-1.188400328100047698e-02
6.821286776018330514e-03
-8.936418450014731868e-03
4.147026772611550095e-04
4.784609265415036734e-03
-1.703463657297414613e-02
1.936111518644202363e-03
-3.942573441626034784e-03
-1.084747120583401912e-02
-8.076109931840913178e-03
-4.499294067257807866e-03
1.027094233013742773e-02
1.607777320917920874e-02
-1.286855210175180328e-02
1.347476934361905134e-03
4.128979113598912898e-03
5.179727759769418675e-03
3.308535042224130477e-03
-1.258480241842258756e-04
-7.933302916592522083e-03
1.111912098899072365e-03
-1.245624890433574827e-02
1.503805898513846384e-02
-2.089816051178668838e-02
-6.009668377051516873e-03
-6.138051486226207137e-03
-9.755001417641597644e-03
-8.139994498614857091e-03
3.594012486175807673e-03
-8.129652364826810487e-03
2.756828242462305151e-02
-2.558479705248989638e-03
-1.958103869537336159e-02
8.771649123575041979e-03
9.041994409448925532e-03
-3.984847916877537130e-03
4.701020565433289581e-04
-1.547305697272900044e-02
-1.421215879746118467e-02
-1.123886923159046931e-02
-5.275099204688450324e-03
-5.327281654541222121e-03
1.224461906785570542e-02
-5.952019103514212192e-03
2.106607029334884706e-03
1.032547550906533392e-02
-8.392810446179911274e-03
1.265022601920785458e-02
7.322486831332178890e-03
2.747749210855772797e-03
-1.271917097600514662e-02
-6.641159867388507151e-03
-1.846028773484309797e-03
-8.088753658730003446e-03
-1.840664319581380992e-02
-1.150309446663243772e-02
-2.714036808141233586e-03
1.903119063805857941e-03
2.140674384484266869e-03
1.096910327913479949e-02
7.109291601553981762e-04
-2.532050603152886676e-03
-3.865962624795813308e-03
-6.543729279026229938e-03
1.544600998913812397e-02
-8.361526357639634255e-03
-1.892540310948190654e-03
3.206752248421355315e-03
8.632561571613722035e-03
5.106070452250343825e-03
-7.937458804845931104e-04
-2.713400741067153316e-03
-4.655585519082848164e-03
2.077469810796113078e-02
-5.049575036970461138e-03
-8.644220939980315141e-03
-5.741769680678484580e-04
-1.065548267970843578e-03
8.903682672249121173e-04
-1.112574295051622052e-02
-1.115267151912277717e-02
8.406385908963986270e-03
6.444684003658293289e-03
8.382954930351475082e-04
-6.863915187172311234e-04
-7.042128433451918168e-04
9.942693541685622416e-03
-1.569554234651695992e-03
-3.256096998743933033e-03
-4.620497394775061918e-03
-1.364412535727331337e-02
-5.362902240964540976e-04
-1.017042521396557472e-02
1.818216698289423349e-03
2.944083959000743517e-03
-1.358936377163065361e-02
6.857883642530822332e-03
8.056661879012494420e-03
2.658441931561471294e-03
-3.442416181196469947e-03
-1.908818304751360925e-02
1.834021857742070341e-02
1.816315503333161812e-03
8.922605330685161665e-04
-1.477287686312234172e-02
2.871039198851516993e-03
2.063128934488032279e-02
3.373791559040692761e-03
-4.013313613072603224e-03
-3.377781252995647708e-03
1.690893566115099500e-02
3.392804973657936526e-03
1.537771471987950953e-03
-5.596300471973155236e-03
1.053832143100460507e-02
-1.077125417283706027e-03
-1.003728009946152494e-02
-5.510146999201656799e-03
-6.483393815287434407e-03
-3.376802937067236235e-03
2.112466145344511510e-03
9.647340927198804622e-03
-4.055502043680688298e-03
5.488800793663953221e-05
-1.193698962512615945e-02
-1.218388786312673243e-02
7.235776265279466116e-03
2.941095504441033990e-03
6.723819725274705547e-03
6.929074388474247472e-04
-1.935895918404177685e-02
8.860929976990186696e-03
1.189660056829728273e-02
-1.097742868305846831e-02
4.682118161119444913e-03
5.493279671226266193e-04
1.110240179847605093e-03
-1.350691761411744636e-02
1.828248711467150844e-02
-2.661001954907973952e-03
-7.913105029153416799e-04
1.034397237914806353e-02
1.637550483710868221e-03
6.213451940953605875e-03
-8.886513879828895901e-03
-3.591743804695495240e-03
7.110185524652501768e-03
-8.332873467498905229e-03
-2.470973955106236294e-03
1.568903608814355881e-03
-1.975628598993775520e-02
-1.593067122687185158e-02
-2.752381450953772079e-03
-1.235601508998486475e-02
4.741825157212116448e-03
3.964751611570243965e-03
-8.713418715014416283e-03
9.086386338872039919e-03
-7.714346092068832990e-03
-1.860612624502773482e-03
-3.927844412695757556e-03
1.274675842476779772e-02
5.629508719401390970e-03
3.961226101049913212e-03
1.349638042754502422e-03
-1.002656605661744575e-02
3.191832944998003376e-03
-8.386095942535620393e-03
-5.634537486288110700e-03
6.951662540945503614e-03
-1.287716044079459214e-02
7.246507961149953152e-03
1.406944270119119163e-02
-2.946938301547523138e-03
6.758866205048424947e-03
-3.077322300777223830e-03
-5.315578933549966988e-03
1.861746198914623332e-03
-8.066185134949813498e-03
2.406275749883609802e-02
1.835813027706138106e-03
-5.352158129677424270e-03
-1.756661777543704409e-02
4.801268757086133397e-03
5.925944626472477890e-03
5.197068195361271431e-03
-6.399736601389758792e-03
-7.269768755512977937e-03
-2.696613285869220705e-03
-1.055497404346704589e-02
1.420143871006011860e-02
4.897048415960226532e-03
7.405497963900715790e-03
1.273896678192690257e-02
4.676198877366770715e-03
-6.461201919943049439e-03
8.263561422209906790e-03
-1.275100255467243645e-03
9.804790275990797350e-04
-3.923677220817034343e-03
-1.522629949784530274e-03
-8.704477312739799513e-04
2.493695592570660188e-02
-9.748139653203934801e-03
-2.421568840740394974e-04
-2.238279945806793611e-02
4.962819327413434296e-03
5.472419922655207512e-03
1.437865449167953676e-02
-8.124591019700358116e-03
2.876533071568448778e-03
2.317435915196566776e-02
-7.799740851680854632e-03
-4.477242256263294640e-03
-5.594245588923235993e-03
-7.314400241463932598e-03
-9.203471800050891383e-03
2.094016924856658204e-02
-1.828232292969458189e-02
1.233311165932539193e-02
1.879301932445409835e-03
-1.180753729458709593e-02
1.488114714542413319e-03
-5.181588574991326246e-03
-4.259772281895918278e-03
1.104589022324288907e-03
-1.880281743780186018e-02
-2.214641894852873230e-02
7.511482100705324169e-03
9.158545912704896610e-03
-1.893889882439312323e-03
4.300439476397578155e-03
5.245018431463940693e-03
-1.354202164402392577e-02
-2.099328535908784061e-03
2.841833220679414618e-03
3.974349015966505312e-03
-1.854243907507076294e-02
1.039134762475767831e-02
-5.028249082040478837e-03
5.844181386400104997e-03
-1.177879244165387466e-02
-1.259388175005007535e-02
5.509245041013647627e-03
-6.179964165517632183e-03
1.242282613572552076e-02
-8.104943834234521610e-03
2.047389401928310579e-02
-1.529378133319204795e-02
3.589880315555348932e-03
5.591977257447269811e-03
2.319757377755640032e-02
-1.191935955200316283e-02
-7.329056550848334420e-03
-4.165543495547407646e-03
1.458610595669311387e-02
-5.275185263198822055e-03
-1.169134559330113794e-02
-6.755921855718664132e-03
1.831299023282641214e-02
1.249217351526542416e-03
-1.243944429025472739e-02
-5.432887292655307065e-03
-2.373821062312566482e-03
-3.899196226646780075e-03
8.957532301134386128e-04
-5.420837291972910657e-03
6.576755409408340664e-03
-5.158077245321148439e-03
-4.166413441464260001e-03
1.321347097310171873e-02
1.085522965379059207e-02
-6.033548288405110246e-03
4.683728671695985141e-03
1.631852401691517157e-02
6.592431833002839175e-04
-5.354723437614020143e-03
1.802359389717277886e-03
-7.776841849954545596e-03
-1.448748795068030212e-03
-3.698853860655843678e-03
1.871865908249803392e-03
-1.422144421663514837e-03
-2.317986844502889997e-04
-1.315497865272392992e-02
-1.562697180805225003e-02
-2.481712941688608842e-02
-8.190539090870106731e-03
4.998814739471324313e-03
-2.883608242612682726e-03
-2.126911548577026679e-03
-7.901675113571024478e-03
5.761535905561608259e-03
1.029582111520585368e-02
-1.717595949302464647e-02
2.506944466542467952e-03
4.807904659725100067e-03
1.633347523721218790e-03
-1.099506315510570022e-02
-2.849178814359556305e-03
-4.176170693875358962e-03
6.337006507037540705e-04
1.332883735754567325e-02
4.378909248898001441e-03
-1.038027402726502887e-02
-1.767395265187908168e-02
6.251011199981925878e-03
3.448511079079320807e-03
9.405036509192261571e-03
-1.169074429254675709e-02
3.342344306184473739e-03
2.133023012543448782e-02
2.191134800921802975e-02
1.022934178077718713e-02
-5.683589407234065222e-03
-1.368993509623657456e-02
-7.557437966888842611e-03
-7.885308886105826462e-03
5.444786735041679232e-05
9.597988274430755903e-03
4.254843412070096484e-04
-1.297420442337999906e-02
9.787055377687571556e-03
-2.772685417397023969e-02
1.275121115714017254e-02
-4.030284847758087334e-04
-6.372197237218353918e-03
-1.692153050792552516e-02
1.054316240831637205e-02
2.406275508494470569e-02
-5.571684171494088386e-03
-1.655106234797429647e-04
3.583741057806560937e-02
1.019854247960306007e-02
-1.294059986233378132e-02
5.873306644251239175e-03
9.134282621901629665e-03
-2.752792581622017041e-04
-4.965576773307513701e-03
-2.328635267620091098e-02
-2.375938453245316981e-02
-2.841331245427703225e-03
3.457153250877011141e-03
2.144547786984130327e-03
-1.571910720379217363e-02
-9.513609099488206863e-03
-1.015494668477772214e-02
1.621417650730349810e-02
1.133118116126370818e-02
1.832661756238054482e-02
1.095733941947271044e-03
1.448528270403782493e-02
-1.604092487298472425e-02
-1.012366086395282035e-02
1.059490401152338515e-02
-1.564029912614317910e-02
1.549110950971623740e-02
-7.474123506805203758e-03
-6.300127520913194508e-04
3.464436553780834440e-04
-6.014477258271069306e-03
-8.223465156780653679e-03
-2.806029506002821489e-03
-2.383794886359487386e-02
4.152898311596489415e-03
-1.124358905575090044e-02
8.366281499566046234e-03
5.645087978236843114e-03
6.983644219822005006e-03
4.380758612873188185e-03
1.435377850926894319e-03
6.453762911272535770e-03
5.097984689835266016e-03
-1.016149691399610179e-02
-2.559767187057143765e-03
6.399734290570044393e-03
4.686182280506138824e-03
1.785224974943475443e-02
-1.256368172897800832e-02
-1.416855662211949536e-02
1.669944208770605606e-02
-5.837015310282253101e-03
-2.152778893491101141e-03
1.062771215974849665e-02
-8.042103382277218659e-03
8.820518970297673220e-03
-4.828193506448974628e-05
7.872028721171245649e-03
3.560491947475644212e-03
-5.575643967166248917e-03
-2.318003986239774213e-03
4.122873499576000349e-03
6.085982296817944552e-03
-3.590430365234254222e-04
3.653443541319472462e-03
2.694868956707856603e-02
4.858650300513894967e-03
4.015779807160667000e-03
-1.299512929647178051e-02
-8.333406696200701055e-03
2.920107532560926259e-03
6.193195028084764846e-03
-6.482615193316977609e-03
-6.913467762612992250e-03
8.432670195675376693e-03
-3.418470830532063798e-02
-9.865142239389407958e-03
-1.785261409910086916e-02
-1.687517463661808090e-02
-9.212744068491475003e-04
1.174392726811729869e-02
3.448782077185450368e-03
7.998231669799989521e-03
-5.427579522670569236e-03
1.421151839364203501e-02
-5.769267362422407855e-03
-7.632910746440267798e-03
-7.865947520928017172e-04
3.087061479865936802e-03
-1.330597407848884382e-02
2.982671475573521642e-03
2.359933961229630003e-03
-1.818795777731241695e-02
-1.031729587889205308e-03
-1.793001766598105104e-03
9.946365299819935352e-04
-5.332150697494858656e-03
-1.176766369104315134e-03
-7.190123202818986519e-04
-1.428259227170095859e-04
-3.897771509029939688e-03
5.942752175722995980e-03
-8.699536093294364322e-03
-5.076865188785181782e-03
5.212911871574805144e-03
6.013497244938907291e-03
-9.689434117026784338e-03
-5.786731078121512550e-03
-1.790527515760026445e-02
7.913484062145842435e-03
4.476816120358158985e-03
-2.909891874082984331e-03
-1.298542563858691608e-02
-8.498512353237173619e-03
-1.155576384358945018e-02
1.837536200861170001e-03
6.529241309887146190e-03
6.934700851605839905e-03
-3.896270427033766276e-03
-8.300104789835120039e-03
-7.122089302067169739e-03
-1.169209673659018199e-02
4.400803415463637458e-03
-8.434458288850109342e-03
1.124010276107966985e-02
5.343458963203505385e-03
-1.840825501469506255e-03
-5.559428137984427643e-03
-5.125387970369747574e-03
-1.480362573162711777e-03
2.362039971796673753e-03
9.048992260585982106e-03
6.091165792792948425e-03
-1.803292981326157663e-03
1.610441613937746083e-02
3.432063114436904351e-03
-1.492050909498818766e-02
1.812116669767134449e-03
-1.467739061947948877e-02
-3.151637123223458015e-03
-5.445324476548574558e-03
1.093709682240914804e-02
-5.768004058946321101e-03
-8.358726527587142727e-03
8.455301742330390002e-03
9.271816427036397995e-03
1.765038970782115482e-02
5.259413501476025744e-03
-6.499118437379464153e-03
-1.938051312128835245e-03
9.471778745833143651e-03
7.329219279803739738e-03
1.744185426947233303e-04
-6.510467416163819368e-03
-5.936978835838229232e-03
1.394142509008730949e-02
-1.215883306516030160e-02
-9.497798263038878877e-03
-4.345083966365344101e-03
5.037008695699380853e-03
1.457647105324544508e-02
9.405821713602720291e-03
-1.636755518901448440e-03
-6.880400048810045473e-03
3.774715862820122309e-03
8.368750094048673467e-04
4.901853513783526427e-03
5.750811375992651714e-03
2.713156702167890399e-02
-3.462851316149945929e-03
-6.793084705891551389e-03
-6.583812602356946091e-03
-1.571321999751347715e-04
-5.124146355420157277e-03
-5.372667820017600938e-03
-4.620405988428466851e-03
-4.825394007580064608e-04
8.571044265951585292e-03
-8.689776589811267285e-03
8.588879644571775079e-03
-1.237436267348690673e-02
9.888213971207194392e-03
1.731821204098300815e-02
4.812494712567823817e-03
1.015939172518870275e-02
2.402550590958987299e-03
7.089323222490671525e-03
-2.060050065462832106e-03
8.186959879218549258e-03
1.309825735239502839e-02
4.132903549454062381e-03
-6.217932227441543534e-05
3.686600840447814588e-03
2.328741158556456650e-03
-1.096652638762644558e-02
-5.343270579382309281e-03
-3.323843382534032598e-03
-2.951354281447277159e-03
-1.515436251787097115e-02
-3.842216839325985744e-03
-5.385366693066651750e-03
2.208280774625137957e-02
6.854172382796890929e-03
-1.391708345508400196e-02
1.121159696197679412e-02
7.879646747268459483e-03
-1.734424343965829118e-02
7.963278224925507756e-03
-1.013812172061120086e-02
-9.116783367692457909e-03
-5.600769462638500659e-03
-9.140837016812841664e-03
-8.208403365939717297e-03
5.098137788955987328e-03
7.454192881956206093e-03
2.219199007660749897e-03
-7.736293089450346425e-03
3.367689643447583508e-03
-9.472694639974297767e-03
1.444118894711595054e-02
3.254154979866560708e-03
-1.480236888916172319e-02
-1.708649608013651858e-02
-1.049482803710498520e-02
1.300347700767920910e-02
9.602792419355484985e-04
5.431153465685245769e-03
1.766820928109936670e-03
1.597005840540359836e-02
7.410221400649872475e-03
-8.563917883834376230e-03
3.520359353894598770e-03
-8.212169631318341420e-03
-1.936047814152604910e-03
-1.759326240271802747e-03
-4.532500692163508871e-03
-5.280294945850634407e-03
-8.929068414692651820e-03
2.223287100603858410e-02
1.170392373031307540e-02
1.132792032657426937e-02
9.097423301766058637e-03
1.709883496699394654e-03
-3.244297378405860618e-03
5.744346242797191207e-03
-2.998415327178467413e-02
3.818480953840608892e-03
-1.214569609797798433e-02
-8.065871562604265757e-03
1.069201590389520784e-02
2.519851958596672908e-02
-1.750034939826207794e-02
2.488123096781371876e-02
-6.980256255081133954e-03
1.693752880295935209e-02
8.382216439245733161e-03
4.731490219638388728e-03
-1.048056868375358067e-03
-1.092849745426564562e-03
-2.059577826600483136e-02
1.661195214012157464e-03
-3.809460317223829773e-02
2.499864985142790774e-03
1.024961705634211233e-02
-7.054432173712331215e-03
-3.842553725021000555e-03
9.113844036339868032e-03
-3.965293849165333478e-03
1.428993874108707221e-03
8.659865020033736052e-03
3.629792835369922283e-03
-1.221956094127122673e-02
-1.358750833745374365e-02
-3.945993720053369430e-03
-1.931722791802405192e-02
-3.830962101426711036e-03
-1.948781380068925415e-02
-3.832493185720993890e-03
3.901315275597334268e-03
1.219438776166045096e-02
2.838943205454001750e-02
-3.212905170337150909e-03
5.457967038739237713e-03
-2.839808692286463921e-03
-6.048755570780052840e-03
-1.656339306526771402e-02
1.089924872959273372e-02
2.193341971956611677e-03
3.002739040037905732e-02
2.656869795646222589e-03
-1.173838548629125818e-03
4.601096491355206354e-03
8.553391799063479045e-03
-3.020521434573836261e-02
8.084771222963639883e-03
-1.568888674287527776e-02
-1.399314982428480868e-02
3.400154432467097248e-04
-1.252743183712187562e-02
-3.834145123204350542e-03
-4.370833697061766998e-03
2.118882123021227984e-02
9.441492296649150670e-03
1.369790150069395696e-02
1.209828216541321971e-02
-3.474466669921303600e-03
-1.311219003363135217e-02
-3.074987017107711287e-02
5.711197287077121945e-03
-1.145701883879308471e-02
-5.390394283883343657e-03
-1.695698860658401141e-02
3.165932398606068066e-03
2.134689946440767282e-03
8.372744504930923135e-03
-1.028038337050330743e-02
-3.180440855903089812e-03
-4.361026034444537118e-03
-3.039837048519247850e-04
8.308137129855631617e-03
6.528058707785691812e-03
4.240628240764167910e-03
1.514897211201009751e-02
6.721398505749509936e-03
2.784903584753701655e-03
-1.332813478794471311e-02
2.441832207031039131e-03
-9.088630112520859269e-03
-1.873335790080171703e-02
-1.001440699580251293e-03
-2.136011905892055279e-02
-4.639065063946245376e-03
-3.287184276405755168e-02
-1.618032582427032448e-02
5.252090528111726282e-03
1.495967209244058235e-03
-4.695761254826976046e-03
2.287460659578709893e-02
-7.696541463402662049e-03
1.660150206814969007e-03
-2.040533852005591703e-03
1.240438356839527068e-03
-6.945622157565225011e-03
-3.639405006155017322e-04
-3.884770138068842880e-03
-1.497716522124559885e-02
-1.259122826859737122e-02
1.768465537022800849e-02
1.161554909169819870e-02
-7.458007928135695040e-03
1.125408656284363103e-02
-1.880435353027109374e-02
1.112457994392216168e-02
3.298422309699070281e-03
-3.559034578671863014e-03
3.548658215420799362e-03
8.642306779958302794e-04
-6.192659546136815123e-03
-1.030962992437670783e-02
-4.105876358821617875e-03
5.694868593831291063e-03
-2.192428026813482162e-03
1.710468707410698133e-02
-9.345047651326604185e-03
-3.482195386705284543e-03
-1.186261009860896203e-04
-9.529582149440132127e-03
2.050619371921637984e-02
1.878087507021357263e-03
1.779324245659071047e-02
-2.173827763451547171e-02
-9.216980938241902191e-03
6.036913829950342480e-03
4.742701516298310736e-03
1.084719849824791228e-02
-1.575404462369095135e-02
-2.447221004391886019e-03
-1.283882189865514535e-02
4.032018040854385907e-03
2.649404788371305473e-03
-6.160084904045803195e-03
5.534381720967393101e-03
-8.011108398873359113e-03
-1.174727628543023594e-02
-1.250685664018768434e-02
6.830754378281105738e-03
-3.399486013678693660e-04
-4.311518975197881944e-03
3.179114683927945339e-03
-4.223755521391457830e-03
8.278356013487867676e-03
-3.057320807939386707e-04
1.432742511349004329e-02
8.843784257018109420e-04
-1.318908947420628121e-02
5.526042358371664916e-03
-3.417650509710772446e-04
4.390343469691029019e-04
-2.279154706501217847e-02
-9.419272425846109478e-03
3.791036106719861479e-03
-2.398147816443531484e-03
-1.247337302692078055e-03
-2.098619484952805522e-02
1.549461791633808747e-02
5.715340981679120115e-03
3.991228186522742874e-03
3.502420647224083802e-03
-3.404157405978817941e-03
5.012723670060425726e-03
-1.351714617242665353e-03
-1.756819799104992683e-02
-8.474679997563893188e-03
-9.357449950602819005e-03
4.271803771379051144e-03
-1.364567278305523455e-02
1.215623851613450469e-02
5.137395414640380520e-03
5.018946838002211717e-03
-4.640498820922210263e-03
-3.059510050973761764e-03
-7.134631047523452840e-03
2.906706388873462124e-02
-1.006975324864331153e-02
-1.041290224602658618e-02
-5.507617010646820473e-03
1.274958964876252675e-02
-9.636185086567924940e-03
-2.354069837978772610e-03
-8.706103867527905174e-03
-4.806289154254192800e-03
-3.960984393105863692e-03
-2.152926090872848280e-02
-1.030293698446768788e-03
-6.294402087802901391e-04
-1.426755325673277792e-02
7.436642536223617844e-03
-6.766348967810025851e-03
5.001937841371636995e-03
1.826885689497639853e-02
-3.217968249619109107e-04
-2.177548376040705849e-02
1.595318849956445240e-02
-4.727907471812759811e-03
1.943632057787703484e-03
9.111458067357219859e-03
-1.730329506630529438e-02
-2.506192673145685428e-03
8.301079423767959362e-03
-2.260034516291934553e-02
-4.052427443329356671e-03
1.138199212083370118e-02
-2.409834952629092818e-03
-2.660770166620934300e-03
3.565770461510583012e-03
1.299467615534421507e-02
2.296845894595514470e-02
-4.792943265444306322e-03
3.453618530544365697e-03
-2.085643860258007930e-03
3.061029020405759381e-03
1.363417055539413621e-02
-1.835655140439770763e-03
1.221548770822544067e-02
2.289475134579689423e-03
-7.197011857042737680e-03
-1.577852754813978062e-03
2.399282107682668749e-03
4.103254990497154538e-03
1.516826268877222682e-02
-1.662852917813456219e-02
-8.696876748265892909e-03
-4.654689740780895875e-03
1.258959275415014525e-02
3.065647048982773470e-03
-1.534895933902559809e-02
9.571901044004443165e-03
9.987373108262554214e-03
9.837752326935083128e-03
-7.404703653399195319e-03
2.779121755582124927e-03
4.640736076372887521e-03
2.974356992092242608e-03
-2.851977334620241136e-03
1.067351005569862083e-03
-8.521106628134400909e-03
5.424496365603547442e-03
1.081173544611809499e-02
-1.335882845573107928e-02
5.337639522326735608e-03
-7.564814934003664774e-03
-4.732693625253191726e-03
1.122812531972832480e-03
7.617775621760651886e-03
-5.238615312561135245e-03
1.066665830914059580e-02
-1.892540494733055802e-03
-5.845274405873071392e-03
2.507855180255076730e-03
-1.327948301798469698e-02
-1.120916649926205141e-02
6.326051812716176545e-03
-1.114284381301405141e-02
2.311639070692136054e-03
-1.258526275179927371e-02
2.042385647788355478e-04
-2.230377957543509468e-02
-7.592678341580093478e-03
-9.340802473718332402e-03
-1.164755795415238666e-02
-5.864117644570741687e-03
-3.337150292218681209e-03
1.270682550597545396e-02
1.148502639503791618e-02
-2.741354509129087947e-03
-7.912764612144421172e-03
2.416915210233972974e-02
1.394747245574312275e-02
-9.569951909008323626e-03
9.721232331694393963e-03
-1.026181586665006820e-02
4.290889073080822631e-03
-1.550056840939022240e-02
-1.584018459163327730e-02
1.004524681906899392e-02
3.153052745214202091e-02
7.231782106322478566e-03
-7.568555771202800653e-03
3.704278952083151985e-03
-1.631757796162116659e-03
-1.291948761100854791e-02
1.168249032814037795e-02
6.596002595136733412e-03
-1.553574746177152893e-03
-1.791958744311750520e-02
8.156971665159395285e-03
-7.690054364539330133e-04
-1.414963463132400817e-02
1.633908139506551598e-03
-6.080669933637130632e-03
-6.089583746293118424e-03
-2.396704060707411515e-02
5.024240239938371384e-03
-3.197736346191662644e-03
1.067385320252762886e-02
4.512481606463400810e-03
-3.249030326205765498e-03
5.653851482470518067e-03
1.974517823704468461e-02
-5.059512494796080360e-03
3.025720435869801920e-04
6.949383715119710142e-04
-1.164669239631988679e-02
5.809431462102259552e-03
1.048398397749381906e-02
2.491860107700402237e-03
-1.541794032146492736e-02
-9.444866041008543461e-03
-1.815414535221384143e-02
-8.415924189419144190e-04
-2.252580366988673685e-02
-1.003712276913286405e-02
-1.262069513520541059e-02
4.126249532792245454e-03
1.259583314065170975e-02
-7.700511299629842800e-04
1.895650614280498239e-03
-8.438006482311716239e-03
3.252568105313878664e-03
-1.377613365495372263e-02
1.169843525010350396e-02
-2.683292374579374778e-02
-5.443191055066645689e-03
-9.173353599876176920e-03
5.484706215625334211e-03
-9.756892360478981382e-03
-6.799641683417769790e-03
6.464772544683396183e-03
4.259877771091092474e-03
-4.144920449492841240e-03
-5.675224438654750958e-03
-9.036280281858254885e-04
9.056043445997344690e-03
3.530754880018971420e-03
2.085899183606197520e-03
5.656716849591239375e-03
-1.490220530917309334e-02
-9.401179599698302261e-03
1.987683683260189817e-03
7.999987926620362108e-03
-1.213473561434476886e-03
1.059996463549924342e-02
1.955951148170379308e-02
3.514538468127077352e-04
-1.498561601758016323e-02
1.243952579876051942e-02
1.196659641196636328e-02
2.003091635619212458e-03
-5.206221270326619405e-04
-1.145303354292841235e-03
9.160784970864992507e-03
1.105703507885039301e-02
-1.106046436291564794e-02
4.098859184860038571e-03
1.266771736184130366e-02
4.344286935429573365e-03
-1.610057084982395234e-02
-4.545721072230853206e-04
1.370397850733805212e-02
-4.422847908294172230e-03
1.007095064374720003e-02
5.240604081603477717e-03
7.126255195228844118e-03
-9.559885544838218549e-03
8.963008667868669829e-03
-4.184145116597283269e-03
1.000003517676140846e-02
-3.760971828133678058e-03
-1.226458628683466980e-03
-2.943152887559873348e-03
-1.612686436486604133e-02
-5.773879827230885345e-03
-1.778257315554441836e-03
-3.408331364555421995e-03
-2.616975700136683989e-03
-8.031368437445098908e-04
5.748401108542176971e-04
-5.419119937117037634e-03
-1.557653413852973408e-02
-9.648618045477310801e-04
3.131566709972659346e-03
-7.006889584702895128e-03
-4.069473317426384323e-03
1.872730764282645038e-02
5.685689892553562157e-03
-5.887964670755435441e-04
1.496187584309905359e-02
9.502265123574526670e-04
-5.618478059430792419e-03
2.603348411643338026e-03
7.228211492929893962e-03
-5.148548062740429358e-03
1.691992343773933601e-03
1.799728685686187782e-02
-6.101072363969700652e-03
1.267767199103108679e-02
-1.170666227037203168e-02
8.972873029687900709e-03
-1.925547884000546398e-02
-1.187909877236555632e-02
-5.777090693387515290e-03
-2.813587807562362457e-04
-1.583754683197299146e-02
-5.526362259191465974e-03
-1.238773263923300533e-02
-7.052331020757278066e-03
5.046266372511133691e-03
1.127724935417144005e-02
1.994511819204544678e-02
-8.722412538097627788e-03
9.569469042684823276e-03
-9.828254836739771030e-03
-5.937723882125609323e-03
1.674425326165943431e-03
5.955439476785191928e-03
6.065193591484342381e-03
1.468608832512821247e-02
-5.178426314466596722e-03
-7.736474632558362264e-05
8.420773159775929786e-03
-9.199729044842413009e-03
1.726033670215516153e-02
4.972652849901455785e-03
4.091460468777941700e-03
2.093223968727483605e-03
7.902484378341031665e-03
3.770464385498669291e-03
6.593019044836305985e-03
1.012092295415508748e-02
3.408827155625435406e-03
-9.250501266919536336e-03
3.708091865221513090e-03
-2.031234880563420955e-02
-1.890153932696350594e-03
-1.071296438455435901e-02
-2.661761721998221267e-02
-1.244801464434137570e-02
-3.908658714351118807e-03
1.258707339130041812e-02
7.483897264977957750e-03
-1.317311182503134136e-02
-8.771968343788474898e-04
-2.814355006962884417e-03
-1.841765445027531561e-02
-1.072969379641389165e-02
-1.422070315368841389e-03
-1.020986981811756664e-02
1.139459067706690950e-03
7.081233366912429404e-03
-2.241384690808939997e-02
4.844383556799797090e-03
8.233608936906994377e-04
-1.272812242368098583e-03
-2.374080730097829703e-02
-1.357190726093886017e-02
7.035730664190147782e-03
6.034702319324436980e-03
1.297547926375279201e-02
1.959232950897060385e-02
9.609803306169678897e-04
1.808977246117142532e-03
-1.316204101013332102e-03
-1.377331480306163806e-02
-4.834937483598041041e-03
-1.815815198941215201e-03
3.954034770697965884e-03
-3.894183784817732349e-03
-1.640194192164594767e-03
-1.148532712455586219e-02
1.152479451009964968e-02
-1.210639638367387062e-02
9.228578963843995370e-03
-1.724309023239198671e-02
-6.596827911944593177e-03
9.720544469490737319e-03
-9.572671018235705959e-03
3.508854122877968357e-02
-4.136253978836192113e-03
-3.133280113995547816e-03
-2.836183408385288085e-04
1.548724032216820812e-02
3.357101893280642086e-03
3.065742361989709681e-03
-5.132805161921629800e-04
-1.306050572362341469e-02
-2.939852213320996895e-03
-8.970757457317533878e-03
1.781076897125154213e-02
1.053297830924313644e-02
-5.711917148854154212e-03
-4.487117218488588868e-03
-1.972838567307543672e-02
1.231842117171568158e-03
-1.684346784617129708e-03
1.429079304151610781e-02
2.394954984769868435e-03
6.379136921192570669e-03
-3.334239823887407642e-03
-1.803962449389348924e-02
2.621144534246412031e-03
5.976943265575690098e-03
1.975629091418764499e-03
1.353483290496830527e-02
1.039227557089853621e-02
-7.917601462849081784e-03
1.136223052551035145e-02
-1.128180571324815910e-02
3.868235588005033369e-03
6.421946171539011719e-03
-1.473734283578902009e-02
-8.435813872674006965e-04
1.013198308217371814e-02
1.968789564090309488e-02
1.140041591056875593e-03
-1.883096370951181783e-03
-2.256352185550297706e-02
-1.982333237976385831e-02
6.153862763328843237e-03
-2.185680378091210685e-02
-1.049900035599055613e-02
