-2.493964717725586089e-01
-8.844766900349827765e-02
1.968025450009423805e-02
3.790488669505146044e-03
4.081575177473358851e-01
-1.318651778655092199e-01
-8.174824524142314209e-04
4.817396097546333689e-02
-1.471053932507461123e-02
-7.960431356642765077e-02
1.253394645628219950e-01
-6.513685384434326348e-03
7.325565545680839952e-02
-1.587860907078073314e-01
-6.677100454699508303e-02
-2.364784420536675952e-02
2.210490011654470469e-02
5.038424936744353294e-02
-7.445740468241593413e-02
-9.645281652186518673e-03
-7.889773952859531481e-02
-2.194104232414680056e-02
-2.606854801004524456e-03
1.348753506687713592e-02
-1.320726454905088998e-01
-9.055022247446168834e-03
-4.482804835615725875e-03
-2.472614880646065508e-02
-7.476461116263667661e-02
-4.940029295105115986e-03
3.555847223740091906e-02
-1.542970349021687525e-02
-8.521940820878214778e-03
-1.286180535270718128e-01
-3.627948252951062637e-03
-2.800739378619213071e-01
8.887401263538447643e-03
6.728515136325652346e-02
1.750461405005085125e-01
-1.170419673072778666e-01
5.179353001317199209e-03
-4.325380562745401690e-03
-9.488423146044935863e-02
-1.829988600989210235e-01
4.713530283679718408e-02
-1.239418403991728174e-01
-6.900762620650527021e-03
-4.620978672723489167e-01
-4.993164954340852113e-02
4.048842705828462063e-02
-1.722152936543708823e-01
-2.297335675330805863e-02
-1.972192479023329725e-01
-1.678305447803961625e-01
-1.570795651555090960e-02
8.857395265769812953e-02
3.680012510185291102e-02
1.484788959326611979e-02
1.926489793745384677e-02
-4.610740162059814851e-02
1.342866163379252253e-03
1.657575841446537745e-01
2.631362843256321651e-02
7.112299006706915283e-03
1.529961633167117863e-01
-6.617422283543873684e-02
-1.174596689375270904e-02
-1.083696968096688473e-01
7.504555272715120184e-02
1.292681948770557920e-01
-1.508969007307358820e-02
1.739140075024005194e-01
-4.721583540994326277e-03
-2.172036353450072232e-01
-6.434253506983005078e-02
-2.483843801055262701e-01
-3.376200930222709312e-02
-8.843757830792971231e-02
-1.833709776634409039e-01
-1.711546018322957496e-01
9.902990455244728429e-02
-3.821815767398615421e-02
5.584873307203107101e-04
-2.181996997464712151e-02
-4.104045881658986011e-02
1.429290889398409925e-01
-5.717017933394561574e-02
-2.581696990056090227e-02
-8.464048164607893346e-03
-1.272497517485269300e-03
-7.966767565498815429e-02
-7.803654485133650065e-02
-1.395204851572212357e-01
-1.961226942504783535e-02
2.709260438254856504e-02
-1.006262372691692775e-01
-3.147057893150057017e-02
-1.584993106523883422e-01
1.502591973057113284e-01
-1.618897177413190502e-01
-6.425108014234943987e-02
-7.824960485980783642e-02
6.313209186284196583e-02
1.219365390403879569e-02
2.411520707112900161e-02
-1.004579439366423688e-02
1.506078047734037140e-02
8.045772711940962774e-02
-1.238918669095389995e-02
3.640695049374541303e-02
-5.407515973588991436e-03
7.753129549300522482e-04
6.921557197476092393e-04
4.212656479527400466e-02
-4.619366667533215953e-02
7.286740613219390428e-02
7.204382473049601721e-02
-1.703763801884035020e-02
-6.255946761788930277e-02
7.429597527574310911e-02
-1.151209516302800218e-01
-1.110803846805404199e-01
1.327571854652354749e-02
1.210506037088952651e-03
-1.092720350933446549e-01
2.184771377087205493e-03
8.720522196121367059e-03
7.580072639425255998e-02
3.503274431705198644e-02
-2.095263733607390533e-04
2.945497267633390755e-03
-3.120635824838547540e-02
-7.910729539910990940e-03
7.150247453513565443e-02
-5.816959646208676865e-03
7.818921627605870950e-02
-6.399204786885399204e-03
1.581490039776731193e-02
5.678287014644939346e-02
-6.341406685777503660e-02
-8.061853145066829110e-03
1.335393792447795436e-01
3.391129380226619392e-03
-6.041962147337072431e-02
9.683587751891776715e-03
3.691517224351416326e-02
4.539612129268731297e-03
4.557360523843971556e-02
4.515862855994313280e-02
4.037281460812889786e-03
1.958989480177566675e-02
5.448383662969697155e-04
-1.106064195978074677e-01
4.615295497128357044e-02
4.072780790054205541e-02
-1.105860469256979423e-01
-6.146019861723333276e-03
9.849643743912772642e-02
1.104903146172284134e-02
6.662757471912068852e-02
-3.494849068087624040e-03
2.413329372025878328e-02
-9.912332112776504542e-03
1.055365675446907556e-02
-1.694787193470469796e-03
-8.146052802279705324e-03
-1.622665993035954032e-02
1.941927861470835182e-02
5.184152049447657978e-02
5.159026776050763125e-02
7.482187033521493259e-03
1.192751693459815387e-05
-1.149895714032397355e-02
-1.594018342207044747e-01
-7.752917017283814105e-02
-9.963679489465772365e-02
2.213429061925042962e-02
7.014679245512596417e-02
-7.254371669770259823e-02
-5.734317191711810896e-02
1.132622587041151319e-01
9.890148778865430132e-03
-2.685551324902702396e-03
1.617799938068803511e-01
-9.291727389732720721e-02
5.151108061415582418e-02
1.738294198070865770e-01
1.258413769953971584e-01
-5.431845406165292621e-03
-2.444027420761573158e-02
-1.410729937876929740e-02
1.975498511195881157e-01
2.896091536008904219e-02
-9.022869297088138840e-02
-1.919149248943056302e-02
9.496909628451798840e-03
-4.137799246764555655e-02
1.810005738746481296e-02
-1.251216217676838494e-02
1.409135894314398063e-01
-2.589406961326488205e-02
-5.222500858094495345e-03
2.584535069975355329e-02
-3.280124207029495257e-03
5.973306295483784417e-02
-2.362537853643622079e-02
5.689996388207421187e-03
3.149259177960366668e-02
2.075707013074110357e-04
9.446856821926578884e-03
-2.985852059102870378e-03
5.078731709690249667e-03
3.464230750636843742e-02
-1.862833666063202359e-02
-2.083263404539374350e-02
4.964409909804661652e-02
2.775709067140386815e-02
-1.880836008428440551e-03
-1.623514241550655379e-02
4.350182435377508705e-02
-8.451474877042806921e-02
-6.225341837084386043e-02
-2.232672440401453802e-03
4.161465439325121723e-02
-8.578041115951674789e-02
-2.425098669816062522e-03
-7.643894857291467886e-03
4.646906113570023478e-02
-1.880127055546571349e-02
-1.249036255644098668e-02
-6.990537828879700780e-03
-2.153005337957482682e-02
-3.458840388177301418e-03
3.055729783399589727e-02
-1.610528687214194581e-03
2.163944951405652115e-02
-1.101912629903250077e-02
8.381909026855618745e-04
4.646008023016013483e-02
-2.728420425085511039e-02
-2.235523496534342833e-03
4.507324165031641183e-02
4.321179994470094460e-03
-5.735302879230527034e-02
1.119328500905269683e-02
-5.503695540826220901e-03
2.584331355306510383e-03
-4.676724784734828666e-02
2.628643521162525934e-02
-5.781157861970251562e-03
1.630067256700199266e-02
2.061239603143893637e-03
-5.666717644571155066e-02
4.086120996647213052e-03
-1.716344324339746756e-03
-2.175453051194770060e-02
9.895541105349090448e-04
3.363126197439599008e-02
-4.648321098057264095e-03
1.636707372781180669e-02
7.476154533034721009e-03
-6.466372262115181735e-03
4.213797629151818519e-02
-7.523290510795468825e-04
-8.277439786993105383e-03
-2.629317038835642106e-03
1.316788914378056070e-02
-5.976227261833165147e-04
5.825031946952939632e-02
4.531234480612461590e-02
5.891277414634541430e-03
8.941789969302482363e-03
-7.127938156574124655e-03
-6.152176177754459241e-02
-6.122819842522447820e-02
-4.271122880197207594e-02
9.705737964842569426e-03
3.292935256863134541e-02
-4.719401428500862722e-02
-1.810902299793007431e-02
3.925652420919268498e-02
-4.240260054559957283e-03
-7.981672384212993437e-03
3.965957263046279713e-02
-5.296647864921575494e-02
2.798799326077382535e-02
5.985858741869428540e-02
6.439537520856239428e-02
-3.685580464150045154e-03
-2.546097594118868629e-02
-1.887971595862714819e-02
6.767825884640280010e-02
-1.135917057828322689e-02
-3.582689135819298182e-02
1.366299753339933476e-03
-1.953696975037478439e-02
-2.959170469854117275e-02
-5.065621248397544039e-03
2.909365337337089814e-03
7.089493065789150006e-02
1.508190755292013630e-04
7.022402025695666586e-03
-2.531845116342359286e-02
6.288483288780516954e-03
4.226610986875838322e-04
9.800419352578733020e-03
1.523862155976634346e-02
1.072425516472959479e-02
2.210275226593945430e-02
4.080605118844461351e-03
-3.968145908705612672e-03
-2.502915646467905250e-02
8.105819272015271637e-03
8.894230560318763107e-03
2.817219457907706691e-03
1.088232237766692014e-02
1.234161588823053796e-02
2.405915359754338522e-03
5.287966462532325655e-03
1.412343282511669025e-02
1.040042291119012800e-02
1.399862280083407143e-02
-9.888519285558519667e-03
-2.015586373777612794e-03
6.620761809037190720e-03
-2.622577295560786850e-03
3.981965460656466602e-03
-9.921656774098048734e-03
8.904117160274883230e-03
-6.684348581320654487e-03
-3.758314869753047807e-03
-9.423904480817814691e-03
-2.485841320366671044e-03
4.128410221710883052e-03
8.630732959367686322e-03
3.330152076211844413e-03
9.540350691748732473e-03
-1.773945528900895219e-04
1.038159468080976366e-02
8.575142159612685923e-04
1.812338539660793464e-04
-4.511350229519391465e-04
2.799348625265811030e-03
-3.641610456455782012e-03
9.980409594159123793e-03
2.762637256418520523e-02
-1.029415793621328047e-02
9.862492859585930693e-03
4.440463060972797520e-03
-7.979022415701678486e-03
-7.485846398071322426e-04
-8.486087142484208690e-04
-6.885846059865953278e-04
4.564825775957354580e-03
-1.272362680902899791e-03
-6.043886796932095018e-03
3.558906350125465973e-04
4.583100074214754675e-03
1.052005191555801036e-02
2.420821017908430378e-02
-1.118795116287953778e-02
-1.662159963198036466e-02
-1.891644736379268291e-02
5.011883124709374734e-03
1.058710825107278021e-02
5.414818306483923155e-04
-5.233847158211314514e-03
5.202509711928893568e-03
2.341915578578444672e-03
-1.370850700837308346e-02
-1.305890536818780706e-03
-1.742336078319340134e-02
-7.446095841123155082e-04
9.979859962582241992e-04
4.326620932070237603e-03
1.165221476398906227e-02
-9.281013192359747338e-03
8.276179405150092122e-03
1.657292724671002556e-03
9.368876478921619316e-03
1.722696321520359071e-03
1.452987099383264494e-02
4.971450443749051047e-03
-4.277206899753474394e-03
8.478625824202326014e-04
1.219191452583505723e-03
-1.173712561064998647e-02
-5.084834337387406089e-03
1.735961012131562306e-03
1.655950915026051891e-03
6.157331409976709094e-03
9.059741666158627887e-03
-4.147188965665506329e-03
6.647286369736108563e-04
1.572564548707561238e-02
-1.477408149792775426e-02
-7.704935545649645688e-03
5.235684938157706032e-03
-1.826344757401391142e-02
-8.209460236240157666e-03
-2.597898154895060541e-02
-3.135515857116320110e-02
-1.248435758836559557e-02
7.745039249681419640e-04
-4.805461418324299266e-02
6.825841215319354560e-02
7.519041472730384965e-03
-1.536571811153015187e-02
1.509207610391160833e-03
1.649147360605760296e-02
5.674487561354117464e-03
3.899083842838411794e-05
-8.171152151631872959e-03
4.746680347914711967e-02
3.774587184052173583e-02
-5.240105718668881113e-02
-2.377679820104878702e-02
-1.590417323281103149e-02
-7.285237485929527482e-03
-1.218655596173731821e-02
6.997654282742973852e-02
2.899521031747051211e-02
1.921358435473666639e-03
-5.047660513599178805e-02
6.637604692919220339e-02
-8.906184964949026214e-03
-1.346427179965489947e-02
-6.542194178710414310e-02
5.924075638708857505e-02
-1.619730639540339955e-03
-1.071759091256804797e-02
-1.417208352288999934e-03
9.021426229917145143e-03
-4.230886068739353467e-02
-1.999927924048611541e-02
5.207320956043380578e-02
-1.332279329725249983e-02
4.645210038473474717e-03
-5.129889329113757751e-02
3.941841061935804497e-02
-1.206160522818715579e-03
1.262380911163191871e-02
2.146799373130887315e-03
6.069066945377275812e-02
1.087300012592821823e-02
3.445531573043444928e-02
-6.573977154513913762e-03
1.108169647550638487e-01
-4.979556096302552998e-02
6.559825188202028645e-03
-3.140533189592403795e-02
2.362397658015077256e-02
7.701765010558062063e-02
2.500343622245607134e-02
2.261384449149039799e-02
-2.132297197058452901e-02
9.315750258491838423e-03
-2.488601821117925744e-02
8.246100692347532735e-03
6.846765387621032810e-03
5.438581781738875513e-03
3.084753255375374120e-02
-1.007543921457170338e-01
1.201005320732206200e-02
1.460708165442704126e-02
-1.558250892024992847e-02
1.098698473798172433e-02
-5.881782386659161616e-03
1.223495048621953260e-03
8.254333805249545195e-04
3.403949193535823949e-03
-4.257573865612178030e-03
-5.395979615611449370e-03
4.121427669335331334e-02
1.797157048716784000e-02
-6.785331852579504740e-03
-6.812705713219245444e-03
-7.141129200062239224e-02
2.121624145338578751e-03
-2.440778283581761243e-02
-4.977902116604961819e-02
1.506452778869152472e-03
-6.785620065154208437e-03
1.379059374962204008e-02
-7.554000498386467029e-04
1.622475056731407031e-02
-7.259349659260280058e-03
-1.699597421030879518e-02
-4.043497821303178308e-03
-1.627390236915718727e-02
1.575134606168251267e-02
4.891223346175024161e-02
6.930384169451334064e-02
2.131804434442877150e-02
7.791954395703198097e-04
1.306585435904058720e-02
1.134440178003027350e-02
4.917685490323125963e-02
9.258409344679618611e-03
-7.377287387210178238e-02
-2.440296843652911205e-03
2.196354398816696002e-03
2.955352795651949513e-02
8.988939071788588572e-03
-4.504079567434675444e-04
1.970912462130599077e-02
1.495955479281148998e-02
1.723092839418693262e-02
5.041890081898493456e-03
-1.529855393522410942e-02
-1.707858910817631679e-02
-1.226292681729316408e-02
-6.606557400947939661e-03
1.278326680319992123e-02
1.052265610069839409e-02
-5.454058935055806565e-03
9.958460466854489671e-03
-6.269937188064048442e-03
2.826519385570502602e-03
2.415760374769005629e-04
1.844105296084512166e-02
-1.094312871564839112e-02
6.070404345306821062e-03
1.760034524980698400e-02
-2.718634016874938233e-03
8.137815724941743420e-03
8.184145932944518823e-03
-8.466625074942989507e-04
1.480827934796640453e-02
-4.510786563415097265e-04
-1.125585422130583567e-02
8.315696976548790642e-03
6.075610930241556046e-03
1.535490019572031441e-02
1.565947800273983625e-03
4.005765912271122900e-03
1.263251462104913320e-03
-8.173178020353570952e-03
-1.512029093684397543e-02
1.640665601103933474e-02
-3.931508354955185153e-04
-9.212936441948701288e-03
1.237639014762939235e-02
4.515111537976075617e-03
7.558957657466133448e-03
1.818976579020988721e-02
-7.372327414496615550e-03
1.325781914528068386e-02
6.751606412482188437e-03
-3.215049143594880549e-03
-2.589117033973009890e-03
6.847053862435266078e-03
3.077874868612884935e-04
1.357558792500817256e-02
4.797524563743612615e-03
-3.950586586168974325e-03
9.805372795828116647e-03
-3.406113048372239049e-03
6.240830250303184158e-04
-4.858528089447578663e-03
2.904315975458543996e-03
-1.830000851052793372e-03
-1.951905738439631277e-02
1.392363991107881463e-02
-8.047598714100783271e-03
-3.891281622250624631e-03
1.593781310815232174e-04
-7.682456353372430109e-03
-4.502880961947987857e-04
-2.592074654791938319e-03
-5.190056759548271684e-03
-1.247500853805410918e-02
-2.781825165653662585e-02
-4.898758942311572974e-03
-1.801458497825468574e-02
6.325109331241246004e-03
6.937859057468008864e-03
-1.539886129167493574e-02
1.188025452288762364e-02
2.172573459348332934e-03
-5.440333953587309264e-03
3.081868798151972660e-03
2.195293596544157716e-05
1.455767504368972280e-02
4.840155392612855052e-03
-1.585930555041589448e-03
-3.644405527607778080e-03
-6.194711233690758032e-03
-1.460699887555110682e-02
1.973633649538012163e-03
5.762192119938356304e-03
-1.047527141495459627e-02
4.867022253076639000e-03
-6.493845224170989756e-03
5.562635411775900506e-03
4.732520654351618505e-03
-3.432690908045975178e-03
1.643020989807206581e-02
9.562050253740852004e-03
4.391777746128262827e-03
-1.627559986530227598e-02
-5.653650094175730750e-02
4.449209188201416754e-02
-1.117229929005520740e-02
-1.118993034812824699e-03
1.348179223621357933e-02
4.230512085579304568e-03
4.385935502506083106e-02
9.314579890379389923e-03
5.775465005706868077e-02
1.412588691127282352e-02
9.070198798129912440e-04
4.443065768071000196e-04
3.547340646848235607e-02
-4.703157390176550268e-02
5.710629417808320979e-02
2.912429533544295956e-02
-1.676016271190690137e-03
-3.364458289288003306e-02
2.541550151519364129e-02
-6.538797909664963159e-02
-6.206553201531259806e-02
-1.020655084532940717e-02
2.093956883405436939e-02
-3.908800604610377510e-02
7.342788290051758919e-03
1.423509346014134418e-02
6.311350251094186015e-02
3.581188977688635686e-03
8.618822883523304806e-03
-1.421592477610415448e-02
-3.050609454557577996e-02
2.069304626392310525e-03
5.829238006768543839e-02
-6.495653496883939913e-03
9.430305692893052594e-02
1.149670118993571799e-02
2.491976539399069768e-02
2.738210883437065118e-02
-3.620963736261242211e-02
3.430140894136627511e-03
7.802689580323825258e-02
1.081320427298193727e-02
-1.975027233625397532e-02
1.286807584293688488e-02
2.145476445461935028e-02
-5.156928666648173155e-03
5.863435929595598589e-02
3.178260572761115732e-02
-4.926644595404842605e-03
3.641562918630307510e-02
-6.197294539295615870e-03
-3.754249277110036781e-02
4.199155897244632313e-02
8.136736197024428338e-03
-9.994832169362997953e-02
-1.185479212637861011e-03
5.505184983318048980e-02
-2.863255547015007823e-03
1.145331212705268976e-02
3.347672926029327672e-02
-1.705722768203757692e-02
-1.053565281567552837e-02
-1.190335556297995000e-02
1.436690275524689191e-02
6.368636469059630115e-03
-1.385968679998185807e-02
2.704956387135605891e-02
5.175439291496548161e-02
3.070490863329770198e-02
4.911502639534858980e-03
-3.875983437720401797e-02
-6.485658994167850522e-03
-9.042843461216595879e-02
-3.997543073688072240e-02
-3.638343198646929594e-02
-1.525418358521719170e-02
5.474722094091708652e-02
-3.404278414782718060e-02
-1.757459686955071751e-02
5.464597810260508198e-02
1.542763651228941206e-02
-1.360612164891641940e-02
8.724640117341327106e-02
-7.214879544674762668e-02
3.193789227587828794e-02
1.262271331383463813e-01
8.501795374731292709e-02
-1.314436202071510393e-04
-1.832449905874262985e-02
-1.029217689619746964e-03
1.290282420729953194e-01
1.899950022416109496e-02
-8.156950272669989677e-02
-1.333971266527569574e-02
6.263216018225581036e-03
-4.119309375625552355e-02
1.477718092391656565e-02
-5.181238641058420226e-03
8.720086580262116638e-02
-1.125264596158283802e-02
6.757510843744598920e-03
4.042173989285130845e-03
1.324586975103921385e-02
8.326525333834705958e-03
-1.536569550111580853e-03
1.012251693908566667e-02
-4.873859561798762809e-04
-1.125687994761223609e-02
7.281117606771993905e-03
9.515797465699233834e-03
4.406526043480112759e-03
-2.090009823967666283e-02
3.147926362043945714e-03
1.856432485543849098e-02
-1.779773710504481063e-02
-5.829461651187034174e-03
4.102226832815994602e-03
-7.294802922057182747e-03
3.381789595991033985e-05
-4.513884600152320327e-03
-1.592976213191242899e-02
-2.123643881795455809e-02
2.033095348822712423e-02
-1.535611168602087073e-02
1.067585416566031037e-02
-7.555538254245953815e-03
2.044363269224665214e-02
8.287694749306382530e-03
-3.284603883789548578e-03
-1.734314728493340993e-02
-1.206008036262922085e-02
7.387952482348662461e-03
-2.321271205256577805e-02
-5.552653402456112983e-03
6.088027810882425638e-04
7.275575096288717722e-03
-5.554622331172092732e-03
-1.777827590613114891e-02
-8.641693038731853432e-03
9.512870502391260197e-03
8.719382724992502144e-04
-1.183905566425359941e-02
-9.276409637639676520e-03
-5.219116959806028265e-03
4.048350615165635267e-05
5.428141618553844472e-03
-5.456062352980453264e-03
-1.082005770275893536e-02
-2.858936448636735690e-03
-1.514047600706982556e-02
-1.702578616344302583e-03
-8.710455111541974202e-03
6.878449289396247439e-03
-1.909891125937617298e-02
-1.731900805625907411e-02
-1.492065037977647604e-03
1.691254049606700366e-02
-3.388224502987990678e-03
6.492666949292490337e-03
-1.418431191165889747e-02
3.550683936314583816e-03
-6.586023149825838245e-03
-4.813018259999445221e-03
1.017070123083521106e-02
1.541903423265376070e-02
1.357631594882638057e-02
-4.841955911379328126e-03
7.415514510893066354e-03
-5.877538447480488287e-03
5.496049392354532791e-03
-2.127013711830216813e-03
-9.882588599448492023e-03
5.068184280763353422e-03
-2.550466120722150089e-03
3.139064393569333811e-03
-3.454707837867585212e-03
6.860978026395139762e-03
-1.755235130389948620e-02
-1.137539972968832150e-03
-9.309032562201439986e-03
6.395150591742115431e-04
-1.222152319013651046e-02
-1.059748531076722724e-04
-7.333638347564060828e-03
-1.705933390085911591e-02
3.959943653578987428e-03
1.048081208029359897e-02
-1.556307649961704252e-02
4.913789442120002071e-03
-6.924281040982008598e-03
2.320173276536484017e-02
-4.431096883201211638e-03
-3.387199988031451819e-03
-2.183626249598668093e-02
-5.099041538718392282e-03
4.876194670361133285e-03
-3.566279709606972464e-03
2.346856949095733023e-03
-3.703466383182699422e-03
-6.085951318691605605e-02
-6.100237629863220629e-02
5.607286324795309092e-03
-8.671744069296600035e-03
4.500330748324675965e-03
4.572342518420186713e-02
-2.836987411803655254e-02
5.166973285875151728e-02
-2.619244231382114596e-02
2.065307861401042763e-02
7.191882277360427513e-04
-1.449983137803460831e-02
-1.456073424125794383e-03
3.351436300561221743e-02
-1.880197928105459618e-02
2.788026605702334949e-03
2.126566889863801615e-02
8.142553978462224945e-04
-4.494348338242779017e-02
1.545044515529624303e-02
-1.541153261471373340e-02
-8.476678650577301743e-03
-4.480074107110328975e-03
-5.474339981973013608e-02
-2.213593369408469597e-02
-2.498165232875452363e-02
6.111555422292731451e-03
-1.317829001987783598e-02
2.348163381508724945e-02
-1.398878670389489161e-02
5.403860737581782890e-04
-2.389543348933804642e-03
-1.152401547959125243e-02
-3.578217572518164243e-03
-1.831366936993291837e-03
5.593264084961722254e-02
-3.084404910638360951e-03
7.009671333377270538e-03
1.243191168550498993e-02
-4.567635622714486432e-04
1.659675996041107390e-04
5.628612552168146821e-02
-4.113562791979176979e-03
-1.964290090854104928e-02
1.606959189754884887e-02
2.066833101662495994e-02
-1.070187330526583581e-02
8.522470146136550129e-02
-3.563247474324722150e-03
7.778722901498781941e-03
-4.012683921198479872e-03
-1.174050604499736992e-02
-1.459011315342001978e-02
2.562845707046290666e-02
1.664472271925618654e-02
-4.212159257501064957e-02
7.970131898654173735e-03
3.692676521939424611e-02
1.061775132369121959e-02
3.634314447444445678e-02
1.915188893361799774e-02
6.531492961944474450e-03
-5.900031647976342053e-02
1.746379822423279812e-02
1.213195848797259113e-02
3.279527383005153163e-03
3.529552226872460552e-05
-2.005073467652823108e-04
3.720977017116917918e-02
2.219714146836722010e-02
-1.316327607377808587e-02
-1.642756983116782157e-02
-1.317161836545507718e-02
-5.957997893692532076e-02
-6.813195118134862671e-02
-4.019791445042008443e-02
-8.159434791645924293e-03
-1.536462029220807615e-02
-4.719814642447187070e-02
-4.732121976533319729e-02
3.268303938361783595e-02
2.326309019706867751e-02
3.861821278197265228e-03
4.305185553493037082e-02
-3.620174893998968219e-02
1.829362747533055597e-02
5.689947034058263908e-02
1.574532215869816482e-02
-1.273753534873474542e-02
-8.029831953533732303e-03
1.312829694328868438e-02
9.095686383226145311e-02
3.396236002340440735e-02
-3.499964972011507941e-02
-4.777955302992499542e-03
7.462109239131806127e-03
5.854806878818136912e-03
2.917032150153826137e-02
-1.015866795171691504e-02
8.568668883070283335e-03
1.036857462168163345e-02
7.646291683163343109e-03
-1.791384661422752754e-03
2.970488736998224463e-03
-4.053980908368224820e-03
1.145804642065783099e-02
8.529430322701000641e-03
-3.196221879805117606e-03
4.189717999435660888e-03
6.480101792470327471e-03
-1.953648955613228322e-02
-1.113105325370911808e-02
3.966689376711304317e-03
-8.504150038614835538e-03
-9.809044499170123041e-03
-1.059905113057992010e-02
1.947035261399796728e-03
5.745753640491343267e-03
1.491718835838150466e-02
2.278194372059538439e-02
-8.874672286404493987e-03
1.079816679805782262e-02
-1.301721847675857240e-02
2.032719599717005762e-02
-7.888352546954221015e-03
4.339278266916352968e-03
-1.505954159199626025e-02
2.932661604855577118e-03
1.465806760051967250e-02
-8.674746671408198676e-03
6.729904014246430302e-04
-2.676769287125944571e-02
-1.758613775819721416e-03
-3.586794971038058475e-03
-4.314058885922969488e-03
3.323950319920272733e-02
2.941200545422638195e-03
5.182738871807865584e-03
2.792098673716062948e-02
-5.064418353823534058e-03
2.926160837038073535e-03
-1.301306767057605618e-02
8.971342822818773391e-03
8.231670265718376081e-03
1.505784257980776267e-02
8.156444772668178245e-03
-8.352291862089787980e-03
1.340629119009314855e-02
-7.342762875530097280e-03
-1.513118010844824793e-02
-4.210479359874426744e-03
3.813147681393540354e-03
-5.670496767208922824e-03
-3.344887075306109386e-03
-5.246323507371997499e-03
2.239157062268606695e-04
2.414536622190575649e-03
9.295133803016728327e-03
1.207932822485071906e-03
-1.516019058294132762e-02
3.190667606535830137e-03
-1.258068337679619716e-03
-6.114859830747046941e-03
1.251347500282374951e-02
-7.601053204877808271e-03
3.630116501799236783e-03
1.406082044985345475e-02
-1.978305855093228510e-03
-1.679221861422603920e-02
-3.005547138300857218e-03
6.153075105603210242e-03
1.899776944454259313e-03
-1.167099556142639754e-03
-1.525750263492169252e-04
1.051496527285963878e-02
6.964705596774988655e-03
8.473337180231192006e-03
-1.356811437225110759e-02
-2.194063721134405232e-03
2.531871898277803911e-03
-5.586236979941133080e-04
1.358221146910414991e-02
1.104183656838986574e-02
6.504593305445544428e-04
1.196806043671636358e-02
-1.179984538453848590e-02
-4.971838083880369789e-03
8.548544585673611973e-03
8.271543998977287301e-03
4.754996745493360669e-03
1.045558455856035462e-02
-8.664338037309520651e-03
-3.266033636770318549e-02
1.135170789800563421e-02
-4.032315900095317582e-03
2.104929196493990958e-03
5.843921510103651344e-03
2.507376572760898134e-03
-1.234038918644998761e-02
3.517214756540000629e-03
-6.756715053122992927e-03
-1.305016188574924241e-02
1.257296989946314093e-02
9.550928084250079331e-03
-1.797126127230622497e-02
3.207235068680533430e-02
1.579591867843954667e-03
7.660489758462207463e-03
-2.260344520767507744e-03
1.396895849474821816e-02
3.902620865393007128e-03
-3.470665739021164525e-03
-4.616339733021274441e-03
1.027366722600022569e-02
2.130788535556279604e-04
4.469517402252647965e-03
1.346845139421228021e-02
-5.151600916142654030e-03
-5.775999610104175491e-04
2.261492565363062719e-03
-1.150032772147488577e-03
-1.872222318172903077e-02
9.422862309293903805e-04
-2.260519120530265352e-02
-6.165994622568243648e-03
9.078444309769957699e-03
5.630729763717822172e-04
8.896316153817937153e-03
1.797722495117225205e-02
4.159181929357656446e-03
-7.328746624573161117e-04
-1.875009966049330512e-02
-4.670027699426376397e-03
1.355340752446135798e-02
-9.034566457585780849e-03
3.458496017521560384e-02
-3.821891010127008719e-04
-5.757182857141379152e-03
-1.321391725644832302e-02
2.486895123607574948e-03
3.139809728939300221e-04
1.955618936011253861e-02
2.195263340816667325e-02
3.067185696866241151e-02
-2.287100470623317037e-03
2.184015881269748237e-03
6.309449909532955855e-03
5.749712873129274315e-02
8.338572016904150647e-03
-2.481644023604785958e-03
9.630108560703362283e-03
2.241151249536932691e-02
1.463145946632947621e-02
3.004834793113511648e-02
1.132221566089824591e-02
-1.908228210301327402e-02
-1.091170695643312386e-02
-5.551536331651563128e-03
-4.837516291698603678e-03
9.159225405853026539e-03
8.170049075122034002e-03
-1.540910432502980154e-02
-2.643913733259135868e-02
2.184052224884220142e-02
-2.086033656605732617e-02
-2.302789799741912524e-04
1.847445422965070944e-02
5.281714317688160354e-03
7.860505239694210930e-03
-4.184900113347930078e-03
-9.524929449069277979e-03
-1.435133212655755747e-02
2.091971654778854162e-03
-2.015557297160572043e-03
2.904364764214422637e-03
5.980533603843323984e-03
1.296838525966158024e-03
-1.526006811031984517e-02
-1.547840643338671204e-02
-3.923363391639317355e-03
2.699067727928165534e-03
-1.842423586682107560e-03
5.911623466684186486e-03
1.891981978623646227e-02
-9.673760509806074090e-03
-1.382572911664868218e-02
2.433003703202965898e-02
1.243115068688186754e-02
1.003759006875992732e-02
-1.116015405546711553e-02
1.566708010359198211e-02
3.330855052698934032e-02
2.548896740108259895e-02
-5.573272012060150396e-03
1.597451666596444442e-02
3.060883045717531243e-03
-1.814413459344765486e-02
3.029221029366933188e-02
-2.492758125985935092e-03
5.586240428176810977e-03
3.567969195613033846e-03
-2.166899839558603449e-02
1.033809473929240153e-03
4.690437242594614961e-03
-1.477267129347366141e-02
4.015043680692454570e-02
-1.982080303129932913e-02
2.106710934368135734e-03
5.430846639082382091e-03
1.868840294446582131e-02
1.003233817530156669e-02
6.365301528342783878e-03
-2.214020886133271065e-03
4.897265888648289975e-03
5.995915130625086150e-04
2.253947397414982068e-02
6.761498149308054970e-03
-1.838265521961330792e-02
-3.596707246167839354e-03
1.566853635843579520e-02
-2.360639775502017604e-02
4.367624947344414359e-03
2.129030011941702039e-03
-4.300565081718324065e-03
-1.700027593002723103e-03
-3.449222236954268325e-03
-1.804571904222701962e-03
1.817454282894325618e-02
9.662410247054812121e-03
1.491669400215027766e-02
4.971480034171355325e-03
3.012793456876431374e-03
1.761429171617534192e-02
2.135230030853960473e-02
4.596983220700601581e-04
3.945355342331646059e-02
1.463994858237227352e-02
1.480108063787522431e-02
-2.426727330602443389e-02
1.161042221006908411e-02
2.322236490595336149e-03
4.516223208660333915e-02
6.936559423029451006e-03
1.093014815788867153e-02
-3.165098907565492680e-03
-4.974369633927624122e-03
1.495465286422325256e-02
5.610744938438246010e-02
2.127569125844302328e-02
9.490033902867854414e-04
1.463701297046255886e-02
9.772819134189770704e-03
1.528480629037755681e-02
1.857947840349473065e-02
3.798459151121831752e-03
-3.078526247953061734e-02
-1.655682617186880062e-02
1.065618458485394736e-02
3.008547804610055536e-03
1.386754134309960043e-04
-2.473876256663822427e-03
5.386753975172443865e-03
-2.645614911876181460e-02
2.301457638044236004e-02
-4.916715080446627112e-03
1.996304359542903928e-04
7.964534393896579093e-03
1.246918741150578264e-03
-2.134784307045988708e-03
-8.454109656096183908e-03
3.764195591474812832e-03
2.525778269741108147e-03
-1.637023798308492916e-03
5.749835054487107116e-04
-1.300906588977068399e-03
1.520252931574542048e-02
1.331901478912866921e-02
-3.847527271101524882e-06
-2.078424012218069508e-02
1.254271705153443394e-03
1.010875665185098464e-02
1.879372878630049606e-03
-2.766490426178724611e-03
2.448858687924834049e-02
-2.553811291959092247e-02
-6.206087070724949223e-03
2.149013721753957953e-02
7.577523100703659024e-03
1.338570066633899998e-02
-6.891376872614343035e-03
2.611876749916608367e-03
3.827014628420963988e-02
2.209965832580217809e-02
-1.522232151020033036e-02
1.749805885297960701e-03
2.316306563559821993e-02
-2.277914306474085673e-02
1.806195659608643769e-02
-9.856004932673216243e-03
1.879177630394119128e-02
-4.070856009339373326e-03
-1.899785672089344957e-02
6.994362579377369493e-03
-1.922383263243623895e-03
-1.568099012657258803e-02
2.504573991295688459e-02
-1.167214817868551975e-02
1.165160015455453738e-02
3.421400721044232790e-03
8.820060925317393247e-03
1.091066873143886271e-02
7.151958714133371288e-03
8.598339040200117522e-03
6.458022618330310459e-03
7.284035535717896595e-03
6.543470402673645311e-03
2.248562974840985149e-02
2.707338635979636247e-03
-1.087245477424510047e-02
-6.646443525566069974e-03
1.301941347281751786e-03
-1.548995648363663859e-02
-3.191696835191455868e-03
-5.494305526665016828e-03
-2.469345336070054645e-02
-1.094714549656828143e-02
1.452218784398380189e-02
-5.917900257851140856e-03
5.542420668106343845e-03
4.813877921945109058e-03
-1.348845667195457641e-02
-7.407902699600475704e-03
-1.809344317616706863e-03
9.959122472927258926e-03
9.371961247268890960e-03
4.303653542324862441e-02
-1.823175124373797862e-02
2.981014153830746031e-03
-4.740481301353995092e-03
7.834076558414424657e-03
-3.170813170647529284e-03
3.245549641617495595e-02
6.189435381006008069e-03
2.548949304847390046e-02
-1.254193354923260201e-02
2.514113718978253087e-02
-1.414744034108602342e-03
5.014197871080103286e-02
1.158507702237457707e-02
2.890951074861458723e-03
1.016933689074361706e-02
-1.592002742096518958e-02
-2.397795626772548667e-03
2.492711216724425097e-02
-8.931555171800187667e-03
-2.734860391779574823e-02
1.130482930712672224e-02
2.199670001419196108e-02
2.422614933803540066e-02
-3.567614625781926046e-03
-1.526161332888882789e-02
1.289198286972059043e-03
-1.463424076079085367e-02
5.339767820910631610e-04
1.347961958889155529e-03
-2.217779725712679638e-03
2.148491924748583554e-02
-4.610200147871134670e-03
-2.329386089256400578e-03
-3.479558650104110518e-03
3.435143008959680531e-03
-1.045823406086203965e-02
-1.381893632112875421e-02
5.874817857591619306e-03
-2.486309052212829895e-03
-1.388035816304949771e-03
6.777050295985771874e-04
5.548997946192990235e-03
-2.315753716098647302e-02
-1.026111953490979091e-02
-4.263044391390849214e-04
-5.350858674403718420e-04
1.420948897074107709e-02
3.175648444258031416e-02
-1.317853258790287023e-02
1.208639438628998988e-02
2.327111070282107327e-02
2.184382383338511271e-02
2.503098804167333460e-03
-2.409051452328504414e-02
1.118999435994354544e-02
3.901781910966397454e-02
1.990700150535616719e-02
-1.859780516197627118e-02
1.038715564828748307e-02
6.576587025720659167e-03
-3.018733916323149743e-03
5.927244294354926633e-03
-9.934974226276283363e-03
8.949617927331073031e-03
-2.205062567485194594e-02
-3.502611641599882863e-02
-1.380673020828569048e-02
-5.139354364347263789e-03
-2.640420450562531995e-02
5.745434525093051636e-02
-4.166564436472848520e-03
1.810730863158882195e-02
1.208033949966310109e-03
1.929325851277051765e-02
6.668695006561010507e-04
-7.028821719454045151e-03
4.031952929346031660e-03
1.730541448794759019e-02
-6.118263185082487184e-03
-1.185709657386425963e-03
4.329005668848215013e-03
-3.200278027845259495e-03
-3.010534095323090867e-02
5.087980162003472896e-03
1.500097891219163634e-02
8.578676420539995979e-04
-1.912025489467590253e-02
-4.657181022961236899e-02
-2.826614258050061867e-04
-7.069158382479999794e-03
-1.288402281705559611e-03
1.719242914965801033e-02
1.083645810967224718e-02
1.862676984784622167e-02
-5.742820169298611631e-03
-9.883851002774614661e-03
7.588241930658066146e-03
1.835898352444498283e-02
-2.892404034453452746e-02
5.186075927908282562e-02
-8.098473883783234226e-03
-6.040455748229223501e-03
-3.423239376233114251e-02
1.481115414751404957e-02
-5.064599192712936244e-03
3.555774215825431572e-02
-3.209386463902313209e-04
1.524326336648548883e-04
1.209635853890590231e-02
4.807232488566964834e-02
-2.491618517594298282e-03
6.639464299459403585e-02
-8.587220072955302833e-03
9.995565242882737886e-04
-4.949116540607267217e-03
3.645922292271788160e-03
1.933034825711307109e-02
2.814051442863020613e-02
-6.759633851914879053e-03
-2.586913283958507115e-02
1.022334071884394013e-03
2.049501048399843955e-02
-5.340914153965210798e-03
7.229457044686859145e-03
1.902380668493134502e-03
-1.005109086483423845e-03
-1.833411977151033767e-02
1.749421677840869724e-03
-2.542026252996884149e-04
3.160188346137886989e-02
3.097060455599003406e-03
-1.738264813345632596e-03
-7.300622143156170613e-03
-4.924833578403511707e-03
9.139757656806147754e-03
9.546492139558899115e-04
2.769570710693129191e-03
1.411552029942423866e-04
-1.062713061964017623e-02
-1.606385212676015098e-02
-5.298672135888325696e-03
-2.567902377902576624e-02
-1.753851712516247890e-03
5.079359984957799654e-03
1.664153009420048538e-03
5.132149228227168847e-03
4.900967010722530499e-03
1.547025963830242663e-02
9.571599081323423769e-03
6.304888468247416347e-04
3.316131589675155172e-02
2.145396259367123373e-02
-7.875299454406554586e-03
1.293404887484187870e-03
2.167845578932354675e-02
3.719067490980081103e-02
2.272434571092680003e-02
-1.418685735820646859e-02
1.640197821016432106e-02
1.090264792994021306e-02
-1.225044756322665306e-03
2.808555334505911591e-02
-1.659327748217348866e-02
-1.845570415504708267e-02
6.849403137574013381e-03
-1.292631065701689563e-02
2.238040033976626889e-02
-1.615968837815632761e-02
-3.201634872642308751e-03
2.841339825485693013e-02
-6.817778241733365129e-04
2.021473875202789081e-02
1.800486085762288344e-02
1.375328010997394282e-02
7.426165776985277529e-03
-9.358434658185588173e-03
7.506870486695432125e-04
1.117485833923883599e-02
1.444205852642128224e-02
1.511698369252478455e-02
-5.470007764314063249e-03
-9.834190385576179524e-04
9.173492524758235234e-03
-1.242892710348983062e-02
-1.433195063236400967e-02
-1.038551337767147122e-03
9.561150186658807365e-03
5.245042175706860627e-03
9.661648713299310354e-03
3.283663952271553312e-03
1.085616472057533656e-03
1.528600496823096476e-02
8.390813842733574335e-03
-7.399215615228348086e-03
-9.163532780965944965e-03
-2.637508808250697834e-02
-6.904909451846914792e-03
3.962591399498565964e-04
-4.211538423645458905e-03
2.362682243097551094e-02
-9.231676942963481028e-03
1.700589761486785007e-02
-1.484262470669224163e-02
1.660979997515455234e-02
3.497410841623528957e-03
2.153491711959155605e-02
-5.384852106082508097e-03
9.119298826893490820e-03
-6.906710646681117442e-03
9.510372704392292334e-03
8.034559899941800046e-03
3.930087556104312763e-02
-6.187741154273079629e-03
-6.381295386818139521e-03
6.423698614043232315e-03
9.378573125216210088e-03
1.149921930681261500e-02
1.786011967225686892e-02
-1.429599360022801476e-02
-3.754538304738728322e-02
-1.465548423627454407e-04
-1.257705751152925211e-02
-7.447989132295392001e-03
9.923463696678078497e-03
6.765267721550284954e-03
1.044941697718052356e-03
3.324473121423730977e-03
-8.178320610572966526e-03
3.111580899705423953e-02
1.798169208698088828e-02
2.108452171702985135e-05
2.104898549671218710e-03
-1.000258815448191486e-02
3.508374792722591951e-02
3.431489039454791671e-03
-7.274344329294406275e-03
2.202883501317220527e-04
-1.199593237196289706e-02
-6.612936552784921818e-03
2.457622233884558006e-03
1.318361147819309626e-03
-3.989887148640246933e-03
1.374979954526688204e-02
-4.176705628535822522e-03
3.101859290918900294e-03
1.681371869231081811e-02
8.562357533308605217e-03
1.148556910615391655e-02
-3.199310385241448118e-02
3.288882197697761290e-03
2.814777030466283567e-02
2.395709245309626118e-02
2.768204141937788583e-03
8.901936070516536237e-03
-1.749537797648139607e-03
2.799163083761036300e-02
-1.540270995713857987e-04
-2.357889808159199102e-02
-3.824883023513080647e-03
-7.934003958964751593e-03
-1.083377535099598089e-02
-5.781977860184281219e-03
1.207047105847360718e-02
6.215679193477251577e-03
2.775546637068281638e-03
-3.240144341751497598e-02
-4.826105835941560569e-03
3.614378039973227975e-03
-1.747188974028348121e-02
3.778635360340781152e-02
-5.831927558268345385e-03
1.339497556449944539e-02
4.222923645936577618e-03
2.331459147922670255e-02
-1.893514129923047976e-02
-1.301801268737097842e-04
-1.190124784141621643e-02
1.427487167501809151e-02
2.148247369928752912e-02
4.163094413829358797e-03
-3.481158761834292521e-03
8.732953114205787085e-03
-4.875415314161764442e-03
2.335507521102403103e-02
1.821604298373457123e-02
4.655203996863244305e-04
-9.743128459670374886e-03
-2.890000461401582774e-02
1.984223909648405101e-02
-8.860371063170701875e-03
9.164177594526212028e-03
4.856432746109732093e-03
7.862523693576529277e-03
2.424127926505785600e-03
-1.761995775156248792e-02
-2.411804249901596670e-02
2.570844177011346633e-03
-1.060451603673182855e-03
-2.249074488745923719e-03
4.171508016985297357e-02
-1.988815678107989037e-04
-2.787681223765401794e-03
-1.959513137457504633e-02
2.306423055985618725e-02
3.918317289080395192e-03
1.202518582458592285e-02
1.328470928901434762e-02
2.978788602613454892e-02
7.225492679682790978e-03
1.968049923146861224e-02
-1.545887175501325234e-02
6.914743248058764780e-02
-1.716290410428727986e-02
1.981714899701112614e-02
-1.156115578483054782e-02
9.725064386460410826e-04
4.743969201499417115e-02
2.180886706096201583e-02
-1.092255177566630632e-02
-3.164497016137450547e-02
-9.167002056911231420e-03
2.035398190146032928e-03
6.819419627922376596e-03
-1.046052008889334847e-02
-1.657111616937750843e-03
1.826917079185927731e-02
-2.635747377239355815e-02
-1.172675750132451053e-02
1.123694732867893536e-02
3.008272888204267716e-03
7.633910864080582087e-03
2.636339692642528099e-02
-4.920124900512956416e-03
1.765734245841338963e-03
-5.636255926325784912e-03
-1.515223169968526844e-02
1.939777211581458305e-04
8.506862119682283632e-03
-1.073239941468691859e-02
-2.875616400040715073e-03
5.307232361709873260e-03
-3.308644633046661787e-02
-2.531683084354890111e-03
-2.033168694069699065e-02
-9.208392208692036882e-03
-2.636159979733927565e-03
-1.240698898362853873e-02
1.696397476246291544e-02
-9.495492892571967200e-03
4.440036272475072522e-03
1.594909864955419004e-02
-1.206682009279000465e-03
-3.330064671344793326e-03
-2.869873660293532219e-02
1.966689663311257941e-02
2.109063363781137415e-02
3.254369431103013022e-02
-1.514870909187256663e-02
-7.073327568263006876e-03
4.545728829953737428e-03
4.979553393837097761e-03
1.881717324590124682e-02
1.014700973716157334e-02
-2.122609972962333572e-02
3.839346439972230948e-03
-3.208872696062294722e-02
1.163859750332094968e-02
-1.860440172827924378e-03
-1.792183259598479836e-02
3.345392619868528539e-02
2.442923587843876324e-02
1.305429247428798248e-02
-5.559038954574331559e-03
4.056786503898802965e-02
1.553501814948178746e-02
-1.019642441154636116e-03
6.399648351659886075e-03
2.288019199803054821e-02
1.442671833331932727e-03
-2.797490717486494829e-04
-2.775582794468253300e-03
1.164247917377492919e-02
-8.820787884091105951e-03
1.646821090758825851e-02
4.527322011736903407e-03
-7.073743975955227616e-03
-3.811178878962475855e-03
-2.878846883703736759e-02
1.187878447063200893e-02
8.197735385642538133e-03
-2.513188820854053967e-03
9.309869985927797216e-04
3.418372456688313285e-03
8.932637523040668284e-03
-1.038349307073306929e-02
-2.489461185275395130e-02
-7.516017140104571878e-03
8.527504434290728366e-03
-2.111427605386315479e-02
5.619670171398286757e-02
-1.239569021431296582e-02
1.158878220549119237e-03
-1.117272343274877677e-02
1.860823509485246344e-02
-2.080036472059466207e-02
2.259552203918085977e-02
7.682845007044323236e-03
2.831228293492585660e-02
2.588459498084758319e-03
1.326962304177476716e-02
-2.112647138880096795e-02
7.365515366945031561e-02
1.723652960842749632e-02
6.382193758572953998e-03
1.981874704028315903e-03
1.201820309064847644e-03
2.705959816342864629e-02
1.459917864738513246e-02
-1.926242033412921403e-03
-2.981151132201174600e-02
-5.735792815985598508e-03
5.677768009135229603e-03
-6.853564161971035032e-03
2.024316446354809326e-02
2.015776242359264975e-02
1.012137625381161025e-02
-1.196746851521859716e-02
2.276986689663079017e-02
7.528433345721117706e-03
1.631216136642440639e-06
1.014163154929520819e-02
2.043382712914705232e-02
2.056810873700090202e-03
2.538980834438436026e-03
7.338516994745274656e-03
-2.046406778644142485e-02
-1.296919480802134544e-03
-8.811536912873859859e-03
8.009356646836628124e-03
-8.043368309563151547e-03
6.912971684126904826e-03
-3.679643193361866599e-02
-2.171903867906654906e-02
-1.271051411189227411e-02
-1.745736232920337347e-02
1.727074006004021209e-02
1.031200605009673782e-02
1.081856415420626681e-02
-1.825640198927128838e-02
6.845216050373611853e-03
2.717181496847550365e-02
8.183683662233445788e-03
1.269737195133977068e-03
-2.216782067489133506e-02
-4.336939371908115140e-03
4.380500095816439177e-02
2.927579984058922141e-02
-1.811849627815920183e-02
1.609092626957636316e-02
-6.326375177059666592e-04
4.263450041548083450e-04
2.227278584435121375e-02
-1.979357225935412579e-05
-4.464843309344287622e-03
-1.854107449915865305e-02
1.077071999160938856e-03
4.340284196130981924e-03
3.716359355674197368e-03
1.642922626353530676e-03
1.294984651278590845e-03
-6.512047835525652979e-03
1.638924941135638455e-02
8.883877223663266820e-03
3.031740839516278152e-02
6.251169175691861826e-05
1.416028908439406070e-02
-6.806934923607093312e-03
1.033398910852630255e-02
-2.338236399039198433e-03
-8.238994057760896028e-04
-3.682175379753888696e-03
-1.026441700237745204e-02
-7.656877790738936436e-04
8.617609419285035544e-03
-2.110627641228003323e-02
-6.552838193436221967e-03
-5.686196612430213446e-03
2.789790620535609333e-03
-1.522776979821902944e-02
-3.893320470272845432e-03
-5.794351039608883550e-03
1.092217643012354314e-02
4.573820331367097966e-03
-3.845924459723279107e-03
1.604624267891860759e-02
-7.315119608691328379e-03
-3.600884153121580462e-03
-9.240290338149735388e-04
5.196945052013145216e-03
2.524720498434388991e-02
7.601911244639014383e-04
4.772411608652168437e-03
4.401573604146656084e-04
-3.294831254850594422e-03
1.167522266717525934e-03
2.290224258334419907e-02
-3.381358696510911987e-03
-6.834016166275291328e-03
-1.334067567550888296e-02
2.894301147384310130e-02
-1.755532747842956931e-02
3.233478605964341251e-02
5.182857872100279061e-03
-6.016040194061172790e-03
-4.361710882660694948e-03
5.232948290002062582e-03
1.141721971789816381e-02
1.916661845769324080e-02
6.693675591135758024e-03
-3.452833561369438725e-02
1.120319050637379882e-02
4.029667408259737793e-02
-4.749925519555602861e-03
8.595516975913670282e-03
1.666818305900450228e-02
-3.232995959381188000e-03
-1.573683545658528804e-02
-4.157654299890789495e-03
1.447660843449509287e-02
-1.163936329197331337e-02
8.140599675224149262e-03
3.168762372350973286e-03
3.522713449088413717e-04
1.006015519519860499e-02
5.014451206117378872e-03
-2.965492451388376783e-04
1.107383595128626479e-03
-1.263682761230213066e-02
4.394744367623860080e-03
-1.854382229091486312e-02
-3.379607938190509406e-03
-2.238581462614240916e-02
-1.446067354321161052e-03
-1.481522558509469970e-02
5.103243442904002898e-03
6.179737851613620152e-03
-1.418739684306711234e-02
4.272913151252184100e-02
-6.486684763060070365e-03
6.190177892339721911e-03
3.135792992737126278e-02
2.853371892677882687e-02
-7.825473140365772282e-03
1.021340231727306189e-02
1.346976845096288164e-02
4.937775959913599105e-02
2.784476639246375243e-02
-1.546043042210073007e-02
5.964376876206261592e-03
-6.349599635667454479e-03
-2.831336986655347103e-03
1.724273414357738524e-02
-1.190208314586429367e-02
1.599912149425870497e-02
1.155777211113864431e-02
6.373578407195384932e-02
-8.480191466695218006e-02
-9.981779543256448159e-03
-4.558820201935009225e-02
6.870705876346527852e-02
-1.815603566779488303e-04
-2.744351284020958917e-02
-3.273211517487243424e-03
-2.423858228040021850e-02
7.243233437556235998e-03
1.728273732236502644e-02
-1.108733519571449173e-02
2.144435789801370576e-02
1.033464206977458000e-01
-1.378972225234113558e-01
-2.057584723930501111e-02
-3.744194032733419875e-03
8.218391096516154681e-02
-1.668005522024764570e-02
2.387462963790269177e-01
1.673774265074773338e-01
-1.787072490567665276e-02
-7.404061862179618647e-02
2.739033106284810004e-01
-4.339370777793783752e-03
9.508745802722000720e-03
-1.353308429810425040e-01
5.843485851581056711e-02
-4.997902510651948925e-03
-1.096207100808697932e-02
-2.988357559364232963e-03
3.780381515889071238e-03
-1.221221314820755272e-01
1.386202623913835447e-02
1.442853432068882599e-02
1.406325202973820847e-02
9.067284438647932321e-03
-6.282446876930747326e-02
1.298265142931049609e-01
-1.326036166399024128e-02
-9.152320866033143709e-02
-1.022200088909553002e-02
1.307009459987528155e-01
1.328136515495635488e-02
-2.816685363645475039e-03
-4.897918727196922707e-03
1.110835877615928280e-01
-3.710017741135299835e-02
-2.102784396987461557e-02
-6.457627523876693920e-02
-4.949250003205978542e-03
1.761808937616503035e-01
-2.423707012921878443e-02
1.937827823586176987e-02
1.566524683621145497e-01
9.121824113523441246e-03
-4.232978930287678576e-02
1.250029310130790910e-02
1.106540778289589674e-02
-1.020207882800192208e-02
3.704458144201993458e-02
-5.586140893107224142e-02
2.038713977565183039e-03
1.922899165257838106e-02
1.847375993718669215e-02
6.051950333010282061e-03
-2.899209264486226484e-02
-9.524464577270791779e-03
-5.503795529815179444e-02
-1.048080979536419703e-02
1.837857222948750813e-02
3.382043855151241427e-03
2.293453577572565072e-01
1.619550891744298005e-01
1.623877688160434152e-01
6.162522452435954291e-03
-1.545306269922853137e-01
1.544754518445835834e-01
6.117567383416609716e-02
-6.093645766878553333e-02
-7.002725634664090822e-03
3.230434204172398082e-03
-1.351800840208327832e-03
1.668832137862662768e-01
2.285250546295082216e-02
-1.134339121398059702e-01
-9.259720557089962112e-02
-4.782777944292778728e-03
1.930788053784425126e-02
1.005608466509804420e-02
-1.240384327818537698e-03
3.595013593113739053e-02
1.020522367422674742e-01
2.279129177618943736e-02
6.957204901352682415e-03
4.169067607416607202e-02
1.090869832645756377e-01
2.680669193480194126e-02
-1.653320175866969111e-01
-5.893536716689243976e-02
-6.313410791856502446e-02
2.671249058199256371e-02
-4.884666586387861192e-03
1.908722369201529961e-02
4.559588220210846789e-03
-7.204120256364016442e-03
9.001321074298282432e-02
1.960269721787297192e-02
6.667577319445558426e-02
5.137080139395584950e-03
-1.550474096162453123e-02
-8.882528932950614978e-03
4.683436360236114399e-02
-4.925125638267672384e-02
5.009532222003047763e-02
5.924607125707281180e-02
-1.209237857672673709e-03
-3.441065240734354769e-02
4.970509367556424918e-02
-9.398320087223806241e-02
-5.156162727147670100e-02
1.473066362985083616e-02
-2.996312216114197652e-02
-9.371516226761759938e-02
2.676325291146403225e-03
-9.015996728467531168e-03
2.512877203607728413e-02
3.939464538140929895e-02
-4.645557447340472636e-03
-8.250780101549856291e-03
-9.856635173807448344e-03
-1.129245792271408059e-03
3.776357967098611240e-02
1.229742434894425191e-03
1.107125606096472370e-01
4.370230881125529432e-03
3.204056414032448782e-03
2.694316261793775619e-02
-6.860862846385958058e-02
1.742135183283495536e-02
1.037744985569664519e-01
1.425448959550132573e-02
-3.453712538216251876e-02
9.351613730352105122e-03
2.470611487979455789e-02
-1.826723401643012487e-02
3.042392470870417670e-02
2.913911042891371636e-02
1.069348151846427793e-02
1.568081638051618820e-02
3.213628917949267871e-03
-6.046738048538505966e-02
2.140042758190842734e-02
2.923147211165606774e-02
-6.727092013169500007e-02
-7.003908957314787000e-03
8.315410438540858651e-02
3.528187499093902828e-03
3.299881249640340686e-02
-4.552739245327201353e-03
-9.647472516452730226e-03
-4.475552743262161542e-02
2.324922213275234812e-03
-1.801084661277449137e-02
-1.442328638963733672e-02
-1.094405317297878974e-02
-1.195249131476002272e-02
4.411489458434865452e-02
2.698364476521064245e-02
5.924153386678609849e-03
-2.673994653037032806e-02
1.259385440137316195e-02
-8.018166507231513918e-02
-7.194849104476563895e-02
-8.950602575564702013e-02
-6.590079083782829188e-03
2.608043825706510624e-02
-6.260214342473101323e-02
-6.235329971490410905e-02
9.132408074264959652e-02
9.053126808321048866e-03
3.195825037269953411e-04
1.550146928527353918e-01
-3.342507081789361512e-02
2.738523850764136222e-02
1.555349681478730151e-01
8.901081025120324841e-02
-5.870184227163246192e-03
1.937592318660919834e-03
7.437871998216349402e-03
2.110712833260325327e-01
6.713720910293900779e-02
-4.469690864982645007e-02
-9.246189048835092364e-03
2.266002122686315914e-02
-2.528987218873628845e-02
2.252556298641572585e-02
-8.609790709752413937e-03
9.453478048385006993e-02
2.459948594438104638e-02
-1.008687904563000531e-01
4.556853212063467773e-02
-2.713729556562228824e-03
-2.004929243334803990e-01
2.015244437921105969e-01
-1.194466338721426706e-03
5.173295377649992505e-02
3.048534409932859238e-03
1.210288401179617918e-01
-3.186495365611504565e-02
9.214659745051347051e-03
-3.335315351511096860e-03
1.651595936888443916e-01
2.888158962600114029e-04
8.099287105965440048e-02
4.535008891649375956e-03
-7.891453813101124287e-03
-5.941889825132930930e-02
5.952448354439611455e-02
3.007570370744271429e-03
7.683943658687285641e-03
9.880829263009291256e-04
-7.924282711574977267e-02
4.918259211905627593e-02
-1.422952813381801393e-02
2.151470244396859813e-02
5.073815054174604655e-02
8.110783145712852082e-02
2.737337486972529071e-02
-4.615145250728463350e-02
-5.467653078296745572e-02
7.058666676594067130e-03
1.144881539559570588e-01
1.240444703463629977e-02
3.177872301683738465e-01
-1.754696454806618094e-02
-1.225718860250308781e-02
-9.492458822666731411e-02
5.418148837042327179e-03
-6.641694247766659689e-03
1.836697948896137689e-01
6.963822636525736354e-02
6.631448194324891798e-02
5.683918079893381017e-04
1.104543157003739645e-01
-2.592535309628136650e-02
3.958150076513759497e-01
-8.535163518049403847e-03
6.225890702803066161e-03
9.676497110133679136e-02
3.264484234044991075e-03
9.771477481011182908e-02
1.316105204634811510e-01
-4.255012277837227040e-03
-2.915871801978027200e-01
-2.224128189584577420e-02
8.307235862208248167e-02
4.508635932746947808e-03
5.604680754158947870e-02
-2.252679708650982566e-03
-3.634566274432930039e-02
-1.270739896119526813e-01
4.438373359538317318e-03
3.058425566322086047e-03
2.648635902608282786e-02
4.473657625032530748e-03
5.405959598362006235e-02
3.878232746705807810e-02
-2.181914262020170567e-02
5.220756911377377220e-03
-1.324768877647790055e-01
6.715221777643964364e-03
-5.676040309219995000e-02
-6.565056222275290898e-02
-2.245119634795178509e-02
1.542395657717598317e-02
-2.090184392534493937e-02
-1.803158812474584677e-02
1.404360907974975701e-03
-2.334630719269983543e-02
4.357808354610072377e-02
1.956971568797330474e-02
1.273924722817712241e-01
-1.254540611557539431e-01
-1.588498642973168798e-02
2.401566129503147906e-01
1.377409162697745826e-01
-3.653254209917836028e-03
-5.087227962482780697e-02
3.336974416319479081e-02
2.665544364799990462e-01
1.890775072057063189e-01
-1.258994715067563441e-01
-9.819248239554349486e-03
7.484402982382386271e-02
-6.926246138953928710e-02
1.324126396260021377e-01
-3.320833133162536671e-02
1.115244268233808872e-01
3.968193213368507999e-02
-3.514939617344051137e-02
-1.797510994141067150e-04
-5.348277792461109126e-03
-4.309575945741081493e-02
7.115575480421326704e-02
-2.083766800307913780e-02
-8.226729879058111358e-03
6.497318296288449695e-03
2.463603842785932682e-02
-5.430260780864995182e-03
-1.674776682817783954e-02
-7.416052047630524759e-03
4.017653574184372467e-02
2.659458626217582524e-03
2.969209398377282635e-02
-1.461166862719901448e-02
8.290662285174258198e-03
5.775292154537981816e-03
2.508892603019946196e-02
1.156952971015794661e-02
-3.084169821357531441e-02
1.043575208829353000e-02
-1.057344441274897170e-02
-2.787419014147613492e-04
3.284617174887760616e-03
1.301614003270458279e-02
2.821263039802998293e-02
9.685963240090612880e-03
-2.498198525192937402e-03
-7.303015034023621101e-03
-2.124192668695384575e-02
2.008285000661390318e-02
3.934432506584054773e-02
6.780801789716743751e-03
4.332828126114107725e-02
-1.812766755141292582e-02
-6.940226080381401048e-03
-3.436106137858008225e-02
-4.554106753844377152e-03
2.180980078949535869e-02
2.793930338170786884e-02
5.083781353815026646e-03
2.067145458768387956e-02
4.371877705507157610e-03
5.669332058169995747e-03
9.857549283718534949e-04
1.071681558561993208e-01
3.353584615072500042e-03
1.332220094374086776e-02
2.446202968729860663e-02
-2.220067725441326849e-03
4.498585510311525065e-02
3.456222603283551353e-02
-8.622771588760416717e-03
-7.747819002017500289e-02
4.502557272917710046e-03
1.956742900513346040e-02
5.587220514822017862e-03
1.839470066436509413e-02
-6.136712607711039373e-03
-1.691032736636938552e-02
-3.366727955545696649e-02
-9.948038279519925628e-03
-4.231809445819120774e-03
1.220480487840866664e-02
5.475151081705335356e-03
1.695026352493604616e-02
-2.445593837249839149e-03
1.449773377468928544e-02
7.246579469901140956e-03
-1.832666424161414828e-02
2.732371480807154005e-03
-2.008568861742748152e-02
5.218345019466371325e-03
1.387855201586255145e-02
-1.427246932776292734e-02
8.462561906672480322e-04
1.589505242929424361e-03
6.086456683509373737e-03
5.132044676161407783e-03
2.051947294292308030e-02
5.575870688793187549e-03
3.702542964879244197e-02
-4.142998039505679103e-02
-1.242065959754090967e-03
4.587180056897752906e-02
4.201721464929009109e-02
1.319854871835702062e-02
-2.896966565118180847e-02
1.664988411046976202e-02
3.187104980481754446e-02
2.142082534864593255e-02
-3.649989971649660048e-02
9.916895749883559985e-03
2.702916094497702718e-02
-3.052009525735370488e-02
4.153112424332704167e-02
-1.976811991275546562e-02
-5.177181178355389803e-03
4.875773468561614421e-02
-7.848163321768616973e-02
1.043974616146439022e-01
1.063648439357340811e-02
-4.588794213471848044e-02
1.942224426969501594e-01
-9.812985373228054128e-03
1.348643482028741465e-02
-8.311464297217787235e-04
8.565584011004276355e-02
5.017903807899126711e-02
7.772297425606489348e-03
4.113815038180479444e-02
1.039459038983186756e-01
-2.323798858697720404e-02
8.850993640774325322e-02
-3.618573755031593425e-02
1.767610015844468807e-02
-5.606604956486737484e-02
5.016190833133286897e-02
-2.102307507045861681e-02
-1.289471090738060141e-02
-7.626742986051816310e-03
2.596302648953475664e-02
-2.336858074412284658e-02
1.791908293276190528e-02
2.217759470042925292e-03
1.748746362825138179e-01
-6.604132697493077242e-02
-1.687630142570693825e-02
7.868755949193778979e-03
-6.558544945690432393e-02
4.940585052102449901e-03
1.233534881655186100e-01
-5.025169922589603141e-03
1.587560787197473955e-01
-4.898620474571856176e-02
5.046495638380779636e-02
-5.113495615600397587e-02
-6.566737299600730604e-02
1.933024507503652151e-02
1.194776154589173300e-01
5.614888740401317857e-02
3.679199642750343585e-02
3.288206777139285331e-02
9.570658339884785537e-02
-1.211076454833834998e-02
2.527744853186646434e-01
1.332147507530347108e-02
6.166868832636534375e-02
7.349044394224349408e-02
-1.408442674546157630e-03
5.195962403737556384e-02
1.308759895986837674e-01
-3.927206363689975110e-02
-2.757520278542800463e-01
-1.022944867706988663e-02
5.686114304688089788e-02
-7.342102718304759947e-03
1.493637795355381298e-02
6.731919673005788522e-03
3.789073328259000718e-03
2.236560982874772827e-02
1.790802195004479944e-02
8.474177547525063581e-02
8.529902320054083553e-02
1.147010482312561981e-02
4.158315675633209724e-02
4.885206445116155316e-02
4.331802232867633384e-02
-1.424587273924606684e-03
-2.967655013644777615e-02
1.791207623595975377e-03
-1.847611398399258975e-01
-6.324255480133982033e-02
-3.789974340931372143e-02
7.765001230712224173e-03
5.670935222256781594e-02
-4.019168194563293994e-02
2.828837511747970407e-02
-2.320247449376879392e-02
3.475436592790452639e-02
8.659401314255240484e-03
1.216729304168451958e-02
-1.760762405546188181e-01
9.677139804478202337e-03
1.702369983512148355e-01
1.159520660434813222e-01
2.139890172083117742e-02
-6.503692642625398534e-02
2.981976820855591209e-02
2.075694416634498926e-02
-3.698965884705444906e-02
-2.107440425636731562e-01
-2.327689268175682155e-02
2.826595169768257587e-02
-8.642158368461645701e-02
-1.183328685004833569e-02
1.210874953465035896e-02
1.228481050456354529e-01
1.743334152968592510e-02
-5.993372367092780068e-03
3.055907213887599713e-02
-1.232536566572751664e-04
1.385743839668235333e-02
2.194456589524729218e-02
-9.642985583485125418e-04
-2.028172375681669068e-02
1.246457992699527735e-02
-1.245491492590289871e-02
1.237035488147148962e-02
-3.931251970600220177e-03
1.152239780671119110e-02
2.816652423710932444e-03
3.183163869025756442e-03
5.305791926831273861e-03
-1.844192439429979610e-02
2.039201693733480591e-02
6.123599804978476641e-03
2.263265943526297785e-02
-2.586543966648306280e-03
2.077056914052374109e-02
-4.765065221075122370e-03
2.586753128163738619e-02
2.103868796185589390e-02
-1.099294656915238838e-02
-1.541457942417980356e-02
4.954182106097832633e-02
-2.146967009301263551e-02
-8.649729216496015657e-03
-2.348714819600566245e-03
-1.363520739704257405e-02
3.402201251257941633e-03
3.534862175278771779e-02
7.899896923518525543e-04
-1.358756811112947147e-02
-1.110740007888659162e-02
6.896723409326880987e-03
3.018317056139819751e-03
-1.173398450418761639e-02
-1.035423855992836928e-02
4.327526664670180816e-03
-5.235136746456707686e-03
3.656994493374257464e-03
4.518150425342702323e-03
1.717940702131786485e-02
-1.278992529191271595e-03
3.362372854665574007e-02
-2.652472036855327286e-03
1.436032615402804517e-02
2.538557746636611531e-02
-1.176968197555250048e-02
7.949845500436555565e-03
2.466787993305551499e-02
-3.274589852114133393e-02
-2.600626094807768907e-02
1.532767258724738318e-02
2.516621526951796917e-02
4.544211492777168286e-03
-9.692872354031944332e-03
8.182853106734317913e-03
1.276530477162478132e-02
5.543990331267135974e-02
-1.305984757581977150e-02
4.764338462739475810e-02
2.169883720530606935e-02
-7.770876631973622217e-03
1.731762445398868366e-02
2.307696286918363773e-02
9.968391831837281405e-03
1.543450686443425222e-02
2.897553711293863327e-02
5.716890996657489690e-03
-2.878589996370859230e-02
1.768378848397012329e-02
9.630027430624257812e-03
-5.603688683018878333e-03
2.280914027085400100e-02
7.862850613053364371e-03
2.992862157737269727e-02
3.512248314658080774e-03
1.512604594988663231e-02
1.238228706195869562e-02
-2.619860091347521111e-02
-4.087143207242653273e-03
4.162152314968504095e-03
1.354266886844672328e-02
1.938925956610967893e-02
3.580683755419373517e-04
-1.151001251693551351e-02
7.173397594132394951e-03
-4.059181559238102949e-02
-4.236584525393494172e-02
-3.086232884963206052e-02
1.575098203078276540e-02
1.587648108143814574e-02
-8.962233522776932859e-03
-1.984398681710572779e-02
2.786429591592671715e-02
1.815428436572841253e-02
-8.806710034101997197e-04
-2.740250356366225742e-02
7.187796258501813473e-02
1.163513747323229736e-02
5.728658976818048337e-02
6.086803552993177296e-02
-3.024477986116137340e-03
-4.929127424000342983e-02
-4.190026576649756931e-03
6.749513768856108507e-04
5.868694449523332440e-02
1.272385980802594532e-02
1.756360677799229109e-02
1.640374169900573470e-02
-3.523735557758552600e-02
1.247612482051141045e-02
-8.619726650869521944e-02
5.089414811837317254e-02
-1.722749828230964869e-02
2.593896645952219540e-02
1.721764897632940480e-02
1.343782193939992674e-02
1.707240652031041112e-02
2.006690190405403459e-02
1.576443221021658209e-02
-4.839483073739912072e-03
-2.815089030359413987e-03
8.073472733735784224e-02
-5.908982925794918628e-02
-5.661564964940989098e-03
1.768157338481417392e-03
-6.180753408553817108e-02
2.018929467030822038e-03
3.617437345898088380e-02
-1.740154220465073287e-02
4.077443296017805793e-03
-3.122705772646624123e-03
3.430608231802284580e-02
3.395766706701743021e-02
-6.484130655315158143e-02
2.760345695056425422e-02
3.464742913392661328e-02
9.694097101407429806e-03
9.575522437792421612e-03
3.393795428823433158e-02
2.780429405141131641e-02
-1.793624749070867053e-02
1.851934195452733384e-02
-1.828470784076484900e-04
4.170948088638078838e-02
-1.168140281850747579e-02
-3.555882331942351003e-03
1.252550333641081794e-02
2.856291850210071134e-02
-7.428053854887681218e-02
-1.268098893465173516e-01
-4.375322109497810190e-03
4.661378896224583485e-02
1.600442109952812143e-03
-2.971528525303005625e-02
-5.406924501585324725e-04
5.525459214085134962e-02
3.174042179130737162e-02
-2.108953733915303400e-02
7.534245028370889496e-02
3.067721056763315218e-02
1.875595807157828115e-02
8.412298253169468373e-03
2.752906510377720051e-02
3.984158520075758991e-02
5.241318332558221431e-03
5.257371441804681994e-02
6.915048931048293178e-03
-1.036892833574625250e-01
3.377214794358818651e-03
-2.286249918240214341e-02
6.112624360476410536e-03
-7.313270856804918868e-03
-3.008137332237116254e-02
1.795094691994334564e-03
-1.116584028796380017e-02
-1.126287944186631258e-02
6.433922432222074876e-03
-6.579820587932294629e-02
-7.754151124869125555e-02
7.596936298143247557e-02
2.894598634991467009e-02
5.842362649319258333e-03
1.913298814921082997e-03
-3.413884118425871556e-02
-2.818721895018434093e-03
-2.757299241180529228e-02
-5.145772177234748251e-02
-1.213709637670094543e-01
-3.674126331928363916e-03
2.834010831962860671e-03
-5.201969161868496422e-02
-3.412633642605693990e-02
3.228460619805097187e-02
4.115513010324104576e-02
9.030349024764435309e-03
-1.370808682056945220e-02
1.251420136777090311e-02
3.865530423149048187e-03
-4.735031076289368535e-02
3.924780736254756403e-02
-3.534611920197027086e-03
1.465822766763428750e-02
-4.265440298019144635e-03
2.360645788456641400e-02
-5.963065973917754635e-03
6.789459862945573798e-03
7.362042777015923023e-03
3.293202995177761661e-02
6.902058439358774167e-03
4.958735305744978519e-03
-1.977730083928782440e-02
-1.173978921907350981e-02
-4.853200748521300720e-03
2.313657923069154312e-02
2.704837644750103867e-02
9.988704113248319735e-03
-6.898004592541306067e-03
-1.270281332863494247e-02
1.636796234503720693e-02
4.433224461885798204e-03
-6.186760312079602961e-03
-6.139484841469821730e-04
1.542397160991089249e-02
2.002076988590012640e-05
-1.460936017413165880e-02
-1.688889112723854918e-02
-1.666738381785460785e-02
2.478949129885517355e-02
5.380346796609370742e-03
5.692548877580914934e-02
5.649907881881337940e-03
-1.068397512631002327e-03
-2.549627744518083786e-02
7.724073632841383166e-03
8.983063751726106175e-03
4.145778672558492195e-02
1.244918235813400990e-02
2.911491054361784250e-02
-3.962056874829858119e-03
1.294696139928910167e-02
-3.524811043657215519e-03
9.331784793505894238e-02
1.361986865461579758e-02
-1.005844677861463454e-03
8.058570233025018695e-03
9.804464568905001814e-03
3.131667078181563091e-02
3.841269417251271662e-02
1.537754710450234784e-02
-5.561662019959235509e-02
-2.571797979132745601e-03
2.025321301358150652e-02
-4.504463269555674006e-03
3.663175435012719708e-03
-4.700087069816220875e-03
3.658289254437700191e-04
-3.611720691557173540e-02
1.559937723402680249e-02
1.311521848526297530e-02
1.655554736628241791e-02
-1.212128834559730167e-02
1.425988488367599394e-02
1.524403002232716658e-02
-1.044523010757925086e-02
3.630683181216325800e-03
-1.510103899601456662e-02
-3.347339134846307688e-03
-2.878508075511192026e-03
1.966756382223987590e-02
1.428961371538238143e-02
-1.154461149175775104e-03
-7.606974296128881687e-03
1.663052492177132663e-02
9.620619948622651310e-03
-4.637756001266400002e-03
5.052063859440261880e-03
3.294718635010093744e-04
2.470357446317957353e-02
-8.455262817302711467e-03
-9.507163588354006906e-03
4.183510875425062309e-02
1.856185626447524536e-02
-3.156917725588412240e-03
-1.063236101607850301e-02
2.253017676364353281e-02
6.633080531150470360e-02
2.440277504764305772e-02
-3.743900117239423730e-02
-6.686126803700248415e-03
2.625276287403393357e-04
-1.382096650393301214e-02
2.372524553405369607e-02
1.882799404669653794e-03
1.207137223616841677e-02
-6.322140498224861072e-02
2.128083679183989940e-01
5.625297183532295547e-02
-5.225411581898995253e-03
3.508581450573261540e-01
-6.019679587880588656e-01
-3.009046585981548904e-03
3.686628871567661503e-01
1.456285471745128422e-02
-1.251556479671022890e-02
-7.798686920209758899e-02
-9.719907847396560760e-03
-4.521963434635362794e-02
-1.874544271557497810e-01
-3.131628050212131864e-01
2.276761020782814005e-01
4.266732454932813945e-01
-8.561892410894342276e-02
1.008089264391670223e-02
2.191976082888850430e-01
-3.197025224010501820e-01
-3.138128195669458997e-01
-1.424014579128631171e-02
2.602457823057739428e-01
-3.722344365196186833e-01
-1.579488245219387230e-02
8.758837426121962588e-03
1.068449356259608685e-01
9.959710989065499731e-02
-1.295973223274557266e-02
2.145102401879208157e-02
1.388212078576672726e-01
8.645296653439925663e-03
1.768616264520537218e-01
1.762072187578574145e-02
-1.584565968989762597e-01
8.640991513267443080e-02
-4.880782338050382307e-02
4.491779199888814023e-01
-3.788158256864705420e-01
-5.391807606529822224e-03
2.650300178340601054e-01
-8.710572245011470593e-02
-3.106926865372537372e-01
-4.363281893177242340e-03
-1.647978645000462150e-01
6.181181980896141570e-02
-7.413331703588191823e-01
4.583156315988478613e-01
-9.558031372562653116e-02
5.733793223800745520e-02
3.884110264229233191e-03
-4.498330316745642321e-01
-1.563169103399280890e-01
1.653311997315519699e-01
1.547929418015504544e-01
-2.036848619810756669e-02
3.285033705613532584e-01
2.006712977734131237e-02
1.069608191203906405e-01
6.089165836514101593e-03
-7.469747497739150088e-02
3.360684407279335151e-01
-8.283224458176559682e-03
-1.811368796923239211e-01
-9.280745362819947664e-02
1.123937220709232861e-02
-1.908972636747605436e-02
2.010853422919300082e-01
1.035747856983554732e-01
4.454810271879080033e-03
1.002344859781554437e-01
6.110767270225797923e-03
-3.352291476692907946e-01
-3.258153802811703664e-02
-3.683425829397602574e-02
1.110096373183674587e-02
4.469126556226751257e-01
3.818752837838582798e-02
-5.675348407237820053e-02
6.274057126836467546e-01
4.820343096923938864e-03
8.057461953753443547e-04
5.581633218511126149e-01
8.922973670607331487e-02
1.284522743198552031e-01
2.758865298377712882e-01
2.615483631862134395e-01
-1.284089118580244993e-02
2.415246745182927576e-02
-1.207608123639911935e-01
5.180722914540373258e-01
-9.808375197190666306e-02
-2.055748855656305482e-02
6.869721144723632241e-04
-1.040196414556476129e-01
-1.518454881536636658e-01
-1.510030823250965160e-01
-9.566337487089059122e-02
4.927079034970280325e-01
2.392257422269821465e-01
1.489231014014382459e-01
2.639352936485775403e-01
-1.867153324830940139e-02
1.954595314291727726e-01
-4.186895315949318297e-01
1.919441609566664752e-03
3.688580769264302450e-01
2.129193165455287636e-03
5.774065815531764789e-02
-8.578886611649584604e-02
-1.643252631333979447e-02
-3.891451213368881529e-02
-3.674855169955999062e-02
-4.441145663372522145e-01
4.444272868272352017e-01
3.785293966036269442e-01
-8.754957800593289596e-02
3.111702180327130529e-02
3.044398267597747676e-01
-4.504099643395356178e-01
-4.321262226526221828e-01
6.388435784396621041e-03
4.625885149568553789e-01
-4.335892888640293097e-01
-2.185808746260838736e-02
-8.581653497788221789e-05
4.924281755247084669e-01
-2.188938974997153841e-02
-1.056280099156813902e-02
9.686573620015896668e-03
6.841733493007942646e-02
1.780233499463619324e-03
4.857561101842363116e-01
-1.311376677293084846e-03
1.002877059737458110e-01
9.408905003370578515e-03
-6.006219971689452652e-02
3.580670669278340768e-01
-5.717270974632698843e-01
3.853650326174299073e-03
4.044432776817701303e-01
2.356175629568877175e-02
-3.040896157218332951e-01
-2.219606202324976227e-02
-2.395820200287224547e-02
3.857401628470793348e-02
-3.799827625170302259e-01
5.419724137578632028e-01
-2.191173667043840034e-02
3.401791090819352714e-01
-1.192180977585505404e-02
-4.277467440981574387e-01
3.011607965408954340e-02
5.867043164942575134e-02
-4.380797402377335503e-01
-7.716101691179515047e-03
3.891938827808885670e-01
-2.185514674916053460e-02
9.770045798757862054e-02
4.218019859655640878e-03
-1.882957277460638179e-01
5.657663801236778589e-01
-1.161097177131046460e-02
-1.755228390597699251e-01
3.092163606521897493e-02
7.420746239916250694e-03
1.254257468822135291e-01
1.833318072594002091e-01
1.276560647655384517e-01
-1.090080282728872474e-02
-5.768303401520193108e-02
-1.858639000994674866e-03
-5.778419945648591849e-01
-1.061611188671775785e-01
2.450731772362457414e-02
1.754258511666053830e-02
7.683439749317073630e-01
5.243436315278357518e-02
1.584494458303903341e-01
6.131471019582286353e-01
4.095704392778674874e-02
3.345925648506788662e-03
5.374709291270384215e-01
-1.161602544223074435e-01
1.188278637848178831e-01
5.274587675619852867e-01
4.733784314432413765e-01
1.291387915309285140e-03
-4.617312838509630979e-02
-3.574887277371017330e-02
4.830913958665494778e-01
-6.219118355133204656e-02
-3.338778550686856694e-01
-3.979390520833704648e-02
-5.853929813843277569e-02
-3.001458210428932238e-01
-1.619616582875039734e-01
-1.824049331076456892e-01
8.778627082276220239e-01
1.866145734876048790e-01
1.238826089943160375e-02
1.050338338797856264e-01
7.449153114075310854e-03
-1.114935109576848105e-01
3.045248748371816305e-02
2.048246776848062914e-04
6.087877644132391741e-02
-4.111507220213083368e-03
4.811312309216228544e-02
-3.748353380326994999e-02
3.234974275802307044e-03
-1.292852348058430752e-02
8.308789126582323548e-02
-1.074911045826477257e-01
1.394798077054743013e-01
7.886301081407082192e-02
-3.287336374339107359e-02
1.616891699235988369e-02
1.146889708068781905e-01
-1.338941694871408072e-01
-1.384861788230873636e-01
1.440048818098332330e-03
1.489930089054391782e-01
-8.343433390412104134e-02
2.821629183609401532e-03
-6.411165122967707117e-03
2.110146321679477743e-01
4.341219224094894011e-03
-3.885750950643854229e-02
-2.985728952093603256e-02
-1.869522294702375895e-02
-2.312160354109814991e-02
2.287934981456747618e-01
1.134457917248363201e-02
1.420618910560637327e-01
-6.916558787594569158e-03
-2.881048466901426491e-02
1.321084129223059830e-02
-1.669627580577870141e-01
2.554139892178241417e-02
1.372729072785282278e-01
5.868914962586006118e-02
-1.280229874047121054e-02
-2.986168081200767013e-03
6.853399604635286579e-02
6.819791521612951143e-03
1.412183178232203629e-01
1.839337167912808713e-01
-1.112573580931689246e-02
1.842333668699925042e-01
1.722460456951720696e-03
-4.589148571946504579e-02
1.154236124947982944e-01
1.549911985816753573e-02
-3.506336842991044644e-01
-1.262476114491423509e-02
1.257102119704076870e-01
-1.801726499678658541e-02
6.445082048990578849e-02
-1.687869086010365324e-02
-8.424016351007648784e-02
1.838273323628567546e-01
-1.831193876350920057e-03
-5.387513853195757818e-02
7.177942607578474687e-02
-3.151933144480132711e-03
1.103615064781170718e-01
2.970712870410953041e-02
1.140724948121717673e-02
8.424928473551527783e-03
-8.996646058517220046e-02
-3.597668744680878640e-03
-2.036005246320813922e-01
-1.169164381672855441e-02
7.823921499332137097e-02
4.627640542810566859e-02
2.764193838410178850e-01
6.663315116127380144e-02
1.285950331193377594e-01
1.254787597953459510e-01
2.742295108729399244e-02
1.624993656905658265e-02
1.480294085528936210e-01
-1.498236667509984799e-01
7.012827313105407176e-03
2.199352050385331714e-01
1.575980122894578006e-01
-8.606215373069467638e-04
-4.959396405404842972e-02
2.873348920282790819e-02
1.672919355543245890e-01
-3.391719716391481364e-03
-1.959088905816618043e-01
-3.006586704526288331e-02
-2.999262980940751305e-03
-1.605243995161287351e-01
2.399800565493107746e-02
-9.180568687326759458e-02
3.401978472315825286e-01
2.470968568073550198e-01
-2.575941425959201239e-02
1.116757298965715267e-01
3.965028300243356868e-03
-1.596471717520891453e-01
1.946721260244017593e-01
1.023540882859158042e-02
-4.050518230054786506e-02
1.422386901496124068e-02
7.002283575109083391e-02
-1.402615811282777007e-02
-1.903744995971606803e-03
2.806010393090641736e-02
1.024545256267789528e-01
-1.316737749046412859e-02
1.308190981090558980e-01
-4.023816866246010537e-02
3.184424552792323570e-03
2.874927992728910919e-02
3.524606541862224801e-02
-2.020669357707494465e-02
-8.699739606009237319e-03
-6.700741029149143678e-03
1.293541334875099036e-01
2.671843306443123789e-02
-7.355102460619650576e-03
1.488325056886572037e-03
2.483786917458525312e-01
-3.650967183781369391e-02
8.449172989366529260e-03
-2.292778146733808267e-02
-6.033097596254102801e-02
2.230865145221010148e-02
2.144858309966543308e-01
-6.242252999832336065e-03
1.581884034257855509e-01
-3.044815887905010995e-02
1.624932781490288219e-02
-9.144120714560786956e-02
-5.832003770631986883e-02
8.885043393145344859e-03
4.369999204043296254e-02
1.202228897132413821e-01
5.821646561984281099e-02
4.453415787815578029e-03
1.159172208057133724e-01
-1.000326479376363424e-02
3.524646074814275498e-01
8.206548431686797040e-02
4.564911171215981639e-02
1.984979337429388646e-01
-6.008009944673927544e-03
9.399905197465047157e-02
1.516404681716287672e-01
-6.635759716025592392e-02
-3.681222895254130378e-01
4.868890123688156789e-03
1.726498419580525454e-02
5.144445706410540184e-04
3.065916357771331091e-02
5.419073278147577832e-03
-5.802405229144250165e-02
1.248848453965620553e-01
7.111241612861560896e-03
1.814303458414819048e-02
1.107749660691790816e-01
1.312970853021327294e-02
1.141572274813903443e-01
-2.666402802150524831e-02
-1.845628841637253145e-02
-1.485379278990825967e-02
-9.793032475696945849e-02
-6.378721516900684105e-03
-1.323791146241133088e-01
-2.339641078380887487e-02
9.462986475818373211e-02
1.566432192705904600e-02
1.995129475254600049e-01
3.762383337392589955e-02
1.746721505063624225e-01
-5.491804875198354197e-02
1.609543493306751782e-02
1.918274522798745678e-03
-1.211784444519246884e-02
-1.798090325543621193e-01
-6.038154471725701994e-02
1.340909231115022249e-01
8.331055955115052036e-02
-1.994505185241191719e-02
-4.538021511325135426e-02
9.150757745846772873e-02
-4.452523656765620952e-02
-2.176196380429104224e-02
-2.272270163080968297e-01
-3.800211851420246673e-02
4.574990150650435489e-02
-1.392830997047290742e-01
3.896344599223615368e-02
-4.576182958520456923e-02
2.032084461766839600e-01
1.574877711820152348e-01
6.097073354867950509e-04
1.653868066561323402e-01
1.540087163713610473e-03
1.103416625403556006e-01
-1.095565900754613860e-02
3.765741176471723919e-03
-3.516144868522306371e-02
-9.418804819934172012e-03
-2.115213956144082474e-02
3.498422592562876188e-02
-5.652500731422665896e-03
2.126608002236944281e-02
-4.451076372032958944e-02
-6.834108022555605844e-02
1.715611801748813670e-01
-7.279446411153589654e-03
2.217428555506110663e-02
3.576127917288009217e-02
4.427620699773499729e-02
-1.348568066857275816e-01
-7.297159384179789654e-02
-5.599509562885346750e-03
2.481912124176476608e-01
-1.478323634429080102e-01
9.859334908397132669e-03
-1.034437254964401184e-02
3.186790635858734455e-01
-1.932074442166738515e-01
-1.155444563467211347e-02
2.817562540841149835e-02
-2.540588235170261611e-02
-1.229037667816906994e-02
2.026085128507750521e-01
-1.182624667124263342e-03
-1.485272408808660238e-01
-1.033938634180942701e-02
3.204455208357148005e-02
1.019951831856150820e-01
-1.225595553699454221e-01
1.184777969430472928e-02
2.933693518515035834e-02
1.633266286818718313e-02
-8.860451911004939285e-02
1.578053170979395840e-03
1.239086886140737705e-02
-1.550697458854792890e-03
-8.744363672118091180e-02
8.810533131564692033e-02
8.732704006000863162e-02
1.163183834937881467e-01
-7.043294984790057951e-03
-8.396246797686311714e-02
2.886141110484109762e-02
-8.390884899315742551e-02
-1.001695640405643323e-01
-2.198772320907877408e-03
6.250381913803099154e-02
-2.814202318416535783e-03
-4.195068100778433229e-02
1.347609128978037411e-02
-9.012433722550422521e-03
2.843327385958415165e-01
-9.825804901395595800e-03
8.375437306088662215e-02
9.012681091362692576e-02
-6.284561375407777054e-03
2.321626951863618726e-02
4.019574390865521263e-02
6.586358525440740019e-02
1.255031815138914209e-02
2.528203551620065645e-02
-8.153100379187193728e-03
-2.165903977121372281e-01
-2.387970132293511932e-02
9.019865323356430348e-03
-8.194425533935270969e-03
2.599383872394623318e-01
1.576599085760085200e-02
1.131577014494270089e-01
3.332566223486756879e-02
2.232982860015070986e-02
-1.379970966136537204e-03
-9.513178569357635950e-02
-1.282006020260209045e-01
9.857494639668439376e-03
5.424333763986216583e-02
8.279471225370896303e-02
-3.881853481519294703e-04
-3.320301810114255348e-02
2.974240722306599471e-03
-2.060805472956167561e-01
-2.410603012619347008e-01
-1.885508148412312901e-01
1.293196646684119031e-02
-4.774279377632503762e-02
-4.843159493148953276e-02
-1.560736683164932193e-01
-2.243563494872076805e-02
2.195224912406138762e-01
3.293992462274415445e-01
1.617366815509119204e-01
1.868346837871906752e-01
-9.343664670893994662e-03
1.693325728795478380e-01
-1.584466591497401267e-01
-9.768195591665800037e-03
-1.342186933140444571e-01
-5.456049124265279632e-03
-9.430915926743563271e-02
4.370760847044982342e-03
2.741113040728719932e-02
3.545226693265683682e-02
-1.206569616802319195e-01
-1.370448619735327445e-01
2.088376878503363787e-01
-7.330827318288368755e-02
5.294618261918794880e-03
1.170618902500679959e-01
8.027032818604301623e-02
-9.290247620362980518e-02
-2.437489503323770484e-02
4.280665291332875697e-03
3.900474541337523582e-01
-1.003265029859193580e-01
-9.253804387358658193e-03
-8.277466497893137126e-03
4.116819424774159630e-01
-3.302790385063257839e-01
-4.952566365378874118e-03
4.705799726729675836e-02
-4.228994636119057932e-02
1.205056185438672586e-02
2.655662090063329872e-01
-3.623656187890294308e-03
-2.377950822212689386e-01
-1.476993953545866455e-02
-1.192836392850225684e-02
1.435604842200640108e-01
-2.632614557756334794e-01
4.017217551318712047e-03
-8.179464834713871813e-02
3.902017820205497256e-02
-7.785693139059104984e-02
-4.249755433035529335e-03
2.215713597395018233e-03
2.685732630180042834e-03
-3.081146760741524937e-01
1.769612803011524071e-01
7.717012755206324737e-02
1.948257040524850880e-01
1.418992969388438961e-02
-1.048125579126854418e-01
1.691487943211685691e-02
-1.106469457227721165e-01
-2.436790678057105808e-01
1.733160336995269229e-03
1.245808572704045457e-02
-6.276813330832606112e-03
-1.017562612912780301e-01
-1.792253120506129760e-03
-3.466147023446348313e-02
5.192875184986175396e-01
-4.401041752600429527e-03
1.646656134619909825e-02
1.355063425948824229e-01
8.627359726858149433e-03
7.029927771095190181e-02
3.332762448346134054e-02
5.391583923548674828e-02
-3.101067258702187163e-03
4.594732138909968233e-02
6.128948241098785416e-03
-1.730524051607346681e-01
7.236137161354397329e-02
1.736197878496637537e-01
3.165295261569194842e-04
4.126277259377540974e-01
1.598032607642536629e-01
2.853439547759205608e-01
4.349573749886719021e-02
-4.003287004075949118e-03
1.171380713359894670e-03
-2.023867618848942951e-01
-8.613516385497856087e-02
7.493963379298566874e-02
-5.824326087348002251e-02
5.038912603372690951e-02
9.891216537428653213e-03
-3.785070994875058131e-02
2.140702434590489173e-02
-3.766843112466450316e-01
-3.340520391301582404e-01
-2.021303762006384230e-01
-2.775294136249157120e-03
-7.275562856528920708e-02
-1.203113237819574410e-01
-2.902298828906675343e-01
-1.228207388724882228e-02
3.643680576892898704e-01
1.615991199701833358e-01
7.284693486623886050e-02
5.345671099962227141e-02
-8.256674219555698579e-03
-3.048622077924961066e-02
-4.334565137338421831e-02
4.833886166153522168e-04
6.790436278828624640e-03
-6.560665723619800611e-03
1.526043239827701986e-02
-2.234877117736933094e-02
-5.368009036912510350e-03
-2.213135301570248389e-02
3.142373740422876177e-02
-7.502782355436087014e-02
6.514973127529812003e-02
1.132549937386911031e-02
-1.148514422827742049e-02
5.494916546116784123e-02
7.978901696957947653e-02
-2.936138680737714925e-03
-3.606488364274319097e-02
-4.660908110566041630e-03
1.266422737584073366e-01
-9.082142252436147369e-04
1.608623219807886473e-02
-9.847163593747399260e-03
1.380931910335745361e-01
-5.038299953027772921e-02
-1.418376083541459873e-02
-2.040468330119097132e-02
7.094193397120780210e-03
-4.366744680653346714e-03
1.294723308912511806e-01
-1.964067440018519781e-02
1.912281461489961226e-02
-4.982565463066475353e-03
5.598889528327254464e-03
3.995179722920422921e-02
-1.003366771899646404e-01
3.185923396394927526e-03
2.635923729319269299e-02
4.135695793611819659e-02
3.058544959606865343e-02
-3.807869963883197075e-04
2.895028340069109168e-02
-3.977023120985282226e-03
6.702698905993621911e-04
1.174502110704219032e-01
2.765685080324238403e-04
1.169828495309979122e-01
-1.103252831935809183e-03
-1.779371404713801438e-02
4.772192797718285973e-02
1.925219246641851406e-03
-1.952631763233241280e-01
3.735933364557515127e-03
6.338640758441473066e-02
9.649168217977201895e-03
4.156961677585659098e-02
-2.218471782663632380e-04
-3.786353472650400009e-02
1.620980976128936490e-01
-4.517040487594660121e-04
-1.564261382491678731e-02
4.228029061312598563e-02
-8.591165206272160376e-03
5.950565483331455435e-02
3.861759431040545643e-02
6.476205551722491981e-03
1.327937076942581601e-03
-2.882013407287902299e-03
-5.717985927708433593e-03
-7.923510490295676556e-02
5.176633536530066138e-02
1.472384824413785209e-01
1.964153592393052400e-02
1.821914592687904899e-01
9.197875341837695451e-02
1.647262027827815500e-01
5.260313721217937943e-02
3.654800755409485374e-02
-5.077071137456013426e-03
5.232587247436536193e-02
-3.651808620312375214e-02
8.943213326761898993e-03
8.114026971637740282e-02
5.597914293140893865e-02
1.448113814347733869e-02
-2.536976507387729562e-02
3.406516607448414197e-02
3.838297111684126767e-02
-4.694483836306479613e-02
-8.988501445609616003e-02
-4.447702536743260507e-03
2.106451831616366552e-03
-6.581677772891149358e-02
-2.018714129373037208e-02
-7.882731336560239166e-02
2.160056180114793556e-01
1.168955183748958127e-01
1.760485562661244785e-01
1.807346855713523257e-02
2.915007415351283937e-02
1.337919311694985014e-01
-1.474950171660891207e-01
6.621048861876003763e-03
-4.449031455070682345e-02
9.226173823520953852e-05
-9.337204677897699423e-02
-2.635951678886104977e-03
3.204091839077388790e-03
-1.418992102549331176e-02
-8.699534428703993572e-02
-4.131999986666397284e-02
4.078172999932060810e-02
8.963888890169134302e-03
-1.425725968413861511e-02
8.833790449332785955e-02
4.108968810506833519e-02
1.134579133974342700e-02
-3.495988881831985085e-02
-6.302052883379251520e-03
1.742707775824887395e-01
3.420989318809104698e-03
1.010439788506004889e-02
2.754855511595566972e-04
9.470740923208192941e-02
-8.682250282500841854e-02
8.077287816421249017e-03
1.113349623183000452e-02
4.389974759663297504e-02
1.202761549585956539e-02
2.354213254924636400e-02
-1.292932838992174628e-02
-2.149999243965883822e-01
1.480879376509562119e-02
3.034781983123246291e-03
1.095589184915052305e-01
-8.618267392290478168e-02
-7.345540113913038086e-03
-9.285795384980802258e-02
-2.030496252303554475e-02
-1.762351801227466166e-02
-4.122084035086165561e-03
-3.469207028404100446e-02
2.429184862834118594e-02
-2.321935391258296011e-01
9.538067953373732810e-02
-1.155354698926264016e-02
5.137629464563224502e-02
-7.593371481966180309e-03
-8.147420936655619395e-02
-5.683823770013704535e-02
-2.223890095909835263e-04
8.224114983327557304e-02
1.678629804453911356e-02
-6.237041102050643569e-03
-7.522660896049097358e-03
-5.028318686953645034e-02
-4.397343002270260107e-03
2.795206924203696378e-04
2.604300892639152543e-01
-3.417051094611159561e-03
-3.757572301534613246e-02
1.133094006520712731e-02
1.318885209632245786e-02
2.944363961050573946e-03
7.970698842072584858e-04
1.179294643780679115e-02
6.208822861848578741e-03
7.615814946060978086e-02
7.671145119168799702e-03
-1.776573347461032557e-02
9.290085363118345818e-02
1.377038753369445867e-01
-5.347374280420937563e-03
1.509362611748595040e-01
1.425964990379209318e-01
1.593185440246218942e-01
7.648578382757370564e-02
-1.914843823283480725e-02
-6.116165219325008472e-04
-3.820239664082385189e-02
8.831839674243155414e-02
1.994321190697314478e-02
-1.157885976616150059e-01
-4.629749399038748242e-02
3.660163302212767096e-03
6.383312222443107697e-03
-2.099025734087835160e-02
-1.411657411747326285e-01
-1.202279110566693981e-01
3.164243327908388553e-02
1.312950624676788823e-02
-3.821628080505020536e-02
-2.883618608386550805e-02
-9.956964516928684672e-02
-1.614158914621901045e-02
7.939165642328604999e-02
-3.215265370558610843e-03
1.689209054657027061e-03
-9.917545316770688679e-02
-4.139585252326292118e-03
-1.625728562979451841e-01
1.708845001554156751e-01
-2.339876150101081152e-03
1.493499151645546197e-01
-1.427789797468087887e-02
1.364006035455431476e-01
-6.415956744110243304e-02
-6.227573793653383601e-03
-6.434908995165996952e-03
1.795785142878969509e-01
-5.569370795775656011e-03
-1.593811588931109274e-02
7.397306964958652586e-02
-3.204861717890587769e-02
-8.301083878129512580e-03
3.397717699144874037e-02
2.063803269978327914e-01
1.233799612374219395e-01
1.375546119922448941e-02
-1.514464135215366769e-01
3.148259409075112036e-01
6.324414765457046263e-03
2.268179313401639055e-04
-1.256177805348977217e-01
2.611594659836892207e-01
1.010547600184888862e-03
-5.363377435050299680e-02
-3.458732393464147153e-02
-4.242919891682587520e-03
-1.078670502837380564e-02
-1.530540245919457046e-02
3.747967341845648281e-01
3.461302438026094865e-03
-3.867998692694653295e-02
-1.050330771749531794e-01
1.144718548475383291e-01
-1.195303430526098790e-02
1.707351128863750234e-01
3.765673961161903477e-02
1.534445163784700361e-01
-2.777209348046574128e-02
7.572446187189514621e-02
-1.916539950302829920e-02
4.387412531670685234e-01
-1.557900942299905722e-02
-6.590794658748959367e-02
2.296485176523831162e-02
-8.595511517987623404e-03
2.492237180653500417e-01
9.125784288762869845e-02
6.346673957384077469e-02
-9.176008359149770421e-02
-7.241158900319939404e-03
5.230875957359314155e-02
-1.556247241456948545e-02
6.953530005710489847e-02
-5.335947542417210279e-04
-3.885794609696167218e-02
-1.668323563518198938e-01
-9.505652135246069620e-04
-6.486765773764713305e-02
2.464544108313712970e-03
-2.611868787994708809e-03
2.740597994380868097e-02
6.098292891701154184e-02
-6.714794791891869064e-02
-6.601840018171094282e-03
-9.111913054200701523e-02
9.980844374536791772e-04
2.141326774749999495e-01
8.609940384836456406e-02
1.380529093278647368e-01
2.304238070590115470e-03
-1.124705279268148062e-01
1.223591532185790004e-01
1.310234309028441776e-02
5.010298670573015006e-02
9.062619787984478939e-03
-3.246596281634945864e-03
2.498277135775050228e-01
1.145063882472060757e-01
6.107832141542285376e-02
2.235432711717298127e-01
1.001474635542621283e-01
-3.681794213830914732e-03
1.372607643372846485e-02
3.723669821070241248e-02
4.644423055282306256e-01
3.493425445307844490e-01
4.335780800634566473e-02
3.526686630336253042e-02
6.602802050283727853e-02
-9.912751487422591032e-03
2.808396684422446721e-01
-1.671251469637319992e-02
1.723257834742338707e-02
1.584142245130651105e-01
2.920825000238148547e-02
9.974311481123594725e-02
9.057803041455767326e-03
3.722018759263059917e-02
-1.058466114860641683e-01
-3.524405359179294799e-03
6.505519755557839789e-02
6.252763876710860751e-03
1.855094531008882539e-03
-2.167552758602988780e-02
-7.757357532784950153e-03
-2.313198355200777462e-03
-1.033169468639704748e-02
-1.327521370065502249e-01
1.750045233993527682e-01
9.025921696992826593e-02
-2.776280749925384705e-02
1.918914431040517551e-02
1.047966224189762763e-01
-1.561044894994817467e-01
-1.300431026983222271e-01
-6.529783050582764047e-04
1.834479489011728581e-01
-1.537270475535437442e-01
1.443398576458053070e-02
1.639646742946923412e-03
2.222975662163529653e-01
-4.126295858728968452e-02
1.386681217997957558e-02
8.088405018460186405e-03
-2.206271219050855159e-02
-9.237154841538756239e-03
1.945601063953133758e-01
7.046390555821319124e-03
4.406546168032681593e-02
4.898102168592763546e-03
-2.629272598342711695e-02
1.144044193504843154e-01
-1.847490822779905839e-01
2.845199581739486089e-03
9.924105950298896250e-02
2.375144626965401684e-02
-9.523996625502233193e-02
-1.462006766723091683e-02
1.455599689876745442e-02
1.213799455053787184e-03
-7.122996064653276671e-02
1.665453730430423163e-01
6.743296890811706704e-03
1.519895477450423915e-01
5.956085358822432556e-03
-1.429323836463841924e-01
2.878169729466150892e-02
8.779432388381793947e-03
-2.218858926899738848e-01
-1.639969914922045219e-02
9.768905200609259709e-02
9.568627457894695156e-04
2.761886523219171403e-03
-8.902215196484717166e-03
-6.130632243443130680e-02
2.341684620636408642e-01
8.331297674121863894e-03
-2.779743310694545930e-02
2.882069726246858782e-02
-1.421097507575084726e-02
5.424908100381513332e-02
3.900881791071403315e-02
3.371262875430564021e-02
7.292549199590899096e-03
-3.437216857270728593e-02
-2.323543453321052360e-02
-2.097531731118902065e-01
-6.841915260700109913e-02
2.428812939819706071e-02
7.820684717280401363e-03
2.856858248180163540e-01
3.783510249451691593e-02
9.585378830296042985e-02
1.694593390398691779e-01
1.773329082960847791e-02
1.194012153837856020e-02
8.596227034446006499e-02
-8.362562229550182802e-02
2.869388073972412370e-02
1.427964668417764094e-01
1.320009939551216871e-01
-8.783875071866295917e-03
-3.129823523694191117e-02
-3.324581438439738572e-03
7.435731635635343950e-02
-4.990281859238823031e-02
-1.488625450773119474e-01
3.300022128196934083e-03
-9.315196320187686674e-03
-1.183927486045832922e-01
-6.374019424057976446e-02
-6.474708644975510352e-02
3.089350529553310243e-01
1.319996844044046547e-01
-4.897794469604390549e-02
1.301912198515491892e-01
-2.946065644918454567e-04
-6.156393778670971040e-02
9.449536678689499092e-02
5.989069832429684721e-03
5.271591123847119142e-02
-1.447849788968914257e-03
2.227441800290109325e-02
1.707067417247559726e-02
1.124136365864149972e-02
2.943714285629024392e-03
6.392734026184716811e-02
-5.603438434369561322e-02
1.279578185556242975e-01
2.571143029323290363e-02
-8.923088824957169443e-03
9.325447495765836967e-03
6.718513876352720515e-02
-9.302972114343273369e-02
-6.995910454549104929e-02
1.721049456858892227e-02
9.720268534112454228e-02
-5.923705204261128787e-02
-1.106826938729504710e-02
-7.665385998644428690e-03
1.934181849555078603e-01
-3.567147497097223480e-02
-7.033602945689994106e-03
-2.874691916667178673e-02
-3.016921298267803697e-02
1.463732447980049464e-02
1.773348393732076533e-01
-6.610033512387572877e-03
9.490909728218278885e-02
-2.018950557878063448e-02
-3.211164530004906141e-03
1.307649480390127815e-02
-1.047184045264724500e-01
1.389313978042222217e-02
1.052454442464647033e-01
4.810776495561001898e-02
-4.016372904905465141e-02
2.171772318744901592e-02
9.033831610153041092e-02
4.103676081991880845e-03
1.662771639862054007e-01
1.210085278141510290e-01
3.442104740618578962e-02
1.498644187149692497e-01
-1.456156964551114097e-02
-5.732593878985288438e-03
1.012054405790643041e-01
2.431195843999619469e-03
-3.126387494317711124e-01
-1.070318823648163178e-02
8.334403914742011255e-02
-6.532798613313223375e-03
3.973729857813800698e-02
1.717406920333540768e-02
-4.161943373348910014e-02
8.474280380993395867e-02
1.412056838908968236e-02
1.619896540044703584e-02
6.673318339129814813e-02
-1.970402341145038178e-02
7.975955273796883627e-02
5.302505952064910655e-02
8.799321626949017580e-03
-8.655349297423660035e-03
-7.715291120377830436e-02
-6.324561473627592252e-03
-2.034608338253820758e-01
-4.112018713041343948e-02
2.791911961611354132e-02
3.861696844180629445e-02
2.055300416236597871e-01
1.426464025275824628e-04
8.981775848410886165e-02
3.496357405656818490e-02
2.731067517391830290e-02
-8.231428944827749727e-03
1.259235126777080022e-02
-2.098885941251652787e-01
3.227075782726068071e-02
1.959158263466276029e-01
1.362473814471945321e-01
-1.636366051126890084e-02
-5.607674153436570386e-02
2.903564504146827555e-02
-1.807449866404108041e-02
-2.471042280373957414e-02
-2.612732633681679184e-01
-4.664786148774523189e-02
4.336202507377717036e-02
-1.197886317185700711e-01
-9.575533866614315687e-03
-5.601034386701859991e-02
2.316873260623652508e-01
1.369990469451132509e-01
-6.127561201282558448e-03
9.243111663378258958e-02
9.179010327400261016e-03
-4.857204285553325118e-02
5.741768864440587733e-02
1.662862348847550520e-02
-2.624278939781549830e-02
-5.100380657556772765e-03
2.864553768200559652e-02
6.843973816708706463e-03
-7.271742750161431547e-03
1.208837095723959594e-02
3.655784570630369462e-02
-2.479663863090360645e-02
9.180683137689445161e-02
-1.737526479685145078e-02
-1.522362436551147509e-02
2.296710822810972205e-02
3.389456943809016770e-02
-5.033059228567509508e-02
-2.195810499487377276e-02
3.329598437441448101e-03
9.025838213664205689e-02
-2.109395993300124464e-02
2.003510519826826129e-03
3.748928284401372574e-03
1.620645776398193516e-01
-8.048392094949494147e-02
1.298693027562397920e-02
-3.111723991905651632e-03
-5.084840255004595411e-02
1.017556935087194150e-02
1.369268837362145608e-01
-5.160809396809496429e-03
4.562460103408921830e-02
-1.866353651767154939e-02
-9.812057637139308224e-04
-2.567660238830323655e-02
-4.637750169013183515e-02
2.947243509354892464e-03
3.590604360912531823e-02
3.308136298558912725e-02
8.762527313153162245e-03
-1.262411919721495232e-02
3.239138005135225318e-02
-8.739993289724667588e-03
1.106413592313011257e-01
2.974153732943837086e-02
3.085188011918750875e-02
9.176531126879211575e-02
1.644405195884765525e-02
3.334444941113450661e-02
6.598155528578826534e-02
-3.509343695857709833e-02
-1.697971428706198938e-01
1.173145216200046671e-02
4.450365028718884092e-02
-1.630955179333211597e-03
-8.095830598195793287e-03
3.517038960522798235e-04
-2.578988667872921664e-02
1.056583412803192429e-01
-2.534525176284063881e-03
1.339272253819260433e-02
5.612275811417068855e-02
9.858573946649167724e-03
4.053508113856033740e-02
-5.483686882053909716e-03
1.253678367238099216e-02
-8.827573924518255372e-03
-3.351836726444220455e-02
5.036457997624864055e-03
-8.184188651499767209e-02
-2.011427448207079791e-02
5.112238991714786185e-02
1.478320145191115362e-02
1.129098395881239225e-01
1.684754813120973790e-02
1.074966174127425511e-01
-1.836221196034062628e-02
2.045170321703571395e-02
-1.219748443080580225e-02
-5.167009428331697379e-02
-7.602669309375170714e-02
-2.865144226603191530e-04
4.961074689019820405e-02
3.644434296815464436e-02
1.408775426077263352e-05
-3.242225728408538316e-02
2.620153875413459843e-02
-8.368945491899965061e-02
-7.297145861755012508e-02
-1.254643412633409394e-01
-2.083642307801161428e-02
2.049208124481790552e-04
-6.346958268620006560e-02
-2.324778093811668070e-02
-2.682827939105539641e-02
1.233829261294322605e-01
2.126547092517953874e-01
8.907707100058387395e-02
2.646711086423920167e-01
-7.024251541154279826e-03
3.852414247106130119e-01
-1.220049860909767775e-01
-1.289681317277805925e-02
-1.185727138476525139e-01
-7.791755810035797154e-03
-1.122038243222152065e-01
9.775873464612520880e-02
-2.084901026886005202e-04
7.199787949588278002e-02
-1.759251554358627900e-01
-1.188830875830273609e-01
2.195488659684483868e-01
-1.201451599789402774e-01
5.872778028003002027e-02
9.646958563656882202e-02
7.102394113157124711e-02
-1.074269016868480420e-01
1.021991216426075023e-02
-1.056278445290567518e-02
4.428986759931663464e-01
-1.845576619276826924e-01
1.290443896859618661e-02
9.384032396903862691e-03
5.125970266161208322e-01
-4.191119901898354705e-01
-3.381611630976323352e-03
9.285923296719350573e-02
-9.186033204070623293e-02
1.413819347711642652e-03
2.262614205310050364e-01
-8.304589665073698612e-03
-3.969142204063623169e-01
-1.241046982306703676e-02
8.645176402554631545e-02
2.524875737372895834e-01
-2.924849938605637578e-01
-9.212479032781355952e-04
-7.083625404433029071e-02
-6.092399013095841330e-03
-1.404354037087147122e-01
2.479172984830377291e-02
-4.184087876916526422e-02
1.236470868348865616e-03
-4.368709153286798319e-01
8.105649383587151813e-02
1.235993616071477813e-01
1.132579758606227088e-01
7.571668881017616648e-03
-1.718096757355332405e-01
-3.884346808181469990e-02
-1.595475016723622574e-01
-1.141122342194434008e-01
1.950597091021568502e-02
3.190714175382076967e-02
-5.609983450999873542e-03
-1.202021387024829885e-01
-5.193983653626488110e-03
6.168254762333532509e-02
5.764191201972492795e-01
-4.852430302430126539e-03
1.663185917267383240e-01
1.112273946960320864e-01
-1.567190408253398004e-02
2.073616288817999725e-02
1.033479392476064213e-01
1.350076048038001408e-01
-1.387155184795499721e-02
1.851910438085558885e-01
5.944138562833731730e-03
-3.636466950924504005e-01
3.239143890543838555e-02
4.499866121277081021e-02
-2.110443568767382191e-02
3.489105385049359742e-01
5.267769197664329273e-02
1.898470089152294316e-01
7.686561922080117903e-02
-1.163015079249502676e-02
1.609033418927913184e-02
-2.948761601180959757e-01
-1.652119302951262636e-01
1.330297325452454160e-01
-9.042802442514095984e-02
7.710443918447884570e-02
-1.980403550429333127e-03
-3.862220109019649100e-02
-2.988591090717289747e-02
-5.346704179838508431e-01
-4.707776091069464930e-01
-2.859623744145535218e-01
1.189904910402729554e-02
-7.376441904297949270e-02
-9.508338942353926349e-02
-3.983697882350686892e-01
4.959287916462123275e-02
3.037458140294209130e-01
1.293067135067341999e-01
4.921787901271663934e-02
6.292636043222148146e-02
3.432361355002778308e-02
3.362960549589466552e-02
-3.395229783219867042e-02
2.676796171135598697e-03
-2.472179133520097452e-02
-1.190054682183948678e-02
-1.388368599275781844e-02
-2.019387493142573223e-02
1.672321156008273538e-02
-4.349583153788896296e-03
-2.983554787708653927e-02
-4.043263129388289384e-02
5.990400861246474723e-02
-7.210436618680080879e-03
1.117882675654587911e-02
4.524485092009501719e-02
3.440305615519741178e-02
-4.414860796887029593e-02
-2.648655876417290583e-02
7.111423172147759335e-04
1.519929167960873406e-01
-3.758380397726356070e-02
-3.034642872652395813e-03
1.457236132642580895e-02
1.125119509800763112e-01
-9.595458415382625283e-02
